1899 172
0 1.0 1.0 1.0 1.0 1.0 1.0 1.0 1.0 1.0 1.0 1.0 1.0 1.0 1.0 1.0 1.0 1.0 1.0 1.0 1.0 1.0 1.0 1.0 1.0 1.0 1.0 1.0 1.0 1.0 1.0 1.0 1.0 1.0 1.0 1.0 1.0 1.0 1.0 1.0 1.0 1.0 1.0 1.0 1.0 1.0 1.0 1.0 1.0 1.0 1.0 1.0 1.0 1.0 1.0 1.0 1.0 1.0 1.0 1.0 1.0 1.0 1.0 1.0 1.0 1.0 1.0 1.0 1.0 1.0 1.0 1.0 1.0 1.0 1.0 1.0 1.0 1.0 1.0 1.0 1.0 1.0 1.0 1.0 1.0 1.0 1.0 1.0 1.0 1.0 1.0 1.0 1.0 1.0 1.0 1.0 1.0 1.0 1.0 1.0 1.0 1.0 1.0 1.0 1.0 1.0 1.0 1.0 1.0 1.0 1.0 1.0 1.0 1.0 1.0 1.0 1.0 1.0 1.0 1.0 1.0 1.0 1.0 1.0 1.0 1.0 1.0 1.0 1.0 1.0 1.0 1.0 1.0 1.0 1.0 1.0 1.0 1.0 1.0 1.0 1.0 1.0 1.0 1.0 1.0 1.0 1.0 1.0 1.0 1.0 1.0 1.0 1.0 1.0 1.0 1.0 1.0 1.0 1.0 1.0 1.0 1.0 1.0 1.0 1.0 1.0 1.0 1.0 1.0 1.0 1.0 1.0 1.0
1 -0.68919426 -0.5530764 -0.87074757 0.9595608 -0.8534203 -0.7617168 0.7742958 0.40670502 -0.7965611 -0.8634107 0.6742041 0.23777854 0.8729431 -0.95836407 0.7536418 0.5009388 -0.5044818 -0.8167075 0.55301344 0.16212538 0.55766416 0.8134761 -0.087522365 0.84148866 0.61922264 -0.31106308 -0.7886978 0.94703937 -0.5188458 -0.042941332 -0.8644648 0.3883022 0.15144601 -0.8511377 0.09715432 0.48756507 0.054779693 -0.22216782 -0.052924708 -0.3800449 0.13395113 0.22404432 0.73963183 -0.74974316 0.98576707 0.4022255 -0.13014837 -0.43326318 0.44492716 -0.5307428 0.5506658 -0.115622714 -0.9898849 -0.27930692 -0.914122 -0.16344225 0.082680255 0.54964304 0.76790494 -0.10103978 0.34210968 0.9809422 -0.008302838 0.15466967 -0.75879586 0.68803966 -0.58701634 0.69796944 0.7136329 0.7771496 -0.6486589 0.75067174 0.57217765 0.06805357 -0.4366855 -0.43826026 -0.13758987 -0.78007144 0.18988238 0.40389588 -0.21801853 0.92782325 -0.40778685 -0.5399365 -0.18216659 -0.79561585 0.23356637 -0.17840129 -0.8125308 0.8248436 -0.49284714 0.92037165 0.20713863 -0.26696062 0.9557839 -0.43334872 -0.65677255 0.32737434 -0.23347047 -0.50197095 0.8886542 -0.40201902 0.55784225 -0.05257061 0.1732958 0.5806128 0.3204157 -0.56337297 -0.38721016 -0.8335578 -0.031910673 0.7085923 0.648217 0.19920193 -0.49909502 -0.694461 0.18086681 -0.5911174 -0.087775774 0.5274865 0.89511925 0.102308124 0.28648734 -0.10831584 0.45582426 -0.24606603 0.027523814 0.7559899 0.07490397 -0.5890098 0.59621996 0.732315 0.77539265 -0.70996225 -0.10876168 0.7018167 0.21086667 -0.36429042 -0.4048494 0.54981315 -0.11385038 0.69671214 -0.37963736 0.9293226 0.14963566 -0.591305 -0.11550904 0.7753055 0.6732724 0.7551748 0.56331784 0.52836204 0.89999545 -0.035158753 -0.28822684 0.33587635 0.78759354 0.1929944 -0.21774125 -0.8894098 0.83747375 0.32115033 -0.46581885 0.7825616 -0.35240084 0.8580916 -0.69108635 -0.026562527 0.32808065 -0.8741522 0.16325592 0.58967793
2 -0.68482095 -0.3270301 -0.6799524 0.6961285 -0.5689487 -0.77099705 0.30901065 0.7994247 -0.8547372 -0.55512726 0.6845565 0.11843868 0.8219438 -0.95230436 0.42092848 0.28977013 -0.5029448 -0.74341947 0.4922102 0.3865029 0.4933073 0.79795307 -0.05397454 0.7013086 0.82563454 -0.50533897 -0.6158823 0.8032036 -0.3293739 0.3402466 -0.5893238 0.23707515 -0.09058787 -0.52908105 0.063991845 0.72717464 0.07817328 -0.24352908 0.0055314302 -0.19950712 0.172631 0.37399876 0.7924133 -0.75347215 0.92445564 0.19204742 -0.21950464 -0.49606967 -0.028734928 -0.5969571 0.33407012 -0.4482064 -0.9689369 -0.25541097 -0.83043855 -0.058257103 0.21431205 0.48326123 0.56881744 0.13969326 0.55142206 0.97177386 0.02182062 0.13505128 -0.46807972 0.6320934 -0.7360643 0.5302856 0.5546425 0.66898715 -0.5787642 0.6835291 0.45056656 -0.05632297 -0.21629019 -0.047628082 -0.027390808 -0.5527414 -0.01647192 0.11492628 -0.4190985 0.92434245 -0.27502242 -0.34590256 -0.10035694 -0.7529602 0.103057474 -0.10067988 -0.5235035 0.5332058 -0.32804263 0.70852745 0.635385 0.02756986 0.7984228 -0.32066745 -0.673644 0.22262934 0.085393816 -0.41466105 0.8774705 -0.075335324 0.39950094 -0.34925765 0.2843457 0.43600923 0.20564413 -0.57809913 -0.114166856 -0.8815256 -0.22690977 0.74128604 0.048521258 0.31442097 -0.27330634 -0.66243315 0.41735148 -0.34771228 -0.40753558 0.351759 0.8619442 0.20585433 0.31671262 -0.069548875 0.34920222 0.32517612 -0.1491676 0.57066774 -0.40805405 -0.16895264 0.6004402 0.61477685 0.53282636 -0.2873837 0.63798505 0.6847984 0.10718601 -0.0014968142 0.118860394 0.35083792 -0.5264448 0.5337748 -0.09281036 0.77428335 0.22202052 -0.6927594 0.34393114 0.79242647 0.38674375 0.76511985 0.6508504 0.51239264 0.80348647 -0.036272332 -0.06934649 -0.008003056 0.32028037 0.029978663 -0.22045875 -0.8200393 0.60198045 0.34668148 -0.1990173 0.46563604 -0.35593915 0.6899722 -0.5424173 -0.045680907 0.40550393 -0.7829205 0.29276103 0.72604877
3 -0.65296346 -0.60346246 -0.9299078 0.9388124 -0.75052047 -0.598352 0.7130873 0.55793583 -0.79108506 -0.95116043 0.42444256 0.47229078 0.8627291 -0.9757142 0.53801155 0.6072278 -0.66124505 -0.7544324 0.30811068 0.16022366 0.32266772 0.86937565 -0.011530399 0.84691197 0.7385687 -0.4899089 -0.64009076 0.8943339 -0.4546767 0.3003009 -0.9065155 0.38686025 -0.5819733 -0.715044 0.2135256 0.5028721 -0.15487412 -0.14029804 -0.010381237 -0.23719816 -0.17166024 0.20485702 0.919199 -0.6403843 0.92159504 0.14692709 -0.14933771 -0.23235592 0.23678015 -0.47532684 0.4391302 0.14273278 -0.9955356 0.11335692 -0.89385337 -0.46184894 -0.12297054 0.6511414 0.73935694 0.09714241 0.07284414 0.97580636 -0.488618 0.17020968 -0.42418647 0.87551254 -0.88967395 0.7566349 0.7494765 0.70455945 -0.79904974 0.8004249 0.5404065 0.106168866 -0.49759665 -0.12605605 -0.13201527 -0.9051871 0.14096415 0.49796873 -0.644899 0.97905225 -0.473612 -0.3735351 -0.07133971 -0.80382806 0.11826405 -0.23398894 -0.8144331 0.6607395 -0.21462466 0.8085335 -0.035570174 -0.35774773 0.92137927 -0.6679551 -0.7040808 0.35313898 -0.030943811 -0.39669827 0.8797929 -0.45684314 0.39290637 0.08167991 0.053742662 0.50116515 -0.07829542 -0.7303784 0.18752167 -0.7784104 0.17944387 0.41939273 0.68671036 0.36732632 -0.51532716 -0.49380165 0.6926962 -0.623991 -0.09441606 0.4913363 0.95587635 0.4077147 0.42992428 -0.16647848 0.60659885 0.31753433 -0.14993498 0.8964014 0.3224708 -0.43618575 0.48820674 0.46751496 0.8624913 -0.7388827 -0.042623907 0.68178296 0.4505177 -0.11990338 -0.16224644 -0.1581637 -0.34484538 0.60238767 -0.3036393 0.7656206 0.31059211 -0.58655065 0.17336117 0.8994941 0.70264786 0.8881418 0.74021685 0.7216074 0.8370816 0.12077977 0.059434354 -0.35821554 0.6927132 0.45557845 -0.24129674 -0.9149377 0.7060021 0.7851445 -0.23852399 0.7651293 -0.5459045 0.9246936 -0.5554313 0.05573482 0.3647238 -0.7579696 0.49533987 0.43002826
4 0.0 0.0 0.0 0.0 0.0 0.0 0.0 0.0 0.0 0.0 0.0 0.0 0.0 0.0 0.0 0.0 0.0 0.0 0.0 0.0 0.0 0.0 0.0 0.0 0.0 0.0 0.0 0.0 0.0 0.0 0.0 0.0 0.0 0.0 0.0 0.0 0.0 0.0 0.0 0.0 0.0 0.0 0.0 0.0 0.0 0.0 0.0 0.0 0.0 0.0 0.0 0.0 0.0 0.0 0.0 0.0 0.0 0.0 0.0 0.0 0.0 0.0 0.0 0.0 0.0 0.0 0.0 0.0 0.0 0.0 0.0 0.0 0.0 0.0 0.0 0.0 0.0 0.0 0.0 0.0 0.0 0.0 0.0 0.0 0.0 0.0 0.0 0.0 0.0 0.0 0.0 0.0 0.0 0.0 0.0 0.0 0.0 0.0 0.0 0.0 0.0 0.0 0.0 0.0 0.0 0.0 0.0 0.0 0.0 0.0 0.0 0.0 0.0 0.0 0.0 0.0 0.0 0.0 0.0 0.0 0.0 0.0 0.0 0.0 0.0 0.0 0.0 0.0 0.0 0.0 0.0 0.0 0.0 0.0 0.0 0.0 0.0 0.0 0.0 0.0 0.0 0.0 0.0 0.0 0.0 0.0 0.0 0.0 0.0 0.0 0.0 0.0 0.0 0.0 0.0 0.0 0.0 0.0 0.0 0.0 0.0 0.0 0.0 0.0 0.0 0.0 0.0 0.0 0.0 0.0 0.0 0.0
5 0.0 0.0 0.0 0.0 0.0 0.0 0.0 0.0 0.0 0.0 0.0 0.0 0.0 0.0 0.0 0.0 0.0 0.0 0.0 0.0 0.0 0.0 0.0 0.0 0.0 0.0 0.0 0.0 0.0 0.0 0.0 0.0 0.0 0.0 0.0 0.0 0.0 0.0 0.0 0.0 0.0 0.0 0.0 0.0 0.0 0.0 0.0 0.0 0.0 0.0 0.0 0.0 0.0 0.0 0.0 0.0 0.0 0.0 0.0 0.0 0.0 0.0 0.0 0.0 0.0 0.0 0.0 0.0 0.0 0.0 0.0 0.0 0.0 0.0 0.0 0.0 0.0 0.0 0.0 0.0 0.0 0.0 0.0 0.0 0.0 0.0 0.0 0.0 0.0 0.0 0.0 0.0 0.0 0.0 0.0 0.0 0.0 0.0 0.0 0.0 0.0 0.0 0.0 0.0 0.0 0.0 0.0 0.0 0.0 0.0 0.0 0.0 0.0 0.0 0.0 0.0 0.0 0.0 0.0 0.0 0.0 0.0 0.0 0.0 0.0 0.0 0.0 0.0 0.0 0.0 0.0 0.0 0.0 0.0 0.0 0.0 0.0 0.0 0.0 0.0 0.0 0.0 0.0 0.0 0.0 0.0 0.0 0.0 0.0 0.0 0.0 0.0 0.0 0.0 0.0 0.0 0.0 0.0 0.0 0.0 0.0 0.0 0.0 0.0 0.0 0.0 0.0 0.0 0.0 0.0 0.0 0.0
6 -0.76978964 -0.522639 -0.7334832 0.9106854 -0.7785446 -0.62166965 0.5954404 0.90586007 -0.85171014 -0.89895004 0.6378601 0.56802046 0.8725128 -0.9320439 0.6242259 0.5451853 -0.6892739 -0.76152116 0.30773866 0.22545548 0.066472426 0.9061419 0.03464465 0.86498934 0.6620483 -0.4059776 -0.6430038 0.9561515 -0.44484085 0.38347784 -0.84633964 0.3909613 -0.6893536 -0.7788073 0.07638223 0.45703483 0.07229068 -0.029415905 0.13289738 -0.47807807 -0.10386839 0.3229745 0.88765043 -0.83039546 0.9533646 -0.058367282 -0.23717114 -0.40325373 0.38331392 -0.57462656 0.3190824 0.008301748 -0.99633896 0.03660342 -0.9121385 0.18154943 0.46180764 0.6299026 0.57367307 0.09385411 0.7631384 0.9655296 -0.09874761 -0.0827772 -0.6408607 0.8169918 -0.70816296 0.6219326 0.69733506 0.6788871 -0.75057685 0.5115365 0.6961195 0.21850447 -0.43654716 0.0632926 -0.18499225 -0.8903723 0.044735346 0.2577663 -0.6849535 0.89594185 -0.44200298 -0.19222374 -0.11528203 -0.62578565 0.23273727 -0.252423 -0.78615516 0.6876151 -0.3302537 0.9479315 0.58753264 -0.37553823 0.92017835 -0.6118343 -0.8183391 0.31905904 -0.18499371 -0.32468086 0.8817836 -0.5424672 0.28789976 -0.07218881 -0.05236675 0.25061485 0.16180837 -0.8272498 -0.6657474 -0.847729 0.56581765 0.5850402 0.8404556 0.12764457 -0.5736965 -0.5034933 0.35827416 -0.37100497 -0.33650047 0.15659648 0.94840723 0.46111786 -0.23473664 -0.021882772 0.58432496 0.50846565 -0.22414571 0.7779232 -0.2570679 -0.52646977 0.553483 0.7074156 0.65844035 -0.6027204 0.03751734 0.7643541 0.25673452 -0.10874519 -0.4555121 0.65633124 0.123386785 0.68821394 -0.42338383 0.6832615 0.033586368 -0.702433 0.50407964 0.9095862 0.5395484 0.7693882 0.9185874 0.79636204 0.90137506 0.015541998 0.26694202 -0.023756355 0.63052624 0.6412573 -0.1535348 -0.88479686 0.7503617 0.5607503 -0.22666493 0.7875283 -0.4823383 0.8883622 -0.47616023 0.07135928 0.6166928 -0.5596145 0.65968835 0.73488545
7 -0.52034384 -0.19632784 -0.69807136 0.52073526 -0.6381772 -0.6624742 0.10373658 0.42843747 -0.62293065 -0.6585877 0.4426507 0.34752685 0.6506062 -0.73502845 0.14024553 0.23167595 -0.13623159 -0.7221347 0.30713207 0.38798216 0.53681535 0.69828224 -0.05274728 0.49257776 0.57574195 -0.3682812 -0.51923126 0.51304364 -0.11852655 0.25814816 -0.40140438 0.14217019 -0.23950678 -0.4616053 0.11897741 0.19038138 -0.19160026 0.031096708 0.06893813 -0.25241745 0.013652176 0.17676139 0.8065612 -0.40959144 0.6582917 -0.074889064 -0.32706678 -0.18633825 -0.04111609 -0.3499339 -0.1474385 -0.16034293 -0.75368375 0.11663252 -0.7690345 -0.1289497 -0.17098583 0.6738574 0.25359094 -0.045088053 0.75471497 0.9277796 0.0008240789 -0.6029236 -0.33635667 0.4079805 -0.50609756 0.4841627 0.539809 0.6469037 -0.80747545 0.70615673 0.05306948 0.07551883 -0.18077168 -0.41821593 0.14944911 -0.45439428 -0.59816945 0.119526625 -0.42420262 0.73763573 -0.19374928 -0.1878361 0.050420165 -0.45910332 0.1553936 -0.09139952 -0.6445842 0.40254337 -0.55270356 0.6847551 0.3537712 -0.1621108 0.5871618 -0.12440167 -0.40700382 -0.011558682 -0.38087678 -0.2335878 0.7406179 -0.34550458 0.025756061 -0.3051778 -0.31713307 0.49447116 0.04813119 -0.72990656 0.45131612 -0.681035 -0.035390154 0.59257734 0.34337163 0.21053287 -0.20671825 -0.36178622 0.39790255 -0.11663365 -0.66452664 0.073435634 0.79658794 0.1649222 0.22539094 -0.051410865 0.18258536 0.04952684 -0.4542268 0.4143646 0.36214945 -0.34487978 0.6154687 0.5231868 0.47766784 -0.44579703 0.08998737 0.35733944 -0.12255716 0.20454156 -0.2936062 -0.040847227 -0.020731777 0.27079618 0.15901057 0.2641886 -0.13956195 -0.62022966 0.043523647 0.6940307 0.5104325 0.77561414 0.64012945 0.6259672 0.71094865 0.15559468 -0.20482738 0.030484483 0.5041633 -0.28084934 -0.07880615 -0.45300817 0.40705636 0.06682821 -0.13924927 0.5238558 0.22720101 0.34645414 -0.069261245 0.2912779 0.36640382 -0.61408573 0.032288536 0.35791612
8 -0.54139245 -0.5046366 -0.91154534 0.8975239 -0.8731383 -0.88644814 0.684684 0.8505141 -0.8640243 -0.7350013 0.78485155 0.36703062 0.8938942 -0.94182825 0.6863671 0.30863425 -0.6586305 -0.77558124 0.39020127 0.29359582 0.4213609 0.7471933 -0.13343778 0.8325619 0.7668144 -0.5219328 -0.68998194 0.97081935 -0.5573654 0.10883372 -0.8360784 0.38634086 -0.43495056 -0.55272824 0.1915932 0.45653734 0.12472989 -0.12735267 0.031617448 -0.7969967 0.047909677 0.3995453 0.85517675 -0.8823242 0.96505195 0.0023198426 0.13185653 -0.34393087 0.2507339 -0.71139044 0.7810406 0.41397482 -0.99177045 -0.42675924 -0.87998074 -0.739155 0.10837407 0.22335365 0.7129698 0.48012874 0.2613003 0.94073516 -0.27029175 0.3640627 -0.62614113 0.7980539 -0.7739203 0.76352584 0.8088581 0.5034421 -0.8592782 0.46190655 0.48105234 0.20389742 -0.44441336 -0.26805103 -0.25250146 -0.7826563 0.19541448 0.4212749 -0.7133045 0.97002804 -0.5277179 -0.17744966 -0.049904644 -0.71237445 0.109162584 0.044170715 -0.8065467 0.71115184 0.07741233 0.78274363 0.4437399 0.052651476 0.91920966 -0.3420115 -0.76975155 0.29209864 -0.19721548 -0.35715204 0.9393741 -0.27841005 0.27355492 -0.17899606 0.02734646 0.41124976 0.01688835 -0.6789483 0.3537017 -0.88293904 0.09945361 0.14546897 0.59747523 0.20274284 -0.51911443 -0.5130406 0.53479284 -0.42791757 -0.047926903 0.5883918 0.86559975 0.121310756 0.052207217 -0.27971855 0.54477304 0.07805735 0.035648078 0.69840264 -0.043889888 -0.4524088 0.468627 0.7837718 0.7225893 -0.52940106 0.6388944 0.72542846 0.16830519 -0.2919742 -0.22444767 0.33208132 -0.3852808 0.65817523 -0.50998914 0.8144905 0.1330166 -0.7883909 -0.031218648 0.90581024 0.4649283 0.8545899 0.60629725 0.63140136 0.9263658 -0.14562206 -0.31424716 0.11013639 0.5309109 0.11255215 -0.19608146 -0.90570503 0.7901074 0.48834336 -0.3001336 0.65505934 -0.5577851 0.90363526 -0.48829854 -0.0731395 0.4799625 -0.6605612 0.32438323 0.1306671
9 -0.42680869 -0.5183477 -0.92195046 0.88608783 -0.78122175 -0.71413434 0.6928979 0.4257594 -0.8560738 -0.8598088 0.68068767 0.6694813 0.8933374 -0.9436432 0.1539608 0.34264764 -0.4306445 -0.8734308 0.4484642 0.24564347 0.44071183 0.904887 0.039506227 0.9055643 0.7899511 -0.3082434 -0.3077556 0.9015319 -0.32120353 0.40081957 -0.8652456 0.3665567 -0.68571925 -0.8328986 0.2546891 0.70874137 -0.22447091 -0.041063517 0.113431185 -0.76485753 0.22759606 0.4052692 0.7821452 -0.8408207 0.8938232 0.035797715 -0.18466164 -0.22217494 0.15845905 -0.24238718 0.2822449 0.19304104 -0.9941781 0.22475436 -0.9706248 -0.42769566 0.16615191 0.49548924 0.630561 0.3527797 0.3435369 0.9836055 -0.26099014 -0.4532003 -0.3965177 0.8761497 -0.8396768 0.7490169 0.5956761 0.6390506 -0.65365326 0.6984672 0.5632788 -0.06855181 -0.4600575 -0.5427615 0.24606001 -0.8124068 0.12396992 0.27608797 -0.7393212 0.987207 -0.08859849 -0.24270974 -0.08585144 -0.71377295 0.10966255 0.3933838 -0.8105922 0.79214215 -0.15580197 0.856061 0.14463383 -0.64600015 0.96015066 -0.4109137 -0.679401 0.195251 -0.09879714 -0.41790748 0.87333417 -0.5678892 0.30234608 0.016131833 0.07770347 0.4059083 0.027060315 -0.8822344 0.23104306 -0.83449554 0.1905762 0.8155201 0.32403994 0.30062345 -0.5033965 -0.75477225 0.6971111 -0.3821441 -0.42642167 0.6209952 0.9849083 0.3716974 0.2688269 0.14579222 0.353084 0.1698367 -0.095946886 0.68456036 0.13384372 -0.5383738 0.6404449 0.6305652 0.6393607 -0.6403182 0.13507362 0.64063466 0.09429692 0.12130563 -0.2010782 -0.49019367 -0.2205548 0.41668612 -0.17102215 0.6208858 0.34898907 -0.75461626 0.33639598 0.831568 0.7145436 0.82068235 0.79699945 0.7346503 0.82640105 -0.022039637 0.061045 0.03664386 0.7857883 0.5199496 -0.2375964 -0.6169685 0.65047234 0.25174144 -0.592673 0.7868298 -0.39059517 0.92871773 -0.43567848 -0.2545775 0.5962102 -0.55183625 0.24197543 0.76364195
10 -0.37606546 -0.053607315 -0.5344628 0.17883033 -0.17632127 -0.2955132 -0.085546285 0.30689853 -0.24018043 0.017905558 0.45234895 0.15427965 0.2384794 -0.4487603 0.33609554 0.07357091 -0.14584854 -0.48652655 0.14396176 0.22576162 0.2881289 0.51047504 -0.014530983 0.50536287 0.056922246 -0.18166178 -0.385604 0.46301225 -0.14713073 -0.27451313 -0.27618873 0.11863911 0.2505318 -0.23732984 0.24092636 0.40540808 0.005192142 0.069690764 0.04404983 -0.14982183 0.0013827011 0.37163702 0.24048655 -0.3185548 0.26209325 -0.19529784 -0.36534682 -0.16847217 0.19120586 -0.25040293 -0.11949934 -0.23780507 -0.44032687 0.010330732 -0.4546117 -0.26515162 -0.2279546 0.583809 0.24958643 0.083257064 0.36475015 0.6939199 -0.17850602 -0.3652655 -0.20493321 0.20231774 -0.3491675 0.3019149 0.42471123 0.51728964 -0.23056751 0.27255082 0.026021115 0.21740001 0.0985098 -0.25843057 -0.06515257 -0.079281285 -0.47605714 0.09057218 -0.17302349 0.21487235 0.1215257 0.10197598 -0.2894464 -0.35522422 0.3033126 0.24407479 -0.18401106 0.20736429 -0.5452951 0.32697028 0.22980326 -0.1304678 0.46272406 -0.27672252 -0.4966138 -0.14792365 -0.26554975 -0.2110005 0.09861651 -0.0664523 0.13213846 -0.3157282 -0.20506415 0.16224402 0.06314022 -0.16534533 -0.025707094 -0.4787437 0.16597009 0.33022442 0.35391766 0.029627815 -0.06338638 -0.40625444 0.31638417 -0.11333154 -0.5674176 0.15214024 0.31256837 0.33801463 -0.2327358 0.1987544 0.1702814 0.030098611 0.36372432 0.29900432 0.24100654 -0.34167385 0.34633613 0.17171586 0.3536391 -0.23374704 0.13066715 0.3935646 0.17420846 -0.12154817 -0.41067082 -0.005094637 -0.1505934 0.13235164 0.51977944 0.29709792 -0.13574998 -0.42798764 0.11732298 0.57907605 0.679942 0.28612128 0.20119414 0.3015351 0.395813 0.019645695 -0.2341418 0.16273549 0.48370844 0.1096542 -0.05385904 -0.10444147 0.15221217 0.028590485 -0.056992076 0.11330414 -0.020524312 0.30719447 -0.43297482 -0.21133465 0.10395461 -0.40683013 0.09451777 0.4528427
11 -0.37616074 -0.11941156 -0.58989686 0.21360046 -0.31935424 -0.52411026 0.073943704 0.32417774 -0.36784098 -0.33738318 0.5110335 0.09607552 0.28295973 -0.42949942 0.28186756 0.13417783 -0.12673408 -0.6084125 0.33750254 0.34600648 0.4254056 0.60041416 -0.057501376 0.3899832 0.11857377 -0.32367373 -0.25469202 0.45270377 -0.1952917 -0.04953341 -0.15358931 0.083575785 0.058927473 -0.1284776 0.15101105 0.42812967 -0.086690515 0.053391397 -0.13830209 -0.44041795 0.18550822 0.61303926 0.49120092 -0.34755802 0.5287466 0.15569043 -0.24975485 -0.15339735 0.013127014 -0.2682655 -0.16856003 -0.22231443 -0.56926966 0.25240102 -0.4843598 0.2369872 0.14309706 0.26138076 -0.11899371 -0.24422133 0.35887042 0.68302345 -0.20730776 -0.5473122 -0.501484 0.20353526 -0.46851322 0.2273837 0.354142 0.2789682 -0.021507999 0.18540616 0.12802637 0.123542935 -0.2929336 -0.7145024 -0.05578226 0.1332868 -0.19817649 -0.05654505 -0.22442919 0.62935287 0.08316949 0.10593422 0.025650613 -0.18998037 0.368809 0.090304464 -0.44705468 0.3700711 -0.4287664 0.33765033 0.19666675 -0.045262553 0.270962 -0.29484197 -0.35696316 0.01754523 -0.16429327 -0.12887406 0.3291562 -0.28642377 -0.0514687 -0.11416197 -0.40328696 0.117532104 0.046046533 -0.5939022 0.11135561 -0.44277358 0.16489631 0.21731743 0.17007399 0.19437355 -0.14384705 -0.39203158 -0.16257592 0.19883981 -0.5610474 0.0490353 0.6487296 0.1842943 -0.2375575 -0.031289376 0.1393979 -0.036770973 -0.14105445 0.25653517 -0.34562546 -0.2613376 0.34680432 0.24638027 0.17410338 0.14392091 0.4527563 0.22211915 0.1288436 -0.07587744 0.016734533 -0.19271371 -0.008061776 0.2460916 0.12982188 0.47632197 -0.057221346 -0.48120898 0.13602379 0.45838752 0.2806795 0.36046875 0.73318744 0.34279 0.35203433 0.19089407 -0.34115753 0.16635475 0.3674241 0.012169011 -0.0166561 -0.20695502 0.22873831 0.10088673 0.009593174 0.31815678 0.1731503 0.29289383 -0.4298186 -0.26353616 0.1615901 -0.33818546 0.07976407 0.42022926
12 -0.18611614 -0.44973904 -0.92466736 0.90268815 -0.7186906 -0.73717344 0.6906229 0.70795864 -0.8752947 -0.9396556 0.46365362 0.3078678 0.7947091 -0.9554583 0.7138136 0.49965122 -0.6118 -0.8627491 0.54616666 0.39579388 0.4561724 0.85937256 -0.035157397 0.8814746 0.59294534 -0.5691949 -0.68881255 0.9569442 -0.61705303 0.3235337 -0.8941374 0.30392015 -0.49738002 -0.68181735 0.07035041 0.47826478 -0.07230705 -0.1358237 -0.027814988 -0.6363741 0.07208432 0.23740166 0.9310334 -0.7544019 0.9257226 0.085969746 0.04133831 -0.42465466 0.3020218 -0.55174243 0.31015837 0.092580706 -0.9948343 0.2992276 -0.9206429 -0.20633087 0.22516878 0.776643 0.71499294 -0.19534358 0.51921105 0.9807199 -0.083039686 -0.16801357 -0.78953165 0.85832304 -0.90794235 0.68211126 0.66218114 0.79712 -0.6530151 0.5944382 0.6998821 0.10789717 -0.61391324 -0.29875278 -0.20791979 -0.8605416 0.2963708 0.14110948 -0.66921175 0.9672948 0.014168322 0.028091982 -0.20873067 -0.7613434 0.25903973 -0.07895063 -0.77409863 0.73489577 0.19463374 0.87937796 -0.046336085 -0.1549924 0.9529725 -0.6069935 -0.7791459 0.1545327 -0.009039525 -0.45867813 0.94317937 -0.44563675 0.32756734 -0.102394864 0.097196504 0.44393128 -0.3910838 -0.6212214 0.07536774 -0.96277946 0.04010973 0.76008487 0.6509658 -0.0025605932 -0.49557838 -0.6407259 0.4911987 -0.16330355 -0.41882664 0.43747932 0.9735077 0.45116132 0.05985468 -0.082035534 0.3536696 0.30880392 0.08022788 0.8607175 0.13001655 -0.4566905 0.5165652 0.7457013 0.7888833 -0.5908232 0.01764081 0.6621443 -0.024906412 0.2124671 -0.49092734 -0.21366356 -0.44330692 0.69839704 -0.33431122 0.84179324 0.13608909 -0.73599637 -0.017133102 0.71535665 0.6827245 0.7586421 0.76766324 0.7069185 0.86926126 0.34251657 -0.100986645 0.025502082 0.7958552 0.45381695 -0.10930127 -0.9218613 0.65871567 0.6821376 -0.5150393 0.7487779 -0.57361645 0.9389152 -0.6116511 -0.05205013 0.5839815 -0.39828327 0.3726412 0.7004103
13 -0.47324482 -0.083702445 -0.5892322 0.20113552 -0.27995837 -0.4444703 0.11736578 0.4095027 -0.3341071 -0.36198926 0.45134062 0.2027809 0.28187013 -0.34321743 0.19414356 0.21396863 -0.21763545 -0.49997374 0.32424194 0.38989532 0.46470156 0.5535285 -0.0020195916 0.37873748 0.19192803 -0.2219286 -0.3620284 0.4693588 -0.14236665 -0.24084572 -0.13830242 0.07171947 0.110930786 -0.14595838 0.07372594 0.32545272 -0.039921373 -0.015078306 -0.06514111 -0.32392055 0.027958326 0.6498535 0.45156687 -0.3774905 0.479425 0.10359617 -0.2558615 -0.14523065 0.2413679 -0.45721722 0.3322318 -0.29980904 -0.56912315 0.1955506 -0.59310895 0.038070858 -0.019557178 0.1084071 0.20112823 -0.18590865 0.23936726 0.67532647 -0.10209924 -0.5709147 -0.47484168 0.2440213 -0.4379272 0.14952362 0.45360374 0.41020754 -0.26293808 0.28322327 0.10339248 0.15399694 -0.037951887 -0.62000734 -0.013970505 0.29306307 -0.19041713 0.014727667 -0.20721471 0.5959873 0.2218168 -0.09425311 -0.03784418 -0.30692682 0.5019772 -0.09934507 -0.4367852 0.09279612 -0.3370858 0.46256062 0.22203177 -0.09659356 0.3480627 -0.24623576 -0.27899027 0.061764568 -0.2556768 -0.062981784 0.20338143 -0.18819481 0.11742714 -0.12484881 -0.060947534 0.14061032 -0.08255615 -0.39741808 0.28390136 -0.4829204 0.096914016 0.14489977 0.45703608 0.18635485 -0.0730256 -0.39584783 -0.2211441 0.17166364 -0.43041593 0.18470928 0.6527375 -0.05489257 -0.14335053 0.11096453 0.15944698 -0.19736715 0.09596402 0.36675593 -0.34751204 -0.29316142 0.33454055 0.13528237 0.19665405 -0.4469495 0.53830606 0.3155983 0.010312455 0.111111104 0.24038602 -0.18142527 -0.04665214 0.18073726 0.12819928 0.26147664 -0.13220954 -0.7028789 -0.04997664 0.45706478 0.32118633 0.35113806 0.71012896 0.34377354 0.46422234 0.2701519 -0.3835113 0.22597577 0.37276497 0.09658333 -0.011463858 -0.31677198 0.23284087 -0.11114746 -0.12714058 0.14181799 -0.08183353 0.28138041 -0.30469775 -0.34089988 0.18763858 -0.48258185 0.16339791 0.16004026
14 0.0 0.0 0.0 0.0 0.0 0.0 0.0 0.0 0.0 0.0 0.0 0.0 0.0 0.0 0.0 0.0 0.0 0.0 0.0 0.0 0.0 0.0 0.0 0.0 0.0 0.0 0.0 0.0 0.0 0.0 0.0 0.0 0.0 0.0 0.0 0.0 0.0 0.0 0.0 0.0 0.0 0.0 0.0 0.0 0.0 0.0 0.0 0.0 0.0 0.0 0.0 0.0 0.0 0.0 0.0 0.0 0.0 0.0 0.0 0.0 0.0 0.0 0.0 0.0 0.0 0.0 0.0 0.0 0.0 0.0 0.0 0.0 0.0 0.0 0.0 0.0 0.0 0.0 0.0 0.0 0.0 0.0 0.0 0.0 0.0 0.0 0.0 0.0 0.0 0.0 0.0 0.0 0.0 0.0 0.0 0.0 0.0 0.0 0.0 0.0 0.0 0.0 0.0 0.0 0.0 0.0 0.0 0.0 0.0 0.0 0.0 0.0 0.0 0.0 0.0 0.0 0.0 0.0 0.0 0.0 0.0 0.0 0.0 0.0 0.0 0.0 0.0 0.0 0.0 0.0 0.0 0.0 0.0 0.0 0.0 0.0 0.0 0.0 0.0 0.0 0.0 0.0 0.0 0.0 0.0 0.0 0.0 0.0 0.0 0.0 0.0 0.0 0.0 0.0 0.0 0.0 0.0 0.0 0.0 0.0 0.0 0.0 0.0 0.0 0.0 0.0 0.0 0.0 0.0 0.0 0.0 0.0
15 -0.4944685 -0.046080276 -0.6453693 0.46003163 -0.65426594 -0.7131002 -0.0029665232 0.447543 -0.49121502 -0.630749 0.5809629 0.43953404 0.6552281 -0.73721915 0.17405142 0.10974491 -0.42038542 -0.8320796 0.37627393 0.25051764 0.13064961 0.63047314 -0.09736508 0.50082004 -0.10445562 -0.47987613 -0.35768443 0.6584935 -0.20134427 0.33183768 -0.38054293 0.16343832 -0.41338876 -0.43002683 0.15812424 0.38503668 -0.034555174 0.11735274 -0.13766214 -0.4424668 -0.22044624 0.37094402 0.770838 -0.53909457 0.5760586 -0.054882348 -0.2978868 -0.24044108 -0.020934075 -0.35628596 0.51547474 0.071072266 -0.8535557 -0.3747608 -0.83052367 0.10946818 -0.26883495 0.46610516 0.35886696 -0.011406645 0.67338955 0.94571763 -0.11380921 -0.64592296 -0.21588577 0.4603368 -0.5393139 0.40112 0.47516525 0.6215687 -0.63360995 0.4783042 0.32020113 -0.007629335 -0.28223053 -0.30568123 0.067043155 -0.4263847 -0.093183115 -0.034245998 -0.2716812 0.8698922 -0.2531272 -0.24957052 0.079034925 -0.51870716 0.38035697 -0.09551215 -0.5220709 0.5937363 -0.6552802 0.5411363 0.39044562 -0.27872553 0.5223862 -0.23732339 -0.44731307 0.12231588 -0.10943777 -0.22628334 0.53825784 -0.4358203 0.23049095 -0.15493345 -0.20161748 0.1866675 -0.10978605 -0.7769018 0.05065062 -0.60817635 -0.07917796 0.5658288 0.48203462 0.29330513 -0.18220615 -0.42745575 0.58490527 -0.013472483 -0.5810434 0.1551639 0.7997105 0.27378312 0.13641293 -0.14545666 0.29328322 0.11203344 -0.24697132 0.384066 0.10566479 -0.10770331 0.43067923 0.4249685 0.6015484 -0.5011854 -0.2439701 0.49495614 0.084864765 -0.344457 -0.64876395 0.15513131 -0.1429454 0.13298748 -0.15428352 0.46390623 -0.10105965 -0.7069335 0.17522678 0.59877515 0.631358 0.75330263 0.7548092 0.6416724 0.6211249 0.0969616 -0.41238463 0.016217202 0.58568895 -0.18728837 -0.02092725 -0.53917366 0.4149726 0.16454926 -0.24075013 0.30106604 -0.0056584403 0.52844214 -0.18821299 0.2524068 0.34754968 -0.5909611 0.23129377 0.32770622
16 0.0 0.0 0.0 0.0 0.0 0.0 0.0 0.0 0.0 0.0 0.0 0.0 0.0 0.0 0.0 0.0 0.0 0.0 0.0 0.0 0.0 0.0 0.0 0.0 0.0 0.0 0.0 0.0 0.0 0.0 0.0 0.0 0.0 0.0 0.0 0.0 0.0 0.0 0.0 0.0 0.0 0.0 0.0 0.0 0.0 0.0 0.0 0.0 0.0 0.0 0.0 0.0 0.0 0.0 0.0 0.0 0.0 0.0 0.0 0.0 0.0 0.0 0.0 0.0 0.0 0.0 0.0 0.0 0.0 0.0 0.0 0.0 0.0 0.0 0.0 0.0 0.0 0.0 0.0 0.0 0.0 0.0 0.0 0.0 0.0 0.0 0.0 0.0 0.0 0.0 0.0 0.0 0.0 0.0 0.0 0.0 0.0 0.0 0.0 0.0 0.0 0.0 0.0 0.0 0.0 0.0 0.0 0.0 0.0 0.0 0.0 0.0 0.0 0.0 0.0 0.0 0.0 0.0 0.0 0.0 0.0 0.0 0.0 0.0 0.0 0.0 0.0 0.0 0.0 0.0 0.0 0.0 0.0 0.0 0.0 0.0 0.0 0.0 0.0 0.0 0.0 0.0 0.0 0.0 0.0 0.0 0.0 0.0 0.0 0.0 0.0 0.0 0.0 0.0 0.0 0.0 0.0 0.0 0.0 0.0 0.0 0.0 0.0 0.0 0.0 0.0 0.0 0.0 0.0 0.0 0.0 0.0
17 0.0 0.0 0.0 0.0 0.0 0.0 0.0 0.0 0.0 0.0 0.0 0.0 0.0 0.0 0.0 0.0 0.0 0.0 0.0 0.0 0.0 0.0 0.0 0.0 0.0 0.0 0.0 0.0 0.0 0.0 0.0 0.0 0.0 0.0 0.0 0.0 0.0 0.0 0.0 0.0 0.0 0.0 0.0 0.0 0.0 0.0 0.0 0.0 0.0 0.0 0.0 0.0 0.0 0.0 0.0 0.0 0.0 0.0 0.0 0.0 0.0 0.0 0.0 0.0 0.0 0.0 0.0 0.0 0.0 0.0 0.0 0.0 0.0 0.0 0.0 0.0 0.0 0.0 0.0 0.0 0.0 0.0 0.0 0.0 0.0 0.0 0.0 0.0 0.0 0.0 0.0 0.0 0.0 0.0 0.0 0.0 0.0 0.0 0.0 0.0 0.0 0.0 0.0 0.0 0.0 0.0 0.0 0.0 0.0 0.0 0.0 0.0 0.0 0.0 0.0 0.0 0.0 0.0 0.0 0.0 0.0 0.0 0.0 0.0 0.0 0.0 0.0 0.0 0.0 0.0 0.0 0.0 0.0 0.0 0.0 0.0 0.0 0.0 0.0 0.0 0.0 0.0 0.0 0.0 0.0 0.0 0.0 0.0 0.0 0.0 0.0 0.0 0.0 0.0 0.0 0.0 0.0 0.0 0.0 0.0 0.0 0.0 0.0 0.0 0.0 0.0 0.0 0.0 0.0 0.0 0.0 0.0
18 0.0 0.0 0.0 0.0 0.0 0.0 0.0 0.0 0.0 0.0 0.0 0.0 0.0 0.0 0.0 0.0 0.0 0.0 0.0 0.0 0.0 0.0 0.0 0.0 0.0 0.0 0.0 0.0 0.0 0.0 0.0 0.0 0.0 0.0 0.0 0.0 0.0 0.0 0.0 0.0 0.0 0.0 0.0 0.0 0.0 0.0 0.0 0.0 0.0 0.0 0.0 0.0 0.0 0.0 0.0 0.0 0.0 0.0 0.0 0.0 0.0 0.0 0.0 0.0 0.0 0.0 0.0 0.0 0.0 0.0 0.0 0.0 0.0 0.0 0.0 0.0 0.0 0.0 0.0 0.0 0.0 0.0 0.0 0.0 0.0 0.0 0.0 0.0 0.0 0.0 0.0 0.0 0.0 0.0 0.0 0.0 0.0 0.0 0.0 0.0 0.0 0.0 0.0 0.0 0.0 0.0 0.0 0.0 0.0 0.0 0.0 0.0 0.0 0.0 0.0 0.0 0.0 0.0 0.0 0.0 0.0 0.0 0.0 0.0 0.0 0.0 0.0 0.0 0.0 0.0 0.0 0.0 0.0 0.0 0.0 0.0 0.0 0.0 0.0 0.0 0.0 0.0 0.0 0.0 0.0 0.0 0.0 0.0 0.0 0.0 0.0 0.0 0.0 0.0 0.0 0.0 0.0 0.0 0.0 0.0 0.0 0.0 0.0 0.0 0.0 0.0 0.0 0.0 0.0 0.0 0.0 0.0
19 -0.7242243 -0.48092848 -0.92912966 0.91757506 -0.74596727 -0.6388605 0.630926 0.64421254 -0.7918574 -0.845553 0.6338839 0.49952546 0.95131004 -0.9045445 0.6764224 0.488064 -0.60559344 -0.8525003 0.70718837 0.32899365 0.20652416 0.81343883 -0.08021495 0.9065037 0.87173164 -0.44850868 -0.57564265 0.91715974 -0.5697221 0.5901407 -0.9370974 0.40928978 -0.03398207 -0.63483 0.1904524 0.5107496 0.15397541 -0.021515965 0.13856526 -0.42870316 0.22065021 -0.049865842 0.76819694 -0.7334288 0.962297 -0.14122266 -0.08199406 -0.47641724 0.38189548 -0.48688358 -0.028265186 0.09657687 -0.9847113 0.4112959 -0.860985 -0.3269602 -0.1878879 0.6058774 0.52360946 -0.1339024 0.6746969 0.95088404 -0.26218677 -0.24934193 -0.7374138 0.71690214 -0.7820583 0.7162765 0.677536 0.56768 -0.73777574 0.52721304 0.46951386 0.28785694 -0.42099214 -0.5390423 -0.20199405 -0.7676059 0.16171663 0.19143926 -0.7181956 0.9362966 -0.14307357 -0.113900304 0.036232397 -0.5633185 -0.25477692 0.07469589 -0.7947012 0.69792783 -0.2927655 0.80957973 0.36584395 -0.2688994 0.95180565 -0.5326484 -0.7095029 0.3351766 -0.4762743 -0.4540965 0.9492377 -0.23489104 0.47881088 -0.2983751 0.35354495 0.3535084 0.2544741 -0.38225132 -0.23373494 -0.89154327 0.37624168 0.7702976 0.52664995 0.2692175 -0.53092015 -0.75118196 0.4281836 -0.5613049 -0.31064728 0.516233 0.8713441 0.12414387 0.06694223 -0.040065765 0.4271881 0.12020904 0.03857384 0.724976 -0.084951505 -0.051962793 0.4410727 0.778613 0.562271 -0.421105 0.2762712 0.7367286 0.07594149 0.18756887 -0.362159 0.37680653 -0.20851564 0.72762287 -0.39213836 0.6387599 0.064879194 -0.5914998 0.40699482 0.78474414 0.6473498 0.23623803 0.75790185 0.5908739 0.9261867 0.25205103 0.08601808 0.13556603 0.45331645 0.20111026 -0.16066933 -0.8523531 0.75474256 0.56798494 -0.082681075 0.62374705 -0.3341251 0.94166833 -0.642184 0.045909062 0.59523785 -0.63435566 0.58256483 0.34307563
20 -0.4838627 -0.06339972 -0.7935582 0.30455193 -0.50101304 -0.56013066 -0.03599751 0.4900333 -0.54321736 -0.62920785 0.7532912 0.44087633 0.6400323 -0.60803664 -0.039856717 0.11716827 -0.19082344 -0.78375274 0.29272127 0.1003611 0.14770225 0.5965791 -0.035662577 0.6291082 0.5320309 -0.300395 -0.33860868 0.47603625 -0.32665914 -0.107283525 -0.3385337 0.10726929 0.008044735 -0.4455082 0.034402095 -0.03446666 -0.07414447 -0.012078963 0.1656828 -0.5080795 0.23524468 0.34274256 0.7041104 -0.510483 0.7684629 -0.36047244 -0.45732394 -0.15142074 0.19325347 -0.64614224 -0.22272754 -0.36387756 -0.7917489 -0.31499645 -0.6160528 0.13453712 -0.5561381 0.3126874 0.2907195 0.20161079 0.55486286 0.8955509 -0.09310368 -0.49883902 -0.39060962 0.49472487 -0.53123325 0.305736 0.56312716 0.50511426 -0.2410694 0.114323154 0.1519846 0.048833326 -0.32859743 -0.63142323 0.14220008 -0.39640862 -0.060314447 0.05169964 -0.26897562 0.78949475 -0.1252025 -0.112908326 0.12087932 -0.52850914 0.6450958 0.18291602 -0.43810236 0.19953674 -0.5769129 0.6592881 0.2017159 -0.042621344 0.5405507 -0.21827954 -0.46465674 -0.043123197 -0.40976888 -0.256954 0.64771193 -0.3621981 0.1366801 -0.3845985 -0.31853163 0.3983174 -0.30024335 -0.79487604 -0.1038688 -0.7319886 0.796615 0.5829377 0.500246 0.43123555 -0.31408465 -0.62005585 0.6314824 -0.085835084 -0.6127255 0.13282672 0.60776824 0.22676986 0.01358963 0.2714002 0.22260858 -0.075369686 -0.019615974 0.4243061 -0.010357082 -0.26796365 0.48548838 0.2773938 0.01619783 -0.5152201 0.6585186 0.7530014 0.1854385 0.39035583 -0.5330543 -0.33207858 -0.11337024 0.16578865 0.0028174669 0.35264093 -0.23951416 -0.7211 -0.20938283 0.767083 0.51139027 0.5169237 0.5483901 0.5492201 0.5944888 0.5376113 -0.107954316 -0.08257399 0.6845162 0.08173012 -0.1352815 -0.43824905 0.4355474 -0.08483243 0.04364288 0.4102053 0.28270513 0.34600753 0.067557275 -0.38537714 0.16967976 -0.57096505 0.23124029 0.14337128
21 0.0 0.0 0.0 0.0 0.0 0.0 0.0 0.0 0.0 0.0 0.0 0.0 0.0 0.0 0.0 0.0 0.0 0.0 0.0 0.0 0.0 0.0 0.0 0.0 0.0 0.0 0.0 0.0 0.0 0.0 0.0 0.0 0.0 0.0 0.0 0.0 0.0 0.0 0.0 0.0 0.0 0.0 0.0 0.0 0.0 0.0 0.0 0.0 0.0 0.0 0.0 0.0 0.0 0.0 0.0 0.0 0.0 0.0 0.0 0.0 0.0 0.0 0.0 0.0 0.0 0.0 0.0 0.0 0.0 0.0 0.0 0.0 0.0 0.0 0.0 0.0 0.0 0.0 0.0 0.0 0.0 0.0 0.0 0.0 0.0 0.0 0.0 0.0 0.0 0.0 0.0 0.0 0.0 0.0 0.0 0.0 0.0 0.0 0.0 0.0 0.0 0.0 0.0 0.0 0.0 0.0 0.0 0.0 0.0 0.0 0.0 0.0 0.0 0.0 0.0 0.0 0.0 0.0 0.0 0.0 0.0 0.0 0.0 0.0 0.0 0.0 0.0 0.0 0.0 0.0 0.0 0.0 0.0 0.0 0.0 0.0 0.0 0.0 0.0 0.0 0.0 0.0 0.0 0.0 0.0 0.0 0.0 0.0 0.0 0.0 0.0 0.0 0.0 0.0 0.0 0.0 0.0 0.0 0.0 0.0 0.0 0.0 0.0 0.0 0.0 0.0 0.0 0.0 0.0 0.0 0.0 0.0
22 0.0 0.0 0.0 0.0 0.0 0.0 0.0 0.0 0.0 0.0 0.0 0.0 0.0 0.0 0.0 0.0 0.0 0.0 0.0 0.0 0.0 0.0 0.0 0.0 0.0 0.0 0.0 0.0 0.0 0.0 0.0 0.0 0.0 0.0 0.0 0.0 0.0 0.0 0.0 0.0 0.0 0.0 0.0 0.0 0.0 0.0 0.0 0.0 0.0 0.0 0.0 0.0 0.0 0.0 0.0 0.0 0.0 0.0 0.0 0.0 0.0 0.0 0.0 0.0 0.0 0.0 0.0 0.0 0.0 0.0 0.0 0.0 0.0 0.0 0.0 0.0 0.0 0.0 0.0 0.0 0.0 0.0 0.0 0.0 0.0 0.0 0.0 0.0 0.0 0.0 0.0 0.0 0.0 0.0 0.0 0.0 0.0 0.0 0.0 0.0 0.0 0.0 0.0 0.0 0.0 0.0 0.0 0.0 0.0 0.0 0.0 0.0 0.0 0.0 0.0 0.0 0.0 0.0 0.0 0.0 0.0 0.0 0.0 0.0 0.0 0.0 0.0 0.0 0.0 0.0 0.0 0.0 0.0 0.0 0.0 0.0 0.0 0.0 0.0 0.0 0.0 0.0 0.0 0.0 0.0 0.0 0.0 0.0 0.0 0.0 0.0 0.0 0.0 0.0 0.0 0.0 0.0 0.0 0.0 0.0 0.0 0.0 0.0 0.0 0.0 0.0 0.0 0.0 0.0 0.0 0.0 0.0
23 0.0 0.0 0.0 0.0 0.0 0.0 0.0 0.0 0.0 0.0 0.0 0.0 0.0 0.0 0.0 0.0 0.0 0.0 0.0 0.0 0.0 0.0 0.0 0.0 0.0 0.0 0.0 0.0 0.0 0.0 0.0 0.0 0.0 0.0 0.0 0.0 0.0 0.0 0.0 0.0 0.0 0.0 0.0 0.0 0.0 0.0 0.0 0.0 0.0 0.0 0.0 0.0 0.0 0.0 0.0 0.0 0.0 0.0 0.0 0.0 0.0 0.0 0.0 0.0 0.0 0.0 0.0 0.0 0.0 0.0 0.0 0.0 0.0 0.0 0.0 0.0 0.0 0.0 0.0 0.0 0.0 0.0 0.0 0.0 0.0 0.0 0.0 0.0 0.0 0.0 0.0 0.0 0.0 0.0 0.0 0.0 0.0 0.0 0.0 0.0 0.0 0.0 0.0 0.0 0.0 0.0 0.0 0.0 0.0 0.0 0.0 0.0 0.0 0.0 0.0 0.0 0.0 0.0 0.0 0.0 0.0 0.0 0.0 0.0 0.0 0.0 0.0 0.0 0.0 0.0 0.0 0.0 0.0 0.0 0.0 0.0 0.0 0.0 0.0 0.0 0.0 0.0 0.0 0.0 0.0 0.0 0.0 0.0 0.0 0.0 0.0 0.0 0.0 0.0 0.0 0.0 0.0 0.0 0.0 0.0 0.0 0.0 0.0 0.0 0.0 0.0 0.0 0.0 0.0 0.0 0.0 0.0
24 0.0 0.0 0.0 0.0 0.0 0.0 0.0 0.0 0.0 0.0 0.0 0.0 0.0 0.0 0.0 0.0 0.0 0.0 0.0 0.0 0.0 0.0 0.0 0.0 0.0 0.0 0.0 0.0 0.0 0.0 0.0 0.0 0.0 0.0 0.0 0.0 0.0 0.0 0.0 0.0 0.0 0.0 0.0 0.0 0.0 0.0 0.0 0.0 0.0 0.0 0.0 0.0 0.0 0.0 0.0 0.0 0.0 0.0 0.0 0.0 0.0 0.0 0.0 0.0 0.0 0.0 0.0 0.0 0.0 0.0 0.0 0.0 0.0 0.0 0.0 0.0 0.0 0.0 0.0 0.0 0.0 0.0 0.0 0.0 0.0 0.0 0.0 0.0 0.0 0.0 0.0 0.0 0.0 0.0 0.0 0.0 0.0 0.0 0.0 0.0 0.0 0.0 0.0 0.0 0.0 0.0 0.0 0.0 0.0 0.0 0.0 0.0 0.0 0.0 0.0 0.0 0.0 0.0 0.0 0.0 0.0 0.0 0.0 0.0 0.0 0.0 0.0 0.0 0.0 0.0 0.0 0.0 0.0 0.0 0.0 0.0 0.0 0.0 0.0 0.0 0.0 0.0 0.0 0.0 0.0 0.0 0.0 0.0 0.0 0.0 0.0 0.0 0.0 0.0 0.0 0.0 0.0 0.0 0.0 0.0 0.0 0.0 0.0 0.0 0.0 0.0 0.0 0.0 0.0 0.0 0.0 0.0
25 -0.60092133 -0.20336527 -0.7409044 0.37525386 -0.201439 -0.47824425 0.077284984 0.33097446 -0.471739 -0.7526942 0.6316098 0.27973542 0.6097403 -0.70350504 0.34758666 0.27289528 -0.30566627 -0.65202874 0.13798578 0.29972297 0.20540093 0.7706505 -0.06313677 0.71463346 0.261039 -0.433508 -0.43377182 0.66247946 -0.09917576 -0.342857 -0.49316382 0.159212 0.27610064 -0.42323416 0.18275332 0.5386858 -0.12735665 0.1518096 0.008711871 -0.040170275 -0.2968325 0.47761622 0.6754949 -0.44919264 0.667759 -0.025216337 -0.35106957 -0.29272753 0.13388982 -0.5264366 0.47800535 -0.011069521 -0.72736907 -0.11176706 -0.81829756 -0.15763333 -0.12878953 0.3390283 0.43045893 -0.026734002 0.6099292 0.935847 -0.107130766 -0.2480914 -0.29046702 0.43142563 -0.7300671 0.3246716 0.5389248 0.73372257 -0.5511501 0.3827008 0.19554509 0.10890582 -0.13200526 -0.40923673 -0.1177399 -0.10464233 -0.3233789 0.2629097 -0.39344788 0.6500394 0.061830252 -0.130094 -0.07964776 -0.46827316 0.46067405 0.014340997 -0.44488022 0.10417073 -0.47795844 0.6648478 0.47162855 -0.30971226 0.7047291 -0.49196965 -0.54353905 0.055979416 -0.3544878 -0.3313614 0.6245878 -0.07794136 0.13859764 -0.09169328 -0.42480794 0.1940015 -0.005490658 -0.59930074 0.036633104 -0.6037195 0.0864899 0.47496226 0.67782444 0.20894161 -0.35136017 -0.31455696 0.47156447 0.44727018 -0.14448225 0.37435222 0.65927315 0.1917159 0.11483753 0.22181916 0.21908548 0.49724653 -0.10095864 0.57974195 0.16286904 -0.18856227 0.54278773 0.37908003 0.47286487 -0.43481204 0.4578442 0.54874855 -0.0033454895 0.035307746 -0.41068673 -0.15996328 -0.084094904 0.35362667 0.29171354 0.57357025 -0.25403816 -0.84399885 -0.032696754 0.6492089 0.6388813 0.607903 0.7367727 0.693544 0.7086879 0.105627425 -0.37023517 -0.103919625 0.6002526 -0.16785212 -0.007717997 -0.22461265 0.36971688 0.19630823 0.13207683 0.21845862 0.15721992 0.4625639 -0.023650348 -0.44625646 0.3240925 -0.5785306 0.20698026 0.25716615
26 -0.90261096 -0.6224743 -0.88716793 0.9195544 -0.7206343 -0.689876 0.66551316 0.77432805 -0.85562086 -0.8069067 0.44057563 0.35295627 0.8619648 -0.9196439 0.6037976 0.4405268 -0.6901219 -0.7679443 0.63269955 0.18011838 0.6171625 0.891052 0.14180724 0.91236126 0.7247191 -0.42720616 -0.631367 0.90402424 -0.60405356 0.47704616 -0.8529465 0.31501424 0.16150415 -0.7475006 0.2082715 0.48319095 0.12662436 0.15013248 0.003164053 -0.6560378 0.389746 0.21190608 0.8768512 -0.79638106 0.92363083 -0.12306084 0.0027627498 -0.24477035 0.31324998 -0.42731363 0.054782927 -0.10648986 -0.95030034 0.76494414 -0.8627435 -0.08947489 0.46811754 0.6207177 0.3470021 -0.14101562 0.6886611 0.9701536 -0.20310514 -0.36426097 -0.7454111 0.8097788 -0.8604099 0.7369422 0.78582054 0.34451678 -0.8252572 0.70810777 0.49482682 0.29872063 -0.3988651 -0.41115856 -0.03084495 -0.75058293 -0.24705502 0.22351436 -0.8434464 0.93853974 -0.04145594 0.03537461 -0.10544707 -0.661271 0.2420016 0.14857818 -0.83122766 0.50677395 -0.4199117 0.9485708 0.16123676 -0.45617753 0.9201696 -0.3894368 -0.7782954 0.19040422 -0.43200552 -0.5051204 0.9706242 -0.35835445 0.45471007 -0.060494617 -0.15920591 0.4250533 0.45953196 -0.6755647 -0.11707245 -0.8817142 0.27355295 0.76313555 0.68482524 0.11951053 -0.5373151 -0.7066081 -0.1253037 -0.20724657 -0.17010021 0.5369709 0.9550072 -0.09298975 -0.03237907 -0.06371885 0.38967732 0.08569239 0.04532695 0.78872216 -0.330166 -0.6092984 0.7949236 0.7135017 0.7059929 -0.7806194 0.6526473 0.6219258 0.09630187 0.3742039 0.09688024 -0.33449638 -0.3981188 0.66454 0.025279582 0.5874152 -0.23300472 -0.4078523 0.34408468 0.8196168 0.64226764 0.73777336 0.73466915 0.65457374 0.9498386 0.40253174 0.4223647 0.15476148 0.53076774 0.6164317 -0.2131238 -0.7438488 0.71765566 -0.11198427 0.057898343 0.8474853 -0.37576798 0.92169666 -0.5110579 -0.16209096 0.5500695 -0.5674323 0.36647972 0.34059328
27 -0.08523769 -0.6014058 -0.90037215 0.94987506 -0.7167773 -0.5862987 0.68572587 0.70140773 -0.91451526 -0.7847663 0.6116528 0.3407459 0.87790537 -0.9617828 0.4571526 0.53463674 -0.665018 -0.84266967 0.31379822 0.2865643 0.30550778 0.67455345 0.12087885 0.8640933 0.457436 -0.5268675 -0.6916879 0.9682158 -0.58211523 0.54884475 -0.9004558 0.41220272 -0.43910265 -0.7252767 0.26137674 0.5248132 -0.14178465 -0.05612588 -0.07710734 -0.6893936 0.18190324 0.44608787 0.88921976 -0.8616003 0.9669535 0.23342514 -0.24820843 -0.4721903 0.13473426 -0.53414154 0.45276096 -0.046598636 -0.9973266 0.5238973 -0.9394615 0.17742293 -0.013792656 0.6645955 0.60278845 0.27165213 0.1408688 0.9642934 -0.6022442 0.2135108 -0.33378807 0.77903867 -0.8057694 0.774308 0.6769256 0.6086395 -0.4895389 0.60054314 0.5522977 0.03847137 -0.50137836 -0.123570584 -0.0670894 -0.854233 0.11943393 0.16886479 -0.7495086 0.94234747 -0.25394237 -0.3035106 -0.113307655 -0.62008965 0.08103938 -0.16702937 -0.87656564 0.76453304 -0.01883059 0.64620423 0.13439214 -0.6187219 0.9682945 -0.5748972 -0.8551082 0.11964711 -0.22071822 -0.32020015 0.93043274 -0.54409146 0.25626448 -0.19644988 0.005071342 0.33541542 -0.14025751 -0.7479801 -0.20541161 -0.932907 0.16195749 0.5550123 0.4336856 0.35236815 -0.32716233 -0.7111729 0.38571954 -0.277388 -0.2630557 0.38129792 0.9530042 0.37657773 0.37885708 0.13727082 0.25375107 0.17780235 -0.08409767 0.86298215 -0.2528425 -0.3777211 0.5814242 0.8622877 0.6372803 -0.7701676 0.45056236 0.58568406 0.1341595 0.15246981 0.018805355 -0.21595053 -0.3548162 0.38512713 -0.2856416 0.61586237 0.22854793 -0.18401152 0.37556905 0.81369007 0.54894197 0.849641 0.44205073 0.6813401 0.8358741 -0.01316832 -0.12033664 -0.09955339 0.6747889 0.55047405 -0.15327391 -0.874928 0.7199242 0.5650226 -0.4092022 0.7728136 -0.53184485 0.91387177 -0.44887015 -0.27895778 0.50922924 -0.35844675 0.32775992 0.81589806
28 0.0 0.0 0.0 0.0 0.0 0.0 0.0 0.0 0.0 0.0 0.0 0.0 0.0 0.0 0.0 0.0 0.0 0.0 0.0 0.0 0.0 0.0 0.0 0.0 0.0 0.0 0.0 0.0 0.0 0.0 0.0 0.0 0.0 0.0 0.0 0.0 0.0 0.0 0.0 0.0 0.0 0.0 0.0 0.0 0.0 0.0 0.0 0.0 0.0 0.0 0.0 0.0 0.0 0.0 0.0 0.0 0.0 0.0 0.0 0.0 0.0 0.0 0.0 0.0 0.0 0.0 0.0 0.0 0.0 0.0 0.0 0.0 0.0 0.0 0.0 0.0 0.0 0.0 0.0 0.0 0.0 0.0 0.0 0.0 0.0 0.0 0.0 0.0 0.0 0.0 0.0 0.0 0.0 0.0 0.0 0.0 0.0 0.0 0.0 0.0 0.0 0.0 0.0 0.0 0.0 0.0 0.0 0.0 0.0 0.0 0.0 0.0 0.0 0.0 0.0 0.0 0.0 0.0 0.0 0.0 0.0 0.0 0.0 0.0 0.0 0.0 0.0 0.0 0.0 0.0 0.0 0.0 0.0 0.0 0.0 0.0 0.0 0.0 0.0 0.0 0.0 0.0 0.0 0.0 0.0 0.0 0.0 0.0 0.0 0.0 0.0 0.0 0.0 0.0 0.0 0.0 0.0 0.0 0.0 0.0 0.0 0.0 0.0 0.0 0.0 0.0 0.0 0.0 0.0 0.0 0.0 0.0
29 -0.16533767 -0.5159664 -0.81532955 0.8562188 -0.53782946 -0.8106159 0.724625 0.90258723 -0.8824172 -0.7608026 0.6074139 0.5258282 0.6059865 -0.9181545 0.7139212 0.5644969 -0.62662584 -0.7612953 0.6927646 0.114392534 0.73722965 0.9302814 0.00223428 0.7885213 0.7509935 -0.66734207 -0.36293653 0.9013782 -0.56795645 0.114951134 -0.7915699 0.27887177 -0.12663269 -0.60956514 0.11270365 0.40091276 -0.19828682 -0.09892321 -0.020033538 -0.58958703 0.17526853 0.44789922 0.640184 -0.8330823 0.950298 -0.182711 -0.09207785 -0.36432636 0.2772981 -0.7283361 0.054942213 -0.45654786 -0.9878592 0.39666066 -0.89790463 -0.10420864 -0.11406425 0.6802013 0.39776292 0.2499893 0.17818862 0.95544547 -0.5054681 -0.74241495 -0.56612676 0.75875044 -0.86239415 0.772816 0.79582036 0.62524915 -0.74663955 0.62260705 0.32054186 0.18844716 -0.27006894 -0.06725597 -0.008216739 -0.7300022 0.07918993 0.39215195 -0.75998676 0.8462184 -0.17901713 -0.033825494 -0.112715304 -0.45861673 0.27450788 0.146427 -0.8702462 0.6366065 -0.22196987 0.84293514 0.16889048 -0.2733553 0.93496835 -0.74167633 -0.79076344 0.20131981 -0.4923439 -0.36922804 0.90725356 -0.23237512 0.46168506 -0.22764745 -0.3535564 0.50651336 -0.1482507 -0.6963407 -0.12288994 -0.86876 0.5251446 0.4596897 0.49915403 0.34400526 -0.580937 -0.60583204 0.019741356 -0.41780543 -0.36271393 0.6434071 0.8140519 0.43709484 -0.035397053 0.040463872 0.38228703 0.41555798 -0.031819582 0.7583568 -0.2945441 -0.49391997 0.53352344 0.75858665 0.8574171 -0.46032384 0.30351973 0.71828496 0.24465603 -0.24207047 -0.17882921 0.014671609 0.11827901 0.6244684 -0.30421928 0.8317485 -0.34910274 -0.64640296 0.38799056 0.8944165 0.65329576 0.51714814 0.8481278 0.79148996 0.8876238 -0.06480991 -0.22280933 -0.027753025 0.8758661 0.39325538 -0.14414984 -0.7435721 0.6130285 0.23081338 0.058110025 0.64306396 -0.48263434 0.91667163 -0.43780142 -0.09074211 0.5958382 -0.5624113 0.42075962 0.13952255
30 -0.5537975 -0.64346576 -0.9392704 0.8969778 -0.79309636 -0.79818004 0.66629833 0.82982486 -0.8128615 -0.89112645 0.5856229 0.69712156 0.9609521 -0.9695794 0.2694777 0.5606766 -0.82378536 -0.80804545 0.22843865 0.1558677 0.7423748 0.87469196 0.13478997 0.8988436 0.7463385 -0.38758448 -0.48771778 0.9150759 -0.52180463 0.8434127 -0.8744553 0.3936367 -0.21231663 -0.6749844 0.23225577 0.5291261 0.060061924 -0.1643908 -0.05547601 -0.26942858 0.13741732 0.19751748 0.55315125 -0.60034084 0.95136213 -0.12563168 -0.13419682 -0.4213093 0.20077005 -0.6188125 0.20136233 -0.25940835 -0.9905053 0.6009203 -0.9246171 -0.13220096 0.016555928 0.7768933 0.48517063 0.3441293 0.72872347 0.905594 -0.3748054 0.28367078 -0.5514607 0.8405789 -0.8189497 0.69519484 0.7705636 0.7894064 -0.877185 0.64585215 0.56728363 0.20377564 -0.364021 0.32932496 -0.18352412 -0.8781618 0.105066426 0.021871913 -0.7742991 0.91042536 -0.2853648 -0.41584766 -0.15238847 -0.7275415 -0.19567804 -0.21033785 -0.7698714 0.8123349 -0.043921024 0.90362346 0.024493743 -0.25020167 0.8592366 -0.58997566 -0.84008247 0.22437233 -0.030174986 -0.40701622 0.9470382 -0.3760426 0.19791709 -0.1486437 0.0023431182 0.46143115 0.3129943 -0.41629785 -0.6782963 -0.94270504 0.118933365 0.7125423 0.68789953 0.29603684 -0.33722717 -0.7400772 0.47813055 -0.48103428 -0.45922452 0.3176398 0.95827955 0.39563423 0.06328341 -0.0902641 0.43922785 0.2749883 -0.19482641 0.86011356 -0.15052688 -0.5019419 0.6944878 0.778448 0.833083 -0.8089406 0.57170963 0.5077645 -0.11131794 0.4667245 -0.14987035 0.2132696 -0.4943998 0.5385878 0.050619796 0.5795166 0.11786042 -0.46578705 0.2416186 0.9003959 0.6613536 0.75132865 0.8529446 0.7986282 0.8536871 0.2702731 0.4252986 -0.09837408 0.49510673 0.39182332 -0.24843034 -0.84974444 0.7060023 0.27945215 -0.37104866 0.83839625 -0.5867435 0.9155812 -0.6265749 0.18254218 0.7239173 -0.82077396 0.30180043 0.82869625
31 0.0 0.0 0.0 0.0 0.0 0.0 0.0 0.0 0.0 0.0 0.0 0.0 0.0 0.0 0.0 0.0 0.0 0.0 0.0 0.0 0.0 0.0 0.0 0.0 0.0 0.0 0.0 0.0 0.0 0.0 0.0 0.0 0.0 0.0 0.0 0.0 0.0 0.0 0.0 0.0 0.0 0.0 0.0 0.0 0.0 0.0 0.0 0.0 0.0 0.0 0.0 0.0 0.0 0.0 0.0 0.0 0.0 0.0 0.0 0.0 0.0 0.0 0.0 0.0 0.0 0.0 0.0 0.0 0.0 0.0 0.0 0.0 0.0 0.0 0.0 0.0 0.0 0.0 0.0 0.0 0.0 0.0 0.0 0.0 0.0 0.0 0.0 0.0 0.0 0.0 0.0 0.0 0.0 0.0 0.0 0.0 0.0 0.0 0.0 0.0 0.0 0.0 0.0 0.0 0.0 0.0 0.0 0.0 0.0 0.0 0.0 0.0 0.0 0.0 0.0 0.0 0.0 0.0 0.0 0.0 0.0 0.0 0.0 0.0 0.0 0.0 0.0 0.0 0.0 0.0 0.0 0.0 0.0 0.0 0.0 0.0 0.0 0.0 0.0 0.0 0.0 0.0 0.0 0.0 0.0 0.0 0.0 0.0 0.0 0.0 0.0 0.0 0.0 0.0 0.0 0.0 0.0 0.0 0.0 0.0 0.0 0.0 0.0 0.0 0.0 0.0 0.0 0.0 0.0 0.0 0.0 0.0
32 -0.71922326 -0.4865808 -0.95121586 0.9476838 -0.6638071 -0.82503295 0.71596885 0.37871462 -0.7056309 -0.85590017 0.54241604 0.27600002 0.75240844 -0.95661044 0.7041912 0.5082713 -0.61588943 -0.5660013 -0.11375967 0.0867159 0.533667 0.59980434 -0.1472213 0.87720454 0.7894762 -0.44619018 -0.6688968 0.9449572 -0.6007847 0.023099154 -0.9287326 0.40941256 0.22696069 -0.73734325 0.16912004 0.3123995 0.05580675 0.02742552 0.041302413 -0.62118906 0.31975546 -0.05083216 0.69829094 -0.81832224 0.9795387 0.043857068 -0.114705056 -0.44992578 0.34707054 -0.46899423 0.69345015 0.44054076 -0.9895464 0.06984692 -0.86997414 -0.10337122 0.06352779 0.67353594 0.6656954 0.22385618 -0.0114810765 0.96789396 -0.2715128 0.6806055 -0.77110785 0.7256905 -0.72651345 0.6232012 0.77387476 0.4683655 -0.7778274 0.7054474 0.7327942 -0.025253832 -0.5444547 -0.5699541 -0.21910527 -0.8916349 0.41956943 0.4279107 -0.53863883 0.9819765 -0.7093282 -0.4503684 0.027715504 -0.6509097 -0.1271303 0.03292817 -0.8344639 0.7214159 -0.48296613 0.91918457 0.0049598906 -0.27945852 0.94936335 -0.56825316 -0.7282877 0.43494552 -0.45557112 -0.5030074 0.79398894 -0.5356435 0.4875778 -0.17789659 0.33588853 0.5512421 -0.08064484 -0.67788565 -0.2796276 -0.65436816 0.14336106 0.41097328 0.8773441 0.33824584 -0.5545112 -0.68627 -0.06300208 -0.63710403 0.051412195 0.38736624 0.925576 0.5354091 -0.07091367 -0.15464991 0.46162552 -0.025063023 -0.09731831 0.8502508 0.31805378 -0.45814434 0.4750761 0.7432919 0.70680326 -0.5371142 0.12473993 0.75194246 0.6285072 -0.20701542 -0.12262252 0.4879886 -0.37244987 0.78107685 -0.5462009 0.71535844 0.18835795 -0.50153583 -0.55734664 0.807246 0.6070355 0.7067632 0.8667326 0.6254201 0.82607675 0.19064663 0.18154669 -0.09936905 0.8143635 0.35677597 -0.0052936673 -0.8974371 0.86146075 0.80240506 -0.11938529 0.64563656 -0.37980464 0.8931776 -0.72284395 -0.045230728 0.44983697 -0.71714556 0.5414696 0.25286087
33 0.0 0.0 0.0 0.0 0.0 0.0 0.0 0.0 0.0 0.0 0.0 0.0 0.0 0.0 0.0 0.0 0.0 0.0 0.0 0.0 0.0 0.0 0.0 0.0 0.0 0.0 0.0 0.0 0.0 0.0 0.0 0.0 0.0 0.0 0.0 0.0 0.0 0.0 0.0 0.0 0.0 0.0 0.0 0.0 0.0 0.0 0.0 0.0 0.0 0.0 0.0 0.0 0.0 0.0 0.0 0.0 0.0 0.0 0.0 0.0 0.0 0.0 0.0 0.0 0.0 0.0 0.0 0.0 0.0 0.0 0.0 0.0 0.0 0.0 0.0 0.0 0.0 0.0 0.0 0.0 0.0 0.0 0.0 0.0 0.0 0.0 0.0 0.0 0.0 0.0 0.0 0.0 0.0 0.0 0.0 0.0 0.0 0.0 0.0 0.0 0.0 0.0 0.0 0.0 0.0 0.0 0.0 0.0 0.0 0.0 0.0 0.0 0.0 0.0 0.0 0.0 0.0 0.0 0.0 0.0 0.0 0.0 0.0 0.0 0.0 0.0 0.0 0.0 0.0 0.0 0.0 0.0 0.0 0.0 0.0 0.0 0.0 0.0 0.0 0.0 0.0 0.0 0.0 0.0 0.0 0.0 0.0 0.0 0.0 0.0 0.0 0.0 0.0 0.0 0.0 0.0 0.0 0.0 0.0 0.0 0.0 0.0 0.0 0.0 0.0 0.0 0.0 0.0 0.0 0.0 0.0 0.0
34 -0.55397415 -0.5440712 -0.670822 0.8529731 -0.6511708 -0.55312574 0.60583186 0.8708019 -0.8716287 -0.87582064 0.44077823 0.51306456 0.92823863 -0.9384902 0.80044115 0.49290115 -0.42621168 -0.5953116 0.57845396 0.026655555 0.7579852 0.8498282 -0.08246115 0.8420477 0.89874953 -0.59032446 -0.28826985 0.9466628 -0.5101542 0.05388844 -0.8668537 0.34314865 -0.35538894 -0.69860184 0.22442238 0.29304317 -0.055272847 -0.10627125 -0.044582143 -0.29535356 0.007684067 0.28215528 0.74597716 -0.83750254 0.92838824 -0.43361878 -0.3422677 -0.6088135 0.28907597 -0.71360666 0.29502633 0.11019682 -0.9849836 0.18651125 -0.9284101 -0.40858448 0.19588915 0.63691837 0.68149513 0.54253393 0.16537338 0.9308064 -0.17924657 -0.20082307 -0.6893277 0.85887533 -0.83628744 0.6918793 0.7752776 0.7668274 -0.7776859 0.27543843 0.5590724 0.13820517 -0.21027088 -0.51737726 -0.16465181 -0.7037694 -0.1203644 0.28802615 -0.68722034 0.9217948 -0.37318408 -0.18377477 -0.09258291 -0.59064764 -0.012275219 0.013719267 -0.7061837 0.75269026 -0.3420189 0.859879 0.56397617 -0.43326426 0.91160667 -0.7502586 -0.74928105 0.23523128 -0.06286215 -0.44337767 0.97066253 -0.36230835 0.17488445 0.038253248 0.21916647 0.20092389 0.2525484 -0.46483472 -0.18277888 -0.92578167 0.034254305 0.7791936 0.62745106 0.37754923 -0.5382118 -0.5655229 0.5062251 -0.3343225 -0.38457865 0.34856772 0.9461378 0.370273 -0.048782825 -0.12853238 0.26896718 0.29905462 -0.17628585 0.80894005 -0.17852019 -0.5535454 0.4928684 0.7068053 0.82215714 -0.5273892 0.34462324 0.5729006 -0.039836716 0.17399898 -0.5432291 0.19803621 0.050258026 0.6566716 -0.23314595 0.84509456 -0.012672484 -0.77226573 0.42088902 0.9255112 0.58694494 0.83383226 0.7682494 0.72551805 0.91843617 -0.44554743 0.3530915 0.2786988 0.16847062 0.520047 -0.114082545 -0.874098 0.75547194 0.51805645 -0.18153608 0.7283142 -0.4235553 0.93420947 -0.46663454 0.48735583 0.61277616 -0.84227127 0.34075662 0.5514874
35 -0.023448005 -0.046049282 -0.4310323 0.2741825 -0.13742065 -0.4075426 -0.108953625 0.27082112 -0.13612258 -0.42965922 0.35285452 -0.030563429 0.26820958 -0.3151042 -0.085459046 0.12974271 -0.16905215 -0.37655306 0.20486483 0.21683481 -0.007487681 0.3935253 -0.063937604 0.3216549 0.07635312 -0.28032106 -0.4070985 0.20550892 -0.16723981 -0.13583198 -0.18334937 0.106659114 0.20688607 -0.25948697 0.0602338 0.05679294 -0.022921264 0.034481227 0.03172286 -0.035203148 -0.15121292 0.24781732 0.6419738 0.051225703 0.44384527 0.11728994 -0.101181194 -0.057063647 0.08103089 -0.38360566 0.49029478 0.005140686 -0.48087877 -0.057784043 -0.3737274 0.0925038 -0.18733251 0.55172735 0.33077595 -0.111340135 0.13064401 0.6024139 0.18531111 -0.19378048 -0.4635365 0.27284727 -0.42383772 0.21936852 0.49022374 0.59573555 -0.20160021 0.06458536 -0.0072969906 0.15104568 0.12693754 -0.17234233 -0.024607696 0.2145586 -0.52255654 0.114405185 -0.16333136 0.0004672098 0.27556238 -0.06501317 -0.048864037 -0.33120272 0.24823894 -0.06596255 -0.32116103 0.097098395 -0.4081846 0.39382434 0.19041473 0.23763458 0.39158028 -0.28563496 -0.27283764 -0.008958723 -0.41977638 -0.18489462 0.3726735 -0.014376288 0.23522213 -0.088374645 -0.3535292 0.22521856 0.052295774 -0.33190006 0.12265899 -0.23323408 0.09233868 0.2610637 0.27152312 0.2747127 -0.14601737 -0.18735524 0.32347786 0.11900923 -0.2630002 -0.11423457 0.5373331 -0.06197627 0.11494997 0.19054532 0.24357112 0.35957855 0.07986297 0.1357322 0.100690424 -0.28259668 0.35609367 0.17975006 0.24486627 -0.26669255 0.11402663 0.42277405 0.11282471 -0.035444245 -0.45478207 -0.21309349 -0.18648663 0.1417622 0.374655 0.35691717 -0.11141066 -0.44021195 -0.18051976 0.47098252 0.4525894 0.30358893 0.25243464 0.3083582 0.38712835 0.09400326 -0.33620486 -0.03728114 0.568262 -0.048947357 -0.017269276 -0.03160371 0.12659138 0.096073985 0.0836713 0.15484184 0.256898 0.22145158 -0.12718876 -0.15855472 0.24413732 -0.19469099 0.2402612 0.3700997
36 -0.44434467 -0.4434988 -0.8942669 0.9428848 -0.7444909 -0.7087269 0.5546123 0.7558982 -0.8846553 -0.86132246 0.59328145 0.58563715 0.9194606 -0.94823766 0.668527 0.52250445 -0.77436626 -0.78833336 0.27377227 0.18403715 0.26330626 0.67893815 0.049140215 0.85454035 0.5499324 -0.5650867 -0.63241524 0.9502121 -0.6404809 0.59672564 -0.8940568 0.4663211 -0.2073539 -0.7735178 0.13056397 0.73128974 0.16425556 -0.08254233 0.1285164 -0.5749843 0.4040623 0.47701555 0.8190721 -0.82727486 0.9598975 0.14534599 -0.05657262 -0.49841115 0.14512047 -0.6206188 0.681038 0.6034161 -0.9976608 0.47340614 -0.9243836 0.1497668 -0.06893006 0.70584893 0.5558971 0.13671133 0.2870265 0.97014254 -0.12636724 -0.020213202 -0.3094577 0.7571674 -0.8797394 0.61280173 0.619435 0.7120549 -0.79354537 0.49947712 0.63868123 0.038337827 -0.39730215 0.31926996 -0.22727361 -0.66890496 0.298101 0.3292814 -0.6588041 0.9285481 -0.29170507 -0.44155043 -0.1242793 -0.7393383 0.19114101 -0.35389236 -0.7767449 0.6854115 -0.42879865 0.64646137 0.23594084 -0.48986536 0.9566619 -0.6227095 -0.783095 0.33499318 0.2808724 -0.3831473 0.93184793 -0.48678884 0.3728103 -0.21956187 0.14772703 0.24842988 -0.17376572 -0.7880477 -0.1478468 -0.75222933 0.10466993 0.6707037 0.3024534 0.25415725 -0.5140045 -0.636289 0.49524397 -0.24013036 -0.29156458 0.3023882 0.96246624 0.50730735 0.33442348 -0.23181817 0.5732295 0.22595102 -0.14874622 0.79969853 -0.032551236 -0.30698383 0.4882071 0.73427856 0.84475327 -0.6405062 0.51620996 0.7020285 0.2092482 0.0707642 0.105725214 0.38697338 -0.58513385 0.5397987 -0.28892535 0.49842185 0.42244866 -0.44145894 -0.045710314 0.8684658 0.5056503 0.7879962 0.17984837 0.5760656 0.79621214 0.21654223 0.048420414 0.029910617 0.4553234 0.5435954 -0.29096198 -0.91124904 0.7090918 0.23940228 -0.35411978 0.6765601 -0.52754825 0.90386975 -0.402543 -0.17597334 0.48500904 -0.16787493 0.37471822 0.777897
37 0.0 0.0 0.0 0.0 0.0 0.0 0.0 0.0 0.0 0.0 0.0 0.0 0.0 0.0 0.0 0.0 0.0 0.0 0.0 0.0 0.0 0.0 0.0 0.0 0.0 0.0 0.0 0.0 0.0 0.0 0.0 0.0 0.0 0.0 0.0 0.0 0.0 0.0 0.0 0.0 0.0 0.0 0.0 0.0 0.0 0.0 0.0 0.0 0.0 0.0 0.0 0.0 0.0 0.0 0.0 0.0 0.0 0.0 0.0 0.0 0.0 0.0 0.0 0.0 0.0 0.0 0.0 0.0 0.0 0.0 0.0 0.0 0.0 0.0 0.0 0.0 0.0 0.0 0.0 0.0 0.0 0.0 0.0 0.0 0.0 0.0 0.0 0.0 0.0 0.0 0.0 0.0 0.0 0.0 0.0 0.0 0.0 0.0 0.0 0.0 0.0 0.0 0.0 0.0 0.0 0.0 0.0 0.0 0.0 0.0 0.0 0.0 0.0 0.0 0.0 0.0 0.0 0.0 0.0 0.0 0.0 0.0 0.0 0.0 0.0 0.0 0.0 0.0 0.0 0.0 0.0 0.0 0.0 0.0 0.0 0.0 0.0 0.0 0.0 0.0 0.0 0.0 0.0 0.0 0.0 0.0 0.0 0.0 0.0 0.0 0.0 0.0 0.0 0.0 0.0 0.0 0.0 0.0 0.0 0.0 0.0 0.0 0.0 0.0 0.0 0.0 0.0 0.0 0.0 0.0 0.0 0.0
38 -0.70593864 -0.3120745 -0.92340773 0.7708752 -0.76816916 -0.45852786 0.4599723 0.49782103 -0.82726914 -0.6181984 0.4762429 0.20607984 0.7997744 -0.9628803 0.6875484 0.20307377 -0.65464306 -0.779528 0.6241413 0.08637993 0.57739305 0.7710648 -0.15916203 0.79106855 0.66610616 -0.6924227 -0.7424493 0.8968503 -0.35997358 0.3940926 -0.7538144 0.21896565 -0.3411284 -0.77502316 0.08069329 0.26364276 -0.034709193 -0.12879524 -0.17826247 -0.44297394 -0.062175736 0.077839166 0.9184818 -0.7327267 0.9263136 0.20549543 -0.27337018 -0.4144637 0.3839122 -0.7411189 -0.0032778233 0.11441451 -0.9823783 0.5797355 -0.8892435 -0.08702713 0.019318573 0.8240754 0.50614786 0.0067700297 0.6338067 0.9472452 -0.4462967 0.24891138 -0.3730507 0.67006207 -0.6968266 0.49158454 0.801002 0.62384146 -0.8181226 0.26988742 0.5282961 0.13112113 -0.31720746 -0.22966242 0.00981096 -0.79822 -0.048021898 0.46994883 -0.6145459 0.92511976 -0.24972968 -0.1111792 -0.086473554 -0.6144324 0.09219319 -0.26904848 -0.8261298 0.77161855 -0.5960302 0.86804515 0.40936273 -0.1417108 0.8563997 -0.47077054 -0.75042695 0.2135571 -0.026866756 -0.23728617 0.9213439 -0.35638148 0.25979912 -0.14168322 -0.22708464 0.27599874 0.19038051 -0.44060665 -0.22264281 -0.83533144 0.09345578 0.64027613 -0.15915847 0.41321284 -0.18860552 -0.5499512 0.32445318 -0.33557153 -0.59804296 0.18443333 0.92954284 0.20047125 0.2201913 0.07134271 0.49086416 0.12285095 -0.35165647 0.6547788 -0.25376186 -0.46929482 0.7464309 0.5650315 0.63206685 -0.5127139 0.33980656 0.59630334 0.40267265 0.2970494 -0.22848216 0.11547092 -0.0029761195 0.7326862 -0.15044862 0.6880699 -0.22145702 -0.5130358 0.49108544 0.79769623 0.3814765 0.8408153 0.7745825 0.810265 0.87952375 0.2797116 -0.32513684 0.10139389 0.42297322 0.45733565 -0.12519956 -0.7933154 0.75480783 0.35294124 -0.17154491 0.675279 -0.47673318 0.8184831 -0.28643334 -0.13751806 0.40674025 -0.6539027 0.41165715 0.34290743
39 -0.7047557 -0.2092377 -0.78510004 0.533126 -0.41892865 -0.7814572 0.3575068 0.74618435 -0.65318507 -0.8957243 0.4566753 0.5184271 0.6804403 -0.81878173 0.4470067 0.34289548 -0.43143627 -0.70741594 0.4389444 0.14389801 0.32990834 0.72184056 -0.0062858164 0.7172032 0.74280864 -0.6440406 -0.65269 0.8027278 -0.20716876 0.37931156 -0.6210822 0.12442964 -0.285321 -0.44460618 0.024421334 0.38381973 0.07347797 -0.029140607 0.030722141 -0.114213474 -0.12509915 0.27399844 0.9548596 -0.67118627 0.809242 -0.14076823 -0.13749067 -0.16208982 0.09403953 -0.57676286 0.3233673 -0.33307153 -0.8623758 -0.013434418 -0.8431659 -0.031967584 0.21569529 0.62897235 0.40813038 0.14147699 0.7045806 0.957704 -0.25561845 0.042955637 -0.33080357 0.558164 -0.6898929 0.5183284 0.7578478 0.67677814 -0.34959295 0.37544706 0.34330264 0.23048553 -0.4375737 -0.21059024 -0.0036991835 -0.6483501 -0.004174348 0.057777286 -0.35302883 0.830777 -0.32668915 -0.06625971 -0.064041734 -0.73462003 0.7135205 -0.20096973 -0.7548242 0.42619765 -0.52139825 0.72684926 0.20984395 -0.031184971 0.7332678 -0.33299518 -0.6350099 0.076985 -0.33366305 -0.2295829 0.8507436 -0.34959528 0.14966159 -0.23375702 0.29743138 0.20351106 0.28444338 -0.60431874 0.16595061 -0.84342116 0.21940276 0.52958703 0.16162777 0.4997565 -0.31123346 -0.6140389 0.4739867 -0.2989034 -0.56472594 -0.060876697 0.92039746 0.20587157 -0.09696783 0.0052962154 0.31517163 0.40482545 0.1042287 0.6312396 -0.1809576 -0.35207826 0.59193146 0.43572262 0.47925133 -0.4508357 0.4237458 0.58295745 0.021507911 0.10900995 -0.1859892 0.0057222396 -0.44229406 0.60226715 -0.26860875 0.50621426 -0.09028254 -0.7997076 0.29900795 0.80072784 0.2818774 0.7710748 0.6761913 0.7323208 0.7131516 0.03296092 -0.26213607 -0.09575388 0.52896184 0.2942772 -0.12769103 -0.7352577 0.5541234 0.4681797 -0.040541258 0.42925128 -0.3171867 0.5572895 -0.2567412 -0.026880294 0.2518957 -0.6580102 0.28577334 0.4912007
40 0.0 0.0 0.0 0.0 0.0 0.0 0.0 0.0 0.0 0.0 0.0 0.0 0.0 0.0 0.0 0.0 0.0 0.0 0.0 0.0 0.0 0.0 0.0 0.0 0.0 0.0 0.0 0.0 0.0 0.0 0.0 0.0 0.0 0.0 0.0 0.0 0.0 0.0 0.0 0.0 0.0 0.0 0.0 0.0 0.0 0.0 0.0 0.0 0.0 0.0 0.0 0.0 0.0 0.0 0.0 0.0 0.0 0.0 0.0 0.0 0.0 0.0 0.0 0.0 0.0 0.0 0.0 0.0 0.0 0.0 0.0 0.0 0.0 0.0 0.0 0.0 0.0 0.0 0.0 0.0 0.0 0.0 0.0 0.0 0.0 0.0 0.0 0.0 0.0 0.0 0.0 0.0 0.0 0.0 0.0 0.0 0.0 0.0 0.0 0.0 0.0 0.0 0.0 0.0 0.0 0.0 0.0 0.0 0.0 0.0 0.0 0.0 0.0 0.0 0.0 0.0 0.0 0.0 0.0 0.0 0.0 0.0 0.0 0.0 0.0 0.0 0.0 0.0 0.0 0.0 0.0 0.0 0.0 0.0 0.0 0.0 0.0 0.0 0.0 0.0 0.0 0.0 0.0 0.0 0.0 0.0 0.0 0.0 0.0 0.0 0.0 0.0 0.0 0.0 0.0 0.0 0.0 0.0 0.0 0.0 0.0 0.0 0.0 0.0 0.0 0.0 0.0 0.0 0.0 0.0 0.0 0.0
41 -0.4964337 -0.5584433 -0.865434 0.9433269 -0.7663189 -0.66991293 0.7578037 0.74210054 -0.92841464 -0.8262284 0.6266855 0.24853247 0.840361 -0.9500013 0.25454956 0.5858226 -0.57619965 -0.830946 0.5794456 0.019527555 0.66055524 0.90528107 0.11436092 0.799797 0.7701039 -0.36608356 -0.6721428 0.96078753 -0.47758007 0.6780221 -0.91575646 0.37329674 -0.5710652 -0.76826376 0.22165039 0.5688628 -0.07063176 -0.14342052 0.1436592 -0.60717416 0.088366024 0.43875918 0.80600417 -0.7881566 0.9495976 0.034862936 -0.1815338 -0.61646056 0.35755575 -0.5800966 0.1905449 0.16030133 -0.9869667 0.3270298 -0.9372712 -0.26334694 0.038416192 0.65425485 0.52783364 0.38289052 0.65705985 0.93864316 -0.33258826 -0.23811868 -0.5916174 0.8048866 -0.7843034 0.77644306 0.75150985 0.821794 -0.5218063 0.6564213 0.5154506 0.12494284 -0.5136444 -0.033680025 -0.039077938 -0.91560453 0.0030069393 0.3743334 -0.66105556 0.97972655 -0.24068421 -0.37181222 -0.04795572 -0.766049 -0.09058509 -0.033932626 -0.91797274 0.7769918 -0.16248432 0.8793655 0.29961374 -0.12178081 0.9406307 -0.62735176 -0.79314816 0.33120805 -0.026739448 -0.3506226 0.9134193 -0.50335026 0.37769696 0.11523652 -0.061604634 0.53371364 -0.23007533 -0.84356403 0.13451833 -0.8622045 -0.40010872 0.6101986 0.28961176 0.30812195 -0.4706592 -0.59500724 0.5933621 -0.3556909 -0.6135445 0.21606909 0.98216504 0.43535447 0.11735162 -0.036735892 0.4353776 0.17646913 -0.050330408 0.8286988 0.30134636 -0.5783262 0.48588756 0.6757966 0.73933923 -0.71546036 0.1423237 0.5643154 0.24406312 -0.0022591203 -0.31887096 0.2271572 -0.28124505 0.46644875 -0.2946502 0.39698493 0.45238805 -0.60557634 -0.356721 0.87094676 0.69828165 0.877957 0.5389087 0.4701035 0.91638774 0.033214703 0.3002528 0.093456626 0.7072948 0.42258948 -0.21249703 -0.9025644 0.76121235 0.58770174 -0.46605414 0.745597 -0.5487992 0.9068934 -0.7780335 -0.069061264 0.60289806 -0.50579226 0.37822866 0.7358079
42 -0.21693331 -0.5326183 -0.8096324 0.9380144 -0.8338285 -0.39118204 0.61704403 0.6294732 -0.8851791 -0.8737946 0.5616313 0.29078975 0.95732063 -0.9556446 0.49611434 0.3984668 -0.63102615 -0.8554085 0.43927553 0.23048145 0.57907254 0.7617518 -0.14363149 0.909496 0.68852645 -0.4955187 -0.7440118 0.9165517 -0.61676824 0.46476018 -0.8714276 0.41782945 -0.318131 -0.7752939 0.19092715 0.2554734 -0.14633398 -0.10338381 -0.031851605 -0.5065269 0.33578157 0.3537069 0.85084367 -0.812158 0.9157472 -0.0064749047 -0.31910542 -0.56311107 0.24623467 -0.6238965 0.24128065 -0.3401439 -0.98548806 -0.01746577 -0.8336169 -0.41846544 0.16034837 0.6926024 0.5730016 0.14067249 -0.035796683 0.96118754 -0.517125 -0.28722167 -0.7394613 0.84170187 -0.8916468 0.5534492 0.7128884 0.7266484 -0.56254613 0.7463271 0.4125721 0.16943078 -0.39861923 -0.19537252 -0.22495279 -0.76184815 0.047868922 -0.012830228 -0.7026883 0.89389044 -0.41151273 0.0730507 0.019073516 -0.7481601 0.021321967 -0.068022706 -0.85356694 0.7019201 -0.400547 0.8553739 -0.061846294 -0.45065075 0.9347953 -0.5614414 -0.76577187 0.28585595 0.011435911 -0.3322547 0.9474673 -0.61567605 0.28850287 0.08012515 -0.008680478 0.47107178 -0.1515487 -0.82186514 0.03378687 -0.9203181 0.1993055 0.79220724 0.5036274 0.31684065 -0.33123747 -0.7876782 0.3864429 -0.40316713 -0.4183949 0.4145768 0.9805418 0.356275 0.12251919 -0.11914331 0.37132227 -0.12512949 -0.32816666 0.84431475 -0.3825845 -0.4709276 0.5365841 0.7165642 0.80415756 -0.7377035 0.44921634 0.68771803 0.27747735 -0.05815754 -0.29628542 -0.09023604 -0.2851875 0.58293396 -0.21609238 0.81140685 0.41590974 -0.65624744 0.2421976 0.8903756 0.7119214 0.7604457 0.7075652 0.69237363 0.8964927 -0.09006567 -0.1929646 0.13521476 0.7334581 0.45100328 -0.26354378 -0.93762606 0.70268506 0.44471473 -0.19409664 0.72456074 -0.65754074 0.9162991 -0.78172535 0.44629484 0.40334633 -0.6175398 0.51470786 0.6253312
43 -0.42897528 -0.105109155 -0.5473349 0.24250329 -0.30289936 -0.4025182 0.14739648 0.49412763 -0.3747325 -0.49516508 0.7144413 0.24022721 0.47967508 -0.48978236 0.4770422 0.17094171 -0.320683 -0.5605166 0.12170732 0.23365577 0.14064723 0.6605371 -0.093794286 0.47197947 0.24762018 -0.24204528 -0.29965562 0.4535962 -0.13540089 -0.14630157 -0.19124126 0.03712946 -0.18907061 -0.38145363 -0.04094696 0.2515319 -0.035853334 -0.046998948 -0.016722195 -0.07389444 -0.14767225 0.05294537 0.5700705 -0.48345658 0.5798965 -0.2662648 0.12768127 -0.20247285 -0.016211662 -0.46409112 -0.22718358 -0.05268441 -0.56946063 0.034997646 -0.48419186 -0.3613194 0.16354817 0.40124765 0.25672752 -0.10305482 0.54629904 0.69495016 -0.040293273 -0.41901618 -0.35101318 0.24402976 -0.36818793 0.13466007 0.41712886 0.60741645 -0.42672247 0.19394949 0.3170728 0.1311304 0.11400032 -0.36124876 -0.10343936 0.16550013 -0.21090886 0.18521756 -0.10671155 0.7090071 0.09179154 0.17658608 -0.0658634 -0.24556209 0.49717358 0.062860414 -0.31137535 0.20134309 -0.27870464 0.3855397 0.25747722 0.17316073 0.315749 -0.41006154 -0.33878142 0.11365971 -0.06770055 -0.21238184 0.49107212 -0.09842205 -0.08436747 -0.073545665 -0.3410126 0.11663765 0.103548385 -0.40438098 0.34525567 -0.50884694 0.19985867 0.35468337 0.21468882 0.17375764 -0.11311418 -0.23606002 0.1502063 0.007246551 -0.5869625 0.256496 0.53938836 -0.042079113 -0.031550616 0.0134840105 0.28499365 0.22019356 -0.18063661 0.38974422 -0.20431575 0.034928795 0.27497444 0.25435817 0.18936107 -0.22947928 0.38933808 0.36525416 0.041064646 -0.0422497 0.076511025 -0.0895066 -0.1503434 0.1737642 -0.01021662 0.49806327 -0.27740318 -0.5337184 0.14178206 0.5359261 0.3794378 0.53538936 0.6125385 0.3547268 0.4201095 0.06497586 -0.33518177 0.14823811 0.46161872 0.35661227 -0.1110352 -0.444292 0.2829833 -0.048468374 0.06029121 0.16465792 -0.11405566 0.49974012 -0.27929682 -0.12800992 0.27048764 -0.525367 0.092647895 0.22448203
44 -0.69089544 -0.3482031 -0.90165716 0.91702455 -0.7361761 -0.81294584 0.7799511 0.62229 -0.89107627 -0.9361987 0.72619194 0.5410909 0.85752714 -0.9538857 0.50471026 0.45129174 -0.70701396 -0.8801618 0.41210663 0.24047245 0.64053667 0.8434973 -0.11097455 0.80613434 0.6389286 -0.5479593 -0.6741923 0.9607771 -0.59095246 0.26393718 -0.916974 0.38349408 -0.42787442 -0.73092484 0.17989442 0.2441253 -0.082478285 -0.03780089 0.116774864 -0.6737889 0.41690344 0.12873942 0.8146116 -0.7627781 0.9536515 -0.022297442 -0.19107226 -0.5433925 0.1919047 -0.45076957 0.52220035 0.31330603 -0.9950762 0.45233777 -0.92793894 -0.55508894 0.10138697 0.7640417 0.45795706 -0.07262932 0.13194124 0.9110671 -0.55712557 0.035945326 -0.7309556 0.84000075 -0.7894672 0.76582146 0.74325794 0.7993919 -0.50543183 0.6211121 0.5783334 0.18005961 -0.6375152 -0.6772437 -0.11105572 -0.86526555 0.33876473 0.10861054 -0.70024097 0.966035 -0.6248919 0.03488314 0.012169898 -0.8151952 -0.14424774 -0.02663112 -0.8189615 0.743037 -0.19961068 0.88907707 0.23421109 -0.10636966 0.9433606 -0.6114179 -0.8231671 0.33122972 -0.19137436 -0.3188858 0.89254344 -0.58324397 0.40218908 -0.06277909 0.03181331 0.32884708 -0.3005823 -0.81199783 -0.25177562 -0.8864188 0.40619802 0.6063492 0.682421 0.30167738 -0.5095324 -0.7562382 0.49145237 -0.31508648 -0.34475213 0.28269404 0.9651698 0.57001674 -0.15881854 -0.36726388 0.54986537 0.10842848 -0.24187805 0.8784293 0.03393159 -0.40484715 0.37602293 0.6794551 0.5955225 -0.638314 0.29902458 0.62392044 0.5641601 -0.37998977 -0.21702644 0.12726533 -0.23168652 0.60672307 -0.27291346 0.4981059 0.06207326 -0.49832845 -0.2557124 0.9420057 0.59330654 0.7510975 0.8757384 0.760627 0.8770315 0.24584866 0.08115934 -0.18805102 0.5441529 0.47823662 -0.15521911 -0.93967277 0.81562245 0.69270015 0.07765336 0.66223395 -0.5972372 0.9348782 -0.6615317 0.012582589 0.58263123 -0.62828285 0.5024798 0.5940129
45 0.0 0.0 0.0 0.0 0.0 0.0 0.0 0.0 0.0 0.0 0.0 0.0 0.0 0.0 0.0 0.0 0.0 0.0 0.0 0.0 0.0 0.0 0.0 0.0 0.0 0.0 0.0 0.0 0.0 0.0 0.0 0.0 0.0 0.0 0.0 0.0 0.0 0.0 0.0 0.0 0.0 0.0 0.0 0.0 0.0 0.0 0.0 0.0 0.0 0.0 0.0 0.0 0.0 0.0 0.0 0.0 0.0 0.0 0.0 0.0 0.0 0.0 0.0 0.0 0.0 0.0 0.0 0.0 0.0 0.0 0.0 0.0 0.0 0.0 0.0 0.0 0.0 0.0 0.0 0.0 0.0 0.0 0.0 0.0 0.0 0.0 0.0 0.0 0.0 0.0 0.0 0.0 0.0 0.0 0.0 0.0 0.0 0.0 0.0 0.0 0.0 0.0 0.0 0.0 0.0 0.0 0.0 0.0 0.0 0.0 0.0 0.0 0.0 0.0 0.0 0.0 0.0 0.0 0.0 0.0 0.0 0.0 0.0 0.0 0.0 0.0 0.0 0.0 0.0 0.0 0.0 0.0 0.0 0.0 0.0 0.0 0.0 0.0 0.0 0.0 0.0 0.0 0.0 0.0 0.0 0.0 0.0 0.0 0.0 0.0 0.0 0.0 0.0 0.0 0.0 0.0 0.0 0.0 0.0 0.0 0.0 0.0 0.0 0.0 0.0 0.0 0.0 0.0 0.0 0.0 0.0 0.0
46 0.0 0.0 0.0 0.0 0.0 0.0 0.0 0.0 0.0 0.0 0.0 0.0 0.0 0.0 0.0 0.0 0.0 0.0 0.0 0.0 0.0 0.0 0.0 0.0 0.0 0.0 0.0 0.0 0.0 0.0 0.0 0.0 0.0 0.0 0.0 0.0 0.0 0.0 0.0 0.0 0.0 0.0 0.0 0.0 0.0 0.0 0.0 0.0 0.0 0.0 0.0 0.0 0.0 0.0 0.0 0.0 0.0 0.0 0.0 0.0 0.0 0.0 0.0 0.0 0.0 0.0 0.0 0.0 0.0 0.0 0.0 0.0 0.0 0.0 0.0 0.0 0.0 0.0 0.0 0.0 0.0 0.0 0.0 0.0 0.0 0.0 0.0 0.0 0.0 0.0 0.0 0.0 0.0 0.0 0.0 0.0 0.0 0.0 0.0 0.0 0.0 0.0 0.0 0.0 0.0 0.0 0.0 0.0 0.0 0.0 0.0 0.0 0.0 0.0 0.0 0.0 0.0 0.0 0.0 0.0 0.0 0.0 0.0 0.0 0.0 0.0 0.0 0.0 0.0 0.0 0.0 0.0 0.0 0.0 0.0 0.0 0.0 0.0 0.0 0.0 0.0 0.0 0.0 0.0 0.0 0.0 0.0 0.0 0.0 0.0 0.0 0.0 0.0 0.0 0.0 0.0 0.0 0.0 0.0 0.0 0.0 0.0 0.0 0.0 0.0 0.0 0.0 0.0 0.0 0.0 0.0 0.0
47 -0.7514471 -0.46039855 -0.9409144 0.8298381 -0.68299204 -0.74591607 0.51643956 0.7022846 -0.8434161 -0.85124785 0.6876726 0.3987126 0.8094394 -0.97240806 0.32055864 0.40333578 -0.4817918 -0.4589871 0.1611247 0.1842088 0.5109677 0.81386966 0.004459113 0.80736524 0.86619645 -0.3942595 -0.7062456 0.8854212 -0.47895586 -0.30758905 -0.8265693 0.21378529 -0.23885295 -0.4855084 0.25937855 0.540492 -0.032770887 0.025640666 0.022521183 -0.5289948 0.09292543 0.24632175 0.58240986 -0.9023558 0.8855697 -0.08154993 0.23692235 -0.59233785 0.31378606 -0.73365295 0.06407254 -0.105711386 -0.97862065 0.4756017 -0.9200226 0.053330258 0.016375437 0.4546087 0.50373614 0.48098886 0.09835361 0.9691009 -0.16997328 0.07663527 -0.69177085 0.60347855 -0.7063457 0.58455586 0.77719927 0.54484105 -0.8544519 0.75824714 0.5971495 -0.10510966 -0.29460543 -0.5144128 0.040186003 -0.74755913 0.22738995 0.42244437 -0.5340693 0.9870233 -0.1352313 0.050825536 -0.049047053 -0.7404923 0.19450164 0.18786705 -0.69599426 0.6599125 -0.68923026 0.70090747 -0.19249538 -0.34667766 0.9405773 -0.694868 -0.38621956 -0.022019261 -0.48833284 -0.44785735 0.8606515 -0.23783384 0.43350568 -0.22330746 0.16031691 0.48712587 0.2785455 -0.69140244 -0.25747135 -0.84715635 0.1987972 0.520363 0.8178754 0.21778277 -0.40125895 -0.7518888 -0.045183077 -0.5264942 -0.15016583 -0.03314419 0.9478334 -0.014529765 0.018894104 0.0881989 0.38955835 0.17561637 -0.07672113 0.6864083 0.21500295 -0.09600575 0.34876114 0.7027364 0.72873324 -0.45633656 0.4571476 0.7524256 0.10194743 -0.041767944 -0.10118857 0.34333354 -0.5119042 0.64161134 -0.4589156 0.8094394 0.11400665 -0.75174814 0.25436896 0.57916063 0.82362026 0.85792965 0.43055677 0.7807668 0.7903083 0.24468733 0.029324695 0.20474696 0.8402309 0.4988173 -0.18346325 -0.7859253 0.5974025 0.46573082 -0.25186676 0.630641 -0.33027682 0.82327425 -0.67615974 0.20001194 0.61646736 -0.40954742 0.34802717 0.62167436
48 -0.48489207 -0.5682915 -0.76512766 0.95518655 -0.8180853 -0.7539592 0.73608124 0.7657626 -0.85862005 -0.7572598 0.6022981 0.1928029 0.9019865 -0.9638522 0.51091087 0.48594925 -0.68069804 -0.8178626 0.44865918 0.10747969 0.51682127 0.927097 0.009613946 0.8668165 0.74720967 -0.17150709 -0.70049036 0.97358185 -0.47086406 0.34511542 -0.9070314 0.3808496 -0.05890056 -0.7810471 0.08563849 0.4902082 0.17111555 0.04830718 0.16409703 -0.61592245 0.19966093 0.27477598 0.9064475 -0.7855361 0.9428689 0.21240605 -0.027959434 0.0033873916 0.18992911 -0.32419303 0.49144346 -0.18335472 -0.9823909 0.31826192 -0.94509727 0.09324457 0.46256745 0.66707534 0.58988297 0.41499883 0.5174567 0.94849277 -0.2685491 -0.42041373 -0.36745876 0.7038399 -0.7627079 0.7626649 0.54344195 0.7742481 -0.4796685 0.682418 0.6220447 -0.024970438 -0.25162247 -0.40698355 -0.2113832 -0.6699442 0.13434285 0.3160597 -0.57800996 0.94645184 -0.40273482 -0.15439583 -0.190489 -0.7714069 0.23490652 -0.13627356 -0.8020511 0.6470303 -0.3978662 0.73230034 0.3401017 -0.2529203 0.9679614 -0.46714574 -0.6761888 0.20080271 0.15688679 -0.49040443 0.9414848 -0.38918155 0.5177716 -0.35194254 0.32518503 0.4294772 0.05846682 -0.7775287 -0.19254786 -0.910648 -0.1548343 0.5805553 0.38905147 0.23104647 -0.44530392 -0.68452275 0.54445904 0.018591538 -0.4307664 0.45465738 0.971883 0.38622636 0.3192272 0.18653536 0.5166029 0.2163176 -0.063902974 0.72928053 0.1011861 -0.29404235 0.5783808 0.6925799 0.7216373 -0.70105743 0.43404162 0.48651993 0.20802367 0.06430706 -0.09079611 0.4208199 -0.28476244 0.297017 -0.06693402 0.69424015 0.38156378 -0.6361433 0.19562559 0.6100038 0.76393706 0.7828247 0.6989092 0.69571006 0.8704802 -0.028932035 0.04577227 0.23410642 0.5846443 0.34734792 -0.30266044 -0.8129112 0.62684846 0.032465734 -0.51315635 0.7666755 -0.5381831 0.9506702 -0.7221946 -0.08397435 0.6059045 -0.58255416 0.19313292 0.7278842
49 0.0 0.0 0.0 0.0 0.0 0.0 0.0 0.0 0.0 0.0 0.0 0.0 0.0 0.0 0.0 0.0 0.0 0.0 0.0 0.0 0.0 0.0 0.0 0.0 0.0 0.0 0.0 0.0 0.0 0.0 0.0 0.0 0.0 0.0 0.0 0.0 0.0 0.0 0.0 0.0 0.0 0.0 0.0 0.0 0.0 0.0 0.0 0.0 0.0 0.0 0.0 0.0 0.0 0.0 0.0 0.0 0.0 0.0 0.0 0.0 0.0 0.0 0.0 0.0 0.0 0.0 0.0 0.0 0.0 0.0 0.0 0.0 0.0 0.0 0.0 0.0 0.0 0.0 0.0 0.0 0.0 0.0 0.0 0.0 0.0 0.0 0.0 0.0 0.0 0.0 0.0 0.0 0.0 0.0 0.0 0.0 0.0 0.0 0.0 0.0 0.0 0.0 0.0 0.0 0.0 0.0 0.0 0.0 0.0 0.0 0.0 0.0 0.0 0.0 0.0 0.0 0.0 0.0 0.0 0.0 0.0 0.0 0.0 0.0 0.0 0.0 0.0 0.0 0.0 0.0 0.0 0.0 0.0 0.0 0.0 0.0 0.0 0.0 0.0 0.0 0.0 0.0 0.0 0.0 0.0 0.0 0.0 0.0 0.0 0.0 0.0 0.0 0.0 0.0 0.0 0.0 0.0 0.0 0.0 0.0 0.0 0.0 0.0 0.0 0.0 0.0 0.0 0.0 0.0 0.0 0.0 0.0
50 -0.37669182 -0.58834946 -0.90052307 0.93025255 -0.84885055 -0.61792856 0.6004655 0.588706 -0.91591346 -0.91365933 0.7116887 0.3228035 0.8892569 -0.96611476 0.10925852 0.4069297 -0.39426237 -0.8586249 0.5543813 0.2484837 0.7495357 0.90393174 0.07060632 0.8766912 0.8828601 -0.3239277 -0.5596516 0.95199764 -0.4306777 0.22903654 -0.90146154 0.36269855 -0.45504308 -0.7425254 0.13437529 0.44606227 -0.26308545 -0.12179736 -0.04974258 -0.5313822 0.32457465 0.37480867 0.863045 -0.81089216 0.88502914 -0.08852807 -0.43765056 -0.61326176 0.386676 -0.8391081 -0.09909631 0.08738831 -0.9861641 0.03424995 -0.95316666 -0.47453612 0.022544015 0.6461967 0.5831418 0.46247965 0.5193041 0.9556764 -0.35673732 -0.56502795 -0.7850927 0.797659 -0.8212127 0.73868597 0.73910874 0.7535608 -0.44164124 0.504331 0.4219821 0.034121808 -0.23163319 -0.16094142 0.28282714 -0.8607537 0.039933443 0.295715 -0.7778116 0.94956917 -0.24432722 -0.2801258 0.1004923 -0.69896436 0.06664969 0.050929435 -0.93540704 0.63986695 -0.43213934 0.858541 0.32240093 -0.42549455 0.96171486 -0.48305005 -0.49983668 0.3107705 -0.198982 -0.3423635 0.9435569 -0.5864078 0.46057057 -0.33732548 -0.38417372 0.59464836 -0.28123152 -0.80606884 -0.046355672 -0.83637613 0.3204243 0.8679512 0.80786043 0.11908701 -0.53044015 -0.7248896 0.6534731 0.04235509 -0.5631975 0.47009844 0.9586138 0.4146641 0.24810782 0.12854365 0.33452022 -0.033856273 0.10226087 0.7874283 -0.10049369 -0.60717684 0.48236436 0.6719719 0.8507707 -0.79032594 0.555342 0.6318555 -0.047837093 -0.09297131 -0.49054974 0.09973678 -0.075987056 0.5036267 -0.37729967 0.73561215 0.300195 -0.8025908 -0.18846656 0.7716676 0.7418427 0.875234 0.48894882 0.6643997 0.8959801 -0.06939514 -0.22544621 -0.011213422 0.8668419 0.20201594 -0.2664672 -0.8899174 0.7337756 0.39729232 -0.38129234 0.6907073 -0.35478806 0.9128206 -0.6786628 0.027011588 0.5942681 -0.35690638 0.33264115 0.63019735
51 -0.72386795 -0.38576308 -0.6989288 0.81832796 -0.66308033 -0.5208585 0.5174352 0.81709075 -0.8921536 -0.87278545 0.6861409 0.5153073 0.88402015 -0.95045364 0.6341355 0.4793895 -0.6169896 -0.2721975 0.5686491 -0.07227743 0.77477574 0.88944453 0.09606829 0.7181322 0.8085974 -0.35786954 -0.44622353 0.9282674 -0.37053287 0.5202798 -0.8145647 0.35694295 -0.4922944 -0.6819111 0.30720806 0.4765193 0.009564817 0.04178682 0.055620514 -0.24870601 -0.18646118 0.37692073 0.8783207 -0.8226835 0.9509091 0.18386827 -0.33701965 -0.29557875 0.2340785 -0.7789423 0.6551508 -0.013480611 -0.9909519 -0.19304717 -0.9669025 -0.1696296 0.29890612 0.40323612 0.50462824 0.3547076 0.3586129 0.9526213 -0.22041169 -0.21927756 -0.63295335 0.7537639 -0.8122845 0.6629519 0.78545064 0.7777786 -0.64472514 0.50582355 0.52538097 0.064527586 -0.43831176 -0.4462664 -0.17118837 -0.4797791 0.04564927 0.20958117 -0.71113276 0.9062044 -0.26741475 -0.19203092 -0.15167236 -0.6322457 0.15209138 -0.2749457 -0.71882117 0.6520974 -0.3238883 0.9445497 0.27229586 -0.56193393 0.9267516 -0.45637852 -0.81825286 0.41681585 -0.28950602 -0.3524842 0.9568295 -0.43164572 0.22476846 -0.16586567 0.2135007 0.25057343 0.040339205 -0.5416701 -0.38808492 -0.8691739 -0.23850247 0.5057757 0.6935846 0.23837829 -0.54919785 -0.55677027 0.538191 -0.1743718 -0.63018084 0.55121243 0.92679024 0.24816921 0.26571053 -0.05506231 0.3434642 0.2661154 -0.07171201 0.7492727 0.10015847 -0.60879445 0.6882225 0.6998943 0.44840786 -0.86053526 0.39502475 0.5584068 0.12367796 -0.01593101 -0.44379404 0.13518257 -0.09215781 0.6979729 -0.084843084 0.8289739 -0.014815481 -0.55132926 0.049308818 0.89950037 0.28568774 0.83644253 0.7612354 0.51376384 0.87408644 -0.34780952 -0.061748937 0.34856442 0.41953456 0.23557074 -0.21509123 -0.8489947 0.6983089 0.5342446 -0.122376576 0.6916574 -0.34957862 0.8421434 -0.47542232 0.063527554 0.65943915 -0.8626815 0.32748145 0.79599404
52 -0.4719363 -0.6643943 -0.8499841 0.84806883 -0.73915625 -0.68615454 0.6754147 0.760375 -0.8500712 -0.9348357 0.64689445 0.5764037 0.9038785 -0.9710765 0.57021236 0.41658133 -0.5499007 -0.85084116 0.39917243 0.34988236 0.6080797 0.8687634 -0.11276582 0.8207004 0.7465856 -0.5095199 -0.6127732 0.9424497 -0.3401001 0.38025326 -0.8287299 0.30198592 -0.44848824 -0.7254614 0.268149 0.5602452 -0.35111094 -0.16058937 0.17864662 -0.67920446 -0.15006392 0.3450502 0.91834855 -0.87285495 0.832989 0.07406369 -0.0037284344 -0.534117 0.10436401 -0.58272713 0.07274691 0.2056747 -0.99062276 0.44988638 -0.95294386 -0.32697186 0.39575812 0.72818655 0.5159769 0.30043918 0.5219112 0.97569126 -0.1734617 -0.18922396 -0.55133134 0.86699736 -0.7904946 0.7765227 0.721179 0.59109795 -0.7298997 0.5640882 0.64419293 -0.041072547 -0.196715 -0.031319544 -0.10383785 -0.79057586 0.08249448 0.26015088 -0.8505288 0.9491019 -0.17552584 -0.14925174 -0.07732267 -0.7558595 -0.05578646 -0.28485477 -0.9022979 0.5288981 -0.44332275 0.84875935 -0.09383963 -0.39618373 0.9100823 -0.6129145 -0.66980106 -0.020657152 -0.18152373 -0.43402648 0.8953066 -0.33972752 0.09715542 -0.1627961 -0.04928504 0.36755702 0.230576 -0.52725047 -0.44792596 -0.90507764 0.7001479 0.7183459 0.6202273 0.070454374 -0.42021894 -0.6711367 0.48489314 -0.2996648 -0.34271407 0.4199317 0.9580161 0.32552883 -0.099288784 0.12031542 0.503966 0.15283746 0.1608094 0.82958317 -0.3236898 -0.4983657 0.4751448 0.6895165 0.787882 -0.52506685 0.6701705 0.73833877 -0.11012635 -0.031489603 -0.2798457 0.082335964 -0.450277 0.52026856 -0.14481746 0.6157706 0.24919648 -0.75626355 0.44395813 0.9043679 0.7208872 0.8392967 0.54466784 0.8252475 0.78429663 0.41295972 0.4201783 0.057139333 0.5399511 0.57564366 -0.16281962 -0.80489856 0.64202607 0.31811842 -0.2542432 0.6676521 -0.517496 0.90891385 -0.6356989 -0.14498675 0.6505079 -0.6343569 0.37018603 0.8403259
53 -0.6140778 -0.4724077 -0.92564255 0.8567915 -0.62055135 -0.7611157 0.65749854 0.80535364 -0.90017205 -0.86982405 0.67529005 0.6412642 0.84031147 -0.9538851 0.5560821 0.56708115 -0.5551913 -0.88243824 0.66656494 -0.011160046 0.2495379 0.8294697 -0.10144512 0.72979057 0.72699493 -0.77534807 -0.45852074 0.94230294 -0.46660998 0.23660916 -0.793979 0.24429768 0.32367852 -0.70522153 0.09988244 0.6072386 -0.0646168 0.065615475 -0.07204169 -0.4328815 -0.06327298 0.2312775 0.849787 -0.7184107 0.9354203 0.047309667 -0.2971569 -0.30442864 0.054560304 -0.58192486 0.30600312 0.071162075 -0.9835223 0.34737232 -0.87581784 0.12160787 0.21314535 0.48620698 0.4142672 0.12153755 0.47241294 0.97936416 -0.5811447 -0.28698918 -0.16729088 0.7311509 -0.8260408 0.65866 0.7798019 0.71077436 -0.6528924 0.6834527 0.5358251 0.17317793 -0.5067005 -0.57782036 -0.016907841 -0.6535378 0.05467236 0.059483044 -0.631388 0.8692447 -0.2839902 -0.018979989 -0.09875101 -0.77075577 0.6145658 -0.19239949 -0.6474898 0.39972353 -0.61923784 0.84655076 0.43597287 -0.19114117 0.8696392 -0.40124282 -0.755269 0.3297733 -0.29806337 -0.37084067 0.9345595 -0.38637143 0.20443326 -0.17868365 0.3987497 0.116934925 0.24375415 -0.76942456 -0.08556108 -0.9101419 0.09527559 0.58057606 0.24089369 0.35980377 -0.5783657 -0.73866606 0.33722183 -0.46972123 -0.44293243 0.47858262 0.89965546 0.454068 0.15543754 -0.08469649 0.28949842 0.39622414 -0.063521676 0.7687988 0.2962407 -0.2438444 0.64422005 0.6186216 0.61715984 -0.39345375 0.22037861 0.7021688 0.027011707 -0.008243687 -0.16838971 0.23601812 -0.1892946 0.7171278 -0.1407851 0.7241871 -0.09910079 -0.6794197 0.4294759 0.8745346 0.5146626 0.7267385 0.8486863 0.7485171 0.88881963 -0.42208624 -0.17657405 0.05971989 0.6667133 0.48782218 -0.15855563 -0.7669493 0.70448387 0.56382036 0.023448616 0.7221403 -0.43278974 0.868003 -0.2792403 0.051035885 0.33166173 -0.78260225 0.3700948 0.5542232
54 -0.25791124 -0.3620076 -0.8131619 0.663704 -0.6719119 -0.7175585 0.32773006 0.66962487 -0.6298108 -0.6481793 0.4156703 0.40336987 0.8586117 -0.86128753 0.40349102 0.2537946 -0.4824735 -0.74774605 0.50034 0.33180422 0.5620785 0.72007364 -0.107884 0.67285925 0.44409907 -0.5513569 -0.62885934 0.80287534 -0.21749914 0.18055989 -0.5577915 0.13681406 -0.18756376 -0.47324958 0.06354107 0.35086915 -0.10205537 -0.032103486 0.013818324 -0.48601478 -0.20092076 0.40034306 0.71636426 -0.6896277 0.7242198 0.08024281 0.04162143 -0.24263017 0.030837685 -0.42588145 0.56392825 0.1163701 -0.90217686 -0.017525189 -0.86050844 -0.5449188 0.13262907 0.77776825 0.43679202 0.026002556 0.7068791 0.9220748 0.15830716 -0.29872495 -0.36475348 0.5700774 -0.6436052 0.45431787 0.35574913 0.67005736 -0.76261747 0.7173043 0.332707 -0.107684135 -0.3616448 -0.64820635 -0.058858037 -0.6169514 -0.20513073 0.16540428 -0.5037077 0.9390364 -0.27053934 -0.09939901 0.027739078 -0.79651153 0.24883386 -0.032984614 -0.56130546 0.56601965 -0.48365274 0.6983923 -0.12918037 -0.42912382 0.76952684 -0.36233827 -0.4213886 0.11536215 -0.41611022 -0.27628106 0.7727818 -0.12338373 0.27116174 -0.4035107 -0.004644569 0.5471885 0.054280672 -0.48054355 0.259165 -0.8125304 -0.068005994 0.6727677 0.4984759 0.24429816 -0.28034386 -0.45010164 0.25238368 -0.19637136 -0.008092731 0.24234626 0.8095234 0.2760458 -0.21717879 0.15783061 0.3085502 0.04896843 -0.3153993 0.63366103 -0.36008525 -0.10671064 0.4570452 0.43710554 0.5774995 -0.23628807 0.27108094 0.47210845 0.12264576 0.23224334 -0.14215696 0.2990604 -0.35305122 0.4735124 -0.030080825 0.33050734 0.16823259 -0.7688482 0.22257306 0.54440224 0.51521045 0.8084164 0.9079968 0.60715556 0.68100053 0.3841079 -0.20612836 -0.24721332 0.5368804 -0.19137128 0.01529032 -0.7164037 0.5578149 0.22946307 -0.056529924 0.43742394 -0.36419865 0.53058577 -0.5559589 0.0119589865 0.27492934 -0.7074229 0.11936532 0.7585691
55 -0.5971007 -0.1547293 -0.50228184 0.2228874 -0.07038812 -0.24729621 0.076568395 0.34674466 -0.267886 -0.43664044 0.4651254 0.082820475 0.39060926 -0.53474057 -0.022903932 0.061485335 -0.105665095 -0.43646017 0.12788406 0.29116124 -0.051691785 0.65753484 -0.072384566 0.48102552 -0.04595308 -0.27440244 -0.2513708 0.33819813 -0.11917803 -0.2541817 -0.2618181 0.05499065 -0.2583336 -0.33410007 0.027598217 0.13847113 0.0496141 0.021680117 0.007714357 -0.009964706 -0.004284707 0.16779496 0.5203481 -0.21457699 0.38692647 -0.026962228 0.14430964 -0.18567714 0.17397207 -0.37085128 -0.068095624 -0.15304407 -0.41067964 0.38135517 -0.43860593 -0.30236164 0.104857154 0.57782644 0.13529152 -0.0015753083 0.11959062 0.49193764 -0.0056277392 -0.16989197 -0.3798433 0.29329282 -0.3433213 0.14361751 0.3020771 0.4037957 -0.18391757 0.07820298 0.15395772 0.14880341 -0.032148838 -0.2725498 -0.10549766 0.011378342 -0.45393708 0.24934986 -0.14427638 0.52866346 0.10840419 0.06174258 -0.06312728 -0.23934343 0.35545826 -0.029952541 -0.3451625 0.24777305 -0.3587051 0.63985157 0.24835226 0.17596732 0.36916816 -0.26751482 -0.45438576 -0.04439369 -0.22136107 -0.11570442 0.49780697 -0.045924935 -0.22814882 -0.2879027 -0.35770047 0.046863817 0.1797421 -0.49109793 0.1180354 -0.40212077 0.22824867 0.40314415 0.42567426 0.2540187 0.0067471936 -0.29810447 0.23046054 -0.103841424 -0.46706772 -0.045967266 0.6467036 0.05446303 -0.17933808 0.06740831 0.18168391 0.11952963 0.1040181 0.43481147 -0.064721435 -0.16240706 0.3112795 0.17866457 -0.14310001 -0.4370299 0.5872304 0.37129295 0.090018064 0.2936014 0.048590697 0.092795655 -0.25475448 0.14285693 0.25193703 0.45359534 -0.09621146 -0.5869973 -0.081565514 0.50409824 0.41807252 0.4104944 0.33423278 0.2221829 0.5269866 -0.0533857 -0.33541 0.23301837 0.44420332 0.34246185 -0.019632272 -0.16876432 0.18341562 0.12861422 -0.122356825 0.028267086 -0.123880416 0.42963704 -0.35324165 -0.42089376 0.20574677 -0.30664816 0.12426272 0.5222423
56 -0.6167924 -0.15880561 -0.9439968 0.5214192 -0.56376016 -0.7518355 0.07874638 0.24204654 -0.65403146 -0.806374 0.7416354 0.53659976 0.69451076 -0.76932794 0.5424989 0.12719947 -0.3280317 -0.84786105 0.54525644 0.23046577 0.30686674 0.69535595 0.019427896 0.73223937 0.5940659 -0.51266587 -0.026544556 0.69175 -0.2410452 -0.032021582 -0.56511885 0.14702773 -0.06277156 -0.55121887 0.04489726 0.53117955 -0.00768055 0.0016629994 0.10215487 -0.6720172 0.117370434 0.46906382 0.874189 -0.6264402 0.83488965 -0.28370142 -0.10884477 -0.20855735 0.264413 -0.48330197 -0.28576255 -0.22489187 -0.9207216 0.37865752 -0.80082345 -0.079264134 0.03598489 0.15623309 0.55270815 -0.04890625 0.5915901 0.981092 -0.32376373 -0.5856849 -0.05385531 0.495948 -0.7473077 0.24838752 0.61574656 0.36675692 -0.54187685 0.7967625 0.31366542 0.09384707 -0.4890628 -0.61793804 -0.07532252 -0.6598814 -0.286546 0.07061968 -0.43248957 0.9331766 -0.4102227 -0.4822782 -0.01764816 -0.67831963 0.71228695 0.22714338 -0.6937689 0.48433492 -0.72047514 0.72886205 -0.0043639243 -0.21346843 0.79812336 -0.5305071 -0.6166799 0.07802861 -0.1286152 -0.1561721 0.7990657 -0.3888766 0.23100545 -0.28024358 0.21557978 0.2968816 -0.06594519 -0.7234426 -0.16031498 -0.8609116 0.21326452 0.64531964 0.71439123 0.08869979 -0.2552851 -0.5958005 0.5378599 -0.2793031 -0.712273 0.37342793 0.7918536 0.40513808 0.2474095 -0.05083526 0.015322387 0.14488499 0.028755076 0.6517033 -0.052073717 -0.40623823 0.6186927 0.47262105 0.4207943 -0.56984156 0.2564132 0.53666675 -0.0069949925 0.06319826 -0.50901926 -0.1573971 -0.22998954 0.47691044 -0.036981747 0.48215342 0.13440445 -0.65138906 0.27597973 0.8074773 0.76124936 0.7290456 0.66227645 0.7447085 0.56203943 0.43431926 -0.17351562 -0.071844965 0.471081 0.24536772 -0.06720424 -0.6124645 0.58273745 0.3723519 -0.15561295 0.5253778 -0.3254673 0.6199187 -0.54127127 -0.10396108 0.19884545 -0.69156116 0.26781344 0.44769794
57 -0.7609781 -0.4598533 -0.92765385 0.89034534 -0.73609424 -0.63953686 0.6076716 0.6043546 -0.91880274 -0.9008776 0.59986687 0.22919565 0.8192951 -0.883697 0.6449626 0.47014683 -0.6175102 -0.5630817 0.61717314 0.32783175 0.10653044 0.76945764 -0.14312348 0.8448904 0.6945162 -0.70805925 -0.68440586 0.92773646 -0.6786481 0.47874355 -0.8572269 0.3788334 0.18312095 -0.6274636 0.2164405 0.36102125 0.07959068 0.032054096 -0.001983866 -0.23478042 0.11094357 0.22021593 0.8899368 -0.66328853 0.9490703 0.038607635 -0.44054973 -0.48711136 0.26634166 -0.3597029 0.3975846 0.100035384 -0.9946674 0.35545796 -0.9106443 -0.19866373 0.0408945 0.76603127 0.63678783 -0.028143466 0.5002622 0.9088122 0.14675817 -0.14954871 0.0005312711 0.84424835 -0.84017277 0.68114936 0.7359551 0.5540763 -0.8566545 0.39719138 0.65213394 0.28303167 -0.3296824 -0.42254373 -0.0006320607 -0.8409114 -0.0822988 0.4359708 -0.67322487 0.9612448 -0.27961737 -0.25129125 0.0497348 -0.69421613 0.07500385 -0.19365706 -0.760377 0.7987226 -0.6158368 0.8643409 0.43245432 -0.06618909 0.9590756 -0.5715153 -0.7440171 0.34707752 -0.12732619 -0.35767457 0.9175931 -0.47420645 0.4271057 -0.22609222 0.19105345 0.3460858 -0.23924404 -0.5133101 -0.54174286 -0.9172672 0.6542172 0.42073178 0.40687773 0.3141736 -0.5816356 -0.7014957 0.5661512 -0.24746703 -0.54268277 0.32978117 0.8617312 0.36938122 -0.04480445 -0.10515222 0.37727544 0.6874849 -0.44304517 0.79587215 -0.20765159 -0.49197248 0.5363392 0.78745544 0.77796 -0.64687806 0.3321849 0.7035037 0.19055408 0.14916025 -0.63342035 -0.05281144 -0.26338336 0.7409565 -0.21819001 0.62912214 0.098362654 -0.43930683 -0.19267528 0.8260351 0.43776694 0.79508185 0.83582973 0.7713202 0.894437 0.344879 0.37926143 -0.11072302 0.44453198 0.50291866 -0.28438425 -0.88953084 0.78347313 0.7491611 -0.13625127 0.65624297 -0.2104302 0.90955645 -0.5811257 -0.10407151 0.50050014 -0.7202187 0.3907075 0.72301316
58 -0.6568964 -0.4601918 -0.9560719 0.8147459 -0.814213 -0.67916644 0.54965645 0.45673755 -0.83939415 -0.86553615 0.52604574 0.4292067 0.82841825 -0.8957175 0.36503705 0.21691827 -0.47819585 -0.805674 0.69959456 0.09207064 0.26554695 0.911187 -0.022490263 0.7887548 0.64345616 -0.5119789 -0.3442654 0.84812963 -0.30685323 0.11445829 -0.7375843 0.21769929 -0.03677447 -0.727528 0.20875943 0.8155368 0.12240553 -0.08501895 0.06694022 -0.5847901 0.1400752 0.41275033 0.9232133 -0.6958781 0.8745344 -0.18925048 -0.32485136 -0.124510914 0.24297054 -0.5141566 0.22968465 -0.17578337 -0.9518794 0.38504976 -0.9198408 -0.08664845 0.2912247 0.49046946 0.36169112 0.037157893 0.8798441 0.98452824 -0.14869338 -0.34618333 -0.49791625 0.72311187 -0.8278838 0.53712577 0.7206789 0.48190504 -0.65908223 0.5939285 0.44553828 0.049136326 -0.24582356 -0.43340284 0.08165273 -0.6694097 -0.18959087 0.11358769 -0.59258926 0.88404155 -0.09305528 -0.30452135 -0.1009481 -0.67776567 0.58774537 -0.02825667 -0.8698984 0.73431 -0.3196991 0.8624475 0.1131935 -0.22566792 0.8771895 -0.29228348 -0.7193391 0.27804163 -0.20205143 -0.39458472 0.9236968 -0.33206514 0.08978988 -0.19196863 -0.0463022 0.24568348 0.05447954 -0.68747103 -0.26049247 -0.8823661 0.388601 0.4864506 0.667758 0.018517718 -0.4315077 -0.7969666 0.049871594 -0.44566914 -0.39169106 0.61215985 0.95655465 0.29714966 0.33497462 0.16548544 0.013501942 0.13534573 -0.038095575 0.6543488 -0.093494885 -0.19401734 0.6851727 0.44726697 0.6068144 -0.34816992 0.70677793 0.73250467 -0.03906685 -0.21023798 -0.41071352 -0.0991039 -0.32955483 0.60127634 -0.08313108 0.8653104 -0.1169102 -0.8465818 0.30893385 0.67948914 0.60562074 0.7950594 0.7720345 0.62435114 0.8728657 0.074425936 -0.06305655 0.39189538 0.61650956 0.46822745 -0.23033129 -0.6743252 0.58039135 0.4208587 -0.17327732 0.65286636 -0.52854586 0.8416146 -0.5947334 -0.056875706 0.23635018 -0.71869755 0.4310472 0.6969296
59 -0.75049025 -0.19647086 -0.89245903 0.75417894 -0.6409321 -0.5723635 0.4948254 0.6201017 -0.862497 -0.8872666 0.48193946 0.21169557 0.86993873 -0.9402674 0.35185373 0.40035385 -0.4807816 -0.7885236 0.6792982 0.012433866 0.23625751 0.8008239 -0.06480646 0.81624186 0.5706586 -0.6702876 -0.49764806 0.877831 -0.5915685 0.5950075 -0.719849 0.25051033 -0.4814355 -0.6861005 0.051727176 0.51000345 -0.021896362 -0.0013104826 0.056856394 -0.64425683 0.14161935 0.3411678 0.7157355 -0.2377575 0.8731605 0.02641353 0.066724464 -0.5534981 0.025154732 -0.50320107 0.4729301 -0.3375394 -0.9803723 0.17311805 -0.8812207 0.14394346 0.0148038715 0.5373133 0.46763408 0.18892376 0.46394646 0.96288127 -0.13034543 0.058083184 -0.27682436 0.8158988 -0.7770645 0.5293442 0.6384688 0.77892315 -0.6860681 0.6472605 0.5541952 0.009183049 -0.48300096 -0.31242344 0.08928238 -0.73016703 0.08181277 0.4009944 -0.5896423 0.94275725 -0.2522398 -0.15013066 0.007019937 -0.40854153 -0.25173217 0.050677538 -0.65717185 0.7812711 -0.19244233 0.88646525 0.2981744 -0.49591154 0.8762682 -0.43181682 -0.6520406 0.30994847 -0.3039747 -0.24654675 0.91815627 -0.31288016 0.41575116 0.044231564 0.16399267 0.11261982 0.07458025 -0.8373139 -0.054777045 -0.90657234 -0.098246336 0.7784365 -0.07220167 0.2965189 -0.3659703 -0.56350595 0.41873756 -0.37718752 -0.53177655 0.41180295 0.9449897 0.3507257 0.16706878 -0.008580893 0.4758934 0.3982994 -0.28512958 0.72356534 -0.15059106 -0.1620146 0.6567048 0.6773646 0.61620766 -0.7204211 0.5926539 0.69076174 -0.042353217 0.07382752 0.0068757087 -0.17664063 -0.03552188 0.53258824 -0.23074137 0.62574244 0.15627794 -0.7216448 0.101166114 0.8306935 0.5636916 0.7519573 0.860159 0.6805395 0.85278165 0.18306023 0.1311597 -0.1070327 0.61381376 0.41111526 -0.20469409 -0.82722855 0.6759653 0.6193285 -0.016761363 0.6781557 -0.16807419 0.86464065 -0.16080907 0.2913822 0.5204136 -0.31458443 0.31388646 0.7166255
60 -0.38997456 -0.56059897 -0.92172205 0.86864823 -0.65811247 -0.7240047 0.6542817 0.7702374 -0.83259267 -0.8574885 0.6309647 0.40273404 0.6061399 -0.80392087 0.8065914 0.4389551 -0.66416264 -0.542272 0.48964152 -0.31108522 0.6297381 0.7458573 -0.2236346 0.80894524 0.6908273 -0.4971238 -0.7181133 0.9484808 -0.52146375 0.02790562 -0.9244993 0.33437967 0.12877774 -0.6649257 0.10901818 0.36996046 -0.068036765 0.07685074 -0.1568116 -0.37180865 -0.0041287094 0.20199208 0.8984508 -0.851377 0.9181365 -0.15324238 -0.25861973 -0.41504797 0.22206749 -0.0475545 0.81993556 0.37471902 -0.99198073 0.19827512 -0.77720463 -0.3666247 0.06575206 0.71320164 0.6215769 0.31358036 0.4282552 0.98380923 -0.0183601 -0.08078095 -0.39050737 0.7793573 -0.8452008 0.64865845 0.52347237 0.6946529 -0.3813144 0.58652407 0.6271541 0.043355748 -0.40024346 -0.7274923 0.03708139 -0.6187335 0.066510394 0.4189993 -0.6941619 0.8403064 -0.17940497 -0.11720315 0.009678483 -0.68908256 0.07468455 -0.2425375 -0.87526506 0.80472744 -0.35672793 0.8016382 0.49191874 -0.43702245 0.9437882 -0.56615824 -0.75093734 0.42368913 -0.14877993 -0.2989159 0.9510858 -0.3225853 0.26139507 -0.053943764 0.21821909 0.10874647 -0.31883898 -0.51734847 -0.6788932 -0.8721732 -0.013303474 0.32231182 0.76187634 0.23831534 -0.6888032 -0.6987187 -0.010911405 -0.30588347 0.06580121 0.63627964 0.9513209 0.29178524 -0.0071110427 0.044401646 0.2558187 0.6470021 0.040309623 0.7376667 -0.07187751 -0.25120753 0.25296652 0.68334794 0.76759726 -0.38572302 -0.20735459 0.7347858 0.29664722 0.22671142 -0.36105084 0.313899 0.046026498 0.6632158 -0.4736909 0.7056309 0.14122519 -0.72712195 0.09376724 0.80611515 0.56279576 0.55058527 0.8065592 0.6180964 0.94967717 -0.39129683 -0.024507135 0.22358468 0.5922993 0.47412097 -0.24031734 -0.7824542 0.7991438 0.5064676 -0.092946365 0.55680156 -0.1991878 0.9450047 -0.3346678 0.098271355 0.33157167 -0.60168827 0.4861701 0.35162508
61 -0.6444352 -0.4613204 -0.75200194 0.80454105 -0.65047383 -0.78182465 0.41210875 0.88864285 -0.6894253 -0.79748005 0.52084565 0.69220227 0.9060118 -0.9556305 0.4608931 0.46448708 -0.38510507 -0.83087224 0.6381264 0.6025352 0.66403407 0.91989654 -0.11881425 0.8561397 0.71217763 -0.7554709 -0.56976396 0.9036239 -0.4686983 0.49513566 -0.80120504 0.29053387 0.2028993 -0.6626182 0.28019908 0.7038859 -0.15116274 -0.10354996 -0.08697033 -0.68748647 -0.08678615 0.26427913 0.7853789 -0.9060792 0.94305366 0.00980027 -0.4462671 -0.4043248 0.033429846 -0.30214447 0.19771135 -0.2096752 -0.9702474 -0.29525274 -0.834623 -0.03400965 0.07446462 0.36671755 0.64135444 0.053992204 0.020931348 0.9676525 -0.42037705 -0.55307263 -0.30660817 0.7816393 -0.892728 0.43892446 0.84223336 0.4214697 -0.66878366 0.70669925 0.21768716 0.2073467 -0.32911333 -0.56993276 -0.038869947 -0.5614001 -0.15704724 0.38977945 -0.6107147 0.953544 -0.43841717 0.020971568 -0.048080996 -0.6786005 0.4549824 0.22092365 0.09183642 0.37496325 -0.27908957 0.8362625 0.52897894 -0.29922897 0.84900427 -0.6820854 -0.63175607 0.040769696 -0.38680494 -0.26297534 0.8469531 -0.32755315 0.104476094 -0.1640383 -0.1760413 0.20820957 -0.13443834 -0.70748556 -0.15456167 -0.84465796 0.19774638 0.69403327 0.49272946 0.3041045 -0.43746558 -0.70154816 0.50919366 -0.121378265 -0.10705361 0.5771575 0.85440075 0.37649912 0.17682284 -0.39459968 0.29556865 0.3741734 -0.20322192 0.6657077 0.4503947 -0.57055795 0.7377694 0.7075426 0.72419 -0.30100167 0.38028374 0.45866117 -0.12378287 0.19241588 -0.5092999 0.01453552 -0.29943922 0.6424041 -0.12047975 0.72598594 -0.055757016 -0.7919439 0.0771744 0.8969606 0.6489221 0.7044808 0.8452588 0.6524871 0.8907216 0.3660061 -0.19529659 0.29147497 0.6820609 -0.0673615 -0.094334245 -0.8675983 0.45916837 0.54787904 -0.19481677 0.83088493 0.21097094 0.890686 -0.0064451694 0.41942862 0.39846337 -0.8174218 0.09449778 0.28473288
62 -0.74721307 -0.534909 -0.92041826 0.90791374 -0.7115644 -0.66014206 0.6673947 0.6680022 -0.735625 -0.90451926 0.57388735 0.54502577 0.8572067 -0.8094362 0.76543236 0.44531938 -0.6780796 -0.7344207 0.581 0.07088372 0.4630591 0.61910725 -0.12059578 0.8580522 0.35894978 -0.78551966 -0.49658766 0.94400954 -0.56941557 0.30517977 -0.88058406 0.31978953 0.13262051 -0.7725717 0.101782665 0.25011694 -0.057447076 -0.05123733 0.1156311 -0.5634252 -0.13511705 0.44278967 0.87227654 -0.33086395 0.8674457 0.11553909 0.055825308 -0.42886275 0.06800668 -0.7485837 0.14875473 0.0168522 -0.98968554 0.64547414 -0.9331793 -0.17423126 0.0021327585 0.75846386 0.5007007 0.27546236 0.44142365 0.91956276 -0.2970201 -0.26465744 -0.17963938 0.85176027 -0.8754414 0.68687177 0.7948653 0.74931794 -0.756065 0.7241393 0.46788502 0.044829488 -0.33604914 0.17040993 -0.29605862 -0.8093227 0.09177409 0.46336126 -0.6241184 0.91801834 -0.24566248 -0.012113687 -0.01900053 -0.49753448 0.08681849 -0.31004214 -0.8640716 0.59379756 -0.28558415 0.9064609 0.2915364 -0.22760323 0.8880302 -0.6023535 -0.74713683 0.18195288 0.006316021 -0.38483447 0.89847255 -0.61325926 0.34857887 0.039735734 -0.3258113 0.21141702 -0.27897024 -0.6777556 -0.38411567 -0.8840935 0.34727034 0.7258982 0.43260145 0.34182277 -0.40497953 -0.6509917 0.51499283 -0.32291985 -0.47520474 0.32441598 0.9505044 0.44285548 0.17683774 -0.10069751 0.3156983 0.12221359 -0.122595154 0.80046344 -0.2389738 -0.4021486 0.5886739 0.76693505 0.80813074 -0.6740885 0.15361124 0.6635694 0.09517935 0.09058686 0.08008085 0.22999759 -0.31246972 0.65929174 -0.27566385 0.35367033 0.08657634 -0.73701465 0.4760427 0.8277876 0.6267153 0.8576323 0.64965093 0.7966319 0.91412854 0.2374886 0.106494874 0.04087493 0.69776493 0.6156423 -0.15832472 -0.88523954 0.7682898 0.5096135 -0.019301176 0.70833457 -0.42678124 0.92853373 -0.649054 0.23449324 0.284099 -0.66843855 0.48316002 0.6183076
63 -0.6567623 -0.4834084 -0.92112005 0.9652104 -0.80386084 -0.7706397 0.7556838 0.6881812 -0.9036138 -0.8737222 0.8163916 0.42480248 0.9005592 -0.96224934 0.46497673 0.5240023 -0.52821136 -0.71273017 0.37312764 -0.14475882 0.43211803 0.8237828 0.032969065 0.90349394 0.8119219 -0.63445944 -0.6838484 0.962562 -0.58520025 0.32535064 -0.94309825 0.41956174 0.043444704 -0.719516 0.14706224 0.48967385 0.11817229 0.14961581 -0.03716749 -0.50148165 0.22457094 0.07970916 0.84215933 -0.69698334 0.970356 -0.068507195 -0.11656858 -0.3162221 0.28551543 -0.7201337 0.5929824 -0.2413283 -0.9942137 -0.080228545 -0.942164 0.03963936 0.2795894 0.7348706 0.73199326 0.32157043 0.29730237 0.990327 -0.06774026 0.34703106 -0.35948557 0.8314688 -0.69983953 0.7423674 0.72626877 0.5217947 -0.852867 0.66152084 0.5594889 0.022762828 -0.38550153 -0.57994854 -0.032426275 -0.7977118 -0.027584314 0.520264 -0.6887324 0.96579087 -0.33601356 -0.46046245 0.02415239 -0.70841384 0.31788304 -0.19189005 -0.8033242 0.60333675 -0.32500768 0.85524595 0.4920411 -0.41191804 0.96457595 -0.6461567 -0.72220045 0.1879593 -0.07747555 -0.35396573 0.93885374 -0.487165 0.3429277 -0.23301436 -0.11071655 -0.04319454 0.09025453 -0.6091965 -0.036012024 -0.89750195 -0.047209423 0.6680304 0.5351005 0.22940499 -0.57450485 -0.7081411 0.25389695 -0.5573122 -0.42075264 0.23541513 0.9660976 -0.028172433 0.09125425 -0.17071626 0.66773456 0.23450583 -0.3702576 0.6099641 0.08137357 -0.2715857 0.64295805 0.68798935 0.8285458 -0.13811612 0.71388954 0.72266775 0.11372664 0.12094115 -0.31444955 0.6300704 -0.27127367 0.7571065 -0.5097538 0.7282295 -0.039337233 -0.66236967 0.37757635 0.785581 0.6012893 0.8506009 0.89417017 0.7321505 0.7952326 0.07963885 -0.18998346 -0.06564808 0.5928744 0.15383813 -0.07144174 -0.9139413 0.8595753 0.652351 0.20344426 0.63533646 -0.51633483 0.9236645 -0.52245945 0.24234882 0.5987836 -0.81426316 0.5312248 0.6894736
