1899 172
0 -0.13850799 0.14946793 -0.15394704 0.1505749 0.15237753 -0.051323574 -0.18283696 -0.15157351 0.16870768 0.14729899 0.16440761 -0.14500375 0.1767326 -0.13071775 -0.1329659 -0.14882629 -0.15033653 0.18868828 -0.09751263 0.12730709 -0.10643238 -0.1466906 -0.13952129 -0.12540382 0.11521392 -0.18308502 0.17011116 -0.20234683 0.1668935 0.18786262 -0.15081945 0.10640005 0.007426114 0.17682615 0.17660496 0.110956766 -0.04369006 -0.20695344 0.15383314 -0.13859753 -0.20224349 -0.1488193 -0.102901965 -0.14847237 0.15017737 -0.12365854 -0.12646689 0.14252783 -0.17225085 0.16963725 0.15576172 -0.119237 0.16261508 -0.103328265 0.1251066 -0.12207477 -0.14094009 0.15612176 -0.1598281 -0.16376443 0.17410208 0.17942944 -0.13649055 0.16565062 -0.14752951 0.17948027 -0.18914984 0.10279052 -0.15922137 -0.14176084 -0.12287962 0.18401337 0.14200361 -0.15421224 0.13274208 0.1575043 -0.1481522 -0.14144592 0.18276586 -0.14527144 0.08426561 0.16634789 -0.13939811 0.11297256 0.17474438 0.1342516 -0.17271467 0.1863351 0.09386288 -0.11723603 0.16047227 -0.17685297 0.15112212 -0.16471715 0.025048368 -0.121077046 0.12750483 0.11670661 -0.14418861 0.144386 0.13060041 -0.071104914 -0.12342985 0.121425115 -0.14412394 -0.15404391 0.18620709 -0.14965047 0.15790056 0.16382791 -0.19325066 -0.17406037 0.18744014 0.16810708 0.106794894 -0.19425008 0.13199183 0.1480648 -0.14420223 0.16867062 -0.17480913 0.11430697 0.13809645 -0.1300524 0.09703887 0.046602014 0.13324656 0.16152784 0.12453144 -0.11441715 0.1409934 -0.16298148 0.18577035 -0.15988557 0.18838383 0.20003608 -0.141792 -0.18391779 0.13327038 -0.17486483 0.13692445 -0.15684165 -0.16795307 0.16677812 -0.14547619 -0.1314847 0.14207703 0.117067225 -0.16165116 0.035278615 -0.030692115 0.13479567 -0.15120627 0.110994086 0.14945488 0.15220153 -0.12298876 -0.15081999 0.13131443 -0.15519446 -0.14229673 0.05531928 -0.009433598 0.15818301 0.13230173 0.12931725 0.13963288 0.18376707 0.14500189 -0.122935206 0.17927867 0.1799458
1 -0.113158286 0.12787957 -0.15472591 0.116750866 0.13763425 -0.06872685 -0.16187172 -0.16113845 0.16250512 0.11225042 0.15928176 -0.122049294 0.17326336 -0.09069408 -0.09447967 -0.13083863 -0.11994907 0.16853823 -0.06970176 0.11019599 -0.080474764 -0.10639505 -0.1435574 -0.10612111 0.08607162 -0.16595905 0.16197088 -0.20070359 0.15250596 0.17749207 -0.13086215 0.09126829 -0.02164504 0.18009886 0.16598496 0.096115746 -0.071060665 -0.20398894 0.13178045 -0.11995229 -0.21164522 -0.12754253 -0.07965502 -0.11922796 0.12791653 -0.10385656 -0.09852827 0.13425162 -0.16656533 0.167567 0.15568078 -0.103856966 0.13045688 -0.1005646 0.10057725 -0.10509428 -0.121390864 0.1306714 -0.15721464 -0.152028 0.15376186 0.1529437 -0.11941226 0.14082475 -0.13025069 0.15948597 -0.20204212 0.08264052 -0.122395486 -0.11812624 -0.08388421 0.15952995 0.12571311 -0.13760285 0.11181336 0.14358379 -0.13412929 -0.11231139 0.16345045 -0.124568045 0.05668111 0.15004465 -0.117430046 0.104725264 0.14637643 0.11740997 -0.1495096 0.18572322 0.060685202 -0.1020274 0.1500477 -0.15013301 0.12722188 -0.1552971 0.0025796741 -0.10300271 0.10345818 0.104390055 -0.11411385 0.13229573 0.09881382 -0.08177099 -0.117798954 0.097548984 -0.110014945 -0.13963197 0.18387975 -0.13292915 0.15415299 0.15507182 -0.19208223 -0.14315216 0.15305388 0.14628649 0.07821843 -0.17988719 0.124191895 0.120609276 -0.113251045 0.1590851 -0.15605175 0.08637154 0.13539574 -0.111822 0.061577745 0.024034232 0.11379901 0.1495848 0.096768364 -0.10244835 0.11825153 -0.15871888 0.17695011 -0.1423136 0.18370727 0.16776714 -0.11256951 -0.18117481 0.12522282 -0.16700202 0.11448709 -0.1427061 -0.14896783 0.13918228 -0.13781032 -0.111015104 0.118502855 0.09841575 -0.13804021 0.003370747 -0.047378995 0.12704763 -0.12584071 0.10339928 0.12139909 0.15097988 -0.08364506 -0.16364622 0.103102304 -0.13564894 -0.104725435 0.019410282 -0.04307641 0.14221582 0.103182316 0.121700235 0.13033131 0.17513308 0.11752979 -0.11297497 0.17054044 0.16853525
2 -0.05336131 0.070931345 -0.10429323 0.073494725 0.07566389 -0.08547302 -0.102937795 -0.082001045 0.09796554 0.078106895 0.085705526 -0.06955953 0.10091978 -0.05097081 -0.05740627 -0.07628783 -0.05829609 0.107537106 -0.0246128 0.063617624 -0.037672997 -0.05489459 -0.098485835 -0.03868287 0.045123424 -0.100562185 0.08820146 -0.124733835 0.08648196 0.10101813 -0.05822716 0.043424424 -0.04538588 0.09954263 0.104136765 0.046545066 -0.0749556 -0.14073154 0.07836117 -0.06278822 -0.12421074 -0.073943555 -0.0250743 -0.07102719 0.070660815 -0.03513259 -0.043862477 0.07444488 -0.10254073 0.11249092 0.08653854 -0.050161406 0.08272341 -0.10404141 0.06461093 -0.049251128 -0.06849891 0.08093543 -0.112854734 -0.07859953 0.0964271 0.09603486 -0.069878474 0.08980723 -0.08317439 0.11350699 -0.13758089 0.0398778 -0.084749155 -0.054311637 -0.031386696 0.0935508 0.06877926 -0.07532356 0.060907032 0.09796611 -0.087374635 -0.0524292 0.09953695 -0.07205869 0.021290615 0.08459474 -0.06754914 0.04735843 0.0879091 0.049648788 -0.102390856 0.11929889 0.024882121 -0.04541743 0.08513963 -0.099927016 0.07053986 -0.08094527 -0.021445762 -0.056999803 0.04875427 0.059208807 -0.061010547 0.0780035 0.05807224 -0.08645821 -0.0673583 0.04458028 -0.05383577 -0.07314854 0.10420822 -0.0803422 0.095394574 0.09159389 -0.14902972 -0.09224816 0.111632474 0.098150864 0.04700754 -0.108540975 0.06195327 0.06469092 -0.076243535 0.106619634 -0.100299895 0.041511334 0.071052454 -0.057019047 0.03683739 -0.009751251 0.056314528 0.07990067 0.05367495 -0.05614063 0.06648621 -0.0953101 0.111746505 -0.08479921 0.11823809 0.11523288 -0.0519517 -0.111476496 0.062094867 -0.10225594 0.06137172 -0.083104 -0.079199076 0.092197 -0.08805858 -0.07096383 0.062671535 0.046651393 -0.0665868 -0.010915869 -0.061021414 0.06439207 -0.066510946 0.05470426 0.07213058 0.069201685 -0.035232823 -0.14102057 0.048629843 -0.08044026 -0.051120687 -0.0022848025 -0.046982642 0.07174977 0.06367222 0.07544418 0.06375313 0.11173242 0.068093784 -0.052342515 0.10942934 0.10144416
3 0.03926432 -0.0026226342 -0.012818143 -0.029141337 -0.022395805 -0.036159053 0.008029014 -0.03587678 0.018629968 -0.02347894 -0.008427262 0.026864558 0.023892999 0.07059026 0.019981116 0.012296945 0.0340901 0.023332179 0.030012965 -0.010441288 0.022637397 0.046096623 -0.062408134 0.0366067 -0.0057873726 0.026962891 -0.0022140741 0.0015307069 0.021314025 -0.011615664 0.019457936 -0.01368764 -0.07169241 0.004396379 0.0023772418 -0.05700332 -0.06085635 -0.06339027 -0.0077587366 0.019558832 -0.031105295 -0.011239141 0.042181075 0.03307037 -0.029141799 0.05889511 0.030775994 0.008789018 -0.006069705 0.055275425 0.008254588 0.022509694 -0.020808265 0.0049438886 0.004284397 0.027082399 -0.0041906983 -0.041419074 0.0034582913 -0.0062405765 -0.0077413768 -0.022454351 0.020982161 -0.022215962 0.01119861 0.01809077 -0.059069246 -0.02107647 0.0328127 0.0508112 0.07242876 -0.013050348 -0.010893792 0.012254059 -0.0143337995 0.014725134 0.030934036 0.0820075 0.004861772 0.015851632 -0.024899915 -0.009581745 0.011155382 -0.018128827 -0.015345633 -0.028100312 -0.020721868 0.04106064 -0.04788159 0.022347346 0.012191832 0.0058481693 -0.030171186 -0.004589796 -0.059225902 0.016884193 -0.040557146 -0.03712748 0.067208245 -0.019700512 -0.03448844 -0.02310802 -0.030929923 -0.031419232 0.04857561 0.026378796 0.019163191 0.025530443 0.015960008 0.017278135 -0.037821382 0.023403287 -0.0015808046 -0.022621661 -0.02688685 0.023394033 -0.010080352 -0.023032367 0.03098856 0.008527726 0.006204292 -0.039528877 -0.0017154515 0.036156133 -0.04210624 -0.057685494 -0.018159509 -0.024978831 -0.018142551 -0.0039875656 -0.02147016 -0.021685809 0.026697472 0.008069351 0.0073665082 -0.02186206 0.036740154 0.005104229 -0.008806452 -0.0012045801 -0.02858457 0.013335928 -0.027967036 -0.023911238 -0.007508576 0.032289222 -0.0031392276 -0.025639936 0.039973438 -0.028274044 -0.062837236 -0.0182814 0.058345854 0.0024701506 -0.05113174 0.0054422617 0.039503694 -0.058790065 -0.043861866 0.0007019192 0.06553331 -0.046328634 -0.077713765 -0.020162016 -0.032301098 -0.0035483986 -0.00075791776 0.028406084 -0.05124186 -0.00013332069 0.0017620623 -0.010937974
4 -0.1046527 0.12699726 -0.15223517 0.1249717 0.12991044 -0.06333214 -0.16826954 -0.17215611 0.15882829 0.10908607 0.1505867 -0.10878822 0.17829472 -0.11362332 -0.1049678 -0.12544857 -0.13804992 0.18069102 -0.06904386 0.1057131 -0.10698211 -0.10726926 -0.15211543 -0.10782279 0.090435445 -0.16391583 0.16399781 -0.22938514 0.16597885 0.17389381 -0.12803625 0.09174907 -0.014174908 0.1953856 0.18704244 0.09340379 -0.059185542 -0.2044941 0.13937664 -0.12785332 -0.21668983 -0.12909135 -0.074793234 -0.123857275 0.12851916 -0.106472224 -0.1028977 0.13447127 -0.16169019 0.18642029 0.16798711 -0.11129348 0.13534018 -0.11507559 0.1022858 -0.097718 -0.11287895 0.14935413 -0.15634339 -0.14568028 0.16852447 0.15579002 -0.12578347 0.1332445 -0.12443212 0.16216117 -0.20150259 0.07867706 -0.11740488 -0.10755156 -0.08860278 0.17051032 0.1427681 -0.12770265 0.12938505 0.151278 -0.1542533 -0.119938865 0.17084876 -0.12819457 0.0693869 0.14985485 -0.1418474 0.12382878 0.15140583 0.13305347 -0.16028912 0.21946065 0.069738925 -0.09907015 0.13814524 -0.14306614 0.14214015 -0.16936477 0.012099832 -0.11183834 0.105463386 0.106259935 -0.10984765 0.13956064 0.10132399 -0.09872785 -0.13223884 0.10475837 -0.119197965 -0.16054232 0.18822886 -0.14337146 0.16656366 0.15508533 -0.17396674 -0.14140609 0.15319335 0.16467392 0.07267021 -0.17183709 0.13340947 0.12825862 -0.11472392 0.16575639 -0.16654754 0.072516814 0.1321861 -0.1204837 0.046067446 0.025351346 0.12300359 0.16298313 0.112350136 -0.1168222 0.13075298 -0.16548194 0.18403481 -0.1422223 0.20250282 0.1630672 -0.118572265 -0.18654966 0.12929253 -0.16772689 0.10048729 -0.13780282 -0.15249594 0.14815903 -0.14389533 -0.11431545 0.12412827 0.10428287 -0.13153076 0.001120016 -0.04341288 0.1258889 -0.117621705 0.10819677 0.118551984 0.14135054 -0.09621261 -0.16519594 0.11014524 -0.14517108 -0.12168524 0.03185512 -0.03967561 0.1349782 0.11264436 0.11787648 0.13444035 0.20009254 0.12282181 -0.12210691 0.17799678 0.16605583
5 0.012699366 0.010400295 -0.059421517 0.01016086 0.014947396 -0.117967516 -0.039137743 -0.014367031 0.027505346 0.023851024 0.017528694 -0.00027644262 0.033782512 0.014845198 0.007846855 -0.019679531 0.023482308 0.039935973 0.032291006 0.0046363547 0.02066474 0.020130895 -0.06300721 0.035452522 -0.012421824 -0.025702402 0.017228797 -0.052197687 0.018578876 0.028617911 0.016363606 -0.012368053 -0.08378407 0.030293923 0.037463494 -0.012342395 -0.10284245 -0.075778574 0.011577814 0.0051557776 -0.048318245 -0.013409202 0.04048641 -0.0040193223 -0.0002995762 0.03952249 0.02650814 0.0073371343 -0.046065886 0.057643715 0.019940209 0.011208326 0.017798185 -0.10404435 0.022422038 0.0130945705 -0.0057688155 0.01662712 -0.06961447 -0.0032692933 0.02411 0.027260482 -0.01490416 0.029157717 -0.029724628 0.06413836 -0.091401175 -0.011842184 -0.022670057 0.02660207 0.041086935 0.015360795 0.0082131885 -0.0034000576 -0.0013428181 0.045502525 -0.03130036 0.021976892 0.026152622 -0.009959288 -0.027559035 0.019754596 -0.0059577227 -0.0119721 0.01860778 -0.017886173 -0.04665137 0.056376223 -0.02859366 0.015251286 0.013171632 -0.036828574 0.009862147 -0.0012678877 -0.059262387 0.0010757148 -0.015044533 0.010359316 0.0040285913 0.014531355 -0.0047195223 -0.10234639 -0.015029739 -0.01913261 0.025996175 0.00040818006 0.027799375 -0.01947215 0.036671925 0.02749389 -0.10921859 -0.020138271 0.05161009 0.03896356 -0.0013874248 -0.038305886 -0.0011205114 0.00045393035 -0.022381708 0.054755364 -0.036175314 -0.015585028 0.012940755 0.0053108195 -0.014120476 -0.055277914 -0.010912145 0.0075124307 -0.003925655 -0.0033305623 0.0023727529 -0.033726245 0.040349096 -0.015903216 0.05104985 0.048224326 0.024481717 -0.046919737 -0.0063977 -0.036120843 -0.00198765 -0.020110423 -0.005717341 0.029893687 -0.036230836 -0.011222836 -0.0060320795 -0.016150977 0.018484622 -0.050013904 -0.093408704 0.0014589671 0.006969418 0.004634004 0.013161055 -0.00027297903 0.04098966 -0.12973449 -0.023146337 -0.01715251 0.028680816 -0.04954398 -0.07712624 0.0030188337 0.008499108 0.029666772 0.00042875484 0.04856801 0.004888639 0.01278469 0.045246415 0.02624819
6 -0.31995523 0.31902167 -0.31535065 0.3478721 0.31916118 -0.028558515 -0.38968754 -0.31021866 0.35650307 0.3246591 0.35244435 -0.32354265 0.3444581 -0.33100894 -0.3105746 -0.31794494 -0.36549887 0.3735345 -0.23198545 0.27089807 -0.26816943 -0.3491097 -0.27021122 -0.30214608 0.25798002 -0.39577964 0.36657593 -0.4183214 0.36641714 0.40720272 -0.34047878 0.25632155 0.08117117 0.35637328 0.38490564 0.26706907 -0.0016238317 -0.3997162 0.3366537 -0.30715698 -0.41796428 -0.32243088 -0.26387328 -0.33705336 0.33720747 -0.31449044 -0.30755788 0.30008966 -0.3533656 0.3261239 0.32784063 -0.26885027 0.34167624 -0.17253882 0.2614211 -0.28219846 -0.3102638 0.34339523 -0.31429213 -0.3578287 0.37765044 0.39405605 -0.29812196 0.3645794 -0.30669498 0.35799903 -0.35474503 0.2529962 -0.3523369 -0.34484416 -0.3150797 0.40806696 0.3146094 -0.33885178 0.2999052 0.3215117 -0.32282248 -0.34838048 0.38214725 -0.34355253 0.21653554 0.3654212 -0.3200784 0.2613178 0.37729907 0.315278 -0.34161165 0.3624785 0.23230222 -0.26752508 0.33929935 -0.3693055 0.33340824 -0.35862166 0.10582484 -0.26957917 0.29636553 0.25399685 -0.33621436 0.3151665 0.3063361 -0.093839526 -0.25463104 0.28527036 -0.3637889 -0.3435672 0.38760328 -0.3148368 0.3193679 0.3466127 -0.35250437 -0.36462563 0.38994056 0.36817738 0.23846498 -0.41832083 0.30385634 0.32412148 -0.3219473 0.3393334 -0.3636695 0.28373668 0.28780693 -0.29101393 0.23464315 0.16125879 0.29966322 0.36021736 0.289923 -0.25202504 0.324728 -0.32760257 0.37397265 -0.34717807 0.38704312 0.4317904 -0.33850223 -0.3699909 0.28369343 -0.3775745 0.30940458 -0.347258 -0.35224023 0.37444454 -0.3041611 -0.30580604 0.30999607 0.28703865 -0.37261564 0.11209909 -0.0011336803 0.29876956 -0.35398698 0.23565587 0.3285221 0.32847327 -0.2970531 -0.24879582 0.32898325 -0.32625845 -0.35353488 0.16409332 0.05479781 0.35291064 0.29594922 0.26785263 0.3039858 0.36526662 0.33189467 -0.28553316 0.3679903 0.39651927
7 -0.15543222 0.16539076 -0.20153461 0.178709 0.17665349 -0.101170935 -0.22082795 -0.1703251 0.20608838 0.17886052 0.19674036 -0.17725836 0.20364796 -0.15836722 -0.14988142 -0.17589793 -0.1699425 0.21623456 -0.0956511 0.15032724 -0.115888774 -0.16670078 -0.16988458 -0.13505316 0.121955305 -0.23037581 0.19905052 -0.25225842 0.18789747 0.2278886 -0.16253 0.11926766 -0.017398167 0.20804106 0.21850732 0.14005977 -0.07596406 -0.2573145 0.17881203 -0.16008967 -0.24707107 -0.16547443 -0.10904445 -0.17691982 0.17764291 -0.13928077 -0.14038676 0.16762833 -0.21026503 0.20334327 0.18547279 -0.13421667 0.18803453 -0.165126 0.13883975 -0.14250523 -0.16201292 0.19096978 -0.21518241 -0.1857801 0.21317652 0.21814263 -0.1615095 0.20496452 -0.18343535 0.21689111 -0.23827323 0.11495633 -0.19928701 -0.17215793 -0.13425413 0.21657157 0.1636315 -0.18160656 0.1495663 0.19207834 -0.19069162 -0.17000517 0.21678406 -0.17523506 0.08371468 0.19508427 -0.16120258 0.12301268 0.20339587 0.14397465 -0.19896959 0.22051145 0.10036519 -0.12806645 0.18939888 -0.21490593 0.17212898 -0.18758817 0.015729615 -0.13975804 0.14324908 0.14505959 -0.17384079 0.17875631 0.15811169 -0.11590758 -0.13703442 0.12942529 -0.1688918 -0.18054321 0.22150673 -0.18182957 0.19223428 0.19226891 -0.26013106 -0.2113851 0.22945221 0.21221676 0.12530167 -0.24177319 0.15195544 0.16204755 -0.17648344 0.2121126 -0.21075357 0.131557 0.15956372 -0.14970183 0.11590386 0.04451958 0.14743225 0.19411185 0.13951921 -0.12881014 0.16745783 -0.19095863 0.22289908 -0.19427869 0.2347862 0.25090122 -0.15429477 -0.22736692 0.15028466 -0.2185788 0.16291413 -0.18838531 -0.17746533 0.20839204 -0.180354 -0.17298314 0.15686554 0.13287137 -0.18733689 0.02230866 -0.0564108 0.15722719 -0.1858677 0.12454606 0.18016782 0.16677502 -0.1286977 -0.21871024 0.1514113 -0.17772028 -0.16504698 0.044879477 -0.026040256 0.18162659 0.155688 0.16085038 0.15207833 0.21412802 0.1774764 -0.13504773 0.22306392 0.22842892
8 -0.060252458 0.07638055 -0.11067005 0.08338945 0.08255058 -0.08619238 -0.109958224 -0.086428754 0.103320405 0.08660704 0.0918337 -0.07767567 0.10694314 -0.06661731 -0.063550174 -0.086672686 -0.06882971 0.115856595 -0.029660633 0.06741846 -0.048140585 -0.06678802 -0.1019029 -0.048877068 0.05051051 -0.11306607 0.09435135 -0.13497213 0.092045605 0.11039699 -0.0648358 0.047000222 -0.03986726 0.10832507 0.11585812 0.057968058 -0.071933225 -0.14611003 0.08321057 -0.070174776 -0.13289481 -0.07877516 -0.032688174 -0.07734011 0.07697924 -0.047633227 -0.0550648 0.08131939 -0.10915721 0.1176274 0.09267105 -0.05783409 0.08940913 -0.11296524 0.06935415 -0.05674641 -0.0740767 0.09402746 -0.12247144 -0.083416544 0.10697999 0.10835566 -0.07721356 0.10094594 -0.09320202 0.11879359 -0.14041483 0.045795996 -0.09460838 -0.06601297 -0.043613087 0.102300115 0.0774575 -0.08328415 0.06746445 0.10169597 -0.09879355 -0.067487866 0.109019466 -0.08173101 0.028335184 0.09421343 -0.0782792 0.052709408 0.09876458 0.059526384 -0.108339064 0.12519582 0.03184713 -0.04939407 0.088534474 -0.10769059 0.08043434 -0.0866933 -0.015762148 -0.063289836 0.055512346 0.06867936 -0.07325744 0.08815804 0.06844297 -0.092495576 -0.06943459 0.049989697 -0.06628196 -0.08277778 0.109234914 -0.09029283 0.10544647 0.09526441 -0.15227008 -0.10132009 0.11994116 0.11088052 0.053615723 -0.11675848 0.06839965 0.07100354 -0.08385025 0.1165382 -0.105913974 0.047903046 0.07511616 -0.06592503 0.04125655 -0.0046939286 0.061081663 0.091053 0.06192682 -0.062751465 0.078166746 -0.09924288 0.1171023 -0.09393554 0.12837985 0.12792423 -0.05760002 -0.11973626 0.06524038 -0.110872515 0.068414904 -0.08871153 -0.08273167 0.102455236 -0.0965852 -0.08089068 0.070426546 0.054545216 -0.07508531 -0.012366646 -0.06172303 0.071104795 -0.07624955 0.057297107 0.08133429 0.072923675 -0.046180636 -0.14712058 0.060818527 -0.08813191 -0.06393872 0.0030518114 -0.044107836 0.079175726 0.0742317 0.08270785 0.06974128 0.11729014 0.07903885 -0.057634495 0.115271375 0.11101228
9 0.11697446 -0.095127195 0.021256153 -0.104062006 -0.09020901 -0.15444915 0.08045985 0.10721739 -0.10182479 -0.0684677 -0.090628356 0.1309642 -0.094168335 0.12291026 0.12715705 0.0774782 0.16073515 -0.09096884 0.1286449 -0.1120623 0.108747244 0.1515205 0.0084939785 0.15591899 -0.11405417 0.11456618 -0.10335052 0.074092954 -0.09239793 -0.09276059 0.13095334 -0.09701 -0.128714 -0.08654681 -0.07175735 -0.10805559 -0.1303466 0.06132412 -0.105862424 0.12623225 0.08229673 0.09453687 0.14555158 0.120257095 -0.11796072 0.15140475 0.14466569 -0.12215552 0.04791773 -0.053736538 -0.102515385 0.12087129 -0.100074336 -0.08056632 -0.04682742 0.11040816 0.10733542 -0.08952326 0.011005074 0.12992452 -0.11070934 -0.08688371 0.07822362 -0.06884105 0.06663813 -0.030353874 -0.008360859 -0.09009273 0.09313035 0.16731738 0.15130089 -0.11768621 -0.091948494 0.1258997 -0.10367325 -0.053396106 0.066777565 0.13714921 -0.10827795 0.09280045 -0.0999766 -0.08777787 0.091182604 -0.10218108 -0.09633869 -0.11597434 0.05787561 -0.06142596 -0.12058583 0.111005634 -0.11841945 0.082082406 -0.0929472 0.1406093 -0.118034884 0.10173893 -0.112188935 -0.06876574 0.10594264 -0.10559513 -0.11789341 -0.12238175 0.08190047 -0.114719525 0.1597335 0.123337284 -0.111095235 0.08614034 -0.065592565 -0.087281294 -0.018963996 0.11843923 -0.06735128 -0.06035219 -0.08991947 0.0808409 -0.09690468 -0.111121535 0.07540235 -0.041886695 0.08327726 -0.10476063 -0.08957626 0.10905737 -0.11014148 -0.11144628 -0.1251067 -0.11423658 -0.10343166 0.0899553 -0.0996007 0.07688519 -0.1058804 0.10430634 -0.073852666 -0.07084945 0.15539317 0.066657916 -0.12949805 0.083404526 -0.10890071 0.081221074 0.11769551 -0.07729733 0.05759067 0.097362325 -0.13625234 -0.11451398 0.16311446 -0.118678875 -0.13844977 -0.095798835 0.12833652 -0.081939936 -0.091241494 -0.11127266 0.17959613 -0.08834304 -0.14025521 0.09748685 0.16716316 -0.13056356 -0.11107617 -0.103190795 -0.07981267 -0.04990305 -0.09433195 -0.0674275 -0.09795257 0.11830293 -0.070032455 -0.11261572
10 -0.09754774 0.12225656 -0.11221892 0.10418638 0.1267986 -0.023532692 -0.13714263 -0.13993064 0.13052994 0.08319243 0.11674791 -0.11479556 0.15416321 -0.04987769 -0.07737601 -0.1212828 -0.0861415 0.1494676 -0.080392264 0.102527544 -0.040962547 -0.10079621 -0.12553622 -0.09874022 0.078152545 -0.13778943 0.13117139 -0.11581743 0.11919718 0.14379 -0.105887115 0.06451068 -0.013633169 0.12735578 0.10036075 0.06584618 -0.057450324 -0.17556986 0.09714227 -0.09073333 -0.16668257 -0.12531 -0.08309077 -0.09722063 0.08261094 -0.07821107 -0.090793565 0.12431092 -0.1296426 0.1302573 0.122458614 -0.09386905 0.10126774 -0.04380229 0.0868435 -0.07198141 -0.11991418 0.069869496 -0.102364115 -0.14500445 0.11174075 0.11381455 -0.09105345 0.10664968 -0.10263247 0.13565478 -0.14905073 0.07548845 -0.095480554 -0.10256685 -0.06291187 0.11468252 0.0865193 -0.13183412 0.070631154 0.104637586 -0.07219429 -0.07178967 0.12784776 -0.10443146 0.044186503 0.13288416 -0.068043716 0.06452439 0.11091439 0.08363844 -0.1239593 0.12018764 0.049454533 -0.08162279 0.13112625 -0.13044763 0.10479643 -0.12019683 0.008510515 -0.07393051 0.06582722 0.06505238 -0.08375787 0.109809674 0.07681294 -0.021045689 -0.09493338 0.06721831 -0.0851468 -0.083387814 0.14422363 -0.08403892 0.10481462 0.13392058 -0.14792013 -0.111567296 0.13439395 0.084882736 0.069530755 -0.13753761 0.082914785 0.10811421 -0.09233794 0.11740944 -0.113882564 0.08289944 0.12079238 -0.08204615 0.06555271 0.0008039549 0.08389542 0.10267846 0.07853839 -0.08425603 0.07224305 -0.12210323 0.15777509 -0.10377805 0.13129565 0.13444668 -0.10239875 -0.1283049 0.09800448 -0.13478264 0.0961448 -0.109489635 -0.12994316 0.09152043 -0.10660649 -0.06671719 0.119574755 0.07672437 -0.11380012 0.016753793 -0.040305205 0.09084621 -0.08918353 0.080747165 0.103466906 0.14199519 -0.08480112 -0.1033952 0.087600715 -0.114227034 -0.07827945 0.037059486 -0.044128686 0.11504743 0.06637132 0.09290932 0.10028397 0.12556997 0.070988245 -0.088197395 0.10995385 0.13252057
11 -0.09127971 0.10913353 -0.15386711 0.12643823 0.1175438 -0.115153864 -0.16180351 -0.11467328 0.14149591 0.12716226 0.12810542 -0.11232081 0.14484489 -0.11080763 -0.09893353 -0.12104045 -0.10729979 0.16009521 -0.047659595 0.09785338 -0.076046385 -0.10301663 -0.13566737 -0.072823964 0.07421025 -0.16238725 0.13389346 -0.19434628 0.12989397 0.1568466 -0.0934182 0.06982517 -0.04281051 0.14982349 0.1646206 0.088070385 -0.08691664 -0.19590254 0.122194335 -0.103877164 -0.17854272 -0.11126323 -0.052097045 -0.11969935 0.11443434 -0.075106755 -0.08256621 0.11106721 -0.15138796 0.15941595 0.13064392 -0.08544308 0.13182542 -0.16338778 0.098502785 -0.082546346 -0.103049636 0.14057247 -0.17064351 -0.11600786 0.15496735 0.15570912 -0.11361368 0.14394362 -0.13057078 0.16775766 -0.18707 0.067802176 -0.14083208 -0.099069834 -0.074157864 0.14978585 0.11422561 -0.11591562 0.10137287 0.14493157 -0.14714257 -0.10816133 0.15329383 -0.11993569 0.046937257 0.1338583 -0.115606666 0.07920999 0.14149053 0.0891849 -0.1513164 0.17459828 0.057777718 -0.07293294 0.12090914 -0.1531945 0.12179091 -0.12383673 -0.009139448 -0.093316734 0.08603491 0.100789234 -0.11292749 0.12720273 0.10437021 -0.12719393 -0.096094735 0.076852426 -0.10463319 -0.12362766 0.15223384 -0.13105696 0.14330906 0.13289285 -0.20736662 -0.14708313 0.17292792 0.1631515 0.08051552 -0.16918291 0.09860018 0.10720502 -0.12726757 0.16307208 -0.15497997 0.07428622 0.104899675 -0.09875755 0.06679601 0.005422216 0.0921402 0.13355397 0.095006555 -0.08920117 0.1145662 -0.13666515 0.16258846 -0.13245875 0.18083039 0.18447483 -0.09150112 -0.16802393 0.09351796 -0.15674846 0.099587366 -0.1273159 -0.11239544 0.15285398 -0.13443746 -0.12143328 0.100849405 0.081503846 -0.111158244 -0.007904787 -0.07405793 0.10023938 -0.11662463 0.081473306 0.12435934 0.09863441 -0.07347595 -0.19731155 0.09359703 -0.12526762 -0.10547091 0.01587709 -0.045196883 0.11352277 0.1102257 0.11508718 0.09612495 0.16488361 0.121450424 -0.08219778 0.16456112 0.15887997
12 -0.41627455 0.41107756 -0.35244924 0.405422 0.413884 0.06921285 -0.45455858 -0.441229 0.45511 0.36045367 0.45275652 -0.42479783 0.4610269 -0.3748824 -0.37594703 -0.4005222 -0.4655885 0.4681695 -0.3310481 0.35966212 -0.32773253 -0.44812128 -0.31406027 -0.43289766 0.3425357 -0.49076176 0.47008395 -0.48305142 0.45285577 0.5045719 -0.46255353 0.32805204 0.15065774 0.46141443 0.44117495 0.34222203 0.045140684 -0.4855781 0.4111603 -0.40337726 -0.52980155 -0.40955466 -0.37482327 -0.40736735 0.41951233 -0.43101054 -0.41405374 0.41537595 -0.42281514 0.39487296 0.42778602 -0.36575872 0.41031837 -0.09119806 0.30623317 -0.37511152 -0.40776747 0.3928451 -0.33687422 -0.4863578 0.45485 0.46019852 -0.35887635 0.42145732 -0.3718665 0.39520842 -0.40251386 0.3205785 -0.4009571 -0.46794873 -0.40630978 0.4939624 0.3878888 -0.45265058 0.3687924 0.3651297 -0.35566705 -0.4305998 0.4787243 -0.40985543 0.27808267 0.45432544 -0.3771528 0.33958828 0.45700592 0.4138363 -0.39854765 0.43005246 0.29927164 -0.36242747 0.45439503 -0.4386816 0.40516543 -0.47923923 0.16742125 -0.3411572 0.3766842 0.30863732 -0.40634888 0.3973109 0.37502113 -0.0062348694 -0.33395046 0.36604935 -0.45707315 -0.4333751 0.50388765 -0.3804739 0.39411163 0.43593735 -0.3706066 -0.44829047 0.4342028 0.39808977 0.29755044 -0.49563706 0.38643718 0.41130385 -0.35923767 0.39051017 -0.42551413 0.3575855 0.38821632 -0.37349173 0.29227194 0.22067615 0.39317083 0.45352614 0.3543243 -0.3262476 0.39291698 -0.41361082 0.4765557 -0.43325484 0.45571554 0.48264357 -0.4441033 -0.44688404 0.39567572 -0.45708996 0.39882922 -0.4185316 -0.47445166 0.4133423 -0.3627506 -0.35434017 0.42388856 0.3677411 -0.49974447 0.17143667 0.06546493 0.38910693 -0.44029796 0.311649 0.39174303 0.46432674 -0.41336977 -0.21342388 0.42011505 -0.41122705 -0.4422801 0.2273204 0.08153406 0.45549917 0.34243274 0.32487273 0.40414926 0.43427998 0.38854712 -0.38594753 0.4295066 0.48908386
13 -0.36645406 0.3670951 -0.32049295 0.3805298 0.3745843 0.023632362 -0.41640097 -0.36299834 0.40128103 0.3517558 0.39319366 -0.37658376 0.4061813 -0.34577435 -0.3503524 -0.3571021 -0.405608 0.42897063 -0.28868032 0.32207412 -0.28320074 -0.3997501 -0.27442253 -0.3598206 0.3030977 -0.43860984 0.4100928 -0.43689796 0.39724648 0.4416268 -0.39591044 0.28798285 0.116515815 0.4029029 0.39815396 0.3004325 0.013460342 -0.4356984 0.3779654 -0.35131165 -0.46111682 -0.3667894 -0.316279 -0.37621054 0.3808943 -0.35590395 -0.35258472 0.3571506 -0.38129792 0.35304388 0.3679427 -0.31807083 0.39273936 -0.13375428 0.29004398 -0.31698415 -0.3579361 0.37040994 -0.3246055 -0.41689855 0.41032958 0.42716736 -0.33025494 0.39050612 -0.33602953 0.38252622 -0.3690012 0.28584516 -0.38202775 -0.39614183 -0.361062 0.44617248 0.33776543 -0.4013391 0.33212268 0.3453279 -0.33441788 -0.38635075 0.42665988 -0.36336443 0.24328372 0.40087232 -0.33753762 0.29938194 0.4181876 0.35260808 -0.38437158 0.38952625 0.26393127 -0.3164392 0.39849448 -0.41033944 0.36631274 -0.41227254 0.1319958 -0.3093815 0.33522317 0.2807046 -0.3744052 0.35545105 0.33529332 -0.047646634 -0.2891077 0.33386567 -0.39941636 -0.37992516 0.43151903 -0.35128903 0.35046804 0.38794762 -0.36467463 -0.41773522 0.42204303 0.3748199 0.27379668 -0.44733065 0.33519572 0.37381977 -0.34690508 0.35436526 -0.39792985 0.31808612 0.33652413 -0.33582085 0.27571395 0.17675573 0.34634447 0.39138365 0.31696397 -0.2858101 0.34653336 -0.37171724 0.427661 -0.38627297 0.41832098 0.45671666 -0.39615774 -0.4093183 0.34594294 -0.40377688 0.3516342 -0.38258463 -0.41418323 0.38552403 -0.32678404 -0.32056642 0.3669996 0.32421067 -0.43719345 0.15440258 0.037397802 0.34403247 -0.39554876 0.27346385 0.36764416 0.3887002 -0.36209548 -0.21728137 0.36845216 -0.37313744 -0.397424 0.21343873 0.074564785 0.39459714 0.32651973 0.2910391 0.35284358 0.4006514 0.35749453 -0.32655072 0.39539945 0.42803156
14 -0.008858915 0.03955809 -0.070521004 0.017490368 0.04351751 -0.0833042 -0.054707784 -0.061319724 0.049000967 0.01604757 0.041596614 -0.016409617 0.06897742 0.032993313 0.011919033 -0.047132693 0.016310327 0.062140647 0.00728197 0.017743178 0.022962216 0.007100269 -0.09274812 0.0019074753 -0.0010626689 -0.041031476 0.046568926 -0.04819613 0.04475769 0.05868156 -0.013252184 0.0002278164 -0.07532184 0.053962488 0.03875485 -0.007957585 -0.10292583 -0.10171692 0.015763585 -0.0038057677 -0.08936064 -0.044146962 0.010567822 -0.005139362 -0.0016682446 0.016157515 0.0045198575 0.0352557 -0.069003716 0.07309136 0.044126336 -0.009570204 0.015139755 -0.05768571 0.034061357 0.0019268692 -0.035106998 -0.0007818788 -0.063349895 -0.045844782 0.0255748 0.0338068 -0.02362046 0.036823615 -0.037562486 0.07599568 -0.115342036 0.00939111 -0.01278257 0.0074266642 0.03542444 0.0230935 0.017724246 -0.034386072 -0.00091792643 0.046326928 -0.0145707615 0.022160865 0.039189775 -0.029552393 -0.01856368 0.052392375 -0.004184995 -0.0008480847 0.027889997 0.0053132437 -0.05581581 0.060891982 -0.029307764 -0.0044962764 0.040161908 -0.047232352 0.025098842 -0.02397962 -0.052977744 -0.002204895 -0.011651941 0.00892387 0.0010169744 0.027644638 -0.0069552325 -0.06702706 -0.034106806 -0.010662045 0.018482216 -0.00054013357 0.055923346 -0.014076062 0.046767846 0.056511752 -0.109571666 -0.0150084235 0.053811505 0.025553655 -0.00026885048 -0.05509098 0.01602155 0.018659357 -0.01991646 0.06219522 -0.03653568 0.003909055 0.04591013 -0.003003195 -0.015438087 -0.05519726 -0.0009115599 0.019615047 0.0035835616 -0.019813579 0.002315957 -0.05307116 0.06515676 -0.023542665 0.059590995 0.05242714 0.004521072 -0.05849903 0.01024304 -0.05818423 0.012808587 -0.03705272 -0.03991747 0.021424454 -0.04949462 0.002768647 0.021064851 0.000287842 -0.0013941824 -0.049641624 -0.09503895 0.019885663 0.0044690035 0.020059265 0.019550376 0.054745246 0.028762728 -0.114902556 -0.00643719 -0.033334117 0.030764759 -0.04205041 -0.0927226 0.032031927 0.0012651421 0.04135547 0.029207755 0.058462344 -0.0046266913 -0.011891358 0.04305363 0.042145703
15 -0.07067302 0.09547949 -0.110350326 0.09405114 0.09593521 -0.07291336 -0.121830165 -0.09673309 0.10626198 0.093929216 0.09520055 -0.07869916 0.120740056 -0.060601532 -0.0720399 -0.098139614 -0.07075313 0.13370454 -0.04553266 0.07203746 -0.048892707 -0.074778676 -0.11581871 -0.055532962 0.062075093 -0.11116065 0.1034894 -0.12834525 0.107591346 0.11747715 -0.077200025 0.052500144 -0.034551665 0.111925215 0.11361313 0.04858555 -0.07346578 -0.155595 0.09036429 -0.07096113 -0.13957962 -0.09927626 -0.04133284 -0.081924915 0.07653554 -0.046079874 -0.060994864 0.08566438 -0.11825587 0.12596667 0.095328555 -0.0636041 0.099844426 -0.09608811 0.08788909 -0.054463074 -0.08696513 0.08863713 -0.115756184 -0.09791356 0.10567346 0.11421627 -0.08367361 0.105982125 -0.09416132 0.13733046 -0.1503615 0.056884542 -0.09576167 -0.060096502 -0.047625214 0.10844605 0.08141965 -0.0922869 0.07174061 0.108795986 -0.089064896 -0.06185621 0.11435485 -0.08885969 0.038178593 0.107880116 -0.08017211 0.05711536 0.10849111 0.0683056 -0.12746161 0.13037503 0.035860196 -0.057579264 0.095774576 -0.11811726 0.09239937 -0.09172596 -0.015717447 -0.065898106 0.05849418 0.063635156 -0.07450892 0.08705725 0.06645554 -0.08195682 -0.079414934 0.05989115 -0.06576672 -0.07860203 0.113888815 -0.08735393 0.10503736 0.108534634 -0.15445149 -0.10203759 0.13407937 0.10727385 0.057874545 -0.120960236 0.07186094 0.087634146 -0.09136997 0.118254215 -0.11188321 0.0575971 0.08508618 -0.06866801 0.045368314 -0.008571357 0.06690161 0.08801079 0.07057011 -0.069932625 0.076147854 -0.10848135 0.12677804 -0.09332439 0.12896876 0.13531142 -0.070299745 -0.12128414 0.06850423 -0.11368488 0.071845666 -0.097022444 -0.104853585 0.102351665 -0.09959139 -0.06755221 0.082617015 0.059947804 -0.07782552 -0.002966404 -0.067437835 0.07451725 -0.0718324 0.06419103 0.088309094 0.0907722 -0.05385959 -0.13838404 0.064785615 -0.09954889 -0.062594295 0.016753942 -0.04634431 0.089282945 0.078076124 0.084262505 0.08269648 0.12896474 0.07505722 -0.06448054 0.113708764 0.10674137
16 0.5257468 -0.456115 0.24997085 -0.44015837 -0.46051437 -0.3250171 0.42843473 0.44098997 -0.42878634 -0.3850243 -0.484495 0.4704401 -0.45251745 0.48972833 0.4545656 0.41912007 0.5859567 -0.45846695 0.4671948 -0.39461854 0.43471825 0.56704545 0.17415763 0.5756754 -0.43178675 0.49341154 -0.49322832 0.45339704 -0.46453047 -0.5043986 0.5872594 -0.4018888 -0.3960597 -0.48056793 -0.42039537 -0.42976904 -0.27854413 0.33909294 -0.45443523 0.48152345 0.4640183 0.4272215 0.5147933 0.4621394 -0.50371933 0.5907131 0.52747464 -0.4336291 0.38464588 -0.30295104 -0.42667866 0.44486278 -0.470936 -0.10635117 -0.3259786 0.47009495 0.43220612 -0.46008712 0.24045226 0.5228551 -0.4610495 -0.48242208 0.3944571 -0.42923552 0.36928755 -0.31721365 0.23930469 -0.387648 0.4207332 0.5763742 0.59433925 -0.5392529 -0.43791193 0.49479473 -0.44590384 -0.31862244 0.35839176 0.5781264 -0.49301398 0.42186594 -0.39651364 -0.47000176 0.4337501 -0.43511036 -0.5101538 -0.5382851 0.37721765 -0.3768577 -0.43283373 0.46490312 -0.46886712 0.42524856 -0.4680333 0.5344 -0.33453965 0.40660483 -0.50198627 -0.36103263 0.51344013 -0.4103471 -0.44108358 -0.18923761 0.33532602 -0.49706596 0.5715864 0.5194433 -0.4929934 0.42808098 -0.3755162 -0.41669652 0.16832118 0.4922806 -0.38714498 -0.3891406 -0.3594804 0.4846107 -0.44530326 -0.49646798 0.37389445 -0.3271138 0.42220867 -0.44167972 -0.41171318 0.46770334 -0.3688048 -0.39329743 -0.49050862 -0.5077473 -0.4201373 0.35951567 -0.45789862 0.40041396 -0.42746764 0.46057555 -0.40343022 -0.45227408 0.5680796 0.42637014 -0.47543365 0.41284943 -0.46577507 0.4353615 0.5379187 -0.41346955 0.32351223 0.3702979 -0.48943904 -0.45259142 0.6187183 -0.31731382 -0.294649 -0.45587945 0.5367158 -0.35156792 -0.45032704 -0.51964206 0.57676274 -0.061930764 -0.52598506 0.44402823 0.5853257 -0.3868991 -0.29417837 -0.52510023 -0.41301915 -0.30883223 -0.47952536 -0.40341726 -0.46863568 0.45697066 -0.40198502 -0.46677363
17 0.16820635 -0.120005816 0.042325392 -0.111528665 -0.13010435 -0.16618668 0.09782153 0.112378344 -0.11840765 -0.09703258 -0.14639042 0.14322367 -0.10257039 0.12890355 0.13286436 0.09431949 0.17377637 -0.08515007 0.1504594 -0.12124433 0.11303675 0.16171296 -0.0073392913 0.1782066 -0.12102005 0.12318586 -0.13885754 0.09685877 -0.115340546 -0.13071929 0.18315831 -0.13805719 -0.1603469 -0.11546306 -0.08565628 -0.13694456 -0.13927716 0.043436266 -0.1335528 0.14018112 0.1058573 0.108242646 0.17461158 0.14025393 -0.16368102 0.18850867 0.15016684 -0.115964875 0.08861913 -0.033527646 -0.11097996 0.12913682 -0.12799697 -0.10613486 -0.07124782 0.14933297 0.12055756 -0.1129231 0.030879766 0.15566036 -0.1075545 -0.11494267 0.10557648 -0.104058504 0.07923993 -0.048338026 0.022609245 -0.123526216 0.10810962 0.18677922 0.19054744 -0.14623116 -0.10671683 0.14623736 -0.12677981 -0.07075822 0.08004391 0.17834787 -0.11402775 0.10843365 -0.11583279 -0.113967165 0.10087572 -0.13883847 -0.1234436 -0.15302667 0.068582125 -0.06004346 -0.13417014 0.15792473 -0.14562847 0.1004262 -0.11282654 0.15593243 -0.12648425 0.120106 -0.16383827 -0.09939693 0.15444733 -0.10413349 -0.120526806 -0.1337309 0.08223079 -0.16602774 0.17203696 0.14693527 -0.13191192 0.10884841 -0.07053915 -0.11208864 0.0019673035 0.131435 -0.07281826 -0.07547451 -0.102450505 0.13253258 -0.13550565 -0.13866249 0.09737508 -0.045123376 0.1068113 -0.14790606 -0.12031084 0.13741069 -0.13112825 -0.15705946 -0.15496247 -0.13426991 -0.10649195 0.08813451 -0.11503274 0.10078058 -0.097015426 0.12305996 -0.07852544 -0.09388161 0.18870744 0.10249983 -0.15817724 0.09794754 -0.14601761 0.13198517 0.14681567 -0.09757099 0.061711162 0.104276784 -0.12714086 -0.1423254 0.20446172 -0.13646793 -0.16441903 -0.14395864 0.17755245 -0.10544507 -0.126078 -0.16150565 0.16874763 -0.108915284 -0.15524758 0.106735736 0.17778613 -0.1348584 -0.14683741 -0.15588494 -0.104761556 -0.06974851 -0.13958666 -0.0777466 -0.13390109 0.14020842 -0.10182899 -0.124729425
18 -0.149302 0.1565094 -0.17522532 0.17089278 0.1622268 -0.057097375 -0.20072463 -0.15963036 0.18702114 0.16447692 0.17933019 -0.16117479 0.18342565 -0.15412427 -0.14636531 -0.16149649 -0.16867699 0.19675979 -0.09994799 0.13656873 -0.11995011 -0.16166762 -0.15091243 -0.13575463 0.11927803 -0.20594344 0.18506093 -0.22519487 0.18119961 0.20804188 -0.15846056 0.11936671 0.0068895407 0.18862662 0.20120272 0.13004008 -0.041038197 -0.22385854 0.1680516 -0.14946301 -0.2251064 -0.15882994 -0.113938406 -0.16532554 0.16576162 -0.13950557 -0.13975596 0.1537438 -0.18802728 0.18034212 0.17000294 -0.12928 0.17296477 -0.1238215 0.13083759 -0.1330972 -0.15274355 0.17511724 -0.18194312 -0.1760315 0.19439104 0.20127672 -0.15050931 0.1867826 -0.16123107 0.1937684 -0.20576596 0.11698306 -0.17918435 -0.16208123 -0.13733433 0.2032129 0.1541735 -0.16995038 0.14469916 0.1722622 -0.17100425 -0.16369493 0.19672716 -0.16809759 0.09161511 0.18290038 -0.15593769 0.12429772 0.18906552 0.14504905 -0.18169683 0.19805779 0.100164115 -0.1252326 0.17334539 -0.19263308 0.16314372 -0.17771673 0.02925729 -0.13270222 0.1380432 0.13025841 -0.1626519 0.1632019 0.14714953 -0.08297522 -0.12923166 0.13157672 -0.16700259 -0.16943163 0.2005314 -0.16364609 0.17218299 0.17838353 -0.21284595 -0.18800612 0.20588276 0.19237903 0.115351684 -0.21668255 0.14785343 0.15568855 -0.16268617 0.1849062 -0.19019037 0.12959689 0.14685126 -0.14204855 0.10917914 0.055584446 0.14231358 0.179611 0.13664709 -0.12447509 0.15818423 -0.17362225 0.20015526 -0.17710575 0.2106989 0.22543572 -0.15523651 -0.20111756 0.14084862 -0.1976558 0.15026683 -0.17603977 -0.17136878 0.19053128 -0.16233724 -0.15542011 0.14936146 0.13417843 -0.17797159 0.034584887 -0.03159649 0.14887197 -0.171974 0.117275916 0.16442625 0.160122 -0.13120444 -0.1689984 0.15178859 -0.16556227 -0.16269949 0.061144907 -0.0032556043 0.17117015 0.1468956 0.14220937 0.14829338 0.19539519 0.16339777 -0.13477787 0.19740711 0.20522696
19 0.17945461 -0.14431627 0.04467243 -0.15024988 -0.14409024 -0.16804722 0.121614575 0.11658692 -0.11003389 -0.123037934 -0.13714035 0.14807321 -0.11916742 0.18333444 0.15568791 0.13125366 0.2022236 -0.12766589 0.17271091 -0.11835919 0.15603386 0.20320594 0.015928969 0.20369774 -0.14584374 0.14536628 -0.14344859 0.11138749 -0.13624588 -0.14526103 0.19402865 -0.13252088 -0.18299206 -0.1302768 -0.115077406 -0.14753376 -0.15042073 0.054284945 -0.1380366 0.15236357 0.11176958 0.13263014 0.18994915 0.14986774 -0.15834808 0.21282399 0.18749745 -0.12522586 0.09750245 -0.055835642 -0.11558452 0.14920887 -0.14822698 -0.07750211 -0.10183086 0.1514797 0.13326211 -0.14794642 0.041471012 0.15772212 -0.13375872 -0.15015984 0.12407026 -0.13113505 0.10433629 -0.07590848 0.01681982 -0.13711157 0.13176872 0.19555669 0.22612524 -0.1653237 -0.13649842 0.15540613 -0.14410892 -0.07593174 0.10327576 0.21008387 -0.14043799 0.13661352 -0.1505095 -0.14600717 0.1407772 -0.14443971 -0.16097224 -0.18631883 0.10293081 -0.08096033 -0.16123566 0.15421917 -0.1297346 0.12135957 -0.15669698 0.15862884 -0.14574671 0.13062885 -0.17054662 -0.11364219 0.1805235 -0.124470174 -0.14824495 -0.10652357 0.08928482 -0.17405897 0.20334421 0.16283484 -0.12688124 0.12868986 -0.09560443 -0.11310712 -0.011272937 0.14751688 -0.108492166 -0.11341795 -0.12097411 0.13537154 -0.13949443 -0.16652533 0.12056227 -0.07618479 0.11599088 -0.15743272 -0.11889911 0.15689313 -0.13162413 -0.15695861 -0.1589888 -0.15618749 -0.14419678 0.11290474 -0.14834023 0.10183315 -0.10632577 0.13495693 -0.1005767 -0.13289666 0.19906957 0.108447 -0.14388756 0.10965094 -0.1492424 0.12988555 0.16219717 -0.12419166 0.08418268 0.11112899 -0.15913646 -0.1572368 0.2045412 -0.12902753 -0.14033006 -0.14227186 0.17793438 -0.10383852 -0.15024991 -0.15777054 0.21342495 -0.095349245 -0.19015658 0.1355821 0.2135066 -0.16610053 -0.14699996 -0.16609593 -0.1402438 -0.08209559 -0.15144968 -0.10025854 -0.15521319 0.14637183 -0.09742597 -0.12822017
20 0.16801426 -0.14235488 0.052672803 -0.13400818 -0.1467379 -0.10794529 0.1250228 0.10966575 -0.10712299 -0.118520886 -0.13326657 0.14730904 -0.12922096 0.1520806 0.13871157 0.13059628 0.16993223 -0.13565215 0.15779497 -0.12233594 0.12100789 0.18551527 0.025908187 0.17919406 -0.13658597 0.1457214 -0.13609257 0.106431454 -0.118373185 -0.1412583 0.17794831 -0.10931119 -0.14179668 -0.1275853 -0.09714791 -0.1308867 -0.093244575 0.075564295 -0.12781522 0.14363724 0.10390581 0.12540303 0.1633815 0.14161803 -0.14585365 0.18113416 0.16338031 -0.12318356 0.1031144 -0.06570113 -0.11019823 0.13607603 -0.14903435 -0.041716717 -0.10129173 0.14077273 0.12777789 -0.13440211 0.056379437 0.14971012 -0.12608111 -0.13934901 0.115946054 -0.1255275 0.11241305 -0.08925915 0.036174476 -0.11329687 0.13287334 0.17758289 0.19416189 -0.1503177 -0.12375224 0.14712119 -0.12502682 -0.08064288 0.093808845 0.18122591 -0.14070565 0.11507946 -0.12228459 -0.1369511 0.11530131 -0.116410166 -0.15322925 -0.15766142 0.10918087 -0.08316037 -0.14722587 0.1397534 -0.1297108 0.13001484 -0.14690733 0.1439646 -0.11681246 0.11760846 -0.15419638 -0.109328285 0.1667836 -0.11717096 -0.13749915 -0.07580229 0.084262714 -0.14808829 0.16993396 0.14468254 -0.12816578 0.12571087 -0.09340246 -0.10947342 0.03272301 0.15544096 -0.11830492 -0.10269034 -0.1207422 0.1381272 -0.11497913 -0.15896207 0.116266176 -0.08745982 0.11904158 -0.13984078 -0.11945671 0.1429561 -0.12738395 -0.122496724 -0.1445671 -0.14220473 -0.12641236 0.09843689 -0.12846185 0.103489906 -0.11456922 0.1284639 -0.097467616 -0.13474931 0.1747177 0.11414811 -0.13700804 0.10623747 -0.14509769 0.11844607 0.15414786 -0.114571035 0.08266163 0.100925535 -0.15311502 -0.1269173 0.18806177 -0.11055205 -0.10090696 -0.1264694 0.16492201 -0.09845808 -0.15081555 -0.1486816 0.18983215 -0.048062842 -0.15734085 0.13133457 0.18291895 -0.13305028 -0.10453637 -0.15599342 -0.1258696 -0.08680424 -0.13390067 -0.1005822 -0.14370857 0.12179567 -0.10190818 -0.12425241
21 0.23355907 -0.19009914 0.08781445 -0.17929175 -0.18752703 -0.19127405 0.16995686 0.17815039 -0.17154503 -0.15143903 -0.20547408 0.19309543 -0.16751805 0.1999945 0.19228575 0.16250142 0.25276765 -0.16214702 0.20845251 -0.16119534 0.18487675 0.23822732 0.05195207 0.25123623 -0.1814334 0.18759009 -0.20717263 0.16431385 -0.19672847 -0.20724541 0.25917768 -0.18553339 -0.20059668 -0.1818262 -0.15745282 -0.17917168 -0.16408801 0.10756687 -0.1896162 0.19852859 0.17765129 0.1787909 0.23559448 0.19483016 -0.21482089 0.26270127 0.22503917 -0.16927436 0.14996064 -0.09537261 -0.16939706 0.18433857 -0.18486603 -0.10453682 -0.12989444 0.20451078 0.18182638 -0.17253473 0.066226795 0.22560534 -0.17415208 -0.18750226 0.15960467 -0.16914758 0.13394421 -0.111327134 0.074215956 -0.17668247 0.16292024 0.24864459 0.26240534 -0.22223225 -0.17790888 0.20396468 -0.18692476 -0.11915227 0.12861712 0.24463208 -0.1868444 0.17970607 -0.17726035 -0.19284827 0.17366153 -0.19027664 -0.20058642 -0.23347242 0.13310413 -0.12692799 -0.18977009 0.20839117 -0.19632447 0.16180098 -0.18905655 0.22312239 -0.16233349 0.16711178 -0.22087859 -0.14018644 0.21486029 -0.15599439 -0.1797078 -0.13389143 0.13508669 -0.2215162 0.24839447 0.21165225 -0.20011492 0.15990974 -0.12952194 -0.1731834 0.031337928 0.18580243 -0.13877681 -0.14114554 -0.14613606 0.19944641 -0.19451626 -0.20852059 0.15045571 -0.107423626 0.16360664 -0.20416345 -0.1717507 0.19205344 -0.16336098 -0.19857925 -0.21216471 -0.20530403 -0.17486978 0.14380737 -0.18451157 0.15536395 -0.15732816 0.18189436 -0.14004411 -0.16889146 0.2551704 0.1566088 -0.20079005 0.16256955 -0.19995205 0.18721868 0.22692578 -0.16320693 0.11642819 0.14655876 -0.1977058 -0.20019832 0.268169 -0.16016194 -0.16623835 -0.1941464 0.23115101 -0.14846273 -0.18235263 -0.231088 0.24063466 -0.086982146 -0.22711128 0.17204823 0.24832726 -0.17782313 -0.16240627 -0.22851044 -0.16135636 -0.115474924 -0.20490499 -0.14555381 -0.19144163 0.20144215 -0.15260836 -0.18669516
22 -0.8546748 0.79070604 -0.7267475 0.8502425 0.82260704 0.009714011 -0.9201358 -0.74957824 0.8936443 0.83119917 0.91419333 -0.8775208 0.85768455 -0.8790351 -0.80771756 -0.7955663 -0.9607107 0.91468525 -0.63577855 0.7252681 -0.69376624 -0.9379279 -0.53756034 -0.8282433 0.6916254 -1.0199897 0.90918636 -1.0286674 0.8589978 1.0002189 -0.9116551 0.6639839 0.31385836 0.9047015 0.93096966 0.7555521 0.08677024 -0.92213136 0.86012346 -0.8301668 -0.98571813 -0.7667975 -0.72146165 -0.8710939 0.9196506 -0.8735554 -0.82119846 0.7830589 -0.8502301 0.7480614 0.81040984 -0.7114954 0.90259445 -0.3645756 0.63031685 -0.79350173 -0.77973115 0.9196403 -0.7710965 -0.8950832 0.9566298 0.9927105 -0.7513164 0.91994834 -0.79988563 0.81186044 -0.774853 0.63301754 -0.9220476 -0.9661565 -0.88853025 1.0302602 0.7910765 -0.8823131 0.7774442 0.7678695 -0.82249 -0.9667556 0.97804356 -0.8178255 0.56553096 0.8807117 -0.80211425 0.6777812 0.96984863 0.8153925 -0.81771916 0.8548497 0.6508317 -0.7247923 0.8834648 -0.92640084 0.82519007 -0.92056084 0.3404185 -0.71814895 0.82085574 0.69849753 -0.9165635 0.8067554 0.8237196 -0.14140022 -0.6117296 0.7686304 -0.95971555 -0.91654754 0.96469325 -0.84901816 0.8061979 0.82565725 -0.81531465 -0.99666107 0.93503404 0.9079091 0.6565559 -1.0380698 0.76807755 0.82600534 -0.79760617 0.81830275 -0.9046175 0.7369847 0.7255789 -0.7871208 0.65992975 0.49327648 0.80154246 0.93262064 0.72414374 -0.6237639 0.8501829 -0.807662 0.90704286 -0.9134939 0.93197393 1.0582819 -0.882615 -0.9322147 0.78145534 -0.9056544 0.8387597 -0.8599857 -0.88795537 0.92540836 -0.73201835 -0.81536186 0.80452365 0.7377455 -1.0265183 0.35978833 0.14045037 0.79182434 -0.9768583 0.60696405 0.85719746 0.81980866 -0.83910304 -0.5068549 0.8563156 -0.82257295 -0.9594899 0.4570412 0.24705216 0.9079653 0.7828073 0.6767214 0.7778435 0.8635474 0.89651513 -0.72671926 0.9259279 0.9974223
23 0.48736462 -0.44164935 0.2710422 -0.4208606 -0.42714363 -0.27475616 0.43918648 0.4305719 -0.41199416 -0.35563433 -0.4587626 0.42004085 -0.42544538 0.42747027 0.4190601 0.39177912 0.53460026 -0.43081877 0.42167413 -0.35902023 0.3942229 0.505545 0.2300635 0.51221055 -0.39092976 0.44900724 -0.4803583 0.4315462 -0.47372055 -0.49553967 0.54198754 -0.38266975 -0.327195 -0.44131184 -0.40312243 -0.36300826 -0.22863135 0.3578174 -0.42865446 0.43092027 0.46285805 0.42791402 0.4659861 0.43284175 -0.4519199 0.5230776 0.47300708 -0.39216128 0.38702267 -0.3112927 -0.40960377 0.39891756 -0.42287767 -0.09225957 -0.32101738 0.41825217 0.41515213 -0.39300236 0.2257258 0.50801253 -0.42489153 -0.44676954 0.3698299 -0.4028958 0.3318832 -0.34024543 0.28520006 -0.37229532 0.38173237 0.5053036 0.516091 -0.5106576 -0.41339463 0.45226163 -0.41049254 -0.32332963 0.32071078 0.49658215 -0.4538596 0.4213608 -0.36364397 -0.46219304 0.40120566 -0.39933294 -0.46679336 -0.49657005 0.3651825 -0.3715598 -0.3840295 0.42644066 -0.4414389 0.4045133 -0.4431759 0.49997205 -0.28444973 0.36294425 -0.4494568 -0.30800033 0.4507593 -0.36980578 -0.39225996 -0.15911421 0.33284134 -0.4492107 0.5193474 0.46324015 -0.482499 0.3681572 -0.338395 -0.4236901 0.20012738 0.42601967 -0.38314292 -0.36431184 -0.31578535 0.47861102 -0.4228533 -0.4665425 0.3598395 -0.3185929 0.4067491 -0.42108297 -0.39500684 0.4104663 -0.32785708 -0.34920844 -0.44905975 -0.4655147 -0.39644527 0.33641028 -0.4116635 0.38716674 -0.4163593 0.41587162 -0.38479662 -0.4362562 0.5309025 0.39705482 -0.42348954 0.41333318 -0.42451298 0.4266221 0.515429 -0.39926493 0.31307632 0.32936317 -0.44754833 -0.4192636 0.55202764 -0.28019276 -0.22509277 -0.4138195 0.47671434 -0.33154097 -0.4119235 -0.50876534 0.49127126 -0.013204224 -0.4773513 0.41134304 0.5134751 -0.33620274 -0.23727456 -0.49993616 -0.36043355 -0.2900602 -0.44787383 -0.39855617 -0.41443148 0.43229532 -0.3847973 -0.44709396
24 -0.06076453 0.087187715 -0.13770759 0.108113945 0.0767735 -0.122671574 -0.14251077 -0.09486763 0.123608306 0.11644514 0.1005961 -0.0765313 0.11748876 -0.09982382 -0.09886636 -0.08762361 -0.098229975 0.14505504 -0.023619361 0.074821666 -0.08498488 -0.07516739 -0.13753587 -0.037861347 0.06908828 -0.12292658 0.10925125 -0.18888132 0.12944683 0.12346609 -0.06993225 0.06216255 -0.05689639 0.12619132 0.16276029 0.05220835 -0.080374524 -0.18581215 0.11552297 -0.08813834 -0.15032533 -0.09621636 -0.019073337 -0.10234881 0.100244716 -0.040242568 -0.059188023 0.084817834 -0.12725675 0.16461767 0.11189765 -0.0595669 0.117958784 -0.16382267 0.09324324 -0.06323071 -0.08068157 0.12953256 -0.14909282 -0.0862574 0.14430237 0.13394071 -0.09496756 0.11978014 -0.10648846 0.157027 -0.17868137 0.048747458 -0.12293876 -0.05782175 -0.047338933 0.13957211 0.10816603 -0.0777667 0.10163657 0.1437888 -0.1373816 -0.0719886 0.13865793 -0.10198295 0.045013934 0.104141556 -0.12074414 0.07142604 0.12504 0.07236837 -0.14642069 0.18561962 0.04661797 -0.051883943 0.09705098 -0.13024357 0.10026256 -0.110950485 -0.02448928 -0.08266263 0.07059525 0.07652145 -0.07581025 0.09798672 0.08946367 -0.14022784 -0.09924597 0.06473175 -0.08567512 -0.11332873 0.13487265 -0.11409549 0.13281429 0.11582759 -0.18947011 -0.12553233 0.15836067 0.15806907 0.0633412 -0.13625178 0.087257706 0.08700206 -0.110347465 0.14865926 -0.14501086 0.046383917 0.073835306 -0.07471856 0.04433465 -0.0010094345 0.081806384 0.11270059 0.08987805 -0.08157951 0.1085495 -0.12505633 0.1429832 -0.11557301 0.1647079 0.15863502 -0.06864962 -0.1410512 0.073231585 -0.13232821 0.07107232 -0.105163775 -0.105847456 0.14610618 -0.119157866 -0.10979638 0.079470396 0.06433402 -0.0757314 -0.0071183443 -0.08110775 0.07532029 -0.082811326 0.071642116 0.088442676 0.0616946 -0.05336918 -0.20122385 0.06783362 -0.10942115 -0.08358592 0.003099896 -0.047155023 0.0845393 0.09924504 0.09452736 0.078408144 0.1667377 0.10274815 -0.07250086 0.15608153 0.13127878
25 -0.014422713 0.0392318 -0.09860065 0.051937934 0.043554857 -0.11986342 -0.07817279 -0.05925634 0.08013112 0.06081915 0.056490447 -0.04401122 0.077361666 -0.03346131 -0.033327967 -0.054733954 -0.029166078 0.08805447 0.011915037 0.039357252 -0.021610957 -0.023076745 -0.097204424 -0.0029216856 0.019477524 -0.08087237 0.058490492 -0.11332572 0.062027276 0.07299371 -0.017425219 0.01780627 -0.08014777 0.07832934 0.09700518 0.026703227 -0.09863066 -0.13483277 0.05347564 -0.037361845 -0.10819674 -0.046803117 0.011322472 -0.043379333 0.042466644 -5.608797e-05 -0.016188145 0.05518619 -0.08215383 0.10861653 0.06676836 -0.024973268 0.056161057 -0.13400953 0.04433695 -0.022008946 -0.042927656 0.06701897 -0.11393239 -0.04403052 0.0824738 0.07702484 -0.048600685 0.07159029 -0.069663666 0.09791349 -0.13217553 0.014720763 -0.066942 -0.02349902 0.0053724796 0.067202166 0.04814745 -0.047912344 0.038668744 0.08477834 -0.08112209 -0.022792436 0.079837024 -0.052510303 -0.0023457436 0.058073044 -0.054098874 0.022647336 0.06396797 0.01782878 -0.0858504 0.111251995 -0.004530987 -0.0117815975 0.057860367 -0.07865574 0.042860404 -0.052950256 -0.047463186 -0.036975607 0.015926566 0.04357017 -0.031071488 0.063130654 0.03903059 -0.11926896 -0.05077699 0.011542404 -0.026207639 -0.050095037 0.078354575 -0.06423916 0.08907442 0.06706753 -0.14914683 -0.07008767 0.09535879 0.09086837 0.026495595 -0.079783805 0.038530406 0.03001785 -0.056104384 0.099570066 -0.078891516 0.0088582095 0.042707223 -0.031468593 0.010757069 -0.03949453 0.025470112 0.0575444 0.032334127 -0.04101616 0.05069951 -0.075442135 0.09355008 -0.06688412 0.10979437 0.09790387 -0.011511134 -0.09347664 0.032385096 -0.0855008 0.03206319 -0.05689817 -0.044763844 0.07735275 -0.07967065 -0.06190283 0.035605405 0.022381794 -0.028361006 -0.040890507 -0.09037536 0.038682558 -0.035122566 0.03269849 0.042775013 0.029163795 -0.0042995773 -0.16897225 0.022433951 -0.058688104 -0.021571103 -0.030276895 -0.073451 0.03643142 0.04708937 0.06291892 0.034520946 0.09648086 0.045521334 -0.02693689 0.09345611 0.08301112
26 -0.13603695 0.1479775 -0.19967437 0.16293523 0.16252115 -0.13139006 -0.20768473 -0.15452588 0.18894875 0.16916817 0.18369098 -0.15509 0.19061369 -0.14992192 -0.12950757 -0.16500625 -0.14944646 0.20454836 -0.07318835 0.13082312 -0.10684571 -0.14425233 -0.16615927 -0.11307574 0.1034805 -0.2165999 0.18320775 -0.25344926 0.17294799 0.21440694 -0.14228147 0.10294281 -0.03519527 0.20353083 0.2164396 0.12982294 -0.09666383 -0.2453859 0.16299409 -0.14413388 -0.23703398 -0.14627942 -0.084625326 -0.15809971 0.16211899 -0.12129753 -0.11984073 0.14890763 -0.20355526 0.19795379 0.17275482 -0.11797082 0.17481272 -0.18999541 0.13035694 -0.12760848 -0.14054051 0.18948051 -0.2208192 -0.16069055 0.20168939 0.20918989 -0.15244275 0.19639835 -0.1766812 0.2104225 -0.23953404 0.098281264 -0.18598229 -0.14741835 -0.11562916 0.20135719 0.15509844 -0.1599783 0.13825524 0.18431795 -0.19175366 -0.15843484 0.20378539 -0.16043326 0.07018569 0.18151808 -0.15528414 0.11269902 0.19270779 0.13204099 -0.19127685 0.21989846 0.08404598 -0.11024857 0.1666716 -0.20081387 0.16234449 -0.16808397 -0.00040075555 -0.12739398 0.12927166 0.14202906 -0.16264448 0.16693635 0.14261028 -0.14757884 -0.12423268 0.11375884 -0.14723969 -0.17090707 0.20466623 -0.17749085 0.19041875 0.1752812 -0.260846 -0.19634719 0.2174974 0.21266049 0.111320704 -0.22969337 0.14011486 0.1450896 -0.16487452 0.21121319 -0.20046315 0.110662624 0.14467283 -0.138684 0.093730815 0.028909028 0.1298267 0.18409616 0.12589079 -0.117597744 0.15937482 -0.18042198 0.20559818 -0.18142602 0.23113851 0.24161853 -0.1281754 -0.22359878 0.13165954 -0.20634586 0.14459231 -0.17458293 -0.15622333 0.2005983 -0.17492706 -0.16298845 0.13521636 0.116485655 -0.16254237 -0.0024481067 -0.078412645 0.14538632 -0.16882488 0.11219099 0.16823381 0.14512032 -0.10393477 -0.2386795 0.13252206 -0.1651018 -0.145502 0.023708567 -0.04317434 0.16528624 0.15003622 0.15572886 0.13939075 0.2090142 0.16934213 -0.1172886 0.21683025 0.21217762
27 -0.88703024 0.80324787 -0.7583735 0.858204 0.85907036 0.0020551607 -0.9405292 -0.7821807 0.93140626 0.8459786 0.96782064 -0.9072249 0.8887095 -0.8965975 -0.8156098 -0.8083919 -0.9857813 0.92372733 -0.64589334 0.75353575 -0.70035756 -0.9481696 -0.52869177 -0.8555035 0.69438416 -1.0578494 0.9495666 -1.0888957 0.87425894 1.0390947 -0.94712496 0.69465154 0.32340324 0.9588723 0.9632894 0.80175817 0.07977383 -0.93560714 0.8927684 -0.8625537 -1.033719 -0.7704137 -0.74365544 -0.9005921 0.96955574 -0.91193604 -0.83077353 0.8084022 -0.88583964 0.7581939 0.8498547 -0.7368152 0.9313002 -0.38011914 0.6304272 -0.82951486 -0.79078656 0.9600719 -0.81376535 -0.92367655 0.98339766 1.0191997 -0.780821 0.9440272 -0.8208814 0.8207122 -0.8113698 0.6482527 -0.94062656 -1.0048028 -0.9161755 1.0637813 0.81229264 -0.9134588 0.8054713 0.7933942 -0.8651279 -1.0155574 1.0023304 -0.8296988 0.56622994 0.8991059 -0.8178735 0.7212541 0.9911718 0.8443058 -0.826917 0.8879445 0.66236365 -0.76354885 0.92234015 -0.9451171 0.8432238 -0.96150136 0.34994456 -0.7484334 0.86206234 0.7400644 -0.95743144 0.8386314 0.83737826 -0.15064731 -0.626322 0.8064954 -0.98089504 -0.964697 1.0080171 -0.8918372 0.83652705 0.8533648 -0.8504124 -1.0302362 0.9394759 0.9357164 0.66812694 -1.087143 0.8079922 0.8458396 -0.8152549 0.83789635 -0.94128513 0.7557487 0.7638297 -0.8257779 0.6755856 0.5196186 0.8372243 0.9740555 0.7279841 -0.63578355 0.8718065 -0.84490645 0.9334636 -0.9467308 0.9728596 1.0761161 -0.913777 -0.9890864 0.8330432 -0.9367062 0.87036514 -0.9014508 -0.9040725 0.9486157 -0.7522563 -0.8490524 0.8104589 0.76447433 -1.076542 0.3637147 0.16948652 0.8415444 -1.0302249 0.63620853 0.8897786 0.8590678 -0.8450205 -0.5186444 0.87540203 -0.84132075 -0.9888251 0.4559937 0.26167274 0.9442873 0.80490315 0.7029048 0.81276226 0.89237154 0.9359593 -0.7540741 0.9768703 1.0371935
28 -0.09216289 0.104549736 -0.14943336 0.10829212 0.11136785 -0.11370834 -0.15290593 -0.10636413 0.14110886 0.1181045 0.13117199 -0.11190783 0.13342121 -0.07934124 -0.089837365 -0.108149976 -0.09046863 0.1400376 -0.04352881 0.09891361 -0.052922495 -0.08896355 -0.12849903 -0.061553568 0.06909944 -0.14739332 0.12964325 -0.16947982 0.121275604 0.15070643 -0.093118176 0.07136415 -0.050415095 0.13048366 0.13995132 0.075360484 -0.08990824 -0.19103369 0.11668161 -0.09543161 -0.16458261 -0.10606078 -0.04822377 -0.11377293 0.112354666 -0.06263233 -0.06838812 0.1031592 -0.1474571 0.14443581 0.11981392 -0.07195297 0.12118081 -0.1367678 0.0915125 -0.08493547 -0.103484854 0.112737015 -0.15569344 -0.11834179 0.13605255 0.13712847 -0.101130374 0.13378224 -0.121029526 0.1584565 -0.1854915 0.063872024 -0.13287696 -0.09531006 -0.058390126 0.13781905 0.09866656 -0.11040999 0.088159084 0.13924669 -0.12161253 -0.08497231 0.13983196 -0.108141124 0.03392802 0.12217704 -0.09139651 0.06470079 0.12534375 0.07132438 -0.13490297 0.1514994 0.04960832 -0.07445571 0.12859046 -0.14772615 0.101034716 -0.11522268 -0.017746616 -0.08252762 0.08260977 0.08743781 -0.0992874 0.10857345 0.09388682 -0.10251364 -0.09056382 0.068885565 -0.08884568 -0.10507667 0.1517545 -0.112510934 0.12264426 0.1321176 -0.21395046 -0.13826892 0.16091606 0.1372905 0.07706793 -0.16834176 0.0900595 0.09679356 -0.11729039 0.14714006 -0.14573368 0.07805161 0.10371954 -0.082771 0.07322464 0.008591945 0.08746413 0.1164127 0.0788621 -0.07349483 0.0964732 -0.13047403 0.15316263 -0.12410299 0.15565404 0.16973126 -0.08577228 -0.15403756 0.09195764 -0.14842887 0.10342987 -0.1258803 -0.11143416 0.13891944 -0.11962207 -0.11213979 0.0896077 0.070129044 -0.109081194 0.0024377927 -0.06774496 0.09404184 -0.113766626 0.07967298 0.11350342 0.10361458 -0.05329317 -0.186832 0.07495952 -0.1098419 -0.08233391 -5.210936e-05 -0.045225386 0.113485925 0.08959812 0.10871354 0.08798702 0.14532879 0.10785946 -0.075920574 0.15830886 0.15353988
29 -0.30176082 0.29935637 -0.29902545 0.32786798 0.3111494 -0.0346023 -0.3578485 -0.30346885 0.3567293 0.31898975 0.34439808 -0.32394525 0.34601018 -0.31876916 -0.30239803 -0.30539653 -0.35256547 0.37204033 -0.22061948 0.2722708 -0.2561495 -0.33723104 -0.24185567 -0.2934109 0.25312597 -0.3919312 0.3496415 -0.41535792 0.34024686 0.38272974 -0.32774198 0.2456603 0.07185847 0.360525 0.37765965 0.2719995 -0.013643148 -0.3930485 0.3313178 -0.3063691 -0.4108252 -0.29985905 -0.24970508 -0.324128 0.340463 -0.30097362 -0.29624197 0.30663288 -0.33691195 0.32246312 0.32106775 -0.26594642 0.34481183 -0.17927448 0.24611314 -0.27890515 -0.2975727 0.35262373 -0.32067358 -0.340668 0.37528136 0.38640642 -0.2890147 0.35352615 -0.30647695 0.33560213 -0.34091038 0.23568842 -0.34714153 -0.34148532 -0.30574554 0.39535582 0.2988113 -0.33895698 0.29483235 0.3128093 -0.3248903 -0.34466252 0.3811667 -0.31478953 0.20127168 0.33921492 -0.31124103 0.25940093 0.37126723 0.29823837 -0.33833367 0.36248955 0.21812747 -0.2618283 0.3410219 -0.36051035 0.31031147 -0.35509187 0.0937133 -0.2735197 0.29065922 0.2602503 -0.3294033 0.31641227 0.29962692 -0.10096719 -0.24725838 0.28286606 -0.34756136 -0.34480074 0.37569466 -0.32658476 0.33003995 0.3290379 -0.3491657 -0.3769895 0.37413114 0.35928863 0.23696736 -0.39395314 0.2940389 0.30689073 -0.30495352 0.32965362 -0.35509807 0.25960723 0.27818134 -0.29296148 0.23041447 0.14524376 0.29491663 0.35097834 0.27143383 -0.24703117 0.31973904 -0.32694498 0.37099966 -0.35099638 0.3875796 0.41330823 -0.32113528 -0.3733813 0.2945787 -0.35853902 0.30187622 -0.33281496 -0.34265375 0.35613453 -0.2978774 -0.30649018 0.3027922 0.27753547 -0.37216324 0.10818432 0.007566521 0.30133832 -0.35011217 0.23235695 0.31501204 0.3082609 -0.30024126 -0.24755166 0.31518257 -0.32277653 -0.34598055 0.15884544 0.050083905 0.33257282 0.2990791 0.263826 0.2989531 0.3598902 0.32728177 -0.27610612 0.36705077 0.38441706
30 -1.0857023 0.99079543 -1.032059 1.1485037 1.0475578 -0.14364135 -1.2480044 -0.94405687 1.1775272 1.1311121 1.201658 -1.1238688 1.0913622 -1.2555317 -1.067882 -1.0258245 -1.2855515 1.1872027 -0.75231016 0.9229443 -0.95983535 -1.2061751 -0.72796786 -1.029369 0.8608874 -1.3750849 1.192615 -1.4939382 1.1354883 1.3323452 -1.1418643 0.8682612 0.34914657 1.2218244 1.3334258 1.028158 0.06441757 -1.226801 1.1508119 -1.0917112 -1.3255491 -0.9640595 -0.8827113 -1.1693606 1.2334691 -1.1357107 -1.0452007 0.9901634 -1.1426626 1.0193391 1.0840633 -0.91355443 1.1977229 -0.69956386 0.8148969 -1.0282545 -0.9705814 1.310275 -1.1262519 -1.1109977 1.3184067 1.3548328 -1.0174354 1.24768 -1.0699698 1.1032631 -1.0802422 0.81000924 -1.2553622 -1.2467136 -1.1616397 1.3942021 1.0758834 -1.1138538 1.0561714 1.0625703 -1.2140406 -1.3275186 1.2980115 -1.1050861 0.7294664 1.1524272 -1.1230066 0.917176 1.29087 1.071801 -1.0875201 1.2092489 0.8462361 -0.91578835 1.1141276 -1.2234695 1.1074119 -1.2052522 0.41895553 -0.9591965 1.08405 0.9661826 -1.2351987 1.09313 1.1044447 -0.3800607 -0.79299116 1.0030415 -1.2853091 -1.2635975 1.269721 -1.1742945 1.1083406 1.0747821 -1.1509008 -1.3250568 1.2653652 1.3214729 0.84703255 -1.4103634 1.0340117 1.0614522 -1.0946133 1.140904 -1.2433825 0.93616676 0.9201368 -1.0498166 0.8366904 0.6434386 1.04543 1.2756397 0.9667406 -0.8217576 1.1686656 -1.0694772 1.1896386 -1.2221363 1.3163195 1.4530494 -1.1292826 -1.2857263 0.99988914 -1.2319436 1.0767235 -1.15141 -1.0906295 1.3091376 -1.0055354 -1.1563002 0.99909186 0.97413266 -1.3183832 0.39698088 0.122884214 1.0437226 -1.3111949 0.78408957 1.1475828 0.99224997 -1.049962 -0.82460266 1.1320142 -1.0775089 -1.2997488 0.55419 0.31213552 1.1687077 1.0767972 0.91279423 0.9946972 1.1902843 1.2444978 -0.93685263 1.2951955 1.3544614
31 -0.09748473 0.112361506 -0.12985884 0.11570284 0.11434964 -0.056695577 -0.14554386 -0.11995852 0.13247307 0.11018581 0.12460577 -0.104444176 0.13672374 -0.09105382 -0.09456332 -0.11351947 -0.10631117 0.14522065 -0.06324861 0.09237096 -0.07416849 -0.10092683 -0.12348856 -0.08480299 0.07838056 -0.13962667 0.13182065 -0.16055977 0.13220339 0.14746481 -0.10564734 0.07818582 -0.014520309 0.13619095 0.14095154 0.077210814 -0.051636305 -0.17112175 0.11525314 -0.097800806 -0.16714126 -0.11582368 -0.06877793 -0.109451495 0.10692495 -0.08246363 -0.08729232 0.10666941 -0.13826191 0.13868655 0.12204124 -0.08559244 0.11766791 -0.09403758 0.09549808 -0.08280164 -0.106583804 0.113134325 -0.13094024 -0.12498364 0.13261563 0.13733463 -0.10387909 0.12724996 -0.110526145 0.14727525 -0.16378325 0.07738189 -0.11742255 -0.0971518 -0.07823005 0.13902444 0.10590131 -0.11563074 0.09641031 0.12616919 -0.1145067 -0.09694476 0.13721576 -0.11541121 0.056396376 0.13043761 -0.104246594 0.083087936 0.12925844 0.096124925 -0.13535693 0.1495835 0.058426946 -0.08228017 0.121110946 -0.13567714 0.11343488 -0.123148926 0.0053029126 -0.087335974 0.08654637 0.08398124 -0.10157958 0.1106491 0.091656595 -0.07148431 -0.096073985 0.084497824 -0.10202505 -0.11106925 0.14469472 -0.108939916 0.12258727 0.13113339 -0.16380319 -0.12417516 0.14786077 0.13142464 0.073157735 -0.15232621 0.10054596 0.107784554 -0.11082265 0.13451514 -0.13508923 0.08260127 0.10614753 -0.09229041 0.06476494 0.021349508 0.09399947 0.12032584 0.09141604 -0.08702247 0.10231448 -0.1278362 0.14740373 -0.1187676 0.15233 0.15690088 -0.101225026 -0.14442202 0.09468489 -0.14113541 0.097386986 -0.1230731 -0.12416635 0.12915763 -0.116781384 -0.09740543 0.102070265 0.08661798 -0.11303395 0.01246075 -0.04396576 0.10008064 -0.10668874 0.08261199 0.10989569 0.11655073 -0.07749807 -0.13720179 0.09471187 -0.11683867 -0.097317636 0.031259157 -0.024952753 0.11733559 0.0954192 0.10033217 0.10412681 0.14658546 0.10326211 -0.09144851 0.14001603 0.14056386
32 0.1667463 -0.13462299 0.037291553 -0.13083628 -0.1185451 -0.18659845 0.1233397 0.11708175 -0.09843051 -0.08737503 -0.12295646 0.1250157 -0.09517874 0.14551139 0.14363107 0.09766291 0.18800251 -0.09240484 0.16178219 -0.10923623 0.13671042 0.17224514 0.027565658 0.18147841 -0.12978102 0.11086129 -0.13913304 0.08762566 -0.13954374 -0.13385302 0.17911328 -0.13213287 -0.17423365 -0.098161235 -0.085184276 -0.1104524 -0.16483958 0.044230275 -0.12725526 0.13515535 0.09227635 0.1299667 0.17944929 0.1435433 -0.13646597 0.18930541 0.16321313 -0.10417539 0.08177451 -0.044754565 -0.1112045 0.13023642 -0.11410424 -0.118005715 -0.08347243 0.13221413 0.12405228 -0.09371222 -0.001224786 0.15914601 -0.107335374 -0.107058585 0.10374852 -0.092990294 0.06568479 -0.062888 0.012039211 -0.12822343 0.09880112 0.17091182 0.19081378 -0.14805001 -0.12354168 0.12821065 -0.12883103 -0.06885937 0.067830995 0.16436794 -0.10987705 0.13024116 -0.13787952 -0.13022652 0.11399712 -0.13233703 -0.12007241 -0.16678356 0.07131622 -0.06540072 -0.15264896 0.14511022 -0.120694615 0.09444752 -0.13781853 0.15370193 -0.14618558 0.10841392 -0.15107912 -0.074705385 0.13799566 -0.09596703 -0.12358563 -0.14459075 0.094049945 -0.15353939 0.18482843 0.1384075 -0.12964955 0.083889686 -0.052611414 -0.116110295 -0.028829435 0.10476774 -0.0825586 -0.076629266 -0.096402116 0.12604609 -0.1303474 -0.1536122 0.103535324 -0.047986653 0.10399091 -0.15256003 -0.11387492 0.124960825 -0.11942067 -0.16129375 -0.1514428 -0.13455902 -0.13316083 0.09812853 -0.115353204 0.08851291 -0.09664759 0.103142224 -0.069508255 -0.09476393 0.19824454 0.07521028 -0.13168158 0.101843566 -0.13073924 0.11944523 0.15205276 -0.10503937 0.060718346 0.08865896 -0.14185846 -0.14157507 0.18129387 -0.140624 -0.15214592 -0.11648542 0.151418 -0.099935114 -0.12326444 -0.16057634 0.17847246 -0.12017931 -0.16494063 0.10890864 0.1855017 -0.15165463 -0.14651462 -0.15401694 -0.09331941 -0.05802337 -0.12982112 -0.08408183 -0.121442094 0.14380246 -0.081218496 -0.11770765
33 -0.14735141 0.15999776 -0.16758701 0.1620157 0.16479108 -0.056348994 -0.19573414 -0.16317068 0.17851523 0.15706272 0.17631827 -0.15063986 0.18920052 -0.1398678 -0.1370984 -0.16235101 -0.15814626 0.20173845 -0.10216327 0.13079497 -0.11392753 -0.15438001 -0.15262249 -0.1339951 0.118903704 -0.19546205 0.18280753 -0.2180444 0.18022862 0.20360847 -0.16050515 0.11316057 0.006686194 0.19210091 0.19243994 0.11910356 -0.05007264 -0.21961364 0.16178502 -0.14420313 -0.22209242 -0.15967268 -0.109536335 -0.1548025 0.15700126 -0.13314599 -0.13427554 0.14980084 -0.18758793 0.18068805 0.1662337 -0.12682615 0.17086613 -0.112902306 0.13516963 -0.12746535 -0.14923784 0.1675926 -0.17410931 -0.1741226 0.18411723 0.19470304 -0.14736925 0.1797935 -0.15737909 0.19424012 -0.20714319 0.11233341 -0.16674177 -0.1477653 -0.13086289 0.19578542 0.15196255 -0.16477814 0.14046513 0.16720363 -0.15967348 -0.15300901 0.19330092 -0.15834244 0.090368494 0.18203036 -0.15049212 0.12253687 0.18771468 0.14680438 -0.18564159 0.19941683 0.095735036 -0.12408556 0.1677113 -0.18767445 0.16402951 -0.1733035 0.024320098 -0.12765908 0.13431671 0.12567107 -0.15570974 0.15468104 0.1356473 -0.082460225 -0.1298945 0.12994666 -0.15233904 -0.16316403 0.19658582 -0.15936702 0.17080483 0.17559107 -0.20598939 -0.18018968 0.19969542 0.18228249 0.11040111 -0.20893368 0.14316563 0.15766826 -0.15394506 0.18195137 -0.18483984 0.122229666 0.14825353 -0.13932285 0.097705714 0.047136042 0.13895877 0.17301288 0.1324486 -0.12288396 0.15083371 -0.17412177 0.19610527 -0.16910328 0.20434593 0.21609268 -0.14934748 -0.19896924 0.13822545 -0.18858199 0.14365716 -0.16979997 -0.17783324 0.17822035 -0.1578346 -0.13688517 0.14872687 0.12692922 -0.16949478 0.029709788 -0.039585497 0.14601393 -0.15931675 0.11710994 0.16005531 0.1652068 -0.12665293 -0.16377333 0.14192814 -0.16583066 -0.14959134 0.057908602 -0.013851743 0.17042789 0.14277755 0.13937993 0.15231289 0.19749129 0.15402424 -0.13126183 0.18996656 0.19071364
34 0.031251952 -0.01646129 -0.07015283 -0.008765042 0.025951494 -0.1726822 0.005700536 -0.016477056 0.048533235 0.040180914 0.034291565 -0.020741094 0.05879898 0.0036407188 0.032681108 -0.04081127 0.037043028 0.06030906 0.059170127 0.0044462793 0.02467288 0.021447055 -0.032710247 0.028261706 -0.023465231 -0.06432983 0.0054841936 -0.08600937 -0.01828266 0.023938231 0.024371967 -0.028883949 -0.1125447 0.07795305 0.07224055 0.03874379 -0.15535168 -0.09041873 0.003003575 -0.003373772 -0.08607518 0.02296988 0.056294344 0.021497048 0.017573893 0.028480306 0.023434721 0.037481703 -0.054323826 0.06858342 0.023517907 0.0035171285 0.032026496 -0.1702416 0.007232059 -0.0054690912 0.005004242 0.07678459 -0.14096072 0.01971294 0.046820894 0.06148489 -0.019400842 0.059325166 -0.07392689 0.04325278 -0.105217576 -0.028461993 -0.038871005 0.0017380118 0.03498418 0.010947719 0.00019393861 -0.029707342 -0.004251346 0.037706807 -0.07513694 -0.016482137 0.053075835 0.013189428 -0.05015418 0.0085000545 -0.01845494 -0.008253589 0.044328347 -0.02251172 -0.05703965 0.07282603 -0.060217194 0.021541372 0.024712905 -0.04596895 -0.010259435 0.0017438382 -0.09178175 -0.016142227 -0.013286337 0.061399445 -0.025140062 0.048235726 0.003852427 -0.17259373 0.0045177154 -0.019349597 0.03431777 -0.023372993 0.019517906 -0.075766906 0.10462734 0.0042881705 -0.14226978 -0.06354669 0.044461023 0.06994976 0.00735946 -0.02894885 0.001218468 -0.028895654 -0.0064002573 0.0833039 -0.028602336 -0.046454623 0.008815438 -0.021163069 -0.027312234 -0.08664204 -0.023299769 0.025653005 -0.029515147 -0.007446967 0.030744378 -0.04646302 0.04399997 -0.055666953 0.092995465 0.065465555 0.06664153 -0.09437652 0.00981807 -0.036063228 0.0054856464 -0.015786894 0.010970637 0.026450552 -0.062197823 -0.041030653 -0.012014642 -0.01520092 0.0024223179 -0.102044664 -0.11946025 0.034792505 -0.013928816 -0.00095196813 0.012647182 -0.021652386 0.03098476 -0.18963757 -0.019459784 -0.029083267 0.02792821 -0.07780274 -0.11047333 -0.006531395 0.0478312 0.058791004 0.014457993 0.051964056 0.02865693 0.022849523 0.06532068 0.037418045
35 -0.033160184 0.053758357 -0.1108134 0.062329862 0.0645058 -0.13313659 -0.09620048 -0.057750307 0.08175288 0.07373594 0.071233764 -0.05190767 0.08514433 -0.038185038 -0.034468558 -0.06911741 -0.028480943 0.09412047 0.0024985746 0.045343824 -0.01573283 -0.03151825 -0.09954938 -0.008649632 0.020677198 -0.09182069 0.07083258 -0.1192909 0.06662062 0.09095015 -0.029950198 0.02269534 -0.07665678 0.08642311 0.09780183 0.035264757 -0.11059134 -0.13554126 0.05978682 -0.040275358 -0.11400014 -0.056105155 0.003091609 -0.054129586 0.050801262 -0.008633729 -0.017952072 0.053380843 -0.100375324 0.10428542 0.0694173 -0.029363781 0.06869909 -0.1444622 0.05722627 -0.028933072 -0.04944651 0.07374189 -0.12700413 -0.05314434 0.08285314 0.08960549 -0.060685895 0.08727874 -0.07980876 0.11643623 -0.14565025 0.02392825 -0.07867413 -0.028912347 -0.0060427543 0.074953526 0.053145573 -0.056231998 0.040797967 0.09280231 -0.08671921 -0.036591973 0.083483025 -0.060828876 -0.00043677166 0.07388099 -0.052349832 0.025548015 0.07504226 0.026230775 -0.09556417 0.10892509 0.0028767437 -0.022307219 0.06294947 -0.09332152 0.058733083 -0.05217303 -0.045842387 -0.03945446 0.027931143 0.05441028 -0.051507577 0.06708832 0.042299848 -0.12703362 -0.04761891 0.02072769 -0.028316397 -0.052186616 0.08390286 -0.07148967 0.08811423 0.07657271 -0.16883937 -0.078176424 0.11052879 0.09869113 0.03460122 -0.10378847 0.043123133 0.045159437 -0.071899004 0.10905753 -0.09071222 0.025124382 0.055728287 -0.040496636 0.021249555 -0.03488332 0.030571118 0.06371515 0.03593626 -0.039261572 0.051675323 -0.08167605 0.09631504 -0.070149034 0.114237726 0.11708828 -0.022068776 -0.10797079 0.035522275 -0.09508398 0.0449654 -0.07256824 -0.049461342 0.0876552 -0.08456184 -0.06251339 0.037146382 0.02615156 -0.038339697 -0.04110843 -0.09740982 0.04810623 -0.05052281 0.037396826 0.06589979 0.04477173 -0.0011007506 -0.17631473 0.026916679 -0.06500801 -0.025886346 -0.028951287 -0.07215674 0.054021735 0.055203192 0.07295798 0.043167703 0.10093363 0.058356624 -0.026000924 0.10278213 0.08962788
36 0.04228863 -0.011531442 -0.021312267 -0.018581226 -0.006585896 -0.060431898 0.008710951 -0.011494696 0.00978522 -0.014021069 -0.013578638 0.022702828 0.016310796 0.066014886 0.035792127 0.0035630465 0.055839255 0.013144627 0.039720923 -0.015195042 0.05046001 0.04971741 -0.042914897 0.046791747 -0.031682163 0.012964055 -0.009814516 0.007803753 -0.0052493215 -0.009969398 0.04011935 -0.025281176 -0.0830438 8.781254e-05 -0.003531754 -0.03858307 -0.08662228 -0.046649933 -0.018124416 0.036727518 -0.03421478 0.0001988262 0.045559436 0.03350702 -0.035636246 0.06556754 0.0441228 -0.00044108927 -0.011015072 0.029229388 -0.0033789426 0.024523646 -0.01975502 -0.035814937 -0.0018285364 0.04517272 0.0054305196 -0.03333363 -0.02416423 0.007353097 -0.01660271 -0.0107789785 0.014129832 -0.008976713 0.008105099 0.02485247 -0.05866322 -0.01711534 0.024919033 0.052239552 0.07151897 -0.025340647 -0.031361073 0.0028238297 -0.032176957 0.009053931 0.018916309 0.06268567 -0.011084214 0.014950976 -0.04265584 -0.0067807734 0.02944921 -0.025248602 -0.019577697 -0.043077737 -0.018636197 0.01442413 -0.06460968 0.030387044 0.0006658882 0.00039562583 -0.029490605 0.020080328 -0.06812524 0.022040352 -0.050619304 -0.024351195 0.044690937 -0.007761255 -0.04324913 -0.051467337 -0.0009418875 -0.035147548 0.05732006 0.041600034 -0.005854428 0.021010697 0.0091874 0.009347931 -0.056612328 0.024068862 0.00787355 -0.0165679 -0.029191554 0.013753369 -0.019621894 -0.028934255 0.016791329 0.0069541186 0.009508342 -0.034941003 -0.0022104234 0.031183302 -0.035448447 -0.07774581 -0.03731753 -0.034411147 -0.033258975 0.008093387 -0.035996273 -0.011457592 0.018448949 0.0152257085 0.016157225 -0.0035447925 0.04264146 -0.008049324 -0.020363137 -0.0031053424 -0.031457603 0.0043078214 0.0077756047 -0.024119914 -0.009940252 0.032224536 -0.021969348 -0.025402978 0.042612046 -0.050411098 -0.07779578 -0.013430357 0.047968104 -0.011124551 -0.02945134 -0.0046268106 0.05579409 -0.06873797 -0.04057601 0.006666988 0.065005764 -0.04221089 -0.07991493 -0.027575746 -0.02415876 0.0001847893 -0.009889185 0.013199076 -0.046044096 0.021103933 -0.0032790601 -0.012264669
37 -0.068227336 0.0905294 -0.14546481 0.10712955 0.09684268 -0.13331258 -0.14268196 -0.096658155 0.1278232 0.11421937 0.10904351 -0.09530193 0.12740539 -0.08697968 -0.081360176 -0.10502986 -0.08168508 0.14400704 -0.02662488 0.08261125 -0.057327148 -0.07981825 -0.13248035 -0.047170397 0.058950514 -0.14258087 0.11267147 -0.17335632 0.11180198 0.13566771 -0.06918271 0.053182445 -0.06515104 0.12831093 0.14831206 0.068258464 -0.10288952 -0.18959671 0.10390642 -0.083954796 -0.16084453 -0.09495991 -0.028735183 -0.09906798 0.09412117 -0.047393873 -0.061171386 0.09576122 -0.13666284 0.15127872 0.11190818 -0.065027855 0.1130894 -0.16846296 0.08695809 -0.06516485 -0.08847788 0.12040533 -0.16282758 -0.09551732 0.13740112 0.13727348 -0.095610455 0.12896992 -0.11884198 0.1565265 -0.18122658 0.051353708 -0.12649745 -0.07598285 -0.04646466 0.127909 0.0951723 -0.0971314 0.08209241 0.13356271 -0.13020125 -0.079371884 0.13622677 -0.102431715 0.029421287 0.11403029 -0.09782563 0.0571419 0.12242413 0.06352355 -0.13834694 0.15964812 0.03732986 -0.052552734 0.10565239 -0.13899529 0.09845412 -0.101420864 -0.028482694 -0.07630491 0.063884825 0.08471957 -0.08911306 0.10930681 0.08794197 -0.13650198 -0.08372371 0.054043207 -0.0800121 -0.099854834 0.1333998 -0.11317132 0.13096014 0.116779 -0.20739637 -0.13004217 0.1601845 0.14699462 0.06766754 -0.14845844 0.07890201 0.08419898 -0.11109458 0.15207437 -0.13702044 0.055716254 0.086524285 -0.07677789 0.053157847 -0.013764497 0.07065517 0.11080233 0.07675483 -0.074404344 0.09715819 -0.121499255 0.14709601 -0.11688233 0.16379991 0.16856149 -0.064432055 -0.14965445 0.073007815 -0.14062093 0.08232874 -0.109097406 -0.09386751 0.13648891 -0.122823976 -0.107896686 0.082045734 0.061448574 -0.08530848 -0.02120897 -0.09177147 0.0807206 -0.09331616 0.06677312 0.10261436 0.07628329 -0.04939941 -0.2074974 0.070108816 -0.107618794 -0.07733871 -0.004358329 -0.062170178 0.09166199 0.093393266 0.10422674 0.076099426 0.14828095 0.10075912 -0.06316413 0.14905804 0.14132595
38 -0.46730357 0.4604874 -0.38605878 0.46372473 0.4697096 0.10131784 -0.5097095 -0.4920409 0.50757235 0.40833783 0.5043962 -0.4672255 0.51581407 -0.42648128 -0.4325754 -0.4370128 -0.5277029 0.52369887 -0.37722892 0.40483433 -0.36939102 -0.4973806 -0.334078 -0.48112357 0.38096014 -0.54063815 0.5293694 -0.5522287 0.51058674 0.55693257 -0.5179249 0.37885985 0.1834717 0.5234315 0.49669427 0.3843069 0.06416602 -0.5250564 0.4751944 -0.45168442 -0.59412414 -0.46026656 -0.42213422 -0.46788213 0.4819677 -0.4771773 -0.4549415 0.45893997 -0.46962267 0.43512598 0.48192137 -0.41539535 0.47473118 -0.09754848 0.34580624 -0.40759185 -0.44915658 0.45197606 -0.374429 -0.54210323 0.5081259 0.51703244 -0.41236824 0.46556443 -0.39969558 0.4464582 -0.44705486 0.3670772 -0.44490662 -0.5104887 -0.46344674 0.5605287 0.43181512 -0.50836325 0.42646107 0.41769755 -0.40910837 -0.49293405 0.527977 -0.45596677 0.3171631 0.50311637 -0.4267959 0.40681633 0.51082844 0.46951926 -0.45761287 0.4920956 0.33655843 -0.416685 0.5075388 -0.48687145 0.45977527 -0.5448625 0.19459185 -0.3941464 0.43073615 0.34794107 -0.46125937 0.44777837 0.41000855 -0.0031002965 -0.37744507 0.4356205 -0.5118692 -0.49505252 0.5578321 -0.43340594 0.43609405 0.49293974 -0.4015844 -0.5009413 0.48644352 0.4489836 0.32830465 -0.552126 0.443889 0.4720496 -0.4117981 0.4219437 -0.48892534 0.40033868 0.4382528 -0.43076113 0.33034152 0.250349 0.45233244 0.5047962 0.39923078 -0.36964804 0.4340452 -0.471666 0.5351794 -0.47971588 0.52017283 0.5328592 -0.5180035 -0.5095477 0.45883662 -0.50451034 0.4383937 -0.48103762 -0.5326653 0.46290565 -0.40126407 -0.3913469 0.4674102 0.42437363 -0.5650083 0.2077423 0.09902024 0.44784337 -0.49709445 0.35688898 0.44613713 0.5199801 -0.46569115 -0.2087285 0.47459382 -0.46548897 -0.5084222 0.2829253 0.116580844 0.505468 0.3943483 0.3546914 0.4629798 0.50139296 0.43918476 -0.43868047 0.48810995 0.5363135
39 0.16427259 -0.12764373 0.056602687 -0.12778632 -0.12175237 -0.13441291 0.1193293 0.12028678 -0.11610134 -0.10555372 -0.13955544 0.14189608 -0.11068843 0.16719314 0.14384928 0.11184237 0.19515133 -0.111148335 0.14765863 -0.11593698 0.14977929 0.18078725 0.028437037 0.18550472 -0.13509448 0.14011696 -0.14102452 0.124933735 -0.13356419 -0.14327641 0.18200308 -0.12717646 -0.15456378 -0.12658976 -0.117088065 -0.13706675 -0.13512895 0.06985838 -0.1327845 0.15227443 0.11083898 0.11702055 0.16887024 0.14326206 -0.15517063 0.20050578 0.17157613 -0.12174037 0.09513524 -0.06776908 -0.12151161 0.13463579 -0.12974739 -0.062523976 -0.08329169 0.15523593 0.12368849 -0.13516611 0.044247184 0.1512906 -0.13539182 -0.13192895 0.110894054 -0.11717343 0.1007066 -0.064965725 0.030705176 -0.11668277 0.12364283 0.1915636 0.19818775 -0.16064815 -0.13694687 0.13659598 -0.13859257 -0.07918342 0.103309825 0.18723805 -0.1391314 0.12748244 -0.13242973 -0.1308307 0.13475706 -0.13223876 -0.14378144 -0.17002842 0.083186805 -0.09245494 -0.15236625 0.14298171 -0.13093515 0.11082935 -0.13799953 0.16141061 -0.13198346 0.121433854 -0.16175829 -0.10568985 0.1565966 -0.1156231 -0.1451052 -0.09363404 0.09471069 -0.15119272 0.19266263 0.16404447 -0.14257288 0.12097068 -0.09490363 -0.11065508 0.0073453747 0.14094427 -0.09391399 -0.110363506 -0.11066192 0.13704027 -0.13512135 -0.1458739 0.10576558 -0.08152001 0.11566568 -0.14086407 -0.11270945 0.13988213 -0.11882513 -0.15564108 -0.15457612 -0.15842566 -0.13329583 0.10406264 -0.14515255 0.10106327 -0.10740622 0.13412417 -0.098033555 -0.118615165 0.17926165 0.10472858 -0.14091772 0.11399646 -0.1440647 0.119693145 0.15138689 -0.1243175 0.08198341 0.12169717 -0.146966 -0.14005953 0.19300373 -0.11721005 -0.13027966 -0.12993442 0.17081018 -0.102180116 -0.12988874 -0.14693218 0.18801709 -0.06078166 -0.16840197 0.120845184 0.19507805 -0.12690702 -0.12634327 -0.15780261 -0.11790579 -0.08145322 -0.13433987 -0.0981874 -0.14789602 0.14224193 -0.10852641 -0.13936566
40 -0.101804644 0.11275854 -0.17093894 0.12717235 0.12787075 -0.1407902 -0.17002182 -0.11541106 0.1530116 0.13924801 0.14705127 -0.12307763 0.151063 -0.114145786 -0.09859507 -0.12910199 -0.10812448 0.16275762 -0.04470829 0.10438904 -0.073686786 -0.10561511 -0.13769534 -0.07421981 0.074412555 -0.17606354 0.14364243 -0.21041358 0.13208053 0.17164826 -0.102646664 0.075648464 -0.051213592 0.16153735 0.17510357 0.10076372 -0.10324332 -0.20660982 0.1295257 -0.11073161 -0.18998824 -0.11086304 -0.052310824 -0.12625554 0.12902294 -0.0822027 -0.082436234 0.114704505 -0.167911 0.16324958 0.13631892 -0.08585575 0.14125828 -0.18270396 0.102867536 -0.097369224 -0.10734158 0.15334398 -0.192909 -0.121012546 0.16272181 0.16819169 -0.12109387 0.16016456 -0.14563745 0.17704254 -0.20604616 0.06992481 -0.15476424 -0.110170744 -0.07888333 0.1591012 0.11958395 -0.12278208 0.10544676 0.15498938 -0.15982398 -0.1193956 0.16299227 -0.1238096 0.042920105 0.1407291 -0.11849942 0.08097687 0.15190251 0.09186337 -0.155875 0.18058431 0.058798473 -0.08052391 0.13246343 -0.1658293 0.12462975 -0.12764943 -0.016082421 -0.09832446 0.09780311 0.115289934 -0.12764531 0.13274464 0.111692704 -0.14409746 -0.0954998 0.08146735 -0.107207544 -0.13250223 0.16409224 -0.14444461 0.15409057 0.13951193 -0.23609757 -0.16173217 0.18200937 0.17599252 0.08800509 -0.19023639 0.10550508 0.10940349 -0.13548428 0.17704792 -0.16608708 0.08183734 0.11279976 -0.10555685 0.07418153 0.010236929 0.09726706 0.14390449 0.093406275 -0.08727464 0.123214185 -0.14579318 0.16711463 -0.1455223 0.19037986 0.20075996 -0.091207966 -0.18574019 0.100608744 -0.16815186 0.11375387 -0.1401677 -0.115285054 0.16544256 -0.1427347 -0.13529457 0.098778516 0.08326909 -0.12260724 -0.013392756 -0.082053326 0.111900374 -0.134401 0.08646354 0.13602173 0.10584451 -0.06700143 -0.22231369 0.093990244 -0.12876213 -0.10649037 0.0019482542 -0.04984752 0.12673822 0.11831536 0.12847584 0.10242443 0.16986923 0.13641743 -0.0831325 0.18269897 0.17337194
41 -0.11110875 0.12232078 -0.14621346 0.1277833 0.13096112 -0.08305074 -0.15872706 -0.12627828 0.14760771 0.13275354 0.1436628 -0.12268613 0.15512729 -0.11530478 -0.106734075 -0.13155553 -0.1211493 0.16730636 -0.06851173 0.10546553 -0.08789965 -0.118970774 -0.12636217 -0.09684732 0.09063471 -0.16569468 0.14436705 -0.19112952 0.13882199 0.16466764 -0.120297104 0.08371773 -0.015401967 0.1613181 0.16486707 0.099485695 -0.06563562 -0.18925148 0.13030687 -0.1165653 -0.18306185 -0.12038761 -0.073544905 -0.123607606 0.12897064 -0.098601595 -0.10037801 0.12121158 -0.15639304 0.15531433 0.13496952 -0.09743864 0.14217202 -0.12802517 0.10748072 -0.1026815 -0.11480055 0.14748292 -0.16236912 -0.13104351 0.15635608 0.16312231 -0.11974944 0.15143928 -0.13729158 0.1626979 -0.18019287 0.080424994 -0.14325914 -0.11638396 -0.09726218 0.15876652 0.12278117 -0.12969236 0.1121687 0.14195143 -0.14288186 -0.12372429 0.16241272 -0.122929096 0.06254258 0.14282328 -0.123386495 0.092880145 0.15508267 0.109696284 -0.1551132 0.17226653 0.07090654 -0.09249803 0.1343811 -0.15740995 0.12927824 -0.1362868 0.005370028 -0.103437684 0.10555581 0.10967916 -0.1273083 0.12915187 0.112041324 -0.099410206 -0.10208899 0.09697641 -0.11667147 -0.13517147 0.16013026 -0.13949195 0.14970672 0.13823812 -0.19138607 -0.15624878 0.16873604 0.15997747 0.09058407 -0.17315003 0.11124235 0.12031847 -0.12650251 0.16031668 -0.15540202 0.08850177 0.115866676 -0.11230777 0.07575905 0.025895728 0.107387066 0.14270985 0.10210426 -0.09637247 0.12574667 -0.14380763 0.16215721 -0.14287166 0.17647429 0.18402866 -0.10693303 -0.17198575 0.109385535 -0.15583599 0.11507842 -0.13543463 -0.1350881 0.1511985 -0.13427106 -0.1207337 0.11431395 0.09451545 -0.13215257 0.008841135 -0.051434867 0.116715446 -0.13045952 0.09189653 0.13085893 0.12031497 -0.09377548 -0.16821015 0.106667414 -0.13447605 -0.11651079 0.029921386 -0.027358245 0.13219814 0.120361194 0.11972235 0.11680427 0.16561009 0.13058439 -0.097231865 0.16520241 0.15964368
42 0.220286 -0.1806814 0.103723966 -0.17069703 -0.1822756 -0.14456907 0.16420394 0.19629717 -0.1867623 -0.1533487 -0.2140749 0.20116805 -0.1884964 0.21813129 0.18687984 0.17329751 0.26164743 -0.18522903 0.19107062 -0.1633369 0.20415153 0.24097213 0.06565969 0.25699753 -0.18561478 0.21287626 -0.20830834 0.20635846 -0.19532104 -0.21341634 0.25692755 -0.17380066 -0.17756277 -0.21558371 -0.19196387 -0.19712302 -0.1358364 0.1394512 -0.18892458 0.21579796 0.20128933 0.16576523 0.22089699 0.1867161 -0.22127722 0.27245897 0.23487398 -0.19107652 0.15738556 -0.13090631 -0.18741363 0.1908288 -0.18895444 -0.053977963 -0.12348236 0.22047451 0.17816557 -0.20698142 0.10253496 0.21770647 -0.2039129 -0.20289093 0.1615732 -0.18007407 0.16295862 -0.10729052 0.09239341 -0.15753059 0.17315665 0.26284772 0.25971746 -0.23088312 -0.19612035 0.20584959 -0.19583836 -0.12516177 0.16119947 0.25719354 -0.21705768 0.17532286 -0.17209068 -0.19226159 0.19804801 -0.190797 -0.21773191 -0.23976615 0.1415284 -0.16673957 -0.1869761 0.19884045 -0.20021164 0.16778404 -0.19016096 0.23670241 -0.14975435 0.17650543 -0.22128437 -0.16330665 0.21759507 -0.17647034 -0.19644639 -0.08348994 0.144505 -0.20936328 0.25362927 0.23941189 -0.21781318 0.19141209 -0.1757548 -0.16660482 0.053461775 0.21100897 -0.14022571 -0.17099488 -0.15131816 0.1992135 -0.19820216 -0.19741075 0.14097966 -0.14245218 0.17031354 -0.17916873 -0.1698389 0.20262417 -0.14561415 -0.18584888 -0.2129667 -0.23226666 -0.17747615 0.15592922 -0.21344984 0.16805176 -0.17319568 0.20756756 -0.1719743 -0.17961827 0.23075986 0.18118477 -0.20777602 0.17465538 -0.20158508 0.17581356 0.22733065 -0.17514479 0.13899025 0.17281303 -0.20823567 -0.19484657 0.27000052 -0.12825711 -0.13988198 -0.19987372 0.23474875 -0.15035652 -0.1764944 -0.21712188 0.252272 -0.02615048 -0.22814809 0.18429768 0.254563 -0.1494743 -0.12905964 -0.22526923 -0.17640227 -0.13469099 -0.20704406 -0.16575089 -0.20688528 0.20346183 -0.17416 -0.20624988
43 -0.14294885 0.15377909 -0.19676447 0.16928555 0.16627404 -0.104060315 -0.20862427 -0.16376707 0.19763565 0.1713287 0.1885505 -0.16196531 0.1943478 -0.15170532 -0.13965666 -0.16580695 -0.16045986 0.20670812 -0.08369933 0.13772833 -0.1130878 -0.15176795 -0.16498256 -0.123492196 0.11118298 -0.21780528 0.18999137 -0.2511299 0.18192607 0.21699363 -0.15175179 0.11450282 -0.023016298 0.20491558 0.21795551 0.13325433 -0.07879923 -0.2465185 0.17144397 -0.14987372 -0.24367487 -0.15502858 -0.09745605 -0.1650399 0.16995645 -0.12917496 -0.12867773 0.15697134 -0.20338689 0.19837472 0.1784208 -0.12548874 0.17885552 -0.16742599 0.13251801 -0.132314 -0.14966469 0.18841495 -0.21303946 -0.17258498 0.20478149 0.21136822 -0.15574528 0.19705136 -0.17368983 0.20905375 -0.23670752 0.108974144 -0.18687834 -0.15643732 -0.12418848 0.20819923 0.15701786 -0.17036325 0.14520022 0.18656354 -0.18922287 -0.16264841 0.20644352 -0.16716015 0.07845248 0.1853224 -0.15918633 0.12308358 0.19512293 0.13893527 -0.1933737 0.21985412 0.088471144 -0.12024796 0.17772014 -0.20250078 0.16339317 -0.1791619 0.008043967 -0.1344282 0.13548774 0.14064933 -0.16462916 0.17095791 0.14598082 -0.12541062 -0.13157578 0.12554908 -0.15762216 -0.17547324 0.21055327 -0.17715403 0.19015941 0.18369503 -0.25156254 -0.19827846 0.21763001 0.20950109 0.11405143 -0.2301966 0.14929852 0.15117463 -0.16730824 0.20499119 -0.20270215 0.11976559 0.15055384 -0.14365561 0.1018437 0.038230225 0.1390649 0.18642524 0.13130862 -0.12425192 0.16203484 -0.18574807 0.21178338 -0.18595643 0.23212469 0.2397945 -0.14274786 -0.22297004 0.1423907 -0.209408 0.15001094 -0.18229425 -0.16767278 0.20088798 -0.17544012 -0.16501707 0.14301273 0.12822422 -0.1742108 0.0123901535 -0.06048718 0.1535039 -0.1744939 0.11884035 0.16846827 0.15632007 -0.11530612 -0.21799172 0.14281219 -0.16979823 -0.1544262 0.038623642 -0.029405445 0.17096727 0.15220052 0.15439767 0.14846998 0.21141481 0.16977544 -0.12954228 0.2175451 0.21634562
44 -0.105278224 0.124709815 -0.14100246 0.12108432 0.1319398 -0.080847844 -0.14910287 -0.13208327 0.14420731 0.12810877 0.13930054 -0.115962654 0.16242592 -0.10048582 -0.09645942 -0.13843378 -0.10981393 0.17611793 -0.0684492 0.09803994 -0.08306572 -0.11459319 -0.13396536 -0.09718573 0.09095512 -0.1594769 0.14007965 -0.1786144 0.13855264 0.16061427 -0.119842246 0.07634641 -0.021193266 0.16326845 0.16063748 0.09047571 -0.07668416 -0.19358148 0.12094095 -0.10886997 -0.18789454 -0.1233795 -0.07030405 -0.10789813 0.11647999 -0.0923755 -0.1000925 0.12328565 -0.15640752 0.15954715 0.12996608 -0.095140174 0.13656624 -0.116952464 0.11222221 -0.09685984 -0.116537035 0.13924634 -0.15843341 -0.13077718 0.1485627 0.16175646 -0.114735916 0.15029113 -0.13836178 0.16295835 -0.18398613 0.07904294 -0.13289598 -0.10637897 -0.08923057 0.1500222 0.11806895 -0.13109125 0.10445809 0.13463613 -0.12992369 -0.11151619 0.16212963 -0.11800556 0.06139785 0.14504944 -0.11994162 0.086609155 0.15653269 0.109319836 -0.160693 0.17032982 0.05957377 -0.08754155 0.13165756 -0.15508641 0.12575209 -0.12981679 -0.00487338 -0.09762351 0.095892146 0.10434233 -0.118977934 0.12431544 0.102852434 -0.10024812 -0.10177681 0.09131594 -0.104647666 -0.124350935 0.15403533 -0.13412458 0.15508793 0.13579322 -0.18683848 -0.14874007 0.16532569 0.15113033 0.08627276 -0.16156293 0.1060632 0.11674896 -0.11596635 0.16039574 -0.14411218 0.081567824 0.11484927 -0.107348695 0.06370056 0.011281505 0.098355725 0.13469034 0.0973168 -0.097651795 0.12187439 -0.1434525 0.16025901 -0.13940057 0.17281027 0.18005663 -0.095630065 -0.16813341 0.10215218 -0.15006158 0.10905233 -0.12867534 -0.1424779 0.13855901 -0.13500784 -0.10438377 0.116686225 0.090111285 -0.12296574 -0.0019142777 -0.06786343 0.11444697 -0.11512576 0.08858061 0.12163934 0.12475853 -0.09214288 -0.169444 0.10171497 -0.13612397 -0.10124549 0.025746033 -0.04447773 0.12995142 0.11827843 0.119600415 0.12167731 0.16471197 0.117902294 -0.09479946 0.15359282 0.14835675
45 0.1292195 -0.10501943 0.04275882 -0.10555635 -0.1051623 -0.12234138 0.08968914 0.100612216 -0.08755497 -0.08404558 -0.109651536 0.100332364 -0.09257951 0.12817654 0.1060985 0.09570903 0.14857471 -0.09319124 0.119620994 -0.08063263 0.11831279 0.13822895 0.024325754 0.14947093 -0.10079183 0.1045978 -0.11359667 0.09663148 -0.11160278 -0.11416411 0.14585117 -0.10303183 -0.12744378 -0.10907147 -0.097470865 -0.107103184 -0.10531536 0.04632435 -0.102483064 0.1102848 0.10240863 0.098544136 0.13684241 0.10384413 -0.11638512 0.15831372 0.13409504 -0.09246534 0.08033178 -0.050044436 -0.09410799 0.10867306 -0.10173536 -0.05979257 -0.0736681 0.11136163 0.09651403 -0.10847019 0.035821907 0.12015462 -0.09886001 -0.1113976 0.092909634 -0.0964412 0.07356474 -0.057025895 0.031768322 -0.10319786 0.085653625 0.13777596 0.15907164 -0.12492468 -0.10500036 0.11332257 -0.109195605 -0.059425198 0.07984876 0.15172529 -0.103582606 0.10479139 -0.1097269 -0.11216749 0.109680526 -0.116677076 -0.11759796 -0.14492096 0.07571082 -0.07362454 -0.10814382 0.11552265 -0.09753283 0.08360128 -0.1148309 0.12380479 -0.09995447 0.096136816 -0.12482326 -0.08378546 0.12735681 -0.09171869 -0.100306496 -0.07029286 0.072656825 -0.13045068 0.14608797 0.12515068 -0.102533326 0.09463961 -0.079276636 -0.09053398 -0.0058625527 0.0974859 -0.07199259 -0.087361954 -0.07838948 0.10379735 -0.11417217 -0.11889203 0.082563594 -0.05974838 0.08609112 -0.11187411 -0.092711546 0.115269445 -0.081278436 -0.11458589 -0.117625415 -0.120605215 -0.103956535 0.087089986 -0.11162126 0.08334239 -0.080424614 0.10033393 -0.08390701 -0.09387287 0.14367825 0.088143684 -0.108059585 0.087650076 -0.10532774 0.10214136 0.124192916 -0.0913239 0.06759964 0.07886565 -0.11144012 -0.12018137 0.14779964 -0.082607694 -0.096543446 -0.112493314 0.1268067 -0.08046354 -0.10265553 -0.12675416 0.14426258 -0.061543085 -0.13888915 0.09971938 0.14936298 -0.11195109 -0.098338544 -0.12678777 -0.100576416 -0.06310125 -0.121437795 -0.08372701 -0.1107618 0.11613193 -0.07814853 -0.097405694
46 0.12689196 -0.089387745 0.040750243 -0.09051463 -0.09130859 -0.11976982 0.072537445 0.09359463 -0.104870975 -0.08754323 -0.11913979 0.11688319 -0.08318856 0.123353854 0.115026474 0.07832819 0.15420134 -0.07819377 0.1108159 -0.094019055 0.11630681 0.13591817 0.0031671962 0.14485884 -0.105989605 0.10675576 -0.108758986 0.098165974 -0.1004177 -0.10428375 0.14707497 -0.112467974 -0.12225529 -0.10193068 -0.09601633 -0.11707919 -0.11434467 0.05106308 -0.111544326 0.12176879 0.09400706 0.082743704 0.1335398 0.10945186 -0.13883889 0.15758061 0.1314911 -0.10109432 0.07116141 -0.047209635 -0.09353749 0.10362439 -0.10563967 -0.064872496 -0.05831906 0.13168113 0.097357884 -0.113024354 0.039290547 0.118310824 -0.10618135 -0.10555813 0.08488275 -0.094309606 0.07764138 -0.036101565 0.023875648 -0.09550566 0.097652175 0.15782791 0.15738346 -0.12826546 -0.09868805 0.1157631 -0.11355569 -0.062474363 0.08297707 0.15029576 -0.10916343 0.09231375 -0.100689955 -0.09003962 0.1062188 -0.114181146 -0.11287457 -0.12915462 0.061435677 -0.06969846 -0.10892035 0.12132636 -0.11829437 0.08380973 -0.088174686 0.13267532 -0.09652831 0.104249015 -0.13480648 -0.088643074 0.12402407 -0.090377316 -0.11224721 -0.084233396 0.07358126 -0.13217258 0.1512981 0.13417335 -0.11173452 0.102479786 -0.08242072 -0.08609933 0.005826787 0.11818202 -0.062403753 -0.08348277 -0.08699483 0.1014436 -0.11557649 -0.10311741 0.075853415 -0.052843925 0.08793489 -0.10990941 -0.08619511 0.11346239 -0.09925726 -0.12920786 -0.12668672 -0.12121593 -0.09381509 0.080397926 -0.11761464 0.08519763 -0.08103668 0.1165846 -0.07748738 -0.084906854 0.14016907 0.086860105 -0.12557517 0.084072076 -0.11856809 0.10164551 0.12308079 -0.092979744 0.062006667 0.10439297 -0.1070301 -0.11840897 0.16425638 -0.100952655 -0.12262985 -0.117941186 0.1442217 -0.08457005 -0.09112312 -0.11482993 0.14656153 -0.059559297 -0.13212359 0.091951475 0.15114084 -0.09937979 -0.11273062 -0.12250218 -0.09863194 -0.063781634 -0.11456175 -0.073102824 -0.11840739 0.11916799 -0.09250846 -0.110111415
47 0.08769892 -0.054234352 -0.018849298 -0.05559306 -0.049756266 -0.15121225 0.023410667 0.04074464 -0.036714878 -0.039952625 -0.051839393 0.07256378 -0.028063683 0.08669518 0.075737536 0.043450817 0.105149455 -0.026761642 0.09585631 -0.053255003 0.080686584 0.10456468 -0.036039997 0.11344712 -0.07566373 0.049155086 -0.0504857 0.009251151 -0.04552132 -0.044244587 0.09749344 -0.06842352 -0.13252527 -0.032224443 -0.023928463 -0.07484546 -0.13575996 -0.020170204 -0.053653345 0.07299726 0.015692057 0.047817685 0.11122314 0.06341225 -0.07367699 0.1202506 0.102277055 -0.054865412 0.011039102 0.013322018 -0.036458045 0.07116583 -0.05228585 -0.10773917 -0.02699365 0.08274076 0.05926179 -0.051003166 -0.02788026 0.069724835 -0.044605218 -0.04698003 0.040854983 -0.040157102 0.030181956 0.013860583 -0.05436856 -0.06737666 0.047836125 0.11234894 0.12522629 -0.062509574 -0.052279174 0.06914465 -0.06265421 -0.0028608125 0.021102821 0.10355915 -0.047440797 0.05261092 -0.08204727 -0.04773885 0.055527784 -0.06562069 -0.057946205 -0.08810119 0.009882549 0.0069385692 -0.0894333 0.078519225 -0.056354836 0.03148209 -0.05381695 0.06995579 -0.10108221 0.058358133 -0.085681275 -0.042498592 0.08002116 -0.044332918 -0.0736154 -0.12183859 0.029455747 -0.08610153 0.10906746 0.07041721 -0.040853817 0.042811014 -0.018520983 -0.03144837 -0.07149833 0.057287186 -0.012963232 -0.020934664 -0.05821432 0.03414358 -0.06075056 -0.067585714 0.03588688 0.0029614903 0.024905048 -0.08176903 -0.042052455 0.06929984 -0.073994085 -0.108764365 -0.077479124 -0.062835105 -0.06346139 0.045523144 -0.0656692 0.021747379 -0.021101246 0.05449932 -0.0060316473 -0.026834214 0.101092525 0.013379114 -0.06943074 0.025361396 -0.073172234 0.043089848 0.069295414 -0.03506289 0.0126262065 0.048484527 -0.07563658 -0.07877353 0.10680121 -0.0944282 -0.12642442 -0.061385125 0.08682832 -0.042579588 -0.05310415 -0.068517104 0.122446425 -0.12459159 -0.09799042 0.046040248 0.11092816 -0.10009799 -0.11613504 -0.071641676 -0.05361829 -0.0181409 -0.063657664 -0.005662745 -0.06510977 0.07362555 -0.014172619 -0.044786733
48 0.5019741 -0.42522806 0.2654521 -0.42274618 -0.42681104 -0.3107922 0.41858855 0.429166 -0.43545562 -0.3653553 -0.47877854 0.4605466 -0.41747963 0.46590358 0.43751222 0.38830787 0.570484 -0.41210788 0.4298273 -0.38215306 0.41555202 0.5335697 0.18133794 0.5448891 -0.40129298 0.47980785 -0.48368192 0.44544655 -0.45689476 -0.4973661 0.5575221 -0.40365374 -0.36220223 -0.44985068 -0.41665304 -0.41827288 -0.27819055 0.3419093 -0.4429343 0.4614724 0.46505603 0.40770546 0.49556145 0.45249042 -0.49250174 0.56940436 0.5018695 -0.41807088 0.3753055 -0.29181787 -0.42078573 0.41923967 -0.43281752 -0.103231594 -0.29489744 0.4589304 0.42114502 -0.42752302 0.23736182 0.51340747 -0.449266 -0.45947346 0.37493813 -0.41462198 0.34758884 -0.29883528 0.24884632 -0.38071793 0.40680912 0.570266 0.557234 -0.52543473 -0.41797885 0.47765142 -0.42704248 -0.3153317 0.34898442 0.54930556 -0.4677679 0.42485195 -0.37103605 -0.4508611 0.41460425 -0.41834652 -0.4740317 -0.5057966 0.33838075 -0.35706908 -0.4044693 0.44717646 -0.46697354 0.40528977 -0.43099308 0.52284384 -0.31638786 0.3883583 -0.47905907 -0.33928654 0.48329246 -0.396998 -0.4274592 -0.19164622 0.3259238 -0.47018737 0.56299484 0.49904275 -0.49224514 0.39806303 -0.3537971 -0.41512093 0.1819829 0.46199334 -0.36626175 -0.37690863 -0.3365538 0.4838827 -0.44170433 -0.45835885 0.3613417 -0.31207544 0.40798238 -0.43638545 -0.39626357 0.43669814 -0.3613159 -0.3929447 -0.47125238 -0.49287 -0.3984605 0.34161645 -0.44046375 0.38568872 -0.41607794 0.4490739 -0.39193052 -0.43612057 0.54880446 0.4073219 -0.45761228 0.41951358 -0.45416176 0.43455592 0.5048694 -0.4110732 0.3153878 0.3813388 -0.45668593 -0.4443786 0.60093296 -0.30572033 -0.29179114 -0.44148415 0.52794313 -0.33885667 -0.4201581 -0.50366473 0.53003466 -0.044383816 -0.5095775 0.41167167 0.56014556 -0.3528412 -0.28811467 -0.5076818 -0.37942696 -0.29805902 -0.45234314 -0.37850666 -0.44879854 0.45053363 -0.39993602 -0.47899783
49 -0.054137196 0.076020285 -0.10901859 0.07607493 0.07936787 -0.09198517 -0.1118928 -0.085215956 0.09850542 0.077329546 0.085977025 -0.06781446 0.10495795 -0.044636432 -0.05688242 -0.07737464 -0.054358654 0.111112475 -0.025148414 0.06512159 -0.031633534 -0.051881902 -0.10789476 -0.03466188 0.043612517 -0.09985553 0.092010505 -0.12543023 0.090767354 0.10490413 -0.057113227 0.042458933 -0.052191734 0.09955439 0.101808384 0.039791375 -0.084147505 -0.14730486 0.07961847 -0.060465544 -0.12708785 -0.0797794 -0.02287151 -0.07352071 0.067401946 -0.028668158 -0.03942645 0.07329316 -0.10737707 0.11685828 0.08905744 -0.04935796 0.08341762 -0.10731745 0.06843592 -0.043817695 -0.07043485 0.07468653 -0.113106 -0.08265887 0.09486511 0.09449727 -0.07142932 0.08864774 -0.08122277 0.12330851 -0.14682186 0.04017289 -0.08357421 -0.047849957 -0.02501262 0.0939035 0.06862565 -0.07487938 0.059212398 0.102945 -0.084537424 -0.04534947 0.0986064 -0.07398746 0.018709775 0.08855966 -0.0635537 0.045788694 0.086255535 0.04751467 -0.107179835 0.12279902 0.023428401 -0.0449669 0.086004846 -0.10307264 0.07422103 -0.08119207 -0.025173947 -0.054645665 0.045657232 0.054998606 -0.057628773 0.07701683 0.054024767 -0.08923186 -0.07053578 0.042465486 -0.0490178 -0.06906186 0.107847914 -0.07626145 0.09164734 0.09773677 -0.15801296 -0.08938606 0.117607206 0.09632599 0.045193084 -0.11368522 0.060661506 0.06885377 -0.07981298 0.10867661 -0.10477187 0.042499773 0.07539853 -0.054372977 0.036129817 -0.015869606 0.055794794 0.07761901 0.054169994 -0.05583763 0.060505375 -0.09854725 0.11728394 -0.080926925 0.11987619 0.11752154 -0.0542574 -0.11323483 0.061144054 -0.1058375 0.05978098 -0.0859998 -0.08149788 0.09269774 -0.0890105 -0.06575808 0.06311733 0.04417033 -0.06317485 -0.012017766 -0.06906201 0.061865788 -0.06275143 0.05616756 0.07502255 0.07415731 -0.029192433 -0.14713226 0.044705838 -0.08166732 -0.046374135 -0.0038252026 -0.054257706 0.07305829 0.05933607 0.075593054 0.063158855 0.11679302 0.06425452 -0.051202036 0.11120427 0.10194803
