184 172
0 1.0 1.0 1.0 1.0 1.0 1.0 1.0 1.0 1.0 1.0 1.0 1.0 1.0 1.0 1.0 1.0 1.0 1.0 1.0 1.0 1.0 1.0 1.0 1.0 1.0 1.0 1.0 1.0 1.0 1.0 1.0 1.0 1.0 1.0 1.0 1.0 1.0 1.0 1.0 1.0 1.0 1.0 1.0 1.0 1.0 1.0 1.0 1.0 1.0 1.0 1.0 1.0 1.0 1.0 1.0 1.0 1.0 1.0 1.0 1.0 1.0 1.0 1.0 1.0 1.0 1.0 1.0 1.0 1.0 1.0 1.0 1.0 1.0 1.0 1.0 1.0 1.0 1.0 1.0 1.0 1.0 1.0 1.0 1.0 1.0 1.0 1.0 1.0 1.0 1.0 1.0 1.0 1.0 1.0 1.0 1.0 1.0 1.0 1.0 1.0 1.0 1.0 1.0 1.0 1.0 1.0 1.0 1.0 1.0 1.0 1.0 1.0 1.0 1.0 1.0 1.0 1.0 1.0 1.0 1.0 1.0 1.0 1.0 1.0 1.0 1.0 1.0 1.0 1.0 1.0 1.0 1.0 1.0 1.0 1.0 1.0 1.0 1.0 1.0 1.0 1.0 1.0 1.0 1.0 1.0 1.0 1.0 1.0 1.0 1.0 1.0 1.0 1.0 1.0 1.0 1.0 1.0 1.0 1.0 1.0 1.0 1.0 1.0 1.0 1.0 1.0 1.0 1.0 1.0 1.0 1.0 1.0
1 0.081574365 -0.6161278 0.10067172 -0.1731121 0.4150451 0.23725973 -0.6881489 0.4517218 -0.5567888 0.07569371 -0.29303515 0.27729738 -0.3482784 -0.39786905 -0.064506456 0.2200894 -0.2108396 0.23161003 0.68327874 0.44541788 -0.077429384 -0.46062937 -0.55701375 -0.6231035 0.38488743 0.32211533 0.5461843 0.11520451 -0.20605093 -0.059669897 -0.7819612 -0.0005155578 -0.13589486 -0.48232508 -0.5803448 -0.3523544 0.047995374 0.4804689 0.81658316 -0.13704216 0.28211164 -0.43835634 -0.28541088 0.513955 -0.43906033 -0.08956444 0.5558207 -0.13719755 -0.3011278 -0.5437337 -0.09173509 -0.1032415 0.038273633 -0.34599683 0.18105122 0.44824094 -0.09273058 -0.5193804 -0.4904717 0.9713331 0.48065224 -0.36014056 -0.5742079 0.6690117 0.16495451 0.80053085 0.47217077 -0.6323885 -0.08579975 -0.07592402 -0.2001966 -0.50063336 -0.5214654 0.38779742 0.25503275 0.27889335 0.140228 0.35144883 0.031490237 0.8526882 0.87872887 0.33464003 -0.021055236 -0.22137955 0.0038407296 -0.8032077 -0.2573109 -0.21891789 0.13698722 -0.3958601 0.36373758 0.80882514 -0.0945719 0.70430946 -0.18112752 0.026268482 0.54932046 0.63715094 0.5802498 -0.13789374 0.3735816 -0.29018137 0.79000574 -0.40809014 -0.08411823 -0.011966482 0.6344651 -0.6844486 -0.8845316 -0.40294322 -0.80362654 0.20101604 0.64863497 0.525082 0.79223526 0.10641351 0.3891238 0.026786461 -0.57941246 -0.301227 0.53120905 -0.04538837 0.029301278 0.39714286 0.21403998 -0.3628645 0.2351904 -0.19501644 -0.69223815 -0.7655822 -0.0011697039 0.6228454 0.059035636 0.26379114 0.73175544 0.6691315 0.1818727 -0.19481173 0.7732889 0.7525309 -0.4469877 -0.4319365 0.47904584 0.55589247 0.89317846 0.76904446 0.25010058 -0.14563082 0.7152471 0.40765437 0.5745187 0.26416445 0.61481845 0.35345036 0.020781524 -0.24070114 0.26823348 0.51545936 0.018204778 -0.54008615 0.25491863 -0.031631947 0.042048857 0.47811535 0.31266826 0.50391006 0.086365946 0.23687616 0.16826844 0.16243623 0.3619422 0.61089265
2 0.6112163 -0.69580317 -0.49815625 -0.2116094 -0.36169922 0.1823966 -0.95096695 0.13791259 -0.7898591 0.41956544 -0.57822293 0.28492713 -0.6845913 -0.80232537 -0.7586487 0.11994157 -0.5026807 0.5041381 0.87926626 0.8327186 -0.23196465 -0.5300632 -0.5447039 -0.78543603 0.284 0.35945386 0.48905423 0.10595319 -0.78739953 -0.46929404 -0.98294914 -0.44664112 -0.43992326 -0.68373394 -0.9342872 -0.8145996 -0.067996524 0.40231073 0.7529924 -0.6350733 0.341931 -0.9635237 0.28548717 0.24176526 -0.64166945 0.20847699 0.5464497 -0.11795516 -0.71754473 -0.76629865 0.09983893 -0.3122756 0.35141212 -0.008310832 0.45362803 -0.1932311 -0.08735512 -0.39427108 -0.73732895 0.96641433 0.72267455 -0.7667456 -0.6107431 0.55133474 -0.23217979 0.8190789 0.51019084 -0.41781363 0.207241 0.12533033 -0.4214923 -0.9325773 -0.86482656 0.9522259 -0.3283119 0.55789286 0.0020393394 0.8205652 0.075733066 0.7514219 0.83926463 0.15021774 0.2919755 -0.5668088 0.26561484 -0.9268825 -0.63336575 -0.15191174 -0.24611291 -0.88988245 0.46282694 0.94723254 0.4372482 0.93938285 -0.116818815 -0.38485348 0.90588266 0.3446615 0.6288639 0.03349702 -0.10787171 -0.43095985 0.6767786 -0.550891 -0.16497517 0.38341832 0.74512464 -0.9476453 -0.7511368 -0.38626942 -0.977218 0.40607065 0.7235642 0.7632786 0.807554 0.78504694 0.008641638 -0.041368306 -0.4192112 0.27765274 0.8043881 0.59385395 -0.16800159 0.6685408 -0.4663612 -0.15040249 0.6036829 -0.7288639 -0.49565956 -0.6192553 0.034758702 0.9709512 0.37631857 -0.001320079 0.8468285 0.20707257 0.28378427 0.20403384 0.03068173 0.7983849 0.27726805 -0.5482819 0.7311637 0.9048368 0.6207799 0.28911003 -0.45220673 -0.15140606 0.88439775 0.56012774 0.37365204 0.13071412 0.013843831 0.7317806 -0.65204674 -0.312123 0.6413621 0.47237274 -0.45600495 -0.50340945 0.806173 0.18926895 0.26029465 0.517534 0.75947416 0.69825584 -0.5940902 -0.16072011 0.7295709 0.19473602 0.750754 0.79364294
3 0.45176965 -0.7309974 -0.4911379 -0.25504544 0.1409162 -0.09246707 -0.9692885 -0.42038268 -0.36902773 -0.10144345 -0.53848493 0.07607627 -0.39127266 -0.62382066 -0.31626537 -0.07500812 -0.24378842 0.6779603 0.9162197 0.8740156 -0.311102 -0.43692625 -0.22046961 -0.8246209 0.30099455 0.56317455 0.8227913 0.02260542 -0.8703535 -0.6677587 -0.98305273 -0.6311033 -0.6101999 -0.49573588 -0.8242103 -0.818382 0.11157994 0.39498615 0.52239025 -0.65443057 0.25002137 -0.9611989 0.4493894 0.34708524 -0.21171871 0.3564602 0.36026323 -0.32346562 -0.6691216 -0.62574756 -0.06572649 -0.46709272 0.2020968 0.016387746 0.4258149 0.14419198 -0.12379059 -0.43802685 -0.73697317 0.9759641 0.70624 -0.8933653 -0.79092205 0.4394412 0.2492961 0.82785445 0.4947765 -0.7611402 -0.27985913 0.19081517 -0.24525893 -0.936097 -0.91390896 0.95062673 0.031823516 0.2726852 -0.045887396 0.8553745 -0.10517283 0.78949666 0.75867456 0.6576791 0.42985725 -0.55571234 0.21400094 -0.8504873 -0.72459507 0.12763658 0.19322914 -0.84283495 0.30525485 0.61397076 0.14208236 0.7731989 -0.074695125 -0.50824046 0.93339056 0.3472889 0.52752405 0.21515837 0.2384852 -0.4868303 0.4919191 -0.0021452904 -0.3416452 0.20293412 0.77245605 -0.96421826 -0.73219913 -0.43478477 -0.93473095 0.588748 0.7627534 0.80839115 0.88063383 0.67302364 -0.33245873 0.10147357 -0.5721286 0.15084657 0.7000709 0.48623195 -0.20004803 0.80196095 -0.24771012 0.045131534 0.4172189 -0.77382576 -0.4946465 -0.67320126 0.004364688 0.96353847 0.562142 0.075712875 0.77834594 0.5229051 0.16872935 -0.054922074 0.27986562 0.83911914 0.29064897 0.0003347844 0.63733596 0.9358977 0.83416283 -0.17695962 -0.33379903 -0.25643164 0.89395756 0.571944 0.8396494 0.38411233 0.4275712 0.7644793 0.13717498 -0.37700832 0.8065311 0.17647791 -0.19260225 -0.71594846 0.83623713 0.22150896 0.18087092 0.5860837 0.1456123 0.8893484 -0.67109495 0.32172394 0.72236943 0.25902686 0.86680657 0.7489396
4 0.16616923 -0.58285326 -0.39867443 -0.2439813 -0.635685 0.12435274 -0.9192884 0.13475958 -0.20927267 0.43083614 -0.64497447 0.21224253 -0.5821076 -0.55109215 -0.63014406 0.35315904 -0.10274579 0.5871059 0.8972065 0.8327567 -0.33785057 -0.47888783 -0.40679863 -0.76454234 0.18343325 0.54764616 0.8349487 0.47308046 -0.79906523 -0.39350018 -0.9625197 -0.7509792 -0.34097907 -0.6162909 -0.820658 -0.7437167 0.110614285 0.41754735 0.6033403 -0.67195386 0.2846983 -0.94998395 -0.083400525 0.21356675 -0.7479079 -0.05628067 0.2940433 -0.20817381 -0.6244388 -0.11795958 -0.18251418 -0.27982706 0.040317506 0.17690158 0.15337647 0.21139145 0.0043940395 -0.1339215 -0.7997517 0.9003805 0.52557313 -0.8044125 -0.67980695 0.6558762 -0.036608234 0.88820314 0.6664012 -0.555507 0.040233627 0.35152432 -0.008784726 -0.89200526 -0.8374868 0.88509893 -0.21468678 0.31261018 -0.36471513 0.78680444 -0.076170504 0.61293817 0.7274165 0.6138552 0.14311661 -0.54156446 0.3317472 -0.9227203 -0.6439036 0.26984394 -0.022073716 -0.8554227 0.25935104 0.89527357 -0.07692805 0.86548203 0.5427833 -0.055079013 0.96046984 0.57403386 0.6324745 -0.060837965 0.01820274 -0.39244193 0.62595624 -0.46405363 -0.6690626 0.48694226 0.8729487 -0.9350586 -0.6254881 -0.18529645 -0.94440717 0.5213874 0.7572816 0.75352323 0.8899571 0.6683276 0.022435278 -0.11712715 -0.48733956 -0.0451068 0.7230198 0.18051776 -0.0029177219 0.7594437 -0.49862835 -0.042148262 0.5737628 -0.7445921 -0.12884289 -0.41496414 0.014102519 0.92313784 0.30169004 0.35861555 0.8758362 0.0703507 0.41615123 0.23746347 0.27711257 0.88423425 0.32688552 -0.7141724 0.49306878 0.9650611 0.8880306 0.3865648 -0.15122321 -0.10450333 0.8114774 0.6196101 0.5854828 0.40886968 0.3550592 0.6650617 -0.5980105 -0.38324448 0.6122852 0.43550962 -0.40762335 0.021433532 0.77160656 0.5671819 0.6642914 0.46276814 0.45654523 0.8966248 -0.6531494 0.56992036 0.7659555 0.4720142 0.7593264 0.925125
5 0.42891154 -0.722321 -0.52776194 -0.41993818 -0.2942636 0.0072883964 -0.9236227 0.03914944 -0.5903678 0.38182664 -0.69407356 0.09562082 -0.03777653 -0.7169482 -0.33708504 -0.18542814 -0.3024636 0.6543433 0.926202 0.9252924 -0.39639753 -0.6853746 -0.6585717 -0.81026804 0.36685607 0.51633215 0.8813349 -0.009558365 -0.8427114 -0.6845964 -0.9738335 -0.63367116 -0.48784608 -0.35364586 -0.9400497 -0.8136265 -0.082760796 0.3881992 0.6007527 -0.35064173 0.38690814 -0.97463244 -0.091904834 0.21140411 -0.5530193 0.08317197 0.49341047 -0.108548544 -0.49160343 -0.50107455 -0.11594111 -0.36379105 0.45959342 0.28352657 0.1338262 0.008404696 -0.13429964 -0.20124868 -0.70773184 0.9816022 0.7598861 -0.8975976 -0.6259236 0.42294824 -0.2134973 0.8397729 0.6857916 -0.6333249 -0.009125456 0.23838013 -0.2318945 -0.94751084 -0.9114532 0.98381925 0.016599834 0.40574947 -0.13467027 0.8366933 -0.005303681 0.7298794 0.8429322 0.5616623 0.2944833 -0.5041696 0.3517698 -0.8777904 -0.7628068 -0.08359367 -0.14386946 -0.79465187 0.3987687 0.75465167 0.036288008 0.9156631 0.49400052 -0.5150809 0.9610981 0.43649656 0.6614622 -0.32127935 0.07519782 -0.4601813 0.6294404 -0.5687784 0.0087501705 0.43394136 0.725222 -0.97751105 -0.7779596 -0.35475695 -0.93597394 0.5769523 0.6732957 0.7463248 0.8903098 0.6713216 -0.36103922 0.02526614 -0.22898832 0.1636414 0.84914804 0.14763914 -0.07446405 0.81870455 -0.23185714 -0.016671978 0.23002517 -0.743178 -0.5759632 -0.79827005 0.083856806 0.96133596 0.44917446 0.36236104 0.846784 -0.25428814 0.07839422 -0.05823946 -0.035245672 0.8768162 0.41981864 -0.59317017 0.56118536 0.9430023 0.8916262 0.06632925 -0.36642435 -0.34542695 0.75713617 0.74135643 0.29093522 0.1994409 0.28893626 0.42504382 -0.10197642 -0.17341244 0.7899262 0.3359383 -0.2235198 -0.25880742 0.8768692 0.57471704 0.26841742 0.28418383 0.6774626 0.8535684 -0.46787643 0.05060666 0.61363375 0.21660173 0.90386534 0.6812734
6 -0.095918775 -0.6574698 -0.2946415 -0.2735419 -0.10859952 0.21659783 -0.9517808 -0.46010014 -0.6032462 0.37041014 -0.5022246 0.1407724 -0.5250926 -0.7162967 -0.23660663 -0.20574279 -0.36705124 0.4486328 0.9299726 0.79056865 -0.20906281 -0.49737635 -0.8663829 -0.73571026 0.60799503 -0.10714333 0.89312667 0.104997404 -0.6377593 -0.45468426 -0.9765647 -0.31869444 -0.39823043 -0.49524868 -0.71352696 -0.5480098 -0.015118659 0.32453462 0.51638556 -0.66731143 0.11681394 -0.91876185 0.3526027 0.47445416 -0.609613 0.5047687 0.44649187 -0.33577585 -0.6738366 -0.6074275 -0.11513841 -0.19649228 -0.18952395 0.09029168 0.32530326 0.6124384 -0.17804813 -0.73269147 -0.53115034 0.9820712 0.5820806 -0.65706027 -0.61907506 0.66683286 0.014239594 0.76119727 0.5748693 -0.72999495 -0.19874984 0.20598564 -0.35201767 -0.87632954 -0.8610246 0.85658383 -0.054159082 0.681841 -0.1414381 0.76323724 0.07329184 0.7529156 0.9556379 0.38159233 0.51488864 -0.49141464 0.099303365 -0.8994519 -0.719076 0.030460581 0.21677206 -0.82192564 0.19491464 0.8583063 -0.03230802 0.8661721 0.17484331 -0.22498178 0.9387549 0.19428103 0.5298846 0.03340477 0.37897095 -0.47674036 0.59499085 -0.76065797 -0.45835984 0.14228144 0.77056915 -0.9671242 -0.56495506 -0.5624255 -0.9611982 0.50961864 0.8399616 0.7724241 0.65041876 0.562315 -0.2947765 -0.12724072 -0.2842856 0.032252356 0.752806 -0.030906036 -0.10950178 0.64828396 -0.41023937 -0.18708315 0.5455615 -0.6616608 -0.079219475 -0.2284995 0.0075866897 0.8800855 0.46006447 0.45669794 0.8573503 0.42882046 -0.09059334 0.20039092 0.25060686 0.83840865 -0.0068346653 -0.4438252 0.62566566 0.91255534 0.8691973 -0.013596967 -0.12430701 -0.23180228 0.86545825 0.584215 0.8976891 0.24658105 0.36703187 0.65688205 -0.0039014444 -0.4315614 0.63878727 0.07722156 -0.36691055 -0.24068856 0.63781863 0.58195007 0.5221506 0.5841007 0.07495792 0.80682886 -0.50043666 0.4963566 0.78569865 0.42436647 0.6726812 0.7644689
7 0.29798165 -0.76808816 -0.5240837 -0.13217652 -0.15340689 0.14567763 -0.9581424 0.42713097 -0.6775803 -0.16617666 -0.5993751 -0.0091094375 -0.7738412 -0.63625515 -0.37023598 -0.17236917 -0.19784151 0.65682393 0.9580454 0.8489943 -0.38482493 -0.5836834 -0.4959913 -0.85533726 0.28879872 0.2810421 0.8723316 0.27116716 -0.8220676 -0.40237483 -0.97583497 -0.55785763 -0.58094037 -0.7095319 -0.89235127 -0.7775549 -0.023623236 0.61281246 0.6301159 -0.66744375 0.45499793 -0.9668401 0.7046436 0.21208276 -0.5881916 0.13696116 0.51722145 -0.19325116 -0.5028956 -0.7604669 -0.047930986 -0.40487045 0.010076821 0.012968272 0.48202696 0.1971406 -0.059474293 -0.3038137 -0.44403696 0.9645888 0.69869953 -0.90205586 -0.39978966 0.45358 -0.19022149 0.7857625 0.40841684 -0.840035 -0.27567074 0.15711115 -0.38260707 -0.9398551 -0.9233653 0.9841138 -0.16430813 0.6680118 -0.37433615 0.91829884 0.05486943 0.7793762 0.810372 0.41356105 0.33663172 -0.5628298 0.28697774 -0.91744334 -0.5338233 0.003923446 -0.19992898 -0.8415561 0.30610967 0.8673142 0.17476271 0.88230616 -0.11196995 -0.13427182 0.9532965 0.2503596 0.5697052 -0.118436426 0.04752576 -0.28945723 0.62941676 -0.12434562 -0.41371477 0.6177181 0.89739573 -0.94436824 -0.48297364 -0.45354056 -0.9847957 0.45353532 0.79194117 0.86297035 0.91133535 0.6198006 -0.08884181 0.083199576 -0.7008953 0.21369356 0.7573863 0.27608216 -0.30795836 0.7467213 -0.2835923 -0.33484033 0.6076196 -0.7529391 -0.5269667 -0.56400335 0.019872881 0.9698759 0.3538787 0.36660755 0.67438537 0.42512715 0.5225904 0.015060738 0.34456182 0.8709855 0.34066066 -0.31681016 0.41282386 0.95212257 0.7713005 0.116521135 -0.15207043 -0.13044459 0.94983345 0.6942266 0.7956869 0.3244887 0.26373973 0.7118362 -0.57936746 -0.43960124 0.79343367 0.24626973 -0.31634182 -0.38823393 0.828568 0.37424 0.072184056 0.39527696 0.70819074 0.8547574 -0.39595962 0.23873511 0.6289755 0.33992678 0.8857847 0.781047
8 0.14593437 -0.60235167 -0.47775924 0.011941984 -0.79666585 0.27466524 -0.92562294 -0.16219352 -0.6503635 0.0859807 -0.41664106 -0.03724902 -0.5256424 -0.68667483 -0.29365793 0.35316962 0.33502573 0.6147598 0.91759187 0.9055406 -0.1630345 -0.5695788 -0.46295673 -0.9526374 0.2390798 0.17864627 0.8958294 0.13657294 -0.78719294 -0.69396985 -0.9810381 -0.5636243 -0.45205975 -0.5573119 -0.8733895 -0.80302054 0.09100507 0.33153227 0.15514888 -0.73241675 0.45129833 -0.9475127 0.07672282 0.13069779 -0.6768076 0.2746347 -0.41360307 -0.20468305 -0.527699 -0.5521872 -0.10265857 -0.33052605 0.18123081 0.24120815 -0.095700316 0.54350823 -0.17387372 -0.513836 -0.7521698 0.9251134 0.7367949 -0.88944525 -0.57080597 0.6809741 -0.004105665 0.8907784 0.4233428 -0.87979245 -0.023220222 0.242945 -0.048038006 -0.92479455 -0.8815853 0.9486625 0.08144867 0.17490777 -0.06666118 0.8048273 0.22365417 0.66320926 0.85252964 0.1447816 0.30759576 -0.40199548 0.14488229 -0.8892567 -0.61946946 -0.16989633 -0.09783164 -0.65525186 0.25172612 0.8677741 -0.3621367 0.9041828 0.35060796 -0.10622582 0.8623063 0.6194 0.5077791 0.04415434 -0.100994065 -0.34121132 0.698654 -0.60612595 -0.14428486 -0.13682342 0.64264953 -0.97944915 -0.6965881 -0.2964946 -0.95987666 0.4691803 0.7734179 0.6805699 0.8753076 0.46302906 -0.26417547 -0.036215484 -0.2107185 0.096166335 0.93645257 0.18570593 -0.39162636 0.81027657 -0.59775716 0.023527307 0.1500209 -0.7216085 -0.38035166 -0.6285749 0.045758888 0.9674249 0.3357962 0.059554838 0.8576313 0.07380709 0.3831399 0.104290955 0.37715143 0.8453235 0.47701824 -0.45995253 0.6821116 0.9513932 0.9520606 0.10250707 -0.32372588 -0.06713908 0.88791305 0.4505188 0.8212356 0.40989652 0.2221483 -0.007126659 0.2222325 -0.012100037 0.82572705 -0.085071094 -0.05824609 -0.3698028 0.7793199 0.6693193 0.46831366 0.29803944 0.45292538 0.9037945 -0.5561782 0.20013036 0.5656543 0.23491034 0.8961423 0.8807591
9 0.44696847 -0.7304582 -0.56477934 -0.0041274875 -0.124936104 0.35158792 -0.95741117 -0.08731558 -0.3123829 0.11498149 -0.38695973 -0.064941205 -0.41039315 -0.6543004 -0.45755368 0.3802486 -0.24928728 0.37624124 0.93128127 0.64307183 -0.0842216 -0.34144178 -0.053505965 -0.8366591 0.31387138 0.583936 0.55931556 0.24722032 -0.6747947 -0.09565674 -0.97303444 -0.23969015 -0.19533616 -0.7325804 -0.86088395 -0.57635367 -0.003672719 0.36390775 0.79232204 -0.729053 0.30883056 -0.91014063 -0.22012074 0.22449549 -0.7672739 0.30975783 0.6420008 0.2832331 -0.687697 -0.5820694 -0.103796065 -0.23260793 0.31553125 -0.059878394 0.50775373 0.29677546 -0.061378956 -0.6296685 -0.6754762 0.958811 0.62008405 -0.5580282 -0.7107057 0.6030059 -0.34815913 0.7263804 0.5336234 -0.5644794 0.12100235 0.14087953 -0.43141413 -0.8792297 -0.79711354 0.8083105 -0.28454933 0.3892333 -0.02810818 0.6359229 0.1829656 0.6806059 0.6340581 0.065495186 0.2847083 -0.45547044 0.0550506 -0.8680705 -0.551795 0.033632606 -0.21828996 -0.8060664 0.35372853 0.62748 0.08813883 0.9146306 -0.24186113 -0.17826527 0.9323893 0.60671765 0.54327506 0.22040386 0.25466233 -0.6050668 -0.23686007 -0.11455779 -0.42314854 0.28309128 0.7723025 -0.925222 -0.65746605 -0.23062749 -0.97575253 0.26612845 0.59352654 0.78251106 0.8999924 0.48767266 0.26277256 -0.059446454 -0.6261318 0.097807705 0.7446599 0.5083352 -0.15909919 0.5652619 -0.43642494 0.32681924 0.40969673 -0.7050797 -0.5948193 -0.6739822 -0.09736633 0.94009835 0.27399305 -0.19492352 0.7612209 0.21064845 0.22975683 0.44399506 0.21228342 0.8006233 0.30731565 -0.70106256 0.6199059 0.8659159 0.82572216 0.07180496 -0.5400115 -0.15837637 0.8518175 0.4078416 0.56366473 0.18999512 -0.022313632 0.737841 -0.5334697 -0.25802302 0.5106038 0.31412625 -0.5118089 -0.72618854 0.7573817 0.08388072 0.0065867603 0.53309184 0.74748886 0.7805244 -0.5209214 0.26367337 0.7920802 0.28582847 0.6047763 0.8118442
10 0.25341865 -0.6745328 -0.42558962 -0.039265558 -0.3151738 0.21608225 -0.96937513 -0.36606282 -0.5541448 0.3688557 -0.66956025 0.08433733 -0.37832117 -0.662275 -0.760307 -0.17902774 -0.10412662 0.60349256 0.92752224 0.88679683 -0.35384515 -0.59096515 -0.3865232 -0.6300121 0.14190456 0.73507285 0.55096424 0.06403044 -0.7336564 -0.77201027 -0.9836221 -0.37442675 -0.38476804 -0.5688012 -0.9109404 -0.7933866 -0.16102748 0.256342 0.42593583 -0.57713443 0.44589472 -0.95209295 0.23213598 -0.14214629 -0.7389759 0.26465932 0.7415878 0.4650788 -0.5676934 -0.6872753 -0.12378158 -0.35635763 0.18992236 -0.19056822 0.08186169 0.06608213 -0.25684184 -0.04190831 -0.84047544 0.9775382 0.7998944 -0.81851816 -0.403736 0.7994896 -0.4035014 0.88834864 0.35984883 -0.58916056 0.13580531 0.22667979 -0.3031724 -0.93590087 -0.7537588 0.9732927 -0.13687246 0.462141 -0.17713119 0.78381705 0.079265505 0.59254986 0.6789611 0.45174143 0.32123336 -0.53171974 -0.020519108 -0.91235155 -0.64380795 0.32332483 0.1762205 -0.90789646 0.39374843 0.46705642 0.17588139 0.9332047 -0.11535658 -0.5129755 0.7534434 0.37184903 0.5624329 0.2741577 -0.64039874 -0.39988413 0.7662566 -0.39294666 -0.37612316 0.32082838 0.8527651 -0.9796745 -0.459349 -0.3450465 -0.9234251 0.21363208 0.70312244 0.7935813 0.8123471 0.52825624 0.39661723 0.011881903 -0.32182854 0.42090842 0.8542236 0.68319356 -0.18266699 0.7088254 -0.56091315 -0.5126871 0.31052858 -0.8181261 -0.7832574 -0.5643396 -0.040938877 0.93784845 0.30914658 0.18731964 0.82316005 0.3584475 0.1732979 0.17037532 0.12434642 0.8732313 0.25505275 -0.62724805 0.7418926 0.96535426 0.9205008 0.21991491 -0.71475405 -0.3603125 0.8670719 0.6143013 0.49781185 0.33473647 -0.2560447 0.33650228 -0.39643863 -0.5314818 0.7940731 -0.09026521 -0.49043635 -0.74718165 0.7438575 0.5971789 0.24394149 0.5859473 0.7732052 0.82292026 -0.5840408 -0.5669084 0.6435738 0.20815523 0.7565203 0.9206946
11 0.2697955 -0.8347851 -0.4782105 -0.33973813 -0.7304181 0.167386 -0.95907956 -0.28169903 -0.6404662 0.25889647 -0.5094267 0.22428547 -0.77417487 -0.6513933 -0.719494 -0.24170296 -0.39931586 0.67233616 0.84918904 0.8717613 -0.32227126 -0.5098297 0.17461003 -0.8193613 0.4425645 0.414237 0.9514979 0.6113256 -0.77629566 -0.39243138 -0.97865176 -0.53566426 -0.494783 -0.4417593 -0.8740446 -0.8123204 0.055987 0.19170408 0.43451977 -0.5389751 0.3367511 -0.9730822 0.13538517 0.07331661 -0.72271395 0.27399182 -0.0062369984 -0.48993164 -0.5467751 -0.83362734 -0.11018053 -0.32340986 0.52259463 0.27024296 0.3544593 0.6799345 -0.03574054 -0.3481396 -0.80468225 0.96656466 0.74203426 -0.90358686 -0.70894974 0.5570928 0.06902218 0.8923249 0.629265 -0.82551944 -0.0010732953 0.16767387 -0.1909658 -0.9090452 -0.79090595 0.96921945 -0.054153927 0.14732628 -0.17780039 0.89255905 0.0659068 0.40808806 0.93481714 0.37302107 0.32392013 -0.50262743 0.23699075 -0.89004207 -0.52580893 0.39362115 0.15602095 -0.7954923 0.17252144 0.9064809 -0.3084712 0.94223005 0.1386047 -0.27157158 0.94484526 0.43389466 0.5230086 0.32571203 -0.23297867 -0.42959088 0.30819255 -0.6182548 -0.59114945 -0.08089742 0.82802314 -0.9779579 -0.7644341 -0.3230071 -0.95388895 0.41658115 0.7940331 0.6339894 0.8502039 0.5951192 0.25899145 -0.16991098 -0.55829525 0.042618796 0.75115955 0.42152166 -0.17627434 0.7942441 -0.7310608 -0.029660672 0.35875833 -0.65680385 -0.29635504 -0.72332495 0.027384043 0.9592926 0.24345157 -0.020380817 0.7571215 -0.018771887 0.18204907 0.33786824 0.28829235 0.8273779 0.20912237 -0.6700687 0.6175037 0.91707414 0.85989064 0.33464485 -0.1150823 -0.054475754 0.9191896 0.5365103 0.8068533 0.5532357 0.3488434 0.3201196 -0.46504086 -0.5273164 0.8062078 -0.014810666 -0.6055962 -0.12844923 0.8279857 0.5060041 0.40204185 0.3458332 0.67956376 0.9310695 -0.4148587 0.12515534 0.6789305 0.23307297 0.81604207 0.83755785
12 0.26120466 -0.7488975 -0.40749466 -0.18191986 -0.28261235 0.19025868 -0.9376753 0.10713598 -0.59145796 0.09677896 -0.47083828 0.059160054 -0.7494066 -0.7849134 -0.69149613 0.021433579 -0.23233539 0.5568634 0.8839221 0.8662674 -0.36502665 -0.50987196 -0.44591007 -0.88205326 0.73426676 0.37931645 0.806767 0.17671107 -0.7872409 -0.4527759 -0.9745839 -0.58139294 -0.3609296 -0.504969 -0.9483562 -0.70494527 -0.1185822 0.3088738 0.83113265 -0.48909166 0.36537322 -0.9600551 0.41050455 0.14010334 -0.3434412 0.5586028 0.0846107 0.103045315 -0.6845571 -0.70443445 0.08146688 -0.4347276 0.14356688 0.054288983 0.55875766 0.22497481 -0.22092603 -0.3903849 -0.80067617 0.97895586 0.6611508 -0.8727958 -0.4829469 0.5515322 -0.23235793 0.84622043 0.5502239 -0.74039084 0.02808182 0.39511502 -0.48337817 -0.9479643 -0.84264517 0.9725128 -0.19086877 0.6440173 -0.17642462 0.8579907 -0.12415019 0.5316241 0.89953035 0.6092934 0.52523273 -0.5352545 0.34998226 -0.8822205 -0.51459277 0.036404967 -0.44551903 -0.8472707 0.10005188 0.9452442 0.25676724 0.88782346 -0.1141665 -0.29279843 0.940462 0.48801714 0.49248093 0.2300473 -0.26759872 -0.6145388 0.5725153 -0.014886469 -0.047428787 0.16340251 0.7375205 -0.977576 -0.7417205 -0.14512442 -0.95322907 0.5332337 0.81941897 0.35709405 0.84048474 0.6454886 -0.21739 -0.14723484 -0.47604638 -0.015631914 0.7509794 0.3905119 -0.30824482 0.806148 -0.4211958 -0.08363819 0.6931349 -0.63286626 -0.41887546 -0.3731049 0.03745973 0.9304159 0.2431792 0.13741091 0.8487758 0.30020466 -0.19007379 -0.14093076 0.014859065 0.8353937 0.23460068 -0.57443154 0.56112653 0.97105825 0.87740564 0.10274142 -0.5360608 -0.11480982 0.5908148 0.38489977 0.82225245 0.2620628 0.21074224 0.75202703 -0.24388993 -0.3481318 0.8132921 0.21424991 -0.46127266 -0.35564828 0.83839446 0.39643043 0.6072704 0.44389766 0.5142571 0.8079054 -0.28276697 0.34218723 0.7253201 0.39502335 0.7905732 0.9005803
13 0.20872347 -0.7227393 -0.1591869 -0.2004314 -0.3925838 0.035336718 -0.94000417 0.27090883 -0.4762058 0.6498414 -0.604913 -0.22154713 -0.5746679 -0.84978473 -0.6855136 -0.19845583 -0.2897512 0.5169574 0.9519944 0.89629376 -0.30649233 -0.58578175 -0.5006655 -0.86566675 0.33636835 0.78168476 0.8109974 0.23343274 -0.7054763 -0.6670471 -0.96109414 -0.67554545 -0.475879 -0.56472504 -0.94271785 -0.7910718 0.033298254 0.268611 0.9270289 -0.7040461 0.23878995 -0.9316986 0.11870503 0.37006497 -0.745544 0.29539624 0.016378343 -0.15285493 -0.59291285 -0.55043346 0.027560443 -0.3246493 -0.14018083 0.32662192 0.445043 0.56222016 -0.30445397 -0.46798956 -0.6383535 0.9755295 0.71816665 -0.80166066 -0.6331223 0.6341355 -0.43927664 0.8660329 0.6526536 -0.23936763 -0.2049589 0.13110143 -0.34177804 -0.9004826 -0.8264276 0.91318685 -0.03428065 0.5214653 -0.18260357 0.80913424 -0.0693437 0.58194494 0.7662688 0.63025695 0.44095576 -0.43706596 0.3405409 -0.92279184 -0.6228727 0.30594063 -0.126656 -0.8260034 0.4070545 0.91493726 0.08314079 0.9133814 0.2678134 -0.4542838 0.934044 0.6575954 0.6503012 0.09823562 -0.35561508 -0.20353311 0.5274579 -0.31672525 0.13057956 0.40527117 0.7635921 -0.9703078 -0.845831 -0.29073164 -0.88412124 0.34874788 0.75404596 0.5946541 0.79725826 0.42158046 0.40614194 -0.0034871101 0.0074409097 0.19995831 0.8471062 0.50155747 -0.28375816 0.676621 -0.00948891 -0.48042792 0.6536679 -0.42648032 -0.46041986 -0.7842732 0.14370011 0.8865694 0.2782108 0.15892088 0.91190654 0.5975862 0.19578569 -0.34962845 0.40097502 0.9242946 0.27059066 -0.42344272 0.5736301 0.97660553 0.8052309 -0.24232829 -0.38800663 -0.4421579 0.75499165 0.5864964 0.8328717 -0.10643683 0.6046408 0.7434534 -0.49561685 -0.4899382 0.6403587 0.27432737 -0.38646385 0.07457668 0.7633564 0.42628673 0.43289542 0.52652764 0.1902529 0.7124914 -0.3594768 0.1313593 0.43526527 0.104301184 0.67911386 0.84742194
14 0.46393067 -0.67162615 -0.56297195 -0.12925193 -0.5190237 0.0779142 -0.94002926 -0.037025567 -0.39995646 0.37469357 -0.73655194 -0.096228376 -0.50856185 -0.78871 -0.7409475 -0.28686357 0.0021502224 0.67676085 0.92101926 0.8925952 -0.40447143 -0.55937773 -0.5595347 -0.7497918 0.54106057 0.14018455 0.57951504 0.0076041818 -0.8108173 -0.37188068 -0.9833664 -0.6281986 -0.51163876 -0.3825649 -0.8952809 -0.8434827 0.121421 0.6787672 0.39068875 -0.6660732 0.45176414 -0.96686566 0.4158334 0.14773923 -0.71908015 -0.015321702 0.41929474 0.45994544 -0.5477382 -0.50564575 -0.21665286 -0.3714425 0.1295248 0.059353292 0.20844607 0.005730558 -0.17199907 -0.07261106 -0.8510477 0.97421676 0.76213664 -0.88824284 -0.7177374 0.6146534 0.035398748 0.85559857 0.64808553 -0.7095222 -0.04876201 0.5301902 -0.15915123 -0.92103696 -0.92398924 0.97361654 0.050794065 0.4491524 -0.33601502 0.7866158 0.041216582 0.78765523 0.81199604 0.49724588 -0.05663771 -0.61214876 0.30540675 -0.9051787 -0.7044261 0.044428796 0.09296458 -0.8684344 0.34935406 0.45473668 0.051052555 0.9378227 0.047000453 -0.34172657 0.94193006 0.43302858 0.7830387 0.2390354 -0.2599722 -0.39028427 0.80077654 -0.37933043 -0.36366785 0.3456623 0.84983444 -0.9853688 -0.59852827 -0.06240973 -0.9576316 0.58983177 0.71025866 0.74980146 0.8524345 0.60605085 -0.26355007 -0.0147202015 -0.38949215 0.20818347 0.8916068 0.55715823 -0.120780006 0.8293133 -0.48615026 -0.1497038 0.46492225 -0.80121875 -0.39117903 -0.71414226 0.07222872 0.9618585 0.36053488 0.4613217 0.8435153 0.4568723 0.63729835 0.30606318 0.23220824 0.7803381 0.20525262 -0.6998128 0.595208 0.9412352 0.826708 -0.087427735 -0.443964 -0.067456156 0.90713537 0.74919564 0.5104293 0.067679815 -0.03927833 0.6688474 -0.45222268 -0.42209524 0.8082915 0.2070379 -0.56220555 -0.1714193 0.8406465 0.6465113 0.2797546 0.7476841 0.44001377 0.9065022 -0.6286994 0.16143319 0.74911964 0.2227704 0.8325566 0.7620552
15 0.26157355 -0.73598385 -0.65680176 -0.48639917 -0.17721198 0.41956258 -0.9683139 -0.12052137 -0.52286816 0.34582877 -0.22391105 -0.16112325 0.00903286 -0.7708508 -0.7126289 -0.099899046 -0.39398396 0.43918103 0.9122842 0.7240402 -0.22394823 -0.63056934 -0.332544 -0.76887614 0.5147247 0.5129586 0.79982597 0.09527427 -0.77527815 -0.20825365 -0.97275907 -0.75394386 -0.24431378 -0.69369644 -0.8978077 -0.6248 0.28931916 0.6210109 0.8924715 -0.572807 0.15575321 -0.9236972 -0.017600419 0.03980443 -0.40773618 0.6348959 0.6102362 0.08004469 -0.5977214 -0.6021611 -0.07620481 -0.35752067 0.35167846 0.0659014 0.045444082 0.41085914 -0.18807188 -0.58112556 -0.7624284 0.98246366 0.4762606 -0.723269 -0.58533597 0.80379426 -0.187611 0.8863002 0.7251994 -0.28885552 -0.20168303 0.096798725 -0.39200747 -0.88332176 -0.82399994 0.86662745 -0.03502738 0.2054344 -0.30330712 0.71789145 0.12513533 0.7672744 0.71738666 0.046474513 0.35949567 -0.45251578 0.27204475 -0.8275015 -0.35802567 0.00933817 -0.17914124 -0.82723176 0.022146244 0.72410744 -0.0025155246 0.9205027 -0.25964022 0.27464753 0.9485082 0.10846623 0.57184345 0.049577873 0.033020187 -0.72905946 0.5872871 0.054533683 0.13785338 0.35678095 0.6914087 -0.9472166 -0.8742101 -0.43921787 -0.9672878 0.58891207 0.5520036 0.6370154 0.79391 0.1713738 0.1536081 -0.110812634 -0.18222104 0.043693397 0.7361134 0.5464479 0.2674662 0.81711483 -0.70582616 -0.16181237 0.35420617 -0.6354773 -0.6511854 -0.5837272 0.024598762 0.9404847 0.24683964 0.186562 0.85520786 0.58137 0.2804072 0.1453473 0.32509178 0.7986155 0.30493206 -0.17448448 0.31108713 0.951597 0.9038741 -0.08105144 -0.34905362 -0.49409854 0.874737 0.35665864 0.78732526 0.3395899 0.3377063 0.5008101 -0.6322433 -0.25437015 0.653744 0.0003928244 -0.53224766 -0.40541774 0.73104787 0.40366685 0.6645024 0.35963267 0.23042533 0.88542676 -0.416504 0.16859709 0.8502001 0.27211374 0.70104104 0.7866142
16 0.116643116 -0.8542794 -0.5252164 -0.19555648 -0.48897693 0.14011347 -0.95381325 -0.49433362 -0.58216244 0.3325137 -0.48262644 -0.030579738 -0.6399999 -0.60909224 -0.42861527 -0.005822845 -0.019129649 0.52324224 0.91732174 0.8174907 -0.37428227 -0.6100778 -0.5133359 -0.91051126 0.44103032 0.21042722 0.7416532 0.41156858 -0.8003123 -0.55735517 -0.95447916 -0.66546476 -0.5065739 -0.6778711 -0.95683944 -0.8051922 0.1551122 0.612682 0.81597453 -0.65542483 0.23506248 -0.9201122 0.3894868 0.14955877 -0.61551905 0.47139394 0.14553595 0.13152082 -0.34697562 -0.61071473 0.061126906 -0.2489501 0.023849815 -0.06463894 0.08350274 0.3220635 -0.28604785 -0.5620048 -0.80636 0.9896897 0.6958504 -0.8055434 -0.6637707 0.72796744 -0.042543225 0.9199967 0.32626754 -0.47073394 0.047409616 0.21847025 -0.46876174 -0.9162118 -0.8974346 0.93936604 -0.17014438 0.44311807 -0.39631242 0.8656905 0.10563922 0.76985264 0.83208686 0.46994492 0.1325166 -0.5473055 0.13292104 -0.7301694 -0.6431299 0.12696253 -0.056425363 -0.7870135 0.47010654 0.85111594 -0.2514496 0.8817604 -0.13758706 -0.41646594 0.9617259 0.45340428 0.3634435 0.30288595 0.28210068 -0.48767343 0.47438648 -0.20036045 -0.22828676 0.24812031 0.8009723 -0.96311176 -0.77932113 -0.13733393 -0.90489835 0.15188746 0.8196231 0.5314701 0.8698263 0.8024959 0.17247607 -0.3096321 -0.58089197 0.015461847 0.55205995 -0.14370959 -0.13129163 0.6296832 -0.4091064 -0.14257085 0.48160237 -0.69881797 -0.47538513 -0.91044015 -0.0059348643 0.94105005 0.38815078 0.040024154 0.8272574 0.5680652 0.63267034 -0.1691798 0.0026844423 0.8620346 0.3008923 -0.51438606 0.48068258 0.93135864 0.9088492 0.0062641576 -0.17902854 -0.45036077 0.9362682 0.58620995 0.8301146 0.3955676 0.29756522 0.4308208 -0.45328873 -0.33568332 0.76681703 0.0024573058 -0.15442623 0.033062465 0.6524585 0.35641232 0.10406857 0.21551183 0.6874024 0.86417174 -0.5498429 -0.2936426 0.7589818 0.24304841 0.7682451 0.70915693
17 0.48287147 -0.710992 -0.62891424 -0.30120295 -0.54823333 0.4099935 -0.98164874 0.22224334 -0.63745034 0.50867134 -0.5588185 -0.09864442 -0.68084687 -0.5849144 -0.69394296 0.0007547885 -0.24834493 0.6712548 0.8859508 0.8313858 -0.4088273 -0.4991204 -0.77114654 -0.8018477 0.5487733 0.49580625 0.7444752 -0.17056687 -0.8380498 -0.53512657 -0.98496854 -0.6525041 -0.51153624 -0.40762538 -0.866975 -0.68818545 0.18154858 0.5140363 0.7598137 -0.8005976 0.4329002 -0.95910484 0.30812478 0.02692476 -0.6429703 -0.07094659 0.49710006 0.19413103 -0.57979643 -0.590608 -0.21323124 -0.2561884 0.20480897 -0.08387667 0.4755832 0.019651659 -0.071453825 0.014099747 -0.6669834 0.98040605 0.6699678 -0.92000765 -0.39338222 0.80079573 -0.12061422 0.8914712 0.6250192 -0.43647656 -0.099791564 0.13536978 -0.1497756 -0.8960493 -0.89973503 0.9680051 -0.050509334 0.5533273 -0.20742595 0.80388665 0.04361485 0.7963229 0.60535246 0.40148482 0.36476898 -0.54242206 0.25835973 -0.8699113 -0.6687307 -0.18324745 -0.19481105 -0.88225436 0.37884605 0.8898258 -0.00484035 0.9149423 0.18806382 -0.086844556 0.9609276 0.41623318 0.7446855 0.3292651 0.0023109987 -0.6228175 0.7605039 -0.3183003 -0.48220658 0.27639776 0.892442 -0.9573319 -0.8248459 -0.17196488 -0.92857313 0.4967465 0.63522375 0.59647214 0.91368407 0.40864775 -0.5382651 0.008616716 -0.37965328 0.37402743 0.83773595 0.6532654 -0.07598299 0.7922572 -0.619424 -0.10344076 0.39569893 -0.8368719 -0.42748535 -0.77258706 -0.01580672 0.9667411 0.2872867 0.27941328 0.8720819 0.38863364 0.38129854 0.19351855 0.32312614 0.84887743 0.08083969 -0.6297548 0.54758674 0.95413476 0.7335075 0.04814019 -0.5099671 -0.111445904 0.841214 0.660808 0.57652795 0.23325366 0.46399546 0.5226282 -0.7513919 -0.3760917 0.8052996 0.23095836 -0.53390455 -0.35893136 0.89729 0.55015904 0.4598297 0.23124191 0.811604 0.8574784 -0.5799393 -0.25489572 0.6530212 0.044036657 0.81570023 0.87562966
18 0.421093 -0.5718963 -0.4985789 -0.2544732 -0.30267066 0.1865393 -0.95361716 0.33297488 -0.6740228 0.4425367 -0.67807394 0.15762275 -0.68498224 -0.7143284 -0.48494783 -0.057138294 -0.11652109 0.5816222 0.8801439 0.7881535 -0.34190783 -0.4245219 -0.38087976 -0.841892 0.7525378 0.6207361 0.79119974 0.11601508 -0.88906866 -0.563944 -0.9762385 -0.58771026 -0.60925406 -0.48466635 -0.91970766 -0.8735585 -0.059497237 0.49934995 0.60800296 -0.668971 0.48855534 -0.9518612 -0.07569353 -0.05345893 -0.71351343 0.125661 0.08257259 0.19501248 -0.457905 -0.5496106 -0.17182052 -0.5911907 0.46484697 0.04208394 0.17105953 -0.12548362 -0.23276427 -0.092106424 -0.7813731 0.9789278 0.7664533 -0.90523076 -0.73838377 0.6150885 0.03963311 0.7280139 0.5909014 -0.5661422 0.101561785 0.22333097 -0.15364148 -0.9276019 -0.9224568 0.96814215 -0.08351183 0.5909765 -0.24759229 0.86884475 0.0033683479 0.84075236 0.58529794 0.3034439 0.07270169 -0.4535277 0.30659908 -0.9042334 -0.784693 -0.07292546 -0.14648959 -0.7530166 0.2528948 0.7770339 0.07247546 0.89782846 0.060471505 -0.21604145 0.9538481 0.5949707 0.67328405 0.48576224 0.37844288 -0.34556544 0.37256598 -0.38436514 0.031751707 0.2706956 0.80105275 -0.9448099 -0.74787813 -0.42166838 -0.93554574 0.11858162 0.76620984 0.6210077 0.8554192 0.7246873 -0.5548163 -0.20340648 -0.26954862 0.2912984 0.80552095 0.47102332 -0.0817256 0.83949983 -0.327213 -0.071382344 0.28367522 -0.8595608 -0.4410974 -0.4245999 -0.12088157 0.9493994 0.18271941 0.012679562 0.5112238 0.50539947 0.49021778 0.04197903 0.0023680031 0.8626678 0.34897882 -0.29829788 0.66081977 0.8661306 0.82340556 0.17238821 -0.62501186 -0.4045052 0.7949005 0.6979241 0.6091696 0.04429037 0.23767684 0.56873083 -0.2955222 -0.10908125 0.83055127 0.3599169 -0.2611884 -0.7312472 0.7865309 0.5972155 0.2577611 0.14854205 0.7700515 0.84436977 -0.5285055 0.18658367 0.84235656 0.2111423 0.87204707 0.79265225
19 0.14720951 -0.5881239 -0.34876585 -0.3304423 -0.5112043 0.0753112 -0.96384186 0.118475005 -0.28543505 0.07720906 -0.2156864 -0.26988584 -0.4731652 -0.6162368 -0.7524172 0.04688158 0.12984002 0.50307524 0.8711838 0.8123069 -0.10544191 -0.50881565 -0.62962633 -0.7975652 0.26952535 0.14110374 0.74540466 0.15792806 -0.7165442 -0.43956733 -0.97915125 -0.7607846 -0.3691212 -0.5635653 -0.9231488 -0.7634271 0.20034766 0.5002302 0.84861946 -0.75456685 0.39483324 -0.9381861 -0.2515769 0.30247447 -0.5665574 0.28749314 0.40424442 -0.18485767 -0.5240261 -0.28161305 -0.06666258 -0.2811564 -0.10594371 -0.16974936 -0.15323547 0.28895643 -0.19752243 -0.6153934 -0.85530585 0.98393136 0.7538019 -0.8082899 -0.6234577 0.46814916 -0.076539874 0.91872346 0.289024 -0.77259815 -0.13048111 0.23635721 -0.32194185 -0.89694136 -0.7618038 0.90895283 0.03178984 0.54780185 -0.20640667 0.7374444 0.14935121 0.78736854 0.89671046 0.3778202 0.49461833 -0.37003675 0.2586281 -0.8705904 -0.690706 0.5018276 0.06308846 -0.7901491 0.1981808 0.6628221 -0.024397224 0.8180705 0.048419412 -0.39148968 0.94515646 0.6320041 0.5412929 -0.25337708 -0.13880824 -0.4499212 0.64257324 -0.2681779 -0.06573273 0.30421 0.5799229 -0.9597071 -0.8583353 -0.49537072 -0.9356385 0.16212639 0.7622507 0.85335517 0.8695684 0.5541505 0.11777828 0.061724097 -0.5610436 0.09789686 0.7214348 0.15221764 0.1259085 0.7759612 -0.52584493 -0.24930418 0.5970044 -0.66116726 -0.517045 -0.6404907 0.040813863 0.872244 0.2080177 0.35605782 0.90698975 0.49608308 0.46222788 -0.18193673 -0.1136275 0.9280429 0.34860808 -0.6726372 0.4325748 0.95456576 0.91971046 0.42454356 -0.027608901 -0.34915712 0.79059446 0.58255154 0.6911115 0.34747446 0.5471317 0.66298956 -0.30685723 -0.44842982 0.72637224 0.13934895 -0.6363897 -0.32558334 0.71969885 0.24444008 0.518443 0.21714444 0.20024079 0.8303484 -0.2600161 -0.16026235 0.66175973 0.22986987 0.7445964 0.8730567
20 0.43449894 -0.6578421 -0.1014393 -0.19273594 -0.5835468 0.13966285 -0.9556188 0.39992645 -0.43429762 0.56304806 -0.13093713 -0.08686532 -0.70646125 -0.6809189 -0.63707787 -0.087303415 -0.27504948 0.6143935 0.7668866 0.80235606 -0.37669545 -0.52619594 -0.5830921 -0.8777635 0.33299035 0.43330035 0.73275536 0.23119062 -0.87820053 -0.5567124 -0.9818487 -0.42979568 -0.5432226 -0.64812726 -0.88837266 -0.77722794 -0.004857123 0.52222776 0.55853766 -0.4284041 0.508573 -0.96112096 -0.3004406 0.072453156 -0.7159375 0.52516454 0.32900983 0.20451638 -0.5497204 -0.59914255 -0.08800396 -0.54297256 0.1886612 0.07496386 0.5406798 0.32715255 -0.16963397 -0.40814802 -0.8411742 0.9822146 0.7236835 -0.8876452 -0.82456243 0.47742712 -0.18847573 0.8548357 0.46442628 -0.52350533 -0.21009716 0.14176553 -0.11245036 -0.92920876 -0.90206736 0.96954334 -0.23264524 0.6887374 -0.09447312 0.83424246 -0.037864 0.71355927 0.9347232 0.2087407 0.24147956 -0.35732037 0.24670213 -0.9171449 -0.63339734 0.09324759 -0.04068706 -0.871186 0.22838666 0.76211506 -0.09648225 0.9180428 -0.36591053 -0.027886838 0.96538365 0.5326511 0.61753726 0.520768 -0.22282816 -0.24323758 0.19795722 -0.4594947 -0.4557731 0.22579646 0.75725853 -0.9690525 -0.7078345 -0.27502117 -0.9642337 0.43172032 0.79796 0.68903244 0.9008835 0.6714518 0.081239775 -0.028120518 -0.5258518 0.41044033 0.2734836 0.3921106 -0.17163852 0.65709865 -0.5248102 -0.17690626 0.029010396 -0.7988445 -0.62974614 -0.45736092 0.12841682 0.9444009 0.39958736 0.41805133 0.87144625 0.4098999 0.4924809 -0.09859428 0.47554013 0.86644506 0.081825964 -0.66070396 0.5799425 0.921863 0.83888704 -0.06957222 0.16375953 -0.19638987 0.67137885 0.7198601 0.8012565 0.35858497 0.45842412 0.6628696 -0.2944051 -0.52818984 0.8106338 0.27342913 -0.40614426 -0.2092301 0.85918945 0.13205534 -0.20655008 0.34316635 0.5931959 0.88496846 -0.63623 -0.05597076 0.71168655 0.45007184 0.7747603 0.6570399
21 0.3136934 -0.7554792 -0.51249903 -0.019817233 -0.4588138 0.30766854 -0.95207596 -0.22371718 -0.5094805 0.35687014 -0.6272291 -0.030298293 -0.50863355 -0.6587434 -0.8106879 0.024612904 -0.10205835 0.4734087 0.9393763 0.7458111 -0.22044094 -0.41409606 -0.37858495 -0.7021342 -0.06399423 0.62425274 0.6056546 0.11800699 -0.69035876 -0.44026244 -0.9823798 -0.40781492 -0.28490657 -0.5472705 -0.88377357 -0.6636797 0.039354242 0.35529998 0.56046444 -0.56614363 0.41685984 -0.9362346 0.3482517 -0.15564315 -0.7513502 0.16037916 0.61316013 0.17090079 -0.594374 -0.63176644 0.11762354 -0.27266502 0.023479227 -0.21559128 0.15928477 0.1921694 -0.15738958 -0.13729838 -0.8257945 0.98054314 0.7899245 -0.70780987 -0.44637966 0.8000962 -0.34916705 0.84094656 0.42403167 -0.55163395 0.014822204 0.030216552 -0.39348623 -0.85065436 -0.77687114 0.86266977 -0.1760328 0.46384275 -0.13525555 0.7042068 0.166752 0.7041638 0.65017104 0.38339454 0.3621589 -0.51031077 0.12450153 -0.839108 -0.4931798 0.13161053 -0.04077357 -0.8806455 0.3478784 0.5817206 0.24775341 0.9357357 -0.0030952692 -0.3451778 0.8184245 0.3865677 0.6432125 0.20946506 -0.5459342 -0.43838036 0.80714595 -0.42369658 -0.3632389 0.3140157 0.81323016 -0.964503 -0.4142735 -0.24934071 -0.95728326 0.19357702 0.6777819 0.74779123 0.81395996 0.5726325 0.22622022 -0.06406432 -0.47486633 0.25957388 0.82998836 0.6402477 -0.053465858 0.7457093 -0.48753342 -0.15910369 0.42405465 -0.6724942 -0.5558666 -0.6670558 0.045882106 0.94140446 0.22129273 0.17147458 0.79445386 0.50454956 0.26994172 0.2730154 0.05360151 0.8761237 0.3560066 -0.6402665 0.5919452 0.95843005 0.89938086 0.3304443 -0.78915036 -0.219093 0.84954524 0.54413295 0.6091498 0.35660827 -0.34848273 0.62538314 -0.5386176 -0.47289336 0.5831517 -0.0055764467 -0.6127285 -0.71988124 0.764073 0.27260187 0.3453415 0.4725095 0.7840302 0.792985 -0.6279387 -0.29640424 0.5591301 0.15257496 0.69499004 0.8876924
22 0.19443758 -0.7134198 -0.47258356 -0.2974397 -0.22295035 -0.020714916 -0.9759032 0.32641664 -0.4074343 0.4819982 -0.4669106 0.025123896 -0.58109015 -0.49899468 -0.58586276 0.2548132 -0.11365895 0.683217 0.9268222 0.8669107 -0.30798447 -0.4897492 -0.6338014 -0.879027 0.08272143 0.4837517 0.72369397 0.064751565 -0.7223366 -0.448286 -0.9717022 -0.52922904 -0.5229447 -0.6490955 -0.8846981 -0.8450102 0.006796807 0.64249593 0.7138909 -0.55674905 0.2126592 -0.9496256 0.094133586 0.18536672 -0.58086884 0.5833459 0.4384829 -0.33110708 -0.2799174 -0.548285 0.001588814 -0.39057016 0.18802723 0.1738419 0.010156959 0.0023094937 -0.26739663 -0.30974668 -0.5726638 0.9774512 0.75904363 -0.9354406 -0.58077073 0.41694942 -0.20545495 0.80968225 0.67854226 -0.6818632 -0.015763827 0.33519706 -0.16492957 -0.94463617 -0.90565455 0.9450158 -0.027237259 0.38053852 -0.3231557 0.8969461 0.082831085 0.7384181 0.66758823 0.20034505 0.06518412 -0.50685346 0.15372007 -0.9132355 -0.60803884 0.11928664 0.021301001 -0.7168403 0.04546123 0.77746135 0.01540035 0.9063423 -0.27786934 -0.1584618 0.87766206 0.491713 0.56707263 0.17735058 -0.25448045 0.03388223 0.49530038 -0.32225406 -0.40791005 0.18761532 0.78420943 -0.9615314 -0.7815779 -0.5832375 -0.96809554 0.3425482 0.67128783 0.83605677 0.8037346 0.5698477 -0.072185494 -0.26746178 -0.054006204 0.24924368 0.83886635 0.38471866 -0.20834672 0.745432 -0.54979473 -0.04317245 0.13215259 -0.7209875 -0.6352118 -0.7126347 -0.19930626 0.95200205 0.3113438 0.54662657 0.8515854 0.3555825 0.1921652 0.088869005 0.35278004 0.8538563 0.348812 -0.27204764 0.6897938 0.9398769 0.8921016 0.26779175 -0.12629747 -0.4915285 0.83360034 0.6930887 0.40805346 0.5260396 0.009676278 0.52877235 -0.5701891 -0.28534663 0.83931863 0.25196654 -0.40022457 -0.52073014 0.8158419 0.26013932 -0.13123547 0.40049416 0.70304 0.85005933 -0.6943865 0.14458011 0.7954233 0.4066406 0.86703366 0.8446739
23 0.351256 -0.6091695 -0.29111606 -0.33445084 -0.6967221 0.19778126 -0.9698323 0.16878986 0.017654315 0.41384688 -0.32381132 -0.049942736 -0.6785027 -0.7254315 -0.03790568 0.19913194 -0.20051965 0.69657016 0.8646561 0.924787 -0.3445465 -0.5618111 -0.48436147 -0.76712596 0.596155 0.44711167 0.91652554 0.0069347844 -0.860369 -0.7758481 -0.97378504 -0.50440687 -0.5118563 -0.21549872 -0.91757315 -0.90771556 0.048751652 0.40755984 0.73658794 -0.69496536 0.3881364 -0.9607836 0.24464326 -0.08062305 -0.49101585 0.41746938 0.27310854 -0.113513574 -0.45991972 -0.58380395 0.040655077 -0.5196014 0.14224201 0.13558848 -0.15317833 0.07425033 -0.20733608 -0.46984738 -0.83679044 0.9796176 0.75650805 -0.90753216 -0.73142093 0.1237506 -0.13317166 0.9093367 0.34695458 -0.5952137 -0.003091216 -0.004250735 -0.32675615 -0.9328296 -0.87205875 0.9763071 -0.1149609 0.58800304 -0.43428835 0.8593057 -0.17027864 0.49346733 0.8877617 0.15921108 0.44898844 -0.58913654 0.4974514 -0.79301715 -0.5945007 0.18645 -0.0488832 -0.83696496 0.3955985 0.77154917 0.20428267 0.7617804 0.2796838 -0.16437434 0.9519323 0.52140856 0.6642741 0.14731528 -0.29916286 -0.72530156 0.30625024 -0.06688432 0.19977206 0.12780315 0.6649642 -0.97567075 -0.55623204 0.019803047 -0.9200719 0.38284683 0.83460575 0.84401757 0.891602 0.6154951 -0.37637126 0.08574147 -0.49548703 -0.11697613 0.68405 0.11675849 0.14351623 0.7549899 -0.3341856 -0.1715655 0.5802904 -0.7503103 0.0066220053 -0.69007254 0.17238182 0.9478864 0.39392132 0.19797748 0.86137843 -0.0911223 0.05766742 0.1186354 0.035077028 0.8611685 0.07668287 -0.11840153 0.5804243 0.9450144 0.8709346 -0.2571748 -0.02591087 -0.31523535 0.6735747 0.5574067 0.7134966 0.017509013 0.51498073 0.5831098 -0.17864001 -0.48156404 0.81128514 -0.0939863 -0.40738025 0.025701962 0.8916777 0.39663273 -0.028933696 0.44491422 0.16952074 0.95046824 -0.55991566 0.24431556 0.48320705 0.25042266 0.8737288 0.85612434
24 0.35524544 -0.72920454 -0.5640207 -0.21916816 0.14766191 -0.066985905 -0.9579284 0.35201907 -0.7167011 0.1589433 -0.2563158 -0.08237052 -0.60418606 -0.57517034 -0.6728442 -0.22291882 -0.2536691 0.5620942 0.86381876 0.8504145 -0.31566083 -0.5896883 -0.47686017 -0.7495336 0.6735357 0.4856299 0.89084494 0.12201102 -0.7718768 -0.578429 -0.9659721 -0.6793236 -0.52412426 -0.47529477 -0.9030755 -0.7999934 -0.24023774 0.18749155 0.65309674 -0.54979086 0.18600775 -0.9602807 0.4775514 0.14958066 0.16187888 0.35222235 0.2511179 -0.3521502 -0.42373598 -0.79151744 0.044049036 -0.4036476 0.06371224 0.2555117 0.3345167 0.5735697 -0.14145088 -0.39307028 -0.76733804 0.9847271 0.7616114 -0.86817265 -0.6377396 0.6943298 -0.112316966 0.8873267 0.61329675 -0.70779485 -0.17922722 0.12859192 -0.5473125 -0.91998374 -0.85663223 0.9790279 -0.1091562 0.67276347 -0.03906022 0.87896305 0.043620944 0.57132936 0.86442465 0.40594083 0.2488245 -0.48321104 0.3005888 -0.44587195 -0.5445672 -0.021595985 -0.04631835 -0.8168134 0.17228061 0.74339914 -0.33162105 0.89740866 0.18062201 -0.39815253 0.97546196 0.23588249 0.5065427 0.3688294 0.1522593 -0.27256685 0.44407487 -0.17147055 -0.29989758 0.35428613 0.8953427 -0.98547626 -0.7322717 -0.2925741 -0.8684981 0.53153384 0.7865362 0.5484442 0.88630486 0.69433767 0.41392252 -0.12574296 -0.38822937 -0.08385562 0.607379 0.5066798 -0.118059814 0.70254916 -0.31672746 -0.06995478 0.3431138 -0.71383345 -0.4886196 -0.863571 0.020617938 0.9712598 0.20304209 0.12295374 0.7785654 0.5060751 0.30962467 0.028483361 0.30654687 0.87668586 0.33090222 -0.6207644 0.52501845 0.92270094 0.88685834 -0.25096503 -0.1897423 -0.20944697 0.8991147 0.6892147 0.82199764 0.28075016 0.4035138 0.598695 -0.12355375 -0.5242117 0.8216971 -0.053417683 -0.46797198 -0.6078855 0.8104373 0.051170602 0.45591617 0.5108106 0.45483893 0.9305739 -0.6462723 -0.06641883 0.6157912 0.20086479 0.7757251 0.82240367
25 0.27756152 -0.6034405 -0.3657809 -0.16771004 -0.09630064 0.17682502 -0.9159794 -0.44130367 -0.5031209 0.23668912 -0.47384062 -0.26820505 -0.47799313 -0.71777123 -0.15566772 0.2295211 -0.24201536 0.34446874 0.9210601 0.8368043 -0.18891427 -0.51218396 0.21044016 -0.8293129 0.64904755 0.19461814 0.87920344 0.3287624 -0.6459478 -0.16559522 -0.9719943 -0.2956025 -0.26909482 -0.5465928 -0.929656 -0.62838525 -0.033138417 0.61363673 0.7451778 -0.14582202 0.08703171 -0.93898827 0.17031847 0.2604707 -0.6292746 0.25682664 0.011420295 0.03320363 -0.56544626 -0.6732041 -0.19348583 -0.34633955 0.39417627 -0.20210889 -0.07559182 -0.17635033 -0.18841714 -0.5281355 -0.7347485 0.99229974 0.6680221 -0.7075483 -0.6267216 0.5568091 -0.17837246 0.7621594 0.6644641 -0.7311227 0.35034597 -0.05092826 -0.34515822 -0.85810107 -0.7383065 0.8538567 0.22053407 0.42935202 -0.08465025 0.7342829 0.021379858 0.6830871 0.8049204 0.32834047 0.2977057 -0.4631524 0.31022012 -0.8538327 -0.5703688 0.24594061 0.15171146 -0.728607 0.40601552 0.7075479 0.30312774 0.8830981 0.19592664 -0.34126025 0.9523061 0.34629846 0.5990394 -0.011159152 0.48046467 -0.64474833 0.7664745 -0.29808223 -0.5349004 0.4059679 0.7924792 -0.9144802 -0.6854419 -0.2843508 -0.9584965 0.42032498 0.8156065 0.79995227 0.93325585 0.58319616 -0.025122061 -0.25401196 -0.46497875 -0.13642046 0.7847261 0.28682715 0.07788561 0.70729053 -0.5240705 0.063165754 0.30103272 -0.5795278 0.30305982 -0.6082083 0.015113324 0.9024519 0.30915457 0.35287413 0.8091984 0.6192481 0.27503133 0.31512275 -0.11468647 0.9321991 0.41309792 -0.6631826 0.5276475 0.79496825 0.81101006 0.50896204 0.13283536 -0.049549937 0.9155473 0.51199794 0.45028794 0.16698423 -0.12575012 0.6288125 -0.26146793 -0.49410293 0.7078451 0.327156 -0.46122527 0.3472265 0.6549213 0.04840058 0.024804436 0.42926648 0.26109558 0.7312669 -0.3439216 0.32206902 0.58654845 0.38326606 0.68037885 0.74742883
26 0.56021065 -0.7190143 -0.55310386 -0.36014646 -0.30561215 0.3295087 -0.86704904 0.43369848 -0.68156564 0.10306181 -0.52496666 0.29560512 -0.40943462 -0.6990878 -0.6148799 0.2457528 -0.018276773 0.58948046 0.91550905 0.84360784 -0.21339735 -0.3493523 -0.46606466 -0.728991 0.40823436 0.70213294 0.7433451 0.14726838 -0.87441224 -0.49919268 -0.9773689 -0.6305624 -0.5897217 -0.5204505 -0.94005257 -0.8275779 -0.09129861 0.4095054 0.48694554 -0.85124534 0.3851862 -0.9593044 0.29537147 0.04737407 -0.7115513 -0.19706541 0.3180835 0.049044166 -0.60267377 -0.2827552 -0.099722326 -0.31876218 0.42944035 0.03979983 0.09760031 0.48374096 -0.17819959 -0.18023029 -0.75361747 0.97032917 0.7356009 -0.9047132 -0.7534666 0.5959987 0.19949391 0.88278 0.49754828 -0.4653697 -0.008236133 0.38482517 -0.2365443 -0.9392442 -0.92581975 0.96538675 -0.122297496 0.5233013 -0.21085884 0.88033855 0.07900843 0.6407224 0.85392225 0.07779348 0.15321925 -0.5844659 0.24897683 -0.9349577 -0.6881807 0.21605156 -0.2235166 -0.8088391 0.44188297 0.85979944 -0.08490693 0.8965926 0.41605118 -0.30079293 0.9436198 0.49981058 0.73417294 -0.19945194 -0.21646973 -0.44880798 0.022746874 0.15979475 -0.13456166 0.18057786 0.8114961 -0.96647716 -0.6637922 -0.03612832 -0.9433745 0.2576785 0.6310279 0.74794877 0.8159946 0.5655304 -0.04330147 -0.12453443 -0.63801485 0.10295149 0.886373 0.37729785 0.012507141 0.8350801 -0.13318473 0.09754497 0.23521756 -0.80554587 -0.55288136 -0.7257373 0.09579082 0.9759093 0.4826331 0.26015982 0.7516955 0.51809293 0.5275721 0.13058017 0.3870554 0.8676801 0.41923994 -0.5423348 0.62018466 0.93836844 0.86355364 -0.08851141 -0.7515964 -0.072796136 0.9256753 0.76844394 0.2911677 0.28357747 0.61968625 0.5523076 -0.07675484 -0.14702639 0.7031031 0.16594467 -0.37435344 -0.7798822 0.84182525 0.40095964 0.29953972 0.44117647 0.7003909 0.80386424 -0.6923223 0.19983912 0.5974515 0.37374666 0.90771395 0.7098846
27 0.6774602 -0.7337424 -0.39909196 -0.26710495 0.041077234 -0.045983084 -0.8818664 0.495052 -0.79642653 0.33179733 -0.33077726 -0.020241871 -0.6849715 -0.83042324 -0.6117213 0.021452278 -0.12074956 0.5297248 0.88883895 0.8827848 -0.33712274 -0.5460186 -0.82634646 -0.8667437 -0.00044300826 0.4907197 0.7735529 0.25958467 -0.8327566 -0.52953404 -0.9797547 -0.6321377 -0.44706976 -0.6796148 -0.9087166 -0.8426483 -0.018745258 0.5811362 0.6722794 -0.70403737 0.4109143 -0.9732008 -0.20564234 0.0823936 -0.123915926 0.42598292 0.22011414 -0.46081302 -0.4875346 -0.5906408 -0.022180349 -0.5601156 0.14192012 0.04080543 0.26464152 0.2853257 -0.19157314 -0.052416973 -0.79816735 0.961239 0.82557464 -0.877445 -0.724106 0.44273633 -0.08292438 0.82115763 0.6395949 -0.63042307 0.06907865 0.44175726 -0.15104285 -0.9309079 -0.86938417 0.9725648 -0.18145597 0.7516721 -0.13160588 0.84700614 -0.052841127 0.33941108 0.79532325 0.4353587 0.37048873 -0.43953845 0.47161418 -0.92026913 -0.5399979 -0.14866087 0.0028952956 -0.79137385 0.35333288 0.8781657 0.034468964 0.9589758 0.31895986 0.041298896 0.97469544 0.3394518 0.5770399 -0.37950265 -0.40241742 -0.42778772 0.82497495 -0.15725191 -0.4336989 0.11552351 0.8594943 -0.953952 -0.84079814 -0.1545084 -0.89751834 0.38531417 0.8061208 0.6928857 0.85012007 0.55660796 0.4338083 -0.1377888 -0.5086997 0.054904714 0.87962997 0.29837692 0.15834604 0.74561924 -0.4939483 -0.017366052 0.42372572 -0.6692732 -0.5882198 -0.78671885 0.12374894 0.95270985 0.4648215 0.066823944 0.885169 0.20643063 0.14447634 -0.16439168 -0.1428229 0.8579614 -0.062568575 -0.2708373 0.6183139 0.98627317 0.9016676 -0.083244115 -0.003359899 -0.1830553 0.8308564 0.56920713 0.51786673 0.4073216 0.3775777 0.50569564 -0.16355366 -0.39222842 0.66786385 -0.203321 -0.12691371 -0.23352008 0.86643517 0.5143983 0.5079935 0.25252047 0.6915891 0.83905053 -0.68336385 0.11917709 0.80512583 0.43769786 0.7957097 0.9046998
28 0.35652375 -0.7784981 -0.5938391 -0.3122258 -0.017302707 0.14125639 -0.9532819 0.50785226 -0.64480686 -0.036408365 -0.55849797 0.18741806 -0.487439 -0.67062324 -0.19190061 -0.09834024 -0.08196982 0.49215952 0.9194124 0.9192606 -0.3323911 -0.39045507 -0.5416055 -0.74887663 0.32889012 0.5124918 0.84629905 0.07227451 -0.7880256 -0.5578143 -0.9662328 -0.6573905 -0.5876705 -0.6596363 -0.87113947 -0.79635143 -0.04124196 0.4988537 0.6876335 -0.56595725 0.45250046 -0.9903565 0.6470989 0.3640936 -0.5271471 0.27518186 0.47514874 -0.16985717 -0.40604615 -0.6163088 -0.05014695 -0.59816825 0.026777923 0.22716697 0.39619756 0.4520333 -0.25630936 -0.2455109 -0.5954924 0.97887146 0.644955 -0.88254815 -0.13662215 0.28363854 -0.28592747 0.89346546 0.3940823 -0.8027816 -0.040620476 0.13587323 -0.41784352 -0.9394225 -0.91474277 0.97848165 -0.05965191 0.5205541 -0.31923777 0.81954634 0.055752404 0.80078036 0.82918435 0.45269388 0.1817654 -0.4277682 0.21962947 -0.88877475 -0.72905046 -0.05382131 -0.06033235 -0.76413053 0.343429 0.8088526 0.27914807 0.90043163 0.13689551 -0.2467136 0.95437783 0.207761 0.48157644 -0.31215748 0.17978393 -0.5689248 0.4634011 -0.30411577 -0.26515427 0.35468242 0.88767886 -0.947366 -0.42604804 -0.49409539 -0.95579636 0.49423888 0.78554094 0.83946097 0.9154112 0.7043611 -0.42639595 -0.13023883 -0.5738585 -0.19553606 0.7706603 0.34304994 -0.29302788 0.750697 -0.2154575 -0.011502564 0.3752016 -0.7565639 -0.3466461 -0.74525297 0.006253898 0.96755344 0.4375181 0.39546365 0.9160127 0.361808 0.65506375 0.034623504 0.53785115 0.8103944 -0.04438618 -0.41161692 0.39671463 0.9689251 0.7844367 0.11049515 -0.25831044 -0.24947385 0.8811474 0.6945146 0.6998353 0.27311665 0.47469413 0.79456013 -0.3725469 -0.48969308 0.8436602 0.34737766 -0.28523707 -0.6643039 0.884861 0.4704016 0.3083157 0.5415258 0.32541132 0.83491266 -0.50826347 0.020460047 0.68362653 0.56759083 0.82603884 0.5842539
29 0.45816538 -0.90252316 -0.35094774 -0.32593492 -0.27531713 0.49182612 -0.96029335 -0.03888267 -0.5238687 0.21226434 -0.645308 -0.036913425 -0.63275737 -0.494775 -0.6060441 -0.01881811 -0.3060639 0.44592553 0.8027398 0.6879323 -0.20655835 -0.25710312 -0.18843068 -0.83271664 0.5230949 0.7188783 0.73602754 0.33288345 -0.69256264 -0.47289586 -0.96718043 -0.4577979 -0.40526545 -0.77009654 -0.90426886 -0.6663158 -0.07249704 0.35925847 0.52915174 -0.5854552 0.33871952 -0.85198224 0.2752782 0.16046065 -0.8497356 0.39755058 0.53754205 -0.12556003 -0.7007057 -0.7193945 -0.0057105515 -0.32425374 0.16714627 0.04783529 -0.1629182 0.04061187 0.034694344 -0.53371596 -0.79008955 0.98545504 0.75353676 -0.7096784 -0.8438419 0.48347762 -0.059911795 0.88676906 0.60293865 -0.6106206 0.10721171 0.24095818 -0.22430314 -0.8080985 -0.71443033 0.85330456 -0.055476844 0.08824648 -0.35607532 0.8118193 0.051445484 0.73475945 0.8684622 0.53975904 0.25462008 -0.4115641 0.23593134 -0.8840856 -0.40336838 0.26865512 -0.027899802 -0.8665151 0.35795975 0.90735805 -0.24468568 0.89479405 0.2554026 0.057076056 0.91607326 0.4441884 0.3953131 0.14351434 0.5333623 -0.6290566 0.08192336 -0.12387648 -0.46246016 0.15965073 0.85179454 -0.92133355 -0.79405814 -0.47921002 -0.96487397 0.41164374 0.7909937 0.6629335 0.8477252 0.7741061 -0.27830803 -0.021539196 -0.54013777 0.5083359 0.66648215 0.33338985 -0.15070228 0.52065617 -0.22895578 -0.2348654 0.20545527 -0.6215113 -0.6420775 -0.8149199 0.042618956 0.8533743 0.32121432 0.37474975 0.8156715 0.54845417 0.27495122 0.19871393 0.45408374 0.8300878 0.023517122 -0.6561646 0.668057 0.9112991 0.8928102 -0.20966113 -0.23598683 -0.15694004 0.9031294 0.5736075 0.7489706 0.26560637 0.4830661 0.7162601 -0.23125565 -0.25368357 0.51889884 0.15308744 -0.24793269 -0.22282994 0.7195307 0.19503747 -0.6165096 0.33797055 0.44976068 0.83787197 -0.5072543 0.031217247 0.72487897 0.3255709 0.6557134 0.8209659
30 0.28123784 -0.60147506 -0.39373025 -0.41076934 -0.5164321 0.12511724 -0.9607043 0.17484857 0.10824644 0.2538601 -0.5100643 -0.26618245 -0.2991772 -0.78986675 -0.347865 -0.2468236 0.24476552 0.6365195 0.9097051 0.894111 -0.5136143 -0.58116037 -0.532358 -0.8793495 0.651116 0.43417215 0.8650712 -0.1085421 -0.7768467 -0.62797004 -0.985329 -0.87641025 -0.476856 -0.5552818 -0.92287135 -0.807046 -0.027380288 0.5001768 0.85065657 -0.81560993 0.34178334 -0.9616395 0.46276307 0.31153864 -0.48859137 0.2290099 0.3584673 -0.16586292 -0.5141864 -0.6510671 -0.14107919 -0.32082164 0.4775407 0.25930643 0.08249621 0.38837373 -0.21132047 -0.5311317 -0.5852262 0.9635576 0.7166703 -0.9472086 -0.7703493 0.8178812 -0.2957571 0.94120866 0.5492619 -0.76632786 -0.05090507 0.33467066 -0.1816372 -0.9495872 -0.9202473 0.97687405 -0.17315903 0.53823197 -0.26269263 0.8490551 -0.06938997 0.5203043 0.69664246 0.6115996 0.28601143 -0.47614443 0.26866668 -0.86515564 -0.5391616 0.070953876 -0.15183231 -0.86020404 0.56634164 0.6616453 0.022660851 0.9162624 0.4531517 -0.36590236 0.96488047 0.3961606 0.5253236 -0.40849578 -0.0013685208 -0.44537526 0.5213873 -0.18583953 0.037629798 0.46624658 0.7819125 -0.9780026 -0.76868147 -0.27954027 -0.91542584 0.60559237 0.8272284 0.8530096 0.807134 0.4018702 -0.12540422 0.008734465 -0.62675345 -0.11207083 0.795667 0.47186917 -0.27603513 0.6256654 -0.26284447 0.09260079 0.7334538 -0.6018347 -0.5256196 -0.6010126 -0.049008965 0.9689525 0.2880364 0.50175226 0.9280042 0.029703613 0.26851034 -0.012882803 0.58544433 0.8766829 0.36412272 -0.40769508 0.7016078 0.9399431 0.9351401 -0.23053353 0.1854358 -0.21934131 0.81525034 0.5462571 0.54853964 0.29150522 0.42129523 0.567237 -0.11834729 -0.27585232 0.8700085 -0.15147147 -0.2517541 -0.11014906 0.91025996 0.55434304 0.705578 0.38162497 0.52027303 0.90848005 -0.6608332 0.099103585 0.44171906 0.2695812 0.8661058 0.9241038
31 0.33956313 -0.42788503 -0.4532671 -0.25977236 -0.44887325 0.1537627 -0.9706989 0.05676361 -0.37884143 0.07146077 -0.7615489 -0.17763919 -0.21000205 -0.78605217 -0.67386085 -0.27446073 -0.3188115 0.6577605 0.90486264 0.8145788 -0.14676452 -0.5834654 -0.7282006 -0.785539 0.6521306 -0.05484681 0.83290315 -0.15769011 -0.793294 -0.4377882 -0.95924187 -0.7440639 -0.43794256 -0.5486735 -0.89331955 -0.820934 -0.122240946 0.29688117 0.68930984 -0.71530944 0.31339207 -0.9634381 0.037401207 0.2097619 -0.8067276 0.3833572 0.51771814 0.1351856 -0.60534763 -0.42565197 -0.15046936 -0.358674 0.35040495 0.1254988 -0.07162589 0.08899321 -0.1664958 -0.5031793 -0.86104137 0.9846509 0.7818889 -0.8421896 -0.42787337 0.7477904 -0.40507105 0.7779492 0.6473794 -0.68790877 0.05765181 0.10322911 -0.56517106 -0.948697 -0.902743 0.97029597 -0.29074132 0.6935775 -0.306257 0.80461586 0.09681159 0.79439884 0.6250202 0.10433042 0.17201073 -0.5841656 0.30752146 -0.8970564 -0.7532077 0.22978476 -0.22915983 -0.8747643 0.14858739 0.47219366 0.0929628 0.90970534 -0.3093667 -0.23766303 0.9185451 0.6129728 0.53726727 0.3733438 -0.028458245 -0.5422077 0.3549736 -0.26783347 0.18916552 0.54696417 0.6637357 -0.9677352 -0.7863745 -0.5693699 -0.9391497 0.45137537 0.7596327 0.61570096 0.8080196 0.6965196 -0.121129714 -0.24385092 -0.26062435 -0.06579739 0.7004349 0.59253633 0.0020783842 0.77765095 -0.28397614 -0.044336885 0.39588845 -0.8249276 -0.52359277 -0.5532357 0.05392471 0.9537515 0.2361187 0.30409715 0.8376705 0.25974584 0.16865455 0.07353632 0.13087624 0.8894916 0.46052945 -0.4614711 0.41788632 0.9422147 0.87655824 -0.042711735 -0.64345485 -0.27502394 0.818526 0.61354965 0.5869656 0.17204176 0.5347126 0.7000809 -0.5813495 -0.3486136 0.8005164 0.2503093 -0.59468704 -0.68140334 0.8576369 0.087835625 0.5091008 0.3079674 0.52424616 0.8079495 -0.65719026 0.33471674 0.7092738 0.23863767 0.8003376 0.89169335
32 0.14004497 -0.59327483 -0.1850256 -0.24976507 -0.21824393 -0.029500678 -0.86473984 0.5007739 -0.8358695 0.3802522 -0.64120704 0.11374913 -0.5023715 -0.5481487 -0.49769235 -0.14809608 -0.19468915 0.28369644 0.81964964 0.5289867 -0.00076059997 -0.26236248 -0.33800498 -0.6237422 0.16386484 0.34041482 0.77245045 0.29753533 -0.4023463 -0.43316442 -0.9070263 -0.15504307 -0.22842765 -0.42698097 -0.51710725 -0.437809 -0.08687878 0.39441615 0.6798512 -0.17607215 0.34872398 -0.6976572 -0.05493155 0.13498786 -0.49654952 -0.14279366 0.5013086 -0.40690544 -0.5748944 -0.40530127 0.1843874 -0.14291441 0.2772655 0.19313094 0.3789338 0.5041321 0.014846653 -0.6106129 -0.7378814 0.9563588 0.5589366 -0.57994443 -0.36175996 0.82496846 0.012806788 0.7219104 0.5301341 -0.57527435 -0.099581 0.112973705 -0.3108294 -0.61730117 -0.5701318 0.47354603 0.14669657 0.609767 0.120636314 0.5334547 0.12588938 0.70683396 0.9305174 0.34234843 0.41761065 -0.45678338 0.08736351 -0.7713883 -0.47140276 -0.26992837 0.05815023 -0.5559206 0.12929927 0.9210227 -0.05884379 0.68689156 -0.2533375 -0.19434151 0.88587785 0.46247664 0.5350286 0.423115 0.5010941 -0.048357014 0.5166374 -0.38146317 -0.3629673 0.44844925 0.8797234 -0.8506409 -0.8211776 -0.5728039 -0.8672067 0.0045154914 0.85021687 0.44766024 0.8589518 0.5658128 0.26371804 -0.013693444 -0.21460351 0.3737065 0.8686734 0.40371075 -0.2035557 0.27265176 -0.4166693 0.01816808 -0.04627289 -0.4805383 -0.3771417 -0.4208955 -0.13490975 0.8433586 0.18495035 0.20508727 0.76170176 0.7385563 0.43439895 0.28214377 0.5790985 0.7993662 0.1297015 -0.67437565 0.36301455 0.7934278 0.8339683 -0.040219948 0.21123031 -0.1702115 0.7302687 0.4301352 0.8498086 0.5647554 0.33948517 0.5019663 -0.25697574 -0.35610533 0.3588925 0.032024086 -0.49422878 -0.5775204 0.5718962 0.2819838 -0.37727505 0.615758 0.65440243 0.42649058 -0.31183937 0.3922505 0.54771835 0.38204306 0.48030677 0.5784089
33 0.2882109 -0.675676 -0.59351474 -0.17550051 -0.61896074 0.08834751 -0.96453327 0.44371954 -0.68092114 0.32282597 -0.5004607 -0.031327367 -0.7460369 -0.76650316 -0.5777451 0.039271776 0.0149533 0.76617736 0.9242253 0.88049084 -0.45495036 -0.5243335 -0.45000267 -0.86189026 0.7237866 0.80997837 0.8033693 0.0323689 -0.8018239 -0.40970477 -0.98097885 -0.6429306 -0.54296833 -0.5739934 -0.959576 -0.82483155 0.009826541 0.5086671 0.79114515 -0.41767964 0.40836757 -0.9250222 0.4084733 0.28630847 -0.8475709 0.4584881 0.01560919 0.14548099 -0.5770646 -0.67835027 -0.092033476 -0.24172866 0.18067877 0.21280202 -0.005615875 0.4126458 -0.20818628 -0.39889348 -0.8122384 0.9790347 0.6710694 -0.9040766 -0.6580837 0.26765034 0.078391865 0.85379976 0.52918583 -0.7471524 -0.06797119 -0.024359852 -0.44163582 -0.9432549 -0.8804761 0.96542454 -0.19069609 0.5918596 -0.31764364 0.9347363 0.058067143 0.80054945 0.83338475 0.46685427 0.41143367 -0.6259097 0.35189497 -0.8006204 -0.25595224 0.19372821 -0.02036646 -0.8104174 0.45983464 0.9186257 -0.27736014 0.9376542 -0.0053213015 -0.23617136 0.95463973 0.3259855 0.64324343 0.17924933 0.36098367 -0.356215 0.39864242 -0.51035684 -0.38933444 0.47153375 0.7759449 -0.9680413 -0.80345523 -0.55152553 -0.9678836 0.59828985 0.5900765 0.61124814 0.9032249 0.5222246 -0.23811212 -0.3241147 -0.6951836 -0.13776094 0.8022428 0.060296085 -0.17270112 0.790767 -0.27814913 -0.24085867 0.14526002 -0.58965564 -0.47281182 -0.71871144 0.106807604 0.9542637 0.20551163 0.2394069 0.86433035 0.63538444 0.17794904 -0.021467611 0.10175242 0.9041033 0.22750458 -0.46640462 0.74135005 0.9448847 0.8143007 0.4852014 -0.20469913 -0.38700953 0.93949646 0.6115383 0.6565991 0.29921898 0.36826736 0.7396776 -0.47593662 -0.40933955 0.84041554 -0.012727156 -0.2429635 0.14769624 0.6035103 0.28984144 0.24090248 0.38358337 0.52856946 0.83271027 -0.4982093 0.14211193 0.6368439 0.42075837 0.7778475 0.86886054
34 0.26635045 -0.67675483 -0.4656464 -0.23482046 -0.13071883 -0.01614213 -0.9160775 0.23455447 -0.7719218 0.28833815 -0.55783594 0.038371086 -0.5196383 -0.5445791 -0.63176507 0.047832936 0.1796827 0.5982397 0.9376096 0.81574845 -0.35506335 -0.1932845 -0.29844946 -0.8475526 0.53559947 0.19623353 0.84865385 0.22928756 -0.7575834 -0.479971 -0.97795844 -0.5651582 -0.53840196 -0.5830864 -0.9112398 -0.8617543 -0.142093 0.6407598 0.61985224 -0.806872 0.08952774 -0.9777925 0.25796998 0.41000244 -0.28196144 0.355865 0.3012968 -0.30547717 -0.6757214 -0.6400539 -0.03206847 -0.524906 0.3018452 0.3625035 0.56674415 0.7236116 0.0052265823 -0.37706277 -0.83087987 0.9837559 0.67578363 -0.9007081 -0.855555 0.47944552 -0.36705557 0.83339655 0.49583608 -0.5212423 -0.07276955 0.23491257 -0.35219997 -0.9473167 -0.91797477 0.9692182 -0.3030057 0.43880954 0.04194519 0.8778533 0.06980265 0.57052594 0.83831364 0.03365709 0.25358135 -0.44000068 0.2956888 -0.9687342 -0.47933528 -0.08550036 -0.08860044 -0.8512202 0.22924343 0.89427453 0.20311685 0.93864876 -0.2043774 -0.26164222 0.95375896 0.6788968 0.4342398 -0.38822395 -0.46812046 -0.51093966 0.7282388 0.0056001195 -0.1613936 0.42047966 0.6417603 -0.9768357 -0.8352873 -0.014377847 -0.95017344 0.589127 0.8221023 0.78875846 0.92281467 0.7164108 -0.14402808 -0.08130011 -0.57659024 0.3080204 0.7748696 0.48453218 -0.33368826 0.7923124 0.009645991 0.24474758 0.3014568 -0.7018888 -0.5860762 -0.8844831 0.09218919 0.9565116 0.47918344 0.29147035 0.89056706 0.012558978 0.156683 -0.11844523 0.22622584 0.851639 0.05870058 -0.2388666 0.6731918 0.96115804 0.8946182 -0.16182047 -0.3914315 -0.22084302 0.83264124 0.40449685 0.5811784 0.07433376 0.23352912 0.49331486 -0.33439752 -0.38279042 0.8323565 0.025236845 -0.50288886 -0.1374979 0.83374643 0.4498713 0.26044095 0.58933306 0.6691325 0.80536884 -0.6275361 0.34633747 0.61680615 0.47350577 0.89444417 0.7199271
35 0.24107802 -0.7498209 -0.43939167 -0.25952756 -0.4612152 0.16499281 -0.96222603 -0.046517342 -0.31093752 0.14317627 -0.64178234 -0.047642462 -0.52481246 -0.4750315 -0.48797256 -0.049339414 -0.16008708 0.54015845 0.91423047 0.725195 0.023149341 -0.4577009 -0.3458059 -0.70492005 0.5956761 0.18528011 0.68737817 -0.12494553 -0.45986447 -0.26269275 -0.9733025 -0.20462617 -0.3704139 -0.5935875 -0.74444926 -0.6785353 -0.19638956 0.3965555 0.48530456 -0.57770556 0.44931662 -0.9442215 -0.18891457 0.24869268 -0.78717625 0.39470452 0.30737802 0.11864874 -0.5512424 -0.49320704 -0.06788823 -0.1526019 0.28936064 -0.060608104 0.12618153 0.31637678 -0.1284748 -0.5039204 -0.86149913 0.9825211 0.7254443 -0.7550127 -0.63183373 0.8002106 -0.2531542 0.7959155 0.4974056 -0.629223 -0.08022966 0.04271932 -0.36561996 -0.89469945 -0.8674223 0.8512488 -0.07410589 0.75798386 -0.22370341 0.7221971 0.0863153 0.7244197 0.863627 0.0356068 0.22533903 -0.48344752 0.1397817 -0.89884573 -0.7164849 0.059997674 0.026435621 -0.8827996 0.19930646 0.84093535 0.19185835 0.9140898 -0.59604347 -0.16199294 0.8616526 0.6731484 0.49499297 0.6060648 -0.20777947 -0.6499636 0.08964363 -0.596144 -0.39682442 0.16926539 0.81961626 -0.9512789 -0.78179127 -0.23456791 -0.95515615 0.27255523 0.8431948 0.7537785 0.84001136 0.60770905 -0.17087461 0.0006928146 -0.4019348 0.33494878 0.74660796 0.44684976 -0.13945635 0.788599 -0.40331042 -0.13992383 0.5170381 -0.7736205 -0.5169832 -0.30564436 0.017560273 0.9389679 0.23971382 0.36993068 0.8031082 -0.015347898 0.296717 0.17616346 0.38195825 0.86042976 0.4031285 -0.64797986 0.41441882 0.92098844 0.80007577 0.033019572 -0.6769609 -0.06642316 0.8860159 0.600552 0.6463787 0.22363815 -0.0008729547 0.48485598 -0.6505373 -0.30103105 0.6077693 -0.073909 -0.6030281 -0.75760096 0.8212831 0.53534305 0.013789035 0.5932797 0.57127726 0.6708651 -0.6860845 0.12184508 0.7553599 0.31975466 0.73226225 0.6620873
36 0.40677238 -0.65944916 -0.27923614 -0.1691814 -0.60890806 0.42399374 -0.95900315 0.25589162 -0.36245757 0.31135616 -0.5463536 0.15685032 -0.69826657 -0.6556687 -0.4366845 -0.17188685 -0.3185172 0.47520402 0.92911667 0.7883917 -0.0815566 -0.42553937 -0.054197133 -0.72064173 0.4631892 0.43641582 0.7137783 0.21277583 -0.71972674 -0.48955137 -0.97168183 -0.37753147 -0.41404092 -0.32568488 -0.80997556 -0.6163913 -0.026996017 0.24670932 0.83610815 -0.80146074 0.36987996 -0.9136913 0.015484601 0.20695198 -0.6043611 -0.03168302 0.31836125 0.07765166 -0.49249458 -0.7186266 0.097741485 -0.3714937 0.32476375 0.0007324517 0.26708275 -0.041698158 0.024892434 -0.121892214 -0.6697518 0.9547212 0.6757097 -0.65616846 -0.6285961 0.72224003 -0.18608004 0.7754617 0.43125242 -0.7945456 -0.32379428 -0.13825458 -0.26482898 -0.8661303 -0.77600396 0.9048979 -0.08999866 0.63379544 -0.31046543 0.7436852 -0.07777792 0.8456258 0.79276353 0.26802438 0.34719965 -0.4359802 0.34699827 -0.88732785 -0.6893235 0.2823247 -0.02405642 -0.84956574 0.10712643 0.82604676 0.027475715 0.89445925 -0.3724663 -0.04356754 0.91392696 0.58268815 0.51387423 0.52450377 -0.27764785 -0.49355298 0.55440825 -0.28398362 -0.5318393 0.16917533 0.891134 -0.9360843 -0.731383 -0.3242234 -0.96669996 0.13427775 0.792734 0.876715 0.83634555 0.4426939 -0.1896121 0.1649602 -0.38717055 0.35200107 0.83479404 0.37837076 -0.0043735653 0.57170475 -0.35638148 -0.25651208 0.3906945 -0.6088324 -0.69059587 -0.21493298 0.013416223 0.9497198 0.0028927028 0.61087906 0.801639 0.041286066 0.34631392 0.25359392 0.34470856 0.8621317 0.2171618 -0.754546 0.5877582 0.89067346 0.88791436 -0.0389391 -0.66296715 -0.16881603 0.84120435 0.6977629 0.58208305 0.33037207 0.07459682 0.6743675 -0.7037992 -0.42380452 0.5726496 0.25259614 -0.43265328 -0.6219146 0.78094083 0.44485793 -0.34124213 0.23227224 0.65748185 0.75572026 -0.6614458 -0.020673424 0.63622165 0.08930254 0.73329437 0.76600367
37 0.555088 -0.64570314 -0.51946515 -0.249969 -0.4366407 0.14404945 -0.949439 0.07503377 -0.5443401 0.3591576 -0.5423152 0.34812382 -0.54396135 -0.592755 -0.661779 -0.14015375 -0.21314383 0.69543374 0.86601096 0.90321225 -0.35138088 -0.5213148 -0.36399832 -0.76508546 0.6686279 0.5826347 0.8119407 0.017341107 -0.7980461 -0.5463466 -0.95843995 -0.70052314 -0.5691447 -0.629393 -0.9227955 -0.8586079 -0.23615459 0.3027592 0.45142928 -0.34876278 0.58763635 -0.97254956 -0.17807834 -0.08544951 -0.7423871 0.20144877 0.5146759 -0.038605884 -0.49871454 -0.5666496 -0.17151736 -0.34036368 0.17865583 -0.001258662 -0.09243637 -0.14392784 -0.15826277 -0.18580091 -0.8386204 0.9896744 0.6945095 -0.90637773 -0.56948346 0.7658308 -0.011835933 0.8412854 0.504792 -0.66196865 0.1047678 0.15149114 -0.1983346 -0.93872106 -0.8855436 0.97826684 -0.04309257 0.73210025 -0.17541045 0.8474175 -0.11350939 0.67179936 0.8143096 0.013568342 0.20133522 -0.54419535 0.2639033 -0.8892132 -0.6696046 0.15157627 0.17463252 -0.88479936 0.21007921 0.8908326 0.09565836 0.9147033 0.023234576 0.0804338 0.9578672 0.51959056 0.57589084 0.49517465 -0.08072234 -0.43157616 0.41579437 -0.7044865 -0.0036019087 0.06398123 0.5990123 -0.9762688 -0.7486262 -0.40287524 -0.9613446 0.46801972 0.7245982 0.8009825 0.89535993 0.6397824 0.015824096 -0.045273274 -0.3620332 0.14932677 0.4792546 0.5645098 -0.22327858 0.83684 -0.5862957 0.013355672 0.32869557 -0.8593248 -0.5269086 -0.11653741 -0.056064293 0.95939726 0.28623396 0.38927183 0.8345275 0.6353899 0.16831508 0.29925865 0.16570307 0.8653759 0.27405736 -0.6922297 0.79625803 0.9330489 0.75195175 0.53051585 -0.65885806 -0.3559974 0.8194829 0.6764324 0.49377686 0.37322047 0.40415728 0.5343797 -0.17568335 -0.43180212 0.730018 0.2289186 -0.425758 -0.36731726 0.8479277 0.36049825 0.4142207 0.36940265 0.7726858 0.87236065 -0.77047217 -0.2860779 0.71919775 0.38508007 0.88443553 0.71030325
38 0.31606305 -0.6225156 -0.54227257 -0.34087175 -0.3195289 0.4068325 -0.96728283 0.0106188655 -0.20928821 0.27628258 -0.46196222 0.09992336 -0.50241673 -0.5173258 -0.39209455 0.1845462 -0.019433886 0.4824239 0.9255601 0.80545056 -0.21214417 -0.47995222 -0.49009427 -0.77023125 0.72022593 0.40279832 0.8396821 0.1580179 -0.7723191 -0.50833213 -0.98132896 -0.7090051 -0.3999942 -0.5094979 -0.901361 -0.5791574 -0.19301948 0.45471075 0.39594948 -0.6709625 0.46940327 -0.9212167 0.14599048 0.05324033 -0.71323353 0.38346645 0.44980407 -0.042253435 -0.5253689 -0.53450984 -0.20730108 -0.29102117 0.37917984 0.07100788 0.016769588 -0.0020499974 -0.020964533 -0.38894677 -0.8025637 0.9804957 0.67074746 -0.74269134 -0.5176833 0.59246033 -0.15541022 0.8324683 0.59780407 -0.65264374 -0.20067742 0.30441374 -0.32122076 -0.8928953 -0.8868638 0.8773946 -0.24425964 0.54245985 -0.23393211 0.77330995 0.17018896 0.70254624 0.49798983 0.28202894 0.28579488 -0.20395112 0.09775132 -0.788131 -0.68110335 0.04671731 -0.17726924 -0.84879524 0.24942201 0.36776626 -0.08212376 0.89282787 0.1505531 0.09982218 0.950355 0.14487253 0.62706643 0.37476003 -0.037531227 -0.6820082 0.42244568 -0.32803378 -0.22718942 0.33524776 0.79881626 -0.9755187 -0.7006528 -0.53804266 -0.9667048 0.38424486 0.6950408 0.7849217 0.81478167 0.5800648 -0.3341 0.011451038 -0.4607231 0.24776977 0.7949881 0.4545754 -0.08824341 0.76168334 -0.5970644 -0.054249465 0.2764059 -0.80127347 -0.62812984 -0.7032792 0.048594944 0.9705494 -0.009466991 0.3368152 0.8506495 0.010451995 0.19117221 0.20595533 -0.03147994 0.8573487 0.41323477 -0.62545174 0.4612441 0.920525 0.8391464 0.007688947 -0.55619574 -0.4784546 0.7982508 0.6280315 0.37329623 0.28368363 0.17014116 0.38586962 -0.68615264 -0.0692265 0.62734705 -0.15540853 -0.34768468 -0.7411951 0.755473 0.5431113 0.45638323 0.1764805 0.6154531 0.87240034 -0.699334 0.052924857 0.7637744 0.16550972 0.782208 0.7843107
39 0.5208959 -0.6420044 -0.7813926 -0.22165823 -0.20798524 0.35655433 -0.9671165 0.022570679 -0.45656094 0.54957974 -0.47708386 -0.007713735 -0.7103453 -0.52970576 -0.3827701 0.17187242 -0.13571858 0.68761283 0.92877513 0.8365839 -0.1479357 -0.48107222 -0.7235895 -0.79762036 0.75484324 0.33958617 0.8268895 0.15294799 -0.87215096 -0.67458117 -0.96984833 -0.67607975 -0.5330959 -0.6877913 -0.8889646 -0.8252964 -0.14379199 0.38229814 0.51410025 -0.83306 0.5065908 -0.9693395 0.30343586 0.016950399 -0.70751333 0.4139359 0.34139192 0.28108907 -0.49531707 -0.5502889 -0.17153287 -0.58712935 0.22807704 -0.09891158 0.2404286 1.8214807e-05 -0.21034929 -0.13146505 -0.8469497 0.98355156 0.7023688 -0.90434486 -0.33198246 0.5282949 -0.20375004 0.86655927 0.63689315 -0.6613709 -0.018160895 0.5229222 -0.29293638 -0.9285094 -0.8582511 0.9783106 -0.16012211 0.7383532 -0.07323928 0.7477069 0.0644632 0.77892494 0.68701893 0.33489186 0.53782874 -0.42175737 0.20805958 -0.8490288 -0.62975043 0.20591259 -0.104752705 -0.773115 0.018404938 0.5645554 0.055434242 0.8502666 -0.08615309 0.15733266 0.93620497 0.44672787 0.65642893 0.57469857 -0.29878363 -0.4450388 0.6511347 -0.27958694 -0.100357145 0.008433968 0.8967214 -0.9698071 -0.7814987 -0.3731792 -0.97216094 0.4363921 0.74584913 0.8382498 0.8877791 0.40052432 0.27475092 -0.08250799 -0.47829095 0.41588277 0.703262 0.41402596 -0.11586693 0.79569095 -0.42543247 -0.16709882 0.19528528 -0.8203971 -0.47078332 -0.8692445 0.105399124 0.9512009 0.13382371 0.3933281 0.89266026 -0.042419493 0.32816604 0.0577766 -0.07973194 0.80402946 0.0672327 -0.75124747 0.4250059 0.9385776 0.7921354 -0.22321364 -0.29856506 -0.30384627 0.7389896 0.6420027 0.6580803 0.09796107 0.40928245 0.64662826 -0.64959854 -0.49680376 0.6583731 0.036976084 -0.40432775 -0.7502043 0.84960663 0.3686202 0.36684346 0.19129415 0.583548 0.8566983 -0.59106135 -0.042505473 0.83650887 0.3434354 0.77931345 0.81447804
40 0.1988897 -0.79856575 -0.5676042 -0.30812016 -0.37000757 0.3360965 -0.9480703 0.23700967 -0.60778654 0.32250762 -0.72719014 0.032805726 -0.6794065 -0.59344226 -0.42227834 -0.2856787 -0.28608283 0.65994495 0.91085124 0.8749956 -0.37995768 -0.4592135 -0.26418525 -0.80784523 0.36439088 0.5506356 0.81758 0.08815797 -0.7987361 -0.5183493 -0.97402215 -0.66056323 -0.62490726 -0.63969743 -0.89793116 -0.7859077 -0.008563578 0.3272359 0.7458614 -0.5940415 0.3545092 -0.9415908 0.10566862 0.08466022 -0.84455234 0.16425458 0.34080252 -0.061395973 -0.30782056 -0.6513955 -0.10578969 -0.3774185 0.23204604 0.065324634 0.31108195 0.39681274 -0.35786664 -0.22156274 -0.6647775 0.9869123 0.6207191 -0.9406649 -0.46422043 0.57284474 -0.23582155 0.76363766 0.66970664 -0.7880838 -0.08544941 0.38142973 -0.32038462 -0.9442812 -0.8996532 0.9736745 -0.1123409 0.5534702 -0.3026221 0.9124967 0.07444124 0.8240166 0.34801328 0.18291001 0.19873545 -0.5451367 0.34404677 -0.84194076 -0.5764951 0.19929485 -0.042689443 -0.7950632 0.20778863 0.86223584 -0.15430814 0.9451347 -0.4220051 -0.18584548 0.9286904 0.5403185 0.3606562 0.5658773 -0.2662097 -0.40848514 0.08505348 -0.29457605 -0.47008586 0.4056549 0.78476775 -0.9660788 -0.72392035 -0.46733367 -0.95965695 0.33959708 0.60442793 0.68380713 0.82198894 0.7727923 -0.19932868 -0.36630744 -0.46811926 0.3908102 0.85262746 0.47668827 -0.31843272 0.75124604 -0.5959297 0.23057598 0.26239026 -0.76038796 -0.6499731 -0.6159336 -0.049618423 0.9504879 0.19963378 0.62219083 0.8281381 -0.24412423 -0.07894847 0.073266834 0.2657258 0.8829659 0.4778635 -0.5587618 0.6839142 0.95274425 0.85459787 0.13034564 -0.6324419 -0.34779197 0.8562645 0.70096195 0.7940623 0.39818996 0.29336667 0.63129467 -0.60346395 -0.17901008 0.7799632 0.5058204 -0.47924367 -0.5474665 0.76559615 0.25810996 0.17276919 0.37225476 0.7472471 0.87585 -0.7501645 -0.022850126 0.7626281 0.30371553 0.8275753 0.83308256
41 0.21501541 -0.6950007 -0.43218234 -0.16017343 -0.46678942 0.17093033 -0.9525132 -0.09294967 -0.71767324 0.22522813 -0.17224658 -0.024287373 -0.72701204 -0.65969855 -0.5964565 0.055931356 -0.07907963 0.41809535 0.8699404 0.7491694 -0.16353074 -0.5620997 -0.64499843 -0.6184879 0.52546245 0.35441563 0.86451006 0.35282424 -0.8081438 -0.4837832 -0.96276444 -0.5248927 -0.29037255 -0.69870746 -0.9128823 -0.6000658 0.09153272 0.17671746 0.83788556 -0.32978567 0.28801748 -0.9089683 0.24922077 0.22638732 -0.75665504 0.42312956 0.45784837 0.15804866 -0.42102024 -0.68176174 0.071273796 -0.43970203 0.003847614 0.05228418 -0.09672749 -0.10952064 -0.2283564 -0.4227364 -0.7757614 0.9851537 0.76928294 -0.75134706 -0.7717995 0.7107134 -0.1557715 0.8678465 0.2623621 -0.62991613 0.13499996 0.2757482 -0.39518896 -0.86256474 -0.796253 0.8928331 -0.083638676 0.56018496 -0.12495485 0.81199986 0.17158735 0.74105054 0.84268147 0.16983241 0.16268335 -0.43158153 0.32016182 -0.8189576 -0.6930385 0.15475419 -0.1812676 -0.7277975 -0.06137995 0.66596437 -0.12290555 0.936433 -0.15373275 -0.21374649 0.95259833 0.5256887 0.60705376 0.43991393 -0.14603552 -0.46675324 0.08663274 -0.2697355 -0.30866712 0.33195847 0.8684553 -0.95349526 -0.8886756 -0.31320956 -0.95598716 0.39392304 0.670234 0.82521236 0.7986199 0.5610495 0.07219075 -0.07587024 -0.3200226 0.09570369 0.7871571 0.48960885 -0.26157618 0.64600146 -0.3161798 0.07094641 0.4699456 -0.6201909 -0.627246 -0.52842736 0.1369174 0.932955 0.3919324 0.40517354 0.6187917 0.45738724 0.2933661 0.20562807 0.45366538 0.8644211 0.21155512 -0.6096559 0.46673703 0.88267124 0.9756615 0.45029315 -0.231661 -0.24913974 0.85890496 0.533677 0.6032502 0.11285448 0.24564454 0.6076968 -0.67295283 -0.33187518 0.5870687 0.097567596 -0.28180438 0.03424202 0.75205266 0.44018793 0.2656232 0.5511568 0.44079623 0.8718232 -0.43380475 0.06811151 0.6832888 0.23124264 0.774931 0.7987772
42 0.55286247 -0.69681275 -0.5540285 -0.21264762 -0.2045713 0.2368673 -0.8953944 -0.022772804 -0.60496104 0.09189886 -0.49594957 0.27658415 -0.4070625 -0.6764573 -0.44189364 -0.36328775 -0.2303122 0.7094343 0.9390463 0.902373 -0.32180554 -0.4196052 -0.46168625 -0.7952209 0.33994225 0.5903168 0.7969595 -0.35278156 -0.78405386 -0.59708256 -0.9853769 -0.71550626 -0.5951582 -0.48943973 -0.8726348 -0.8267458 -0.002150014 0.49237248 -0.08607752 -0.50566006 0.4454043 -0.96466017 0.43828186 0.0043313503 -0.76200837 -0.052771017 0.22016628 0.0026727915 -0.5449028 -0.59660816 -0.08210346 -0.45165226 0.16554385 -0.07561058 -0.19594212 0.009894408 -0.24569997 -0.2604262 -0.77902997 0.9326938 0.7485901 -0.91485447 -0.36651406 0.34755838 -0.08190009 0.8610103 0.3897595 -0.6446719 -0.096717715 0.3372394 -0.28196198 -0.93128926 -0.9126034 0.9711972 -0.120879345 0.6427023 -0.31083205 0.8210884 0.02391348 0.81817347 0.8028627 0.43773615 0.2241936 -0.42561603 0.37319574 -0.8690966 -0.6359631 0.101245776 -0.043492705 -0.8000697 0.36608386 0.8897006 0.07473713 0.90900564 -0.3449618 -0.24332142 0.9022479 0.29405105 0.73741376 0.3740474 -0.09353836 -0.29529977 0.5565829 -0.6541721 -0.11654778 0.14682388 0.80570513 -0.9667421 -0.3860804 -0.48718855 -0.97994393 0.5899344 0.68613195 0.70126504 0.86659276 0.48211354 -0.44909796 -0.053697452 -0.50256073 0.1480746 0.8031003 0.5329627 -0.12730195 0.83088243 -0.17849164 -0.08599272 0.34450936 -0.83355784 -0.40423822 -0.50912595 0.095899895 0.9678091 -0.005366169 0.5530621 0.83175486 0.26209694 0.3963787 0.3792046 0.16598496 0.7809803 0.3574171 -0.45522955 0.6243405 0.9015277 0.93313706 0.08327384 -0.56164175 -0.22291166 0.88351154 0.6018085 0.5715498 0.36697984 0.31120065 0.51698595 -0.23242939 -0.44938648 0.83385813 0.048918188 -0.31961158 -0.7211113 0.81766456 0.43373823 0.24638583 0.38893273 0.37090477 0.79617816 -0.4689588 -0.09708327 0.70946366 0.14964774 0.8698756 0.81384075
43 0.19461633 -0.52360225 -0.16668618 -0.19064097 0.28261644 0.03048715 -0.67242825 -0.51428926 -0.15487486 0.030663159 -0.51079744 -0.52110803 -0.46702155 -0.23651364 -0.09467786 -0.11651624 -0.32831833 0.44981036 0.5318188 0.5358231 -0.010121591 -0.20468447 0.070772246 -0.2847076 -0.3082895 0.59808004 0.77247995 0.17693666 -0.4604626 -0.291085 -0.81109256 0.10629669 -0.08611576 -0.504156 -0.5617651 -0.15524256 -0.3029223 0.48667657 0.34444767 -0.78688186 -0.24845329 -0.5917972 0.20080608 -0.062320888 -0.61072433 0.16706614 0.33178243 -0.4819924 -0.51386267 -0.49919277 -0.053904563 -0.022059191 -0.22302067 0.2725816 -0.17615144 -0.082272 -0.19932932 -0.74386513 -0.51148415 0.95885885 0.6297339 -0.36703283 -0.6351164 0.6092846 0.24811584 0.8839938 0.31764042 -0.6163177 0.2910592 -0.31054777 -0.27898997 -0.55972916 -0.115769625 0.26862484 -0.08282532 0.18579741 -0.15223667 0.34311503 -0.00026111305 0.33162868 0.9140405 -0.17587268 0.05844468 -0.27235943 -0.2263984 -0.35714456 -0.17386639 -0.22762701 0.32052717 -0.66635096 0.44907135 0.7127451 -0.108785644 0.6251912 0.047388945 -0.30571926 0.5966376 0.09090934 0.26830256 -0.22567616 0.6884135 -0.2806563 0.08801119 0.0054108044 0.33128554 0.36773455 0.760909 -0.6816356 -0.8921932 -0.65471476 -0.5856359 -0.09943946 0.7680892 0.34047598 0.7168827 0.09023544 0.21605702 -0.034335814 -0.15255097 -0.21381985 0.7234304 0.39305747 0.3355224 0.17470315 0.42148685 -0.10715169 0.614217 -0.21691617 -0.12765566 -0.35616267 0.028032217 0.6507252 0.6002333 0.7461301 0.6611459 0.5438391 -0.26731703 0.10107076 0.3830642 0.59072006 -0.51166064 -0.37081552 0.5755806 0.5328742 0.8904975 0.7050458 0.3834325 0.09509541 0.7963029 -0.058457896 0.58500636 0.34672785 -0.40587252 0.4571276 0.3639252 -0.14085093 0.43459138 -0.098682486 -0.29823393 -0.3977119 0.3359371 -0.33864453 -0.1077981 0.101059414 -0.0653884 0.46967465 -0.057469655 0.4737195 0.40562788 0.51711774 0.3180454 0.7691467
44 0.35305303 -0.7760625 -0.45869693 -0.2007199 -0.14113508 -0.118221015 -0.92255753 0.023924535 -0.82720006 0.23847927 -0.4209951 -0.009588376 -0.5165785 -0.60528964 -0.8472205 0.10346634 -0.4390611 0.50155616 0.8903382 0.7747949 -0.25083625 -0.4711113 -0.7689687 -0.72819954 -0.12664148 0.53460586 0.8362004 0.37013203 -0.66799605 -0.34139562 -0.9614474 -0.49211603 -0.2690872 -0.66061527 -0.91162866 -0.5878564 -0.115113765 0.3419561 0.766998 -0.3294902 0.26202688 -0.8991045 0.30430162 0.010374367 -0.5660193 0.48722965 0.5464158 0.047741488 -0.6635308 -0.43358073 -0.05799551 -0.23665786 0.4641353 0.3499889 0.23590621 0.15705362 -0.23434347 -0.35601717 -0.7974039 0.9895478 0.7309872 -0.5726017 -0.6368225 0.69502294 -0.18996814 0.89754355 0.43266004 -0.5671963 0.09586566 -0.17245468 -0.53753984 -0.85778046 -0.77338797 0.8155737 -0.19052942 0.4597628 0.08034876 0.69323415 -0.06683132 0.42148033 0.811802 0.43323225 0.45173055 -0.35675207 0.17326126 -0.77698696 -0.6383903 0.1517984 -0.08566484 -0.8702026 0.13403615 0.80309904 -0.08063776 0.9135977 -0.1487737 -0.43941426 0.9414764 0.53619033 0.68080497 0.10384668 -0.012288973 -0.53274095 0.5162636 -0.2986383 -0.3996113 0.24166861 0.76992744 -0.9393951 -0.54400426 -0.48886824 -0.91304094 0.22010016 0.67446816 0.7238072 0.8393822 0.4070775 -0.046777487 0.06394243 -0.41158137 -0.02478534 0.7543598 0.5268173 -0.08477223 0.6716354 -0.3081815 0.058379225 0.1294331 -0.7344237 -0.6230405 -0.8096908 0.007472515 0.94114935 0.5690683 -0.07912127 0.85685843 0.6498819 0.15411842 0.1843399 0.23894037 0.9166458 0.26845658 -0.6213642 0.4272443 0.9304219 0.9017708 -0.2076911 -0.56928515 -0.45284224 0.7665129 0.3680283 0.8432897 0.3177926 0.2289372 0.7687971 -0.3387314 -0.3353189 0.5514432 0.32075846 -0.5987393 -0.51321983 0.67736465 0.084069505 0.15506798 0.5565292 0.36556527 0.8167715 -0.3855605 -0.0014200695 0.6622637 0.28216848 0.5788974 0.8567138
45 0.11320031 -0.71985304 -0.2676177 -0.31655103 -0.53801525 0.08178668 -0.91122246 -0.31039405 -0.6528168 0.19371234 -0.41204196 -0.15619928 -0.4010371 -0.41637036 -0.4480608 -0.35277584 -0.47871038 0.50464207 0.88733494 0.69236404 -0.10076177 -0.4393515 0.04036811 -0.7215224 0.027584225 0.311858 0.8939828 0.28125817 -0.44349983 -0.5635664 -0.9564548 -0.5926369 -0.27677977 -0.40657017 -0.73633915 -0.44298106 -0.30288875 0.031949215 0.19647723 -0.5374175 0.15550387 -0.82207906 0.29866472 0.28033024 -0.78608274 0.4312439 0.35709193 -0.54404604 -0.55152655 -0.40206808 0.13034101 -0.042720973 0.03511174 0.4137059 0.23664692 0.20793734 -0.12081933 -0.59900767 -0.6574309 0.9565587 0.735792 -0.5369107 -0.51399076 0.5928015 -0.2494229 0.81873244 0.7119217 -0.667831 0.10120535 -0.15250441 -0.53173906 -0.8324171 -0.47280985 0.64434874 0.032563046 0.16102284 -0.050234824 0.4816275 -0.14730573 0.5163481 0.80342764 0.32394513 0.4528512 -0.2649218 0.060569227 -0.81854427 -0.4374888 0.16354603 -0.15147449 -0.77407885 0.29415935 0.6940527 -0.15951744 0.8649881 0.5798275 -0.09141023 0.86292094 0.31142142 0.63712204 -0.5599113 0.5069474 -0.31880772 0.5616759 -0.1851302 -0.31831008 0.24517444 0.78015566 -0.90679806 -0.6855835 -0.4641873 -0.9008367 0.30106345 0.7537097 0.57102776 0.78893036 0.641888 -0.3583712 0.15823421 -0.40663618 -0.42841393 0.58828235 0.51841074 0.025829867 0.6014187 -0.34976745 -0.2506113 0.25785634 -0.47018346 -0.36046684 -0.6049244 0.07145683 0.85811293 0.1577009 0.017270118 0.84083575 0.3330824 -0.052931637 0.40580377 0.19886592 0.7210526 0.038933486 -0.32151574 0.37001616 0.8986987 0.8870256 0.031091362 -0.20728236 -0.18916434 0.90319973 0.48249906 0.65980965 0.38394922 -0.125311 0.6924702 -0.37549913 -0.3621976 0.30426428 -0.1010346 -0.50481516 -0.46299976 0.6737134 0.4144841 -0.042096306 0.47769997 0.72142816 0.7757951 -0.47305784 0.23280996 0.25391355 0.45086658 0.5264977 0.8789393
46 0.43757907 -0.85413307 -0.28408086 -0.23298396 -0.5186963 0.3410581 -0.91445893 0.09620832 -0.5611542 0.4312967 -0.46260864 -0.014599651 -0.4918137 -0.7016207 -0.77171236 0.017645925 -0.16692647 0.39438906 0.9144393 0.8132369 -0.10379794 -0.5078683 -0.50798845 -0.8895096 0.6773403 0.28216445 0.84485704 0.1949004 -0.59609044 -0.3381542 -0.96683604 -0.37525943 -0.24615231 -0.6502423 -0.898734 -0.71587545 0.058393925 0.489107 0.77205867 -0.6507564 0.47767672 -0.8821672 -0.028103054 0.082394704 -0.58765775 0.38051605 -0.03439893 -0.14230406 -0.68263644 -0.6577226 0.07618171 -0.27562535 0.514606 0.2817759 0.16340446 0.64843446 -0.087954946 -0.5630923 -0.6632696 0.98140913 0.80873746 -0.6251725 -0.63388735 0.38465473 -0.117643416 0.9111327 0.589858 -0.6973757 -0.13082284 0.13396952 -0.39060956 -0.84047234 -0.78109694 0.7491176 -0.11363241 0.28676414 -0.090492845 0.7274973 -0.0156814 0.49969995 0.8931753 0.51684785 0.37799639 -0.15110135 0.23178808 -0.90336466 -0.4943785 0.29134104 0.059403166 -0.7827933 0.2932033 0.9360803 -0.06210631 0.8396097 0.06122851 -0.24169613 0.9436314 0.50834584 0.5407287 0.29218546 0.13012528 -0.6315102 0.52518404 -0.13424869 -0.2736382 0.09188365 0.8406344 -0.9392594 -0.80755854 -0.45688868 -0.9466221 0.21419807 0.7873349 0.14425161 0.80899864 0.56751823 0.11082974 -0.040475275 -0.26735318 0.16020155 0.81703657 0.27383113 0.052872196 0.7210831 -0.4877604 -0.23119062 0.2090252 -0.59930146 -0.43088132 -0.6886302 0.02983955 0.89210784 0.32129517 0.21205571 0.75170577 0.53259575 0.3069865 0.057330407 -0.07457467 0.86860514 0.11841416 -0.30730534 0.47328335 0.93814653 0.84505963 -0.34162292 0.0832427 -0.18641466 0.9252904 0.25352854 0.8450537 0.07150391 0.57576466 0.5976659 -0.5533637 -0.37018415 0.65734065 -0.055973172 -0.5125289 0.14186126 0.74715066 0.40811068 0.47473437 0.55580527 0.3644588 0.84546685 -0.5410928 0.4531724 0.64114845 0.31074744 0.57406986 0.9302934
47 0.38618934 -0.41243434 -0.36417085 -0.262147 -0.6017223 -0.084473364 -0.95633304 0.5697471 -0.6339904 0.5766911 -0.5847906 0.046594825 -0.672325 -0.5908209 -0.6819859 -0.21589726 -0.25926986 0.6423332 0.733019 0.78865695 -0.25926596 -0.3579375 0.029823776 -0.8439754 0.0244434 0.3625915 0.81064373 0.38926178 -0.8181443 -0.7522213 -0.98105407 -0.3032114 -0.5550405 -0.6002162 -0.88314486 -0.7886308 0.08109671 0.5047103 0.65838796 -0.49187416 0.5509175 -0.9724357 -0.0053349882 0.1423791 -0.5568595 0.05683381 0.14927167 -0.46536565 -0.5803472 -0.56592834 -0.009666607 -0.5924938 0.5347599 0.29097575 0.58861536 0.42866716 -0.26667276 -0.2750244 -0.85288006 0.9872925 0.60352814 -0.926306 -0.7152523 0.47879237 -0.2979075 0.92583513 0.61792046 -0.6550315 -0.12617445 0.25217766 -0.43441248 -0.94382143 -0.84603924 0.9732809 -0.2348558 -0.00046224892 -0.278565 0.84486574 0.08780685 0.7140724 0.8406796 0.42404866 0.3631382 -0.497873 0.31406498 -0.93975025 -0.66414076 -0.058340535 -0.0478179 -0.91809946 0.14854522 0.62992465 -0.059429467 0.894609 -0.058421794 -0.26082954 0.9626223 0.57062256 0.47742918 0.30704796 -0.32914388 -0.5623627 0.6963778 -0.06647799 -0.57397324 0.6867884 0.8274146 -0.97521234 -0.58054435 -0.3657721 -0.9482021 0.385175 0.7306007 0.81799155 0.87993395 0.8214733 -0.25997 -0.29228678 -0.5913992 0.27207392 0.85095555 0.62539095 -0.19290006 0.62804765 -0.5055051 -0.2405605 0.47685248 -0.77040756 -0.19451271 -0.7090984 0.16168521 0.9685432 0.50121397 0.21333742 0.9092525 -0.11428592 0.56024456 -0.062297124 0.48223293 0.9169374 0.464361 -0.4730783 0.57866406 0.97278583 0.7602615 -0.28238246 -0.22809225 -0.35368073 0.83440727 0.7084053 0.7678648 0.39765775 -0.035194356 0.5851835 -0.14993322 -0.6998765 0.68463445 0.10692853 -0.6029578 0.07540544 0.78405476 0.4999552 -0.13002145 0.60565877 0.7182292 0.87485677 -0.6660992 0.43901035 0.4441274 0.4233122 0.87295955 0.6606516
48 0.091623485 -0.6940214 -0.41656756 -0.34724605 -0.3179196 0.114781864 -0.96293515 -0.057389345 -0.43823627 0.39506346 -0.67712736 -0.13827395 -0.7404082 -0.79503816 -0.45017403 -0.26570827 0.056540772 0.66980505 0.93767023 0.8552295 -0.35187885 -0.55604386 -0.45086595 -0.7412356 0.409249 0.66752446 0.8720213 -0.04315725 -0.71527374 -0.7509237 -0.99071366 -0.6887779 -0.4850915 -0.29968587 -0.8866404 -0.80900407 0.14921361 0.5511653 0.75050807 -0.80220705 0.33276322 -0.9547322 0.5092067 0.44382748 -0.74006027 0.2604008 0.28751656 -0.024180189 -0.46880215 -0.57547617 -0.03400199 -0.42073303 0.3025227 0.12435678 0.33071536 0.43038768 -0.14315754 -0.33868733 -0.554248 0.9485106 0.7686897 -0.8861283 -0.5275462 0.69297385 -0.13773854 0.79818344 0.5667771 -0.6980523 -0.11467588 -0.051364094 -0.25253272 -0.92220986 -0.9198079 0.9769365 -0.1777689 0.44970044 -0.289542 0.803798 0.0150594115 0.73264146 0.6132843 0.057232782 0.07034525 -0.5938904 0.22600389 -0.7449353 -0.7423791 0.08892902 -0.122389376 -0.8603638 0.26366532 0.9161637 0.19341731 0.77837324 -0.2280179 -0.47515452 0.9270407 0.40187204 0.49328586 0.10480076 -0.08283362 -0.4351037 0.80304986 -0.113239594 -0.23379585 0.5142769 0.6106416 -0.98690546 -0.63791144 -0.2565427 -0.9628857 0.37761974 0.62498146 0.6673793 0.86504257 0.7046123 -0.5262783 -0.029601261 -0.32602513 0.43877164 0.8650112 0.59846395 -0.14893329 0.6910806 -0.38677698 -0.20867883 0.2862292 -0.7256591 -0.53590184 -0.7597072 -0.008576691 0.9398346 0.23056914 0.33590338 0.858198 0.38035184 0.08279765 -0.0514995 0.056448273 0.90166223 0.4181134 -0.48741502 0.54213506 0.9275603 0.8091604 0.09900328 -0.51976705 -0.35529932 0.7517263 0.70000565 0.609458 0.35118014 0.034379758 0.30577534 -0.03102824 -0.057948492 0.856071 0.13000852 -0.48885572 -0.6424736 0.75709826 0.3129554 0.6264431 0.39802116 0.25749832 0.8888035 -0.4624928 0.3812507 0.78065497 0.07622077 0.8200437 0.8693956
49 0.2428586 -0.6585476 -0.49973536 -0.04777406 -0.3633003 0.20764871 -0.9581605 -0.19824833 -0.59870154 0.20619652 -0.6721966 -0.039326787 -0.4362282 -0.6889125 -0.81231636 -0.070299745 0.0389711 0.592363 0.9235354 0.8482407 -0.15270449 -0.56725 -0.3036444 -0.70811284 0.09452672 0.63839114 0.68613726 0.02499514 -0.7733511 -0.575775 -0.979051 -0.49597833 -0.5599419 -0.5918832 -0.9113087 -0.8655879 -0.11934417 0.30013925 0.46088368 -0.6125153 0.4776925 -0.95860815 0.38686672 -0.016488701 -0.6563303 0.19880986 0.540702 0.36091298 -0.6537178 -0.7648481 -0.013240993 -0.40086222 -0.09149831 -0.21056476 0.27655727 0.19384642 -0.16073188 -0.036041796 -0.83228123 0.96915084 0.7060034 -0.8894338 -0.348188 0.7307502 -0.2467336 0.8750534 0.22676757 -0.6403768 0.0074210167 0.10409567 -0.4633088 -0.92859924 -0.7920107 0.9636893 -0.16246656 0.49831975 -0.25672066 0.7764422 -0.0031277537 0.6719247 0.7303198 0.5619635 0.25898638 -0.56538093 0.08902717 -0.8997788 -0.5287817 0.12682408 0.013239861 -0.9168282 0.51958674 0.5253321 -0.019757569 0.9191852 0.02984159 -0.46741688 0.8570312 0.5825231 0.5192059 0.24938135 -0.390253 -0.50020564 0.7703657 -0.34509104 -0.3616792 0.36507648 0.84095544 -0.9809531 -0.52970564 -0.14533867 -0.9377648 0.33262992 0.7052363 0.74704564 0.8167097 0.5215416 0.29546067 -0.101982 -0.4407509 0.36556077 0.80958647 0.5398513 -0.15119657 0.824065 -0.42175594 -0.44612035 0.45950747 -0.8022566 -0.6012311 -0.5528823 0.10266775 0.89969105 0.30479664 0.19358952 0.81519645 0.3244267 0.25421056 0.03868261 0.16531928 0.87661517 0.22835742 -0.591461 0.59374064 0.9696013 0.9005842 0.15902457 -0.6448559 -0.26320922 0.8258327 0.6668296 0.64298135 0.19924432 -0.102341875 0.587577 -0.31672257 -0.5572296 0.7947847 -0.12673901 -0.41821545 -0.7032971 0.8205747 0.4898061 0.42234918 0.5227829 0.6844535 0.8548692 -0.42786533 -0.26113042 0.4849814 0.21799874 0.7627366 0.9047662
50 -0.013240568 -0.8096549 -0.4953938 -0.21205503 -0.05037033 0.104384534 -0.94500136 -0.26969746 -0.16122639 0.000649333 -0.4506987 0.008289054 -0.44903374 -0.6898246 -0.4080043 -0.17408532 0.1784128 0.63456404 0.92313164 0.8912314 -0.46717018 -0.48452 -0.7417901 -0.8759545 0.20892073 0.20409377 0.7217366 0.010438543 -0.75611115 -0.57554185 -0.9531394 -0.43100142 -0.56331414 -0.6157701 -0.74266744 -0.81500065 0.10588184 0.4540176 0.67561847 0.14608367 0.41409743 -0.9597159 0.53298146 0.16237342 -0.2883673 0.46909767 -0.015729867 -0.26137355 -0.52274865 -0.6982139 -0.0058489516 -0.40566579 0.32201213 0.08090064 0.31062126 0.35532758 0.04511983 -0.5106149 -0.70402145 0.99208766 0.52637005 -0.90590006 -0.5697882 0.22778407 -0.0029353276 0.86439276 0.30783206 -0.778089 -0.010105118 0.112260595 -0.5297429 -0.9521968 -0.85411364 0.9719011 -0.048879743 0.49961686 -0.33551115 0.88615066 -0.090233624 0.7183641 0.8426341 0.6006597 0.3214412 -0.38483152 0.29470482 -0.83630264 -0.61972654 -0.017999262 -0.13445507 -0.70516443 0.25945872 0.73293155 -0.13308883 0.86020416 -0.14188772 -0.33081 0.9444879 0.6207615 0.49003428 0.5836471 0.036616582 -0.5331705 0.34447566 -0.41681415 -0.4358788 0.39848426 0.8064572 -0.9762207 -0.53477734 -0.30476543 -0.9548587 0.6320161 0.84416556 0.80206233 0.8725428 0.877504 -0.41027766 -0.059056878 -0.6589427 0.0390829 0.776167 -0.24612893 -0.23748052 0.751951 -0.5417239 0.06982303 0.16380514 -0.74702054 -0.5336944 -0.7980868 0.00665091 0.9292 0.46549928 0.025574498 0.6687327 0.5105895 0.22866997 -0.08024892 0.58854806 0.92574537 0.28614536 -0.66335917 0.5733415 0.9173857 0.94308347 -0.0047759265 -0.51066357 -0.2443893 0.8553179 0.48242927 0.7039807 0.1357924 -0.07148029 0.66352725 -0.17309143 -0.33859318 0.84072065 0.23198438 -0.5473018 -0.5349425 0.93714595 0.6092754 0.20772333 0.5887372 0.56736034 0.8782396 -0.6266922 0.39793867 0.7750088 0.4261337 0.8229861 0.84122044
51 0.18548244 -0.5334829 -0.56682295 -0.3465026 -0.22846372 0.38411772 -0.92115104 0.16120444 -0.35234314 0.44011787 -0.49405175 -0.07232748 -0.28688186 -0.76446944 -0.4131793 -0.16374281 -0.07834762 0.6695908 0.93484026 0.8803505 -0.3936234 -0.5517172 -0.508186 -0.904099 0.47428444 0.5283552 0.8423559 -0.09334558 -0.75723207 -0.4376948 -0.9819233 -0.6142776 -0.61609614 -0.54104143 -0.82168573 -0.82149065 -0.053957626 0.4714163 0.49436927 -0.8008316 0.32049248 -0.95629376 0.33504918 0.07344762 -0.67149234 0.25782442 0.010375708 -0.07156634 -0.42776585 -0.65430313 -0.11603001 -0.4298107 0.30152455 0.1773419 0.4864736 -0.058952726 -0.32274038 -0.20587274 -0.7177854 0.97418624 0.6024732 -0.9203065 -0.005460784 0.7874923 -0.096823156 0.78462344 0.39298084 -0.3269074 -0.19431093 0.07866496 -0.48135895 -0.9254347 -0.9444174 0.97779614 0.030218571 0.5779411 -0.3608666 0.6835476 0.13949104 0.7870254 0.64942265 0.23334461 0.37442592 -0.43265736 0.22232333 -0.78734815 -0.7436275 -0.08980915 -0.07336165 -0.87805897 0.5199227 0.869851 0.04484752 0.85214776 0.068192855 -0.303843 0.93619263 0.12762576 0.55971915 0.09086862 -0.02445151 -0.44811547 0.5779726 -0.34270808 -0.28817296 0.60449696 0.7927366 -0.96372885 -0.6898909 -0.3738847 -0.96314895 0.43499315 0.64814276 0.80816436 0.8805171 0.48606178 -0.22476122 -0.10351741 -0.052329145 0.2004793 0.8467939 0.38337326 -0.13605835 0.78602636 -0.4492677 -0.22849722 0.31450737 -0.7222828 -0.1690768 -0.77883875 -0.084417135 0.95827484 0.3682255 0.5707152 0.89457697 0.6336908 0.69026077 -0.105666995 0.25160804 0.77191615 0.23801714 -0.52700347 0.52520984 0.9633054 0.73603606 0.08094715 -0.40231666 -0.46642673 0.90202695 0.67869794 0.5031871 0.13979924 0.22580805 0.6572263 -0.50427794 -0.2487508 0.8057265 0.04122832 -0.35812917 -0.6953537 0.8388194 0.58516455 0.31134933 0.52453965 0.35612988 0.7999355 -0.6014355 0.22220291 0.68935186 0.16814044 0.8247242 0.7453431
