184 172
0 -0.02622707 0.0736085 0.0568407 -0.05930139 -0.11489686 -0.06684117 -0.08083144 -0.084306 0.024301162 -0.10783163 0.010286536 -0.06558474 0.063432485 -0.05219869 0.10883686 -0.10476382 0.10458548 -0.07682749 0.071288325 -0.07771503 -0.028688941 0.06332431 -0.09764695 0.0012694995 0.040545188 -0.09178769 -0.06219627 0.087638184 -0.03957467 -0.05647208 0.06411621 -0.08091988 -0.041731086 -0.011298344 0.005566776 -0.01609186 -0.06792328 -0.096881114 -0.11499946 0.106472924 -0.052958634 -0.0009047054 -0.066225216 0.03241481 0.08016428 -0.12164314 0.15902933 -0.061009794 -0.061886072 0.058606464 0.029888857 -0.12096854 0.05540722 0.09187381 -0.10530698 0.077229194 -0.06255151 0.07836157 -0.05917273 0.042789042 -0.051404417 0.09061964 0.028347421 0.066737354 -0.04965422 0.14309825 -0.099095166 0.12354615 -0.0053616986 0.0986011 0.031288147 -0.1260644 0.06303628 0.04337724 0.031414248 -0.0503635 -0.11651122 0.039129145 -0.008367375 0.06274836 -0.0786473 0.035875514 -0.07076901 0.04804813 -0.05745463 -0.015171889 0.06285928 -0.08427288 -0.12136742 0.14333484 0.069887295 0.08023542 -0.077624634 0.045244075 -0.054861803 0.05348518 0.07219851 0.0368273 -0.051074013 -0.072557926 0.0034527741 -0.12008458 -0.08366106 -0.09836249 -0.06564667 -0.032410026 0.062181693 -0.059076115 0.11411442 -0.038539395 -0.07606807 -0.059601378 0.051857553 -0.047464795 -0.0137013905 -0.080740795 0.054170422 -0.105720475 -0.05246361 0.12188022 0.019139031 0.03135775 -0.042642668 0.04113239 0.033154912 -0.09861538 -0.037540086 0.05429682 0.07389785 -0.028822333 0.05175015 -0.15959188 -0.054796763 -0.053424336 -0.124356605 0.049927924 0.02937115 0.113502026 0.019115739 0.029729769 -0.08730434 0.0016744602 -0.031775326 -0.040103596 -0.09990227 0.010981455 -0.0012560971 0.08158867 0.047842108 0.09672141 0.11261828 0.051027425 -0.07320194 -0.042952165 0.028189443 0.088670105 -0.03885094 0.12851775 -0.124625914 0.08211544 -0.062238462 0.12373176 0.16494471 0.026963182 -0.056732584 0.05628346 7.658079e-05 -0.10652189 -0.094580926 0.0873466 0.08639455 0.027300555
1 0.1385038 0.014830247 -0.020252004 -0.02185338 0.014971986 0.016242534 -0.0125113055 -0.056976918 -0.062894136 0.09701541 -0.014664242 0.115467064 0.036156252 -0.020751916 0.00038991868 -0.05543653 0.019147988 -0.11080939 0.04057111 -0.026883777 -0.0393248 0.042581245 -0.067808636 -0.005801562 0.03787259 -0.07694334 -0.07650477 0.030327484 -0.05885119 -0.059126858 0.06316583 -0.0047482215 -0.032740735 0.009961704 0.044104725 0.08539623 -0.013353508 -0.019501641 0.058539033 -0.07376882 -0.07093419 -0.02689369 -0.033859238 0.015973456 0.043308772 -0.027300432 -0.021485057 -0.04177295 -0.07185071 0.030377924 -0.09556052 -0.0023657307 0.014875144 0.030172251 -0.07776864 0.029679127 -0.026996177 0.00781779 -0.04336597 0.032944586 -0.07933715 -0.01094228 0.056730837 0.02147964 -0.081677355 0.005680777 0.023992456 0.046901517 -0.114523165 0.03827939 -0.12576458 -0.007208213 0.026994757 0.029086206 0.046622537 -0.095484205 -0.004949093 -0.13003288 0.011930309 0.03772638 -0.051766183 0.051908523 -0.08032287 -0.008180052 -0.0025870316 0.06806952 0.012552973 -0.039782017 -0.02233544 0.055564627 0.04320092 0.058637165 -0.05974014 0.04262177 -0.04870198 0.08452588 0.052064724 0.026329003 -0.092376605 -0.027690738 -0.075868696 0.014611494 -0.005093772 0.0045643747 0.05606873 -0.028784119 0.028486043 -0.011127239 0.022931859 0.009798955 -0.10348712 -0.051192462 0.044587374 -0.047942445 -0.06095428 -0.025626011 0.019328319 0.057998616 -0.047447294 0.010249175 0.039571323 0.026601568 -0.03823244 0.08766675 0.03387882 -0.074439995 -0.053995464 0.027018055 0.011337284 -0.070097834 0.028606076 0.06872589 -0.0038144663 -0.06740864 -0.0027904809 -0.03324126 -0.05003765 0.017118718 0.054565337 0.013997264 0.0055543184 0.039722435 -0.029121757 -0.064192645 0.051147506 0.0220142 -0.028493073 -0.0045360997 0.033740416 -0.028649256 0.016369082 0.020379595 -0.014107611 -0.052095305 0.053785264 0.012005307 -0.049350858 0.0120504685 0.0702949 0.012994286 -0.014482338 -0.0028540902 0.013596348 -0.0045730993 -0.092898294 0.0062672906 0.07064618 0.064375795 -0.02091594 0.044475086 -0.027032237 0.038706042
2 0.061864592 -0.080496855 -0.09798793 0.06470358 0.11555034 0.11154171 0.11111262 0.070345774 -0.011564145 0.08086539 -0.052006997 0.06034681 -0.09466673 0.08637566 -0.13058177 0.087595746 -0.11078072 0.03860072 -0.09496954 0.10345085 0.05313856 -0.068035826 0.077094726 -0.014683635 -0.08747482 0.09948723 0.0648753 -0.12682016 0.04723486 0.061893962 -0.03812107 0.118572176 0.042919006 0.029277006 -0.042051125 -0.0019578608 0.091598116 0.13025871 0.08086301 -0.049019475 0.06905148 0.03266323 0.06728877 -0.058394283 -0.08083809 0.10921988 -0.18405497 0.048387222 0.04804287 -0.08010624 -0.013234245 0.098900914 -0.09743606 -0.06353846 0.06532196 -0.103978954 0.05994044 -0.07036443 0.08943479 -0.070990674 0.05699343 -0.088740684 -0.054360535 -0.082715645 0.013587442 -0.12828769 0.119892366 -0.08329881 -0.0026863061 -0.122649245 -0.03368964 0.14583367 -0.080933996 -0.09286885 -0.04885257 0.05448732 0.11303347 -0.080596745 -0.0493333 -0.08214376 0.07112949 -0.067231305 0.053337563 -0.10848637 0.08777498 -0.026439685 -0.07284127 0.08876027 0.12113134 -0.12564158 -0.10016911 -0.064623065 0.09095155 -0.069668636 0.0578108 -0.06537615 -0.08758956 -0.06976649 0.045570415 0.11459342 0.047248513 0.11342557 0.09609399 0.114334114 0.15109716 0.07964578 -0.08551818 0.07380439 -0.134902 0.062095627 0.055769533 0.09070161 0.018897481 0.038554914 0.019865561 0.10780646 -0.08938162 0.10271317 0.05951955 -0.12433881 -0.045337502 -0.0577754 0.03652861 0.0017088933 -0.080540724 0.07401112 0.059246447 -0.10842152 -0.10236637 -0.04755643 -0.084660955 0.09417959 -0.02162948 0.061582495 0.1388598 -0.030753966 0.005750864 -0.1038394 -0.047063798 -0.07984422 0.13967986 -0.0046862583 0.035258643 0.06107933 0.15958399 0.029521337 0.011073548 -0.10526003 -0.08624176 -0.10926056 -0.12144921 -0.09928587 0.09559814 0.046854876 -0.05854889 -0.08726545 0.05856064 -0.10187061 0.107687 -0.10552743 0.0722776 -0.13076288 -0.12933214 -0.07647492 0.04868565 -0.08049523 -0.01728182 0.055612706 0.09550628 -0.07385734 -0.11078491 -0.052027173
3 -0.029899908 -0.12265654 -0.13186501 0.08110404 0.10155664 0.121070005 0.13051413 0.10366318 0.036649834 -0.05448781 -0.09792207 -0.11965021 -0.13197118 0.12758976 -0.17915107 0.15440881 -0.137559 0.13468757 -0.14483026 0.13539451 0.13862927 -0.15747064 0.18100286 0.0361628 -0.15218396 0.15675877 0.15285611 -0.16067082 0.11877079 0.15016967 -0.122076094 0.13263237 0.09324517 0.06397895 -0.13732612 -0.123025395 0.09519348 0.12914623 -0.05200966 0.07658843 0.14818959 0.09495288 0.16681056 -0.0883183 -0.14789395 0.09875716 -0.20078626 0.082259215 0.15862396 -0.15531498 0.11852023 0.11997691 -0.13438816 -0.14314012 0.104824595 -0.14849694 0.10149742 -0.10345154 0.13444085 -0.14096788 0.14426313 -0.055515412 -0.18334663 -0.10758959 0.13642024 -0.13015786 0.14149451 -0.100392655 0.12549604 -0.18681538 0.076472454 0.16886654 -0.179856 -0.13734052 -0.09755693 0.15710552 0.08859139 0.06784186 -0.08283515 -0.1747118 0.14002918 -0.15631375 0.11501901 -0.17117085 0.12784837 -0.137904 -0.06485033 0.14248365 0.12321949 -0.14931753 -0.09742184 -0.12821358 0.119019434 -0.13949412 0.15274712 -0.2149964 -0.1538709 -0.08423427 0.18526027 0.17961733 0.13416976 0.08984968 0.06488696 0.084044814 0.11920363 0.12786612 -0.16634472 0.09755795 -0.14511135 0.08622531 0.11519979 0.14196846 0.0122707365 0.12958992 0.15992361 0.11549798 -0.13576528 0.032120384 0.20077969 -0.14073555 -0.15586388 -0.118111044 0.04941954 -0.092211954 -0.16255593 0.11041415 0.1137137 -0.1399389 -0.09927179 -0.07004834 -0.105514444 -0.0072802156 -0.0951407 0.15955147 0.15076604 0.021509498 0.14103287 -0.10189545 -0.09213925 -0.089949265 0.14344245 -0.09915428 0.14946812 0.13841781 0.107081115 0.022472776 0.09846517 -0.14086959 -0.16864492 -0.09626377 -0.16210407 -0.13298936 0.089785665 0.10576424 -0.16572951 -0.1224165 0.11350939 -0.1647538 -0.019433375 -0.102040306 0.1396534 -0.17067455 -0.15210733 -0.11288615 0.17237505 -0.12264626 -0.09005916 -0.10351301 0.15603843 -0.15892859 -0.09281523 -0.10999082
4 0.10127346 -0.03468658 -0.053203717 0.013031755 0.03423812 0.05049641 0.030064825 -0.011659922 -0.038941827 0.04304303 -0.04109828 0.044686284 -0.013056591 0.01740006 -0.04814919 0.00378941 -0.026827233 -0.04668171 -0.011660395 0.013335148 0.0127417 -0.01976947 0.002480816 0.007973041 -0.01574405 -0.01963307 -0.015088282 -0.017313972 -0.012560399 2.7397648e-05 0.021297015 0.026895959 -0.0056744693 0.030134972 -0.017264947 0.023738824 0.0076194163 0.00915374 0.0049286196 -0.014162386 -0.014369873 0.0092349425 0.020981262 -0.026596215 -0.0076873247 0.0031386102 -0.06276184 -0.0058495402 -0.013254469 -0.021409724 -0.03282111 0.022984322 -0.01808824 -0.02289046 -0.034690544 -0.010922655 0.009054068 -0.031396095 0.009931564 -0.012483703 -0.020431219 -0.02911682 -0.01647945 -0.016793117 -0.022640783 -0.02841559 0.055886716 0.000580512 -0.049621455 -0.02246916 -0.07253231 0.038794525 -0.029441483 -0.01415582 0.010428768 -0.031224262 0.030492648 -0.07336433 -0.021723192 -0.025640143 -0.010153692 -0.0068300217 -0.025417946 -0.058867432 0.026926734 0.007068736 -0.007324836 -0.00046469364 0.017050683 0.00014695153 0.009550773 0.012050063 -0.019302484 -0.014389074 -0.0002972586 -0.0013856539 0.0016151741 0.004553348 -0.023808427 0.03117346 -0.021165866 0.03356447 0.014630608 0.025594123 0.07463823 0.0077227056 -0.025240265 0.006657075 -0.015077323 0.035448115 -0.051790997 -0.005997658 0.034109086 7.60518e-06 0.0035000239 0.01872643 -0.029353742 0.046603348 0.022054972 -0.03686753 -0.018332474 -0.024343364 -0.026206337 0.035178814 -0.018615074 -0.022723079 -0.0036190674 -0.015636556 -0.02064271 -0.08665669 -0.014777629 0.034387305 -0.03589366 -0.003999699 0.040812105 -0.00785293 0.013273621 -0.017509222 0.009803511 -0.021776024 0.05359108 5.305186e-05 0.018498754 -0.0107630035 0.0636081 0.028728755 0.015379482 -0.03960697 -0.015673917 -0.049701583 -0.025397345 -0.02455185 0.009114716 -0.006210546 -0.006788116 -0.028835481 -0.0031490684 -0.03252026 0.02864783 -0.016462801 0.026540551 -0.04659951 -0.029653959 -0.04071334 -0.023005735 -0.027761057 0.018699829 0.0032235007 0.035485663 -0.0077538453 -0.04877289 -0.0031760382
5 0.15187624 -0.065718964 -0.098485425 0.030639134 0.08826995 0.09087073 0.06922994 0.006059669 -0.065958105 0.10451622 -0.06803157 0.081086874 -0.035315618 0.044533174 -0.11479922 0.045574233 -0.0672342 -0.03289946 -0.03716216 0.051104844 0.032875918 -0.052226506 0.046573527 0.021417305 -0.036307782 0.006469205 0.0029879734 -0.05027003 -0.0055953413 0.020904459 -0.008926429 0.070350595 0.011972394 0.043813325 -0.018987078 0.0397645 0.044589072 0.048398286 0.066558175 -0.07394455 -0.0009795874 0.010632228 0.068144105 -0.029217038 -0.05189406 0.043543752 -0.160113 0.00790754 0.021605298 -0.05500912 -0.05782023 0.09354897 -0.046264462 -0.07382033 -0.015096083 -0.05216717 0.036984514 -0.06594171 0.022044975 -0.040760208 -0.0051275566 -0.05543735 -0.040466398 -0.041151784 0.0025784932 -0.093490094 0.12555562 -0.03151007 -0.066046484 -0.07288834 -0.1149197 0.102870375 -0.079713 -0.03132563 0.0046339035 -0.024101779 0.06317113 -0.11120884 -0.0202812 -0.059947435 0.02634573 -0.019946624 -0.019010514 -0.10561156 0.070751205 0.017743856 -0.027346443 0.04008653 0.065496825 -0.0402276 0.0030623823 -0.020736884 -0.00029521435 -0.03290086 0.04001098 -0.020943701 -0.026345544 -0.005929332 0.004046373 0.07498694 -0.035008304 0.08927148 0.042930517 0.063648745 0.12449004 0.025370173 -0.06695677 0.043516297 -0.06607928 0.06045982 -0.04676964 0.011482641 0.03174381 0.02595007 0.022005472 0.03439271 -0.051753804 0.10338022 0.070926964 -0.09140773 -0.037988722 -0.03517833 -0.02077058 0.03615603 -0.043687183 -0.010868251 0.00020422786 -0.030597143 -0.047274888 -0.10812216 -0.018944748 0.12484461 -0.027966686 0.01408761 0.104177505 -0.04393789 0.0137076415 -0.053435404 0.020423561 -0.022624139 0.08827032 -0.0102347825 0.054693952 -0.0039399713 0.11702219 0.027936757 0.024279632 -0.09866256 -0.054495797 -0.101341456 -0.085548565 -0.04069656 0.03467576 0.002207484 -0.024256498 -0.06947603 0.0019684993 -0.110805556 0.08968966 -0.047453053 0.075204656 -0.12014833 -0.11018861 -0.06409897 -0.00037412345 -0.059463814 0.04098051 0.043360755 0.08278649 -0.05902178 -0.09079261 -0.011920389
6 0.100418545 0.010899536 -0.025365386 -0.01737307 0.015021287 0.016864087 -0.0057710744 -0.037111066 -0.044542413 0.06361377 -0.019036056 0.072441876 0.023737352 -0.008510156 -0.00850003 -0.03777362 0.009331342 -0.077164926 0.020348962 -0.011683062 -0.019831415 0.024130771 -0.044730604 -0.0027274196 0.016222809 -0.04771885 -0.044609025 0.01137029 -0.034487464 -0.035632215 0.037376575 0.0039864816 -0.015273264 0.015530221 0.023318509 0.05367191 -0.0045754574 -0.0077065304 0.038811095 -0.049043473 -0.04281116 -0.012200178 -0.014861908 0.010348987 0.02367245 -0.020754084 -0.025047831 -0.02997946 -0.043082498 0.012152337 -0.061863296 0.0018208921 -0.000304427 0.01902999 -0.053999204 0.01248017 -0.012401491 0.0052745715 -0.02852353 0.013790537 -0.05008074 -0.0039233826 0.03239484 0.012561545 -0.053426962 0.0017785653 0.024802126 0.03749638 -0.07458273 0.017562166 -0.08645107 0.00024459884 0.0058719534 0.012929797 0.027291397 -0.06058428 -0.0082094 -0.09115197 0.003315987 0.018191144 -0.02749363 0.026244035 -0.053624827 -0.017506003 0.010631656 0.038015097 0.0083460715 -0.018930774 -0.014232703 0.03914143 0.028700046 0.03766729 -0.036927633 0.026453033 -0.026371116 0.045464985 0.029953182 0.010288887 -0.056197304 -0.009826049 -0.04775153 0.010788627 -0.005295843 0.002707988 0.04851766 -0.009338617 0.009286761 0.002623368 0.010545507 0.010642303 -0.06990316 -0.029270094 0.04013296 -0.02770548 -0.034340277 -0.01399271 0.008043898 0.040602397 -0.02051703 0.0059289485 0.017017893 0.01618666 -0.02232932 0.06010387 0.011188488 -0.052849412 -0.033626955 0.010296216 0.0032116957 -0.05727975 0.017337877 0.04206545 -0.012738157 -0.039160445 0.00047836453 -0.022120051 -0.023248142 0.01580356 0.03563231 0.008223223 0.009675086 0.022328384 -0.008453639 -0.038882926 0.04047767 0.016182534 -0.01613569 -0.012755342 0.012346461 -0.024176061 0.0037412047 0.0032534115 -0.0045076516 -0.033967618 0.025353085 0.0037923418 -0.030589286 0.0016981997 0.049435515 0.005007416 -0.0020105634 -0.009568833 0.00762197 -0.010781109 -0.056985173 -0.002401203 0.047153834 0.03570962 -0.010664269 0.021742374 -0.023678742 0.02280825
7 0.05292788 0.04866089 0.007859651 -0.04364354 -0.03900584 -0.020254368 -0.03854853 -0.06611552 -0.018738171 0.0058371723 -0.008986831 0.026417146 0.043636955 -0.025154501 0.03874153 -0.07177916 0.05783468 -0.07890507 0.04846273 -0.034537654 -0.023466088 0.046715558 -0.07236923 0.004007782 0.028460514 -0.07026164 -0.056160327 0.04860955 -0.045317233 -0.050712377 0.045105286 -0.02586839 -0.027061779 -0.00041315658 0.026764864 0.033524435 -0.021647716 -0.04135789 0.0027131643 -0.005343633 -0.053217802 -0.016512007 -0.034538366 0.036954634 0.042305924 -0.06568134 0.039671827 -0.04978141 -0.046488993 0.029771011 -0.033471983 -0.035571635 0.022231296 0.050849084 -0.084808975 0.032972228 -0.03919261 0.044327825 -0.050260667 0.023020767 -0.049598716 0.044495657 0.037611477 0.043250322 -0.048139784 0.057336777 -0.02030595 0.08582601 -0.05449625 0.051754497 -0.047173128 -0.05052806 0.026735952 0.027242955 0.031915925 -0.061956204 -0.070517994 -0.04586738 0.0026515368 0.042236216 -0.043864243 0.03830448 -0.0735145 0.008690484 -0.009193787 0.02718953 0.03485588 -0.040409062 -0.060053885 0.09066786 0.05380068 0.052730236 -0.0559007 0.042402856 -0.026217805 0.06385716 0.04977268 0.022089064 -0.05055004 -0.033800606 -0.031200396 -0.043651465 -0.03925953 -0.038449015 0.0035360008 -0.014803991 0.032882415 -0.009279715 0.049952235 -0.0140463775 -0.076419264 -0.04505892 0.048779756 -0.03763043 -0.028322738 -0.05666289 0.03504121 -0.014023935 -0.032281056 0.06030356 0.022809003 0.033209648 -0.031305857 0.064913474 0.019824134 -0.08983292 -0.044617824 0.035266355 0.036076866 -0.041808583 0.049594354 -0.018341718 -0.023708694 -0.05300715 -0.05036224 -0.008121876 -0.00853665 0.06489493 0.042421777 0.029082324 -0.043984834 0.014149009 -0.014293252 -0.045699447 -0.01680315 0.013849899 -0.013905141 0.016846998 0.018680166 0.025904788 0.043306824 0.03292457 -0.034574658 -0.047652468 0.03160742 0.043666624 -0.04129532 0.046398364 -0.009093497 0.038286533 -0.020049915 0.038767688 0.06852555 0.008180875 -0.05668842 0.021663213 0.04298073 -0.009648433 -0.0530767 0.045760095 0.028097589 0.026912522
8 0.04734443 0.052335806 0.031619214 -0.05940833 -0.102960385 -0.056695033 -0.09054904 -0.09848637 -0.015990738 -0.085386544 -0.008643046 -0.04602111 0.08170213 -0.06497866 0.09806147 -0.11428456 0.09391528 -0.12139563 0.081119224 -0.09897727 -0.031892516 0.052895486 -0.1043161 0.0158639 0.05622698 -0.1361053 -0.085392 0.102953956 -0.05290693 -0.06544492 0.084613465 -0.09496282 -0.047859482 0.021948677 -0.004844554 0.0051726494 -0.09931011 -0.12978551 -0.144045 0.100043274 -0.08199443 0.0010028891 -0.058989055 0.013333529 0.09555678 -0.14130884 0.15247467 -0.066683576 -0.08612304 0.056757577 0.00571819 -0.1229344 0.065074176 0.0727998 -0.13404647 0.102064006 -0.06122602 0.051849812 -0.07147263 0.05298366 -0.088688895 0.07262592 0.027880196 0.06859512 -0.065927014 0.14053833 -0.08265033 0.123600565 -0.04326889 0.11193003 -0.028064094 -0.1287005 0.053779528 0.062243007 0.053188592 -0.08974711 -0.10178988 0.0028774366 -0.003770195 0.053193226 -0.100517824 0.041408323 -0.089873396 0.031535864 -0.06056343 -0.0019133277 0.07416914 -0.1062139 -0.13534155 0.16022038 0.10665989 0.10571097 -0.12352728 0.051020168 -0.07972041 0.04833196 0.094382435 0.06209036 -0.08450897 -0.08359459 -0.039909676 -0.111705676 -0.099651724 -0.10686139 -0.056961596 -0.053733874 0.058814913 -0.07657173 0.14104477 -0.019363537 -0.13195063 -0.09074403 0.06053937 -0.048906695 -0.011077128 -0.08031104 0.04682427 -0.08421507 -0.04464471 0.11465404 0.010776535 0.018802717 -0.06792024 0.0495827 0.04431417 -0.11629443 -0.054380357 0.068608604 0.08309305 -0.087258086 0.04975328 -0.1493876 -0.07349363 -0.06347612 -0.12739858 0.058955275 0.038867626 0.11151874 0.03923156 0.033987477 -0.07022234 2.0340085e-05 -0.015239019 -0.06180412 -0.09247365 0.02204261 0.01570287 0.079597816 0.06850622 0.073987514 0.11951127 0.046878025 -0.090522386 -0.054940213 0.032918114 0.0710102 -0.05246766 0.11402956 -0.12515745 0.09643687 -0.059964724 0.10837227 0.15683112 0.015631184 -0.087258905 0.046364155 0.014183596 -0.11377792 -0.07398859 0.09256521 0.06316142 0.038872033
9 0.01374761 -0.005090844 -0.021916188 -0.019023154 -0.043428168 0.0071603395 -0.014339678 -0.043178163 0.009711257 -0.08085148 -0.044062477 -0.09282103 0.0076355785 0.006314378 -0.009288959 -0.020459447 0.02951517 -0.025907233 0.0050779954 -0.01262546 0.03372308 -0.021598592 0.005592048 0.03230981 -0.019908011 -0.032911472 -0.004862301 0.012520157 0.0036455877 0.01676362 -0.00049339235 -0.0135769695 0.0012788828 0.026694695 -0.050034635 -0.047402345 -0.023871005 -0.040028855 -0.112742916 0.096990615 3.8817525e-06 0.03606651 0.034725726 -0.009909304 0.0026286803 -0.06866301 0.021223478 -0.025138745 0.014380775 -0.025442652 0.053682774 -0.028888423 -0.006872561 -0.0092658475 -0.05909348 0.004505925 -0.00585331 0.0034747906 -0.0074295253 -0.022217236 5.2668154e-05 0.04384961 -0.05885785 0.012990132 0.017672304 0.05271159 0.0037577897 0.06485847 0.026149165 0.0014041401 0.017130956 -0.02456462 -0.040800117 -0.015254095 -0.001894854 0.0038536787 -0.058325775 0.03820292 -0.028600428 -0.033363745 -0.0049135536 -0.03305541 -0.029803656 -0.048942175 0.010094367 -0.055520155 0.035064004 -0.009563651 -0.052554373 0.06616642 0.046452567 0.015456624 -0.03767004 -0.01678636 0.030844465 -0.045304563 0.001609996 0.014932621 0.03350112 0.016899843 0.03095742 -0.048752815 -0.054207645 -0.050253138 0.0064063556 0.0133738 -0.02686733 -0.009399574 0.042448275 0.019605 -0.050274923 -0.005085297 0.04896784 0.026816215 0.06977936 -0.033336274 -0.009538263 -0.054380625 0.06607983 0.030170288 -0.05721071 -0.028485002 -0.033392064 0.0038458966 -0.041118346 -0.05631819 -0.0010664165 0.0003387332 0.030256588 -0.08200381 0.015710354 -0.10220641 -0.093132116 0.01859609 -0.029250845 0.038909517 0.09144154 0.050199125 -0.0014551729 -0.0016480088 -0.012584642 -0.04786571 0.061362084 0.008820925 -0.031353857 0.019902453 0.05170791 -0.005326666 -0.032119334 0.02146668 0.012512315 -0.00031058118 -0.033441544 0.0027447604 -0.0452219 0.007424034 0.00062051415 0.004343711 -0.100806944 0.034035765 0.022538438 0.009855431 0.052927196 -0.032284334 0.014561292 -0.010161892 -0.015263636 -0.13125487 0.004284121 -0.00602958 0.025095973 -0.015335105
10 0.040064964 -0.01625409 -0.036894694 0.007711783 0.029159263 0.034038864 0.027023993 -0.00394246 -0.00828892 0.022717532 -0.029913496 0.015883774 -0.016631097 0.02659636 -0.041512787 0.012696743 -0.021614097 -0.016104817 -0.016500086 0.020702899 0.0151981115 -0.013718843 0.013340682 0.0018215938 -0.022789612 0.011876792 0.0043292046 -0.030048251 0.008717321 0.010997571 -0.003410235 0.032690167 0.011854142 0.0127470065 -0.009808503 0.0013604909 0.02166757 0.03193473 0.011191203 -0.004553959 0.013198212 0.017580122 0.024323955 -0.009668343 -0.013194248 0.012816951 -0.05422777 -0.0005556494 0.011255227 -0.019405238 -0.0057824403 0.021700524 -0.032985404 -0.012291878 -0.006062269 -0.02757743 0.011526898 -0.011971056 0.015755005 -0.02101574 0.0038369745 -0.008231454 -0.023633897 -0.017573453 -0.0045062974 -0.021461248 0.040381648 0.004197955 -0.013487212 -0.028385371 -0.023744397 0.03666866 -0.028829329 -0.025710449 -0.00723774 0.0054139644 0.012787461 -0.03412096 -0.016292073 -0.022385359 0.01351808 -0.016404748 -0.009421051 -0.042677984 0.03076955 -0.010448903 -0.012527682 0.020258807 0.01657784 -0.008005202 -0.013121925 -0.005753517 0.011364967 -0.016911566 0.017733715 -0.016730621 -0.021449037 -0.016338095 0.012179986 0.030904606 0.013186961 0.023181759 0.012370557 0.019390836 0.056240506 0.023627952 -0.028225936 0.018491693 -0.029499978 0.022769488 -0.011490136 0.022035472 0.031003635 0.009818338 0.01274097 0.0143466 -0.023824774 0.025497317 0.027331293 -0.023774669 -0.023215853 -0.012202747 0.0018595532 0.018626079 -0.028730735 -0.0050949454 0.0051176473 -0.028311037 -0.016410746 -0.042187385 -0.015399158 0.017736021 -0.030869646 0.009885259 0.033124357 -0.0072244965 0.011333756 -0.015038386 -0.0033152327 -0.017921627 0.031861424 -0.008160304 0.020188116 0.011499286 0.051827863 0.0115803145 0.0059870817 -0.032221958 -0.032382846 -0.02807337 -0.03207966 -0.021582708 0.017945126 0.0055870265 -0.019048378 -0.015036657 0.008191504 -0.026431851 0.02410525 -0.018709518 0.026266485 -0.034704477 -0.01984474 -0.027992584 0.0043510348 -0.02700273 0.007472053 -0.0018883143 0.020768799 -0.016232707 -0.030596226 -0.011391304
11 0.06897989 -0.017633192 -0.04963094 0.013298642 0.070548475 0.062407903 0.059777685 0.020103052 -0.028562332 0.09030399 -0.023269605 0.07610151 -0.028067708 0.03917187 -0.07761984 0.030806392 -0.04074213 0.0024080612 -0.03863301 0.056918744 0.011505071 -0.012780417 0.02108524 -0.010819916 -0.03728937 0.04552476 0.019964702 -0.057368748 -0.0003344044 0.012636051 -0.017590309 0.06562852 0.010754697 0.0010915641 0.016310114 0.03285949 0.06270518 0.070541896 0.11692493 -0.08785786 0.016259342 -0.005261909 0.030877516 0.0016687885 -0.044138383 0.056688383 -0.118021846 0.00094283 0.026597649 -0.031731218 -0.053147506 0.07242814 -0.044409227 -0.0249164 0.018644366 -0.058643572 0.033134878 -0.017795153 0.01665641 -0.027632479 0.020935152 -0.03032092 0.00012484565 -0.02875349 -0.0027451105 -0.07612018 0.08412493 -0.024433449 -0.03330502 -0.063195325 -0.05484369 0.078917146 -0.039578144 -0.035447575 -0.009757854 0.0062997863 0.038532197 -0.07905176 -0.0066235773 -0.022728391 0.037989814 -0.008643564 -0.002858188 -0.054058075 0.0605533 0.024017263 -0.032633252 0.052466035 0.067974426 -0.050035603 -0.033972718 -0.033237778 0.048229005 -0.014402822 0.04307712 0.0045587383 -0.031861383 -0.029584423 0.009289518 0.06069064 -0.011500813 0.06989004 0.05273231 0.06276514 0.09876941 0.0336668 -0.03577606 0.057118867 -0.07775182 0.024140563 0.015239187 0.028802272 0.015606534 0.008083999 -0.012008553 0.03330476 -0.025086336 0.07533125 0.027662799 -0.06518618 -0.008614384 0.0016563013 0.010967292 0.03231692 -0.036788326 0.00587184 0.0074926503 -0.034357302 -0.052400667 -0.01634163 -0.0068288967 0.115407944 0.018519241 0.007612042 0.08414727 -0.053929053 -0.017998854 -0.036768652 0.005219836 -0.015886836 0.053218007 0.013523507 0.010410024 0.0024908856 0.094637394 0.004602408 -0.020873526 -0.07354498 -0.048060633 -0.069205955 -0.073448315 -0.027824625 0.052703146 0.0048809983 -0.007623326 -0.036409244 0.0036799274 -0.06859626 0.10943114 -0.05563783 0.047919735 -0.071124315 -0.07834235 -0.03336663 0.013860274 -0.028631117 0.032474197 0.076022804 0.03315632 -0.045026265 -0.05922637 -0.0055964477
12 0.1411835 0.06313154 -0.0020086989 -0.05884088 0.02919934 -0.0047876164 -0.029237866 -0.073391065 -0.07806197 0.15582803 0.0059625544 0.15432532 0.07674739 -0.03135466 -0.0005236715 -0.071396776 0.044033855 -0.113840684 0.0594894 -0.03064128 -0.06610268 0.07932307 -0.08625206 -0.009041905 0.059385866 -0.07414984 -0.08435147 0.041017942 -0.07466596 -0.07956785 0.04402588 -0.0074443966 -0.028792886 -0.0145193525 0.1064207 0.11999217 0.00015415996 -0.011108436 0.15975645 -0.16294953 -0.08375702 -0.05417318 -0.03757334 0.07442506 0.046511248 -0.024513163 -0.035311148 -0.06744751 -0.055962294 0.048454806 -0.14132059 0.024991207 0.016415894 0.0434926 -0.0695438 0.023109183 -0.023915015 0.04250712 -0.08696 0.047533643 -0.08344318 0.02171237 0.0991504 0.045990363 -0.07818057 -0.0024230331 0.032632366 0.06927601 -0.13204375 0.048332475 -0.14731523 -0.014209464 0.03518945 0.050259486 0.059668235 -0.10248901 -0.046228185 -0.14525786 0.058812294 0.069679186 -0.031382747 0.084381044 -0.10687959 0.023377538 0.012750953 0.11478359 0.021844782 -0.01841797 -0.026057653 0.069230124 0.061750203 0.05016379 -0.0484397 0.08102733 -0.02696051 0.11914801 0.057851173 0.027753972 -0.08913569 -0.044886768 -0.114005044 0.020487972 -0.01578851 -0.00472562 0.04498227 -0.037802223 0.04466997 0.019249871 0.015683867 -0.01256305 -0.09638645 -0.06317406 0.03808882 -0.05384454 -0.08455438 -0.063313715 0.05782614 0.07470515 -0.051819194 0.027122155 0.05842996 0.08304679 -0.02296687 0.106553994 0.04564892 -0.10056748 -0.088225245 0.055405796 0.02748768 -0.015371874 0.08172766 0.15372075 0.04892096 -0.09146951 -0.006504029 -0.08066967 -0.08803694 0.039539583 0.09433007 0.06372092 -0.048697963 0.054035164 -0.032367513 -0.09052902 0.044512555 -0.012857474 -0.07054648 -0.012699157 0.03147617 -0.028068565 0.0015729219 0.059992224 -0.01155559 -0.07318261 0.07970159 0.031087525 -0.080608666 -0.0092128515 0.14228483 0.02078946 -0.0073737204 0.002511561 0.0028639138 0.025861174 -0.09279302 0.022743464 0.121362716 0.13215211 -0.054471508 0.031140164 -0.013609029 0.067242935
13 -0.029961593 -0.034964412 -0.03907147 0.0026138574 -0.026366528 0.025565729 0.014951542 -0.0032442063 0.030464018 -0.125119 -0.056412697 -0.15510808 -0.020271003 0.03242494 -0.04479225 0.028799042 -0.004666224 0.032448277 -0.03613943 0.014387518 0.06882536 -0.06559329 0.06316762 0.039613515 -0.05910094 0.021409154 0.05021148 -0.024821207 0.04570155 0.064469755 -0.041881118 0.004767619 0.026510738 0.03701649 -0.08807694 -0.0990282 -0.009655468 -0.018165492 -0.14789015 0.1378046 0.050380394 0.06472696 0.07821332 -0.035709202 -0.035753302 -0.041707605 -0.0022624433 0.0014211908 0.07031646 -0.058903843 0.10352486 -0.01180055 -0.03131505 -0.048943236 -0.011594884 -0.025728159 0.03015361 -0.019911408 0.027723908 -0.053103477 0.050688483 0.040122114 -0.113349035 -0.015213862 0.07055354 0.028297842 0.024221145 0.025549106 0.08709938 -0.045041144 0.070155606 0.0060586333 -0.0825703 -0.042805225 -0.030440897 0.063443094 -0.034965016 0.097481914 -0.0435166 -0.07782754 0.03337229 -0.07650475 0.018221483 -0.076281935 0.03293606 -0.102255225 0.019821707 0.02577874 -0.022372633 0.020847544 0.01989811 -0.025717705 0.0028261393 -0.057985798 0.070632584 -0.11908473 -0.040423706 -0.0034173653 0.09377743 0.057262123 0.06981841 -0.03578291 -0.042710237 -0.04106932 0.009221323 0.037262827 -0.06719002 0.0044059716 0.012718886 0.03292255 0.0029914528 0.0306653 0.034018844 0.06674032 0.11989856 -0.0010384917 -0.041006453 -0.070145376 0.123134054 -0.004193604 -0.104695976 -0.057224683 -0.016361214 -0.047242604 -0.08031511 -0.007544011 0.03742577 -0.027650997 0.009048611 -0.075011805 -0.01421456 -0.12518355 -0.105344094 0.070460856 0.0015261769 0.057967804 0.1396231 0.026415445 -0.03646387 -0.020261325 0.013099179 -0.07874947 0.0970153 0.050535716 -0.03159657 0.01019714 0.07700052 -0.027891338 -0.06862569 0.00991378 -0.020038225 -0.029218286 -0.014273539 0.04227765 -0.09182007 -0.019528821 0.034352846 -0.031263143 -0.12791555 0.013928123 0.05394479 -0.014848217 0.020241886 -0.051743492 0.07789132 -0.030325241 -0.05516818 -0.17445666 0.042619377 -0.052928627 0.011498116 -0.04214009
14 0.009141443 0.06698193 0.037097074 -0.053619005 -0.03827487 -0.041866183 -0.054250643 -0.057416692 -0.0046504084 0.0094645545 0.021078702 0.017538264 0.06081432 -0.033888526 0.05257623 -0.07206266 0.064263836 -0.06315653 0.04894644 -0.045199662 -0.04383091 0.06634271 -0.074147716 -0.012557419 0.040617466 -0.051168114 -0.050194725 0.041576475 -0.032160975 -0.04897613 0.03191351 -0.038780466 -0.017306354 -0.018768046 0.050917245 0.03111346 -0.028073847 -0.034052014 0.014858121 -0.017360635 -0.041463368 -0.016955234 -0.047036618 0.048306756 0.05779159 -0.056279033 0.06605342 -0.05023981 -0.04356195 0.046982095 -0.031489477 -0.04932203 0.02016607 0.06695185 -0.04852873 0.03744006 -0.032481074 0.059669808 -0.057433724 0.03826859 -0.046904854 0.051514864 0.057156175 0.04621607 -0.050811015 0.06517154 -0.04429081 0.0791686 -0.03277079 0.062324613 -0.017907407 -0.06529662 0.04760638 0.031028189 0.02614627 -0.041317053 -0.0723774 -0.021148391 0.029323176 0.057624236 -0.031805776 0.04059413 -0.058498442 0.04707499 -0.022934526 0.030762464 0.03320063 -0.031609565 -0.06485714 0.07961008 0.037334606 0.0475199 -0.033423066 0.055148378 -0.03127545 0.05775878 0.04119067 0.013685159 -0.04407508 -0.05650355 -0.028054737 -0.048360392 -0.046259582 -0.04871811 -0.02402912 -0.022992507 0.047689296 -0.013741732 0.05136247 -0.027851336 -0.046493486 -0.033653572 0.031532228 -0.03663277 -0.03933806 -0.05492644 0.05064799 -0.026347093 -0.047377214 0.07137552 0.031857684 0.05327913 -0.0069974214 0.046494417 0.029257007 -0.06462577 -0.04650428 0.033715382 0.04464996 0.0145864375 0.049643025 -0.02211823 0.0011608433 -0.050142057 -0.06612483 -0.0057725967 -0.027513728 0.06308651 0.03501448 0.03743226 -0.06648187 0.022509743 -0.028488219 -0.04049252 -0.032382086 -0.012530893 -0.03868159 0.042750716 0.03313846 0.04112169 0.046781942 0.04357332 -0.027821459 -0.03857226 0.037697017 0.055145532 -0.041873425 0.059284642 0.005637441 0.041885555 -0.03845969 0.067257956 0.08148523 0.031852514 -0.051526636 0.035629794 0.038604513 0.007412251 -0.072240725 0.049431607 0.04014647 0.03655997
15 0.11306688 0.03284111 0.0036569126 -0.029971719 -0.0019403324 -0.0017246902 -0.024124868 -0.054423086 -0.056447588 0.0870027 0.0046135783 0.10993343 0.04744695 -0.035269424 0.022503003 -0.063723765 0.036313966 -0.10014774 0.047777556 -0.034035802 -0.051092744 0.0564878 -0.078114435 -0.012980841 0.047075443 -0.07430512 -0.07643268 0.04385948 -0.064770676 -0.06741907 0.062127527 -0.020112075 -0.040634066 -0.004853353 0.058078237 0.08651825 -0.016125936 -0.03077297 0.0689141 -0.07918388 -0.075372055 -0.038357444 -0.049283586 0.02972398 0.047209583 -0.031740412 0.0066690035 -0.04693818 -0.07360986 0.045549583 -0.09711585 -0.013905222 0.032477047 0.04432921 -0.072384596 0.039939567 -0.029486533 0.024266843 -0.057667695 0.04444841 -0.077598475 0.0028738976 0.073534034 0.032120798 -0.08136975 0.019134074 0.0041232966 0.04989075 -0.10585913 0.04957296 -0.107953995 -0.027081326 0.043393742 0.04286343 0.049599804 -0.09580525 -0.017894715 -0.11268497 0.022179611 0.05589234 -0.056336068 0.06364228 -0.07700428 0.016472906 -0.01506504 0.07522014 0.01768493 -0.04680101 -0.027750213 0.06279518 0.047060493 0.05869757 -0.055697165 0.05401671 -0.05395503 0.099555396 0.06304605 0.029828733 -0.09699387 -0.04137394 -0.083143026 0.0018381141 -0.008500174 -0.006187476 0.031102493 -0.039994165 0.04370787 -0.01671526 0.032408133 -0.0076375045 -0.09028776 -0.061340652 0.030623402 -0.056054324 -0.07308561 -0.03669861 0.038220868 0.04221612 -0.06247156 0.023600556 0.05531611 0.04241156 -0.036477692 0.08168016 0.046930503 -0.073377214 -0.056707673 0.044035487 0.017404571 -0.03761705 0.04252752 0.06380109 0.019984253 -0.074788466 -0.017929897 -0.036821067 -0.058296517 0.03221988 0.056055207 0.027220972 -0.016079985 0.0482809 -0.04576172 -0.07303588 0.02373425 0.009593222 -0.041613072 0.009466667 0.04720849 -0.010678198 0.03235288 0.035092518 -0.018891461 -0.055212792 0.06578547 0.026247106 -0.057513252 0.02851734 0.066317424 0.020035997 -0.02745753 0.021561831 0.026835177 0.012084998 -0.09244759 0.028191034 0.071339674 0.071952775 -0.039219737 0.04971853 -0.007984616 0.048920497
16 0.075264156 -0.03436979 -0.054524723 0.00065000355 0.010711476 0.046497315 0.020433232 -0.026778802 -0.020648006 -0.01229699 -0.055908523 -0.029837728 -0.0072530657 0.023483723 -0.055733465 0.004261762 -0.010891862 -0.03667751 -0.014672175 0.0081709325 0.032873444 -0.034004144 0.021221608 0.025567716 -0.02917739 -0.018688694 -0.003142625 -0.017508209 0.002979748 0.021763109 0.0016619712 0.01741147 0.0049247444 0.036336556 -0.04201074 -0.017295793 -0.0038323812 -0.006903529 -0.05845149 0.043130055 0.0016125962 0.033808123 0.048755914 -0.027306229 -0.01126992 -0.027451672 -0.046152778 -0.0151246935 0.014516227 -0.037490726 0.012022339 0.009766996 -0.026640847 -0.033714384 -0.0432896 -0.015098728 0.014458217 -0.026486345 0.008243188 -0.027037136 -0.004703082 0.0025865585 -0.056125715 -0.011535987 0.0056675225 -0.0006025955 0.0528977 0.028400347 -0.009182341 -0.02742754 -0.035828844 0.024972014 -0.055302054 -0.026382752 0.0007843897 -0.005081266 -0.0052627474 -0.02161713 -0.027424455 -0.04824619 0.003967233 -0.03282869 -0.027629025 -0.07559286 0.03248049 -0.032093644 0.011085633 0.00803937 -0.009680234 0.025116742 0.02738648 0.005745329 -0.023141332 -0.027050927 0.031898543 -0.044480205 -0.011322357 0.008120578 0.018728957 0.04059021 0.007665649 0.0048153326 -0.019283913 -0.007491611 0.061830427 0.01706256 -0.043396637 0.0050060637 0.0035657138 0.041994356 -0.054817364 0.0033955872 0.0486606 0.027776122 0.054525055 -4.5523047e-06 -0.032079965 0.0046404153 0.07087438 -0.02037172 -0.058358386 -0.036570072 -0.03197312 0.017441854 -0.04701078 -0.03770452 0.0010969639 -0.01796624 -0.00027873367 -0.10366192 -0.005077645 -0.025342695 -0.07907617 0.019286238 0.023993328 0.015928093 0.06895442 0.0072830096 0.0018398017 -0.018022113 0.03433615 -0.034285028 0.059753306 0.005575925 0.033730216 0.025086395 0.042041548 -0.03837797 -0.039757736 -0.030750081 -0.025856249 -0.019796446 -0.006072931 0.006955236 -0.040251143 -0.024113886 0.0030448958 -0.03720671 -0.031010147 0.002811715 0.042128198 -0.036156088 -0.0034229308 -0.05086083 0.006123811 -0.03176461 0.0020802394 -0.07487719 0.037298746 -0.023190401 -0.02641774 -0.014383264
17 0.06589518 -0.014454223 -0.03621108 0.011283852 0.04184139 0.04683543 0.03680738 0.0017812327 -0.020315053 0.06416221 -0.018792368 0.06866115 -0.023195408 0.025323406 -0.041411072 0.0027443543 -0.024590388 -0.026451647 -0.0195174 0.0318518 0.0019529313 0.0008393973 -0.008120365 -0.014350928 -0.021097027 0.011256218 -0.0058665574 -0.037130028 -0.0090103 -0.0033305287 0.014254309 0.044322364 -0.0011537857 0.0053715613 0.0062570795 0.032112483 0.034945108 0.045964852 0.062968 -0.04602819 -0.0016022325 -0.002521772 0.0019515902 -0.010382317 -0.011066675 0.028769165 -0.070108235 -0.003250353 -0.013515227 -0.016093075 -0.042340256 0.030444287 -0.031071357 0.0016236976 -0.008532159 -0.03004416 0.006679848 -0.011820599 0.01703363 -0.012333065 -0.00479614 -0.03307712 0.011066094 -0.018550128 -0.03265 -0.03989911 0.047062866 -0.004385449 -0.04300819 -0.02880495 -0.052784175 0.04697431 -0.010576621 -0.028979562 -0.0028959066 -0.014313631 0.032023937 -0.08119672 -0.016857676 -0.008654907 0.00564038 -0.002920933 -0.01407963 -0.03871672 0.030595109 0.017976016 -0.021878697 0.01851964 0.035563014 -0.023023382 -0.02817376 -0.0011921376 0.01862403 -0.00590878 0.00540372 0.020045549 -0.011604913 -0.02007518 -0.021447219 0.03294433 -0.0036829636 0.042012766 0.03682515 0.04665494 0.081599355 0.023620375 -0.012937814 0.02771547 -0.043182395 0.021445386 -0.012646064 0.017130956 0.027121555 -0.010629222 -0.024240114 0.029218867 -0.021751665 0.0553041 -0.0073155165 -0.03576035 0.005325705 -0.0065299943 0.00017979369 0.042813897 -0.018581152 -0.006949812 0.00232964 -0.033213824 -0.03657615 -0.03455229 -0.01615537 0.056446258 -0.006557338 -0.007380165 0.04737065 -0.02687601 -0.021756712 -0.025773115 0.00064799935 -0.027405113 0.04999593 0.019670207 -0.008356858 -0.002124764 0.079614215 0.02214781 -0.014725257 -0.038199596 -0.020377629 -0.046521593 -0.03599266 -0.027243413 0.033853553 -0.0048532933 0.003151022 -0.020176694 0.002756916 -0.021051519 0.06920703 -0.03716056 0.01584794 -0.039934732 -0.031675085 -0.028686501 -0.018943205 -0.02188228 0.019959897 0.0486698 0.015346102 -0.0028577372 -0.04456062 -0.0051368997
18 0.047277257 0.08837862 0.041630864 -0.09807281 -0.10201031 -0.0626943 -0.10156194 -0.13271376 -0.016975213 -0.04833518 -0.0040420666 -0.042886265 0.107199766 -0.059514347 0.07847493 -0.12996025 0.12887648 -0.12005606 0.095250174 -0.09219949 -0.03815998 0.07673072 -0.10856526 0.027536895 0.061970547 -0.13645387 -0.093945086 0.105499 -0.06788052 -0.06849094 0.058601126 -0.087484166 -0.042754903 -0.0024806485 0.035128012 0.018723167 -0.080967724 -0.119555496 -0.07445621 0.04570615 -0.08885221 -0.013841465 -0.041789427 0.06503514 0.09068081 -0.1548911 0.12530771 -0.09857494 -0.058626644 0.049156763 -0.015225794 -0.08961414 0.052934542 0.0737233 -0.14361484 0.08012601 -0.06447741 0.08085112 -0.10347051 0.050273873 -0.080290906 0.10842013 0.04261823 0.09311375 -0.049277425 0.13883808 -0.062801205 0.1673362 -0.044820927 0.11063801 -0.03883377 -0.12869625 0.04201051 0.056494348 0.05659578 -0.08376245 -0.16036639 -1.6685575e-05 0.028301 0.060939774 -0.06867662 0.05211483 -0.1267477 0.03472598 -0.038212217 0.023189098 0.09337667 -0.07392886 -0.14868172 0.18342352 0.12931891 0.08997298 -0.114798084 0.07570564 -0.022316486 0.067859456 0.08662996 0.0665894 -0.053318426 -0.07984911 -0.04741206 -0.11547246 -0.12258978 -0.11978008 -0.051719338 -0.046129823 0.06193681 -0.03875379 0.13642746 -0.026274435 -0.13639331 -0.08847127 0.06904657 -0.03510979 0.001014933 -0.1274673 0.074916214 -0.08085545 -0.017127268 0.13253005 0.0061406493 0.053119875 -0.065243594 0.0747049 0.028614283 -0.1650087 -0.084934235 0.082948394 0.10489392 -0.059219632 0.109731406 -0.09174584 -0.06140415 -0.07391557 -0.1269752 0.01951084 0.034962714 0.13951315 0.073586285 0.07094232 -0.12338299 -0.007874407 0.011849642 -0.07471046 -0.095706284 0.004401806 -0.001331836 0.060509034 0.039122105 0.07470505 0.0914414 0.08765009 -0.092977315 -0.069203705 0.03700337 0.084478825 -0.075502135 0.081606 -0.08689807 0.107115045 -0.03667634 0.10371848 0.15485412 0.026896738 -0.07403795 0.050207075 0.056673404 -0.094457 -0.09913787 0.07359167 0.088038065 0.04955026
19 -0.024519477 -0.093663126 -0.10394302 0.053689048 0.02094023 0.07950114 0.07304631 0.04959099 0.03988241 -0.12100523 -0.0984039 -0.15720601 -0.098320335 0.08530693 -0.10617058 0.08736317 -0.074660376 0.077229924 -0.09426792 0.08240451 0.124531776 -0.13030133 0.12174577 0.04757763 -0.11770406 0.07547532 0.10109043 -0.09215137 0.08429439 0.11117433 -0.07378753 0.07586238 0.0609156 0.07168523 -0.15006378 -0.124861166 0.042129844 0.049733654 -0.1472352 0.1475458 0.097910434 0.09001326 0.12573728 -0.08001611 -0.099458106 0.012750313 -0.10186973 0.050971158 0.1013724 -0.123682514 0.13548362 0.046888843 -0.08615414 -0.09817912 0.023245484 -0.08808371 0.053457763 -0.073655 0.09564321 -0.11457963 0.095506355 -0.016543157 -0.16818736 -0.065209724 0.100877695 -0.041550778 0.07903117 -0.028201476 0.108163 -0.119089104 0.07653726 0.0877169 -0.14488143 -0.10163573 -0.07138958 0.1031712 0.02573932 0.080510154 -0.09422498 -0.14193872 0.07852433 -0.13409832 0.07106146 -0.14893214 0.08136991 -0.14596444 -0.020625442 0.07367829 0.04324217 -0.05368857 -0.03732401 -0.06828818 0.043092992 -0.11108811 0.10440051 -0.1766109 -0.09486656 -0.048979588 0.13951169 0.12909362 0.12351739 0.015481621 0.009692319 0.021835394 0.06939134 0.09833357 -0.1290079 0.04888302 -0.059495617 0.06887723 0.04380655 0.089831516 0.038857635 0.099563904 0.1544087 0.06274518 -0.10352374 -0.026356515 0.16633877 -0.066313155 -0.1356849 -0.11477513 0.008825216 -0.06819254 -0.13078317 0.044221736 0.08763067 -0.09725081 -0.049949855 -0.11214085 -0.07587746 -0.11463544 -0.13855252 0.123504415 0.067291364 0.05695058 0.16249539 -0.03332533 -0.07470898 -0.07289638 0.09955457 -0.10018557 0.136265 0.1061328 0.035900004 0.043179784 0.11691529 -0.08880255 -0.12596717 -0.037385188 -0.08161889 -0.10513535 0.031984426 0.072812974 -0.1470299 -0.07854134 0.08693893 -0.08748546 -0.11561069 -0.044855338 0.096628 -0.105029725 -0.056280456 -0.09999278 0.120904066 -0.08930751 -0.09101538 -0.17862007 0.111394525 -0.099310525 -0.038715944 -0.094155446
20 -0.01992315 0.1404215 0.09074341 -0.11083523 -0.1110739 -0.112055674 -0.12393546 -0.122013316 0.0025654398 -0.02768267 0.041615926 -0.008478075 0.12538439 -0.07977997 0.12881865 -0.1395095 0.14875545 -0.09947567 0.11761709 -0.101837896 -0.074497506 0.12075658 -0.13396683 0.0018248525 0.091909945 -0.116468474 -0.09679973 0.12319182 -0.069863096 -0.09741646 0.05120279 -0.09956418 -0.040986445 -0.042789917 0.0919895 0.04035681 -0.06690918 -0.102972515 -0.00033302233 -0.0071911616 -0.087722674 -0.04131354 -0.08394629 0.113494284 0.10291587 -0.13361853 0.16121253 -0.09600519 -0.06434531 0.09571162 -0.032422453 -0.096850246 0.07028993 0.117211744 -0.10972414 0.08741238 -0.07800718 0.12460386 -0.12667516 0.07325112 -0.08089268 0.1321595 0.09365392 0.10885699 -0.058696195 0.14898397 -0.1071341 0.16413808 -0.043129668 0.13689776 -0.007368585 -0.15316339 0.08894843 0.08548372 0.058121473 -0.07998946 -0.17778647 0.013698368 0.05989176 0.116757296 -0.06804393 0.09032878 -0.11722021 0.10495351 -0.057627488 0.053970516 0.08363285 -0.076128125 -0.1475957 0.18086544 0.10872238 0.087307304 -0.08966372 0.1081912 -0.048097666 0.11588311 0.09433496 0.049850967 -0.062218722 -0.1208192 -0.05397258 -0.12420701 -0.11160402 -0.1233222 -0.10255772 -0.05818846 0.09711743 -0.037003536 0.12661922 -0.071400985 -0.0906677 -0.087429106 0.043237004 -0.06366551 -0.052084867 -0.1466518 0.11575037 -0.086450264 -0.07650766 0.16355245 0.059746407 0.107695125 -0.027461117 0.071624875 0.06963746 -0.14369375 -0.09669137 0.103745066 0.11459165 0.038954757 0.12639707 -0.060291015 0.008664902 -0.09921925 -0.15266487 -0.007565963 -0.034883365 0.14769852 0.08183588 0.10225434 -0.17292099 0.022596283 -0.0416738 -0.08378324 -0.122740746 -0.030909598 -0.05295877 0.09146312 0.064459026 0.11282839 0.11320431 0.11565687 -0.08748202 -0.082138956 0.07461913 0.12317932 -0.08825667 0.11653684 -0.04407335 0.109696046 -0.06997432 0.14119804 0.16709079 0.07893047 -0.0807782 0.08212763 0.07292445 -0.018583305 -0.14769962 0.09086752 0.11702728 0.07061353
21 0.025007088 0.0475457 0.007563509 -0.04369717 -0.031889252 -0.019791804 -0.029869817 -0.049142927 -0.010744773 -0.009791993 -0.007991727 -0.002848614 0.041542083 -0.017104715 0.024228148 -0.051125012 0.050423376 -0.044064507 0.033421814 -0.022956379 -0.010853842 0.03256692 -0.047095336 0.009650191 0.0142454505 -0.042641684 -0.02741874 0.03756824 -0.029345445 -0.031025425 0.017565865 -0.021606043 -0.015486889 -0.0025195666 0.021964781 0.0122899115 -0.013306648 -0.034698993 0.007816434 -0.0039277785 -0.031695306 -0.011343174 -0.013069309 0.040439904 0.021581784 -0.054443806 0.03069678 -0.04318537 -0.010183595 0.016889736 -0.01625134 -0.020746566 0.015651055 0.032207012 -0.059241563 0.018377326 -0.020278588 0.042742208 -0.045475125 0.011670232 -0.021042936 0.054977715 0.020125225 0.038234457 -0.013611808 0.045246333 -0.010836996 0.07124083 -0.022887044 0.032114655 -0.020416357 -0.04130891 0.0077050403 0.021928862 0.02151288 -0.03212393 -0.07397687 -0.01001974 0.0077231154 0.028198458 -0.01963342 0.025609016 -0.054590136 0.0055103675 0.0047645792 0.015103109 0.032675654 -0.018383399 -0.04732454 0.07264882 0.049815476 0.027660735 -0.033930816 0.03147895 0.0026900023 0.034897134 0.03258624 0.017135203 -0.016641535 -0.01793228 -0.022550337 -0.03991711 -0.03854014 -0.039650016 -0.0059232414 -0.007140331 0.018286966 0.0051344484 0.037220836 -0.016036093 -0.044697292 -0.03429704 0.034553513 -0.017757453 -0.005894482 -0.053328052 0.031241849 -0.02386744 -0.0023944005 0.049449176 0.0026304722 0.033518873 -0.02147802 0.039637785 0.0038271174 -0.0734099 -0.033301458 0.034093723 0.03136283 -0.020384733 0.05288908 -0.010431122 -0.012569031 -0.032197632 -0.0385136 -0.009584561 0.010682933 0.06281616 0.035735212 0.03619715 -0.050335824 0.00014144182 0.0040905923 -0.032466367 -0.028711691 -0.0013084374 -0.00948121 0.004160799 0.0003561154 0.02343399 0.026018322 0.032098874 -0.027827539 -0.033155322 0.014899336 0.03603378 -0.032856837 0.023091175 -0.011889007 0.033013813 -0.0016684309 0.030578874 0.05010377 0.008188032 -0.019776635 0.019023128 0.03378035 -0.018926097 -0.043420717 0.016889282 0.029938623 0.020855725
22 0.059154317 0.043748282 0.0071385354 -0.042582855 -0.03141293 -0.016129114 -0.03536933 -0.057749838 -0.026914062 0.014890093 -0.005264785 0.02832244 0.04712066 -0.027908154 0.029891998 -0.06465224 0.052853376 -0.071765155 0.042256996 -0.03217826 -0.024915215 0.04232716 -0.0646214 0.0036858823 0.027897455 -0.06439908 -0.05036188 0.04526166 -0.045094658 -0.046202414 0.038343206 -0.027273767 -0.027111866 0.0006344477 0.029221859 0.036696024 -0.021769628 -0.043486618 0.012732148 -0.019072384 -0.053019017 -0.019536385 -0.028751697 0.034830198 0.036230646 -0.059317723 0.032854155 -0.04894802 -0.040447414 0.026949495 -0.04106015 -0.027596831 0.025046088 0.040706582 -0.07469377 0.032450482 -0.028323393 0.03766653 -0.05367373 0.024718273 -0.04716286 0.039375514 0.039318986 0.040761024 -0.042547986 0.047045216 -0.011730798 0.07405815 -0.052642345 0.04496064 -0.051838987 -0.045758612 0.021504782 0.030393183 0.033173323 -0.060561784 -0.06201285 -0.045385987 0.010186143 0.03820256 -0.038299322 0.03737668 -0.06714563 0.008476429 -0.006751269 0.03231192 0.03403706 -0.03534913 -0.051240332 0.08104403 0.0565162 0.046114422 -0.05146882 0.04220619 -0.02126747 0.05808536 0.04946737 0.02534353 -0.04964471 -0.030466393 -0.043891888 -0.034590587 -0.036696136 -0.036054313 0.0034836233 -0.020393081 0.02974315 -0.007331744 0.04713112 -0.012457725 -0.07134371 -0.04890965 0.038096026 -0.0324478 -0.02684085 -0.05216173 0.03588894 -0.007978581 -0.024364665 0.048953675 0.020835394 0.033652145 -0.0323123 0.056840923 0.0193761 -0.08228431 -0.043790318 0.039765358 0.031781152 -0.03557983 0.051808864 -0.002321422 -0.011566712 -0.048928104 -0.041993707 -0.012727205 -0.00624046 0.06107323 0.0436847 0.032900155 -0.040723912 0.015351744 -0.010731006 -0.049309164 -0.018297546 0.007050747 -0.015746124 0.0113913715 0.020803586 0.016953766 0.03654805 0.033329844 -0.031057939 -0.043786097 0.031348635 0.03499061 -0.04363381 0.032988228 0.0013595894 0.035021104 -0.015239589 0.034013078 0.05439064 0.008136675 -0.05150059 0.024655685 0.04503771 -0.0016796216 -0.045286477 0.03468866 0.02250287 0.031182908
23 0.074779585 -0.024600714 -0.034245856 0.0050686747 -0.015650555 0.032510325 0.005840145 -0.025729403 -0.018508423 -0.025462437 -0.037005953 -0.0021842602 -0.009102188 0.002335757 -0.004203923 -0.029199094 0.0022632033 -0.05857586 -0.00036223978 -0.007094145 0.014976211 -0.011557281 -0.02720289 0.0067073554 -0.014469616 -0.04624939 -0.024604186 0.005037576 -0.018536456 -0.0077991784 0.047295995 -0.0010124892 -0.021371074 0.034624837 -0.043354236 -0.0005747527 -0.020870298 -0.028111592 -0.072112516 0.05809339 -0.025275044 0.015049202 -0.0053628907 -0.039429724 0.01610367 -0.039896607 0.005556509 -0.015106678 -0.040802933 -0.014100812 0.00039591268 -0.031455122 0.0009538606 0.0070276186 -0.06682608 0.01711817 -0.013266481 -0.015760936 0.009578563 -0.0040046573 -0.027640536 -0.0140525475 -0.015239678 -0.0008692071 -0.037550077 0.02351144 0.010326959 0.03099887 -0.032695543 0.006961018 -0.041036747 -0.0066214353 -0.0074103475 -0.012134403 0.01058463 -0.03872107 0.0039344206 -0.044280767 -0.043188363 -0.01685299 -0.039838485 -0.012208849 -0.029330201 -0.048318908 -0.00017932057 -0.018173587 0.012297988 -0.033605665 -0.02147147 0.03631617 0.020458885 0.03808803 -0.04317744 -0.011553369 -0.023493432 0.0014380962 0.023729973 0.013924725 -0.04142595 0.014148712 -0.0006766692 -0.014135808 -0.009001277 -0.0028627887 0.048419528 0.0045858473 -0.005170673 -0.018825784 0.028252259 0.026737165 -0.0666829 -0.019890107 0.045536138 -0.0132602155 0.006706707 0.011594854 -0.024636552 -0.002079241 0.0003047064 0.0013920963 -0.016153254 -0.037060052 -0.042745207 0.035178233 -0.01408539 -0.04160434 0.0025297254 -0.011615686 -0.006547861 -0.10245137 -0.016713008 -0.0610568 -0.068037726 -0.008411571 -0.005666122 0.030068079 0.040161584 0.0152548775 -0.004509978 -0.0330011 0.043792672 -0.0025547985 0.0070683137 -0.010484174 0.022573315 0.047168247 0.03057263 -0.0055430084 0.0036526844 -0.01470121 0.02003178 -0.02706033 -0.013098992 -0.010675281 -0.009174757 -0.008290701 0.00022628158 0.024313293 -0.045466747 0.005196862 -0.002269119 -0.0014505535 0.033510894 -0.04105532 -0.036182255 -0.011588685 -0.00986287 -0.060613368 0.012253568 0.02765315 -0.018275112 -0.008178093
24 -0.04933805 0.07656493 0.04510227 -0.06861453 -0.10159418 -0.065291144 -0.07906871 -0.07698034 0.03335615 -0.11453215 0.0028514117 -0.097335905 0.061695904 -0.03478715 0.086454645 -0.09283324 0.097560965 -0.048871122 0.056276664 -0.061298408 -0.0091392435 0.049500756 -0.07662316 0.014265791 0.023152556 -0.071116716 -0.03442342 0.06753251 -0.02009559 -0.033376314 0.031105436 -0.06637555 -0.017787209 -0.0034973724 -0.0033480786 -0.03753671 -0.058792055 -0.081452586 -0.107442535 0.1021318 -0.031055562 0.007726494 -0.03728476 0.040456463 0.061859556 -0.118379526 0.13531986 -0.057305656 -0.026127726 0.030313887 0.050005708 -0.09706444 0.029702108 0.072963595 -0.08577362 0.05279588 -0.050022267 0.07666275 -0.051247865 0.022227522 -0.023415744 0.09902747 0.011963751 0.06587365 -0.014773987 0.12790543 -0.08511538 0.124219805 0.025222957 0.07938841 0.04960595 -0.112781316 0.034842823 0.024268124 0.015475668 -0.017624803 -0.13462697 0.066101 -0.0027116388 0.040351685 -0.04119302 0.01332707 -0.059106156 0.036650598 -0.03188549 -0.029576875 0.06581761 -0.049348585 -0.11785677 0.12818399 0.06612768 0.05567175 -0.059500307 0.039665185 -0.013675991 0.01671901 0.046383206 0.025584027 -0.008637689 -0.054245017 0.021958381 -0.11788863 -0.093248576 -0.09932695 -0.06839033 -0.008437473 0.04377839 -0.026332114 0.10103857 -0.033643648 -0.051568404 -0.03840781 0.050145473 -0.020438436 0.017713778 -0.07993036 0.045512475 -0.1089393 -0.015833093 0.12058239 -0.009216458 0.029145699 -0.025203764 0.024106167 0.005352434 -0.09554124 -0.03179501 0.038395397 0.072915465 -0.015798802 0.058735937 -0.15065256 -0.0612528 -0.029124007 -0.11853854 0.04755634 0.05079529 0.11275108 0.018596351 0.036457453 -0.09630447 -0.0196073 0.0061502643 -0.01888739 -0.10173071 0.0040195286 0.009427773 0.06322769 0.017236039 0.08896342 0.083155 0.043199196 -0.06440131 -0.03321238 0.0014649145 0.07587871 -0.026271585 0.09640397 -0.121404484 0.07707778 -0.038414642 0.10211854 0.14800441 0.022629999 -0.019589953 0.036497958 -0.005452279 -0.119959965 -0.086442314 0.058263164 0.08814053 0.012997568
25 0.013638914 0.008924782 0.01944536 -0.016461313 -0.10990337 -0.028227702 -0.0596226 -0.062094405 0.018577727 -0.14308074 -0.016789835 -0.07966189 0.021799706 -0.04094313 0.09785001 -0.09344654 0.06223753 -0.09460747 0.043306403 -0.072816156 -0.003257513 0.021429121 -0.08791219 0.00075680297 0.016839474 -0.10623689 -0.058989003 0.06544627 -0.027074315 -0.0371767 0.09792332 -0.07304324 -0.04666441 0.03374315 -0.06578715 -0.035529364 -0.09021428 -0.10596317 -0.2173888 0.18356559 -0.050323904 0.026416842 -0.065613 -0.047633223 0.08366336 -0.12132275 0.15825036 -0.03342808 -0.098829105 0.0314233 0.056143876 -0.14742072 0.046960898 0.07401105 -0.11816892 0.08855108 -0.060639545 0.024753913 -0.008391418 0.031103596 -0.062218934 0.028841406 -0.0034473687 0.03513521 -0.0734749 0.13622841 -0.09515541 0.08987206 -0.009390462 0.08685936 0.018329902 -0.10920122 0.053615168 0.017542958 0.022202969 -0.059698403 -0.049746633 0.018151809 -0.05934274 0.022206075 -0.10578838 -0.0015895963 -0.043638334 0.004034221 -0.06913995 -0.05380284 0.0500817 -0.10914615 -0.110648975 0.11794418 0.04899347 0.099489346 -0.098243244 0.007784158 -0.09294088 0.015152767 0.07164844 0.03680534 -0.08140582 -0.052491993 0.024125244 -0.10981894 -0.066336185 -0.07501548 -0.031227484 -0.02348245 0.045207918 -0.088592544 0.12211996 -0.0015003867 -0.100828126 -0.05313313 0.062754214 -0.046319794 -0.000657022 -0.019011125 0.0015140325 -0.0979387 -0.05664587 0.09016642 2.8792769e-05 -0.038000297 -0.06337152 0.030018467 0.021039851 -0.069203936 -0.0026641265 0.0137168765 0.0439063 -0.110718325 -0.01746831 -0.23473589 -0.114179656 -0.030634016 -0.11228016 0.10195449 0.064350426 0.07710326 -0.020670757 -0.03448551 -0.0020038486 -0.0029972102 -0.028558593 -0.018556118 -0.06820485 0.059546202 0.043004595 0.08449392 0.061027892 0.07006132 0.12204638 -0.009821624 -0.06764075 -0.024237998 0.0033538043 0.049978815 -0.0056132376 0.14423607 -0.17746584 0.064673305 -0.072203785 0.10406524 0.16470255 -0.016547106 -0.0753769 0.028438509 -0.050798263 -0.1626172 -0.04672861 0.10630277 0.046617605 -0.0007371977
26 0.07563162 0.067218035 0.0145352185 -0.07225745 -0.019369192 -0.034895003 -0.059721127 -0.086160906 -0.043909367 0.048365824 -0.00053182244 0.037175514 0.091572806 -0.038173188 0.02455137 -0.076462865 0.067280784 -0.09606664 0.0655203 -0.059050225 -0.04546505 0.06364219 -0.07079433 0.012136917 0.05486296 -0.083040476 -0.06809594 0.059744254 -0.048612155 -0.056745987 0.029201202 -0.04444146 -0.01787325 -0.0035587624 0.06673678 0.053604394 -0.040308207 -0.05531685 0.035083365 -0.055644006 -0.064238414 -0.020950522 -0.020071372 0.065140285 0.05918123 -0.07350711 0.035685733 -0.070036516 -0.03138519 0.043758363 -0.06335503 -0.023312487 0.023195691 0.040204592 -0.07594888 0.043134533 -0.025737852 0.052242115 -0.08665295 0.041904747 -0.0676677 0.066093646 0.05161232 0.057832938 -0.040781453 0.05552341 -0.00804428 0.09670597 -0.06634309 0.06582273 -0.07575546 -0.059654467 0.023637265 0.05160208 0.04988274 -0.06795004 -0.0911104 -0.04681883 0.05145037 0.051816016 -0.03145816 0.056179464 -0.09636204 0.029131144 -0.004601404 0.05620021 0.049717844 -0.030046865 -0.07725012 0.10570509 0.08679298 0.054099374 -0.06597314 0.066770375 -0.015324932 0.05856843 0.052896485 0.039776646 -0.045604195 -0.057489753 -0.07408754 -0.03771811 -0.06890431 -0.06319019 -0.012589119 -0.039177977 0.037451074 -0.007088054 0.06410295 -0.01614111 -0.09354228 -0.061473068 0.04355991 -0.026914038 -0.02429473 -0.084666945 0.05732989 -0.0044002756 -0.011692092 0.06718363 0.013018765 0.066092566 -0.028267415 0.06352127 0.029091164 -0.104378514 -0.077497676 0.061968546 0.06480382 -0.024298783 0.08280056 0.035628956 -0.002273284 -0.063096434 -0.05692257 -0.024750657 -0.017941544 0.074517585 0.07548492 0.0694255 -0.08385219 0.01072545 0.0048419014 -0.0668476 -0.026257128 -0.020529628 -0.032439224 0.020247526 0.02611839 0.018900797 0.031791918 0.06718706 -0.045733266 -0.055254962 0.042997804 0.04852587 -0.06767156 0.016307645 0.029887136 0.060333453 -0.010542043 0.043176524 0.060360238 0.027962089 -0.058812063 0.026610162 0.07942924 0.01498487 -0.061984986 0.030784354 0.027889684 0.053971335
27 0.122294754 0.018394418 -0.03241606 -0.029973991 0.027050994 0.023277484 -0.0019558072 -0.04900541 -0.05818732 0.09358283 -0.024564527 0.087018184 0.0337902 -0.004461892 -0.02946242 -0.036909357 0.0153974965 -0.07877426 0.02406618 -0.0048464984 -0.01938212 0.02658613 -0.039828002 0.007358891 0.017225564 -0.049219884 -0.047170654 0.012872025 -0.0445517 -0.036605887 0.02521199 0.011920139 -0.014474422 0.010893457 0.040540233 0.066877484 0.00663656 -0.0036408007 0.08135075 -0.08708504 -0.0491283 -0.021372493 0.001309298 0.030858994 0.012998603 -0.020372353 -0.054939836 -0.042062454 -0.02595725 0.0047729835 -0.08201133 0.030251067 -0.004115328 0.006114058 -0.060184143 0.0005645305 -0.0075343996 0.0085219145 -0.043442696 0.010176681 -0.047307767 0.006246865 0.034894705 0.019548684 -0.041223556 -0.012815818 0.04998865 0.04752527 -0.08600687 0.00923118 -0.10901764 0.011630639 -0.008927301 0.014733762 0.033558644 -0.06474214 -0.024637878 -0.10415343 0.017505892 0.016344398 -0.013391614 0.033965647 -0.07181314 -0.026570067 0.028372053 0.056301773 0.014029376 -0.0031901225 -0.009987168 0.044056803 0.045323856 0.027635366 -0.036737718 0.034012705 0.0015448555 0.053915545 0.02818098 0.016781438 -0.044858076 -0.00042688847 -0.0648687 0.021508738 -0.009036303 0.0041077286 0.0604883 -0.008777246 0.0035087615 0.022533022 0.0024039745 0.012552623 -0.07789472 -0.03470014 0.041896034 -0.019809809 -0.02805017 -0.032452025 0.016022377 0.055925336 0.0004534796 0.00033453107 0.011728533 0.029441744 -0.027061999 0.072699726 0.004068814 -0.07506689 -0.048412666 0.021621726 0.007472053 -0.05717496 0.044692233 0.09190029 -0.0019995533 -0.04434911 0.0148725435 -0.047144003 -0.024345525 0.022011347 0.057282746 0.027369805 -0.0051952302 0.018442076 0.008486908 -0.049989633 0.048009627 0.008958872 -0.020662785 -0.034515977 -0.0034751892 -0.03744725 -0.016734526 0.01987318 -0.004467614 -0.041806594 0.028339155 0.0007473752 -0.043560922 -0.029368483 0.07849579 0.005703591 0.018936552 -0.027247906 -0.012481004 -0.011030585 -0.050200135 -0.0050830096 0.07346633 0.054668106 -0.009815142 0.0035287812 -0.024734914 0.029529378
28 -0.039102033 0.052264035 0.030156113 -0.058692813 -0.08706861 -0.05240883 -0.063662425 -0.058581173 0.018871246 -0.12829137 -0.009974547 -0.12996331 0.06619127 -0.034076378 0.053910926 -0.057097867 0.07760082 -0.02755715 0.038437456 -0.059434816 0.0045369193 0.017403945 -0.032212526 0.027041579 0.011835307 -0.05156216 -0.009774417 0.061714694 -0.003893301 -0.008883715 0.0042751133 -0.07159388 -0.0100395605 0.008710768 -0.01757864 -0.056660235 -0.06262923 -0.09309775 -0.12968339 0.110918 -0.014189795 0.023267005 0.0021913871 0.027714655 0.037076578 -0.10897045 0.118198514 -0.049985126 0.013931304 0.020342171 0.06112607 -0.08157083 0.033711724 0.030151263 -0.06414657 0.049036697 -0.013703078 0.053980067 -0.054197222 0.013398074 -0.008666933 0.10599103 -0.02753143 0.051120855 0.022189386 0.112400904 -0.055621058 0.096752405 0.04740735 0.051933005 0.0558768 -0.09709613 -0.001920253 0.033385165 0.01607804 3.8266182e-05 -0.11738551 0.09771073 0.003919214 0.013301209 -0.026596576 -0.0009837896 -0.04085329 0.015937373 -0.018849626 -0.046116263 0.06397363 -0.038092405 -0.10151765 0.11543749 0.08287768 0.03503727 -0.053199947 0.017692924 0.0068843216 -0.03052342 0.035523333 0.034828857 0.021075115 -0.035103798 0.005980864 -0.103109494 -0.09644233 -0.10870993 -0.07063921 -0.02047538 0.01221849 -0.033089876 0.09525791 -0.022626042 -0.042816997 -0.042907305 0.03567913 0.008195691 0.054277554 -0.07498561 0.036162928 -0.11329302 0.04059674 0.08886227 -0.04434623 0.0190022 -0.032706153 -0.011771053 -0.009044066 -0.07306333 -0.021383598 0.05133848 0.07065487 -0.028221779 0.055024646 -0.14099973 -0.059135683 -0.0032515973 -0.09366448 0.052421086 0.090388045 0.106405504 0.014268294 0.045997515 -0.08712475 -0.041467734 0.03732062 -0.015837505 -0.11376142 -0.017281048 0.026209906 0.043207437 0.00484439 0.07471733 0.06623852 0.04215306 -0.0659384 -0.011923358 -0.020836733 0.05590941 -0.02535431 0.054382235 -0.13387 0.07793963 -0.008735187 0.08537331 0.114675626 0.011898838 0.01395613 0.035601683 -0.011080675 -0.14609268 -0.051602185 0.014532261 0.073128335 0.016039193
29 0.060808763 0.0060962737 -0.0039411467 0.001267476 -0.003025271 0.013007697 0.002858976 -0.01642792 -0.021440135 0.027125407 -0.0019260822 0.062487863 0.005007159 -0.012508699 0.018042404 -0.032833688 0.0074146166 -0.05902251 0.012780692 -0.011482734 -0.023615941 0.026523901 -0.04911918 -0.022819644 0.010109058 -0.029822309 -0.036411695 0.010430178 -0.029007902 -0.03579181 0.052302413 -0.002966199 -0.027969047 0.0010234499 0.013348859 0.03847549 -0.0036916155 -0.006109655 0.013592096 -0.0103458185 -0.031870965 -0.010732144 -0.040902883 -0.0084863715 0.027380005 -0.00858444 0.0115389675 -0.016959604 -0.055129986 0.02722362 -0.04309681 -0.028678874 0.01362062 0.03861162 -0.040448718 0.021448672 -0.01558586 0.009945426 -0.009670578 0.021127485 -0.03966046 -0.011860486 0.03426564 0.0030776933 -0.06383549 0.014835212 -0.004004676 0.017761774 -0.05694914 0.020317182 -0.04741848 -0.009764098 0.032146137 0.010985375 0.01947096 -0.04994758 0.014970414 -0.070447646 -0.015245574 0.028847067 -0.04576532 0.025840001 -0.029569604 -0.0013196645 -0.012213902 0.023592765 -0.0042222925 -0.03627593 -0.0043309964 0.024716917 -0.0004069507 0.03939001 -0.01992666 0.013948208 -0.051180452 0.052471492 0.032797705 0.002812747 -0.06859197 -0.012631454 -0.025823718 0.0016325675 0.015047558 0.0106901005 0.03889096 -0.012834491 0.022141526 -0.020345733 0.008570321 -0.00015367195 -0.042486344 -0.023380637 0.02782783 -0.043109424 -0.05168996 0.007997304 0.0039248895 0.019436 -0.052365825 0.0036871955 0.03264427 0.007134717 -0.020246709 0.047723867 0.021385977 -0.022850059 -0.010608073 0.003551446 -0.010876127 -0.037350677 -0.008814372 -0.0019102804 -0.003715871 -0.037046473 -0.003166899 -0.0033095255 -0.028823456 0.007902142 0.0054804236 -0.015407497 0.024878189 0.035441756 -0.047088005 -0.029689614 0.031307697 0.02039506 -0.02250905 0.00908792 0.028919345 -0.0068650767 0.02741519 -0.006616777 0.0014827624 -0.021905906 0.03202204 0.0139888525 -0.0171091 0.042167112 0.023076449 -0.0039863717 -0.025970995 0.019208377 0.026900955 -0.007539618 -0.057269253 0.014390843 0.016742395 0.027889885 -0.01735226 0.04123645 -0.017912462 0.017418932
30 0.0043830434 -0.03493079 -0.046472196 0.022153348 -0.0003072638 0.046278097 0.04226613 0.018419418 0.015837947 -0.0648563 -0.046598606 -0.061060596 -0.045271184 0.036559682 -0.04089111 0.025205273 -0.023923354 0.02111703 -0.044250146 0.039540183 0.053617403 -0.049555372 0.034133196 0.010670051 -0.062486134 0.03211603 0.042084567 -0.038620677 0.02539451 0.039541915 -0.013065706 0.033825263 0.010023881 0.027922971 -0.0676785 -0.052997183 0.02395633 0.01796277 -0.062227853 0.07658374 0.037066408 0.036677893 0.041389614 -0.03881918 -0.042401735 -0.0012231926 -0.035446573 0.0107432045 0.034931395 -0.048556354 0.051630348 0.0049896673 -0.030696273 -0.025376596 -0.010047018 -0.035646487 0.022762133 -0.020530835 0.040454432 -0.047470674 0.04240948 0.00030163303 -0.067881465 -0.026748931 0.028017323 -0.007309635 0.03566932 -0.0002605142 0.038077928 -0.053447183 0.03064145 0.033161264 -0.055974968 -0.045937367 -0.02748246 0.03492836 0.008009468 0.021019362 -0.05814152 -0.053839527 0.017409375 -0.05329116 0.020968996 -0.074476376 0.03799395 -0.06434162 -0.009180784 0.020875892 0.020955518 -0.011192055 -0.017636493 -0.020993166 0.021285892 -0.050594974 0.0388602 -0.060348906 -0.029338023 -0.021979535 0.041903816 0.0663348 0.05253531 0.00016227923 0.013176724 0.012795315 0.053188317 0.044671435 -0.05128754 0.018786954 -0.025565738 0.027244445 0.012843404 0.03024482 0.031386074 0.027709156 0.053997725 0.03156311 -0.045846622 -0.01797225 0.061519783 -0.029189073 -0.05542707 -0.04900906 -0.010131474 -0.011423912 -0.061179727 0.005078934 0.043266278 -0.040921614 -0.03338699 -0.06551689 -0.032404955 -0.063723385 -0.06403907 0.044541232 0.032950692 0.025752172 0.07828372 -0.00012474041 -0.037618976 -0.040961426 0.054264687 -0.03295053 0.04119518 0.03683809 0.022221817 0.02838684 0.043956663 -0.043304812 -0.054669153 -0.016998164 -0.02479235 -0.05062011 0.017135674 0.02722883 -0.058072586 -0.025522225 0.033906393 -0.018122707 -0.05443955 -0.024865843 0.039194956 -0.03226169 -0.007837659 -0.054168142 0.044982966 -0.027686782 -0.040635552 -0.08428671 0.039319716 -0.033726506 -0.01972175 -0.0378555
31 0.058576535 0.015637223 -0.035953633 -0.0056735985 -0.009041555 0.04193128 0.023631036 -0.019647539 -0.0008639819 0.012490906 -0.029674096 0.052542757 -0.035785705 0.024342079 8.999556e-05 -0.05099102 0.014991745 -0.04541309 -0.011072226 0.042171676 0.016924746 0.016776271 -0.06416994 -0.015405462 -0.03898567 -0.01659491 -0.01458282 -0.021433473 -0.0326615 -0.02411557 0.045940883 0.047193557 -0.02084025 0.011640632 -0.01958976 0.022885965 0.04109524 0.031119041 0.042111248 -0.0034940094 -0.021477833 -0.013441587 -0.031257004 -0.0028704777 -0.006715715 -0.018028751 -0.03613708 -0.022594165 -0.046735067 -0.026755203 -0.025577735 -0.0009702593 -0.025260162 0.049043465 -0.07117562 -0.02677738 -0.03077377 0.020796876 0.016451702 -0.023687724 -0.0022716895 -0.013615705 0.029612556 0.006709151 -0.05654875 0.0016064197 0.017549135 0.054560214 -0.047155503 -0.011267118 -0.0407821 0.014581606 0.0024603307 -0.0443118 -0.008050568 -0.035501778 -0.021723785 -0.093216516 -0.06072366 0.0055442043 -0.017528273 -0.00552902 -0.03606762 -0.051656187 0.032702714 0.0027228296 -0.003209941 -0.0021026954 0.006643571 0.022808403 -0.022290573 0.02264738 -6.0141087e-05 0.0055792816 0.00040804967 0.05720166 0.014302224 -0.028006945 -0.04514615 0.04083892 0.025002025 -0.004598893 0.029283047 0.03958063 0.09082625 0.05337433 0.0053678676 0.044591907 -0.020865038 0.008473076 -0.030342437 0.006843917 0.06270339 -0.03811691 -0.0369724 0.015825376 -0.016951054 0.024947852 -0.03992229 0.010673694 0.021660658 -0.012428787 -0.016212482 0.082300015 -0.029481672 -0.062684864 0.0071207136 -0.040549427 -0.04204439 -0.06302327 -0.0003240481 -0.0147009045 -0.041105963 -0.024033457 0.009267591 -0.017191712 -0.003799783 0.024795324 -0.0018453114 -0.039715037 0.046086296 0.026595656 -0.02083334 -0.0055796653 0.06180155 0.0644693 -0.0039067883 -0.036358226 -0.027034633 -0.020214867 -0.0026797578 -0.043100074 0.025214799 -0.030593127 0.0017797388 0.002382815 0.004857097 0.03485211 0.021774575 -0.033752315 -0.0013375878 -0.017708324 0.027151302 -0.041704692 -0.035827294 -0.014011387 0.008008894 0.0080975965 -0.021010004 0.033015244 -0.013127357 -0.0195653
32 0.06532161 0.11482228 0.057799462 -0.10491934 -0.08106464 -0.07861567 -0.10779804 -0.13025573 -0.037850726 0.016331676 0.020395486 0.034617636 0.12936556 -0.07675697 0.09600793 -0.13958792 0.12911794 -0.13865478 0.113611035 -0.10280992 -0.07535824 0.11122015 -0.13659889 0.006879788 0.09137875 -0.13934377 -0.113003455 0.11825962 -0.08508741 -0.10212089 0.071713865 -0.09158867 -0.050461635 -0.020489182 0.08909119 0.06782078 -0.0740498 -0.108980216 0.009543221 -0.031929128 -0.108002126 -0.041736465 -0.07360713 0.09307109 0.106068894 -0.13156706 0.12365779 -0.103283264 -0.079567865 0.08696646 -0.07084684 -0.08226229 0.06709404 0.097573675 -0.13220203 0.09176402 -0.06817557 0.0984213 -0.12757835 0.07711427 -0.10452231 0.105945475 0.094175555 0.10035683 -0.07842999 0.12562361 -0.0678912 0.15651213 -0.08749832 0.12940997 -0.07357516 -0.1311739 0.0761299 0.08746091 0.07488724 -0.111684695 -0.14907022 -0.043746933 0.05743024 0.10370551 -0.08163069 0.09489978 -0.13806811 0.07366337 -0.04527112 0.07410401 0.08193732 -0.08264733 -0.13674355 0.1788438 0.12506804 0.100497246 -0.11094262 0.10547682 -0.056666482 0.11948705 0.104867965 0.06505637 -0.09346756 -0.10882062 -0.09126929 -0.09596644 -0.104259014 -0.10730088 -0.05634004 -0.06770485 0.088186674 -0.03925384 0.1253714 -0.04683343 -0.13428324 -0.10564634 0.05699497 -0.06694904 -0.057615157 -0.13259128 0.09955465 -0.047306266 -0.067130186 0.13408007 0.050656714 0.0954488 -0.05181942 0.094746105 0.06738827 -0.15906718 -0.10670882 0.104184195 0.103299335 -0.018749416 0.12079103 -0.018589124 -0.0021438105 -0.10875677 -0.12484929 -0.01422728 -0.032424778 0.13280898 0.096593015 0.093731284 -0.13801552 0.029156104 -0.033699773 -0.10307273 -0.08149798 -0.016192043 -0.047908965 0.069233745 0.068568096 0.070626855 0.09873133 0.10601246 -0.08506658 -0.089588076 0.08113481 0.09999555 -0.098398805 0.090418085 -0.012546621 0.102794975 -0.055617996 0.11280763 0.14169194 0.056027524 -0.10511382 0.06801511 0.09266052 -0.0028318204 -0.12241371 0.08808621 0.07776415 0.078613535
33 0.05798492 0.018906526 -0.0029131174 -0.028249547 -0.030382048 -0.0029450804 -0.026563019 -0.052181005 -0.018618323 -0.017608978 -0.016198061 -0.00016293675 0.035235062 -0.018727683 0.022903666 -0.055171832 0.03651751 -0.075011574 0.02966287 -0.03712923 -0.013519891 0.025680408 -0.052887037 0.0030225646 0.015101194 -0.061686702 -0.04318121 0.032258347 -0.028478526 -0.03025382 0.04724841 -0.028927281 -0.02393904 0.014225122 -0.00015839934 0.012112118 -0.0368362 -0.046392083 -0.04978884 0.035351373 -0.038902782 0.004507594 -0.022201821 0.0005624518 0.044059157 -0.061007395 0.044175923 -0.03975515 -0.04211566 0.019291319 -0.014529541 -0.04974336 0.01552777 0.034063525 -0.07208456 0.03674669 -0.022019237 0.021266215 -0.029101603 0.020884342 -0.044210806 0.027300254 0.012509048 0.02561362 -0.044306334 0.054438725 -0.014640182 0.06355662 -0.03745891 0.040427193 -0.037510555 -0.04294336 0.017392047 0.016095556 0.026037492 -0.047007903 -0.039664134 -0.030737087 -0.008128233 0.018401079 -0.04590345 0.01651793 -0.055199236 -0.0066454783 -0.012650788 0.0038285628 0.029816866 -0.042008124 -0.054198258 0.07275236 0.04437086 0.051443256 -0.05200988 0.020112075 -0.030538436 0.024575993 0.039399743 0.024516486 -0.047153212 -0.023223475 -0.021852627 -0.037950926 -0.038253248 -0.036874928 0.013944842 -0.016691402 0.020145372 -0.026112085 0.052805312 0.0033991635 -0.0743514 -0.037576243 0.04701892 -0.024677645 -0.008747362 -0.027797066 0.011508271 -0.021269241 -0.014627345 0.03918291 -0.0032164156 0.006265439 -0.037254374 0.04375605 0.006970763 -0.064951584 -0.02670744 0.01923918 0.02706346 -0.06573753 0.019635923 -0.051382307 -0.045655042 -0.032154523 -0.03969895 0.020483833 0.020166084 0.04691726 0.019814052 0.005069837 -0.0136333555 0.004386056 -0.004919056 -0.031788126 -0.008958273 0.018283263 0.0021510646 0.020253964 0.020418033 0.012964942 0.040005542 0.013135813 -0.030771945 -0.026625916 0.0137647465 0.026358977 -0.025980778 0.04330145 -0.03389324 0.033720702 -0.017191578 0.038109303 0.06675802 -0.0091037005 -0.047261856 0.012369253 0.016438589 -0.045243654 -0.028796867 0.040673114 0.009218171 0.018080398
34 0.058286928 0.050411597 0.010648638 -0.05072438 -0.017305799 -0.023769505 -0.0407859 -0.057359852 -0.034749538 0.03475859 0.00089686364 0.032736994 0.064031005 -0.031096391 0.021441072 -0.057336286 0.050252043 -0.06793026 0.04535614 -0.038492486 -0.033218563 0.046253234 -0.055739395 0.005800782 0.03745842 -0.058927327 -0.04772432 0.045311406 -0.040170334 -0.04472226 0.023681581 -0.031711936 -0.018149115 -0.0026959963 0.047755226 0.042771697 -0.02464439 -0.04197017 0.03389228 -0.045732617 -0.050137937 -0.02085029 -0.019333452 0.04779976 0.037481077 -0.05241578 0.02615881 -0.051070265 -0.026149817 0.032617055 -0.05109063 -0.016334437 0.022937417 0.032011792 -0.057838894 0.03192071 -0.017831773 0.03925807 -0.06558862 0.030214548 -0.048305012 0.04701016 0.042791158 0.042634964 -0.03230211 0.038959317 -0.005280398 0.06834048 -0.051281445 0.045302823 -0.05668886 -0.04387115 0.017889827 0.04041504 0.037097637 -0.05484996 -0.06473221 -0.039187312 0.033259854 0.040944748 -0.026227739 0.043392554 -0.067595154 0.020052075 -0.0025649294 0.043388963 0.03491438 -0.024799615 -0.050593905 0.076773465 0.06340811 0.039176613 -0.046856686 0.049565822 -0.014277052 0.050370798 0.04438807 0.027955044 -0.039922073 -0.038592786 -0.059359856 -0.026593238 -0.043776892 -0.042492434 -0.0072249696 -0.028944716 0.02813325 -0.0034492277 0.044661455 -0.015160777 -0.06568299 -0.049956188 0.029186659 -0.024660006 -0.024595603 -0.059781395 0.0440477 -0.0016315207 -0.013529405 0.04664211 0.016531453 0.049022153 -0.02325777 0.0479441 0.023240976 -0.07618656 -0.053658277 0.04886833 0.040550806 -0.016466312 0.06171976 0.028028268 0.005789779 -0.04826384 -0.03953795 -0.02229484 -0.014175639 0.05826229 0.05449652 0.050794043 -0.0568164 0.013260122 -0.0029134788 -0.053158835 -0.0216837 -0.01319446 -0.025690578 0.010841146 0.021408826 0.013329543 0.026509635 0.04584442 -0.03104125 -0.042535692 0.03413105 0.034711085 -0.051060364 0.014602043 0.023948457 0.03989064 -0.008895785 0.031637385 0.04139498 0.01942113 -0.044372164 0.025283515 0.05811701 0.016606957 -0.045567736 0.021529876 0.020256512 0.04110322
35 0.03827345 0.06785204 0.012874246 -0.066466995 -0.020437807 -0.030530661 -0.043536887 -0.067835316 -0.023720238 0.017323412 -0.0035633594 0.008105442 0.07424191 -0.023242205 0.018346637 -0.05997199 0.06097983 -0.060896367 0.047593504 -0.039271995 -0.026884712 0.05061145 -0.05385661 0.012133557 0.030464843 -0.050881565 -0.037503287 0.044988945 -0.032607764 -0.03949511 0.011067115 -0.031490244 -0.010038175 -0.008220576 0.05293767 0.026040189 -0.022184975 -0.039336033 0.03460808 -0.035743907 -0.038288742 -0.013800338 -0.0081413165 0.064522296 0.036329597 -0.061517075 0.030135944 -0.060776003 -0.0013222173 0.030042693 -0.03670983 -0.016723089 0.013175532 0.034875363 -0.058728263 0.023298629 -0.015281759 0.05702454 -0.07012048 0.02426441 -0.032839596 0.07658707 0.031992912 0.050143093 -0.0136350915 0.049361788 -0.005108252 0.087729126 -0.033518754 0.0439941 -0.03781101 -0.049366325 0.009802595 0.036287956 0.033333167 -0.036164574 -0.095162496 -0.014186285 0.03734024 0.040246874 -0.013653204 0.04067768 -0.076258704 0.019893453 0.010108836 0.034558617 0.042125024 -0.0119481385 -0.061950386 0.08881019 0.068686835 0.031598 -0.038281888 0.049554393 0.009005703 0.037875548 0.034625992 0.02500929 -0.014888696 -0.033981502 -0.045766614 -0.040042706 -0.057889596 -0.056474894 -0.011390999 -0.01914443 0.024043828 0.008996807 0.044769213 -0.020251282 -0.05658967 -0.042845078 0.039789557 -0.015945144 -0.008106582 -0.07488919 0.04730785 -0.019819397 0.005727276 0.0602068 -0.0024636388 0.06078635 -0.017718226 0.047358282 0.0087763 -0.089534864 -0.05667869 0.04957474 0.051021427 -0.00911155 0.07653853 0.022942878 -0.0010261983 -0.04347661 -0.045124993 -0.021980174 0.00086554885 0.073863916 0.05825992 0.062642924 -0.080393404 7.176027e-05 0.011515871 -0.04653305 -0.030545376 -0.023076553 -0.027063832 0.0070977584 0.0020767301 0.022382013 0.020297691 0.05598697 -0.03424816 -0.041426845 0.024756901 0.047030374 -0.051213592 0.011058509 0.016621277 0.047654614 0.0032494143 0.03827806 0.053409413 0.02171912 -0.023343295 0.022552937 0.060612366 -0.0010023266 -0.05778058 0.012196317 0.031468973 0.038949408
36 0.07039896 -0.014534362 -0.024713084 0.0022907332 0.021007486 0.032812633 0.016247988 -0.019088387 -0.022936493 0.03130184 -0.019702636 0.037075907 0.002611272 0.008365668 -0.025159135 -0.009574495 -0.010029145 -0.05126208 -0.002263911 -0.0042921975 -0.0072157383 0.0055013597 -0.014151223 -0.008870252 -0.004473977 -0.015766531 -0.022583876 -0.013353877 -0.009657282 -0.00810083 0.02914536 0.010227971 -0.009111803 0.010353502 0.002074398 0.0202526 -0.0028247833 0.007191427 -0.0024700214 -0.0010135043 -0.011220396 0.011474058 -0.0012071319 -0.018803455 0.017561235 -0.0019589812 -0.023115933 -0.015234921 -0.02252404 0.003211312 -0.029034216 -0.008255824 -0.013580948 0.0061667114 -0.026075255 0.001639396 0.0041213557 -0.008343056 0.0029525757 0.0058853254 -0.025662497 -0.013459973 -0.0008093342 -0.009959005 -0.038872305 -0.0024371147 0.026943363 0.012122631 -0.03975854 -0.0027329475 -0.04792923 0.015124679 -0.00037449598 -0.0094563365 0.011065587 -0.023506682 0.020721182 -0.057224337 -0.01012852 -0.0040003583 -0.018880427 0.0020263493 -0.02818349 -0.028092653 0.007881794 0.0071953908 -0.004907567 -0.009091459 0.00071646273 0.01048819 -0.0006765947 0.021848612 -0.009676326 -0.004162669 -0.015303496 0.007249728 0.0040574297 0.002142474 -0.031176083 0.00838159 -0.012823217 0.016269654 0.0055623576 0.010746054 0.058909386 -0.002097156 -0.004719764 -0.009797856 -0.0035115108 0.02232853 -0.042301696 -0.0027494952 0.035014264 -0.011140898 -0.011582885 0.013857469 -0.015231639 0.024531052 -0.0017613098 -0.017020263 -0.008727632 -0.007427104 -0.017660178 0.03531972 -0.008030847 -0.017582618 -0.0075584725 -0.013897523 -0.008514814 -0.05678301 -0.014350884 0.00826212 -0.029284472 -0.012529187 0.019634947 0.0021663266 0.00053581595 -0.008325137 0.0022306964 -0.020708933 0.03308224 0.010024564 -0.0059955455 -0.01202105 0.051303335 0.015112247 -0.006341651 -0.009440117 0.00021794438 -0.027643755 -0.0068623573 -0.010583445 0.006944239 -0.004003212 0.005064305 -0.0049221367 -0.00737492 0.0013359636 0.024069227 -0.0065661594 0.0035088398 -0.006091118 0.0060938597 -0.024239793 -0.031145565 -0.010122184 0.014474835 0.0021429996 0.00799159 0.013120867 -0.033632107 0.0065738373
37 0.09185769 0.0121230185 -0.026818834 -0.019483805 0.03191714 0.023785196 0.008521453 -0.028906822 -0.0446507 0.075405926 -0.01809296 0.069445714 0.024809584 0.0012941286 -0.031738035 -0.018057667 0.0029817224 -0.054163612 0.01034911 0.0004838705 -0.015452117 0.018607333 -0.022972353 -4.7323294e-05 0.0071289316 -0.022263587 -0.026985332 2.7954578e-05 -0.027087517 -0.023193091 0.01436767 0.013861045 -0.007938419 0.005336117 0.035046533 0.048756424 0.011113927 0.0072444007 0.07189233 -0.0708818 -0.027501777 -0.012309 0.0052612126 0.021608658 0.005578622 -0.002981864 -0.04946883 -0.029937543 -0.009554088 0.0053850412 -0.06463687 0.026039116 -0.008363754 0.0021153614 -0.032823205 -0.005549751 0.005515434 0.0062525123 -0.029369712 0.0069606453 -0.028988779 0.005457826 0.022559375 0.0075908005 -0.028366983 -0.017579004 0.045898676 0.026169524 -0.06137219 -0.0025336891 -0.07897884 0.017710418 -0.009659328 0.009126663 0.02314714 -0.0398361 -0.008874506 -0.07766976 0.014860764 0.010736637 -0.005049683 0.024389394 -0.048600033 -0.02184914 0.027660258 0.04161954 0.0032044724 0.004708931 0.0034336 0.022630364 0.025203705 0.014223158 -0.013875052 0.020219818 0.004050575 0.033323288 0.013877906 0.007172942 -0.029341757 0.006121695 -0.049088724 0.025205351 0.0010888577 0.008536831 0.054916978 -0.0056109503 -0.0027406588 0.018966127 -0.0100061 0.010313608 -0.047519207 -0.020181268 0.030777344 -0.013067506 -0.022383839 -0.01593259 0.008196592 0.04592902 0.0054521263 -0.010899782 0.0034619719 0.025345132 -0.01532232 0.050852954 -0.0013591722 -0.04499054 -0.031739846 0.012282416 -0.0015223175 -0.03766176 0.027538292 0.07987794 0.0054478943 -0.029083893 0.023511767 -0.03796401 -0.018980563 0.009653434 0.03828565 0.018433325 0.0022667944 0.015514083 0.0033774525 -0.034805626 0.046037465 -0.000846494 -0.022797048 -0.031353272 -0.0071944147 -0.034889586 -0.020711705 0.011864126 0.005230345 -0.024901263 0.019607745 -0.0012522787 -0.030741595 -0.028214261 0.0722008 -0.0029072762 0.019597001 -0.02233833 -0.017806634 -0.010177664 -0.029992089 -0.0042898357 0.055004857 0.0492625 -0.0035147965 -0.0056881607 -0.028362282 0.023660041
38 0.07860744 0.029661357 -0.005527064 -0.035693146 -0.005320266 -0.00021030754 -0.020442456 -0.052067332 -0.036398403 0.03333394 -0.0114998 0.039580118 0.047297105 -0.018483289 0.005605899 -0.048537083 0.032762624 -0.07628693 0.032239906 -0.030850224 -0.025549937 0.035530195 -0.05028212 0.0006853328 0.022858657 -0.0529212 -0.045289196 0.029142149 -0.03550362 -0.037605222 0.03559935 -0.019312888 -0.020664938 0.0046159253 0.032260776 0.03846712 -0.02078142 -0.03077133 0.017793056 -0.026417028 -0.04298624 -0.00917046 -0.016014963 0.023657434 0.036064215 -0.042358875 0.011708304 -0.045672428 -0.03048442 0.025340296 -0.04933215 -0.019786939 0.012324806 0.027723432 -0.060466565 0.0260268 -0.012054745 0.025678199 -0.04529898 0.024666898 -0.04669562 0.030039262 0.028883688 0.026982307 -0.042349253 0.030371636 0.008379847 0.05771763 -0.057137087 0.03253763 -0.06413654 -0.026769392 0.013295315 0.025535747 0.033501137 -0.053005844 -0.038762383 -0.055312708 0.0145628415 0.028025687 -0.032721695 0.03321807 -0.06478128 -0.0016105026 0.002196718 0.03322509 0.024101578 -0.026152305 -0.03793194 0.06431165 0.047859393 0.041298665 -0.041304857 0.032310225 -0.01932117 0.04101123 0.03714951 0.023118217 -0.04680611 -0.022211552 -0.048859756 -0.014717005 -0.029087093 -0.026561685 0.02493471 -0.021785006 0.018748868 -0.008749904 0.033277884 -0.00046323612 -0.0706607 -0.040760174 0.040951427 -0.02563307 -0.02328924 -0.03652166 0.022962581 0.0072809234 -0.011317603 0.026813678 0.0059892684 0.030490011 -0.029553775 0.053921096 0.012275189 -0.06754233 -0.041333154 0.030101389 0.024540119 -0.045939308 0.037676163 0.018741086 -0.012890056 -0.04230255 -0.020008817 -0.0122844 -0.00574938 0.041407548 0.04004087 0.025458708 -0.023849659 0.01415143 -0.0065017603 -0.045479286 0.0078844875 0.0007932838 -0.019707099 0.0028732866 0.015528701 -0.003106095 0.019475855 0.02718953 -0.021133557 -0.03396179 0.027434729 0.02445903 -0.040462673 0.015244134 0.022892458 0.026681416 -0.004528787 0.022095196 0.036892824 -2.2370368e-05 -0.047387473 0.014028475 0.047332846 0.007384032 -0.030017339 0.024121165 -0.0016278625 0.032381903
39 0.04379064 -0.018264124 -0.045121305 -0.004942306 0.01032742 0.031915538 0.016839676 -0.009981008 -0.015252866 -0.014728915 -0.044228606 -0.03680091 -0.0039919605 0.020065958 -0.048877448 0.010730766 -0.0083160205 -0.006395126 -0.018809242 0.017789185 0.034405135 -0.033582818 0.026597043 0.025768582 -0.031076785 0.00019400631 0.016688043 -0.016448012 0.007966623 0.024229633 -0.02009869 0.018046636 0.0122613665 0.029899247 -0.03294391 -0.020961683 0.007587042 -0.0023942224 -0.026497357 0.019415218 0.009844657 0.022694407 0.05093974 -0.008305209 -0.02811204 -0.018280484 -0.046040155 -0.010049564 0.03420061 -0.038965765 0.014642629 0.024108998 -0.022823017 -0.035717506 -0.022535708 -0.022988323 0.0214119 -0.016574053 0.00057088526 -0.03153702 0.013817572 0.014200587 -0.047671184 -0.0062516797 0.02788332 -0.009181332 0.048488595 0.019621823 0.008822433 -0.03391321 -0.016068023 0.023155227 -0.059440333 -0.019379037 -0.005052505 0.008661963 -0.017851043 0.0005730546 -0.01695919 -0.04244892 0.021627195 -0.030461451 -0.011614851 -0.060977686 0.040353432 -0.028050901 0.010075628 0.022292612 1.985277e-05 0.014408018 0.025713544 -0.01200038 -0.007018568 -0.020707777 0.04528842 -0.045877066 -0.014738014 0.00073710835 0.035309747 0.04185189 0.0043820003 0.0043585664 -0.01573727 -0.008123194 0.038431328 0.021383407 -0.04375758 0.023257058 -0.0058519174 0.026262386 -0.022998383 0.0044866507 0.029520515 0.032026015 0.053081416 -0.005321623 -0.020798244 0.000520345 0.073678054 -0.01670419 -0.05213435 -0.021367144 -0.016602041 0.0009980218 -0.045590546 -0.026984148 0.0044044955 -0.009129689 -0.0035959517 -0.06361181 0.008052271 -0.0061050407 -0.048119955 0.02495814 0.021969955 0.0021519333 0.0631784 0.014252799 0.005054107 0.00027245295 0.016473861 -0.0339734 0.061215423 0.008018955 0.012396171 0.009187924 0.034191743 -0.044409215 -0.044634376 -0.023581617 -0.030810438 -0.016220823 -0.0007491871 0.0072418135 -0.041264247 -0.022788864 0.003218026 -0.046997473 -0.019425469 -0.0010458664 0.04662111 -0.038035814 -0.01769839 -0.03686345 0.028002659 -0.02432981 0.003144819 -0.055965733 0.031086966 -0.040699843 -0.015098264 -0.012743659
40 0.036365747 -0.07841608 -0.074200794 0.05211208 0.036867253 0.082531855 0.07568437 0.03767801 0.0052150507 -0.036427632 -0.060853206 -0.037948057 -0.074163444 0.05744969 -0.08108083 0.058233418 -0.06510506 0.025081709 -0.067603536 0.057944156 0.065193236 -0.075935826 0.06468722 0.009766731 -0.07762304 0.048813835 0.049940467 -0.0688796 0.036590382 0.05863096 -0.0137237385 0.05956112 0.016182587 0.03927694 -0.084375754 -0.049797233 0.035460256 0.04453034 -0.061324537 0.07185471 0.050326645 0.048351105 0.060941413 -0.07288803 -0.05671729 0.03345208 -0.08455548 0.031269256 0.03908272 -0.06775661 0.04521941 0.02947861 -0.050169 -0.056167334 0.008838877 -0.05307789 0.03876186 -0.058649436 0.07251178 -0.058919173 0.047036998 -0.0429581 -0.089080766 -0.056729324 0.027844124 -0.047781155 0.0703419 -0.040518895 0.028377283 -0.08248012 0.008634187 0.07712225 -0.07319857 -0.06671278 -0.03432441 0.04215776 0.06403364 -0.005683437 -0.070080146 -0.08225712 0.025359228 -0.069618374 0.036785968 -0.10461566 0.048432276 -0.067630924 -0.031460762 0.033656366 0.05605896 -0.05405751 -0.04249748 -0.03314975 0.033988364 -0.07648992 0.04224412 -0.0809443 -0.050367936 -0.027769953 0.043994904 0.091934085 0.057452377 0.040081583 0.041690618 0.048119597 0.093839005 0.05184322 -0.07277398 0.019048318 -0.0555598 0.05401991 0.014648147 0.04910937 0.027918804 0.03950767 0.06101738 0.06910103 -0.078127444 0.017631598 0.07569706 -0.07621654 -0.068793744 -0.078089006 -0.010634333 -0.01595825 -0.0734549 0.034921512 0.05884316 -0.06794889 -0.0588706 -0.09301561 -0.067629255 -0.03530243 -0.073316336 0.060525045 0.07761201 0.026504848 0.07744564 -0.047005728 -0.052359447 -0.07160935 0.10494482 -0.034461945 0.048034456 0.051007055 0.072189346 0.040929116 0.054955274 -0.06441559 -0.065075904 -0.05523058 -0.05518075 -0.07537108 0.03710194 0.044386573 -0.06836942 -0.058074504 0.050946854 -0.04936132 -0.031251095 -0.050764218 0.055182047 -0.07140104 -0.051051095 -0.07745263 0.04785718 -0.0530875 -0.049104538 -0.07072304 0.08003276 -0.04730086 -0.060091585 -0.051307075
41 0.037460275 -0.045782477 -0.05122264 0.013109978 -0.0022603087 0.05038257 0.029630087 -0.0069505647 0.0026104413 -0.06760723 -0.05567784 -0.07504548 -0.024625614 0.030619845 -0.048776098 0.014011659 -0.018426139 -0.0123138875 -0.03376564 0.013824236 0.048402824 -0.048996963 0.031449582 0.019777926 -0.05102804 0.0022743754 0.021639701 -0.030109238 0.021993063 0.04017307 0.00053841807 0.015343182 0.006521102 0.03989055 -0.07261091 -0.05387322 -0.007690318 -0.007820651 -0.10966685 0.10088379 0.024400845 0.050405756 0.04875893 -0.05241438 -0.016668387 -0.026447017 -0.021222048 -0.0033273268 0.023825852 -0.046172667 0.050743405 -0.014145769 -0.029615141 -0.03185296 -0.03020664 -0.01632078 0.02232712 -0.029542629 0.032629486 -0.03538808 0.018859774 0.0018648021 -0.077845976 -0.022526156 0.016975304 0.010592297 0.0375759 0.015866153 0.028147614 -0.037287883 0.009414698 0.020314649 -0.05661082 -0.04157807 -0.014966225 0.022472229 0.005001411 0.017495919 -0.050088212 -0.062079877 0.003651347 -0.05553472 -0.0005501732 -0.0808976 0.02776555 -0.06692198 0.0062500276 0.0068917535 -0.006136395 0.011678003 0.0069385096 -0.0011444241 -0.0065369457 -0.04898137 0.03188798 -0.07515808 -0.021852855 -0.0008678157 0.03185547 0.05346536 0.040336818 -0.008532159 -0.014570862 -0.008566994 0.056880392 0.028067905 -0.049585994 -0.003719002 0.004044961 0.04296699 -0.02796707 0.017522369 0.045681003 0.034105405 0.070252046 0.023805737 -0.049021427 -0.025084179 0.076021366 -0.023732182 -0.075503275 -0.05781352 -0.029421581 -0.00645636 -0.061996162 -0.013346709 0.02914938 -0.03554508 -0.01239467 -0.103555724 -0.030731328 -0.085094914 -0.09550416 0.04141652 0.021195728 0.045894414 0.098671295 0.00480609 -0.03028736 -0.04177947 0.051798526 -0.04302476 0.057560917 0.028057769 0.02178789 0.03112426 0.055291787 -0.029938072 -0.04423017 -0.021321893 -0.017499976 -0.040972814 -0.0008369498 0.02693113 -0.06012439 -0.02633401 0.02514501 -0.017632429 -0.07513707 -0.0037017278 0.03771526 -0.021627113 0.012595598 -0.061424028 0.028324142 -0.031752203 -0.037019726 -0.11914848 0.043484323 -0.023130208 -0.023920026 -0.030713966
42 0.34424645 0.21668454 0.10290844 -0.23053406 -0.14624695 -0.13908204 -0.25458044 -0.3634382 -0.16760476 0.16035706 0.031243 0.22756942 0.32249507 -0.19607255 0.21076569 -0.3696831 0.27903828 -0.4745988 0.30546248 -0.29461733 -0.22579198 0.28824607 -0.37917623 0.006263704 0.26917687 -0.4362607 -0.3736222 0.296565 -0.25557077 -0.29098678 0.27784714 -0.22709091 -0.16093658 -0.018324066 0.22882494 0.25579843 -0.23150875 -0.28333974 0.006044872 -0.10976493 -0.3362941 -0.10647078 -0.2170529 0.16116543 0.33496568 -0.31985202 0.27144364 -0.26168126 -0.30860472 0.2345542 -0.26956236 -0.21913868 0.16804403 0.23853245 -0.38554594 0.27368626 -0.19446349 0.18084332 -0.29816157 0.23731479 -0.3628766 0.15948105 0.27025214 0.22821449 -0.3058739 0.28449205 -0.13594414 0.36694983 -0.35240653 0.3592912 -0.34245273 -0.29842845 0.2324791 0.22299196 0.23248647 -0.37672988 -0.26694092 -0.27151895 0.13926542 0.25940183 -0.27943698 0.26729515 -0.40020376 0.15873948 -0.14759107 0.24707238 0.1914133 -0.2647437 -0.3407457 0.43889588 0.31661147 0.3233838 -0.3494605 0.2694015 -0.23269115 0.35086828 0.29749873 0.20323433 -0.3597986 -0.29968613 -0.29348806 -0.18205369 -0.23866841 -0.22116861 -0.051351123 -0.21271731 0.24763338 -0.15716827 0.33392176 -0.059551544 -0.4616826 -0.29770604 0.17211396 -0.20934345 -0.20352197 -0.28456074 0.21132708 -0.021866547 -0.2340054 0.28882354 0.15324445 0.19938563 -0.18079913 0.3096961 0.21102057 -0.41472968 -0.29980013 0.24305774 0.24926603 -0.17124799 0.25012368 0.010040186 -0.04290344 -0.323728 -0.27952886 -0.023349894 -0.14094023 0.26008296 0.26114303 0.178583 -0.25578168 0.116484635 -0.12480874 -0.29990754 -0.08759763 0.0160346 -0.12188358 0.1895771 0.23566386 0.10057466 0.25273457 0.25001615 -0.21711066 -0.24756385 0.25675586 0.2159187 -0.26276273 0.23393539 0.032465085 0.2510962 -0.1699123 0.25375873 0.3404366 0.10837762 -0.38622436 0.13826963 0.26370886 0.0522817 -0.26929003 0.2934473 0.10891891 0.21448836
43 0.09626375 -0.022458695 -0.040349755 0.006006986 0.031351686 0.042312324 0.024194524 -0.017403431 -0.03749384 0.04417646 -0.031116292 0.051416498 -0.00050289184 0.010965906 -0.036581375 -0.004908763 -0.018807307 -0.055206932 -0.0038965195 0.0016871616 -0.00040742755 -0.004233934 -0.010290086 -0.0006203735 -0.007361442 -0.021662682 -0.021773815 -0.011142291 -0.015450202 -0.009096913 0.029866159 0.017045781 -0.0107049495 0.020562138 -0.0020911843 0.02822506 0.0010723621 0.005441673 0.009759534 -0.015509035 -0.017363291 0.0070847496 0.007695742 -0.020396464 0.0069954246 0.0010227561 -0.04386641 -0.013207987 -0.019219924 -0.0048787743 -0.039770916 0.008104458 -0.012505408 -0.0076196417 -0.034418344 -0.0014394149 0.00700026 -0.01845552 0.0026032478 0.00043728203 -0.026679724 -0.019724615 -0.0044061095 -0.0118151605 -0.033243753 -0.016971454 0.04438568 0.006208822 -0.0533939 -0.010131858 -0.069862485 0.026723929 -0.012484476 -0.00591895 0.015960403 -0.033829123 0.026197784 -0.07259313 -0.013780318 -0.010503754 -0.019304745 0.0046328306 -0.03230492 -0.042478442 0.018603168 0.014670711 -0.0060498603 -0.008049279 0.009572811 0.007660389 0.008896261 0.01991015 -0.017821357 -0.006651029 -0.0117256045 0.009223536 0.007699728 0.0068775937 -0.034797594 0.018157318 -0.026520517 0.027258374 0.011494473 0.018947437 0.06957316 -0.0013158619 -0.012454823 -0.0022966117 -0.008606851 0.027777903 -0.051958717 -0.010991581 0.035517804 -0.010153335 -0.009969812 0.014848679 -0.020923607 0.040051334 0.006863788 -0.028112866 -0.011680707 -0.011146657 -0.025232641 0.04017155 -0.009315141 -0.024183966 -0.009427652 -0.009207837 -0.014609098 -0.07502041 -0.011540696 0.032890633 -0.026942717 -0.014118999 0.032423012 -0.0064130314 0.0024908073 -0.012100123 0.011380523 -0.017489292 0.042504795 0.008600498 0.0020688847 -0.017747033 0.060333163 0.020759713 0.00052621216 -0.026203223 -0.0047552288 -0.042230617 -0.014870986 -0.014465377 0.006791264 -0.009147294 0.005299866 -0.015265107 -0.009739496 -0.016252957 0.03442614 -0.010665193 0.015780054 -0.026438102 -0.013865203 -0.03147022 -0.031085316 -0.017564151 0.022831365 0.011425033 0.020279326 0.003886819 -0.04521363 0.006272711
44 0.16443722 0.23608579 0.13570032 -0.19623077 -0.057745494 -0.14836633 -0.18416458 -0.22120726 -0.11779017 0.22025809 0.09882873 0.24409473 0.27263126 -0.15388365 0.15897298 -0.24032162 0.20934862 -0.26617402 0.22528107 -0.1928637 -0.21606638 0.2650804 -0.26911026 -0.030447047 0.22253755 -0.23107353 -0.23560826 0.20694786 -0.18121101 -0.2289313 0.13548712 -0.1542328 -0.09732269 -0.0893306 0.29075146 0.23301516 -0.1085858 -0.14338076 0.23698118 -0.26186952 -0.22018094 -0.13401097 -0.17378162 0.21692023 0.21609789 -0.1498222 0.1688019 -0.18977171 -0.1627957 0.21561085 -0.2628135 -0.09225476 0.12682593 0.19064364 -0.17374624 0.16540736 -0.110306084 0.18869352 -0.26193693 0.19576241 -0.22344586 0.15217075 0.27535558 0.17897528 -0.18644497 0.15083084 -0.09716057 0.22371963 -0.24283557 0.24824072 -0.22067466 -0.2014442 0.19981116 0.19858006 0.16710773 -0.23394655 -0.20907313 -0.17941171 0.1904331 0.25365523 -0.14136283 0.25125432 -0.26545066 0.20941025 -0.086793125 0.26015 0.11202954 -0.13035291 -0.19076306 0.26091206 0.1951971 0.17378049 -0.1622133 0.24314481 -0.13456346 0.30673984 0.19560874 0.11824499 -0.22992808 -0.23971105 -0.25848413 -0.0895631 -0.13522267 -0.13793197 -0.08506511 -0.16730043 0.20727786 -0.056500442 0.17380701 -0.106584504 -0.21945925 -0.20307042 0.054070264 -0.16178186 -0.21430187 -0.2299566 0.21718456 0.019591782 -0.20249291 0.20206994 0.16900751 0.25322515 -0.058229692 0.20543493 0.18813962 -0.2521973 -0.2393278 0.21370375 0.1729359 0.072905675 0.23851536 0.1920765 0.13896108 -0.25444937 -0.17543015 -0.11306377 -0.21183352 0.17922534 0.22189571 0.20657352 -0.26690966 0.12781891 -0.14066713 -0.23540112 -0.07587349 -0.082006335 -0.19171408 0.12711059 0.1711481 0.07810957 0.14322397 0.23863475 -0.1156794 -0.18498297 0.23805608 0.1843272 -0.21865755 0.12931502 0.18645097 0.15731415 -0.11916916 0.19268589 0.17948982 0.15729883 -0.2373975 0.14165637 0.25084665 0.2229648 -0.24435684 0.16649415 0.09448237 0.19851503
45 0.0899847 -0.004566565 -0.045727838 -0.011080161 0.05799683 0.041671496 0.025143236 -0.024513155 -0.03751401 0.0938352 -0.030447472 0.06739372 0.00605122 0.026981328 -0.06615377 0.003910221 -0.018105298 -0.041340955 -0.00511571 0.019991562 -0.00076606125 0.0035082698 0.0041759983 0.0057606045 -0.0076848045 -0.0017326623 -0.015095338 -0.030210137 -0.009154297 -0.0018843785 -0.0059070475 0.041420363 0.012883864 0.008563567 0.027735747 0.04046966 0.028366767 0.04124354 0.08137956 -0.07701582 -0.0059896633 0.001592502 0.031375464 0.015518632 -0.007900894 0.017348692 -0.09409328 -0.019049563 0.010812696 -0.018275201 -0.055013582 0.054091096 -0.04136606 -0.018300883 -0.013544425 -0.034624323 0.013476543 -0.009159613 -0.0072944015 -0.012601383 -0.013856575 -0.009439807 0.0014784299 -0.008176923 -0.014331561 -0.04387714 0.07043955 0.01604341 -0.051663466 -0.026440471 -0.07831153 0.050685346 -0.032221124 -0.01915484 0.007864006 -0.015315928 0.0038894713 -0.08133206 0.013033312 -0.014001474 0.023863375 0.0033303872 -0.040982865 -0.04309447 0.047096882 0.03097764 -0.0080712065 0.03493309 0.01912497 -0.0035157353 0.004075408 -0.004882917 0.005369395 0.0054727346 0.032368854 0.007585153 -0.018271841 -0.007921752 0.0019727051 0.02698242 -0.02405823 0.046214942 0.008662179 0.026578233 0.078887165 0.016893424 -0.0240058 0.03921936 -0.03758122 0.027740095 -0.035591006 0.012137353 0.03663144 0.008522876 -0.0011188686 -0.0030045435 -0.011268888 0.0641338 0.03129447 -0.02993007 -0.016611654 0.012100857 0.00011314452 0.047497336 -0.024859268 -0.032500267 -0.024888776 -0.017531104 -0.009694308 -0.042015385 0.014126249 0.099119574 -0.011427235 -0.009699456 0.04831253 -0.042624917 -0.015782233 -0.016721383 0.031277537 0.0047891885 0.017657317 0.0014904169 0.028613014 -0.0112748295 0.0795555 0.0025272053 -0.014190584 -0.05018593 -0.035971038 -0.053702664 -0.056629688 -0.0008530915 0.021501303 -0.011752427 -0.00079506636 -0.019067802 -0.014629684 -0.05994747 0.09016238 -0.018349484 0.040028155 -0.054984584 -0.04382859 -0.022803567 -0.011855312 -0.032433275 0.052459132 0.051051676 0.016337126 -0.02408503 -0.043771617 0.0062772706
46 0.090514176 0.033933446 -0.0011386052 -0.03138619 0.000879962 -0.005260594 -0.0241981 -0.05027985 -0.044886395 0.07098724 -0.0014550947 0.08372053 0.0446824 -0.025760375 0.015397549 -0.053860888 0.031234108 -0.08570859 0.041124016 -0.029263966 -0.040163733 0.047714196 -0.063275546 -0.0074465284 0.038186654 -0.06042593 -0.06118747 0.03373652 -0.047535673 -0.054193765 0.044126216 -0.01449804 -0.02468356 -0.0010171682 0.04989925 0.067672595 -0.012744568 -0.021465212 0.056087375 -0.06552036 -0.057452194 -0.02583025 -0.03378101 0.032106854 0.039866433 -0.030387618 0.001915358 -0.04152964 -0.053413223 0.036365077 -0.075530745 -0.009789895 0.018063828 0.03738004 -0.059599303 0.028639905 -0.023262404 0.02518382 -0.05100158 0.03244061 -0.063472874 0.012965322 0.055619203 0.028464459 -0.062987044 0.01920478 0.005122047 0.051027656 -0.08379471 0.0407435 -0.086795755 -0.022739597 0.028915852 0.03382861 0.038974427 -0.07375091 -0.026724026 -0.08880673 0.021575347 0.04462661 -0.039142027 0.04946065 -0.067400075 0.011834659 -0.0051940307 0.057217434 0.016770452 -0.032035217 -0.02963239 0.058598965 0.041486718 0.047865264 -0.045418806 0.046399966 -0.038805276 0.07344357 0.046277612 0.01985583 -0.06968776 -0.035020635 -0.064021334 -0.001962155 -0.015346736 -0.012125231 0.024734627 -0.027361125 0.03070262 -0.0076844655 0.02602145 -0.0061650537 -0.07534023 -0.045168057 0.033886794 -0.041427046 -0.05312797 -0.036687605 0.03236416 0.032174625 -0.04219858 0.026549041 0.03767153 0.04016432 -0.0234221 0.06748833 0.03302545 -0.06487401 -0.050305083 0.033507437 0.020430103 -0.03203033 0.038188748 0.050488885 0.008731067 -0.05904959 -0.019262634 -0.030571856 -0.044378147 0.031716734 0.04962808 0.028403409 -0.021349892 0.033322267 -0.027297437 -0.056275696 0.019581292 0.0032579377 -0.03411408 0.005939059 0.03078793 -0.0057222284 0.022416405 0.029304132 -0.016312342 -0.046162285 0.04759875 0.02492813 -0.04764159 0.019458637 0.0556595 0.020274162 -0.017704308 0.015868932 0.02561766 0.010849893 -0.07142834 0.017834492 0.06248288 0.05386275 -0.035429828 0.03633816 -0.0049632937 0.039693587
