184 172
0 -0.8427306 -0.4726988 -0.15215236 -0.8237068 -0.7963398 -0.567672 0.7477335 0.675576 0.6003167 -0.37856212 -0.3655571 -0.09093574 -0.12118069 -0.0072880113 -0.07702009 -0.07241926 -0.124242395 0.12511492 -0.036551133 0.03275588 -0.096516185 -0.043716386 -0.113601446 0.07342074 -0.024787135 0.0075671305 -0.08293436 -0.16296238 0.10836351 0.005049301 0.07630185 -0.017273432 -0.0023079666 -0.07702347 0.035107754 -0.09296766 -0.014861481 0.04954502 -0.11227479 0.03329174 -0.015171411 -0.030875392 0.01633388 -0.028977817 0.037336547 0.0057308464 -0.104102075 -0.016177537 -0.07626873 -0.040521126 0.009661607 -0.018188909 -0.07953594 0.03873647 -0.007163636 0.016129918 0.0815042 0.052764982 -0.0011030819 -0.023832712 -0.055719633 -0.024294972 -0.048981033 0.011970105 -0.0013285282 -0.059435226 0.030339044 0.008439981 0.027979698 -0.0021036218 -0.054295275 0.028380552 0.103184596 0.02431784 0.00955941 0.020868452 0.065096304 0.016855445 0.028934427 -0.09033799 -0.040047016 -0.037594892 -0.010701192 0.020215021 0.016072104 -0.030083204 0.012404542 -0.008135891 -0.004149465 0.014134841 -0.0061187204 0.018937694 -0.009310598 -0.07253807 -0.020718401 -0.008064093 -0.010188044 -0.04573233 0.03789577 0.013499932 -0.025997924 0.004155174 -0.041570034 0.023208782 -0.04899936 -0.004985567 -0.0295225 -0.03631545 0.056781232 -0.021456866 -0.017453058 0.016192572 -0.016213786 -0.033313785 -0.018782252 0.007484668 -0.0059443326 0.033696417 -0.016237956 0.042136654 -0.003978516 0.049265366 -0.016991394 -0.053442728 -0.01710328 -0.07697809 0.0032029354 0.04519256 -0.024975512 -0.012686374 0.013201754 -0.0016802937 -0.002803338 0.04143823 0.015830671 -0.03401842 0.029447354 -0.0007163642 -0.017276373 -0.015152737 0.010197618 -0.035739932 -0.024082048 -0.04638648 0.019498307 0.017220832 0.034444492 0.0017021586 0.010904643 0.018559948 0.03558856 -0.014797656 0.004165616 0.020309728 0.047732677 0.0048983325 0.021800186 0.05206312 -0.010897942 -0.007638942 -0.021995263 -5.9661455e-05 0.045221787 0.032939646 -0.0060832407 0.022633893 -0.0017671933 -0.04037878 -0.029188491 -0.007577573 -0.043998323 0.05725991
1 0.24396752 0.3551902 0.16942696 0.009411319 0.051095944 0.0016656796 -0.097571805 -0.054067634 -0.03765842 0.056727707 0.04239 0.015004623 0.017918281 0.011122798 0.01703304 -0.012269845 0.007847089 0.0027209325 0.007720737 0.0013953875 0.009843068 -0.00026608192 0.018942263 -0.0071079256 0.012362645 0.00083965313 -0.0038962048 -7.819965e-05 -0.008731533 -0.0037539653 -0.01842776 0.0023938871 -0.013226385 0.0004224699 -0.0033015492 0.0061378935 -0.0040159323 -0.011953765 0.009131421 0.0023510994 0.004416721 0.002452162 -0.0005686569 0.006967971 -0.01540528 -0.002512057 0.0051704864 0.0069273086 0.004977066 0.0048575546 0.0018845506 0.0016785229 0.009638034 -0.0050599985 0.00033124728 -0.005831444 -0.011417695 0.0010484334 0.004538127 -0.007648257 0.004752493 0.010611481 0.0041577644 0.00080764765 0.003772716 -0.0037574826 -0.0062037585 -0.0073891934 -0.0067584272 0.0030795713 0.0054387813 -0.006213622 -0.0017159435 0.010799089 -0.007960097 0.0001556066 0.0020536752 -0.0039864453 0.0009962239 0.006610661 0.006520395 -0.008183225 0.011733615 0.010192569 -0.0072133522 0.00863728 -0.000554727 0.0064998637 0.002926912 -0.00508648 -0.0058099683 -0.007699782 -0.001745209 0.0036698612 -0.0019150478 -0.0035465902 0.001327172 0.008826279 0.00029532338 -0.004060873 0.00934562 -0.0020836175 -0.00025732152 0.00043490937 0.0012604059 0.0031443366 -0.0029635055 -0.0053814393 -0.0044612824 0.00077013724 0.0019827797 0.013612445 -0.0028517845 -0.0041276985 0.008409011 0.004126981 0.0030409493 -0.0007043727 0.012253178 -0.0066412357 0.0016367869 -0.0024612201 0.0016787167 0.0028764172 -0.00937167 0.0026372573 -0.010092552 -0.011617217 0.0018182792 -0.009961903 -0.0050860103 0.000614815 0.002033573 -0.004779875 -0.000539964 0.0033705472 -0.009801259 -0.0002450154 -0.006275832 0.0051567885 -0.007238926 0.0036410186 -0.0020712279 0.0052097254 -0.0036551962 0.0026276517 -0.01033704 0.0033384059 -0.008295465 -0.0037776285 0.0044238535 0.006249395 0.00045088644 0.0057539567 0.001613379 0.00830861 -0.0020331067 -0.0032594362 0.0038468298 0.0014140287 0.0015019274 -0.008537139 -0.00019421786 -0.0024358812 0.011345709 0.0017832727 0.0086705275 -0.005749108 0.0064381673 0.0005659123 0.006348307 -0.0128470855
2 0.3092661 0.38565728 0.21125068 0.021062711 0.07448831 0.0035202429 -0.13042963 -0.08196964 -0.05473238 0.06967937 0.05585713 0.01645324 0.02024315 0.013086167 0.024671968 -0.011382583 0.009373854 -0.00071113487 0.0056799836 -0.003700411 0.013269533 -0.0018548535 0.025015749 -0.011443065 0.012000394 0.0043609766 -0.0014602015 0.0034496796 -0.012810208 -0.0029297504 -0.02680708 0.0050595 -0.015319521 -0.0033531126 0.0016743848 0.008646081 -0.0065451856 -0.022409257 0.012534834 0.004714275 0.00294355 0.0060278284 -0.0001973931 0.0064072926 -0.012689207 -0.0076614735 0.0041429843 0.008106724 0.006486661 0.0030724662 0.0059521915 0.0039877472 0.01761075 -0.00574433 -0.00018046694 -0.004945994 -0.010065508 -0.0020147865 0.005100658 -0.006487008 0.0046625272 0.0138748055 0.005098615 -0.0036332868 0.0010289229 -0.0035160952 -0.0058992933 -0.009726264 -0.008308707 0.0044861734 0.005937571 -0.0077395276 0.0012550617 0.010559841 -0.008147439 -0.0031536839 0.0018248577 0.0013334416 -0.00046347512 0.0031971992 0.0050178156 -0.00810873 0.008269994 0.012071077 -0.0016775709 0.011395542 0.0027094176 0.013915009 0.0017559621 -0.0046964358 -0.0037420157 -0.003155978 -0.0029662214 0.004961562 -0.0028850336 -0.004171191 0.0026739254 0.0126879625 0.007938986 -0.0054786927 0.009669973 0.0026763845 0.0029426953 -0.00031103508 0.006611684 0.0024579307 -0.0007603292 -0.005316496 -0.0065736286 0.00041396695 0.0057952744 0.013585669 -0.0002247477 -0.008023107 0.0072437064 -0.0007076148 0.0071896664 0.002520753 0.012809362 -0.0045063207 -0.00019070716 -0.0022478546 0.0050304965 0.004888296 -0.009296573 -0.003376493 -0.013516608 -0.007903342 0.002338305 -0.01024133 -0.0060018543 -0.0046213954 -0.0013361711 -0.0043762806 -0.0035085743 0.00068656006 -0.011480177 0.004162516 -0.005506466 0.00040567177 -0.010509253 0.0055404925 0.0027986814 0.008936628 -0.0048723384 0.004798528 -0.012388648 0.005246891 -0.014753443 -0.0017963045 0.008965131 0.008765788 -0.00046780755 0.01012754 -0.0007921314 0.0066133603 -0.001569415 -0.005324678 0.0041557057 0.0045248023 0.0045368187 -0.013209506 -0.0002525365 0.0029746764 0.013348168 -0.00064071035 0.010690872 -0.010401804 0.006150532 -0.00085096573 0.009541109 -0.012805086
3 0.20776078 0.46053672 0.15829322 0.033141136 0.061102234 -0.004458365 -0.08973266 -0.02613232 -0.038641542 0.050586585 0.026893083 0.022752281 0.023432648 0.012703974 0.011015886 -0.021943273 0.009050924 0.0056109894 0.018974314 0.020521423 0.018304775 0.0066966107 0.022181107 0.0050679813 0.022641655 -0.006736944 -0.016900837 -0.006897984 -0.0066329325 -0.0025650056 -0.00065201777 -0.0025887187 -0.013665672 0.009995627 -0.027753634 0.013091578 0.0005630805 0.009378246 0.006806138 -0.0115623465 0.01431963 -0.0038115457 -0.004984915 0.0082449075 -0.027664026 -0.0026889385 0.017752985 0.004322952 -0.0016943759 0.011318658 -0.009724526 -0.00059437065 -0.014818927 -0.0030784048 0.010178828 -0.012247676 -0.03182011 0.015481897 0.011232274 0.00076229783 0.012084443 0.01162247 0.0028060188 0.00056734966 0.0039457846 -0.004709922 -0.013118634 -0.01672397 -0.008697476 -0.009450723 0.0055269497 -0.0040588453 -0.012524689 0.016765809 -0.007784063 -0.0016789901 -0.001825473 -0.01941619 0.011883192 0.019318057 0.01637459 -0.01415687 0.032101057 0.010686663 -0.032795183 0.010204392 -0.019586414 -0.011783229 0.009858902 -0.004060326 -0.010521482 -0.024338512 0.003347812 -0.0058635836 0.008842516 -0.0020053694 -0.012101418 0.0030100422 -0.014714922 -0.004593135 0.0109236315 -0.02079286 -0.0120215295 0.00034659373 -0.01478812 -0.0030881518 -0.013747298 -0.0133250635 -0.0034971044 0.010074578 -0.009866951 0.017305877 -0.0107515985 0.0076196166 0.008756316 0.01587496 -0.007203095 -0.005910577 0.011624585 -0.016389621 0.0018712028 0.0017667076 -0.0127232885 0.011981039 -0.012718985 0.019506134 -0.00853119 -0.032497097 -0.007442272 -0.018800875 -0.0012731038 0.024917392 0.024868045 -0.010935539 0.004103306 0.013545587 -0.010645695 -0.010046257 -0.009466511 0.021926252 -0.0027066064 -0.0026240312 -0.023213353 0.0039960924 -0.004200223 0.0025521296 -0.017291326 -0.0039337254 0.0031126302 -0.012211373 -0.007355284 0.005863595 0.002893386 -0.0014468336 0.008438553 0.024469279 -0.009075316 0.00015107973 0.008902714 -0.005832512 -0.0050612967 -0.0006169288 0.0020084863 -0.025919782 0.020835245 0.018700548 0.006301301 0.0061168987 0.011197641 -0.0006981442 0.00078616187 -0.025897374
4 0.22932865 0.08632897 0.077889234 0.0583425 0.0742858 0.03665482 -0.0874907 -0.077462494 -0.043409344 0.04535732 0.045571253 0.0006251356 0.011863684 0.009599526 0.016237872 0.006265451 0.006588311 -0.0036674875 -0.0010289315 -0.017682437 0.0020156852 -0.0016065799 0.010720402 -0.01743287 -0.0022589078 0.0045455424 0.012367344 0.009005671 -0.010547778 -0.0007007652 -0.024192562 0.0045277253 -0.008887996 -0.002890536 0.013026049 -0.00087457255 -0.0041073947 -0.024352448 0.011013372 0.014880426 -0.0060409782 0.0038738302 0.0025406561 0.006809686 -0.0037392818 -0.002427094 -0.0044943728 0.0058110603 0.011727371 -0.001604214 0.0059656794 0.004993746 0.02755385 -0.0060454486 -0.0098693585 0.0005478824 0.01038157 -0.010904471 -0.0022957476 -0.011602599 0.00069920975 0.0056010378 0.0070421943 0.0010975302 0.0062391027 0.0025928433 0.0033172213 0.0048191724 -5.8156817e-05 0.011328069 0.005929472 -0.0075508 0.0013932186 8.85225e-05 -0.0029141896 -0.0003039186 -0.0015330628 0.007687352 -0.00917511 -0.0025106948 -0.0011904994 0.0009223298 -0.008319437 0.0060605584 0.01688335 0.003657249 0.013083151 0.018764984 -0.0053849607 -0.004289787 0.00082803157 0.0053389943 -0.0030263837 0.009840084 -0.009719798 -0.005141077 0.009756886 0.009256873 0.009685073 0.0004737692 0.0028324646 0.01482055 0.010241581 0.0011081478 0.014543326 0.0072723515 0.006297424 0.0039505507 -0.0069358163 -0.006699874 0.013154326 0.006437917 0.0040985295 -0.012871962 0.0050090677 -0.008884224 0.0095389 -0.0009334808 0.010242192 0.0013043748 -0.0025431206 -0.0070582503 0.015467247 -0.004822106 -0.0032892756 -0.0077003455 -0.008547605 0.010003459 0.007136534 0.0023490535 -0.004495249 -0.015769573 -0.015193789 0.0005543945 -0.0055968873 -0.007460379 -0.0058018584 0.005989813 -0.0028165865 -0.009942442 -0.0060598124 0.00942628 0.014986852 0.005360174 -0.0040403795 0.0023301968 -0.0026808502 0.007497432 -0.015132746 0.004470994 0.010130063 0.005314944 -0.002679299 0.0082175 -0.0051474655 -0.0061689946 0.0047135334 -0.006571979 -0.003219568 0.00799038 0.0070296605 -0.013747875 -0.0043959445 0.014803866 -0.0012495258 -0.011125215 0.004568567 -0.011566842 0.0012692632 0.0021237542 0.009175369 0.0007897049
5 0.19589302 -0.1675136 -0.006324979 0.087266125 0.08055547 0.058056343 -0.065707184 -0.08705254 -0.040278524 0.029528666 0.043140557 -0.013707783 0.0044765403 0.007947445 0.015328815 0.022650633 0.0037722168 -0.008656623 -0.009317846 -0.034540366 -0.0057085697 -0.0027978644 0.002638568 -0.025816511 -0.01575066 0.007103985 0.02620773 0.015642568 -0.011081335 0.0020093564 -0.029268796 0.006340106 -0.005588284 -0.00679884 0.028486159 -0.0078148935 -0.0047310656 -0.035369445 0.011524415 0.026453245 -0.01629059 0.0059146667 0.0063450597 0.0051498404 0.0074208262 -0.0020681117 -0.014533969 0.004130741 0.016959943 -0.00818218 0.008607061 0.0071051945 0.0429933 -0.006314878 -0.018166153 0.0066091795 0.03155066 -0.021201897 -0.008813199 -0.014887433 -0.0043896055 0.0018616326 0.008679585 0.0014889105 0.006912458 0.008151075 0.012283655 0.01525213 0.006355459 0.018589735 0.005508311 -0.008038546 0.0054164384 -0.008797849 0.002705726 -0.0007361175 -0.004053183 0.017214866 -0.01811954 -0.012059357 -0.00911704 0.008532696 -0.026640376 0.0028868516 0.038687028 -0.0016757771 0.025306119 0.02957967 -0.0128462715 -0.0037032492 0.008721612 0.017978149 -0.0052195084 0.013823186 -0.016007882 -0.0059399484 0.017039003 0.009492025 0.01967876 0.0046412237 -0.0032876343 0.029982984 0.019440187 0.0021074812 0.026010077 0.010109315 0.015608456 0.011822752 -0.009067621 -0.013760531 0.022769356 -3.3738557e-05 0.010287698 -0.020784747 0.0018501352 -0.020535009 0.016586602 -0.00024090098 0.007684729 0.008569261 -0.0067250016 -0.010996265 0.027415203 -0.0116920415 0.0020143173 -0.019031055 -0.0066249464 0.031123418 0.011234799 0.01302393 -0.0040477207 -0.031472635 -0.030138256 0.0055907518 -0.009159013 -0.01886578 -0.0027853146 0.011103253 0.00044514684 -0.022818668 -0.0047824592 0.013393586 0.029662557 0.0050737746 -0.0043571177 0.0021473903 0.0043033506 0.010294096 -0.021042079 0.012804513 0.016183041 0.0048483093 -0.004794282 0.0115559045 -0.010139578 -0.01964681 0.010586446 -0.008005828 -0.009468028 0.013960756 0.011097128 -0.018325292 -0.0070555145 0.03079888 -0.012703913 -0.022290027 0.00096067926 -0.017420368 -0.0035999017 0.0024788266 0.010480472 0.014053466
6 0.16847198 0.22875899 0.08735876 0.043508865 0.056426007 0.016366392 -0.06563157 -0.036522757 -0.03207523 0.03346765 0.025278037 0.008383632 0.014017157 0.0098176105 0.010742571 -0.0054388666 0.0063915025 0.0014429577 0.008096847 0.0015798828 0.007657949 0.0034402576 0.012461903 -0.00448848 0.0074689756 -0.0024635072 -0.0028973916 0.00027229 -0.0073248483 -0.000947922 -0.007152116 -0.0013278378 -0.008418071 0.0042888853 -0.007702773 0.0043283245 -0.00028452312 -0.0034566813 0.0069586383 0.0020643587 0.0024837344 -0.0006633952 -0.00013748308 0.0049741645 -0.014517378 -0.00017563868 0.0054332013 0.0033767468 0.0032178136 0.0051935576 -0.004718691 0.0008374685 0.0034039926 -0.0030230973 0.00010736563 -0.00623537 -0.008377824 0.003396993 0.0025830835 -0.0042680996 0.004787841 0.005836863 0.0042427187 0.0023780938 0.005091984 0.0004694501 -0.0050542247 -0.0044560255 -0.0031749352 -0.00011911962 0.005250347 -0.0036701288 -0.008255093 0.0073197167 -0.0039362 -0.0016915977 -0.0025802024 -0.007818224 0.0015648558 0.00800606 0.006572125 -0.005432374 0.01080266 0.006139075 -0.008873046 0.004096523 -0.004335213 0.0014286514 0.002839755 -0.0045227488 -0.002458396 -0.009572547 0.0008615571 -0.00027687283 0.00041062257 -0.0022181824 -0.0032339375 0.004103258 -0.003347431 -0.0005321472 0.005871844 -0.00399727 -0.0012973349 0.00017226687 -0.0016900854 -0.00026963308 -0.003581676 -0.004254327 -0.0048783957 0.00044196297 0.0011482697 0.008703404 -0.0034233867 -0.001464298 0.0054855053 0.0033102669 0.0015136567 -0.004306027 0.008838143 -0.007113649 -0.0010879874 -0.001185098 0.00056275236 0.0026390417 -0.0071389102 0.004827816 -0.0072177085 -0.00964531 -0.0019606962 -0.006935253 -0.0010204944 0.0063597034 0.006678758 -0.005683062 0.0010346047 0.0015166705 -0.0069648027 -0.0033194225 -0.0050967517 0.006946755 -0.0030891197 0.0011455712 -0.004624884 0.0022212286 -0.0043650637 0.0007512493 -0.008733256 0.00054876687 -0.0040838383 -0.00330579 0.00038919548 0.005698418 5.618413e-05 0.0026421668 0.0026159699 0.008337383 -0.0031197576 -0.003231666 0.0011905087 -0.00051405147 0.0006486095 -0.0048310417 0.00053829805 -0.006631876 0.007327797 0.005232157 0.0046234024 -0.0014789035 0.0061353594 -0.000109631976 0.00418695 -0.010990397
7 0.05968494 -0.15343556 -0.07853019 0.05152678 0.030159684 0.084146485 -0.01783538 -0.04821991 -0.012326792 0.023604222 0.03192799 -0.006407898 0.006169001 -0.00025899103 -0.007538746 0.014476572 0.008528508 0.0034806952 -0.0012417877 -0.019086393 -0.018698031 -0.0047477055 -0.017317826 -0.017482033 -0.009464327 0.0057803146 0.021089293 0.0066663045 0.0014556004 -0.0014559138 -0.009139789 0.0038281907 0.004781187 0.0056569823 0.015751634 -0.014081639 0.0056488323 -0.00212774 0.0039713895 0.0114108445 -0.003496452 -0.008243975 -0.0022676801 0.018257579 -0.0013795512 0.012801581 -0.0069934335 0.008125492 0.017440515 0.00067433505 0.010315952 0.00201262 0.02190326 -0.0076315952 -0.024018236 0.004047127 0.016337804 -0.014497334 -0.00917142 -0.023691611 0.0012757274 -0.010595621 0.010602833 0.017797397 0.026633197 0.0011628802 0.0058227456 0.023027804 0.0075243507 0.01832756 0.0065140305 -0.008084235 -0.0019393488 -0.008789994 -0.009122791 0.012936005 0.0005818462 0.013630086 -0.015047938 0.0037012235 -0.00048087386 0.012744367 -0.014460801 -0.0056528305 0.021720858 -0.004145268 0.02143215 0.008081438 -0.008592565 -0.0034581574 -0.017416893 -0.00021227158 0.0045555662 0.023055973 -0.019945221 -0.008320587 0.018020222 0.00048659107 -0.015992643 0.003365232 -0.0028130235 0.01544364 0.009407796 0.000701269 0.011333906 0.020332098 0.0032989685 0.013169839 0.001721549 -0.011179819 0.012764787 0.001287068 0.0027104847 -0.008930083 0.00636322 -0.0026317397 -0.0070151864 -0.0125189675 0.01139472 0.0032292055 0.011584212 -0.01080924 0.016124083 -0.021521244 0.005341828 0.009596688 0.0029954796 0.0073049804 0.016566716 0.016134702 -0.0021036589 -0.014735232 -0.02876646 0.007550329 -0.005966161 0.005224157 0.006075593 0.00081150915 -0.0029514788 -0.016525751 0.0049351724 0.0145008825 0.021715505 -0.0070175184 0.0034327689 -0.0074129584 0.015226843 0.015050396 -0.0030371058 -0.0017268404 -0.0012600056 -0.009335083 -0.0057928967 -0.007336305 -0.009498638 -0.011332311 0.013232908 -0.009359202 -0.009007733 0.0044147107 0.0072752256 -0.003030032 -0.013114763 0.0140191205 -0.019163677 -0.023839658 -0.0008736407 -0.00095629063 -0.0020299295 0.01417725 0.006461347 0.009873181
8 -0.14288196 -0.74907744 -0.57631326 0.58891577 0.3940693 0.2885465 0.027042352 -0.07017665 -0.13036354 -0.11067818 -0.045621723 -0.06179578 -0.0019387294 0.021192325 -0.030499823 0.08200738 0.0063663656 -0.03934835 0.008110532 -0.022482205 0.010030326 0.05353518 -0.025214167 0.0030996792 -0.0422672 -0.034534745 0.03704161 0.040122095 -0.027463444 0.03165791 0.071599856 -0.025397 0.026266415 0.05045119 -0.04629016 -0.00050332723 0.035656057 0.035748925 0.013417325 0.018954804 -0.01108576 -0.026668936 0.00045496065 0.005646332 -0.008098147 -0.00041336397 0.023418047 -0.024870383 0.00757089 0.0012524377 -0.065405704 0.0092128655 -0.016101459 -0.0004497816 -0.005086726 -0.0027256848 0.03465785 0.00096067775 -0.007650962 0.036241695 0.020851733 -0.03534935 0.020923989 0.001077218 0.021423498 0.06492434 0.024629124 0.028532261 0.04495427 -0.02844049 0.008059839 0.0057820994 -0.072855555 -0.047405347 0.052176546 -0.028285734 -0.07435374 -0.024063338 -0.0013433556 0.017329931 0.005815923 0.022904916 -0.014339151 -0.027095541 0.009122223 -0.02071289 -0.03351521 -0.012503013 -0.01256618 0.0065050353 0.040066622 -0.013291459 0.029718967 -0.022698749 0.017842313 -0.005005324 -0.0373831 -0.031529408 -0.012206399 0.04594746 -0.033703458 0.0095519 0.010922272 0.0051089604 0.0001854655 -0.025273122 0.0032952542 0.017468242 -0.021134762 0.0023962006 0.010003236 -0.037140757 -0.004944094 0.0042034453 -0.018326933 -0.026468676 -0.000537057 -0.03503918 -0.014982175 -0.009805201 -0.051392335 -0.0023899777 0.019756056 0.016830629 0.017135767 0.028542392 0.0075357985 0.021875847 -0.03197306 0.032493092 0.037682634 0.046161164 0.04360059 -0.011704405 -0.0076882043 -0.030492922 0.030527055 -0.011489091 0.010255689 0.0075544957 0.031193452 -0.0033805794 -0.010146974 -0.00081598747 -0.02031294 -0.0020762384 -0.0046765064 -0.01852109 0.020681594 0.017284727 -0.034052253 0.011720397 -0.019892596 -0.020822732 -0.0017133707 0.006313776 -0.011725811 -0.007840817 -0.022758516 0.001651669 0.0050630323 0.0021690095 -0.011730356 -0.026668178 -0.026873933 0.037397232 -0.055894148 0.030438602 -0.0010546454 -0.0066806553 -0.0017613319 0.008464429
9 -0.6063621 -0.27078894 -0.08003792 -0.6107329 -0.5782673 -0.38964283 0.52605635 0.47139347 0.41746852 -0.24870515 -0.24306294 -0.058855116 -0.08028 -0.0046899337 -0.050554264 -0.050494738 -0.08221056 0.08710411 -0.023292415 0.021683907 -0.066431224 -0.030973038 -0.0760106 0.0473001 -0.015470527 0.0060450663 -0.056119535 -0.11073442 0.07375351 0.002183785 0.048304927 -0.011498743 -0.0029046698 -0.05073068 0.025531579 -0.06421225 -0.01027765 0.03296139 -0.074857384 0.023035482 -0.010633922 -0.020925924 0.0129329525 -0.018692803 0.022148225 0.006918877 -0.07270855 -0.009595278 -0.050114486 -0.025237964 0.0071752425 -0.013217445 -0.05185605 0.023728512 -0.006990591 0.008901802 0.054982375 0.0349743 -0.001670439 -0.021266283 -0.036758505 -0.014823767 -0.0318393 0.010416015 0.0015289235 -0.041228227 0.019792268 0.00682701 0.017634016 0.0012196541 -0.03608068 0.018376539 0.06949634 0.01894363 0.0041595153 0.015294203 0.045406815 0.0107699465 0.018487107 -0.058628034 -0.026272144 -0.02502783 -0.0063885036 0.014034176 0.010247675 -0.020642266 0.010270278 -0.0055213897 -0.0010445522 0.008838037 -0.006577074 0.010185912 -0.005460618 -0.046709675 -0.014944909 -0.0056209397 -0.0042336136 -0.029970858 0.023127496 0.008409925 -0.015662473 0.0014102439 -0.028516421 0.01522269 -0.033148 0.00021627548 -0.021337463 -0.025450509 0.037803583 -0.016047856 -0.011648419 0.012692012 -0.011458203 -0.02319066 -0.00995977 0.0066328347 -0.0045226864 0.020233126 -0.007884876 0.026579808 0.0004999025 0.032180183 -0.01092989 -0.038443193 -0.012607179 -0.049835537 0.0014384653 0.028198266 -0.014899894 -0.0094748605 0.007000592 -0.0016957321 -0.004278532 0.027722856 0.012768391 -0.021554828 0.01717277 -0.0017509847 -0.012511407 -0.009903428 0.0059460006 -0.023151295 -0.01530649 -0.032161877 0.013464552 0.009988691 0.022890203 0.003168012 0.0053241584 0.011641112 0.025066067 -0.010413789 0.0032185258 0.01389757 0.032226574 0.00409423 0.014723901 0.033559978 -0.007971957 -0.004617955 -0.013573858 -0.00061218574 0.029772123 0.022482703 -0.004611827 0.012456104 0.0013389153 -0.028213447 -0.0176328 -0.0042010294 -0.029060494 0.037682034
10 0.33619225 0.4424081 0.23158708 0.024623562 0.08322857 0.0058021815 -0.14558898 -0.08978596 -0.06143727 0.07843559 0.061505627 0.020138888 0.023047043 0.013856604 0.025297942 -0.014334384 0.010802661 -0.00038633437 0.00722083 -0.0013690052 0.014934137 -0.0016504595 0.027463464 -0.010963804 0.01482409 0.0042443033 -0.0027618085 0.0037288987 -0.01349723 -0.004025601 -0.027372973 0.0050622346 -0.016197866 -0.0023115906 -0.0008964278 0.010290632 -0.0066315057 -0.021380505 0.013641099 0.0030626946 0.005183628 0.005785663 -0.0014339966 0.0077829524 -0.015224157 -0.007547966 0.0067216586 0.009166971 0.006820395 0.004375672 0.006489503 0.0042334297 0.016453028 -0.00619975 0.00066999195 -0.005872669 -0.014364051 -0.0013023957 0.006324189 -0.006784292 0.0059842383 0.014382155 0.0052590123 -0.003235628 0.0016702772 -0.0045541804 -0.0075318012 -0.01091696 -0.009496663 0.0041562067 0.0067511178 -0.008401477 0.0003158512 0.011741355 -0.01000332 -0.0022422129 0.0021777987 0.00010690495 0.00032186526 0.005543552 0.006896922 -0.00934595 0.011271035 0.012813698 -0.0048892214 0.013098093 0.0011348717 0.012973054 0.002741717 -0.005172106 -0.0061617787 -0.0054850397 -0.002638433 0.0059485156 -0.0027647307 -0.0047166855 0.0026113724 0.013232481 0.0056133936 -0.0064479127 0.011338823 0.0007582238 0.001990463 -0.00041979417 0.00572751 0.0031209115 -0.002276151 -0.0058294586 -0.0065236776 0.001476146 0.0046924534 0.015413987 -0.0012368659 -0.0068713264 0.008464255 0.0014808411 0.0058009624 0.0021109025 0.014228454 -0.005893863 0.0009288703 -0.0024346663 0.0038894892 0.0058264905 -0.010457674 -0.00047437812 -0.014159652 -0.011889575 0.0027369591 -0.011773302 -0.006874912 -0.002480188 2.3040688e-05 -0.005327645 -0.0036318582 0.0033602072 -0.011865782 0.003582091 -0.0064263036 0.0022785051 -0.011084516 0.006270602 0.0012819407 0.009636763 -0.004692423 0.005097751 -0.013429391 0.0052661644 -0.013758661 -0.003478199 0.0075941356 0.008824337 -0.00016581989 0.008932669 -0.0008068865 0.008641118 -0.0020692619 -0.0057473904 0.005458889 0.0037327127 0.004018493 -0.012889155 -0.00088056666 0.00064080645 0.015256008 0.00048997684 0.011285198 -0.009427261 0.0069534704 -8.171535e-05 0.0102674365 -0.01564294
11 0.2647342 0.06351353 0.14068644 0.01840097 0.052923024 0.01337511 -0.096210115 -0.093228795 -0.04081355 0.04294883 0.05054038 -0.0038466863 0.004208206 0.009976643 0.030021269 0.009628692 0.003472967 -0.0067093195 -0.011390049 -0.033191424 -0.0017518033 -0.008372394 0.015310454 -0.02604021 -0.009609987 0.011740956 0.016083889 0.012307243 -0.013743245 0.00012807114 -0.039312083 0.0070337383 -0.009123532 -0.015086335 0.034241147 -0.0026446013 -0.011114132 -0.045142986 0.012443984 0.024454474 -0.016827846 0.0151258875 0.008790983 -0.0033600032 0.009531952 -0.0060094 -0.018015793 0.0064718607 0.01089936 -0.006698153 0.0140691595 0.0050547267 0.045770995 -0.0027322678 -0.012846171 0.0031418283 0.024528591 -0.018840615 -0.008483026 -0.011885292 -0.009770727 0.009142622 0.0056258924 -0.0025240353 -0.0019197625 0.00224095 0.0034422781 0.0024904718 -0.0017745368 0.017798133 0.0048286384 -0.0068007964 0.009944431 0.00010456605 -0.00245253 -0.0072835414 0.0025994885 0.018772108 -0.01596309 -0.017392056 -0.010402182 0.0037001062 -0.023621574 0.007347011 0.033077378 0.0016715094 0.025042143 0.036774557 -0.006887235 -0.0065204124 0.01176019 0.020778872 -0.008411231 0.010465314 -0.013713293 -0.0021912004 0.013556138 0.016760657 0.030700989 -0.0024006728 0.0028585652 0.028026931 0.018616805 -0.0017319849 0.026958993 0.0019967882 0.01604988 0.0059298244 -0.011283709 -0.014661465 0.023174789 0.00059790286 0.010974039 -0.023519743 0.00025131454 -0.020635413 0.02509183 0.008263203 0.008755474 0.00942041 -0.0050070076 -0.004101207 0.023942446 -0.0060396683 -0.0025197766 -0.033442948 -0.013311906 0.029135903 0.00673947 0.0048862295 -0.0062095504 -0.03296458 -0.026700996 0.0017632457 -0.007080377 -0.020107592 -0.009732391 0.014917049 0.0011854932 -0.02143722 -0.013111614 0.0087291505 0.031505667 0.008678636 -0.0066080973 0.0026934582 -0.0019005592 0.010003758 -0.028799035 0.012218714 0.024273416 0.011757461 -0.0020385648 0.02011748 -0.008469638 -0.017066978 0.0052225697 -0.010320148 -0.006448693 0.0138282925 0.012845146 -0.02119206 0.0002780781 0.033376534 -0.0049739447 -0.01963981 0.012515521 -0.024692811 -0.00022974706 -0.00308973 0.015713189 0.0081792055
12 0.19456692 -0.24367593 -0.023606082 0.11294047 0.095138 0.062962264 -0.066377245 -0.09535088 -0.046755083 0.018701041 0.03977218 -0.019137014 0.00010676653 0.008532925 0.020193735 0.029059079 0.0030527133 -0.012982385 -0.013254361 -0.04171725 -0.006229782 -0.0023013656 0.0034965836 -0.028580293 -0.02135533 0.007653302 0.028814781 0.01919278 -0.013967073 0.004541666 -0.030464208 0.005402513 -0.0034270664 -0.0090633035 0.03438951 -0.007830324 -0.005407277 -0.04149215 0.012549972 0.030574368 -0.021967467 0.009935593 0.009580044 -0.000747108 0.0132681895 -0.0035498294 -0.018937131 0.00220143 0.015695937 -0.009902146 0.007221669 0.0066461596 0.04846424 -0.004093796 -0.018367583 0.007074748 0.03877108 -0.02347398 -0.012354676 -0.011191368 -0.008184139 0.0017117695 0.008801594 -0.0003985581 0.003107001 0.012031671 0.012559543 0.014500236 0.007336798 0.018424582 0.0052026003 -0.006339003 0.0038971067 -0.010926016 0.0063937074 -0.0065055885 -0.0065630847 0.019371303 -0.02052484 -0.017387727 -0.012962639 0.011210292 -0.0333222 0.0014197879 0.044364925 -0.004462262 0.027519545 0.035354566 -0.013340811 -0.004451153 0.017494678 0.023939153 -0.0060486337 0.011227214 -0.014989734 -0.0034784758 0.014729121 0.0110906325 0.028355762 0.005660512 -0.005340832 0.034835692 0.023243561 0.0004886376 0.030291412 0.0043148994 0.020404145 0.013083885 -0.012514559 -0.016705742 0.026994575 -0.006059592 0.013095737 -0.024030581 -0.0020305342 -0.02696043 0.02397094 0.0021093003 0.0049308687 0.011226772 -0.010895329 -0.008824433 0.030701559 -0.0101274 0.0035236226 -0.02959412 -0.0077997516 0.040428836 0.0077411206 0.015288324 -0.0018478879 -0.035326988 -0.030693075 0.0046569426 -0.00906447 -0.026455969 -0.0034289488 0.013803472 0.0034302247 -0.02604544 -0.005845986 0.011123796 0.035110425 0.006291957 -0.0070172595 0.0013564846 0.0039308663 0.009254212 -0.02549757 0.016993824 0.020320322 0.008809153 -0.005150244 0.016030932 -0.010947579 -0.02379148 0.0087715965 -0.00977707 -0.0122446325 0.01587524 0.013555404 -0.020375552 -0.0044078226 0.036060717 -0.015605408 -0.022730863 0.001997877 -0.020725895 -0.003894649 -0.0012694093 0.012623814 0.017414374
13 -0.8190989 -0.35990328 -0.11954959 -0.7817869 -0.7446498 -0.4979937 0.6824407 0.61055297 0.5342356 -0.3225146 -0.31532252 -0.07393575 -0.10298362 -0.007939875 -0.0675395 -0.06499971 -0.10478561 0.11033394 -0.028919857 0.031628355 -0.08352729 -0.03827697 -0.09815442 0.06346498 -0.018621601 0.006303491 -0.073159434 -0.14127713 0.09496459 0.0027989617 0.066485934 -0.015532863 -0.0018863028 -0.06289678 0.02827049 -0.08031016 -0.011866931 0.047234375 -0.096601 0.025527392 -0.011385486 -0.027694406 0.015072304 -0.024508504 0.02831861 0.009033054 -0.08918946 -0.013299591 -0.06533054 -0.031516727 0.0077043897 -0.01747565 -0.07191601 0.031374767 -0.0065638246 0.011220845 0.06600896 0.046568546 -0.001252485 -0.023728918 -0.046193507 -0.02027111 -0.041535046 0.013101983 0.00087085634 -0.0523531 0.023945503 0.00756417 0.022076901 -0.0012712893 -0.046325777 0.02456089 0.08668291 0.023579484 0.0056963656 0.01971574 0.057468787 0.01138043 0.02554885 -0.07274462 -0.032278493 -0.032006327 -0.005488604 0.01635395 0.00854189 -0.02648857 0.009468377 -0.011501544 -0.00034246594 0.012044056 -0.00905426 0.011272417 -0.0064147823 -0.061058406 -0.016834574 -0.0063160863 -0.0075741704 -0.039936263 0.026147231 0.010585501 -0.020325873 -0.0016908133 -0.03822871 0.018948874 -0.045210395 -0.0014945345 -0.028372455 -0.03263878 0.049296297 -0.01825819 -0.017790502 0.015120869 -0.015378963 -0.025921915 -0.013527534 0.010699008 -0.008340412 0.025673537 -0.012232559 0.033201873 0.0010134897 0.041761544 -0.017370727 -0.047107413 -0.015393004 -0.06029949 0.003915434 0.03282983 -0.02017813 -0.012358973 0.010026641 0.0015846307 -0.0015612051 0.03465721 0.016866433 -0.02493292 0.023348382 -0.0038166756 -0.015473906 -0.010011082 0.0090632485 -0.031112628 -0.02314779 -0.04171932 0.01791498 0.01216275 0.029342914 0.0021561687 0.010750261 0.013419798 0.028742049 -0.014362713 0.0043915026 0.015229027 0.041706864 0.006658015 0.017554287 0.0438139 -0.009188728 -0.008111573 -0.018966202 0.002699458 0.038234614 0.02421135 -0.0050695585 0.018490873 0.0003952059 -0.032496247 -0.022812642 -0.0052399547 -0.03856648 0.047004297
14 0.253274 0.561599 0.20780289 0.024989057 0.06933072 -0.010411422 -0.113833256 -0.031507928 -0.045982916 0.067174956 0.036702298 0.02970123 0.028224848 0.014687348 0.01233997 -0.029532177 0.012214301 0.00647287 0.022992644 0.027997058 0.022811642 0.0076225917 0.026925584 0.008314511 0.030856334 -0.008933574 -0.021123251 -0.0088919755 -0.0075511206 -0.0048803473 -0.0028545675 -0.0015923432 -0.017408852 0.01254187 -0.033906985 0.016945625 0.0009607244 0.011033731 0.007733067 -0.015719963 0.020960063 -0.0042309416 -0.007061539 0.012138602 -0.033871055 -0.0032790462 0.023659555 0.006435295 -0.0021812606 0.013724205 -0.009803517 -0.0019120752 -0.018690497 -0.0055245 0.014675838 -0.013914777 -0.04078178 0.017938955 0.014834164 0.0010660886 0.015556537 0.014585218 0.0027419643 0.0006534983 0.004301307 -0.006605221 -0.015844926 -0.020783251 -0.011311691 -0.012027252 0.0052117608 -0.005023906 -0.012108701 0.020476662 -0.009579638 0.0011128855 -0.00057832757 -0.022845082 0.015324787 0.024070513 0.01970979 -0.018139008 0.040992755 0.013609286 -0.040594857 0.014597109 -0.022817003 -0.015742501 0.012065159 -0.0038821837 -0.013977778 -0.028807418 0.0031773727 -0.0053222715 0.011283163 -0.00277614 -0.012803342 0.004871722 -0.018494196 -0.005971651 0.013624637 -0.025997356 -0.014602951 0.001044895 -0.01879594 -0.0013696927 -0.016126696 -0.016109338 -0.0020181646 0.014192674 -0.014241005 0.021791648 -0.013643643 0.010476821 0.012901895 0.022054005 -0.010137228 -0.005213408 0.0140286 -0.019969307 0.0040180148 0.0011605201 -0.016989982 0.0155194625 -0.015238316 0.025887623 -0.009069581 -0.04286191 -0.007021871 -0.02384809 -0.0024534243 0.02857794 0.030017186 -0.011883251 0.0050320798 0.018889925 -0.011736854 -0.010939426 -0.010908772 0.028371619 -0.0035062633 -0.0034558112 -0.029498758 0.005767461 -0.0037207422 0.002896807 -0.02031689 -0.003823553 0.0055528684 -0.0151866395 -0.0096665 0.0057314606 0.0026581043 -0.0022421351 0.010623025 0.030367497 -0.011730187 0.0029703132 0.012548004 -0.0073156077 -0.007161606 -0.000510006 0.0012752817 -0.031258136 0.026598563 0.022616968 0.006614392 0.008387588 0.012652201 0.00017676182 -0.000418294 -0.031231457
15 0.21847013 0.39727777 0.1875681 -0.019647416 0.027547788 -0.017280884 -0.083302945 -0.034570534 -0.026014026 0.050745487 0.034095652 0.016774977 0.016389504 0.011060502 0.01694128 -0.017243313 0.006097197 0.005566753 0.008548824 0.0061643766 0.010319434 -0.00024331186 0.019749442 -0.0034789152 0.014773064 -0.00047802384 -0.009658876 -0.004007329 -0.007262466 -0.004541128 -0.015352346 0.00062115025 -0.013648299 9.639945e-05 -0.0061544464 0.0066222013 -0.00437796 -0.008504719 0.007046534 0.00027553807 0.005481214 0.002720357 3.8402824e-05 0.0042884764 -0.016987655 -0.0016020308 0.005318938 0.0063240216 0.0013293712 0.006256976 4.916219e-06 -0.00013642215 0.0041707624 -0.0034323523 0.0033211373 -0.0077692573 -0.014903013 0.004769762 0.0052099144 -0.0061873808 0.003787534 0.011268758 0.0023580424 0.0011013875 0.001735212 -0.0054029073 -0.008845744 -0.010773046 -0.0084479675 0.0006931799 0.0046319123 -0.0046356907 -0.0022570512 0.013893898 -0.008507336 -0.00046677137 0.0037641313 -0.007765896 0.0036743646 0.0069842665 0.0071831965 -0.0107270805 0.015966762 0.010918576 -0.013502369 0.00844841 -0.0041704085 0.0035304003 0.0056325537 -0.005784284 -0.0052342415 -0.00996431 -0.0020494172 7.332931e-05 0.00042257446 -0.0020591412 -0.001766573 0.0082164835 -0.00021663349 -0.0048189065 0.010914135 -0.0064114784 -0.0030796148 4.2616914e-05 -0.0026767093 0.00013542094 -0.0047527943 -0.008135841 -0.003787111 0.0015432517 -0.0009569328 0.014201883 -0.0044878167 -0.0023025256 0.00845728 0.006997718 0.0031612695 0.00023318434 0.011711968 -0.007894107 0.0019349807 -5.851793e-05 -0.0020107129 0.0044641187 -0.011285977 0.001951657 -0.010417703 -0.015102263 -0.00086326763 -0.013245503 -0.00471074 0.004500122 0.007125899 -0.0064654774 0.001979296 0.0040407893 -0.010931365 -0.0019030918 -0.0065923235 0.009404575 -0.007868627 0.000343461 -0.006348274 0.0043612123 -0.00396628 0.002285593 -0.0122236805 0.0013264641 -0.006619501 -0.0049521653 0.00408397 0.0073303394 0.0016268124 0.0062164194 0.004452863 0.011134772 -0.0045913877 -0.001935447 0.0048189373 -0.00076447264 -0.00013373033 -0.0066364477 0.0027875116 -0.00606654 0.013936017 0.005856889 0.010493518 -0.0051542777 0.0076614297 -0.0010148305 0.0054163863 -0.015114923
16 0.07151865 0.26844826 0.075906426 -0.041622493 -0.018938502 -0.0001577842 -0.016670236 0.009620317 0.0068353927 0.030659428 0.014086191 0.01363807 0.013656296 0.004083652 -0.0023598112 -0.015081458 0.0058639483 0.012681992 0.012643347 0.012390055 -0.0006042381 -0.0008149536 0.0013276031 0.0012573296 0.013075735 -0.001717163 -0.00842392 -0.010176935 0.003671067 -0.00441733 0.0001641328 -0.00072488846 -0.0063000554 0.007344579 -0.012334274 -0.001105336 0.0027617817 0.013269732 0.00022647431 -0.0062098675 0.00954518 -0.008202895 -0.0038989703 0.012392612 -0.019784305 0.0076368363 0.0061495006 0.0060741226 0.0027320995 0.008741142 -0.001346803 -0.0019401322 -0.008627024 -0.0048610666 -0.002741603 -0.006796087 -0.015999397 0.007928615 0.003991095 -0.01300261 0.0072471686 0.002449239 0.0032990372 0.010095909 0.01416531 -0.007881527 -0.0067972024 -0.0004943176 -0.0037731659 0.0016778831 0.0037305402 -0.0038991559 -0.0047388775 0.010826516 -0.011603011 0.008637141 0.004668519 -0.009023244 0.0042161075 0.0148400795 0.010527935 -0.005800745 0.018220356 0.00451175 -0.017148688 0.0035596685 -0.0044274665 -0.010775567 0.0050137034 -0.0034715917 -0.018763253 -0.019066537 0.0041591516 0.004570353 -0.002428863 -0.003989997 0.0005985716 -0.0004889484 -0.021321379 -0.0029170031 0.0073132925 -0.0127055645 -0.008731577 0.0010684151 -0.010783376 0.009414665 -0.011591002 -0.005769398 0.003305947 0.0020581516 -0.0058753896 0.013663821 -0.007929819 0.004310897 0.00998809 0.014733674 -0.012324853 -0.009467617 0.011822932 -0.009822171 0.0109512 -0.0018461552 -0.0066615 -0.0049212486 -0.0067174607 0.020009022 -0.002098861 -0.023110973 0.0035172177 -0.007754214 -0.0031453054 0.0125247305 0.0043688524 -0.0024113127 0.0038625833 0.015216462 -0.0044905767 -0.009037676 -0.008582522 0.010019663 0.0011718766 0.0024825027 -0.010465993 -0.004861018 0.0018094364 -0.002860387 -0.0024154836 0.003980739 0.0045904852 -0.01119961 -0.0064145434 -0.0038709461 0.0012161039 -0.006148802 0.004149854 0.01296126 0.00046903905 -0.0012240198 0.0031068407 -0.0047929524 -0.0027008262 0.0023355603 -0.0023750623 -0.013694809 0.0056266165 0.002310974 0.004888557 0.005016961 0.006601927 0.006613461 -0.000646424 -0.0123868855
17 0.2813808 0.36731917 0.1707701 0.06596475 0.09897133 0.015696557 -0.12495852 -0.07468005 -0.062281877 0.057576917 0.04538643 0.0155024165 0.020359306 0.014693462 0.021725167 -0.010308881 0.009746584 -0.002436389 0.009169172 0.0015318904 0.01622688 0.00379922 0.02509965 -0.006337671 0.012802846 -0.00071975274 -0.004748633 0.0037140334 -0.013754266 -0.00081243727 -0.01581454 0.0010839398 -0.012987692 0.002488349 -0.008808621 0.011523843 -0.0030256792 -0.012449421 0.012287294 0.00057791156 0.0050825663 0.003924628 -0.0010678442 0.004762731 -0.016237374 -0.007102196 0.009220419 0.0054221973 0.003420463 0.0054929904 -0.0023386455 0.0025618938 0.007688696 -0.0037175673 0.0040808283 -0.0076121427 -0.015135197 0.0031733925 0.0058429064 6.86104e-05 0.0066472967 0.012007658 0.005105573 -0.003003701 0.0007686692 0.00014752633 -0.008373602 -0.012639627 -0.006543109 -0.001969512 0.0062123244 -0.0056265052 -0.0075703403 0.010104306 -0.004847238 -0.0063919593 -0.0036836632 -0.006124797 0.0029721109 0.007737211 0.00800236 -0.0086884815 0.014069048 0.010173733 -0.011074509 0.0100661535 -0.0063212304 0.0072595673 0.004309715 -0.00474112 -0.0009844096 -0.008812684 0.00011839319 -0.0006460856 0.0028055883 -0.0027442602 -0.0053077126 0.00930277 0.003287058 -0.0034821075 0.00852456 -0.0034901684 -0.00020627968 -0.00087281346 0.0011755668 -0.0035606904 -0.0031802424 -0.0070437468 -0.008159173 0.0031016367 0.0023208002 0.010944624 -0.0031938432 -0.0033517515 0.005441951 0.0018549459 0.0054466636 -0.00036552642 0.010892507 -0.0083493395 -0.0030262417 0.000337533 0.0006670241 0.009970964 -0.009387447 0.0015243106 -0.012414098 -0.012743532 -0.0042366795 -0.01151179 -0.0021730142 0.006664228 0.01034429 -0.007979252 -0.0015165473 0.0013357005 -0.010119212 -3.0433264e-05 -0.0051584253 0.0076370835 -0.0073911385 0.0017870568 -0.0046040625 0.008551511 -0.0066469773 0.0039849617 -0.014966525 0.00060643954 -0.009112737 -0.0033503277 0.0031592355 0.010613335 -0.0001335354 0.00700749 0.0017859858 0.012257431 -0.005957198 -0.0046329484 0.00457096 0.0016137969 0.0022464828 -0.009612341 0.0011255376 -0.0067493306 0.0146339135 0.008378809 0.0075451373 -0.0046205763 0.007932191 -0.002879117 0.007919573 -0.016895771
18 -0.05029405 0.01618234 0.029127944 -0.17773584 -0.13773039 -0.004225415 0.061832897 0.032733306 0.067233175 0.015623392 0.012406293 -0.0005131423 -0.0023860503 -0.0056054783 -0.0100215 -0.004722759 0.0002304053 0.02167778 -0.004420006 -0.012555361 -0.029644853 -0.017878352 -0.023658635 -0.012617502 -0.0039839335 0.013034319 0.00871162 -0.012164508 0.015495328 -0.0068186615 -0.014977479 0.007194167 0.0015922296 -0.0049762474 0.02671234 -0.02250719 0.0007629057 -0.0004410234 -0.006317018 0.008931631 -0.0025352763 -0.0077539906 0.0005306958 0.016163964 4.0912186e-05 0.017173594 -0.021019634 0.011934383 0.011333904 0.00067354646 0.021746581 -0.0018214149 0.017636381 -0.007948947 -0.025905216 0.0039458266 0.016527621 -0.01174471 -0.008895323 -0.035217457 -0.004255172 -0.0059231957 0.0052268687 0.020750908 0.026133202 -0.01417457 0.0032451355 0.020906664 0.0025633925 0.024742285 0.00026736603 -0.0069586462 0.017108122 0.0011003038 -0.017989418 0.020095503 0.017084723 0.01946944 -0.013119872 -0.0019287239 -0.0033841399 0.008261242 -0.013670906 -0.0019360724 0.02054354 -0.003302659 0.028835416 0.007306896 -0.0046686637 -0.002506248 -0.027972696 -0.0004022504 0.0023515776 0.024428386 -0.023893885 -0.008273493 0.026277013 0.0012510103 -0.015348314 -0.0036369595 0.0018345274 0.011844683 0.0033426268 0.00080719986 0.007164817 0.029225344 -0.0024074551 0.0066101816 0.010111221 -0.014000984 0.008852039 0.0069758315 0.0011802857 -0.011186515 0.010267809 0.004229984 -0.0102359615 -0.008358751 0.0145034855 0.004854656 0.024452748 -0.0070214444 0.011643941 -0.02993429 0.002716775 0.0054291165 0.0021851454 0.0026882128 0.021989625 0.011049 -0.009044624 -0.020287057 -0.037502337 0.01316302 -0.00178948 0.010701537 0.0020726935 0.00037006155 -0.0056640888 -0.018487895 0.0012525804 0.014110035 0.02266939 -0.011439359 0.009043782 -0.008470229 0.019653266 0.020453796 -0.0049816337 -0.004327893 0.0056240805 -0.014046549 -0.0022496667 -0.004318031 -0.0066200816 -0.010238253 0.016428657 -0.006346004 -0.00632268 0.0041011525 0.006845773 -0.0023803767 -0.009124058 0.019773856 -0.01734661 -0.030544393 0.008017405 -0.0075221793 -0.0017096822 0.016000621 0.003322272 0.012164945
19 -0.08373232 0.2746194 0.0683448 -0.15234049 -0.12397512 -0.083598025 0.087318905 0.10970597 0.076411635 -0.01829958 -0.03721821 0.0062827216 0.00089585246 0.00488727 -0.009120637 -0.026328057 -0.0089620575 0.02416661 0.01229948 0.024141135 -0.0025832905 -0.0009391364 -0.004012201 0.0155094825 0.014372592 -0.0050899605 -0.024412258 -0.028860537 0.013873535 -0.0025731246 0.014775656 -0.005245967 -0.008480807 0.0014375305 -0.019020451 -0.0052450886 0.00082935416 0.023033204 -0.01189383 -0.0078010536 0.010038147 -0.010503066 -0.0013182003 0.004187269 -0.01907887 0.0046306713 -0.00053203315 0.00076188485 -0.010821603 0.005936762 -0.007911286 -0.004698399 -0.027460506 0.00095789146 0.0052429996 -0.008393681 -0.014808215 0.020075714 0.0076115453 -0.0071664313 0.003652495 0.003578832 -0.0043611564 0.005998754 0.00641755 -0.012516135 -0.005424607 -0.007473106 -0.0023701952 -0.0065486706 -0.0034654436 0.0015780877 0.0023713107 0.01658416 -0.0061110137 0.0056895046 0.00828957 -0.015710842 0.013210708 0.007824235 0.00872033 -0.013984111 0.025143635 0.008203933 -0.026336892 0.0012907544 -0.013922615 -0.017564764 0.008541686 -0.00063096173 -0.013510461 -0.021113176 0.00355108 -0.012051993 0.0041732 -0.002265302 -0.008667004 -0.0070445035 -0.015605466 -0.0012160515 0.005124169 -0.020483086 -0.017846514 0.0035929133 -0.021953918 0.0020127082 -0.017628793 -0.014957281 0.00728942 0.004682168 -0.013425164 0.015495902 -0.0121453535 0.0054441406 0.006545206 0.017797237 -0.012318786 -0.005023631 0.007146716 -0.00939116 0.0058034346 0.0062920777 -0.014940159 -0.0019417936 -0.010730408 0.013426006 -0.0023995813 -0.023879124 -0.0064456263 -0.0152092045 -0.00018822287 0.022300558 0.017801806 -0.0020839171 0.008696888 0.010554793 -0.004062226 -0.011941445 -0.010030455 0.017159548 0.0020517474 -0.0065185577 -0.023927208 -0.007334577 0.0019899837 0.001260736 -0.0057431622 -0.0021832045 0.008207333 -0.009692194 -0.004935068 -0.0020496345 0.0036406964 -0.0033268705 0.01330782 0.020441037 -0.0030547895 0.0073441854 0.0048281145 -0.007318358 -0.008090369 0.0040505915 0.0058240173 -0.019491129 0.012059576 0.015437673 0.003322634 0.0036548562 0.005803567 0.0009017773 -0.008318772 -0.0119614815
20 -0.85530514 -0.4696078 -0.15120293 -0.8326797 -0.80457544 -0.5687927 0.75444275 0.6802706 0.60263014 -0.3775782 -0.36501506 -0.089937225 -0.120625965 -0.007669914 -0.07699056 -0.072344154 -0.12343361 0.12484237 -0.036106616 0.033119664 -0.096139714 -0.043634433 -0.11319691 0.07320917 -0.024393111 0.0075409436 -0.08276475 -0.16228113 0.10816102 0.004808294 0.07619773 -0.017304592 -0.0021282632 -0.07613867 0.034722775 -0.09256563 -0.014660766 0.050063618 -0.11178137 0.032585528 -0.014940878 -0.030840112 0.016470425 -0.028943565 0.036793828 0.006331459 -0.10367759 -0.016093858 -0.07592877 -0.039844923 0.009526002 -0.018354554 -0.07976445 0.03826069 -0.007143293 0.015684856 0.08063285 0.05261745 -0.0011544685 -0.024100993 -0.05519386 -0.02411469 -0.048714366 0.012200409 -0.0012049169 -0.059269283 0.029968666 0.008480452 0.02759141 -0.0020419294 -0.05405806 0.028331831 0.102460556 0.02447162 0.009249566 0.020969277 0.06492876 0.01639343 0.028873298 -0.08923068 -0.039611176 -0.037243407 -0.010291919 0.019850835 0.015312283 -0.030094393 0.012138012 -0.0088137295 -0.0036324274 0.014163912 -0.0065380847 0.018207755 -0.008976432 -0.07199389 -0.020392228 -0.007852548 -0.009911948 -0.045695532 0.036841877 0.013277873 -0.025615752 0.0033501023 -0.04172242 0.02294166 -0.049159426 -0.004548169 -0.02980984 -0.036320843 0.05657895 -0.021324163 -0.017838396 0.016087862 -0.016290588 -0.03268697 -0.018394966 0.0080066575 -0.0064010248 0.033042207 -0.016046852 0.041522264 -0.0033112038 0.048964545 -0.017327951 -0.053322 -0.016976817 -0.07572606 0.0034587972 0.044178404 -0.024672156 -0.012752209 0.012898646 -0.0012191522 -0.0027052462 0.04112407 0.016279802 -0.03325638 0.029047837 -0.0011614915 -0.017150661 -0.014701195 0.010217791 -0.035616163 -0.02427279 -0.046410643 0.01961605 0.016765427 0.03428645 0.0017350179 0.011074136 0.01817522 0.035095494 -0.0150406435 0.004316562 0.019836754 0.047551446 0.00512862 0.02150437 0.051680177 -0.010811915 -0.00779385 -0.021852635 0.00041991906 0.04489948 0.03222653 -0.006134053 0.022326462 -0.0015639116 -0.039808635 -0.028724093 -0.0074228975 -0.043943867 0.056762695
21 0.08011826 -0.054296266 0.022090819 -0.039719272 -0.023648495 0.023217412 -0.0074094287 -0.028248822 0.0094584515 0.02162165 0.026866527 -0.0062315087 0.0010639655 0.0015608782 0.004539463 0.007799198 0.0024790054 0.0055256356 -0.006228331 -0.021876536 -0.015835876 -0.009579632 -0.008287905 -0.018270602 -0.0088467905 0.009188998 0.015163898 0.0017372891 0.00092220545 -0.0022298223 -0.021239191 0.005659908 -0.0020002874 -0.00603832 0.025997877 -0.013554488 -0.0022808674 -0.017954437 0.0027692583 0.016849797 -0.009169496 0.00034109666 0.003694131 0.008730167 0.0033745896 0.007016596 -0.01623459 0.007384643 0.012426315 -0.003082212 0.013544783 0.0018476917 0.028714908 -0.0059921914 -0.019764157 0.004144457 0.021748383 -0.014562899 -0.008687633 -0.022734959 -0.004783793 -0.0017756032 0.006420207 0.010186067 0.014643476 -0.0025934135 0.006137293 0.015635008 0.0030144164 0.019540723 0.003155091 -0.0064454256 0.009204635 -0.0024413709 -0.007523917 0.007710537 0.0063625714 0.016179899 -0.014129799 -0.007090051 -0.006122911 0.0072735236 -0.017804122 0.00091119134 0.026393373 -0.0026112988 0.024949376 0.017760694 -0.0073830723 -0.0039552404 -0.007450722 0.008567543 -0.0018222147 0.016741019 -0.0181524 -0.005609038 0.018498894 0.0059863315 0.0031302718 0.00028906733 -8.1814724e-05 0.019081539 0.010825709 0.0007479832 0.015086141 0.01596543 0.0067770663 0.0080933245 -7.362806e-05 -0.013263056 0.01495332 0.003044525 0.005365789 -0.0151173165 0.0052854484 -0.007829823 0.004548349 -0.003038289 0.010237715 0.006634425 0.0074677286 -0.0073510054 0.0176128 -0.018799575 0.0013804893 -0.008752336 -0.0028488105 0.015755586 0.014313043 0.00992244 -0.0054056467 -0.023950191 -0.030313319 0.007513523 -0.0041692792 -0.004556477 -0.0009813578 0.006045021 -0.0020895768 -0.018602014 -0.0025735316 0.011202469 0.024213022 -0.003196652 0.0014171469 -0.0034059454 0.010068992 0.014011302 -0.013337706 0.0038955663 0.011140447 -0.0030595134 -0.003273268 0.004645886 -0.0070903297 -0.013867309 0.0113849 -0.007118917 -0.007697649 0.0077948384 0.00850627 -0.009767763 -0.00616226 0.02347547 -0.01334918 -0.023650324 0.0057320045 -0.012335875 -0.0018045597 0.0075282115 0.007243475 0.0114416815
22 0.28484094 0.30586305 0.18518153 0.04128455 0.0766622 0.003354112 -0.120038055 -0.07888238 -0.054750893 0.052761696 0.0458322 0.011466667 0.014570051 0.013073714 0.027817015 -0.0065009817 0.0072972765 -0.003578695 0.0023194838 -0.008859648 0.0112203965 -0.00083615945 0.024837397 -0.012414047 0.006710344 0.0033688499 -0.00092500873 0.005632642 -0.014108031 -0.0010783155 -0.0245595 0.0022951548 -0.012247097 -0.004848146 0.0057765143 0.008490013 -0.007181714 -0.023751236 0.012210536 0.0071709706 -0.0029361285 0.010261484 0.0030709906 -0.0015116909 -0.0073910616 -0.006633608 -0.00020665489 0.00564775 0.0039628968 0.0021338547 0.0026698043 0.0020184482 0.019436846 -0.0012602372 0.00056241645 -0.005327679 -0.0043699387 -0.0026240917 0.0005239672 -0.0023577039 -0.0011211354 0.012817733 0.003985286 -0.0028071715 -0.0031688712 -0.00031816878 -0.0076651913 -0.011422108 -0.0071271164 0.0037882244 0.0059675095 -0.0050181895 -0.0023997359 0.009574275 -0.0051337397 -0.008530259 4.4441753e-05 3.424671e-05 -0.0026549622 -0.0013072939 0.0018179661 -0.005761541 0.003141273 0.010035299 0.0001724721 0.0068899263 0.002622338 0.017231185 0.0025620873 -0.006867096 0.0051950244 0.0010876054 -0.004111998 0.0009778836 -0.0011991961 -0.0006199996 -0.0011933242 0.013197664 0.014174873 -0.0050516897 0.008380715 0.0051670223 0.0052903686 -0.0023931016 0.008881877 -0.005454688 0.0038945612 -0.004236845 -0.010234716 -0.0032051634 0.008708205 0.007310844 0.001464889 -0.009388111 0.0029467891 -0.0048614983 0.014474433 0.0042859167 0.009713934 -0.0028686076 -0.0032387665 0.0006529406 0.006366955 0.0063846475 -0.0083981585 -0.014061981 -0.013503934 0.0009503842 -0.0027845637 -0.00828171 -0.0037017374 -0.005948412 0.00059396203 -0.0066614095 -0.0016828395 -0.0065033026 -0.012446523 0.004261763 -0.0028960058 6.585114e-05 -0.0107430555 0.0016203412 0.0065911235 0.008667119 -0.007424421 0.0029855755 -0.012257002 0.0021026337 -0.016240302 0.0013555742 0.011501951 0.013073306 0.0009129847 0.013322683 -0.00035335578 0.0030552612 -0.004228887 -0.0066318396 0.0015848842 0.004582438 0.0050644074 -0.012631888 0.003714081 0.005549386 0.009763832 0.0006865646 0.012562513 -0.012141985 0.00641637 -0.0049289544 0.011193207 -0.010423102
23 -0.03386535 -0.5747023 -0.4002608 0.41429883 0.27287084 0.20317665 0.0010277724 -0.06841711 -0.09134387 -0.05903348 -0.01498142 -0.043400146 0.0013252628 0.015433807 -0.01639298 0.058776665 0.005286364 -0.026043942 0.0030868114 -0.02428137 0.0035934097 0.03282029 -0.016759874 -0.0064232475 -0.031243768 -0.01983472 0.03217282 0.029023768 -0.01933012 0.02017467 0.036393728 -0.013676263 0.014264589 0.030453483 -0.021182615 -0.003989653 0.021661466 0.012827432 0.0116071375 0.020225931 -0.0114315385 -0.016928 0.0015229721 0.007553097 -0.004255321 2.3686356e-05 0.010260567 -0.013999986 0.011225788 -0.0018415935 -0.038007334 0.008139171 0.0028343478 -0.0030340215 -0.010183203 0.00071462174 0.031459242 -0.005807582 -0.007185145 0.016035039 0.013080338 -0.021889126 0.016423186 0.0024869887 0.017908007 0.042486545 0.020119041 0.024363358 0.030415216 -0.011166859 0.0072522378 0.00013101133 -0.043679517 -0.03266281 0.03286289 -0.015715957 -0.047453064 -0.010028921 -0.006866989 0.008511391 0.0016098627 0.017091377 -0.016364645 -0.01588147 0.017607355 -0.013508289 -0.0125913555 -0.00023763557 -0.012856867 0.0030220684 0.025460098 -0.0039211996 0.017032156 -0.008884141 0.0052188584 -0.0058501787 -0.016828898 -0.017587405 -0.004515294 0.03050937 -0.022592094 0.015064439 0.0125109805 0.004570479 0.007445253 -0.010190395 0.006252994 0.015031598 -0.015472005 -0.0024204438 0.013173844 -0.021497693 -0.0002255284 -0.0034866738 -0.009766946 -0.021891622 0.002683468 -0.023758635 -0.0060519823 -0.0040295785 -0.03321051 -0.0064571905 0.021283967 0.005086748 0.011353617 0.015153829 0.0036246218 0.022614064 -0.015067189 0.02475284 0.021996938 0.019033795 0.016465817 -0.004768937 -0.007946636 -0.023613546 0.018582268 -0.004905354 0.0054762424 -0.002268842 0.019326715 0.003319887 0.0019879676 0.00055055844 -0.01341773 -0.0005740606 -0.0005650069 -0.007937328 0.0074254978 0.013941397 -0.017406551 0.0072352774 -0.013931301 -0.010811543 -0.0041381055 -0.0022035684 -0.0025420482 -0.0067820884 -0.017450852 0.0052725263 0.006033209 -0.0039388565 -0.010929596 -0.007997238 -0.021172656 0.015227366 -0.035169106 0.014562588 -0.0021352896 -0.0017891426 0.0009997268 0.010001344
24 0.17146271 0.34405333 0.066191144 0.12347472 0.115124956 0.03370853 -0.086081065 -0.033805527 -0.057684466 0.03246701 0.017698906 0.016110996 0.02264113 0.014428391 0.0058200234 -0.012197573 0.009662258 -0.00014705036 0.020300774 0.020064488 0.020114489 0.0144824935 0.018844537 0.007464487 0.017858015 -0.011986665 -0.013730686 -0.0013243124 -0.009898552 0.0014769346 0.012124825 -0.0067175026 -0.00863911 0.017488617 -0.03624106 0.014609607 0.0056997114 0.01785816 0.007880935 -0.012399078 0.0139227435 -0.0070271394 -0.005922588 0.0073167253 -0.028037798 -0.0026610966 0.022739174 0.00047593543 -0.0020000008 0.01204369 -0.018957406 -0.00028997537 -0.020741865 -0.0009933129 0.011303898 -0.013042583 -0.030611677 0.01683811 0.010215562 0.008501359 0.014155363 0.0061589098 0.0045675575 0.0013394111 0.0053902017 0.003680097 -0.012083983 -0.015270377 -0.0031855009 -0.015026543 0.006632103 -0.0026057083 -0.02409341 0.010431686 -0.0011344146 -0.006053575 -0.011551649 -0.024255227 0.012552027 0.02237577 0.017848525 -0.0109575745 0.031989336 0.005915794 -0.035454914 0.0072084595 -0.026739221 -0.015854176 0.009337462 -0.0034197695 -0.005411821 -0.026987344 0.007314296 -0.009967972 0.012707482 -0.0017298539 -0.019106481 -0.001950657 -0.01816546 0.00067268865 0.00645665 -0.021885315 -0.011817285 3.448731e-05 -0.016383681 -0.009150748 -0.0134662455 -0.011277638 -0.0062114485 0.01132973 -0.010268862 0.011047462 -0.011920286 0.010557704 0.0050350344 0.013933424 -0.008123509 -0.010129754 0.008219108 -0.018130455 -0.0039253165 0.0025428731 -0.012653214 0.016003128 -0.009967545 0.023729382 -0.006254771 -0.03120708 -0.013468522 -0.01463642 0.0045224885 0.033727966 0.0337216 -0.013460999 0.0034260633 0.010862639 -0.006028514 -0.01282282 -0.0075028446 0.024909794 0.0020490268 -0.004720653 -0.02642437 0.0036285871 -0.0066581317 0.0017409922 -0.017879527 -0.0082086 0.008610495 -0.011349495 -0.01391837 0.007468584 0.000924714 -0.0055149663 0.008683504 0.026412234 -0.011988231 -0.00061498454 0.0066126175 -0.0071743433 -0.0057068905 0.002477597 0.0012771788 -0.032553025 0.017888585 0.025736239 -0.00095161714 0.012266832 0.0111900205 -0.0020461227 0.00030590215 -0.025968684
25 -0.3005666 -0.90046966 -0.77363014 0.72632635 0.4682495 0.36031395 0.078439645 -0.04012164 -0.14330931 -0.15503122 -0.0798714 -0.072553016 -0.0015194159 0.022893267 -0.05474091 0.0946372 0.007974256 -0.042876057 0.018928898 -0.008507958 0.012753358 0.07158753 -0.039941132 0.01773204 -0.045374792 -0.049928617 0.036163907 0.042042583 -0.027051112 0.038892854 0.11182832 -0.036425028 0.037453365 0.073801704 -0.079173386 0.00036183337 0.051885266 0.07252121 0.010573673 0.009632421 -0.0026131123 -0.043760568 -0.0052381987 0.011855392 -0.019711843 0.004811105 0.040498316 -0.03296353 0.0042518126 0.007803858 -0.08983583 0.008350151 -0.04641178 2.2240372e-05 -0.00093789917 -0.007180878 0.026725873 0.012848157 -0.0047143875 0.049070265 0.032906894 -0.050043736 0.024577357 0.005907471 0.032613344 0.079129614 0.026736153 0.034521468 0.05681613 -0.044927675 0.008849665 0.009913871 -0.0994507 -0.057713516 0.0637217 -0.030243624 -0.094273716 -0.041812565 0.0074761533 0.03467159 0.0154843675 0.026079772 -0.0014517008 -0.037722137 -0.010327935 -0.026250595 -0.05653339 -0.03718489 -0.010561945 0.010543784 0.039121516 -0.03271297 0.043675877 -0.032587454 0.02858077 -0.0062375795 -0.054459304 -0.04875675 -0.037207354 0.05864433 -0.042194672 -0.005547855 0.0021166746 0.007024735 -0.016364617 -0.031382754 -0.0074365158 0.01780632 -0.020019826 0.010802953 -0.00060705823 -0.044780344 -0.013970969 0.018345859 -0.021295149 -0.019100657 -0.016815232 -0.051038772 -0.020442814 -0.019515939 -0.059288952 -0.00065311836 0.010934219 0.023149123 0.021336032 0.058149014 0.015642688 0.0062874593 -0.043490417 0.037195005 0.050787617 0.07933964 0.07033698 -0.016632644 -0.005399753 -0.023801193 0.043309897 -0.024260271 0.010564778 0.022881458 0.04629017 -0.008440188 -0.030962264 -0.0069406233 -0.022010976 -0.005328644 -0.0053754225 -0.02724671 0.042392027 0.012372824 -0.057603054 0.007950182 -0.02430798 -0.03876228 0.0030082292 0.020342013 -0.018009689 -0.0058403653 -0.024950821 -0.0066779237 -0.00038768805 0.014638914 -0.015507135 -0.05459772 -0.030350683 0.05825724 -0.075523496 0.052759513 0.0005303818 -0.004924507 -0.009479752 0.0032007706
26 0.17794053 0.42241022 0.1188246 0.051658794 0.065750025 0.007417458 -0.080068536 -0.019078718 -0.0372499 0.04529305 0.022541532 0.022339076 0.023701444 0.011479536 0.005814435 -0.02067179 0.009865202 0.0063388557 0.020379942 0.023865158 0.017173825 0.008767184 0.018185945 0.0073603415 0.022586826 -0.00931146 -0.01707454 -0.0071341367 -0.0055511734 -0.003285673 0.005347782 -0.0046460303 -0.011487186 0.013712003 -0.032345276 0.012174767 0.0035698374 0.016308535 0.0057454295 -0.01292072 0.015995573 -0.0071424483 -0.006122081 0.009767054 -0.030353758 0.0006686818 0.020755295 0.003690334 -0.001626784 0.0129826125 -0.012450862 -0.0015425591 -0.019702274 -0.0032300225 0.010005308 -0.012966785 -0.033696685 0.016927343 0.01097 0.0006372533 0.013606134 0.008161169 0.0030504947 0.003687516 0.0068701515 -0.0035056032 -0.013628811 -0.014027835 -0.00797594 -0.010695839 0.006163706 -0.003194737 -0.016828869 0.015359865 -0.00793218 0.0009945547 -0.002895766 -0.023189096 0.012755354 0.023262803 0.017893946 -0.013595778 0.034808513 0.0085639 -0.036871474 0.009161558 -0.022025416 -0.01725214 0.010229594 -0.0042559025 -0.0123152565 -0.027785555 0.00455244 -0.0059950254 0.009217843 -0.0021781866 -0.01290826 0.00038895156 -0.02123029 -0.0028429462 0.01075393 -0.024017774 -0.0133880675 0.00046636764 -0.01807304 -0.0023642885 -0.015411754 -0.012435767 -0.0019567104 0.010695751 -0.012173322 0.016642889 -0.011994741 0.011061815 0.009780891 0.018934121 -0.010860861 -0.008951526 0.010943009 -0.017762562 0.0027973866 0.0010758613 -0.014517421 0.010661057 -0.012314879 0.025490634 -0.0062481435 -0.036144122 -0.007125081 -0.01785319 6.224256e-05 0.028735366 0.027292887 -0.011357521 0.005299124 0.016051495 -0.0084933685 -0.012909846 -0.009685331 0.025105575 -0.00039382302 -0.003271627 -0.026493564 0.0014084034 -0.003546581 0.0007931978 -0.015948342 -0.0047033625 0.007984316 -0.013935512 -0.011653143 0.00405958 0.0021921822 -0.005122216 0.009413108 0.025511744 -0.00958012 0.0007221278 0.008201845 -0.008761404 -0.006481331 0.003096784 0.0015510726 -0.03057235 0.019610513 0.02047202 0.0041679754 0.010119914 0.011162821 0.0010393383 -0.0007014649 -0.026270816
27 0.16719863 -0.14573765 -0.022725726 0.10518746 0.09033755 0.06156231 -0.057537198 -0.077475004 -0.042310547 0.019020494 0.033673614 -0.013918747 0.003928968 0.009139807 0.01342231 0.021701587 0.0037141002 -0.008808764 -0.0069592 -0.029897692 -0.0035532427 0.0005063822 0.00265462 -0.021320019 -0.01471192 0.004259507 0.021824852 0.014498384 -0.011648111 0.0039010104 -0.020323792 0.0031710658 -0.0034227394 -0.0030546642 0.020796433 -0.0058732238 -0.002253639 -0.027946543 0.010642776 0.022982627 -0.014260756 0.0041360497 0.005773685 0.003486629 0.005107483 -0.0022059695 -0.011311309 0.0022684324 0.013191913 -0.005844373 0.0031346546 0.0060144733 0.03456983 -0.0045908582 -0.014850369 0.003987742 0.026923306 -0.016390875 -0.007808747 -0.0096301455 -0.002798032 0.00024201654 0.008587485 0.0010728247 0.006747674 0.010158903 0.009814381 0.012067528 0.006955972 0.013070924 0.005276861 -0.0062655513 -0.0006474901 -0.008544161 0.0046262085 -0.0042998595 -0.007661318 0.012631206 -0.014504355 -0.009313683 -0.006846259 0.0077130054 -0.021791859 0.0013346503 0.030808838 -0.0023817767 0.01817285 0.024840731 -0.010021715 -0.0033730213 0.0099548325 0.013401812 -0.0020939778 0.00900992 -0.011651641 -0.004669773 0.010101619 0.0067925965 0.016712813 0.0058771214 -0.003957321 0.024725895 0.016336193 0.0012294358 0.021181153 0.0048563587 0.012491828 0.009458677 -0.009681116 -0.011492245 0.0197796 -0.0022726862 0.007834014 -0.017779125 -3.852609e-05 -0.018691933 0.015035084 -0.0017945155 0.0062399493 0.006103754 -0.00877376 -0.007543247 0.023437558 -0.0075817355 0.0016569354 -0.015970366 -0.0066778953 0.026146572 0.005602955 0.011261172 -0.00066052773 -0.021811511 -0.020596622 0.0026907516 -0.007600053 -0.01766072 -0.0015496272 0.008784295 0.0008723676 -0.017840067 -0.0032127039 0.009834394 0.023941832 0.00466214 -0.0058485284 0.0014829433 0.0017127531 0.0073818676 -0.01769844 0.011270058 0.012343981 0.0063617197 -0.004987461 0.00955954 -0.00791263 -0.014456822 0.0066768834 -0.008187279 -0.009198895 0.011588536 0.0101780705 -0.015739836 -0.005249514 0.023428671 -0.01086599 -0.014865766 -0.00057398423 -0.013527391 -0.0018666176 0.00063306105 0.009886453 0.010487239
28 -0.008129172 -0.028049354 0.040759783 -0.14965504 -0.110834934 -0.011694987 0.046813555 0.018237371 0.054230645 0.0125412345 0.014267205 -0.0060841283 -0.0046445704 -0.0024864993 -0.0016548601 0.0010477472 -0.0017773041 0.014983294 -0.008005172 -0.018919818 -0.024308173 -0.015732853 -0.016647836 -0.015609438 -0.007858109 0.011969542 0.0116020925 -0.0072908327 0.009548236 -0.004972643 -0.021631261 0.007244647 -0.0018849361 -0.0094088055 0.03180765 -0.020268276 -0.003018154 -0.01398655 -0.0035525581 0.015980627 -0.008353552 -0.0015519463 0.00467225 0.009850701 0.0044058296 0.011512015 -0.023362454 0.009073228 0.010934234 -0.0034906114 0.019006476 -0.0004236551 0.025873099 -0.0070917043 -0.022674235 0.005221136 0.024519065 -0.0144774495 -0.009518654 -0.030308604 -0.007039111 -0.0023736013 0.004346672 0.014099486 0.017398886 -0.009179308 0.0071115433 0.01864454 0.0027411336 0.023726786 -0.00018232109 -0.0060091577 0.018287262 1.3636716e-05 -0.01127075 0.013865808 0.014007368 0.019628443 -0.014157358 -0.009209021 -0.007987561 0.006892971 -0.018824417 0.0010196035 0.027837856 -0.0035703431 0.030139802 0.015500219 -0.006735724 -0.002861752 -0.014265709 0.008459373 -0.0020739378 0.019218864 -0.02155685 -0.006422815 0.02456843 0.0044045476 -7.677911e-06 -0.0014401996 0.0005052695 0.018046184 0.008237389 0.001424492 0.012777761 0.023080323 0.0041658157 0.0067037013 0.005629072 -0.015157844 0.012756245 0.005184103 0.004366625 -0.015731012 0.007915917 -0.0037789845 0.00044535266 -0.002756184 0.011516608 0.008051701 0.0149852615 -0.007110184 0.01619425 -0.025742052 0.0017284333 -0.007649849 -0.0007299959 0.014200236 0.018911863 0.010043359 -0.008394271 -0.027467122 -0.03695444 0.011952883 -0.0021185186 -0.0009611285 -0.00031296752 0.005323971 -0.0030671689 -0.020500965 -0.0022602584 0.011792971 0.025298592 -0.007336936 0.0055652247 -0.00493139 0.015229551 0.017662305 -0.012091142 0.0026478625 0.0126059195 -0.007902169 -0.0025613767 0.0036627413 -0.0061306474 -0.014715265 0.014508159 -0.004955398 -0.007527285 0.0073889974 0.008035438 -0.008015545 -0.0061731124 0.026694505 -0.015580812 -0.028857598 0.007468883 -0.013921759 -0.0027488503 0.01032513 0.004415719 0.015228303
29 0.29779562 0.2850857 0.20595112 0.016251082 0.06267705 -0.0022665658 -0.12126954 -0.085945375 -0.050649267 0.054910727 0.05077885 0.009363975 0.011738153 0.01208137 0.03149479 -0.004239412 0.0065974295 -0.0040160925 -0.002487434 -0.015964117 0.0077533517 -0.004605359 0.024382312 -0.017018182 0.0031407168 0.0069414116 0.00265086 0.007252373 -0.014530964 -0.0019458234 -0.032402303 0.0040315725 -0.012243728 -0.010008244 0.016377756 0.005798791 -0.0096688485 -0.032927185 0.012664378 0.012680304 -0.0073038163 0.013701731 0.0053957263 -0.0033828162 -0.0022675581 -0.006406943 -0.0061313584 0.006742104 0.005484563 -0.00016214972 0.007821385 0.0024516487 0.029020965 -0.0016108869 -0.002779317 -0.0032615506 0.0032214466 -0.0076647825 -0.0023698376 -0.005851799 -0.004874206 0.013046582 0.0038056707 -0.003041081 -0.0043554083 -0.0010110376 -0.005973772 -0.008662369 -0.007671923 0.00878364 0.005679954 -0.005202635 0.0026210092 0.008585451 -0.0060644923 -0.008113647 0.0029494304 0.0059326407 -0.006623023 -0.0069446904 -0.0024533088 -0.0040053492 -0.004516405 0.010254905 0.009488895 0.006219085 0.010449622 0.024648488 0.0006640667 -0.0076707485 0.0075999773 0.007994514 -0.0066894274 0.004058783 -0.005184993 -0.00044174952 0.0038023952 0.016247125 0.021161683 -0.005647014 0.008637753 0.011864438 0.009618175 -0.002856191 0.014860981 -0.003700687 0.00797192 -0.0018487542 -0.010502471 -0.0072937747 0.013253234 0.005769635 0.0047934256 -0.014026002 0.0027438768 -0.00930076 0.01941072 0.007224966 0.009808994 0.0012523232 -0.0029022146 -2.5492976e-05 0.011303188 0.0027094893 -0.0076816 -0.022567816 -0.014739347 0.0089612715 0.0005764781 -0.005955739 -0.005556689 -0.015858449 -0.008365177 -0.0045747957 -0.0026149529 -0.010688967 -0.013155242 0.008404513 -0.0015726928 -0.0062051835 -0.013522714 0.0032786194 0.01494702 0.0089198435 -0.0072610527 0.002735334 -0.009878539 0.004985436 -0.021617325 0.0045471657 0.017284898 0.013734071 0.00045067363 0.017176252 -0.0026289276 -0.003378686 -0.0019991796 -0.008143562 -0.00032637306 0.0070090825 0.007772443 -0.015722727 0.0041039386 0.015180178 0.006597736 -0.00590815 0.01516047 -0.017737554 0.0048923474 -0.0050103376 0.013613887 -0.005654812
30 -0.5037034 -0.21563491 -0.043594312 -0.5407649 -0.5029421 -0.3328518 0.44531602 0.3948396 0.35473725 -0.20424002 -0.19911844 -0.049876787 -0.06775677 -0.0035192287 -0.03880688 -0.041651558 -0.0689804 0.07355127 -0.021417694 0.013738248 -0.057125326 -0.028161522 -0.06262692 0.03592833 -0.01439331 0.007164246 -0.045096546 -0.092204034 0.0612273 0.001302103 0.03453894 -0.0085687805 -0.003809311 -0.045058656 0.027534436 -0.055413824 -0.010516806 0.021392101 -0.06171871 0.022938855 -0.0117310835 -0.015448609 0.012956089 -0.016564732 0.02002411 0.0061493963 -0.06500795 -0.007120693 -0.040591545 -0.021999713 0.00856229 -0.010794079 -0.037199732 0.018988436 -0.008297662 0.0077856244 0.050309345 0.026551897 -0.0029423572 -0.021141404 -0.03252558 -0.010987824 -0.02617319 0.008864825 0.0010983086 -0.035069373 0.017442245 0.0068503306 0.0141035095 0.0044392706 -0.029971631 0.014657253 0.06088753 0.016557377 0.0025908812 0.012642243 0.039741054 0.011756659 0.013087501 -0.05173758 -0.023931619 -0.02037192 -0.008991457 0.012776494 0.0135241775 -0.017611517 0.013067237 0.00012105063 -0.0014235292 0.00661694 -0.004455051 0.011380316 -0.005915542 -0.037401855 -0.014838133 -0.0048093228 -0.00040294102 -0.022970034 0.023341682 0.0064746174 -0.012406177 0.0047101537 -0.021610284 0.012541504 -0.024291743 0.0016667992 -0.015993563 -0.020706302 0.03068192 -0.016069606 -0.006882444 0.01110673 -0.007966569 -0.022819288 -0.0077354047 0.0031102872 -0.0005717378 0.017900027 -0.0052390886 0.023731928 0.00076774694 0.026191855 -0.005898694 -0.034392282 -0.011046998 -0.04639772 -0.0002735005 0.027815416 -0.010606859 -0.0073984303 0.0043003266 -0.0070052734 -0.0086954795 0.023906182 0.010636326 -0.02066053 0.012563275 0.00037368294 -0.010338393 -0.011638414 0.0029909797 -0.018185085 -0.008157841 -0.02651322 0.010968297 0.008308592 0.019484473 0.0045421016 5.3395284e-05 0.011588997 0.025033085 -0.007837209 0.0027507152 0.014555886 0.026050035 0.00047672717 0.013470721 0.026851894 -0.007860269 -0.0019858554 -0.00946057 -0.0031966635 0.025064873 0.024181489 -0.005067389 0.0063415486 0.003579648 -0.027601125 -0.014715172 -0.0037482604 -0.022671513 0.03351631
31 -0.2116211 -0.89407456 -0.7212026 0.6894268 0.4416932 0.32770115 0.04828357 -0.059164688 -0.13935398 -0.12828425 -0.060161788 -0.06734502 0.0005599617 0.02245051 -0.042936474 0.08873398 0.0069880886 -0.04109374 0.0142579805 -0.015121739 0.012727118 0.06329953 -0.031678904 0.0097131785 -0.043248646 -0.042505868 0.03775734 0.0410772 -0.026750779 0.035270907 0.09071034 -0.029843617 0.029854879 0.06221882 -0.06417743 0.00024211721 0.04371811 0.052983545 0.012638268 0.014449583 -0.006237092 -0.03629008 -0.0033641898 0.011013659 -0.015109476 0.00088476593 0.032420296 -0.02887317 0.0074624475 0.0031456647 -0.0767689 0.00974721 -0.030703042 -0.0008245297 -0.0031581686 -0.003998753 0.030109506 0.0068114344 -0.004796875 0.042075153 0.029005758 -0.041003015 0.023216413 0.002877799 0.027192619 0.071198724 0.02709403 0.031732175 0.05079436 -0.03610434 0.009159007 0.0059851464 -0.08457407 -0.052862372 0.058150657 -0.027748413 -0.08439321 -0.03291321 0.0025860681 0.026640633 0.011431885 0.023780063 -0.0069184825 -0.030932706 -0.00027568825 -0.022115018 -0.044983767 -0.025101202 -0.013336097 0.008977037 0.038613606 -0.022622507 0.035706807 -0.027268123 0.023119496 -0.006661836 -0.044755433 -0.040243834 -0.02535387 0.05206068 -0.03874382 0.0025567752 0.0067121973 0.007061506 -0.0077332538 -0.02624676 -0.0018051905 0.017800512 -0.02125989 0.008013473 0.0050073345 -0.03811189 -0.009270815 0.011284103 -0.018946223 -0.02270521 -0.009663014 -0.043798476 -0.016889343 -0.01517675 -0.055387236 -0.0035613873 0.01641815 0.019871106 0.019085383 0.045719855 0.012200918 0.014695355 -0.03661514 0.03422912 0.043162376 0.06168953 0.05566927 -0.013287554 -0.007783345 -0.02688888 0.036536552 -0.018492017 0.009128809 0.015252064 0.039773095 -0.0038266927 -0.02187318 -0.0021416708 -0.020796381 -0.0015754056 -0.0050909724 -0.023290288 0.03166498 0.014588946 -0.046303418 0.0091904085 -0.021481838 -0.030140787 0.00047728582 0.013160409 -0.012938468 -0.005430065 -0.023317672 -0.0014205347 0.0014451148 0.0076224706 -0.015366604 -0.041229602 -0.027267292 0.04685611 -0.06621451 0.04169263 -0.00096888293 -0.0049606278 -0.0070914384 0.005652867
32 -0.045709077 -0.06814557 -0.03228561 -0.09355481 -0.08504563 0.022093931 0.051523864 0.020477759 0.047276787 0.0070669157 0.009019441 -0.004505515 -0.0011198937 -0.0039614653 -0.012644415 0.0013684887 0.00162569 0.016593603 -0.002168334 -0.011397128 -0.02642798 -0.01175882 -0.024320746 -0.0109876385 -0.005762194 0.008271403 0.010544015 -0.008371891 0.012221067 -0.0043831193 -0.006908327 0.004130997 0.0038322657 2.1892716e-05 0.018872801 -0.020209152 0.0038672783 0.0043450273 -0.0050945496 0.008412191 -0.0016452579 -0.009826133 -0.0011382895 0.016585097 -0.0013544335 0.016430425 -0.014601279 0.00929806 0.011314715 0.00096710445 0.014671969 -0.0015586038 0.013394848 -0.006364022 -0.023769258 0.0034335102 0.015249008 -0.009488812 -0.008644692 -0.029283982 -0.0023391186 -0.009592187 0.0062841116 0.020682119 0.026805868 -0.008402652 0.0038089494 0.02131746 0.0050999303 0.019701922 0.0019713168 -0.0060039447 0.008312413 -0.002188064 -0.01391462 0.017626699 0.01081403 0.014276483 -0.01167094 0.000671734 -0.0017363102 0.008979686 -0.010962236 -0.0037743906 0.01704656 -0.0048788046 0.022990903 0.003664795 -0.0053966953 -0.002841348 -0.02403106 -0.002342972 0.0037843909 0.020795237 -0.021067807 -0.007786845 0.020019835 -0.0012900302 -0.018283086 6.285267e-05 -0.00078223326 0.0103427945 0.0034017023 0.0010896497 0.004840904 0.023682892 -0.0016535148 0.008066222 0.0083463555 -0.011984847 0.007995618 0.004711492 0.00025264773 -0.008429351 0.008158547 0.0036718932 -0.010844556 -0.0102855805 0.012090751 0.0039616222 0.018947387 -0.006967354 0.010482601 -0.026551133 0.0033219783 0.008216251 0.0038149133 0.0024773735 0.017704507 0.012074215 -0.004451005 -0.014217697 -0.030076154 0.010565176 -0.0019806754 0.009365946 0.0051146126 -0.0010862139 -0.0049254717 -0.015058883 0.004326715 0.011686554 0.018309174 -0.011756467 0.0071393093 -0.008564244 0.018109165 0.016900402 -0.0012449706 -0.0042931433 0.00099391 -0.012849783 -0.0036345054 -0.0067997 -0.0055067125 -0.008750066 0.01416177 -0.005779936 -0.0074388934 0.0021194043 0.005215369 -0.0002940178 -0.009336438 0.013972968 -0.017697139 -0.024543954 0.0035662139 -0.0029641336 -0.0019397677 0.015002625 0.0026514835 0.011002519
33 -0.020600067 -0.56334555 -0.37644985 0.4096884 0.27373356 0.19931437 -0.0058075115 -0.0741737 -0.09453757 -0.06032436 -0.014100494 -0.043602385 -0.00025509603 0.015600229 -0.012053529 0.059467252 0.0053708497 -0.027414953 0.0010622041 -0.027162852 0.0036702787 0.031837042 -0.014749029 -0.007957162 -0.032602455 -0.018747859 0.0319546 0.029982824 -0.020778429 0.0205395 0.03397459 -0.013839614 0.0148431705 0.028343452 -0.017508548 -0.0033330808 0.020609787 0.008893062 0.012178197 0.021479815 -0.013812169 -0.014023801 0.0030997384 0.003966384 -0.0016080674 -0.00073781237 0.007896457 -0.014221722 0.010103643 -0.0020890487 -0.037220612 0.007434356 0.0057765995 -0.0016432625 -0.009909484 0.00032518714 0.033084773 -0.00660394 -0.008905018 0.017575784 0.010623739 -0.020987006 0.016119827 0.0017658737 0.0155188795 0.042941734 0.018333476 0.022330794 0.02909927 -0.010989206 0.007221063 0.0010047823 -0.04376629 -0.032125786 0.032895572 -0.0185569 -0.04691251 -0.008880965 -0.007816911 0.005935981 -0.000111278496 0.017770652 -0.018586837 -0.016014166 0.018894378 -0.014203073 -0.011241228 0.0029397216 -0.012110758 0.0020749806 0.028936546 -0.0012050176 0.015991483 -0.009979917 0.0056631267 -0.0042204624 -0.017705467 -0.015584312 -1.7499202e-05 0.02954102 -0.02228198 0.016664054 0.014094606 0.0030612915 0.009382686 -0.013422098 0.008342539 0.014845723 -0.017006561 -0.003943254 0.015032487 -0.023987444 0.0012622548 -0.004976396 -0.01137666 -0.024242025 0.006730928 -0.021731077 -0.0069744578 -0.0028279088 -0.03385776 -0.0047316398 0.02201423 0.006058953 0.011343928 0.008800373 0.0023560808 0.02586669 -0.01669421 0.024707897 0.0225391 0.01674101 0.016138209 -0.0056320224 -0.00752971 -0.026472721 0.017100293 -0.0034844663 0.0068220543 -0.0034668075 0.017645206 0.0017709167 0.004821633 0.0012987423 -0.014691212 -0.0013673921 -0.0012716554 -0.008106908 0.0045408 0.015214936 -0.01450653 0.009572018 -0.013706947 -0.0077603506 -0.00435434 -0.0038128889 -0.004141453 -0.008063358 -0.018237032 0.0056954 0.007392669 -0.004804165 -0.008736165 -0.0055353404 -0.021389566 0.014783913 -0.032448392 0.012165272 -0.0017494789 -0.0037041882 0.0027432675 0.010620611
34 0.09165752 -0.17309643 -0.03612458 0.04414263 0.030721076 0.03541 -0.011020541 -0.036329843 -0.007359755 0.005170102 0.018060593 -0.015135272 -0.0007325907 0.00553872 0.0073080463 0.01755361 9.244231e-05 -0.0018060633 -0.007222524 -0.025659505 -0.009475683 -0.002548802 -0.00485557 -0.01779299 -0.014229573 0.004354817 0.01797003 0.00647989 -0.004629782 0.002331219 -0.016889844 0.00286607 -0.00279367 -0.0048400625 0.022030486 -0.010776558 -0.0018334914 -0.021973673 0.004795382 0.021685379 -0.013696188 0.0016256206 0.0062289266 0.003613243 0.005123591 0.0016700571 -0.014977098 0.0021822471 0.010887955 -0.0059616407 0.0042805187 0.0035768216 0.029094007 -0.004166919 -0.015816092 0.0044141626 0.02796487 -0.013887413 -0.008368603 -0.013661693 -0.0045407936 -0.0011188842 0.006462858 0.004319627 0.008487682 0.0058639436 0.010062829 0.01411515 0.006559079 0.014179358 0.0030473985 -0.0048123337 0.003766817 -0.006334021 0.0025933366 0.00022459205 -0.002340815 0.011883885 -0.013214003 -0.009923162 -0.007777662 0.006867687 -0.02028323 0.001148466 0.028865447 -0.0043744366 0.019681297 0.019934313 -0.009423616 -0.0029622584 0.006183339 0.012115409 -0.0026906687 0.0082029365 -0.012815612 -0.0043103574 0.011870952 0.004452187 0.01263599 0.0053716465 -0.003984254 0.021786306 0.013256431 0.0018752024 0.016744712 0.007814396 0.01037882 0.008080104 -0.005182804 -0.01217384 0.01683711 -0.00080274604 0.006715391 -0.016278049 0.0013008122 -0.014792736 0.011379767 -0.0021281824 0.0057086786 0.006741921 -0.004447139 -0.0069135125 0.020358235 -0.012463985 0.0015545035 -0.014550848 -0.004050266 0.024332393 0.007413696 0.010646132 -0.0012371093 -0.022202836 -0.022433888 0.0050907717 -0.0048599853 -0.0151896365 -0.00093517976 0.006561115 -9.3059476e-05 -0.016914912 -0.0017370912 0.008174331 0.021487752 8.949988e-05 -0.003118922 -0.00019617527 0.00521316 0.00828408 -0.014833727 0.009775719 0.012126332 0.0026270046 -0.004107406 0.008345339 -0.005518897 -0.014567069 0.008259384 -0.005356052 -0.009435436 0.009424804 0.00826364 -0.012540391 -0.0038655954 0.02282651 -0.01219381 -0.016450306 0.0004368681 -0.012982111 -0.0026325874 0.0022150164 0.006157721 0.012954666
35 -0.0017829109 -0.127638 -0.061678704 -0.040723845 -0.044593018 0.06944282 0.012993869 -0.022994064 0.019726261 0.026043527 0.03048536 -0.0019214023 0.0038881362 -0.006923971 -0.014160124 0.0076575545 0.00907544 0.012530211 -0.0018462734 -0.01658807 -0.029927539 -0.012670084 -0.02752844 -0.01781375 -0.007388654 0.0102491835 0.0194608 -0.0005286337 0.010339435 -0.005769799 -0.010645835 0.006072283 0.007861815 0.0039102174 0.022472125 -0.02060772 0.006408766 0.0045578675 -0.0012071925 0.0076235966 -0.0009985382 -0.0108847115 -0.0041173105 0.022691892 -0.0005978842 0.02093788 -0.011320761 0.012439564 0.018686488 0.002489912 0.019376706 -0.0013021863 0.0207422 -0.008223811 -0.030190764 0.0050230846 0.014657325 -0.015338485 -0.011942693 -0.03423024 -0.0012466705 -0.013709704 0.010116845 0.026615875 0.034340475 -0.0073641213 0.0027474435 0.027568426 0.0051785465 0.024816725 0.005957675 -0.008653723 0.0041785017 -0.006095117 -0.018895764 0.022139043 0.010814977 0.018223211 -0.017176552 0.004931359 -0.00065699546 0.015214984 -0.014490869 -0.0076868185 0.021365663 -0.005676658 0.029112289 0.0041614785 -0.007720991 -0.004670866 -0.0307653 -0.0022730653 0.00476606 0.031230815 -0.026648078 -0.008859838 0.025415782 0.00043081795 -0.027131189 -0.0008739454 -0.0008696051 0.013759677 0.0072732586 -0.00045958522 0.008865984 0.028741276 0.0012121394 0.014546362 0.00842503 -0.014047396 0.011267645 0.0032900374 0.0021493202 -0.007616159 0.009602426 0.0041634017 -0.014447382 -0.01405704 0.014287187 0.00478063 0.02483966 -0.0114378445 0.013469764 -0.03153258 0.006767013 0.013741285 0.006983812 0.0022846009 0.024081701 0.017937314 -0.0050432873 -0.018978167 -0.039213404 0.011606005 -0.004202829 0.014811829 0.0072958115 -0.0008372192 -0.0045033055 -0.019612849 0.006303693 0.016247608 0.02565049 -0.013524374 0.008876647 -0.012774269 0.023680855 0.021058729 -0.00016958138 -0.007147773 -0.0021558334 -0.017022634 -0.005035864 -0.011346013 -0.010413726 -0.013697173 0.017647684 -0.010011995 -0.009393214 0.0018957437 0.007018709 0.0019719203 -0.014627628 0.016067619 -0.024157528 -0.033552315 0.0043792804 0.0001027548 -0.002510032 0.020260165 0.0056842403 0.012443319
36 0.23577672 0.33796284 0.1494319 0.030811213 0.062508464 0.009314635 -0.097225584 -0.05350449 -0.041387178 0.0535178 0.03965873 0.015073254 0.018581068 0.011236347 0.015525112 -0.011444613 0.008353289 0.0022170378 0.008756474 0.0032947247 0.010966554 0.0014796196 0.01857764 -0.0057113785 0.012294261 -0.00045167352 -0.004684912 0.00027686846 -0.009084524 -0.003352673 -0.014194678 0.00070571643 -0.011937699 0.002529841 -0.0072398153 0.006908205 -0.0024887824 -0.008442725 0.00916435 0.0012435531 0.0051688794 0.00087295426 -0.001257732 0.006806431 -0.01690179 -0.002115091 0.0072626146 0.0060670995 0.004175781 0.0059595667 -0.00037783728 0.0017582544 0.00619002 -0.0045326278 0.000985433 -0.0069417804 -0.013514885 0.0028031296 0.0048760404 -0.0058778743 0.006107564 0.009145958 0.0043211854 0.0010498004 0.0043450566 -0.002567302 -0.007110133 -0.007402721 -0.006709143 0.0010866795 0.0060366164 -0.0055342093 -0.005303033 0.010141246 -0.007596201 -0.00036703653 0.0003286904 -0.0065237386 0.0020912606 0.00889529 0.007887594 -0.008101386 0.013822613 0.009105835 -0.01055188 0.008329815 -0.0035770177 0.0037022857 0.0036990468 -0.0049782163 -0.0058226082 -0.01010131 -0.00054707675 0.0021288304 -0.0006312454 -0.0033770213 -0.00089957647 0.0073431167 -0.0023731734 -0.003197756 0.009208344 -0.004435419 -0.0013438242 8.292615e-05 -0.00068385893 0.0017850951 -0.0045587807 -0.0056047994 -0.00461204 0.0016420382 0.0008483118 0.012757792 -0.003439126 -0.0021725325 0.007877215 0.004999256 0.0015437218 -0.002363752 0.011522581 -0.0076679382 0.0008268963 -0.0018414799 0.0003316584 0.0038070632 -0.009431381 0.005291263 -0.009736117 -0.0138920965 0.00027383954 -0.010101883 -0.0037088313 0.0046104584 0.005391209 -0.00595283 -0.000114826325 0.004258833 -0.009063237 -0.0017594623 -0.006326754 0.007220983 -0.0062919445 0.002895948 -0.004600231 0.0046907477 -0.004073899 0.002239519 -0.011066852 0.0021725835 -0.0063279048 -0.004753922 0.0020070462 0.006327034 0.00014718549 0.0041279914 0.0021714976 0.009938656 -0.0032601105 -0.0036303822 0.0035499653 -0.00016828021 0.0010991897 -0.0068120835 0.00010980079 -0.0061241887 0.011791764 0.0043798527 0.007705749 -0.0035645599 0.0068682563 0.00062489475 0.006101231 -0.014245014
37 0.20973092 -0.18096083 0.0034031058 0.101829104 0.09396496 0.060108107 -0.074852936 -0.09841633 -0.04900574 0.024000205 0.043072395 -0.016249735 0.0015119154 0.009060178 0.02112183 0.026027644 0.003750558 -0.012192534 -0.012588229 -0.039972097 -0.00540121 -0.002799385 0.005220901 -0.027981514 -0.01922552 0.008140117 0.027030116 0.018729804 -0.014342773 0.0037630186 -0.031213507 0.0055306857 -0.0039537186 -0.009132714 0.033395194 -0.006788527 -0.005690198 -0.041055784 0.012914676 0.029231353 -0.020355001 0.010203645 0.008848851 -0.00025899493 0.0119268065 -0.0036807673 -0.017669627 0.0031614886 0.015362081 -0.00895594 0.008156452 0.0066047367 0.047622405 -0.0041680676 -0.017670661 0.006310236 0.03573597 -0.022804419 -0.011565558 -0.011249263 -0.0078009902 0.0021971283 0.008702715 -0.00028882248 0.0032455076 0.010833736 0.010946266 0.013010745 0.006263128 0.01817575 0.0054353205 -0.006562314 0.003854845 -0.009701564 0.004747518 -0.0063239736 -0.0057632406 0.019192437 -0.019693723 -0.016499912 -0.012039632 0.010138188 -0.03136233 0.0019902517 0.042062566 -0.0030915032 0.026670644 0.035234053 -0.012277567 -0.0047911457 0.015706232 0.022662817 -0.0057419394 0.011699076 -0.014951286 -0.0037459722 0.014473699 0.011704663 0.027495371 0.0046791625 -0.0039347126 0.03351653 0.022463523 0.00012287819 0.029659 0.00427474 0.019231284 0.012233895 -0.012126209 -0.016189769 0.026239386 -0.0050965184 0.012376279 -0.023577172 -0.0014282531 -0.025508301 0.023311535 0.0025097646 0.0058583445 0.0106413895 -0.009765866 -0.008125846 0.029639866 -0.009382931 0.0027244186 -0.028671658 -0.008695878 0.037490714 0.0077524893 0.013939195 -0.002395213 -0.033931278 -0.029658616 0.004094571 -0.00908767 -0.024602205 -0.0036758757 0.013866282 0.003015148 -0.02508666 -0.0067350604 0.011186946 0.034419194 0.0065729544 -0.0068681124 0.0014714429 0.0031177711 0.009625673 -0.02526195 0.0157911 0.019945677 0.009117833 -0.0051049134 0.015788835 -0.010852385 -0.022139667 0.00818285 -0.010261885 -0.011228084 0.015274288 0.013531544 -0.02022906 -0.004192152 0.034886576 -0.014030798 -0.021802578 0.002973861 -0.02064149 -0.0032174513 -0.0010990105 0.013478958 0.015410341
38 0.16549478 -0.1403015 0.04127704 0.01209886 0.024662703 0.02609905 -0.04289778 -0.06802794 -0.016163228 0.020374622 0.03593221 -0.014366096 -0.0025563347 0.0058396137 0.019386418 0.018669793 0.00070748886 -0.004681181 -0.014465485 -0.038291432 -0.011807681 -0.009284562 0.00071972585 -0.026985265 -0.01763267 0.011821824 0.022953605 0.011030166 -0.0080877645 0.001330362 -0.03391622 0.007081722 -0.004158975 -0.0141301295 0.03974368 -0.011186336 -0.0077900086 -0.04057718 0.008138741 0.028449206 -0.020096282 0.010439457 0.009382991 -0.0004838118 0.014070172 -0.0010976471 -0.02362755 0.005233267 0.013391114 -0.009315433 0.014470761 0.0046873875 0.04704467 -0.0036729411 -0.019760102 0.006949594 0.036475062 -0.02236177 -0.012432769 -0.016964084 -0.011158651 0.0025113549 0.0065469434 0.0022021965 0.004336136 0.0040094657 0.009759681 0.013260901 0.004031355 0.021718804 0.0033551475 -0.006260402 0.011927224 -0.006056878 -0.0002171037 -0.0024937964 0.002320901 0.02293858 -0.019797197 -0.019661808 -0.0137634445 0.009316245 -0.031924512 0.0029006752 0.042875998 -0.0035537772 0.031559292 0.03531467 -0.011244629 -0.004934639 0.010131825 0.023633637 -0.0070502693 0.013672299 -0.01836628 -0.0035993543 0.018498832 0.012315365 0.026699271 0.0015593646 -0.0023937533 0.033115167 0.020638553 -0.00020186281 0.02830596 0.007889323 0.017823867 0.010805628 -0.007977065 -0.018117752 0.025312025 -0.0029748315 0.012339502 -0.024876695 -0.0002247188 -0.022776658 0.021653498 0.004688274 0.007047392 0.012825336 -0.0034626895 -0.0067775166 0.027942182 -0.014563964 0.0021002714 -0.031548157 -0.008164714 0.036610812 0.010926735 0.012841285 -0.004760465 -0.03798244 -0.03547309 0.006882966 -0.007641078 -0.021602053 -0.0043678517 0.014479734 0.0020963869 -0.027462643 -0.008099133 0.010862785 0.036489796 0.0035977939 -0.0040011904 0.00012434012 0.0065575126 0.012791407 -0.02621964 0.014261055 0.022951318 0.0061416538 -0.00398586 0.016630016 -0.010133429 -0.023347715 0.010362848 -0.009418527 -0.010855546 0.014724022 0.0134649435 -0.019327965 -0.0028454477 0.03859593 -0.014743654 -0.02651998 0.0074952627 -0.023382869 -0.0037595856 0.00056956266 0.012722929 0.017552473
39 0.1919997 0.46304622 0.15192766 0.029051676 0.055337287 -0.0054650255 -0.08376615 -0.018431082 -0.03482365 0.048768133 0.024382342 0.02369105 0.02340997 0.012220423 0.008702538 -0.023580682 0.009116315 0.006972595 0.01993589 0.023669077 0.017862791 0.00745809 0.020798884 0.0071211373 0.024032628 -0.008364554 -0.01863553 -0.008163556 -0.0058092917 -0.0036530807 0.001891541 -0.003617249 -0.013316878 0.011664678 -0.030295102 0.012850285 0.0015833545 0.013164293 0.005818725 -0.012859198 0.015895074 -0.005019903 -0.005407995 0.008677625 -0.029637039 -0.0006316114 0.019470574 0.0043374435 -0.002342824 0.012567258 -0.011105666 -0.0017413946 -0.018121278 -0.0030024957 0.011047522 -0.013007364 -0.033910066 0.016767511 0.011432312 0.00057302625 0.012326555 0.010500034 0.0023970187 0.0024962174 0.0048449044 -0.0048824423 -0.014143558 -0.016556203 -0.008901963 -0.01033246 0.0055261315 -0.003512953 -0.014054311 0.01730354 -0.008281591 2.1022997e-05 -0.001310188 -0.022126224 0.012985887 0.021242207 0.017278342 -0.014900001 0.034796927 0.010252328 -0.03636902 0.010023766 -0.021341618 -0.014918266 0.01080561 -0.004521936 -0.011679951 -0.026520304 0.0034804465 -0.006235637 0.009350813 -0.0018582668 -0.012693973 0.0020197406 -0.01793424 -0.004175769 0.011661772 -0.02333376 -0.013368472 0.0005043675 -0.017275339 -0.0030900086 -0.01469553 -0.013626464 -0.002302297 0.01060695 -0.012003075 0.017746946 -0.011998523 0.009591809 0.009906204 0.01866436 -0.008853782 -0.0066551114 0.011606147 -0.017473772 0.0028555945 0.0016993439 -0.01459882 0.011787501 -0.013289452 0.022226932 -0.007506382 -0.035625763 -0.0074597728 -0.019426782 -0.0009960098 0.027081817 0.027065435 -0.011474898 0.0053514494 0.015249895 -0.010037975 -0.011670355 -0.009751546 0.024753094 -0.0020460521 -0.0037718895 -0.025789546 0.0026510435 -0.0038098919 0.0015774473 -0.017169792 -0.0046174526 0.005978326 -0.01339058 -0.009287816 0.005202446 0.0028606532 -0.0029248863 0.009784953 0.025736181 -0.010014746 0.0011453874 0.009207855 -0.0076972554 -0.006386354 0.0014823921 0.002416112 -0.028710686 0.02116095 0.020358087 0.0059014284 0.008002131 0.011541369 -0.00011605012 -8.689999e-05 -0.02674372
40 0.015668206 0.02912651 0.03500527 -0.10245329 -0.075291 0.0004619226 0.027250301 0.0105320895 0.0373231 0.01595159 0.014690625 -0.0017068877 0.00054617197 0.00010732841 -0.001933194 -0.0017380662 0.0005512694 0.013847986 -0.0029455414 -0.01218567 -0.018345902 -0.011168215 -0.012451685 -0.011541669 -0.0035055953 0.008715481 0.007243444 -0.007181453 0.0073189028 -0.0039432226 -0.014445109 0.0048702527 -0.0018391854 -0.004249525 0.019646972 -0.015192497 -0.00045653048 -0.006191234 -0.0019693784 0.010547509 -0.0037272102 -0.0041792165 0.0017774559 0.011093754 -0.0017084968 0.010048152 -0.015469274 0.008426089 0.008963738 -9.030936e-05 0.013535317 -0.000115467 0.017153293 -0.006208505 -0.01848052 0.0020553758 0.014311524 -0.008917725 -0.0062210932 -0.02487777 -0.0028758992 -0.0021289417 0.0049055754 0.013253333 0.017896093 -0.007915107 0.0030974587 0.0140111605 0.002142714 0.01774821 0.001206161 -0.0056977286 0.010818603 0.0013647001 -0.011106454 0.01159384 0.00989786 0.013156642 -0.009815752 -0.002645426 -0.0027445306 0.004509777 -0.010251223 0.0009586025 0.016732749 -0.0015825336 0.020690007 0.009520703 -0.0039890413 -0.0028651312 -0.015925828 0.00074994494 0.0009030433 0.015717834 -0.016902797 -0.0064808438 0.017624881 0.002670962 -0.005923368 -0.0013731817 0.0016626213 0.011001824 0.004229926 0.0010666181 0.0074206144 0.019140838 -0.0003665737 0.0040596705 0.0044768895 -0.010879457 0.008960502 0.006060317 0.0012360057 -0.010982925 0.0075533213 6.002141e-05 -0.0031267053 -0.005467198 0.011770306 0.0032405956 0.013413458 -0.0051560136 0.011263271 -0.019900277 0.00013850888 8.8391826e-05 -0.0016639032 0.004714154 0.014156371 0.0067989887 -0.0061544734 -0.015654154 -0.025768477 0.008117196 -0.0018915092 0.0032099523 -0.0003790005 0.0014985674 -0.0045425175 -0.013447215 -0.0007770724 0.010276158 0.017126244 -0.006208939 0.0039807316 -0.0044837403 0.010872023 0.014372448 -0.00743345 -0.00095891603 0.0068129175 -0.0064079184 -0.0022521971 0.00041252514 -0.004333103 -0.0070775407 0.010856378 -0.0052854973 -0.005201289 0.0045430795 0.006079861 -0.005623479 -0.005642233 0.015922762 -0.010809452 -0.020240255 0.0059972196 -0.008475859 -0.00038487563 0.009676979 0.0041443557 0.0078107268
41 0.15926641 0.4110216 0.13442045 0.0017840993 0.03122133 -0.0074554887 -0.062374372 -0.008167536 -0.020148935 0.04492946 0.021989983 0.020398239 0.020611115 0.010681151 0.0052506034 -0.021935787 0.007628157 0.009148466 0.017484847 0.020881431 0.013140184 0.004945638 0.015460081 0.0059322943 0.021407414 -0.0063326717 -0.015816694 -0.009479063 -0.002981466 -0.0041950773 0.0006793389 -0.002438528 -0.012323794 0.0100017795 -0.025231706 0.008475367 0.0017363281 0.011590092 0.0040605757 -0.009775181 0.014887103 -0.006619584 -0.0050764955 0.010858573 -0.027266532 0.0006836314 0.015284333 0.0050458345 -0.0010373368 0.010908972 -0.0073800343 -0.0011875901 -0.015021244 -0.0046415874 0.0072551323 -0.010978041 -0.02814989 0.013948085 0.010332234 -0.0038285796 0.012066896 0.0083888965 0.0025914132 0.0035852522 0.0075949724 -0.005957467 -0.010641871 -0.011418981 -0.0073775025 -0.006901069 0.0044015786 -0.0040545454 -0.009541373 0.015066848 -0.008738841 0.0033574265 0.00052094995 -0.017515238 0.010813183 0.018989516 0.015171694 -0.013136537 0.030323414 0.009465232 -0.029878201 0.009418334 -0.016039459 -0.013176046 0.008654662 -0.003288064 -0.013980592 -0.02398078 0.003575801 -0.0031266161 0.005659148 -0.003472412 -0.0077960175 0.0012888534 -0.017858738 -0.0031439941 0.010210006 -0.01970854 -0.01191853 0.0014450713 -0.015224853 0.0022057518 -0.014471971 -0.011686832 -9.4256335e-05 0.008793597 -0.010411415 0.017638694 -0.010858079 0.007274609 0.01074489 0.01742195 -0.010202076 -0.007096832 0.012062779 -0.014947015 0.0044182516 0.00018943567 -0.011568224 0.0069231074 -0.011887872 0.022179855 -0.0064885975 -0.032437883 -0.0035631242 -0.01657973 -0.0019669298 0.022273688 0.01996188 -0.007995044 0.0042637573 0.015048949 -0.007869086 -0.0098968875 -0.00964939 0.020281212 -0.0016427102 -0.00121164 -0.021866905 0.0014514342 -0.0019970043 0.0014700312 -0.013364277 -0.0014536189 0.0049907435 -0.012214691 -0.008056687 0.0024043182 0.0015731581 -0.0036090233 0.008243297 0.02249731 -0.006786593 0.0013251682 0.00763797 -0.006218621 -0.005090105 0.00044688935 0.00032161374 -0.023588559 0.017814081 0.015311855 0.0046858476 0.0063919495 0.009506653 0.0022773047 -0.00058528705 -0.022222286
42 -0.012280205 -0.017915182 0.019976621 -0.112223886 -0.07936804 -0.015128681 0.043077715 0.02884744 0.044320177 0.007965706 0.0070702545 -0.0050332732 -0.0012662669 0.0025904349 -0.0027967326 0.001622502 -0.0038309668 0.010660177 -0.00420106 -0.009678581 -0.012823693 -0.007922809 -0.009321905 -0.006861533 -0.0037919134 0.0049541304 0.011374511 -0.0055431067 0.006747637 -0.004425082 -0.01801158 0.0051837047 -0.0068171574 -0.0072676223 0.018162876 -0.012435749 -0.0017400566 -0.008140608 -0.0011885536 0.012716132 -0.004377929 4.6866364e-05 0.0038889507 0.008454433 -0.0036016728 0.004988771 -0.014562501 0.005589779 0.010706313 -0.006906553 0.008869077 0.002338818 0.014619947 -0.009632396 -0.013197756 0.0058181514 0.020355556 -0.009918469 -0.0036563037 -0.020594815 -0.0018201701 0.0020930513 0.0016525262 0.007903075 0.010214908 -0.0044130455 0.0093562845 0.015354126 0.006687246 0.016983073 -0.0016948489 -0.0028276069 0.015271582 -0.0010489629 -0.0045714476 0.0125805205 0.0052747647 0.009701892 -0.007822621 -0.0028263621 -0.006126662 0.00037856837 -0.011558508 0.0047614416 0.019941032 0.0019655186 0.019267594 0.009220637 -0.0065271044 0.0019147345 -0.005270344 0.004968739 -0.001568251 0.009322247 -0.012738459 -0.008895215 0.020914711 0.0012664811 0.0027346683 0.0015238642 0.0019502238 0.011466049 0.0066795624 0.003242793 0.010273437 0.020582058 0.00041636248 0.002097173 0.0046223146 -0.009574399 0.008605733 0.0064625237 0.0035867817 -0.00903518 0.00881085 -0.0021724652 -0.0007114199 -0.0034186516 0.00795508 0.0030007237 0.0081523815 -0.006750668 0.012456752 -0.017481303 0.001868055 0.00075305474 -0.0017279871 0.010144163 0.01424835 0.0055826274 -0.008851659 -0.019122493 -0.023020234 0.012463058 -0.001658247 -0.003837944 0.0008826428 0.0012450861 -0.0024547882 -0.010907538 -0.0013203332 0.011390712 0.012811141 -0.0051569305 0.0060057235 0.0021910178 0.01000119 0.0119089205 -0.006644431 0.0058172187 0.00721166 -0.0045445464 -0.002169712 0.0040399074 -0.0035304218 -0.0065967585 0.012322495 0.0012830511 -0.0014049304 0.0044230996 0.0048318277 -0.008504415 -0.004473345 0.016019287 -0.008228788 -0.016376415 -0.0018632581 -0.01189645 -0.0035199022 0.0055890228 -0.0017674356 0.010050058
43 0.29829365 0.39301282 0.20349658 0.013355202 0.067120925 0.0049558003 -0.1237799 -0.07566463 -0.04978851 0.070618875 0.055090148 0.017016446 0.020727966 0.012681245 0.021370383 -0.012671091 0.009420229 0.0010291578 0.0069068773 -0.0016254773 0.011888016 -0.0017210587 0.022885501 -0.010206343 0.013230103 0.003441102 -0.0015296068 0.002255438 -0.011140789 -0.003921367 -0.025296109 0.004957319 -0.015326176 -0.0016850077 -0.00012944959 0.0076330067 -0.0057232105 -0.018876938 0.011795041 0.0037758332 0.0047414494 0.0041943486 -0.0011253878 0.008758618 -0.0146506205 -0.005685793 0.0051578265 0.008689393 0.0071838656 0.0036820443 0.0058358307 0.003625079 0.015525668 -0.0066834195 -0.0006043452 -0.004822138 -0.0111907115 -0.0017131486 0.0055381926 -0.008490837 0.005579738 0.012833396 0.0051425495 -0.0015716864 0.0034012196 -0.00432535 -0.005443026 -0.007973776 -0.0075454228 0.0049788337 0.005892245 -0.008100154 0.0013523385 0.010569139 -0.009002277 -0.00026293914 0.002323967 0.00032629643 -0.00023210916 0.0052347 0.006101077 -0.008369956 0.0098045515 0.011946717 -0.00299589 0.011461753 0.0023992495 0.0115249725 0.0016973421 -0.004569591 -0.0066936673 -0.005300321 -0.0023563236 0.0064011374 -0.0036224914 -0.005070079 0.0039890865 0.011565937 0.003941362 -0.0052161706 0.009936773 0.0013859081 0.0018955301 0.0005063482 0.0051586246 0.0051431255 -0.0020455208 -0.0049367878 -0.005223979 0.00085923576 0.004395808 0.015113287 -0.0014801278 -0.0068271663 0.008886616 0.0018772838 0.0044148853 0.0009909294 0.013820353 -0.0055230563 0.0014859395 -0.0034054169 0.004340548 0.0034417163 -0.009459074 0.0009210247 -0.012278824 -0.010418288 0.0038518698 -0.010022683 -0.0066527673 -0.0033776076 -0.0016824917 -0.0037807957 -0.0031780326 0.0031685696 -0.010445652 0.002782972 -0.006427596 0.0017029275 -0.009333819 0.0064625065 0.0014227215 0.0079170335 -0.0037138949 0.0044167237 -0.011090368 0.005643575 -0.012174097 -0.0029072275 0.0068734987 0.0069697597 -0.00033343627 0.007674979 -0.00056147005 0.007486229 -0.0006911274 -0.0044567436 0.004678718 0.003805181 0.0034066413 -0.012149578 -0.0017334153 0.0014227103 0.012765119 -0.00086445356 0.009473686 -0.008628894 0.005993811 0.0009221911 0.008453106 -0.013085913
44 -0.10699662 -0.19486004 -0.15507306 -0.029856477 -0.061751954 0.10274565 0.046138275 -0.00013828318 0.033234652 0.018065393 0.021737441 0.0009405033 0.0052177366 -0.01285659 -0.031953625 0.005969354 0.012951769 0.019250961 0.0038282713 -0.0067448174 -0.03895146 -0.0119240265 -0.043512978 -0.012386127 -0.0048645744 0.0076519456 0.01837827 -0.0050738566 0.018552989 -0.007702689 0.0060583316 0.0035759697 0.016434068 0.01529154 0.012003023 -0.02511093 0.015419106 0.029679803 -0.006126361 -0.0026018643 0.007584162 -0.022199973 -0.010494141 0.032324478 -0.006787122 0.03226905 -0.0048606084 0.0144186495 0.020099055 0.008624932 0.018479334 -0.004948163 0.0054876837 -0.008805406 -0.035107415 0.0034308187 0.005275271 -0.011174983 -0.01299909 -0.03924698 0.0032372656 -0.023920346 0.012362766 0.0395817 0.04930659 -0.0096872095 -0.0014471646 0.034397952 0.007402515 0.023997879 0.0074567427 -0.008776982 -0.00401741 -0.008303884 -0.025648816 0.03182082 0.011891339 0.014176889 -0.01582275 0.017228104 0.005791004 0.019893106 -0.0065139933 -0.015174964 0.009624131 -0.0087128095 0.02545093 -0.012382771 -0.0055882153 -0.004580043 -0.048152387 -0.015495073 0.011880382 0.03744746 -0.029172538 -0.010620151 0.025584536 -0.0071143657 -0.054206125 -0.0003627031 -0.002036036 0.0040626414 0.00094142335 -0.0013424982 -0.0014081652 0.035294745 -0.0062713698 0.017003614 0.015369136 -0.012181361 0.0044636237 0.002796177 -0.0028402265 0.0016005985 0.012350857 0.016414795 -0.031577133 -0.024339754 0.016043894 0.0006205847 0.03678206 -0.012540588 0.0061539924 -0.038288593 0.010172418 0.035258338 0.0154970465 -0.013179237 0.027289523 0.022192132 -0.0022721274 -0.0068626218 -0.037320368 0.012760185 -0.0022514525 0.030991169 0.014525548 -0.0095014945 -0.006611923 -0.014800414 0.015203347 0.016880017 0.019843135 -0.022288071 0.013861894 -0.020413402 0.031975064 0.023451064 0.014210958 -0.017005958 -0.016208362 -0.02735456 -0.006366717 -0.025636945 -0.009951291 -0.0087926695 0.01913229 -0.010648784 -0.010222862 -0.0052009765 0.004042377 0.014030692 -0.019523434 0.0028675138 -0.030335706 -0.034503873 0.0013906392 0.013457469 -0.0018202625 0.028932158 0.0023339791 0.010624686
