71 70
0 -2.6077032e-05 -0.005096498 -0.017708529 -0.00254363 -0.008481294 0.0049690567 -0.0049139033 0.0064459173 -0.0013478994 -0.014427699 -0.01154325 0.0040764064 -0.012890115 0.0030418634 -0.01365497 -0.006928715 0.008116674 -0.0032327473 -0.0075754337 -0.011164842 -0.005550459 0.009642798 -0.014479585 0.018017724 0.009880327 0.003647889 0.005730992 0.007915733 0.00374108 -0.012658641 -0.009435319 0.005822653 -0.002266571 -0.010916509 -0.008834016 0.010850556 0.0026084054 0.0012624748 -0.009891132 -0.010040946 0.01630953 0.0057674125 -0.0008337202 -0.0033891276 0.0025003096 0.0055366773 -0.0047132894 -0.006276246 0.0014759135 0.00029784068 0.0075109 -0.010624431 -0.011175767 -0.004056259 0.0043611154 -0.008332238 -0.002039869 -0.0022929683 -0.014253374 -0.0036805123 -0.0029380927 -0.008814751 0.00703622 -0.0049710143 0.0006542392 -0.0078980755 -0.0027835034 -0.010358039 -0.007940149 -0.0030533355
1 0.0230063 0.00013346225 0.019534208 -0.011345347 0.03850427 -0.0055011706 -0.0038319677 0.017567705 -0.011727173 0.0072960556 -0.0073166452 0.0076278634 0.058799595 0.0238187 0.015747648 0.0058257985 -0.004924996 -0.0033250973 -0.037250075 -0.012537411 0.0019841902 -0.02229369 0.017793577 -0.002874883 -0.0013961685 0.026690483 -0.00017667376 0.0044151703 -0.006739896 0.013945777 -0.021531232 0.0029312205 -0.0038002431 0.035041377 -0.003705129 -0.026798721 -0.0002974507 0.018637387 -0.0053940355 0.033204697 -0.027537107 -0.02542168 -0.0034271814 0.029517844 -0.004858964 -0.002390584 -0.032750543 -0.00028506294 -0.018616302 0.022650855 0.016414076 0.03682867 0.013519973 -0.0037966329 -0.031735424 -0.0029330272 0.0014587529 0.016888974 -0.0061960733 0.0029765032 0.011089392 -0.008147979 0.00032330537 -0.0225079 -0.022469267 0.0064255726 -0.003279604 0.030472605 -0.025693659 -0.01314436
2 0.024365172 0.003273761 0.02571538 -0.009851532 0.03924945 -0.013768459 -0.0027118474 0.014388042 -0.0165415 0.013884306 -0.004855722 0.0030958876 0.06841096 0.02018817 0.019592237 0.007427044 -0.006628249 0.0012174994 -0.033914223 -0.008585183 0.006489586 -0.02485139 0.025390841 -0.005583655 -0.0035441332 0.021653503 -0.0024616756 0.002215141 -0.008873373 0.019471262 -0.019441336 0.0006787218 -0.0005825963 0.04539024 -0.0025785211 -0.03420701 0.0039117755 0.02039674 -0.0045630224 0.03655723 -0.031234503 -0.033272713 -0.0011010449 0.03145212 -0.0007059332 -0.008000985 -0.03379546 -9.101629e-05 -0.01777936 0.022635125 0.017155793 0.04156576 0.015257373 -0.0012875977 -0.03323115 -0.0014937147 -3.8500875e-05 0.020209104 -0.0026173852 0.010096237 0.009122597 -0.0076416256 -0.002724694 -0.022228492 -0.021734633 0.007828454 0.004525222 0.032923125 -0.025529291 -0.016092
3 0.0063900016 -0.0040636454 -0.0115705505 -0.0048530055 -0.0044300333 0.004590068 -0.004480022 0.0057659196 -0.0018076263 -0.012160618 -0.014434889 0.0029494567 0.0014371872 0.0067730676 -0.006248504 -0.003049438 0.006451618 -0.0073971823 -0.013306163 -0.013450444 -0.0059634093 0.006101541 -0.011000335 0.013424631 0.011238206 0.008434983 0.008027209 0.004398981 0.005907518 -0.009393908 -0.0147497635 0.006180346 -0.004301344 -0.00543306 -0.007152548 0.005559059 0.0043108533 0.005688902 -0.012695899 -0.0014381185 0.007548295 0.0015495978 -0.0038312646 0.0032253452 0.002718784 0.0019526016 -0.009883642 -0.0034538754 -0.0034116097 0.0023955777 0.006018757 -0.0062063113 -0.009651158 -0.0039663864 -0.0028511658 -0.008981854 -0.003155835 0.00395032 -0.014120236 -0.004597701 -0.0009759888 -0.009633426 0.005076992 -0.012895556 -0.0054911543 -0.0074027944 -0.0022351444 -0.0024231784 -0.008356767 -0.00427242
4 0.010627937 -0.0022153351 -0.006816156 -0.0049608573 0.0048391297 0.005714193 -0.0089031905 0.005100526 -0.0059407335 -0.0030095074 -0.00689322 0.0034617186 0.0054123416 0.012719 -0.0053126067 0.0005091075 0.0070093907 -0.00586424 -0.01157872 -0.012481821 -0.0025799721 -0.0014027357 -0.004643418 0.012390427 0.0051237014 0.013003563 0.0029185433 0.0058203805 0.00020842068 -0.006966833 -0.009629417 0.0033520185 -0.001446194 0.0011144131 -0.008540247 0.00069996715 0.00074306317 0.006805599 -0.007508414 -0.0040686596 0.008776066 -0.0021628141 0.000426359 0.0040045306 0.0015095137 0.0055485293 -0.011557537 -0.0026159263 -0.006087025 0.0006107413 0.009629152 0.004743833 -0.008333086 -0.005939475 -0.0022079274 -0.012365077 0.0038040625 0.003414899 -0.011207849 0.0028870292 0.0013060863 -0.00898719 0.0028307922 -0.011988694 -0.006062709 -0.004865594 -0.0031810151 0.0024283528 -0.015024984 -0.004892865
5 0.04553086 0.02326607 0.0071302485 0.019691974 0.04054587 -0.032673102 -0.070305645 -0.028289951 -0.102192625 0.08952072 0.046375442 -0.05236358 -0.019117719 0.0017232602 0.002913963 0.018593188 -0.010405999 0.10453395 0.081420586 0.0011912414 0.021204287 -0.072777 0.07249082 0.027076978 -0.018207107 -0.040877316 -0.043384418 0.004498915 -0.053886987 0.03628799 0.09242479 -0.041029017 0.030235302 0.05818021 0.016780445 -0.051666223 0.02394544 -0.022634115 0.071535684 -0.07273176 0.03077219 -0.03637068 0.046515185 0.0049301134 0.06669781 0.02442756 0.048211977 -0.01952298 -0.018940832 -0.053993806 0.02480605 0.058364898 -0.01259595 -0.02098114 0.05398358 -0.050588634 0.05694591 0.025474537 0.08174349 0.12976176 -0.038658675 0.015012452 0.0011678429 0.015070617 0.031314753 -0.01824662 0.071469106 -0.02209344 -0.042364683 -0.023671886
6 0.012413502 -0.0013316544 -0.0022747964 -0.0050520073 0.00736098 0.00021586567 -0.005155392 0.009480735 -0.008007824 -0.005023405 -0.013259385 0.0021929191 0.017830998 0.010593578 0.00019733608 -0.0010314919 0.0017307717 -0.0027512498 -0.019072752 -0.013683936 -0.0030545015 -0.002302371 -0.001408048 0.009835098 0.0076951757 0.011258725 0.0039585754 0.0039499365 0.0012895763 -0.0017736033 -0.01636081 0.00437236 -0.0038719354 0.0081422925 -0.004750505 -0.005613588 0.0038075037 0.008876768 -0.008940447 0.007219322 -0.0035614297 -0.008182742 -0.0034203362 0.011747748 0.002674385 -0.00049775 -0.014368266 -0.0022347816 -0.008062959 0.007579265 0.009560495 0.0053795055 -0.0027356595 -0.003824065 -0.010683928 -0.006417307 -0.0031844042 0.009661742 -0.010201111 -0.0008233711 0.001720666 -0.008959927 0.0041423813 -0.016142862 -0.01113981 -0.004435312 -0.00059966743 0.0065902323 -0.013538614 -0.00801966
7 -0.036557965 -0.0015993807 -0.043510266 0.00585089 -0.11160803 0.011751319 0.059235275 0.016242199 0.06155564 -0.090988696 -0.08536241 0.012403438 -0.021814067 -0.037432253 -0.031801656 -0.032591887 0.015251075 -0.07862719 -0.057067204 -0.016207494 -0.018177839 0.114548355 -0.09345201 0.020438302 0.042719793 -0.0062584383 0.042063873 -0.015857736 0.06414774 -0.05767721 -0.10221833 0.036014333 -0.02770326 -0.06523194 -0.018726714 0.06299126 0.01033574 0.02187289 -0.08333734 0.015602035 0.0068327948 0.02520306 -0.048551343 -0.01581157 -0.017371599 -0.04853532 -0.01793914 0.018057518 0.033036474 0.022853784 -0.017066075 -0.12387272 -0.030314071 0.025421962 -0.024533248 0.04364243 -0.09333767 -0.005905076 -0.09220288 -0.11251255 0.011646534 -0.032156352 0.0030162316 -0.030268762 -0.027033012 -0.016697578 -0.028232068 -0.014362412 0.048923597 0.005930268
8 0.0026330054 -0.010040096 0.0009405315 -0.013624178 0.013443783 -0.0029221997 0.01112297 0.02127099 0.010189373 -0.0237896 -0.023889873 0.013154812 0.033973224 0.0062154094 0.008654445 -0.0044752257 -0.0051394925 -0.011173798 -0.041137286 -0.012174455 -0.010890965 -6.990507e-05 -0.006267272 -0.0029704198 0.014291755 0.016105961 0.017488707 0.0030335234 0.009105897 0.0050536543 -0.028955966 0.012014413 -0.0132988095 0.004377693 -0.0014069211 -0.0028835684 0.0050238864 0.012292676 -0.017210297 0.038688682 -0.025758453 -0.003443189 -0.016411629 0.021929216 -0.008022878 -0.0047570355 -0.026462574 -0.0065490385 -0.008542523 0.028228771 0.0034838943 0.004799627 0.011030726 0.0018024091 -0.02952034 0.006577721 -0.011767524 0.0078028254 -0.0132534355 -0.022832407 0.005379935 -0.0056577045 0.00891247 -0.016062874 -0.012981959 0.0017998274 -0.006468838 0.012297954 -0.0029545985 -0.0045385715
9 0.015226469 0.0016186156 0.0049385717 -0.0037366257 0.015276056 -0.008934729 -0.007159101 0.0080303 -0.016911192 0.004558707 -0.00801471 -0.0019990685 0.028650364 0.009340669 0.00416502 0.0007763548 -0.0013591452 0.0072818133 -0.015244955 -0.009565551 0.0022022135 -0.01083035 0.0107167885 0.008245665 0.0033524847 0.00741058 -0.0009393658 0.004130898 -0.004345994 0.0059489715 -0.010614909 0.00034865004 0.00022110768 0.022361327 -0.0028994326 -0.016685437 0.0069052204 0.009008533 -0.0038162116 0.009943858 -0.008268516 -0.018322242 0.0010710063 0.01567426 0.006997806 -0.0027623307 -0.014622511 -0.0027251719 -0.009073324 0.008382067 0.013327526 0.016331632 0.0017082647 -0.003438061 -0.012241601 -0.0058913906 -0.0009995823 0.013096452 -0.0029560141 0.010307083 6.853044e-05 -0.007976418 0.0022818665 -0.014122396 -0.010371241 -0.0018095837 0.0073380056 0.0095139 -0.017301755 -0.012066086
10 0.020529255 -0.004836209 0.01429902 -0.012724357 0.020290606 -0.001412468 0.0028501973 0.017065296 -0.0019259006 -0.010707296 -0.022084031 0.006564783 0.054535024 0.018005043 0.020944588 -0.0002027154 -0.0049613556 -0.011922631 -0.040952742 -0.020311486 -0.00759512 -0.008160345 0.0041486844 -0.0050435085 0.014341665 0.019948363 0.010082871 -0.0005325959 0.0053939596 0.010448899 -0.035889708 0.01216241 -0.010341994 0.020752229 0.0012296112 -0.018314444 0.0050172606 0.0181223 -0.017407067 0.043000683 -0.033154853 -0.015167456 -0.012000224 0.028194021 -0.0027598385 -0.011523771 -0.032076918 -0.0023495802 -0.016770916 0.02457567 0.003499508 0.01659108 0.009629972 0.00021324866 -0.03324786 -0.00010839105 -0.011393376 0.023927473 -0.012656391 -0.011753745 0.0061462857 -0.00755715 0.004019768 -0.03167062 -0.0250033 -0.0020912848 -0.004488215 0.024252888 -0.0131424405 -0.012182889
11 0.0074886605 -0.005060273 -0.008423217 -0.0065216627 0.0058976337 0.0061948746 -0.0075114737 0.00722195 -0.0028568674 -0.0072397254 -0.0067271246 0.0065480005 0.003793466 0.012648068 -0.0064348206 -0.0012236834 0.007503867 -0.006310843 -0.0132092405 -0.012268966 -0.0038410388 -0.0008816123 -0.0063917786 0.012330476 0.006007773 0.013546472 0.0043662116 0.008207052 0.00040820614 -0.0073326454 -0.009889925 0.005036655 -0.0017386619 -0.0012170896 -0.009286337 0.0026094615 -6.4373016e-06 0.0059334934 -0.008407063 -0.0015211701 0.009090632 0.00022455305 0.00041524414 0.0031744577 -0.00068516936 0.007115312 -0.013075776 -0.0047903215 -0.005033018 0.0033340193 0.00966692 0.0051582754 -0.006798126 -0.005864255 -0.002538059 -0.011707607 0.0045166714 0.0009863302 -0.012335062 0.00067811087 0.0012227921 -0.008552475 0.0045786253 -0.009859558 -0.004377436 -0.004125444 -0.0051368494 0.0006246194 -0.014730148 -0.004069539
12 0.01994614 -0.003031685 0.0075712483 -0.012064258 0.029166467 0.0041698115 -0.009360842 0.010129046 -0.00707078 0.0038692616 -0.0035392959 0.008901436 0.0366029 0.025618386 0.006002588 0.008026425 0.0034297695 -0.00944237 -0.026209986 -0.013033869 -0.00030863658 -0.017611092 0.008342791 0.0033888412 -0.00015059835 0.029104855 0.002998474 0.007093101 -0.0031494293 0.0021751802 -0.013904192 0.0023865392 -0.0025204709 0.0179585 -0.008478701 -0.01350243 -0.0020249747 0.014304629 -0.006960023 0.015399765 -0.008303221 -0.013246821 -0.0004906086 0.01829486 -0.0049927905 0.0067624343 -0.026261847 0.00053625926 -0.016255124 0.011112414 0.014688073 0.02886656 0.0025843456 -0.008354504 -0.018575806 -0.0128206555 0.010374605 0.008462807 -0.009055618 0.004414588 0.009320815 -0.009762302 0.00070894876 -0.019342726 -0.015995748 0.0032209107 -0.0071962364 0.020534318 -0.024004055 -0.00689382
13 0.0205678 -0.0014319867 0.01115372 -0.009982471 0.035245676 -0.0046624043 -0.012058573 0.009632049 -0.016299604 0.011268041 0.0007106691 0.0036951602 0.03868633 0.020856548 0.009405873 0.0075922254 -0.0016173101 0.005711159 -0.01944011 -0.009619355 0.0018195335 -0.026019333 0.018722095 0.0023304191 -0.0019220617 0.020369241 -0.0009790517 0.0069683627 -0.009236952 0.011131286 -0.0041046813 -0.0014786671 2.738717e-05 0.027304543 -0.0037797317 -0.0215629 0.0020301742 0.010747079 0.0016769432 0.01582251 -0.012448199 -0.01862054 0.0029227186 0.02108701 0.0014893748 0.0063592754 -0.021275196 -0.0035947943 -0.016559111 0.010853453 0.015836472 0.03576482 0.007099295 -0.007771226 -0.016557802 -0.012137817 0.012831647 0.011317866 0.002675917 0.015877515 0.0042850375 -0.005697605 0.0017844369 -0.014172897 -0.011052136 0.0034996972 0.0026487187 0.018110758 -0.024902038 -0.010028079
14 0.010331146 -0.0015311278 -0.0029785112 -0.0063192835 0.0064964592 0.004474189 -0.0031988658 0.008708942 -0.0017263964 -0.005614631 -0.011126351 0.0061605135 0.016448192 0.013230184 -0.0028743893 0.0008328073 0.0053329654 -0.011909563 -0.021457538 -0.011988203 -0.002106445 0.00069989264 -0.0053140074 0.00896832 0.004545711 0.017474776 0.0049780235 0.004257665 0.0027575642 -0.0061639994 -0.017970596 0.0048184637 -0.0038038231 0.004314527 -0.009198284 -0.00094684213 -2.3841858e-07 0.011195611 -0.0119444765 0.005334843 0.0009198785 -0.005590543 -0.003827341 0.0086616315 -0.0027813278 0.0015213676 -0.017811874 0.00022200821 -0.0068060085 0.007177178 0.01027102 0.005102411 -0.0046883747 -0.0038881518 -0.011099637 -0.0068489965 -0.001691334 0.0043302625 -0.015977621 -0.0052642524 0.0057474645 -0.01071436 0.0015913034 -0.015192838 -0.011458453 -0.0017057881 -0.0062700026 0.009219613 -0.013899662 -0.005175762
15 0.02000945 0.00018872693 0.009858608 -0.007564591 0.02100546 -0.004349705 -0.007343132 0.008521328 -0.013292622 0.0056452677 -0.006981358 0.00108096 0.037516393 0.016211651 0.009734128 0.0044747647 -0.00057402067 -0.00031131878 -0.02079988 -0.012690347 0.00068334304 -0.0140934065 0.0110863075 0.0027321763 0.0037285946 0.014965711 0.00104234 0.0030027884 -0.0040863194 0.007975146 -0.013889482 0.0025228057 -0.0012405216 0.023299599 -0.0034174405 -0.017928613 0.0046724374 0.013413471 -0.0056390143 0.017210033 -0.0126464665 -0.01736632 -0.00042012893 0.018785715 0.0036147814 -0.0025191181 -0.021659652 -0.0027259262 -0.013406966 0.010150947 0.011188543 0.022877522 0.002688162 -0.0035261903 -0.01666691 -0.008978542 0.0023804978 0.0152837 -0.0042639 0.00932692 0.002645344 -0.006956186 0.0009535104 -0.019698096 -0.0137097305 -0.0011168051 0.003596373 0.016648343 -0.019332908 -0.0110220425
16 0.0143440915 -0.0015385142 0.002398101 -0.0063887425 0.014482214 -0.0015816123 -0.0067719137 0.008702979 -0.009916458 0.00017135468 -0.008320481 0.002079092 0.023357853 0.012580745 0.0041574626 0.00088212255 0.00090403494 -0.00020829332 -0.017867215 -0.012309459 -0.0019339423 -0.0088318745 0.0045726122 0.00641933 0.005395794 0.011982261 0.002440248 0.003985585 -0.0022026207 0.0032996163 -0.012199897 0.0033290144 -0.0024022749 0.01378949 -0.0040722955 -0.010148741 0.0036868537 0.009327972 -0.00571727 0.010422438 -0.0060352236 -0.010339864 -0.0012188344 0.013347649 0.0029630936 0.00051521405 -0.01643304 -0.004243546 -0.009721257 0.008142026 0.009778613 0.014021277 -0.0001768446 -0.00385713 -0.011444394 -0.008316578 0.0011554662 0.010494241 -0.0058323345 0.005121607 0.0011223991 -0.006907583 0.0029751437 -0.014958731 -0.009510116 -0.0027222005 0.0014669774 0.009369487 -0.016232517 -0.00893945
17 0.020344827 0.0022910475 0.0049322844 -0.002342959 0.0211448 -0.009059044 -0.015889127 0.0063973255 -0.026724631 0.012434009 -0.0025881808 -0.0060799336 0.023261368 0.011483304 0.0052235164 0.0018456252 -0.0027115159 0.018636987 -0.0066302083 -0.011628509 0.0021679085 -0.019559287 0.01704587 0.010595057 0.002673231 0.0037137475 -0.005595766 0.005510443 -0.010736991 0.010033846 -0.00017630123 -0.0027081952 0.0025075644 0.025496662 4.530698e-05 -0.02081168 0.0075786887 0.0051904377 0.005339727 0.002551578 -0.0052419603 -0.018739294 0.005945637 0.015741799 0.013050447 0.0019792002 -0.008695565 -0.0064803422 -0.012099056 0.0027462505 0.014333039 0.02280216 0.0009915195 -0.006399661 -0.0053422265 -0.012315083 0.006815821 0.015891716 0.0068123564 0.02338539 -0.0043991646 -0.00465819 0.004122165 -0.012504706 -0.0066541936 -0.0049035973 0.012502837 0.006138456 -0.022133209 -0.013788082
18 0.021862082 -0.0011628699 0.011149049 -0.009402363 0.025672417 -0.0023582336 -0.008167893 0.010448325 -0.012697358 0.0048604757 -0.0072740987 0.003085876 0.04117551 0.019933045 0.011720141 0.0047570616 -0.00088387914 -0.0016405322 -0.02445885 -0.014624574 -0.00061753765 -0.016856484 0.011793166 0.0018833643 0.004075 0.018900651 0.0015253574 0.0038572801 -0.0042289123 0.008711427 -0.01582753 0.0034578256 -0.002410857 0.024096742 -0.0032185884 -0.019240186 0.0031660786 0.0140106175 -0.005853832 0.020703489 -0.01544787 -0.017307539 -0.0010549426 0.02109297 0.001676457 -0.0010179011 -0.024211429 -0.0027618622 -0.015735518 0.0123822745 0.011540995 0.026304506 0.0043915864 -0.0047334377 -0.019389097 -0.009701118 0.0036520972 0.016363438 -0.004682936 0.007952705 0.004150104 -0.0071992837 0.0016324631 -0.021677354 -0.015991237 -0.00054247444 0.00080356747 0.01917016 -0.021521166 -0.011319701
19 0.013184916 -0.00446132 0.0046077 -0.01098751 0.01968687 0.0031120367 -0.0025151595 0.012537327 -0.00084447116 -0.005344689 -0.009427037 0.010175555 0.03263177 0.01930717 0.0046930164 0.0017267223 0.00341025 -0.01266082 -0.029506175 -0.012845239 -0.0025556032 -0.0077308267 0.0012699664 0.0036521778 0.0038835518 0.023875479 0.005583018 0.0060375803 0.0009295717 0.00016314536 -0.021367587 0.006622024 -0.00446428 0.012893118 -0.008370753 -0.008602738 -0.001241518 0.0137005765 -0.012544371 0.019471433 -0.009402193 -0.009832203 -0.0038617775 0.0153327845 -0.0065993806 0.0016814433 -0.026522089 -0.0011921106 -0.010945886 0.01517795 0.011407029 0.017936364 0.002572205 -0.004403796 -0.019859299 -0.006374065 0.0006402489 0.007424958 -0.015044481 -0.005291052 0.008250771 -0.010296495 0.0017493321 -0.017906303 -0.015184364 0.00200242 -0.00873816 0.016741768 -0.018473484 -0.0073238425
20 0.020981979 0.00028997054 0.012734212 -0.009328058 0.0393363 -0.0024417592 -0.012769274 0.011079516 -0.016267277 0.015266733 0.0042455685 0.0058033126 0.03869518 0.02413544 0.0074445084 0.008367106 -0.0007965388 0.0037590824 -0.021161666 -0.008531895 0.0039432943 -0.027360281 0.019580048 0.002615707 -0.0069783246 0.024594687 -0.0044560684 0.007842935 -0.012134791 0.01031607 -0.003496768 -0.0027458963 0.0009074819 0.029232621 -0.0061622793 -0.021875687 -0.0024729026 0.01185756 0.0038584135 0.012972541 -0.010534085 -0.019831529 0.0042407876 0.020346593 -0.0020418987 0.008794272 -0.02268555 -0.0020385021 -0.016652718 0.010973025 0.018918708 0.039427727 0.007724121 -0.008417245 -0.0169853 -0.011679327 0.014573637 0.008522578 0.0009421073 0.015748706 0.0078518875 -0.0063600885 2.0953827e-05 -0.01234835 -0.012160849 0.006069528 -0.0012000091 0.021596264 -0.028844167 -0.009871712
21 0.028971925 0.0013343133 0.028394453 -0.012296581 0.047876664 -0.010138372 -0.007991055 0.0133004 -0.018384062 0.018009387 -0.00042410567 0.0032614954 0.06945308 0.025798446 0.024909362 0.009724641 -0.0072642993 0.0033115186 -0.031940807 -0.010984397 0.003972104 -0.03371545 0.029777437 -0.008537022 -0.0035035126 0.024751164 -0.0029725954 0.0021397097 -0.011588372 0.023459796 -0.0143845305 0.00027842633 -0.0011680983 0.04620865 -0.00016649254 -0.03681738 0.0022905879 0.018791601 0.000113692135 0.037711225 -0.03317992 -0.0308396 0.00030014105 0.033090238 -0.0003964305 -0.0032790266 -0.03348627 -0.0023928834 -0.022276295 0.020938912 0.015045581 0.04953879 0.016463988 -0.0039125197 -0.032137394 -0.0069516487 0.00726996 0.02242686 0.0035273954 0.015550867 0.00809604 -0.004740186 -0.0022736397 -0.023192147 -0.020858131 0.0072335536 0.0037950352 0.03462842 -0.028832622 -0.015965223
22 0.018745191 -0.0034200354 -0.008977115 -0.009120506 0.015795268 0.014498847 -0.019927219 0.00058429874 -0.008741789 0.0067300126 0.0037907325 0.0058925385 -0.00039690733 0.023880735 -0.009361841 0.014783669 0.010055229 -0.006637037 -0.0039285496 -0.01364936 -0.001401227 -0.013480112 -0.0019669384 0.011252418 0.00021323189 0.024835743 0.0037803464 0.009958614 -0.004381139 -0.009322703 0.007824065 -0.0026519876 0.00093961414 -0.0045942664 -0.011164792 0.003660038 -0.0019348064 0.008110197 0.0014560483 -0.01608099 0.018610425 0.00224258 0.004732608 0.0048973747 0.0016136663 0.019410463 -0.010055665 -0.0010858674 -0.014986359 -0.009954374 0.012618048 0.018825695 -0.011968754 -0.013246402 0.005513005 -0.027464973 0.027496379 -0.002009157 -0.0018359497 0.016939864 0.0030925963 -0.005210638 0.003980553 -0.012883302 -0.0027246848 -0.004144814 -0.0037327325 0.004253909 -0.019280124 0.003861446
23 0.010634108 -0.0011996892 0.0072484463 -0.00775599 0.011538483 -0.0042034816 0.005260378 0.014913634 -0.000626225 -0.008135922 -0.016774826 0.0068830233 0.03857579 0.010498477 0.006842655 -0.0016418009 -0.00086133275 -0.011317195 -0.03354554 -0.011468339 -0.0014029036 -3.0028634e-05 4.5083463e-05 0.0014343113 0.006381491 0.015702192 0.006171353 0.0017815696 0.003193331 0.0032772454 -0.028645016 0.008015308 -0.005745491 0.016784135 -0.005644086 -0.010594131 0.0029938892 0.01624958 -0.015736463 0.02662995 -0.01745833 -0.014479581 -0.0081267385 0.01813375 -0.0041556247 -0.008883895 -0.026844602 -0.0009574904 -0.0077183004 0.019755185 0.00937544 0.009794027 0.0049839597 0.0015770891 -0.024846543 0.0027749129 -0.011626599 0.011422327 -0.016774744 -0.010795918 0.007092459 -0.009793577 0.0013807694 -0.01938447 -0.017190404 0.0012422786 -0.003683229 0.017657124 -0.012173783 -0.009691946
24 0.009338304 -0.0016138749 -0.009108305 -0.0036876174 0.001148954 0.0019143149 -0.0073881447 0.0058155786 -0.0077155977 -0.005399652 -0.011765715 0.0005829595 0.003921151 0.0072612837 -0.0053243563 -0.0009698998 0.0040464643 -0.001254756 -0.0114676785 -0.01225419 -0.003929423 0.00027301908 -0.0051163584 0.0134277865 0.008087274 0.007951299 0.0049545728 0.004099286 0.0020930618 -0.0058716685 -0.00971782 0.0027215946 -0.0032760603 0.00028654933 -0.005776843 0.00095172226 0.004685046 0.005338609 -0.0072571915 -0.0035595372 0.005912848 -0.0025413558 -0.0023344848 0.006031461 0.0050198287 0.0033363495 -0.007917531 -0.0032005594 -0.005509272 0.001259882 0.008605996 -0.00071544945 -0.007893924 -0.0049895127 -0.0027402937 -0.009654049 -0.00024722517 0.005194247 -0.008611351 0.0014696717 -0.0010971408 -0.008538759 0.0047021117 -0.011738667 -0.0052797645 -0.0063934326 0.0011270773 -0.0005931482 -0.011033695 -0.005433988
25 0.007623272 -0.0040479163 -0.0058381874 -0.0057985676 -0.00061669387 0.0021965355 -0.00079909246 0.010438749 -0.0011274014 -0.013340522 -0.016251713 0.005194188 0.013241251 0.00827892 -0.002466254 -0.004107651 0.004414387 -0.008811687 -0.020856183 -0.0146632735 -0.0048362603 0.006179396 -0.009219207 0.010125894 0.011337167 0.009789612 0.00716371 0.0049537793 0.0046852306 -0.0055668596 -0.021421496 0.008682526 -0.004377693 0.0012319796 -0.006853144 0.0006356668 0.0037758695 0.009712858 -0.014772229 0.0092115905 -0.0005135776 -0.0033136131 -0.004792488 0.007718814 0.00045645796 -0.0028040856 -0.016755141 -0.004136683 -0.004387672 0.009229798 0.00699431 -0.0017763404 -0.00474778 -0.0014066098 -0.0097849 -0.004919896 -0.0069006416 0.0071634576 -0.016655874 -0.007101685 0.0010379525 -0.009331461 0.0052319844 -0.016114833 -0.00968926 -0.0059457123 -0.0032236315 0.003184054 -0.0098808715 -0.0064519513
26 0.012780584 -0.0016438905 -0.005787844 -0.0038602892 0.0033945218 0.0022058627 -0.010024581 0.0040937737 -0.010430107 -0.002320284 -0.009483056 -0.0010360051 0.00708507 0.009721285 -0.0012745131 -0.00089726597 0.0043263286 0.000109445304 -0.009154048 -0.014011381 -0.003896825 -0.002861742 -0.0018550344 0.012210585 0.008694988 0.007093452 0.0030054264 0.0036175745 0.00032008812 -0.0031937063 -0.009330306 0.00334429 -0.0020106118 0.0038494319 -0.00449053 -0.0027825385 0.0048104366 0.0052833166 -0.006326355 -0.0021132454 0.004745636 -0.003770223 -8.1095845e-05 0.00613888 0.0068003424 0.0023898934 -0.008652197 -0.004427688 -0.0068776403 3.826106e-05 0.0072477553 0.0031607412 -0.007982958 -0.0052072643 -0.0019125789 -0.012262018 0.0011373227 0.008921016 -0.006808929 0.0060510486 -0.0026627388 -0.0076761097 0.0038573975 -0.013879576 -0.0058151055 -0.007814412 0.0023160502 0.0005276585 -0.013496457 -0.0075052446
27 0.030584995 0.011553805 0.019505259 0.002511846 0.043764535 -0.022246128 -0.029103346 0.0002662032 -0.050737392 0.047229797 0.019784784 -0.01739872 0.030636206 0.01166822 0.012112271 0.0108688 -0.009446869 0.045732923 0.012161043 -0.0028020232 0.013067795 -0.045892466 0.04562296 0.0056981593 -0.012651265 -0.004994057 -0.02142568 0.0039 -0.031885915 0.029921021 0.029951708 -0.016455447 0.012553149 0.05206746 0.0047572553 -0.040951572 0.009645979 0.0030841716 0.030925367 -0.007438861 -0.005893193 -0.033584073 0.01907745 0.01991088 0.024925623 0.0068089236 -0.0013420321 -0.012186146 -0.01694725 -0.006514434 0.021179968 0.052064426 0.006585736 -0.007389002 0.0029082308 -0.019876271 0.02486435 0.01907067 0.03397157 0.060670935 -0.010414176 0.004823407 -0.00085549476 -0.0018116478 0.0039270576 -0.0011122124 0.031941593 0.01098668 -0.03386435 -0.018947944
28 0.01704091 -0.0024866108 0.004635129 -0.007057217 0.013539925 -0.0034158807 -0.004626017 0.011691507 -0.01090309 -0.0059546307 -0.01656208 0.0011944417 0.033480138 0.013029436 0.009358522 -0.0023152148 -0.0015927013 -0.00037801452 -0.024673011 -0.016783305 -0.0041653663 -0.007190626 0.004519623 0.0065138377 0.011197234 0.011417456 0.0043400843 0.0031969082 0.0016522426 0.00450135 -0.023069028 0.0067094993 -0.0049871253 0.017216403 -0.00087037124 -0.014770169 0.0063070413 0.010400372 -0.011114787 0.020572957 -0.015698938 -0.0140946265 -0.004421329 0.018863516 0.0039714463 -0.0054539777 -0.019342456 -0.0028370405 -0.011651909 0.013747495 0.008427121 0.011305582 0.00253997 -0.0033228262 -0.01846958 -0.0046680234 -0.0068317037 0.018352412 -0.008902771 -0.00085396226 0.001221789 -0.009187811 0.0048166 -0.022475477 -0.016830917 -0.0047268476 0.0009054914 0.01152866 -0.015422091 -0.012609927
29 0.027518883 -0.0046148077 0.022504479 -0.017022554 0.054813966 0.0033298135 -0.014267206 0.012170399 -0.011479981 0.015139997 0.008446563 0.012935409 0.05887022 0.038758367 0.017281566 0.011999134 0.001724083 -0.006655894 -0.030524185 -0.01218731 0.00296266 -0.036897458 0.02481483 -0.004235912 -0.007768117 0.039526347 -0.003173709 0.010525083 -0.011946119 0.013095036 -0.010855801 0.001163736 0.0006836597 0.035988674 -0.007786575 -0.02912125 -0.0073968587 0.016383376 -0.0010274462 0.028598946 -0.019070316 -0.022232324 0.0056166705 0.025629655 -0.010013765 0.010772916 -0.0363032 -0.00027441094 -0.023351971 0.017531281 0.01882533 0.056213364 0.012852799 -0.011366688 -0.026658686 -0.01601279 0.020772718 0.012257349 -0.0031845905 0.014102325 0.013640924 -0.0081364745 -0.0020414544 -0.020334996 -0.020228406 0.010166733 -0.01062857 0.03339393 -0.03655424 -0.010865441
30 0.01311533 0.0015002787 -0.0013597831 -0.00198723 0.00052366406 -0.0037943106 -0.004109755 0.007363365 -0.011423795 -0.00349004 -0.015356172 -0.0025063735 0.018200716 0.005878671 0.0008228831 -0.0019573374 0.0007958077 5.705841e-05 -0.015537372 -0.013509694 -0.0013344367 0.001552254 -0.0010194555 0.010381978 0.0092958845 0.004326716 0.002596696 0.0015106471 0.0015374869 -0.00071790814 -0.017357782 0.004124332 -0.0024917535 0.0106405765 -0.0032083923 -0.0073609427 0.0073865545 0.009486277 -0.00960154 0.0060233027 -0.0038980786 -0.011163108 -0.0030423691 0.0111532435 0.0074356813 -0.006339092 -0.012060698 -0.0021341396 -0.006241074 0.0054882616 0.008241592 0.00078202784 -0.004486967 -0.0012693927 -0.009047545 -0.0048422003 -0.0078763515 0.013200149 -0.009587793 0.0017229524 -0.001117901 -0.008634509 0.0032905429 -0.017619908 -0.011034208 -0.0070070736 0.004947474 0.0049747042 -0.010968652 -0.009893341
31 0.02536885 -0.0014186241 0.012911469 -0.011506887 0.022021078 0.0041014478 -0.0048337504 0.010584618 -0.0058769025 -0.00064542145 -0.01430548 0.0052159242 0.048554093 0.024559442 0.015558578 0.0066497065 1.2330711e-05 -0.014777161 -0.033111367 -0.019100029 -0.0034107883 -0.011806525 0.005849324 -0.0012721717 0.007584799 0.02664513 0.006011389 0.0004170793 0.0029819757 0.0045571923 -0.028068788 0.0068964176 -0.006720433 0.01971808 -0.0031385766 -0.01698444 0.0014210748 0.018361028 -0.013938256 0.027477063 -0.021250397 -0.015655775 -0.006934248 0.024064176 -0.0026993025 -0.0047566704 -0.029021157 0.0032817996 -0.01880135 0.014347615 0.007659383 0.021053739 0.0031651985 -0.004652704 -0.026302343 -0.008293793 -0.0015442185 0.020133499 -0.012392681 -0.0037635788 0.009049791 -0.010004992 0.0001578033 -0.03152323 -0.025185982 -0.0011484344 -0.006507309 0.025778081 -0.01856552 -0.009668477
32 0.011538024 -0.0027785748 -0.005281964 -0.0046674404 0.00862346 0.0006458238 -0.01055831 0.0060998467 -0.011324278 -0.00139046 -0.0067246733 0.00056229625 0.007434964 0.010020787 -0.001733985 -0.0009741597 0.0032979967 0.003864361 -0.009208905 -0.0125881005 -0.0033890228 -0.0065738857 0.0007975809 0.01177955 0.0069657164 0.007272402 0.002094945 0.00592012 -0.0025315126 -0.00082683284 -0.0056062303 0.00257324 -0.0012079254 0.0058692098 -0.004507387 -0.0042202026 0.0042038946 0.0043553393 -0.003260795 -0.00092603266 0.004146725 -0.0043571554 0.0013325214 0.007020711 0.0060614506 0.0049107266 -0.009141612 -0.006644398 -0.0071205054 0.0019499711 0.009152912 0.00811125 -0.0050981008 -0.0056482637 -0.0020083156 -0.01217753 0.004331777 0.0070319464 -0.0039857924 0.008637588 -0.0028378228 -0.006242452 0.0051189903 -0.010565923 -0.0035840962 -0.006107661 0.0028479127 0.00016655121 -0.015195178 -0.0073957033
33 0.018236078 -0.001163241 0.008300394 -0.006825447 0.019461758 -0.005406581 -0.0077689653 0.009131185 -0.01436848 0.003701426 -0.0069995886 0.00027325144 0.032992963 0.013759572 0.009760734 0.0015625209 -0.0013590101 0.004195815 -0.017960548 -0.013281745 -0.0006547002 -0.013651034 0.010768175 0.0035856068 0.005887096 0.010059144 0.00053470954 0.003898006 -0.0050939396 0.009333845 -0.012100341 0.003530923 -0.0008853683 0.022036608 -0.001665121 -0.017539825 0.005711617 0.010773638 -0.0040879045 0.016956381 -0.012165517 -0.015511554 0.0005516736 0.017289862 0.005595085 -0.0026524514 -0.019077927 -0.006055326 -0.012001451 0.010158166 0.009750485 0.02109041 0.0031418167 -0.002919253 -0.013951525 -0.008706383 0.0017958581 0.015824348 -0.0020488314 0.010896403 -0.0004974054 -0.0051568314 0.002991897 -0.017603086 -0.010863315 -0.003052774 0.005473867 0.012345541 -0.0183679 -0.011793952
34 0.011821728 -0.0017226897 0.014065925 -0.010212336 0.018586509 -0.0096571855 0.011298973 0.022080299 0.00045362487 -0.011311203 -0.022211697 0.0094988365 0.056801096 0.010573897 0.012930365 -0.0017424766 -0.006295832 -0.011214104 -0.046005994 -0.012066709 -0.0013015233 -0.0021440312 0.0035870746 -0.0039596055 0.007640863 0.01811483 0.008363666 0.0015671179 0.0036040768 0.009715728 -0.036723353 0.010006487 -0.008275248 0.02534628 -0.0033447891 -0.017522328 0.0046901074 0.021039506 -0.018119909 0.043764368 -0.03263322 -0.021347323 -0.012564868 0.028096274 -0.0065798108 -0.014535568 -0.03496191 -0.0010791216 -0.010683576 0.030807821 0.0105885975 0.015382282 0.013657697 0.0043325108 -0.03722623 0.00967939 -0.016830664 0.015965162 -0.017156169 -0.016217 0.00990863 -0.009236388 0.0029437356 -0.023689047 -0.023099195 0.0043202387 -0.0032839626 0.025399577 -0.011517124 -0.0116199795
35 0.015613142 -0.00441322 0.0011079907 -0.01035814 0.010436043 0.0073564574 -0.00133187 0.012899292 0.0011773985 -0.0120295845 -0.018550575 0.0086798975 0.029959947 0.018728772 0.0052084997 0.0008581728 0.0030715205 -0.017498732 -0.032513194 -0.01875002 -0.006546017 -0.00045026466 -0.0063963756 0.004903525 0.010695955 0.023306219 0.009400371 0.0031898958 0.006864466 -0.00399068 -0.029352829 0.009536538 -0.008342869 0.0054775695 -0.0062456853 -0.004315629 0.00038419385 0.014767285 -0.017442614 0.019822598 -0.011277407 -0.006283939 -0.008931839 0.016433217 -0.0050347624 -0.0020372905 -0.024854347 0.0010712522 -0.012341494 0.013949335 0.0071281893 0.0067677516 -0.0010148177 -0.003987304 -0.02066859 -0.005823742 -0.005386481 0.012000497 -0.018875286 -0.012804758 0.007899312 -0.011289695 0.0036312407 -0.02555768 -0.020022137 -0.0030441824 -0.010431908 0.015607063 -0.013695382 -0.006387623
36 -0.012561711 -0.0015951283 -0.017738726 -0.0057541654 -0.01911021 0.008757368 0.02208672 0.017841177 0.027905017 -0.032357194 -0.029353395 0.020064797 0.005896315 0.0010430962 -0.023150653 -0.004512494 0.009891656 -0.041896403 -0.044224508 -0.0040406017 -0.002461804 0.034773804 -0.034812707 0.012086146 0.0035021342 0.026449166 0.01785616 0.0033582663 0.0207941 -0.028037172 -0.041621238 0.010181175 -0.0120611815 -0.01934921 -0.021397835 0.024991095 -0.005387266 0.018151999 -0.033419635 0.007029712 0.006235987 0.0033462457 -0.019994877 0.0023058392 -0.021774491 -0.004102828 -0.024617128 0.011618585 0.00662286 0.01901304 0.0124583095 -0.027443368 -0.0073714666 0.003123503 -0.02241543 0.014295551 -0.02396848 -0.015792748 -0.046066344 -0.04874266 0.02008858 -0.020821068 0.0003954065 -0.010240775 -0.016447056 0.0066422354 -0.024261462 0.00927582 0.0029272847 0.0053558517
37 0.01316319 -0.0001298599 -0.0017532408 -0.0046639005 0.0032786876 0.00047300383 -0.0036806967 0.008052865 -0.0067893155 -0.0054771975 -0.014947951 0.0016538817 0.020124033 0.010517465 -8.931756e-05 -0.00020141341 0.0031429678 -0.007083133 -0.01997352 -0.014004366 -0.0019985233 0.0013498217 -0.003329344 0.009806216 0.008139513 0.011937248 0.004603043 0.0027091743 0.0033212379 -0.0038265437 -0.020037994 0.0050269943 -0.0035888087 0.00803981 -0.0060747573 -0.004983507 0.004395779 0.011248099 -0.012481347 0.007344581 -0.0028617233 -0.009313937 -0.0040582195 0.011222336 0.0026033 -0.003440688 -0.016144775 -6.948877e-05 -0.0074947886 0.0068447813 0.009205591 0.0028099865 -0.0047858246 -0.0028579803 -0.011549959 -0.0061456 -0.005628664 0.010489361 -0.01387411 -0.0025996566 0.0026458886 -0.010600367 0.0025237221 -0.018982474 -0.013251655 -0.0048453044 -0.0008520335 0.008110072 -0.012568171 -0.007989874
38 0.014759522 0.0026340662 0.0033051223 -0.0032313415 0.0076584667 -0.008568421 -0.004408044 0.0061790133 -0.01415799 0.0010140464 -0.013315099 -0.0032267487 0.029584616 0.0074369814 0.0037067868 7.803179e-05 0.00017531589 0.0013134256 -0.017446958 -0.010211952 0.0016245497 -0.0045236573 0.0064372495 0.009417582 0.005830601 0.0075690253 0.0018541142 0.0014005844 0.0008900445 0.002049081 -0.017362224 0.00165019 -0.0013577235 0.019742101 -0.0039248727 -0.0141174495 0.0085622985 0.010621671 -0.0100677945 0.010037199 -0.007870063 -0.018150434 -0.0018702736 0.014874686 0.0070957653 -0.006636452 -0.015343439 0.00045956438 -0.0076070484 0.00794128 0.011790703 0.00860142 -0.0016522817 -0.0024526184 -0.014003232 -0.0043261517 -0.007140317 0.014319152 -0.008679323 0.0042873733 0.0008584936 -0.011309026 0.00062136864 -0.017728098 -0.013290038 -0.0028807158 0.006536212 0.009817589 -0.0143362265 -0.01237509
39 0.018019082 -0.0021723658 0.008627148 -0.009106824 0.022652052 -0.001714401 -0.006246589 0.011000135 -0.009570241 0.001731649 -0.007792229 0.0042729303 0.036003456 0.017580394 0.00976311 0.0024554194 -0.00026579387 -0.0026813932 -0.024308719 -0.013637576 -0.0017130673 -0.013704624 0.0086704455 0.002411184 0.004559526 0.017367229 0.002411211 0.0040070605 -0.0032315273 0.007230155 -0.01611796 0.004472336 -0.0030265264 0.020271484 -0.0037954226 -0.015646681 0.002460138 0.0126233995 -0.0066912137 0.019717507 -0.013432112 -0.014124604 -0.0018035527 0.01841237 0.00033374876 -0.00057426095 -0.023115652 -0.0039133606 -0.013182871 0.012917213 0.010489762 0.02231009 0.003911903 -0.0038646602 -0.0181248 -0.008049523 0.0018843971 0.013650991 -0.0063005686 0.004688211 0.0037555844 -0.0070321225 0.0020681992 -0.018805085 -0.013777083 -0.00048406515 -0.00055804476 0.016493704 -0.019621555 -0.010514956
40 0.013005367 -0.0032189563 0.020656534 -0.0154703995 0.010904547 -0.010011924 0.028351612 0.029429352 0.015763167 -0.028213684 -0.042929977 0.014153605 0.083445854 0.008781781 0.023744218 -0.0007503717 -0.011329582 -0.031242061 -0.07164119 -0.017516457 -0.0066346796 0.010591492 -0.0063954927 -0.015656954 0.018289149 0.025073811 0.022145193 -0.0061664004 0.018068349 0.010634944 -0.064232916 0.018924544 -0.018483315 0.023381986 -0.0004644245 -0.016560864 0.008877872 0.033353273 -0.036018945 0.074063376 -0.05695936 -0.023259092 -0.029308304 0.041386884 -0.0131231705 -0.030782562 -0.05004926 0.0045082276 -0.014347016 0.046212047 0.0025762017 0.004774645 0.0194287 0.011748502 -0.059755385 0.022046752 -0.035179146 0.024955817 -0.029691244 -0.042272765 0.016438799 -0.011223754 0.003290583 -0.04102471 -0.03821913 0.004970303 -0.008433755 0.03884387 0.0011306535 -0.009859076
41 0.022531345 -0.00072238874 0.0038329214 -0.007523677 0.024998568 0.0018719994 -0.01724345 0.004759173 -0.017934225 0.009975426 -0.001230754 0.00037172064 0.024479978 0.02168202 0.004902508 0.006541323 0.0026896242 0.003513109 -0.012266742 -0.013874748 -0.00033691898 -0.02055344 0.01211191 0.009037113 0.001445312 0.018676832 -0.0012752563 0.0061246534 -0.0063149035 0.0032750368 -0.004122071 -0.0011811089 -3.234856e-05 0.018040113 -0.0046006385 -0.0151741505 0.0018028249 0.007834458 7.709861e-05 0.0024413802 -0.0017285496 -0.012873851 0.003994979 0.014689103 0.0049229646 0.00835973 -0.014569359 -0.0017910637 -0.015614066 0.0017943457 0.0137435235 0.025465205 -0.0020646863 -0.010408061 -0.007906981 -0.017694201 0.012687936 0.011933804 -0.00028724223 0.016269036 0.0020203125 -0.0080517335 0.0018519452 -0.016799103 -0.010894037 -0.0023930557 0.0012226254 0.011761509 -0.02462504 -0.009462595
42 0.009980034 -0.0015631048 -0.004576421 -0.0038806407 0.0014313472 -0.0027863272 -0.00360159 0.008352106 -0.008245904 -0.0075074085 -0.015523447 -0.00022248644 0.013985569 0.005081428 -0.00034131482 -0.0026632342 0.00088869175 0.00027706474 -0.015892582 -0.013011845 -0.0038320292 0.00095952675 -0.002953447 0.010285997 0.010704756 0.0049033174 0.005586276 0.0029175463 0.002651113 -0.0012768246 -0.01522497 0.0047905087 -0.0038860089 0.0059809387 -0.003168447 -0.003977135 0.0074351663 0.0074655 -0.009468315 0.00670773 -0.0030092793 -0.006892645 -0.004112334 0.010457954 0.0061029755 -0.0030458248 -0.011378694 -0.004233627 -0.0058584367 0.0066413824 0.0073236357 4.375726e-05 -0.0037968792 -0.0020436132 -0.008373897 -0.005322077 -0.005791188 0.010209762 -0.008564446 -0.00027845055 -0.0018706489 -0.007741196 0.0053370222 -0.014887944 -0.008082479 -0.0065629277 0.003816368 0.0020267144 -0.0093119405 -0.007977065
43 0.011726055 -0.0020946912 9.764731e-05 -0.006216312 0.0056281015 -0.0014679469 -0.0008952012 0.010408682 -0.0046391096 -0.008434396 -0.01681422 0.002550587 0.023941703 0.008640274 0.004028174 -0.001511177 0.0001840787 -0.0055755675 -0.023162995 -0.013950438 -0.004310321 -9.473041e-05 -0.0023488998 0.0060150134 0.010406627 0.01039261 0.0069697415 0.0018247617 0.003951201 0.00035868958 -0.021137407 0.0065801954 -0.0056325356 0.008675203 -0.0032740515 -0.006197937 0.005667548 0.010884764 -0.012358094 0.015360266 -0.009694062 -0.008475933 -0.0065559703 0.0141544975 0.0020945175 -0.0049261395 -0.017390002 -0.0025985185 -0.008045616 0.011227295 0.006594894 0.003632173 -0.0007705577 -0.0012803338 -0.015123405 -0.0034002038 -0.0073869163 0.011967812 -0.011381445 -0.005106915 0.0016294532 -0.008271979 0.0040750764 -0.018648934 -0.012655721 -0.004348415 2.6520342e-05 0.008640845 -0.009954635 -0.008125763
44 0.00089145824 -0.004169451 -0.021176584 -0.0017266753 -0.01742392 0.0032024495 -0.0013094973 0.007254308 -0.0007285476 -0.020955592 -0.023551248 0.00010793656 -0.012778774 -0.0032794792 -0.011816151 -0.006785786 0.0036380384 -0.0029468797 -0.011189781 -0.014136366 -0.00972998 0.0152707845 -0.019415334 0.017528027 0.017422112 -0.00052554207 0.012279905 0.0028553843 0.010743368 -0.013202235 -0.014749978 0.0064520836 -0.00782717 -0.01641602 -0.003910871 0.013637811 0.008703123 0.0017850678 -0.013111699 -0.0066850595 0.009166017 0.007235877 -0.00896455 0.001791276 0.006879691 0.00022733491 -0.0007250346 -0.0043321843 -0.00021240488 0.00086884573 0.0029121563 -0.022875652 -0.0121103525 -0.0024663855 0.00093758106 -0.004634073 -0.009850109 0.0028779283 -0.012892887 -0.011114262 -0.0048477757 -0.008464202 0.009868816 -0.010878235 -0.0024742289 -0.011831673 0.001285255 -0.01208508 0.0011786334 -0.0017973538
45 0.005972648 -0.003261147 -0.012366032 -0.0039514676 -0.0025164112 0.0071045663 -0.0070708226 0.004807001 -0.0024806634 -0.007867184 -0.0086744595 0.0040032417 -0.004679516 0.008713402 -0.009813555 -0.001474712 0.008192688 -0.0069189034 -0.00924965 -0.011898048 -0.00405473 0.004578432 -0.010649029 0.014356889 0.006992211 0.009831365 0.0048418585 0.0061381264 0.002398312 -0.010745533 -0.008877074 0.004265732 -0.002059713 -0.006656818 -0.009204626 0.0072704144 0.0010403767 0.0048833657 -0.008694613 -0.008435346 0.013690013 0.0029964484 -0.000644343 -0.00015992299 0.0014460571 0.0061113285 -0.008162845 -0.0035747162 -0.002858038 -0.0010614581 0.007916959 -0.0032655858 -0.0109096505 -0.0050993953 0.0016780607 -0.0114140455 0.0022185985 -0.00019271113 -0.012931574 -0.0005724579 -0.000109741464 -0.008575059 0.004263812 -0.009115765 -0.00275537 -0.0063794516 -0.0037036352 -0.0031053778 -0.010858716 -0.0025444645
46 0.009677818 -0.0019997633 -0.0020252112 -0.006202049 0.006565228 0.0013908017 -0.001915114 0.009843755 -0.002843112 -0.0074344054 -0.012709565 0.005683226 0.019866712 0.01162423 -0.0017701592 -0.00061400793 0.0039669424 -0.009279769 -0.022267902 -0.01179885 -0.0017613341 0.0007715598 -0.003906019 0.008971429 0.005843563 0.015194979 0.0050315405 0.004978639 0.00298387 -0.0046517923 -0.019636191 0.00541109 -0.003493551 0.006937716 -0.007991612 -0.0034517106 0.0017559081 0.010910456 -0.012789096 0.009122286 -0.0022880696 -0.007983362 -0.0037616137 0.0102896355 -0.0017991457 -0.0007744543 -0.018329708 -0.00021296088 -0.0064304266 0.009659471 0.010589301 0.00533358 -0.0025633387 -0.003191568 -0.01290505 -0.004763622 -0.003937941 0.0061394777 -0.0156140905 -0.0054777786 0.0049164407 -0.01083627 0.0026185308 -0.015587198 -0.0122601455 -0.0016982974 -0.0046324655 0.008703832 -0.013227522 -0.0065349797
47 -0.009807652 -0.00018220092 -0.034333974 0.013463599 -0.03753893 -0.0077631352 -0.012919661 -0.004828102 -0.020780172 -0.01146969 -0.010736931 -0.016740888 -0.057074852 -0.023212533 -0.02471951 -0.020874083 0.00642881 0.030522108 0.029858682 -0.0070505356 -0.005014281 0.019795138 -0.015065328 0.034744713 0.01674842 -0.03745681 -0.0034368958 0.0060380856 -0.0006641606 -0.013505635 0.011438706 0.0005283288 0.004967597 -0.018425439 -0.00027127378 0.015721574 0.015071177 -0.018186236 0.0024659852 -0.04297397 0.037414428 0.010853626 0.008831798 -0.021349117 0.027049486 0.0019386208 0.028723726 -0.01604695 0.01612202 -0.019198086 0.002609875 -0.037454188 -0.023082312 -0.0016396601 0.034849558 -0.008804429 -0.00978738 -0.00063592754 0.0012042457 0.01615514 -0.025204089 -0.003980648 0.011702475 0.011631835 0.021216864 -0.022551153 0.020954058 -0.044003263 0.0013471968 -0.00883282
48 0.016068447 -0.00044003502 0.0065397173 -0.0065629142 0.012878671 -0.006396901 -0.0012247078 0.012259064 -0.009850666 -0.004353933 -0.017203975 0.0010490231 0.03749284 0.010443503 0.009093292 -0.0005012974 -0.0029516593 -0.0016194694 -0.026964776 -0.014118175 -0.0021197665 -0.005757734 0.005058989 0.0042188168 0.00921325 0.011287009 0.004914712 0.0015417513 0.0017337613 0.0057741627 -0.023379164 0.0055446476 -0.005052887 0.019474044 -0.0014701914 -0.015184373 0.0072495723 0.013123252 -0.0113895945 0.02262573 -0.017999288 -0.016673986 -0.006116193 0.020617794 0.0034397673 -0.00798903 -0.020971969 -0.0016864557 -0.011060517 0.015216501 0.009215954 0.011349253 0.0037877783 -0.0011619721 -0.02117632 -0.0017166836 -0.008565161 0.017267695 -0.009034861 -0.0019512922 0.0025893738 -0.008817324 0.0034544198 -0.021890633 -0.016946405 -0.0026768334 0.0027990416 0.01430295 -0.013345592 -0.0117819235
49 0.021111306 -0.00051909406 0.013221897 -0.009244079 0.029822052 -0.0030642338 -0.0064776237 0.013317926 -0.012258394 0.0048862686 -0.008177833 0.00434452 0.045124535 0.020475082 0.0129735805 0.0034766905 -0.003068015 -0.0012712926 -0.028966498 -0.013520511 -0.00048380718 -0.0185025 0.013629012 0.0010702014 0.0020086914 0.021044588 0.00043902174 0.0035582827 -0.0044312887 0.009945262 -0.01843678 0.0029794043 -0.0038676057 0.02697187 -0.0024084244 -0.021496333 0.0011194032 0.013687119 -0.0051720776 0.024131209 -0.020367406 -0.019475542 -0.0026289239 0.023686089 -0.0011667274 -0.00097390264 -0.024888787 -0.00095839193 -0.016143717 0.016282367 0.012935799 0.02767051 0.008110125 -0.0048945816 -0.023850493 -0.0055389567 0.0009431001 0.01639156 -0.005163837 0.0037039593 0.0070002177 -0.0080390945 0.0013232967 -0.02080505 -0.018808395 0.0021329317 -0.0019913912 0.022285968 -0.022453425 -0.012345767
50 0.021985061 -0.0043032877 0.01995043 -0.010466646 0.028802555 -0.011373654 -0.00070302933 0.018729594 -0.013717063 -0.004900843 -0.018292803 0.0016979054 0.060894623 0.015269228 0.026484268 -0.005005529 -0.009888972 0.0056731924 -0.03589909 -0.019098226 -0.0054191053 -0.017515227 0.016699165 -0.0041243313 0.013788857 0.010149568 0.003285434 0.0015345011 -0.0020526908 0.020700585 -0.03083378 0.010597568 -0.0067287367 0.03508228 0.0064027607 -0.030962944 0.008366235 0.013640544 -0.010196082 0.047412615 -0.039730564 -0.023616571 -0.0063267574 0.031435188 0.003669005 -0.013722611 -0.029311024 -0.00775645 -0.016638136 0.027690243 0.005962434 0.025826208 0.016161079 0.0005439385 -0.032980047 0.0017022509 -0.012033045 0.030305322 -0.003257446 -0.00015449524 0.000649821 -0.0051268265 0.005806232 -0.02791258 -0.022699505 -0.0025083858 0.003955368 0.02193823 -0.018200524 -0.019654883
51 0.024015512 0.0022950685 0.021845289 -0.010643933 0.04073656 -0.006912183 -0.0053094635 0.0155293085 -0.013947475 0.013844813 -0.0021002037 0.0069722394 0.060197882 0.02479893 0.014605138 0.008116452 -0.003344467 -0.0030942122 -0.034473598 -0.010026499 0.00559716 -0.024399394 0.021082744 -0.0030381456 -0.005833826 0.027386969 -0.0031597503 0.0046119485 -0.010155661 0.014877889 -0.017570721 0.00079828175 -0.00079994067 0.039389953 -0.006220759 -0.028641589 -0.0010747213 0.020271925 -0.0033545583 0.02961234 -0.023768734 -0.028275626 -0.00020510354 0.027982026 -0.0045341123 -0.0016932916 -0.034090072 -0.00028104894 -0.018020907 0.020343386 0.019006085 0.041926492 0.012435012 -0.00355929 -0.029894572 -0.004972608 0.0048020417 0.0150450915 -0.005584564 0.008944663 0.011547771 -0.008222251 -0.0024319077 -0.020471789 -0.02058775 0.008106135 -0.0014316468 0.032414805 -0.028919166 -0.013603999
52 0.020846687 -0.006731514 0.012136571 -0.018655218 0.042696238 0.011697851 -0.0072366204 0.01510391 0.0023590438 0.0009422302 -0.0016703419 0.019504298 0.049392954 0.03779593 0.008501466 0.01027439 0.0060264952 -0.023359545 -0.040733345 -0.013878403 -0.001374526 -0.022292487 0.007921398 -0.0006799996 -0.0044345222 0.047288902 0.0051872265 0.009989445 -0.0016434416 0.00010649115 -0.022406235 0.0050412323 -0.0052895322 0.019109674 -0.013332177 -0.0139178485 -0.010435469 0.018727558 -0.011948753 0.025988974 -0.013388485 -0.012904778 -0.0027167834 0.022071589 -0.017952366 0.011995764 -0.038640596 0.0043828646 -0.020189237 0.019559769 0.017784398 0.039507397 0.0074215755 -0.011197852 -0.029418202 -0.01238971 0.013661109 0.004718259 -0.017654423 -0.006039977 0.01933307 -0.013534604 -0.0012828894 -0.022270173 -0.023422 0.010442801 -0.021524735 0.03198059 -0.030451842 -0.005351592
53 0.01442875 0.00167487 0.0014739297 -0.0043917214 0.011290528 -0.002770152 -0.005811206 0.008314543 -0.011091165 0.0024182945 -0.009242085 0.0009425059 0.022659324 0.010897873 0.00032511167 0.0029485347 0.00097070634 -0.0011203364 -0.017820403 -0.010671979 0.00086248666 -0.005904842 0.0034914054 0.00800137 0.0029874803 0.012209607 0.0015937956 0.0032537784 -0.0020386372 0.00092732534 -0.01195522 0.0010976475 -0.0017201975 0.014103569 -0.0057398733 -0.009114534 0.0040292144 0.011296345 -0.005701525 0.005938641 -0.0037280824 -0.012844857 -0.0017434508 0.013427639 0.0034529138 -0.00060451915 -0.015487088 -0.0011626389 -0.009063219 0.0063635637 0.012294592 0.01155486 -0.0018153321 -0.0033604372 -0.011186384 -0.00700785 7.7138655e-05 0.008917112 -0.0072364733 0.0049163736 0.0028260779 -0.008170621 0.0018046396 -0.014989969 -0.010507062 -0.0019781366 0.002636429 0.010384321 -0.015366785 -0.007897552
54 0.027607583 -3.9778184e-05 0.022162333 -0.008957302 0.039818347 -0.012442505 -0.010545762 0.014095786 -0.02434019 0.0123965815 -0.005146455 -0.0012525208 0.058227263 0.019972317 0.022849645 0.0033654715 -0.0090553835 0.014350068 -0.025137596 -0.0148472 0.0011042375 -0.030028345 0.027249876 -0.0023910776 0.0036362442 0.012984287 -0.0039473297 0.003907525 -0.011561938 0.023079868 -0.013214771 0.0018646736 -0.0008534584 0.042362094 0.004272741 -0.03593183 0.006655297 0.012916824 0.0018630894 0.033284865 -0.031062853 -0.028547376 0.0016516373 0.030894965 0.007053919 -0.005082573 -0.02512414 -0.0067504644 -0.020110393 0.018719874 0.013013538 0.04049284 0.014761435 -0.0039058556 -0.025468417 -0.0067835106 0.0033659022 0.026562886 0.0069867317 0.018321559 0.0008912198 -0.0032214709 0.0032808771 -0.022642028 -0.01803404 0.00028476492 0.009082288 0.023622476 -0.026180811 -0.018407218
55 0.009637713 -0.0030842684 -0.0077514127 -0.0033912244 0.0057765394 0.0014836602 -0.01067475 0.0063515687 -0.011129435 -0.0028096363 -0.007000573 5.120784e-05 0.0007291436 0.007852307 -0.0032462813 -0.0028238967 0.0028859004 0.0059454255 -0.006760953 -0.012795775 -0.0045704786 -0.004731767 -0.0012798607 0.012785988 0.007914733 0.0040860437 0.0016841106 0.005943263 -0.002746217 -0.0014505014 -0.003907295 0.0028197337 -0.001522528 0.0023575574 -0.003454538 -0.0017178878 0.003924401 0.0021147914 -0.0016660951 -0.0038345344 0.00599296 -0.0014524311 0.0012699626 0.0048986413 0.006825405 0.005566925 -0.0056354925 -0.008018249 -0.0057251565 0.00068736076 0.007777445 0.0043163523 -0.005764149 -0.0053166756 0.0009752102 -0.011566762 0.0036774836 0.00609079 -0.002838049 0.008130699 -0.004374844 -0.0048888074 0.006394959 -0.008420629 -0.0014391439 -0.007570211 0.0030074045 -0.0033470206 -0.013481893 -0.006773444
56 0.003645394 -0.0049489615 -0.010600418 -0.0077945013 -0.0037388653 0.008348148 0.0028889813 0.011085769 0.008530309 -0.018172953 -0.017885257 0.010831131 0.008406177 0.009909209 -0.008525249 -0.0014947299 0.007726837 -0.020787597 -0.026311316 -0.013059441 -0.0056960965 0.0118599795 -0.01753011 0.010187473 0.009277044 0.018498776 0.011747448 0.005113658 0.009410563 -0.013322949 -0.02422993 0.008962129 -0.007008819 -0.008451313 -0.011812053 0.009990342 -7.778965e-05 0.012025785 -0.019293802 0.006209485 0.004383453 0.00224913 -0.008778194 0.0054097325 -0.006726689 0.00097123533 -0.019182518 6.0704537e-05 -0.0034192768 0.009399131 0.007700771 -0.0068307547 -0.007356853 -0.0021992452 -0.011348976 -0.004147607 -0.0061278064 -0.0007609539 -0.02401623 -0.017355576 0.006718807 -0.011943095 0.0041056704 -0.015242262 -0.0106200315 -0.0028107222 -0.0111019015 0.004946213 -0.0071965866 -0.000816023
57 0.020385658 -0.0030390657 0.0093009565 -0.010377118 0.035899796 0.00046676933 -0.013144684 0.012411115 -0.014336769 0.008614896 0.0007211583 0.0067213066 0.03405893 0.024261877 0.007992962 0.0049726255 -7.8448094e-05 0.0032280497 -0.021751719 -0.0128393145 -0.00026619714 -0.024587018 0.0149997715 0.004006156 -0.001296023 0.022796009 -0.002044261 0.008782641 -0.0100548975 0.009011611 -0.0066207573 0.000955347 -0.0008219932 0.023684148 -0.004938013 -0.018765785 -0.0018632117 0.010189062 0.0015084009 0.014587099 -0.010084474 -0.014905088 0.003142625 0.019053465 -0.0013693981 0.008814981 -0.022273127 -0.0051745675 -0.016456198 0.011614399 0.015799053 0.034785435 0.0064086635 -0.008526597 -0.015481267 -0.012941396 0.012970188 0.010257632 -0.0006176345 0.012938313 0.0053081317 -0.005833393 0.0030427407 -0.01432691 -0.011690537 0.0023341707 -0.0026704045 0.017494824 -0.027607748 -0.010109873
58 0.009825454 -0.0028773006 -0.0028314437 -0.006708528 0.00416286 0.003345367 -0.0016212782 0.00935025 -0.0009205249 -0.009255659 -0.013868047 0.0057893964 0.017992424 0.011607907 -0.0008366583 -0.0009752414 0.0045397873 -0.011462313 -0.022304883 -0.013403141 -0.0035846115 0.0024984954 -0.006357665 0.008151611 0.008009577 0.014797876 0.006548498 0.00397916 0.004269771 -0.005094591 -0.020791048 0.006926514 -0.004478978 0.0038718786 -0.0075912485 -0.0013207644 0.0019147058 0.011076082 -0.014007911 0.009653978 -0.001949111 -0.005136412 -0.004835991 0.009371072 -0.0016694439 -0.001267407 -0.018425679 -0.0012519262 -0.006440375 0.00897382 0.0080835745 0.0028860942 -0.003938969 -0.0026378725 -0.012144558 -0.00569578 -0.0044716643 0.0067606987 -0.016303051 -0.006812849 0.0040041236 -0.0101204915 0.0028888797 -0.016884614 -0.011811917 -0.0033056326 -0.005147485 0.007930122 -0.011807131 -0.0059404247
59 0.014633454 -0.0006879708 -0.0004451275 -0.003845485 0.009873658 -0.003004279 -0.01049752 0.0047197957 -0.014820084 0.0029837415 -0.006261278 -0.0026894035 0.014293 0.008921256 0.0026912168 0.00086867064 0.0008641295 0.0068402924 -0.007912364 -0.012083451 -0.0017640311 -0.009085499 0.005488239 0.008674964 0.0067761317 0.004547829 0.00086148456 0.0035891565 -0.0038403831 0.0037116632 -0.0047459826 0.0014506597 -0.00033069216 0.011773169 -0.0019681752 -0.009386025 0.0066271424 0.005785739 -0.0016639214 0.0025118068 -0.00083965063 -0.008656867 0.0016218107 0.010033183 0.009083945 0.0010952614 -0.009280566 -0.0063729105 -0.008611396 0.0017527007 0.00810021 0.011147156 -0.00342175 -0.0041960813 -0.0036144927 -0.011589581 0.0036909971 0.011289541 -0.000111699104 0.012815759 -0.0040404983 -0.004581847 0.0039543286 -0.012682309 -0.0046300218 -0.006348906 0.0074586812 0.0028767288 -0.014470477 -0.008812446
60 0.0073409677 -0.004960907 -0.009588022 -0.00469636 -0.0008145496 0.003109498 -0.005642633 0.008238805 -0.0047232155 -0.01124903 -0.013161886 0.0025955895 0.0021352768 0.0066520832 -0.0035957173 -0.004816467 0.004095112 -0.0015062653 -0.012615178 -0.014990093 -0.006763312 0.0029767416 -0.008277617 0.012181202 0.012313465 0.004960086 0.00605789 0.005441745 0.0022760928 -0.004623957 -0.012627691 0.007048674 -0.0037790649 -0.002524212 -0.004593633 0.0024760999 0.0045948448 0.0046561286 -0.00893636 0.0016804412 0.004374936 0.0011061225 -0.0025048219 0.004682198 0.004461471 0.0016493071 -0.009604603 -0.0077320863 -0.0042479336 0.004098952 0.0053540715 -0.0026009083 -0.0067151412 -0.0031360257 -0.0023137443 -0.008912943 -0.0021358212 0.006364001 -0.009868836 -0.00065515935 -0.0034681335 -0.0063912105 0.00722366 -0.012068456 -0.003878402 -0.008740205 1.3777986e-05 -0.0033283501 -0.009702955 -0.005868325
61 0.0039565004 -0.004196034 -0.020368181 -0.0016849614 -0.012835845 0.007850666 -0.009003237 0.002468397 -0.0040307306 -0.012393326 -0.012853023 -0.00015927851 -0.019349523 0.002740018 -0.012723785 -0.0046057533 0.008161608 -0.0020238757 -0.0020950343 -0.014221917 -0.007981751 0.009425767 -0.016017564 0.018728528 0.013117792 0.0013609817 0.007117331 0.004928219 0.005021088 -0.013471432 -0.0058276094 0.004785478 -0.003442077 -0.015788957 -0.006420927 0.013263218 0.0048759254 3.33786e-06 -0.007979594 -0.016305361 0.019109588 0.0094752535 -0.001714807 -0.004159618 0.0074018845 0.006451831 0.0006133169 -0.006399105 -0.0007132627 -0.0064510033 0.0038478095 -0.014915124 -0.015977934 -0.005276004 0.009322399 -0.013266871 0.00023608282 0.0005674064 -0.010183413 2.2798777e-06 -0.0061404053 -0.0072258282 0.007509348 -0.0079709105 0.0018703435 -0.012435646 0.00041711703 -0.013148408 -0.0057114065 -0.0018123761
62 0.020896029 0.00034873374 0.009188101 -0.0073450883 0.02173429 -0.004325755 -0.0081313625 0.0093488125 -0.014758967 0.005051926 -0.008487426 0.0007660948 0.03791163 0.016767178 0.009368084 0.0043726657 -0.0013436563 0.0010251105 -0.021608658 -0.013516132 0.00043645687 -0.014748998 0.0113773495 0.004090734 0.004147537 0.015578456 0.0009385571 0.003488557 -0.0036732517 0.007371247 -0.014637377 0.0020497516 -0.0018131062 0.023532644 -0.0027530063 -0.018712446 0.0048298957 0.012853337 -0.005394738 0.016863253 -0.013682723 -0.018290728 -0.0008612573 0.02022973 0.003977187 -0.0020594634 -0.020721268 -0.0015636603 -0.01439579 0.010483362 0.012148386 0.022500634 0.0031527318 -0.0046046255 -0.017433263 -0.008628803 0.001968883 0.01624149 -0.0040022098 0.008605719 0.0031435532 -0.007739092 0.0018487563 -0.020713082 -0.015417876 -0.0013290774 0.0032044537 0.016617551 -0.0197425 -0.011344053
63 0.0039752536 -0.0051605767 -0.0067327097 -0.00594154 -0.009291813 0.0008282438 0.0067443 0.01229186 0.0051770695 -0.023189206 -0.025646813 0.0054356763 0.016347438 0.003001593 -0.00013439357 -0.007834712 0.0026709307 -0.0139107965 -0.027163647 -0.01568665 -0.007918543 0.014784243 -0.015227795 0.008131035 0.017243598 0.0069154752 0.012405318 0.0018108767 0.011737087 -0.0067975633 -0.031980187 0.012720536 -0.008301062 -0.0027022492 -0.0047748713 0.0033805985 0.006465979 0.01076147 -0.022341859 0.018015966 -0.0074485913 -0.001774583 -0.011033142 0.00924759 -0.00061923673 -0.009924026 -0.018155407 -0.002908499 -0.0021838844 0.0143090375 0.0023528421 -0.012536719 -0.0037247725 0.002075781 -0.015375558 0.0019295141 -0.017794956 0.0097846575 -0.021948649 -0.019064682 0.0011132658 -0.010481235 0.0061203083 -0.019632313 -0.013041866 -0.007120723 -0.0043416116 0.002790262 -0.0023569241 -0.006531786
64 0.021113753 0.0016038278 0.0075691156 -0.007246956 0.021457147 -0.0010102876 -0.008627251 0.009237092 -0.012914527 0.0077861995 -0.006853752 0.0017578583 0.032757163 0.017450875 0.006784115 0.007075172 -0.00059126876 -0.0019772723 -0.021629803 -0.013174232 0.00025765598 -0.0141347945 0.008784171 0.0033528265 0.0018723737 0.018144287 0.0013056658 0.0022523366 -0.0046684183 0.00607433 -0.011250863 0.000751839 -0.0026314962 0.01956138 -0.0044567017 -0.014343452 0.0027680798 0.014269257 -0.0030758758 0.011796653 -0.009820769 -0.014986187 -0.0020366344 0.01891696 0.0026589008 0.0008770693 -0.020095745 -0.0017176298 -0.014861695 0.0077090077 0.012140586 0.021833569 0.0008948352 -0.0045305067 -0.015338857 -0.01040197 0.005123589 0.0126557145 -0.0035677105 0.008761879 0.0043920316 -0.0063708313 0.0010204157 -0.01926483 -0.01331416 -0.0009993296 0.0021191314 0.017576998 -0.019502712 -0.008476689
65 0.01958822 -0.0013687899 0.0082529485 -0.0076064253 0.019492768 -0.004274916 -0.0065710805 0.011098673 -0.013355825 3.6381185e-05 -0.011571899 0.0015469305 0.037953183 0.015946537 0.010005455 0.0013511349 -0.0015958082 0.0008216575 -0.023515185 -0.015316666 -0.0012589339 -0.012123913 0.009140685 0.004697185 0.007310327 0.013961135 0.0019957274 0.004249691 -0.0020343922 0.0069122985 -0.018770657 0.004593581 -0.0026831347 0.0221266 -0.0018624328 -0.01824963 0.005355266 0.012187021 -0.007928774 0.020353224 -0.015604131 -0.01732698 -0.0017670002 0.020254415 0.0037257988 -0.0039236424 -0.021370258 -0.002603888 -0.013552466 0.012961727 0.010868099 0.019470066 0.0039340854 -0.003929873 -0.018551439 -0.0068658963 -0.0014470369 0.017756224 -0.0061381236 0.0051327124 0.002351868 -0.0080900295 0.0035296679 -0.021951336 -0.016503833 -0.0026726406 0.0020917282 0.01495111 -0.018590055 -0.012250505
66 0.016200934 -0.0037199613 0.008398205 -0.010090895 0.017176732 -0.003668448 0.0008710446 0.01587452 -0.004935071 -0.008634735 -0.01801842 0.0059117805 0.042870164 0.014225241 0.0116446465 -0.00026100874 -0.0029938128 -0.0063579753 -0.033546273 -0.016328491 -0.0042372085 -0.006535098 0.0033678636 0.00071455166 0.010759714 0.016195014 0.007494768 0.0030917262 0.0023632227 0.0069080293 -0.027309097 0.008755135 -0.006698279 0.018418878 -0.0018999148 -0.01476188 0.0053591398 0.0154602695 -0.013668273 0.031057209 -0.022377387 -0.0147902295 -0.007872853 0.023053344 -0.00078672264 -0.007522367 -0.02699028 -0.0032870967 -0.01300131 0.020164166 0.0081523685 0.0150453895 0.006824568 -0.0007485999 -0.025623608 -0.0014806427 -0.0073916274 0.017222617 -0.011254145 -0.006053569 0.0045337006 -0.00781575 0.004879905 -0.024217868 -0.018777125 -0.00162795 -0.0014504837 0.017562881 -0.013806792 -0.010593826
67 0.008676063 -0.004992135 -0.0035363995 -0.005854508 0.002614677 -0.0063413233 0.0011915751 0.014371613 -0.006489031 -0.017533027 -0.02476602 0.0008960236 0.022724595 0.0025336333 0.005295161 -0.007397823 -0.0042077154 0.0029189289 -0.02473737 -0.01600444 -0.008248167 0.0016043261 -0.0033403859 0.008368358 0.01766197 0.0027361596 0.009982374 0.0028711963 0.0066865683 0.0024052188 -0.02427984 0.008751955 -0.008314075 0.007330276 0.0018179957 -0.0072131827 0.01069627 0.0067195995 -0.0133644305 0.021334564 -0.016275227 -0.008140132 -0.009435885 0.017422816 0.0059017185 -0.007748089 -0.013663402 -0.005716309 -0.0072251447 0.016099518 0.004822623 -0.0028515458 0.002704274 -0.00066317804 -0.016999662 0.0011818167 -0.0138518885 0.016008029 -0.008741703 -0.008985437 -0.0026542824 -0.007624302 0.009771923 -0.01875155 -0.012540022 -0.0073288092 0.0036204942 0.0022061095 -0.0055295005 -0.010312509
68 0.0051744785 -0.003657355 -0.01601443 -0.0010968791 -0.015291445 -0.0011813082 -0.0020179357 0.007960346 -0.0063968487 -0.020331673 -0.026919601 -0.0039182007 -0.0029200185 -0.0036790664 -0.004092844 -0.0094803125 4.8613176e-05 0.0028709508 -0.012372805 -0.017073534 -0.010555297 0.012079369 -0.0138602 0.016358417 0.021170143 -0.005000768 0.010809606 0.0010451223 0.010424901 -0.0074050725 -0.019351617 0.0077991 -0.008274029 -0.008260973 0.0009982837 0.005211111 0.012053727 0.0013395064 -0.013400059 0.0013437979 -0.00019265525 0.0017750729 -0.009096153 0.0066658165 0.011120342 -0.00539434 -0.0011555739 -0.0052929167 -0.0022418657 0.0038689524 0.0011814861 -0.020963512 -0.008897144 -0.0016280687 -0.0030323584 -0.0028082542 -0.0149959205 0.012093602 -0.010049257 -0.009056665 -0.0074699763 -0.008244547 0.010512772 -0.0157624 -0.0064653605 -0.0141122 0.0052248575 -0.010392798 0.00017149188 -0.007146023
69 0.040437497 0.0041020885 0.03933519 -0.011095041 0.057611242 -0.014405452 -0.015470838 0.011866659 -0.032110304 0.028695175 0.0039214194 -0.002078943 0.086084865 0.03303908 0.0339865 0.009683188 -0.008324871 0.011627406 -0.02925352 -0.015257288 0.008100404 -0.043805793 0.042943347 -0.008097775 -0.0044351867 0.023247529 -0.011688124 0.0030816256 -0.018429995 0.031144422 -0.016193986 -0.0001382595 0.0038144272 0.064645715 0.0025192555 -0.053307813 0.003484496 0.020343147 0.0029378813 0.04241518 -0.039292023 -0.043295406 0.0076509854 0.037904285 0.0054172277 -0.007786366 -0.037165873 -0.0027789138 -0.026901774 0.020789593 0.018123446 0.06365146 0.018942751 -0.0053149164 -0.034018308 -0.01101463 0.008453321 0.034682788 0.007190611 0.029404651 0.0061546993 -0.0056489427 -0.0042687785 -0.03051949 -0.027076257 0.0051945057 0.008549929 0.040617898 -0.039688706 -0.024875006
70 0.02396271 0.02498158 -0.034743495 0.032541875 -0.0023397878 -0.015771747 -0.080414385 -0.045145914 -0.09720036 0.084400676 0.05895871 -0.05342304 -0.105712324 -0.011083875 -0.046026655 0.019257743 0.009719014 0.103046864 0.124129854 0.010645601 0.026480526 -0.04417271 0.04164084 0.055521753 -0.025253106 -0.05241905 -0.047277596 0.015640607 -0.051654063 -0.0026228875 0.12375207 -0.05017332 0.041201413 0.009712845 0.00097628497 -0.009106837 0.017962579 -0.038756967 0.07734764 -0.14605501 0.09830856 -0.008413166 0.059692364 -0.03563927 0.07005637 0.046296436 0.08214105 -0.014625968 0.00056757405 -0.09113297 0.029855289 0.02055981 -0.043803748 -0.028408267 0.10290109 -0.06438345 0.07373795 -0.009588692 0.07434864 0.13630362 -0.043997675 0.012008066 0.003775822 0.040864103 0.05677883 -0.025987176 0.067546554 -0.061620854 -0.032232687 -0.0043870583
