71 70
0 -0.09506053 -0.0016472704 0.0030806994 0.0038003034 0.0029583094 0.00040290682 0.00063316047 -0.0012710524 -0.0017055385 0.00152266 0.0036600118 -0.00372628 0.0013671657 0.00085897243 0.0024163164 0.0038953996 -0.0038477553 0.0013583318 -0.001434664 -0.0023213783 -0.0012318959 -0.0022922028 -0.00017514206 0.0033560963 -0.0012152289 0.0011645451 -0.00022097582 -0.0015489424 -0.0005984151 -0.0028665196 0.003535782 -0.0006008571 0.0030630843 -0.0017882036 0.002684392 0.0026180067 0.0012750769 0.0007692985 9.106354e-05 -5.0069702e-05 -0.00089140324 -0.0004869384 -0.0012890712 -0.0008659487 0.0016118705 0.0028224704 0.0020892955 -0.0002428434 0.00031028435 0.0016077395 -0.0028547223 0.0008510133 0.003751748 0.0020771392 -0.0010541084 -0.0009726746 -0.002073435 0.00034433653 -0.001188283 0.00028076046 0.0004883214 0.0022275809 -0.00026298955 0.0014455757 0.00026684042 -0.0005689632 0.0020145315 -0.00078544026 -0.0004763667 0.0031662916
1 -0.09514952 -0.0016229668 0.0030948264 0.0037829033 0.0029568835 0.00036701933 0.00063615944 -0.0012892266 -0.0017222259 0.0015609788 0.0036815167 -0.0037230668 0.0013645226 0.00086966535 0.0024176189 0.003917147 -0.0038330727 0.0013843136 -0.0014684646 -0.0022887303 -0.0012305789 -0.0022857375 -0.00019056229 0.0033838993 -0.001190107 0.0011507431 -0.00024355785 -0.001526837 -0.00058984297 -0.0028544941 0.0035441904 -0.0005914242 0.0031040965 -0.0018087247 0.0026942084 0.0026333504 0.0012545679 0.0007711881 8.3884406e-05 -4.7561065e-05 -0.0009091264 -0.00049122726 -0.001299208 -0.0008854333 0.0015857031 0.002847211 0.0020803444 -0.00024921203 0.0003061871 0.0015872951 -0.0028647278 0.00083349895 0.0037534353 0.0020885274 -0.0010535601 -0.00095659 -0.002066033 0.00035637824 -0.0011957001 0.00026457454 0.00048615568 0.0022214372 -0.0002786015 0.0014246146 0.00029217158 -0.0005713625 0.0020384311 -0.00079155975 -0.00048031483 0.0031527954
2 -0.09519471 -0.001609598 0.0031007454 0.0037768034 0.0029557825 0.0003481069 0.000633339 -0.001298227 -0.0017304168 0.001580662 0.0036952628 -0.0037173983 0.0013612107 0.0008759234 0.0024161895 0.0039270124 -0.0038275637 0.0013985342 -0.0014828147 -0.0022717805 -0.0012284174 -0.0022827408 -0.00020183258 0.0033951993 -0.0011782259 0.0011426607 -0.00025617305 -0.001515408 -0.0005852766 -0.00284894 0.0035497798 -0.00058503816 0.0031238412 -0.001816896 0.002697359 0.0026383526 0.0012445238 0.00077395944 8.1099766e-05 -4.3042714e-05 -0.00091558933 -0.000490533 -0.0013010392 -0.0008957658 0.0015677109 0.0028588376 0.002077202 -0.0002516491 0.00030712495 0.0015802504 -0.0028756987 0.0008233595 0.0037543636 0.002090909 -0.0010542433 -0.00094671827 -0.0020641906 0.00036116556 -0.0011999423 0.00025871125 0.000485325 0.0022175624 -0.0002836128 0.0014101827 0.0002995334 -0.0005676408 0.0020489283 -0.0007951397 -0.0004845867 0.0031488554
3 -0.095009826 -0.001658209 0.0030835608 0.003813859 0.002967673 0.00042694484 0.00062841387 -0.0012571668 -0.0016880819 0.0014998185 0.0036528835 -0.0037273061 0.0013728539 0.00085183163 0.0024099052 0.0038871428 -0.0038569397 0.0013462348 -0.001410597 -0.0023469354 -0.00123167 -0.0022907255 -0.0001633537 0.0033440692 -0.001236535 0.0011758802 -0.00020455453 -0.0015784637 -0.00059226045 -0.0028787656 0.0035337238 -0.00061689195 0.0030372653 -0.0017709002 0.0026788367 0.0026068091 0.001286732 0.00077481905 9.5675605e-05 -4.8820388e-05 -0.0008818103 -0.00048266648 -0.0012838631 -0.0008552823 0.0016163402 0.0028114815 0.0020968355 -0.00023962429 0.0003119171 0.0016204508 -0.0028517544 0.000855144 0.003751997 0.002070477 -0.0010492324 -0.0009817015 -0.0020791045 0.00034384 -0.0011805864 0.0002993091 0.00048170387 0.0022283057 -0.000244204 0.001457909 0.00025887846 -0.0005663666 0.0019998243 -0.00078595994 -0.0004754178 0.0031763744
4 -0.09510919 -0.0016362388 0.0030882698 0.0037932056 0.002958319 0.0003845286 0.0006330119 -0.001278869 -0.0017142554 0.0015411384 0.003671709 -0.0037242325 0.0013655914 0.00086427474 0.0024167222 0.0039061278 -0.0038405943 0.0013705218 -0.0014502929 -0.0023055505 -0.0012320044 -0.002288916 -0.00018207706 0.003371262 -0.0012019944 0.0011574675 -0.00023118353 -0.001538852 -0.00059348764 -0.0028596027 0.0035407431 -0.00059597404 0.0030839383 -0.0017979271 0.002690784 0.0026251758 0.001264016 0.0007701108 8.661064e-05 -4.856344e-05 -0.0009003148 -0.00048802717 -0.0012939664 -0.0008756896 0.0015985323 0.0028348516 0.0020844722 -0.00024562262 0.00030741797 0.0015974302 -0.0028602115 0.0008416474 0.0037529788 0.0020828901 -0.0010532286 -0.0009650443 -0.0020702472 0.00035020616 -0.0011920548 0.00027329862 0.00048691162 0.0022244055 -0.00027092992 0.0014343977 0.00027947428 -0.0005702936 0.0020279814 -0.00078788045 -0.00047876147 0.0031590569
5 -0.095675305 -0.0014288623 0.0031774996 0.0036522963 0.0029321064 0.00010458869 0.00064710825 -0.0014325801 -0.0018457868 0.0018412381 0.00385054 -0.0036660675 0.0013343149 0.00095006457 0.0024177493 0.0040648556 -0.003738678 0.001597747 -0.0017035769 -0.002034192 -0.001202483 -0.0022362387 -0.00033835944 0.003541152 -0.0010186686 0.0010508335 -0.00043013837 -0.0013413769 -0.0005416086 -0.002771607 0.0035996672 -0.0005133362 0.0033832053 -0.0019387942 0.0027317954 0.0027218247 0.0011140925 0.00079770706 4.881827e-05 -2.9668365e-06 -0.0010116433 -0.0005140431 -0.001341335 -0.0010233596 0.0013638964 0.0030161 0.0020262194 -0.00029461147 0.00030203353 0.0014621496 -0.0029734331 0.0007104212 0.0037632214 0.00214212 -0.0010643539 -0.0008195148 -0.002021958 0.0004313138 -0.001258586 0.00015191753 0.00048575178 0.002180853 -0.00036930057 0.0012580765 0.00042879698 -0.0005451059 0.0021840888 -0.0008337015 -0.00052536896 0.003082834
6 -0.095067605 -0.0016515987 0.0030809292 0.0038043247 0.0029604605 0.0004052585 0.00063065207 -0.0012677391 -0.0017045282 0.0015191858 0.003658704 -0.003728187 0.0013672585 0.00085839524 0.0024161092 0.0038939924 -0.0038480756 0.0013533916 -0.0014309799 -0.0023258184 -0.0012340357 -0.0022933304 -0.00017070025 0.0033585327 -0.0012155396 0.0011644249 -0.00021686987 -0.0015534649 -0.00059715734 -0.0028667639 0.0035362209 -0.0006016118 0.0030618685 -0.0017879199 0.0026873744 0.002617729 0.001275305 0.00076839916 8.9661386e-05 -5.1475123e-05 -0.0008915508 -0.000485007 -0.0012896964 -0.0008649639 0.0016156087 0.0028210673 0.002089053 -0.00024166443 0.00030889403 0.0016078469 -0.0028531975 0.00085078244 0.0037522805 0.0020782498 -0.0010529371 -0.0009758845 -0.0020740847 0.00034393405 -0.0011870001 0.00028242957 0.00048706363 0.002227013 -0.00026340547 0.0014470039 0.00026752133 -0.00057160365 0.0020163467 -0.000784704 -0.00047526576 0.0031649177
7 -0.09430216 -0.0017917359 0.0029777978 0.0038293144 0.002952755 0.0005985713 0.00066313485 -0.0012020435 -0.001641723 0.0013116375 0.00351054 -0.003747917 0.0013850807 0.00078979693 0.0024376274 0.003771439 -0.0038910143 0.001238474 -0.0012772672 -0.0024625438 -0.0012503524 -0.0023251115 -7.315606e-05 0.003191455 -0.001333267 0.0012473738 -0.00013478885 -0.0016110906 -0.00068919896 -0.0029193512 0.0034337062 -0.0006487079 0.0028347175 -0.0016970426 0.0026107016 0.0025498734 0.0013843908 0.0007317633 0.00013955423 -8.513663e-05 -0.0008022762 -0.00047978817 -0.001218227 -0.00075203506 0.0018028587 0.0026826346 0.0021307273 -0.00021578037 0.00031376336 0.0016839869 -0.0027523711 0.0009768733 0.00374354 0.0020384837 -0.0010658723 -0.0010525159 -0.0020919652 0.00027252172 -0.0011584924 0.00030279104 0.00052455504 0.0022780774 -0.00021605018 0.0016087737 0.00015373275 -0.000585504 0.0018880902 -0.0007166568 -0.00043827493 0.0032233414
8 -0.09500578 -0.0016869209 0.003066087 0.0038413664 0.0029674685 0.00045719685 0.00061848934 -0.0012371575 -0.0016740201 0.0014663149 0.0036301317 -0.0037355188 0.0013706171 0.00084526313 0.0024095317 0.0038644846 -0.0038726153 0.0013087178 -0.00137908 -0.0023821753 -0.0012355063 -0.0023045042 -0.00014754769 0.0033270372 -0.0012535999 0.0011805603 -0.00017774788 -0.0015978629 -0.0005998209 -0.0028867999 0.003533483 -0.00061495864 0.003006938 -0.0017604525 0.0026799869 0.0025970293 0.0013044487 0.0007689072 9.663678e-05 -5.602036e-05 -0.0008686838 -0.00047550382 -0.0012800192 -0.00084051373 0.0016490608 0.00278695 0.002103014 -0.00023111148 0.0003168903 0.0016397183 -0.0028437849 0.00086857635 0.003749227 0.0020627007 -0.001050646 -0.0010023286 -0.0020864871 0.0003293769 -0.0011730148 0.00031464556 0.00048301026 0.002230201 -0.0002382199 0.0014696795 0.00023319066 -0.00056886807 0.001985278 -0.0007834891 -0.00046993486 0.0031836084
9 -0.09522828 -0.0015985373 0.0031066122 0.00376836 0.0029549128 0.00033206717 0.0006349624 -0.0013060477 -0.0017383136 0.001597027 0.0037053025 -0.003715582 0.0013600658 0.00088077085 0.002416736 0.003936777 -0.0038212177 0.0014111487 -0.0014975867 -0.0022564991 -0.0012278901 -0.0022796805 -0.00020907242 0.0034064201 -0.0011671546 0.0011371643 -0.00026629155 -0.0015045266 -0.00058204547 -0.0028434573 0.0035527863 -0.0005810893 0.0031416072 -0.0018253993 0.0027010073 0.0026444995 0.0012355613 0.00077487784 7.805299e-05 -4.107945e-05 -0.00092273013 -0.0004924838 -0.0013049365 -0.00090371375 0.0015561171 0.0028698456 0.0020730651 -0.00025463445 0.000305158 0.0015712678 -0.0028801516 0.0008161198 0.003755562 0.002095604 -0.0010544922 -0.00093940034 -0.0020610369 0.00036630742 -0.0012036483 0.00025130864 0.00048521732 0.0022158003 -0.00029010174 0.0014014944 0.00030979703 -0.00056784577 0.0020590997 -0.0007970461 -0.00048671674 0.0031431885
10 -0.0951541 -0.0016470872 0.0030914075 0.0038099384 0.0029660205 0.00039257173 0.00062277244 -0.0012672287 -0.0017080128 0.0015319472 0.003669459 -0.0037318128 0.0013659791 0.00086393335 0.0024134328 0.0039027515 -0.0038445794 0.0013528535 -0.0014382135 -0.0023233704 -0.001237268 -0.0022929353 -0.00016998194 0.003380483 -0.0012052403 0.0011554383 -0.00021532908 -0.0015583244 -0.0005846051 -0.0028631256 0.003547151 -0.0005997824 0.003081393 -0.0017972902 0.0027014297 0.0026243252 0.0012652247 0.000770126 8.2494604e-05 -5.2174168e-05 -0.0009007933 -0.00048184546 -0.00129884 -0.0008740364 0.001606284 0.0028308162 0.0020844413 -0.00024150668 0.00030578044 0.0016000718 -0.0028589687 0.0008378012 0.0037538176 0.002084985 -0.0010490713 -0.0009758587 -0.0020729024 0.00035059513 -0.0011865034 0.0002844309 0.00048023477 0.0022199305 -0.0002695669 0.0014350336 0.0002815514 -0.00057726476 0.0020325056 -0.00079051143 -0.0004756099 0.003155178
11 -0.09508256 -0.0016500425 0.0030834863 0.0038048828 0.0029610207 0.00040236337 0.00062996027 -0.0012675083 -0.0017053538 0.0015216451 0.0036613217 -0.0037283178 0.0013673293 0.000859192 0.0024157932 0.00389607 -0.0038478638 0.0013544743 -0.0014327321 -0.0023244547 -0.0012343209 -0.0022925697 -0.00017146503 0.0033619876 -0.0012137069 0.0011636757 -0.00021673203 -0.0015538768 -0.0005951081 -0.0028654886 0.003538569 -0.0006014691 0.0030653265 -0.0017886908 0.0026897478 0.0026186383 0.0012732156 0.0007688789 8.834572e-05 -5.104308e-05 -0.00089319877 -0.00048522247 -0.0012915812 -0.00086653436 0.0016127904 0.0028233775 0.0020881367 -0.00024198566 0.00030782897 0.0016065536 -0.0028541707 0.0008487883 0.003752639 0.002078944 -0.0010520993 -0.0009751356 -0.0020739797 0.00034523613 -0.0011873109 0.00028296493 0.00048597524 0.002226378 -0.00026407206 0.0014444236 0.00026989964 -0.000571908 0.0020189665 -0.00078557496 -0.00047596233 0.0031637067
12 -0.09523202 -0.0016158252 0.0031045347 0.0037891492 0.0029620659 0.00035119947 0.0006239259 -0.00128974 -0.0017276524 0.0015754158 0.0036976861 -0.0037206374 0.0013611933 0.00087646995 0.0024130193 0.003926115 -0.0038303318 0.001388379 -0.0014743076 -0.0022824889 -0.0012323033 -0.0022843776 -0.00019457866 0.0034032057 -0.0011790827 0.0011407107 -0.00024537495 -0.0015288321 -0.00057735475 -0.0028500308 0.003555553 -0.00058788655 0.0031242245 -0.001815444 0.0027059186 0.002636861 0.0012434509 0.000775052 7.730908e-05 -4.3573382e-05 -0.00091584184 -0.00048477782 -0.0013036598 -0.0008952255 0.0015690991 0.0028575505 0.0020764458 -0.00024867422 0.00030554962 0.0015817222 -0.0028776096 0.0008187272 0.0037557215 0.0020919566 -0.001050853 -0.00095313124 -0.0020668728 0.00036202953 -0.0011969691 0.00026743644 0.00048059685 0.0022145645 -0.00028199234 0.0014083968 0.00030082787 -0.0005706972 0.0020541572 -0.0007965224 -0.00048395508 0.0031457893
13 -0.0952265 -0.0015996983 0.003105816 0.0037702376 0.0029551615 0.000334607 0.00063411845 -0.0013047253 -0.0017364945 0.0015948025 0.0037040783 -0.0037161058 0.0013601044 0.00088047655 0.0024160112 0.0039354633 -0.003822581 0.0014090207 -0.0014952342 -0.0022593718 -0.0012277118 -0.002280533 -0.00020835354 0.0034047323 -0.0011693041 0.0011376432 -0.0002644268 -0.0015068395 -0.00058183883 -0.0028450515 0.0035529274 -0.00058171083 0.0031391515 -0.0018242829 0.0027003204 0.0026435424 0.0012373398 0.0007752466 7.8541234e-05 -4.108206e-05 -0.0009215429 -0.0004919344 -0.0013046318 -0.00090263726 0.0015574172 0.0028683327 0.0020738998 -0.0002541831 0.00030615818 0.001573256 -0.0028802995 0.0008166855 0.0037553816 0.002094676 -0.0010546471 -0.00094074407 -0.002061671 0.0003657625 -0.0012027258 0.00025332702 0.00048497005 0.0022157338 -0.00028847443 0.0014022354 0.00030778197 -0.0005673558 0.0020571747 -0.0007976329 -0.00048641948 0.0031442184
14 -0.095094815 -0.0016397432 0.0030864528 0.0037937802 0.0029587888 0.00038852365 0.0006335939 -0.0012771093 -0.0017130651 0.0015365209 0.0036685793 -0.0037252917 0.0013661279 0.0008629514 0.0024172629 0.0039038982 -0.0038409524 0.0013677827 -0.0014470643 -0.0023086746 -0.0012330024 -0.0022897236 -0.00017896714 0.003368856 -0.001204077 0.0011591805 -0.00022900268 -0.0015405193 -0.00059508183 -0.002860665 0.0035383133 -0.0005971975 0.003079717 -0.001796462 0.0026898868 0.0026241536 0.0012661068 0.0007690494 8.710609e-05 -4.9627874e-05 -0.00089894276 -0.00048766122 -0.0012928041 -0.0008732497 0.0016033254 0.0028323338 0.0020850298 -0.0002450826 0.00030685298 0.0015983623 -0.0028574113 0.0008440996 0.0037531725 0.0020829034 -0.0010532851 -0.0009672147 -0.0020704982 0.00034897958 -0.0011912881 0.0002734227 0.0004874931 0.002225603 -0.00027038812 0.0014383877 0.00027801938 -0.00057147193 0.0020261633 -0.00078615866 -0.00047764508 0.0031595414
15 -0.09503123 -0.0016614809 0.003084611 0.0038201732 0.002970662 0.00042822666 0.00062312203 -0.0012535739 -0.0016867714 0.0014978169 0.0036538623 -0.0037286629 0.0013723087 0.00085244654 0.0024082146 0.0038864594 -0.0038580752 0.0013407709 -0.001406485 -0.0023523811 -0.0012334981 -0.002292183 -0.00016005566 0.0033482646 -0.0012366821 0.0011740429 -0.00019971139 -0.0015845287 -0.00058843795 -0.0028793153 0.0035366092 -0.0006172813 0.0030380276 -0.0017710045 0.0026830772 0.0026063775 0.0012862716 0.00077520916 9.371337e-05 -4.9430604e-05 -0.0008821792 -0.00047929474 -0.0012847643 -0.00085554156 0.0016171626 0.002810608 0.0020966218 -0.00023808017 0.0003116656 0.0016212405 -0.0028533265 0.00085250335 0.0037524297 0.0020712183 -0.0010477143 -0.0009848286 -0.0020803264 0.00034407675 -0.0011790406 0.00030322038 0.00047932807 0.0022263133 -0.00024399362 0.0014564106 0.00025919572 -0.00056788913 0.0020028153 -0.0007869384 -0.00047504023 0.0031745275
16 -0.095090866 -0.0016483176 0.0030846354 0.003804367 0.0029611427 0.00039978948 0.00062910473 -0.0012686696 -0.0017061435 0.0015243846 0.0036634677 -0.0037273306 0.0013668379 0.0008600048 0.0024153648 0.0038974653 -0.0038470975 0.0013563946 -0.0014344556 -0.0023223406 -0.0012340478 -0.002292193 -0.00017286449 0.0033637655 -0.0012122702 0.0011625807 -0.00021855059 -0.0015530136 -0.0005942853 -0.002864979 0.0035395059 -0.00060061686 0.0030680373 -0.001789553 0.0026901779 0.002619296 0.0012720035 0.0007693726 8.7838715e-05 -5.0374812e-05 -0.00089424633 -0.00048474106 -0.0012917281 -0.00086809706 0.0016099726 0.0028252094 0.0020879735 -0.00024227674 0.00030802755 0.0016059955 -0.0028559992 0.0008471576 0.0037528677 0.0020791823 -0.0010519769 -0.00097379106 -0.002073927 0.00034599865 -0.0011876536 0.00028244185 0.00048546898 0.0022256407 -0.00026433353 0.0014421617 0.00027087008 -0.0005713369 0.002020372 -0.00078628224 -0.0004766371 0.0031634208
17 -0.09519622 -0.0015966375 0.003104726 0.0037603301 0.00295235 0.00033259956 0.000641243 -0.0013099874 -0.001739522 0.0015972204 0.0037031316 -0.0037148173 0.0013609073 0.00087948097 0.0024190438 0.003936888 -0.0038190596 0.0014165483 -0.0015009511 -0.0022514043 -0.0012269261 -0.002278576 -0.00021033309 0.0034011027 -0.0011679501 0.0011398894 -0.00027181327 -0.001498834 -0.0005874172 -0.002844267 0.0035471544 -0.0005817256 0.0031391925 -0.0018247911 0.0026952776 0.002645083 0.0012374293 0.000773695 8.0508646e-05 -4.113628e-05 -0.0009223099 -0.00049537583 -0.0013030418 -0.00090250786 0.0015579317 0.0028703986 0.0020739525 -0.00025618184 0.00030511682 0.0015708024 -0.0028767942 0.0008202646 0.0037557601 0.0020953154 -0.0010562233 -0.00093697634 -0.0020596415 0.00036582025 -0.0012045583 0.00024614335 0.00048776058 0.0022185026 -0.0002899324 0.0014058936 0.00030953583 -0.00056754233 0.002054856 -0.0007948599 -0.0004860875 0.0031454002
18 -0.09513906 -0.0016479398 0.0030905015 0.0038102332 0.0029662761 0.00039479602 0.00062191597 -0.0012660931 -0.0017071243 0.0015285335 0.0036700207 -0.0037291672 0.001366101 0.0008630896 0.002412696 0.003901548 -0.003845844 0.0013540908 -0.0014348058 -0.0023241378 -0.0012368475 -0.002292419 -0.00017031608 0.0033760415 -0.0012078866 0.0011577567 -0.0002151768 -0.0015591263 -0.00058587454 -0.0028640057 0.003545404 -0.0006009418 0.0030772605 -0.0017932215 0.002698594 0.002621537 0.0012671237 0.0007708588 8.339521e-05 -5.025427e-05 -0.0008982481 -0.00048048887 -0.0012954813 -0.0008719621 0.001605507 0.0028295524 0.00208576 -0.00024123226 0.00030643234 0.0016028759 -0.002860008 0.0008393737 0.003754453 0.0020826817 -0.0010493466 -0.00097547186 -0.002074412 0.0003494373 -0.0011866966 0.00028579132 0.0004810449 0.0022217662 -0.00026615645 0.0014364509 0.0002772311 -0.00057414133 0.0020294061 -0.0007889397 -0.000476872 0.003158112
19 -0.09515398 -0.0016363402 0.003094143 0.0037981265 0.0029624717 0.0003803877 0.0006282782 -0.0012760964 -0.0017142066 0.0015444311 0.0036762457 -0.0037266861 0.0013655591 0.0008663868 0.002414921 0.0039099404 -0.0038396288 0.0013682691 -0.001451166 -0.002307368 -0.0012345079 -0.00228908 -0.00017943219 0.0033821329 -0.0011984983 0.0011544875 -0.00022771863 -0.0015446475 -0.00058667536 -0.0028584613 0.0035461278 -0.0005961818 0.003091621 -0.0018009847 0.002698465 0.002627765 0.0012601543 0.0007707958 8.22782e-05 -4.9310936e-05 -0.0009046678 -0.00048570088 -0.0012985157 -0.00087890925 0.00159577 0.002839147 0.0020826117 -0.0002452229 0.000304904 0.0015946286 -0.0028617794 0.0008357293 0.0037543215 0.0020863598 -0.0010504554 -0.00096670387 -0.0020703792 0.00035339623 -0.0011909431 0.00027593976 0.0004826542 0.0022215813 -0.000272676 0.0014298494 0.00028589796 -0.0005736445 0.002035602 -0.0007903705 -0.0004788102 0.0031546587
20 -0.09519044 -0.0016126008 0.0031009666 0.0037783135 0.0029566442 0.00035245577 0.0006350307 -0.0012952035 -0.0017281935 0.001576061 0.0036919983 -0.003720731 0.0013630365 0.0008744725 0.0024166792 0.0039258315 -0.0038288406 0.001394569 -0.0014803307 -0.002276596 -0.0012295455 -0.0022831345 -0.00019802149 0.0033946454 -0.0011807991 0.0011449971 -0.00025137322 -0.0015194709 -0.0005849263 -0.0028499565 0.0035494608 -0.00058769673 0.0031203418 -0.0018156114 0.0026983721 0.0026380469 0.001246371 0.0007732385 8.086824e-05 -4.489562e-05 -0.0009151847 -0.0004919174 -0.0013029536 -0.00089321326 0.0015727349 0.0028570103 0.0020770298 -0.0002514538 0.0003054461 0.0015807452 -0.0028713767 0.0008253534 0.0037542628 0.0020916134 -0.0010532908 -0.00095010636 -0.002064114 0.0003611995 -0.0011985538 0.00026075423 0.0004849187 0.0022186246 -0.00028296473 0.0014141676 0.00030025103 -0.0005701748 0.0020477027 -0.0007948523 -0.00048305548 0.0031482836
21 -0.09520887 -0.0016183872 0.0031019964 0.0037861518 0.0029591804 0.00035436702 0.00062951056 -0.0012889851 -0.0017271558 0.0015709591 0.0036925091 -0.003721653 0.0013624139 0.0008739572 0.0024157644 0.0039239256 -0.0038309817 0.0013881761 -0.0014740645 -0.0022820118 -0.0012323644 -0.0022845753 -0.00019345936 0.0033974487 -0.0011809334 0.0011452452 -0.00024503257 -0.0015259268 -0.0005832213 -0.0028494322 0.003551898 -0.0005878152 0.0031186773 -0.0018131486 0.002703075 0.0026363507 0.0012463589 0.0007724483 7.829685e-05 -4.495447e-05 -0.0009145827 -0.00048826012 -0.001303455 -0.0008918758 0.0015754906 0.0028556362 0.0020768899 -0.0002494375 0.0003037239 0.001582746 -0.0028714975 0.00082476204 0.003755576 0.0020911882 -0.0010518064 -0.00095377176 -0.0020664262 0.00035983318 -0.0011973863 0.00026474925 0.00048321535 0.0022183533 -0.00028217293 0.00141348 0.00029845096 -0.00057143864 0.0020499907 -0.00079368555 -0.00048320892 0.0031479893
22 -0.095066085 -0.0017119977 0.0030712371 0.003877629 0.0029898544 0.00047781388 0.00058999023 -0.0012119091 -0.0016627847 0.0014414456 0.0036307573 -0.0037450236 0.0013718794 0.0008445593 0.0023997414 0.0038562838 -0.0038799192 0.0012728727 -0.0013450718 -0.0024240504 -0.0012479412 -0.0023103408 -0.000119530174 0.0033451125 -0.0012627307 0.0011754886 -0.00014243698 -0.0016423895 -0.0005760445 -0.0028939354 0.0035436025 -0.0006283974 0.0029984557 -0.0017540897 0.00270138 0.0025895871 0.0013052906 0.00077217247 8.861141e-05 -6.0701906e-05 -0.00086553383 -0.000455266 -0.0012806979 -0.00083454774 0.0016605267 0.0027745753 0.0021025662 -0.00022052761 0.0003136662 0.0016445942 -0.0028466429 0.00085732865 0.003751772 0.0020670423 -0.0010395817 -0.0010255392 -0.00209409 0.0003306365 -0.0011622279 0.00034160542 0.00046947814 0.0022214332 -0.00023214103 0.0014743671 0.00023514159 -0.0005797376 0.0019975083 -0.00078468304 -0.00046514353 0.0031730968
23 -0.095068276 -0.001646948 0.0030830004 0.0037985342 0.0029594917 0.00039938727 0.0006331707 -0.0012717688 -0.0017079265 0.0015251018 0.003662245 -0.003726579 0.0013672162 0.0008595192 0.0024170952 0.003897738 -0.0038450297 0.0013602783 -0.0014372463 -0.0023183178 -0.0012335856 -0.0022914 -0.00017382573 0.00336088 -0.0012117925 0.0011637144 -0.00022253039 -0.0015479622 -0.0005976599 -0.0028647387 0.00353553 -0.00060067413 0.0030674064 -0.0017899913 0.0026868437 0.0026199138 0.001272383 0.0007684263 8.9307985e-05 -5.053494e-05 -0.0008941218 -0.00048651386 -0.001290123 -0.0008675661 0.0016110718 0.0028255119 0.0020879619 -0.00024326483 0.0003077953 0.0016045064 -0.002853905 0.0008495087 0.003752908 0.0020796084 -0.0010532027 -0.0009719139 -0.0020726759 0.00034568724 -0.0011887786 0.00027819537 0.00048758954 0.002227417 -0.00026541392 0.0014450293 0.0002712788 -0.0005713024 0.0020187155 -0.0007843874 -0.00047622286 0.0031638297
24 -0.09511629 -0.0016480067 0.00308675 0.0038074602 0.0029629976 0.00039778487 0.00062620104 -0.0012677418 -0.0017057582 0.0015265951 0.0036654763 -0.0037282764 0.0013663765 0.0008614914 0.0024140968 0.0038990676 -0.0038470104 0.0013549287 -0.0014348165 -0.0023236352 -0.0012346306 -0.0022927185 -0.0001725019 0.00336871 -0.0012107277 0.0011602981 -0.00021708322 -0.0015554207 -0.0005907426 -0.0028646723 0.003542586 -0.00059988874 0.003071988 -0.0017917504 0.0026936678 0.0026205282 0.0012703158 0.0007700494 8.5891705e-05 -5.066674e-05 -0.0008960106 -0.00048332734 -0.0012936301 -0.0008699898 0.0016082942 0.0028268048 0.0020872636 -0.00024192811 0.000307916 0.0016049674 -0.0028578048 0.00084377854 0.0037531077 0.0020806615 -0.001051002 -0.0009745635 -0.0020740633 0.0003473318 -0.0011871898 0.00028396805 0.00048347822 0.0022237503 -0.0002651714 0.0014391579 0.00027308275 -0.0005722662 0.0020238538 -0.00078821427 -0.00047678303 0.0031614932
25 -0.09506985 -0.0016625236 0.0030804311 0.0038166966 0.002965212 0.00041690393 0.00062425906 -0.0012573798 -0.0016976513 0.0015055814 0.0036541908 -0.0037311236 0.0013681962 0.00085550704 0.0024139443 0.0038878354 -0.0038534573 0.001340026 -0.0014166408 -0.0023415568 -0.001237061 -0.002295987 -0.0001614157 0.0033567692 -0.0012230087 0.0011674401 -0.0002041768 -0.0015688568 -0.0005944862 -0.0028707022 0.0035376295 -0.0006060496 0.0030510856 -0.0017812636 0.002690385 0.0026131894 0.0012802274 0.0007682696 8.887976e-05 -5.3085114e-05 -0.0008878371 -0.00048030933 -0.0012888628 -0.0008597643 0.0016236061 0.0028141784 0.0020913836 -0.00023819381 0.00030835834 0.0016142626 -0.002850949 0.00085266476 0.0037527855 0.002076202 -0.0010502919 -0.0009840814 -0.0020776936 0.00034148197 -0.0011828531 0.00029201678 0.00048378413 0.002226725 -0.0002581653 0.0014515157 0.00026249702 -0.0005735584 0.0020132964 -0.00078403257 -0.0004738007 0.0031668108
26 -0.09510913 -0.0016432329 0.003087669 0.0038014215 0.0029609853 0.0003926216 0.0006289265 -0.0012721269 -0.0017093074 0.0015319483 0.003668549 -0.003725957 0.0013660982 0.00086215284 0.0024152347 0.0039017026 -0.0038445992 0.0013619404 -0.001440577 -0.0023157387 -0.0012335514 -0.0022907376 -0.00017639679 0.003368809 -0.0012076121 0.0011598861 -0.00022330182 -0.0015491056 -0.00059249945 -0.002862906 0.0035414242 -0.0005988414 0.0030758416 -0.0017928444 0.0026917208 0.0026217767 0.001268072 0.00077018817 8.6599735e-05 -4.9126094e-05 -0.00089729985 -0.00048499482 -0.0012931889 -0.0008719985 0.0016036795 0.0028301966 0.0020865938 -0.00024335012 0.0003077314 0.0016027635 -0.0028590553 0.0008434532 0.0037533743 0.0020806645 -0.0010519343 -0.00097027654 -0.0020729608 0.0003482391 -0.0011891436 0.00027985245 0.000484884 0.0022243033 -0.00026646073 0.0014373998 0.0002749935 -0.0005709002 0.002024578 -0.00078759645 -0.0004778707 0.0031616073
27 -0.095238686 -0.0015886924 0.0031119082 0.0037601327 0.0029526684 0.00032182375 0.0006387336 -0.0013121098 -0.0017424568 0.0016074566 0.0037131484 -0.003711354 0.0013603092 0.00088251085 0.0024172994 0.003943741 -0.0038184037 0.0014243397 -0.0015079535 -0.0022436362 -0.0012254793 -0.0022755878 -0.0002169144 0.0034084748 -0.0011626605 0.0011375097 -0.00027573705 -0.0014969605 -0.0005824336 -0.0028406775 0.0035538073 -0.00057983515 0.0031498827 -0.0018260382 0.002698973 0.00264694 0.0012316792 0.0007765321 7.7728415e-05 -3.751501e-05 -0.000926199 -0.00049543026 -0.0013059883 -0.0009080434 0.0015445931 0.0028783993 0.002072314 -0.00025755988 0.0003044557 0.0015687404 -0.0028835412 0.0008137973 0.0037565778 0.0020952849 -0.0010548809 -0.00093157205 -0.0020600474 0.0003693574 -0.0012066467 0.0002469946 0.0004854797 0.0022168276 -0.0002899995 0.0013957698 0.000313535 -0.00056411966 0.0020605384 -0.000798132 -0.00048999983 0.0031445208
28 -0.09504509 -0.0016663551 0.0030767538 0.003815163 0.0029655348 0.00042207024 0.0006254084 -0.0012573478 -0.0016963448 0.0015008987 0.0036496827 -0.0037320496 0.0013684169 0.0008540976 0.0024144887 0.003884862 -0.0038526969 0.0013375334 -0.0014134309 -0.0023447326 -0.0012380513 -0.0022974543 -0.0001578196 0.0033530062 -0.001225707 0.001168603 -0.00020379658 -0.0015692698 -0.0005972924 -0.0028730351 0.0035327796 -0.0006072026 0.0030460767 -0.0017808622 0.0026875024 0.002612436 0.0012833996 0.0007668514 9.040974e-05 -5.4922406e-05 -0.00088621397 -0.0004794156 -0.001286159 -0.000857186 0.0016299633 0.0028107201 0.0020926239 -0.00023768944 0.0003088117 0.001615207 -0.0028477176 0.0008557097 0.0037528023 0.0020766286 -0.0010509703 -0.0009862144 -0.0020772486 0.0003401292 -0.0011817459 0.00029047026 0.00048482913 0.0022275755 -0.0002579951 0.0014571814 0.00026079977 -0.00057527504 0.0020104714 -0.00078200374 -0.00047185982 0.0031672195
29 -0.09517673 -0.0016231035 0.0030971412 0.00378836 0.0029590605 0.00036640777 0.0006320926 -0.0012869585 -0.0017207827 0.0015623237 0.003683145 -0.003724921 0.0013644131 0.0008709592 0.0024155052 0.0039179237 -0.003834395 0.0013801374 -0.0014672811 -0.0022930487 -0.0012310593 -0.0022863974 -0.00018966863 0.0033894498 -0.0011895461 0.001147945 -0.0002391663 -0.001531892 -0.0005841569 -0.00285437 0.003549374 -0.0005917096 0.0031073042 -0.0018106028 0.0026990965 0.0026338284 0.0012527416 0.0007726223 8.2136656e-05 -4.8182075e-05 -0.0009103895 -0.0004900163 -0.0013022487 -0.0008870768 0.0015837332 0.0028473183 0.0020793146 -0.00024847087 0.0003062487 0.0015867226 -0.0028670675 0.0008292971 0.0037527815 0.0020896061 -0.0010518117 -0.00095864554 -0.0020662642 0.00035806932 -0.0011944388 0.00026899183 0.0004835094 0.0022183484 -0.0002791045 0.0014209959 0.00029464235 -0.0005726582 0.002042292 -0.0007946952 -0.00048022298 0.0031498556
30 -0.09510208 -0.0016403671 0.003087714 0.0037961486 0.002959632 0.0003893652 0.00063205784 -0.0012756955 -0.00171203 0.0015356478 0.003669344 -0.0037255182 0.0013661234 0.0008626524 0.0024167043 0.0039036092 -0.0038420162 0.0013664755 -0.0014453996 -0.0023102248 -0.0012331727 -0.0022896912 -0.0001781711 0.0033692834 -0.0012050509 0.0011594513 -0.00022783334 -0.0015438554 -0.00059426035 -0.0028617533 0.003539458 -0.000598054 0.0030788241 -0.0017949824 0.0026904193 0.002623576 0.0012666073 0.0007695845 8.701922e-05 -4.9089354e-05 -0.00089867593 -0.00048667143 -0.0012932535 -0.0008732448 0.0016025805 0.0028324388 0.0020857803 -0.00024447823 0.0003072446 0.0016000262 -0.002858274 0.00084370404 0.0037535387 0.0020818925 -0.001052837 -0.00096783775 -0.0020714917 0.00034893895 -0.0011905044 0.00027553787 0.00048618036 0.0022249126 -0.00026861703 0.0014376837 0.00027747004 -0.00057132874 0.0020254315 -0.0007868098 -0.0004777371 0.0031608029
31 -0.09511967 -0.0016586182 0.0030850703 0.0038195273 0.0029675788 0.00040919334 0.0006208794 -0.0012579137 -0.0017000282 0.001514308 0.0036590644 -0.003734684 0.0013675684 0.00085959485 0.0024124137 0.0038930604 -0.0038515104 0.0013392332 -0.001422503 -0.0023401678 -0.0012380958 -0.0022961015 -0.00016214495 0.003369618 -0.0012163076 0.0011609202 -0.00020269505 -0.0015692075 -0.00058654847 -0.0028680023 0.0035444498 -0.000604257 0.0030636163 -0.0017894972 0.0026989302 0.0026175673 0.0012737962 0.0007695147 8.496079e-05 -5.3978092e-05 -0.0008927651 -0.00048009618 -0.0012953611 -0.00086492865 0.0016192443 0.0028189083 0.0020873882 -0.00023842405 0.00030723854 0.0016079238 -0.0028539363 0.00084461464 0.0037526523 0.0020811243 -0.0010489565 -0.0009846799 -0.0020759474 0.00034562836 -0.0011831116 0.00029266212 0.00048117017 0.0022223408 -0.00026350192 0.0014448293 0.00027117835 -0.0005770244 0.0020234727 -0.0007882416 -0.0004734041 0.0031594217
32 -0.095067106 -0.0016551781 0.0030809934 0.0038087857 0.0029618372 0.00040943237 0.0006284409 -0.0012637409 -0.0017015737 0.0015140196 0.0036574553 -0.0037284964 0.0013676574 0.0008571219 0.002415058 0.0038918008 -0.0038505967 0.0013493735 -0.0014254821 -0.0023311905 -0.0012347322 -0.0022940228 -0.00016812344 0.0033568237 -0.0012188617 0.0011663379 -0.00021247184 -0.0015590641 -0.0005965469 -0.0028682088 0.0035369003 -0.0006032066 0.0030572666 -0.0017844231 0.0026877555 0.0026154951 0.0012774911 0.00076862826 8.950234e-05 -5.1409555e-05 -0.0008898639 -0.0004835315 -0.0012891121 -0.000862855 0.0016176156 0.0028187882 0.0020902902 -0.00024065454 0.0003087268 0.0016110667 -0.0028527384 0.00085182197 0.0037525815 0.002076696 -0.0010519741 -0.0009783397 -0.0020757217 0.00034296524 -0.0011855395 0.00028635873 0.0004859213 0.002227352 -0.00026044657 0.0014482326 0.00026469992 -0.00057127856 0.002014371 -0.0007844812 -0.000475361 0.0031666637
33 -0.09508618 -0.0016624567 0.0030817257 0.0038205176 0.0029668708 0.0004164245 0.0006201821 -0.0012559601 -0.0016966818 0.0015060682 0.0036566744 -0.003730623 0.0013675096 0.0008564942 0.0024119483 0.0038882399 -0.0038545171 0.0013385727 -0.0014147154 -0.0023436965 -0.0012371707 -0.00229645 -0.00016148956 0.003358957 -0.0012232875 0.0011659216 -0.00020253606 -0.0015723471 -0.00059142377 -0.0028714896 0.0035402717 -0.0006060586 0.0030524093 -0.0017809346 0.002692078 0.0026125081 0.0012798154 0.0007697131 8.799091e-05 -5.2029158e-05 -0.00088783685 -0.00047792436 -0.0012890326 -0.0008607112 0.0016208603 0.002814621 0.0020916918 -0.00023752236 0.0003093541 0.0016155958 -0.0028543293 0.00084996864 0.0037531082 0.0020756614 -0.001049629 -0.0009846837 -0.0020788263 0.0003421008 -0.0011820424 0.0002952145 0.0004820618 0.0022250456 -0.00025664753 0.0014486387 0.00026183488 -0.0005725579 0.0020145895 -0.0007856637 -0.00047451013 0.0031667382
34 -0.09505938 -0.0016726146 0.0030765506 0.0038271635 0.0029690773 0.0004312372 0.0006191393 -0.0012495896 -0.0016893471 0.0014919711 0.003646851 -0.0037344997 0.001368788 0.0008529615 0.0024114193 0.0038803797 -0.0038586112 0.0013266031 -0.0014024171 -0.0023582673 -0.0012385031 -0.0022999905 -0.00015304507 0.0033510705 -0.0012328749 0.0011697452 -0.00019351604 -0.0015827261 -0.00059333077 -0.0028778259 0.00353633 -0.0006102695 0.0030380988 -0.0017760032 0.002689305 0.0026086846 0.0012880277 0.00076861534 9.035121e-05 -5.508184e-05 -0.00088258996 -0.00047574085 -0.0012863287 -0.0008539243 0.0016335429 0.0028053485 0.002095114 -0.0002348769 0.00031115508 0.0016219581 -0.0028490257 0.00085562235 0.0037524607 0.002073762 -0.0010495696 -0.0009925269 -0.002080723 0.00033850165 -0.0011780349 0.0003006892 0.0004815683 0.0022260288 -0.00025199942 0.0014582217 0.00025518803 -0.0005746614 0.0020065217 -0.0007844327 -0.0004710905 0.0031700549
35 -0.09516717 -0.0016414617 0.0030944531 0.003806084 0.0029653644 0.00038413375 0.00062243524 -0.0012707697 -0.0017124838 0.0015393967 0.0036761153 -0.0037283436 0.0013650411 0.0008660365 0.0024134694 0.003907284 -0.003842013 0.0013607335 -0.0014444126 -0.0023145103 -0.0012366576 -0.0022906873 -0.00017472451 0.0033842605 -0.0011999462 0.0011535768 -0.00022119466 -0.0015524976 -0.0005838352 -0.002859859 0.0035484964 -0.0005976473 0.0030890733 -0.0017990174 0.0027022115 0.0026258456 0.0012608165 0.00077098695 8.114216e-05 -4.951916e-05 -0.00090317236 -0.00048175242 -0.0012987866 -0.00087753386 0.001598344 0.002836376 0.0020828827 -0.00024270355 0.00030510259 0.0015970899 -0.002862887 0.00083455676 0.0037548493 0.0020855824 -0.0010492872 -0.0009710076 -0.002072521 0.00035230123 -0.0011890932 0.0002812057 0.00048069848 0.0022199396 -0.00027120148 0.0014298452 0.0002841309 -0.000574969 0.0020365866 -0.00079045777 -0.00047805358 0.0031542254
36 -0.09484926 -0.0016762236 0.0030571772 0.003796513 0.00295335 0.0004448263 0.00064870866 -0.0012595553 -0.0016962971 0.0014757022 0.0036264772 -0.0037293972 0.0013727219 0.00084159465 0.0024257803 0.0038689072 -0.0038547954 0.0013406062 -0.0014048361 -0.0023427142 -0.0012352199 -0.0022958166 -0.00015460415 0.0033131023 -0.0012400498 0.0011876896 -0.00020856739 -0.0015538175 -0.0006261703 -0.0028765693 0.0035064009 -0.00061309856 0.003009785 -0.0017649956 0.0026622368 0.002602791 0.0012992324 0.0007592051 0.0001043945 -5.597214e-05 -0.00087030244 -0.0004899865 -0.0012714315 -0.000838364 0.0016548923 0.0027932755 0.0020979107 -0.0002385387 0.00030911795 0.0016225243 -0.0028273882 0.000885054 0.0037510912 0.0020673862 -0.0010590731 -0.0009862266 -0.0020766768 0.00032701832 -0.0011848727 0.00027868885 0.0005010154 0.002244248 -0.00025273545 0.0014873686 0.00024158895 -0.0005713888 0.0019821152 -0.00076493656 -0.0004680482 0.0031822468
37 -0.095080316 -0.0016475001 0.0030834023 0.0038012213 0.002960152 0.0003999066 0.000631386 -0.0012710746 -0.0017069159 0.0015253474 0.0036622395 -0.0037272645 0.0013668718 0.00085972546 0.0024164356 0.003897298 -0.0038458523 0.00135793 -0.0014362492 -0.0023204316 -0.0012335222 -0.0022919986 -0.00017338774 0.0033622917 -0.0012121103 0.001162525 -0.0002212637 -0.0015504153 -0.0005962229 -0.0028653878 0.0035373361 -0.0006004378 0.0030677353 -0.0017904848 0.0026881478 0.0026200553 0.001272407 0.0007688439 8.902951e-05 -5.0934646e-05 -0.0008942948 -0.00048567768 -0.0012909694 -0.0008682294 0.0016108309 0.0028250471 0.002088269 -0.00024264111 0.00030862764 0.0016052747 -0.0028550052 0.0008482955 0.0037525108 0.0020794529 -0.0010527727 -0.0009728548 -0.002073075 0.00034577207 -0.0011880266 0.00027993208 0.00048636028 0.0022258367 -0.00026513013 0.0014436392 0.00027134284 -0.0005717616 0.0020191558 -0.00078580977 -0.00047595962 0.003163744
38 -0.094976686 -0.0016685579 0.0030699666 0.0038061778 0.0029602859 0.0004277786 0.00063549407 -0.0012600395 -0.0016973132 0.0014950004 0.003640907 -0.003731267 0.0013700215 0.00084995944 0.0024190696 0.003880269 -0.0038520042 0.0013399589 -0.0014136548 -0.0023418958 -0.0012367903 -0.0022965288 -0.00015775458 0.0033407095 -0.0012287266 0.0011744453 -0.00020709456 -0.0015606892 -0.0006074695 -0.0028723879 0.0035236857 -0.00060800556 0.00303594 -0.0017780153 0.0026794206 0.0026106758 0.0012872574 0.0007635522 9.511065e-05 -5.6589768e-05 -0.0008823032 -0.0004849382 -0.001282042 -0.00085197255 0.0016383379 0.0028053499 0.0020934641 -0.00023886243 0.0003079293 0.001615027 -0.002839477 0.00086544536 0.003751368 0.0020750032 -0.001053562 -0.0009849473 -0.00207538 0.00033638004 -0.0011835739 0.00028384104 0.00049083726 0.002232899 -0.0002590806 0.0014669922 0.0002570269 -0.0005751992 0.0020026944 -0.00077626866 -0.00047041153 0.0031704176
39 -0.09517222 -0.0016286966 0.003097054 0.0037930824 0.002961005 0.0003709579 0.00062906096 -0.0012817492 -0.0017187317 0.0015549186 0.0036824348 -0.0037245802 0.0013644394 0.00086918514 0.0024150764 0.003915154 -0.003836549 0.0013762898 -0.0014600616 -0.002297707 -0.0012330489 -0.0022871832 -0.00018539236 0.0033870542 -0.0011926022 0.001150957 -0.00023501978 -0.0015377869 -0.00058538734 -0.0028558935 0.0035482151 -0.0005934539 0.0031013684 -0.0018053168 0.0026991447 0.002630878 0.0012554154 0.0007719364 8.157045e-05 -4.7397818e-05 -0.0009081122 -0.00048685775 -0.0013001619 -0.00088397076 0.0015872377 0.0028452598 0.002080967 -0.00024686524 0.00030535166 0.0015907555 -0.0028660563 0.0008316033 0.0037545133 0.00208759 -0.0010511637 -0.0009614057 -0.0020688851 0.00035595588 -0.0011931866 0.00027204305 0.0004827287 0.0022199745 -0.00027547753 0.0014236053 0.00029036973 -0.0005722974 0.0020398793 -0.00079223275 -0.0004804332 0.0031528475
40 -0.09518474 -0.001661529 0.0030922485 0.0038332958 0.0029745759 0.0004071361 0.00060912856 -0.0012508326 -0.0016982959 0.0015148693 0.0036659373 -0.0037362217 0.0013666721 0.0008618398 0.0024083285 0.0038950627 -0.0038538822 0.0013315082 -0.0014170925 -0.0023479916 -0.0012410418 -0.0022967446 -0.00015792563 0.0033821668 -0.0012144094 0.0011565995 -0.00019416666 -0.0015827367 -0.0005757245 -0.0028677753 0.00355393 -0.00060549093 0.0030695165 -0.0017895349 0.0027098285 0.0026175021 0.0012697094 0.00077205326 7.999219e-05 -5.326427e-05 -0.0008952138 -0.00047341888 -0.0012991737 -0.0008681782 0.0016138516 0.0028210662 0.0020864047 -0.00023551317 0.000306307 0.001608336 -0.0028600318 0.0008359886 0.0037539843 0.0020822599 -0.0010448648 -0.0009883762 -0.0020789364 0.00034787593 -0.001180969 0.0003018049 0.0004743318 0.0022170867 -0.0002624166 0.0014371632 0.00027482625 -0.00057882455 0.002031783 -0.0007918846 -0.0004744045 0.003156096
41 -0.09510816 -0.0016433566 0.0030866642 0.0037980073 0.0029619723 0.00039060338 0.00062973984 -0.0012745338 -0.0017116616 0.0015346237 0.003667774 -0.0037277865 0.0013659013 0.0008635348 0.0024157958 0.003903145 -0.00384075 0.001362133 -0.0014437584 -0.0023144688 -0.0012352649 -0.0022915113 -0.00017446543 0.0033733454 -0.0012041284 0.0011569073 -0.00022465 -0.0015455708 -0.0005914481 -0.0028616476 0.0035394407 -0.00059804943 0.00308063 -0.0017986044 0.0026937164 0.002624672 0.0012657666 0.0007688702 8.557896e-05 -5.1719966e-05 -0.0008997732 -0.0004848034 -0.0012936882 -0.00087336433 0.0016064096 0.00283086 0.002084526 -0.00024377114 0.0003063899 0.0015975025 -0.0028570949 0.00084168115 0.0037533261 0.0020852135 -0.0010518895 -0.0009708066 -0.0020704095 0.00034974987 -0.0011895539 0.0002755996 0.000485424 0.002223364 -0.00027171854 0.0014389378 0.00028019908 -0.00057479943 0.002029532 -0.00078690157 -0.00047612732 0.003156177
42 -0.095134825 -0.0016439221 0.0030900412 0.0038051722 0.0029634035 0.0003911206 0.00062557746 -0.0012703203 -0.0017090051 0.0015332703 0.0036703674 -0.0037277315 0.001365773 0.0008635211 0.0024140305 0.0039030947 -0.0038443867 0.0013592881 -0.0014402699 -0.0023179303 -0.0012349384 -0.002291472 -0.00017458946 0.0033746623 -0.001205917 0.0011575628 -0.00022067652 -0.0015526561 -0.00058853853 -0.0028626975 0.0035444929 -0.00059869565 0.0030796938 -0.0017950403 0.0026961332 0.0026230619 0.0012662691 0.0007705745 8.4334744e-05 -4.9780017e-05 -0.0008991984 -0.00048318997 -0.0012955299 -0.0008735769 0.0016030937 0.002831608 0.0020855987 -0.00024270106 0.00030704893 0.0016014653 -0.0028602164 0.0008400364 0.0037538703 0.0020825746 -0.001050694 -0.00097195036 -0.0020731357 0.00034961375 -0.0011883395 0.00028173273 0.0004826481 0.0022223177 -0.00026761013 0.0014350371 0.0002778694 -0.0005728486 0.0020286802 -0.0007892098 -0.00047753975 0.0031589728
43 -0.095069125 -0.0016581771 0.003079593 0.003812749 0.0029629907 0.00041312934 0.00062616135 -0.0012614807 -0.0016993138 0.0015107653 0.0036552425 -0.0037297467 0.0013675138 0.00085682294 0.0024141152 0.003889528 -0.0038521462 0.0013444471 -0.0014215315 -0.0023365864 -0.001235138 -0.0022955937 -0.0001658591 0.0033563175 -0.0012210478 0.0011658786 -0.00020877802 -0.0015629664 -0.000595345 -0.002869747 0.0035375562 -0.00060372497 0.0030545387 -0.0017840081 0.0026885527 0.0026144905 0.0012791106 0.0007687599 8.959693e-05 -5.2392777e-05 -0.0008886091 -0.0004820409 -0.0012888166 -0.0008616885 0.0016204333 0.0028158869 0.0020909074 -0.00023950113 0.0003097122 0.0016127423 -0.0028527465 0.0008518018 0.003752025 0.0020764333 -0.0010516411 -0.0009811133 -0.0020764112 0.0003421623 -0.0011841755 0.00028914143 0.0004851877 0.0022264074 -0.00025966016 0.0014492258 0.00026299185 -0.00057190505 0.00201362 -0.00078515196 -0.00047448915 0.0031665086
44 -0.094786465 -0.0017082848 0.0030411212 0.0038221916 0.00296027 0.0004910567 0.00064144155 -0.0012373462 -0.0016694831 0.0014318494 0.003596575 -0.003740067 0.0013759603 0.00083120604 0.002420677 0.0038438954 -0.0038709375 0.0013004043 -0.0013636396 -0.0023930618 -0.0012384381 -0.0023084958 -0.00013057247 0.003289359 -0.0012720185 0.0011988305 -0.00017666993 -0.0015892523 -0.000628587 -0.0028955122 0.0034994876 -0.00062403956 0.0029657066 -0.00174932 0.0026556044 0.0025895813 0.0013253946 0.00075722794 0.000110302775 -6.576421e-05 -0.0008544012 -0.00048244584 -0.0012637782 -0.0008183175 0.0016916068 0.0027633298 0.002109318 -0.00023061797 0.00031517836 0.0016453817 -0.0028140808 0.0009001381 0.0037476681 0.002060375 -0.0010570323 -0.0010113668 -0.0020830792 0.00031662761 -0.0011710275 0.00030069426 0.0004974675 0.0022454958 -0.00023690418 0.0015118918 0.00021843337 -0.0005758207 0.0019583334 -0.00076450006 -0.0004595067 0.0031918734
45 -0.09509418 -0.0016472619 0.0030851853 0.003803679 0.002961346 0.0003983104 0.0006292955 -0.0012693012 -0.0017069519 0.0015257078 0.0036646205 -0.00372681 0.0013668837 0.0008605299 0.0024154193 0.003898569 -0.0038466111 0.0013578176 -0.0014356318 -0.0023210915 -0.0012339093 -0.002291641 -0.0001737671 0.003364752 -0.0012112885 0.0011622035 -0.0002192439 -0.0015518095 -0.0005936869 -0.002864018 0.0035398225 -0.0006003231 0.0030697214 -0.0017902015 0.0026906696 0.0026197187 0.0012709082 0.00076960097 8.737044e-05 -5.01342e-05 -0.000894798 -0.00048491615 -0.0012917361 -0.0008687359 0.0016086223 0.002826114 0.0020874185 -0.00024256513 0.00030765988 0.0016048355 -0.0028564474 0.0008463593 0.0037529177 0.0020797749 -0.0010518131 -0.0009730277 -0.0020736873 0.00034648305 -0.0011883377 0.00028181993 0.00048555355 0.0022258216 -0.00026497577 0.0014414306 0.00027172532 -0.00057099614 0.0020216056 -0.00078622816 -0.00047712863 0.0031627368
46 -0.09509845 -0.0016405692 0.0030866647 0.00379557 0.0029593508 0.00038924246 0.00063245493 -0.0012760083 -0.0017125742 0.0015356392 0.0036685935 -0.003725568 0.0013661057 0.0008628785 0.0024168978 0.003903437 -0.0038416074 0.0013662877 -0.0014457625 -0.0023102087 -0.0012332392 -0.0022899162 -0.00017826208 0.0033692815 -0.0012044555 0.0011590247 -0.00022755984 -0.0015422064 -0.00059428957 -0.002860844 0.003539095 -0.0005975072 0.0030792167 -0.0017960151 0.0026907152 0.0026237285 0.0012661676 0.0007692471 8.6869615e-05 -4.9631406e-05 -0.0008986145 -0.00048703703 -0.0012929892 -0.0008730174 0.0016035171 0.0028317699 0.002085052 -0.00024461013 0.00030693872 0.0015988696 -0.0028577473 0.00084373803 0.0037531385 0.0020826743 -0.0010529683 -0.0009680189 -0.0020709531 0.00034882932 -0.0011909615 0.00027472485 0.00048703945 0.0022252293 -0.00026998555 0.0014381654 0.0002776645 -0.0005715626 0.0020263481 -0.0007863745 -0.00047760017 0.003159511
47 -0.09524711 -0.0015792248 0.0031119795 0.0037515028 0.0029503233 0.0003064242 0.00063696795 -0.0013207445 -0.0017513899 0.001621886 0.0037225843 -0.0037058494 0.0013561235 0.0008879714 0.0024168817 0.0039501004 -0.0038117361 0.0014375012 -0.001519203 -0.0022268759 -0.0012246637 -0.0022746704 -0.00022569754 0.0034143857 -0.0011517085 0.0011306594 -0.00028875514 -0.0014816056 -0.0005829336 -0.0028360935 0.0035532762 -0.00057266006 0.0031648066 -0.0018339761 0.0026985263 0.0026502656 0.001224408 0.0007770343 7.6251265e-05 -3.3265733e-05 -0.0009298624 -0.00049384724 -0.0013040708 -0.00091486814 0.0015341227 0.002886503 0.002069473 -0.00025980303 0.00030541196 0.0015620899 -0.0028915994 0.0008079029 0.0037583874 0.0020977443 -0.0010579588 -0.00092341163 -0.0020578748 0.0003714949 -0.001210859 0.00023768067 0.00048826964 0.0022155475 -0.00029578933 0.0013871783 0.00031681458 -0.00056076347 0.0020686164 -0.0007976105 -0.00049287017 0.0031409538
48 -0.09506703 -0.0016528013 0.0030817655 0.0038019505 0.0029619776 0.00040381777 0.00063111796 -0.0012683152 -0.0017064294 0.0015200295 0.0036588488 -0.003729774 0.0013673401 0.00085875316 0.00241695 0.0038952476 -0.003844921 0.0013537366 -0.0014325972 -0.0023243946 -0.0012364344 -0.002293423 -0.00016750356 0.0033626207 -0.001212799 0.0011633869 -0.00021783105 -0.0015526045 -0.0005970056 -0.0028661173 0.0035341196 -0.00060205616 0.0030648436 -0.0017907701 0.0026892566 0.0026198048 0.0012736074 0.00076689344 8.8513385e-05 -5.3095227e-05 -0.0008937432 -0.0004841909 -0.001290247 -0.00086567696 0.001618118 0.0028225726 0.002087879 -0.0002416744 0.00030675007 0.0016043223 -0.0028507398 0.0008500513 0.003753393 0.0020814263 -0.0010524872 -0.0009764493 -0.0020727303 0.00034497716 -0.0011870398 0.0002791066 0.00048671267 0.0022267492 -0.0002665318 0.0014489117 0.00027206377 -0.0005753682 0.0020198743 -0.0007831322 -0.00047390696 0.0031617836
49 -0.09515951 -0.0016299622 0.0030937004 0.0037939826 0.0029594998 0.00037548802 0.00063029554 -0.0012816901 -0.0017161198 0.0015519995 0.0036781733 -0.003724845 0.0013645731 0.0008681031 0.0024150547 0.0039121048 -0.0038386448 0.0013735953 -0.0014576722 -0.0023012066 -0.0012313887 -0.0022883187 -0.00018590165 0.0033817107 -0.0011962674 0.00115197 -0.00023383563 -0.0015381644 -0.0005872413 -0.0028577514 0.003547257 -0.00059335073 0.0030961803 -0.00180418 0.002696195 0.0026294836 0.0012586582 0.0007720143 8.362604e-05 -4.816531e-05 -0.0009056049 -0.00048789647 -0.0012989453 -0.0008820713 0.0015901288 0.0028413953 0.0020824256 -0.00024655776 0.0003076486 0.0015934989 -0.0028652563 0.0008341038 0.0037529345 0.0020857884 -0.0010521112 -0.00096253253 -0.0020690933 0.00035428553 -0.0011925114 0.000273334 0.00048373677 0.0022202295 -0.00027395666 0.001425623 0.00028639977 -0.0005710987 0.0020353543 -0.0007929112 -0.00047978817 0.0031550517
50 -0.09503006 -0.0016650571 0.0030748956 0.0038149823 0.0029631136 0.00042722863 0.00062865997 -0.0012577927 -0.0016913352 0.0014982002 0.0036459349 -0.003730907 0.0013694024 0.0008524068 0.0024140286 0.0038825956 -0.0038563372 0.001337785 -0.0014115795 -0.0023475904 -0.0012342931 -0.0022975032 -0.00016124835 0.0033443025 -0.0012322988 0.0011721749 -0.00020386383 -0.001570624 -0.00059962505 -0.0028762326 0.003532539 -0.0006079594 0.0030388888 -0.0017767852 0.0026815701 0.0026103957 0.0012884855 0.0007682483 9.344946e-05 -5.4407716e-05 -0.0008834016 -0.00048226427 -0.0012848963 -0.0008551763 0.0016296895 0.0028080295 0.0020957934 -0.00023841571 0.0003119566 0.0016206715 -0.002847569 0.00085928326 0.0037510074 0.0020726856 -0.0010517408 -0.0009855224 -0.0020780757 0.00033886218 -0.0011808263 0.00029337718 0.00048516595 0.0022289339 -0.00025278583 0.0014583367 0.00025500293 -0.00057122647 0.0020018944 -0.00078423216 -0.00047254184 0.0031730146
51 -0.09515364 -0.0016186191 0.0030968457 0.0037776553 0.002955769 0.00036058747 0.00063775695 -0.0012931618 -0.0017258744 0.0015670944 0.0036855973 -0.003720972 0.0013639763 0.00087082805 0.0024185213 0.003920707 -0.0038300522 0.0013911043 -0.0014744754 -0.0022807978 -0.0012303063 -0.002284088 -0.00019378465 0.0033864856 -0.0011859484 0.0011497516 -0.00024961945 -0.001521311 -0.000590731 -0.0028523505 0.003543768 -0.0005897522 0.00310993 -0.001810577 0.002693838 0.002635421 0.0012516236 0.0007710355 8.3261664e-05 -4.6341116e-05 -0.00091179524 -0.0004920617 -0.0012994146 -0.0008883206 0.0015808566 0.0028519346 0.0020794598 -0.0002506663 0.00030519042 0.0015845514 -0.0028661478 0.0008320974 0.00375431 0.0020895211 -0.0010538774 -0.00095247675 -0.0020649862 0.00035782924 -0.0011974062 0.00026029805 0.00048657664 0.0022216218 -0.00028049006 0.0014217846 0.00029530431 -0.0005708542 0.0020410267 -0.00079116336 -0.00048151243 0.0031520757
52 -0.09512401 -0.0016306996 0.0030919586 0.0037869592 0.0029575725 0.00037555367 0.00063594367 -0.0012830935 -0.001719101 0.0015501123 0.0036757148 -0.0037252556 0.0013657112 0.0008665504 0.0024179912 0.00391188 -0.0038358758 0.0013769617 -0.001460036 -0.0022967153 -0.0012327108 -0.0022872528 -0.0001842908 0.0033789692 -0.0011948603 0.0011548116 -0.00023613051 -0.001532303 -0.00059198594 -0.0028559265 0.0035417443 -0.00059430185 0.0030944508 -0.0018039867 0.0026939018 0.0026299 0.0012585819 0.0007694808 8.4511485e-05 -4.9020684e-05 -0.0009054923 -0.00049063255 -0.0012979435 -0.0008797969 0.0015946943 0.0028413828 0.0020811534 -0.00024773978 0.00030454356 0.0015905107 -0.0028596711 0.0008383087 0.003753625 0.0020871796 -0.0010530868 -0.00096177973 -0.002067361 0.0003536185 -0.0011939043 0.00026775154 0.00048712167 0.002223797 -0.0002764711 0.0014312794 0.00028799634 -0.00057302864 0.0020347948 -0.0007884377 -0.00047875897 0.0031540475
53 -0.09505174 -0.0016452108 0.0030805515 0.003791895 0.0029574588 0.00039690846 0.0006371203 -0.0012762558 -0.0017111539 0.0015283403 0.0036607927 -0.0037264344 0.0013668651 0.0008599243 0.002419064 0.003898449 -0.0038416525 0.0013639943 -0.0014421375 -0.002312959 -0.001233443 -0.0022911944 -0.00017506994 0.0033604284 -0.001208791 0.0011625768 -0.00022756941 -0.0015401588 -0.00060081325 -0.002863158 0.0035317768 -0.0005989143 0.0030698532 -0.0017939399 0.0026849562 0.0026219862 0.0012711338 0.0007668234 9.022889e-05 -5.1752548e-05 -0.00089509017 -0.0004883494 -0.0012892055 -0.00086834165 0.0016128402 0.002826037 0.002086821 -0.00024431164 0.00030749047 0.0016006727 -0.0028518157 0.00085058436 0.003752495 0.0020817218 -0.0010547582 -0.0009699362 -0.002070248 0.00034572135 -0.001190467 0.00027179663 0.0004901939 0.0022280682 -0.00026957694 0.0014469253 0.00027358835 -0.0005726781 0.0020198515 -0.00078268186 -0.00047531622 0.0031618369
54 -0.09519457 -0.0016216112 0.0030986695 0.003791154 0.002960286 0.00036339407 0.00062731205 -0.0012868902 -0.0017214102 0.001564957 0.0036876753 -0.0037227871 0.001362558 0.0008726033 0.0024137117 0.0039190003 -0.003834587 0.0013814013 -0.0014666868 -0.0022915096 -0.0012308921 -0.0022865243 -0.00019139945 0.0033916975 -0.0011881493 0.0011456258 -0.00024082522 -0.0015331696 -0.00058232347 -0.0028550045 0.0035514447 -0.0005904127 0.0031102034 -0.0018105005 0.0026998532 0.0026333425 0.0012515074 0.0007741255 8.1435406e-05 -4.558921e-05 -0.00091043004 -0.0004865647 -0.0013013032 -0.00088922953 0.0015787514 0.0028493374 0.002079998 -0.00024768454 0.00030812307 0.0015880824 -0.0028724673 0.00082612276 0.003753892 0.0020883477 -0.0010521525 -0.00095730723 -0.002067779 0.00035826192 -0.0011945185 0.00027041853 0.00048206863 0.0022165237 -0.0002775027 0.001416448 0.00029329327 -0.00057032664 0.0020435806 -0.00079581095 -0.00048166708 0.0031511425
55 -0.09505663 -0.001646664 0.0030800225 0.0038000261 0.002957358 0.00040375846 0.0006337734 -0.0012715586 -0.001704428 0.0015224534 0.0036593243 -0.0037254961 0.001367072 0.0008585901 0.0024161115 0.0038947698 -0.0038485997 0.0013589546 -0.001434397 -0.0023213204 -0.0012307529 -0.0022922775 -0.00017649498 0.0033535096 -0.0012167315 0.0011653278 -0.00022189198 -0.0015487013 -0.00059955975 -0.0028674407 0.0035355007 -0.000600558 0.0030613262 -0.0017871587 0.0026823576 0.0026173964 0.0012764854 0.00076966616 9.201026e-05 -4.95761e-05 -0.0008905587 -0.0004874174 -0.001288402 -0.0008656399 0.0016113614 0.0028219977 0.0020903626 -0.00024305459 0.00031147737 0.0016095081 -0.002855225 0.00085194805 0.003751401 0.0020757522 -0.0010546377 -0.0009720462 -0.002073749 0.00034384034 -0.0011881279 0.00028110982 0.00048854656 0.0022278016 -0.0002614563 0.0014454306 0.00026482317 -0.00056749565 0.0020120551 -0.0007859805 -0.00047672068 0.0031683315
56 -0.09496968 -0.0016744158 0.0030771506 0.0038252424 0.0029718727 0.00044776266 0.0006250367 -0.0012452933 -0.0016785716 0.0014771369 0.00364091 -0.0037313837 0.0013749383 0.0008463032 0.0024088724 0.0038758998 -0.0038635137 0.0013289542 -0.0013904015 -0.002368382 -0.0012348834 -0.0022948647 -0.00015025237 0.0033334936 -0.0012497634 0.0011826258 -0.00018908564 -0.0015945245 -0.00059407105 -0.0028856166 0.003528854 -0.00062369806 0.0030162402 -0.0017611254 0.0026768427 0.0025995488 0.0012971471 0.0007732408 9.770434e-05 -5.210312e-05 -0.00087375595 -0.00047842562 -0.0012791647 -0.00084454543 0.0016335003 0.0027981277 0.0021008416 -0.00023552193 0.00031217845 0.0016294661 -0.002844425 0.0008631173 0.0037519059 0.002067392 -0.0010479273 -0.000993231 -0.0020828517 0.00033844306 -0.0011754447 0.00030866955 0.00048111932 0.0022310717 -0.0002371119 0.0014713455 0.00024865585 -0.0005686039 0.0019903118 -0.0007821174 -0.00047185426 0.0031804675
57 -0.095153056 -0.0016217072 0.0030954904 0.0037815461 0.00295648 0.0003648528 0.0006370383 -0.0012897184 -0.0017237021 0.0015628734 0.003682286 -0.003724649 0.0013645773 0.0008704235 0.002418028 0.003918553 -0.0038320445 0.0013851668 -0.0014709604 -0.0022867008 -0.0012311727 -0.002285716 -0.00019054009 0.0033862065 -0.0011880783 0.0011499481 -0.0002439112 -0.0015252456 -0.0005894667 -0.0028538168 0.0035445355 -0.00059117476 0.003106954 -0.0018107124 0.0026954592 0.002634604 0.0012532951 0.0007708372 8.322248e-05 -4.762636e-05 -0.00091033493 -0.0004922282 -0.001301275 -0.000886085 0.0015859321 0.002848838 0.0020790487 -0.00024978854 0.0003052387 0.0015853929 -0.0028640502 0.0008328708 0.0037538465 0.0020898157 -0.0010539212 -0.00095666223 -0.0020651626 0.0003573111 -0.0011958414 0.00026341213 0.000486515 0.002221331 -0.00028023968 0.0014243086 0.00029449206 -0.000572722 0.0020403631 -0.0007917029 -0.00047978808 0.0031509781
58 -0.095121145 -0.0016385304 0.0030894112 0.003797323 0.0029602246 0.0003856731 0.00063005916 -0.0012760089 -0.0017132381 0.0015392883 0.0036721225 -0.003725456 0.0013655297 0.0008643372 0.0024158256 0.0039056148 -0.0038415217 0.0013669644 -0.001447483 -0.002309047 -0.0012332975 -0.0022895962 -0.00017954264 0.0033737242 -0.0012023009 0.0011569457 -0.00022769891 -0.001543281 -0.0005912632 -0.0028600702 0.0035425115 -0.00059676456 0.0030837876 -0.001797447 0.0026935001 0.002624741 0.0012638576 0.00077027705 8.544584e-05 -4.883211e-05 -0.00090037985 -0.00048620845 -0.0012949038 -0.00087546196 0.0015994105 0.0028343487 0.0020843516 -0.00024460207 0.0003069248 0.0015980528 -0.0028605862 0.0008404044 0.003753434 0.002083148 -0.001052235 -0.0009672123 -0.00207114 0.00035029138 -0.0011910103 0.00027598397 0.0004853693 0.002223414 -0.00027043794 0.0014339421 0.00027980813 -0.0005714513 0.0020294376 -0.0007882868 -0.00047843496 0.0031582848
59 -0.09505811 -0.0016679093 0.003077383 0.0038232605 0.0029668945 0.00042536797 0.0006202653 -0.0012525694 -0.0016925209 0.0014968839 0.0036509517 -0.0037308019 0.0013681696 0.00085394905 0.002411643 0.00388296 -0.0038576506 0.0013333973 -0.001406899 -0.0023510903 -0.0012370361 -0.002298069 -0.00015840238 0.003350883 -0.0012298394 0.0011695139 -0.00019817828 -0.0015763183 -0.000594207 -0.002874636 0.0035370502 -0.0006081293 0.0030420457 -0.0017761375 0.0026882754 0.0026087547 0.0012853413 0.00076927757 9.018843e-05 -5.26552e-05 -0.0008833113 -0.00047712226 -0.0012855656 -0.0008557941 0.0016273453 0.0028084188 0.0020941347 -0.00023635503 0.00031072233 0.001620501 -0.0028517866 0.0008546804 0.0037525613 0.0020730055 -0.0010501315 -0.0009880721 -0.0020803064 0.0003391356 -0.0011804377 0.00029821074 0.00048316433 0.002227023 -0.00025278592 0.0014544354 0.00025514772 -0.0005713914 0.0020080572 -0.000783958 -0.00047362252 0.0031702549
60 -0.095111996 -0.0016523097 0.0030863034 0.003812101 0.002964638 0.00040278386 0.0006239462 -0.0012633584 -0.0017031807 0.0015205657 0.0036636346 -0.0037297143 0.0013668544 0.0008601934 0.0024132805 0.0038964087 -0.0038493476 0.0013497726 -0.0014288488 -0.0023297002 -0.0012358989 -0.0022937146 -0.00016862914 0.0033672173 -0.0012140083 0.00116196 -0.00021186809 -0.0015615041 -0.00059010944 -0.0028665997 0.003542648 -0.00060216954 0.0030669586 -0.0017885733 0.0026943323 0.00261827 0.0012726258 0.00077005953 8.597399e-05 -5.0826377e-05 -0.00089396327 -0.0004816284 -0.0012933114 -0.0008673625 0.0016118197 0.0028238986 0.0020881987 -0.00024058222 0.00030772813 0.0016078261 -0.0028567202 0.00084507174 0.0037535343 0.002079436 -0.0010503562 -0.0009780084 -0.0020755862 0.00034621442 -0.0011854534 0.0002879304 0.00048258886 0.0022239704 -0.00026260156 0.0014416361 0.0002706289 -0.0005728673 0.002021982 -0.0007875773 -0.0004760672 0.0031625924
61 -0.095042564 -0.0016719695 0.003075026 0.003824373 0.0029667031 0.00043081224 0.00062229554 -0.0012501308 -0.001690576 0.0014911754 0.0036459127 -0.0037332824 0.0013692799 0.0008520618 0.0024126973 0.003880016 -0.0038590154 0.0013289837 -0.0014034047 -0.0023557446 -0.0012377742 -0.0022990431 -0.00015499676 0.0033476546 -0.0012327706 0.0011718661 -0.00019433387 -0.0015783396 -0.0005960801 -0.002875626 0.0035350567 -0.00060965394 0.0030364846 -0.0017747257 0.0026876586 0.0026077472 0.0012879623 0.0007679131 9.0982256e-05 -5.4583867e-05 -0.00088159187 -0.0004783381 -0.0012856432 -0.0008526209 0.001633982 0.0028046998 0.0020944932 -0.00023589483 0.000309909 0.001621461 -0.0028473267 0.0008581787 0.003752064 0.0020729771 -0.0010501697 -0.0009911872 -0.0020802254 0.00033765275 -0.0011794593 0.00029895344 0.00048400508 0.0022284437 -0.00025254433 0.0014593672 0.00025368598 -0.00057329447 0.0020054698 -0.0007825268 -0.0004719608 0.003170641
62 -0.095208764 -0.001616277 0.003102719 0.0037850766 0.0029601916 0.00035373808 0.00062893954 -0.0012910427 -0.0017270664 0.0015734946 0.003693791 -0.0037213156 0.0013622682 0.0008747465 0.002414921 0.0039248997 -0.003829918 0.0013895722 -0.0014751903 -0.0022815196 -0.001231676 -0.0022840363 -0.00019425976 0.0033987113 -0.0011808723 0.00114348 -0.00024700115 -0.001526404 -0.00058135804 -0.002850706 0.003551931 -0.00058863754 0.0031203763 -0.0018146273 0.0027024108 0.002636977 0.0012456344 0.0007737452 7.912517e-05 -4.4696535e-05 -0.0009150585 -0.00048758968 -0.0013030322 -0.00089339755 0.0015728318 0.0028562825 0.0020772172 -0.00024945766 0.0003051786 0.0015818771 -0.0028734652 0.0008227062 0.003755281 0.0020916767 -0.0010517328 -0.0009528318 -0.0020659033 0.00036111864 -0.0011971411 0.0002647277 0.0004822285 0.0022165752 -0.0002819057 0.0014126742 0.00030028782 -0.0005713533 0.0020503688 -0.000795065 -0.0004829766 0.0031475015
63 -0.09506411 -0.001664386 0.0030793548 0.003818694 0.0029663579 0.00041980288 0.0006221848 -0.0012560107 -0.0016961845 0.0015026439 0.0036536942 -0.0037306733 0.0013679963 0.00085520244 0.0024128852 0.0038862624 -0.0038543954 0.0013380267 -0.0014129875 -0.0023447732 -0.0012373385 -0.0022967204 -0.00016004124 0.0033550449 -0.0012252508 0.0011676877 -0.00020254795 -0.0015716108 -0.00059405126 -0.0028724559 0.0035369163 -0.0006070893 0.003048269 -0.0017795893 0.0026894787 0.002611605 0.001281866 0.0007687899 8.940831e-05 -5.274562e-05 -0.0008862544 -0.000478322 -0.0012870174 -0.00085853937 0.0016245439 0.0028122906 0.0020924255 -0.00023738467 0.00030942037 0.0016162792 -0.002851834 0.00085289776 0.0037529827 0.0020752663 -0.0010502413 -0.0009853768 -0.0020786477 0.00034081988 -0.0011819542 0.00029403545 0.00048344067 0.0022265918 -0.00025620847 0.0014526678 0.0002601093 -0.0005728148 0.0020117534 -0.00078380597 -0.00047367672 0.003167766
64 -0.09506392 -0.0016486961 0.003081207 0.0037993642 0.0029593965 0.00040172922 0.0006338556 -0.0012709902 -0.0017074198 0.0015232615 0.0036593382 -0.0037288792 0.0013675289 0.0008592737 0.0024175025 0.0038962981 -0.003845411 0.0013570348 -0.0014362951 -0.0023210263 -0.001234005 -0.0022924317 -0.0001720384 0.0033605818 -0.0012123747 0.0011633342 -0.00022015153 -0.0015483481 -0.00059768057 -0.002865084 0.0035350716 -0.00060101063 0.003066036 -0.0017913117 0.002687506 0.0026200714 0.0012730615 0.00076778035 8.962748e-05 -5.207857e-05 -0.00089346507 -0.00048715132 -0.0012909301 -0.00086642586 0.0016150109 0.0028232508 0.002087391 -0.00024285066 0.0003078513 0.0016038708 -0.0028519102 0.00085030525 0.0037521655 0.0020804813 -0.00105353 -0.00097412703 -0.0020720595 0.00034521252 -0.0011883114 0.0002783939 0.0004882476 0.002227245 -0.00026674048 0.0014472235 0.0002714832 -0.00057304243 0.0020186787 -0.0007843129 -0.0004747641 0.003162387
65 -0.09513272 -0.0016351318 0.0030902377 0.0037946212 0.0029597583 0.00038264468 0.0006317594 -0.0012792475 -0.0017141149 0.0015446098 0.0036725404 -0.0037271164 0.0013655211 0.00086591503 0.0024159767 0.0039080526 -0.0038396122 0.0013686027 -0.0014526306 -0.0023067384 -0.0012326291 -0.0022896803 -0.00018119937 0.003377215 -0.0012000673 0.0011543434 -0.0002300606 -0.0015407724 -0.0005896627 -0.0028599177 0.0035435492 -0.000595764 0.0030889336 -0.0018021108 0.0026943989 0.0026278084 0.0012622102 0.00077052217 8.518533e-05 -5.0108578e-05 -0.00090299145 -0.00048790366 -0.0012974447 -0.00087806094 0.0015980364 0.0028365375 0.0020833006 -0.00024559692 0.00030739585 0.0015951034 -0.002860742 0.00083821174 0.0037526663 0.0020854978 -0.0010524349 -0.0009662148 -0.0020691827 0.0003523195 -0.0011911284 0.00027400584 0.0004848797 0.0022217152 -0.00027317883 0.0014322526 0.00028405865 -0.00057313783 0.0020317195 -0.0007906731 -0.00047758076 0.0031556243
66 -0.09513259 -0.0016553843 0.0030883525 0.0038176803 0.0029688866 0.00040413518 0.00061844767 -0.0012599598 -0.0017018791 0.0015187846 0.0036652307 -0.0037313928 0.0013666819 0.00086109794 0.002411261 0.0038965084 -0.0038494822 0.0013447269 -0.0014249728 -0.0023354292 -0.0012383133 -0.002294878 -0.00016427106 0.003372809 -0.0012140209 0.0011597557 -0.0002070425 -0.0015685632 -0.0005849892 -0.0028676845 0.0035450687 -0.0006037947 0.0030685982 -0.0017892106 0.0026989356 0.0026183634 0.0012717512 0.00077071367 8.3826584e-05 -5.1761403e-05 -0.00089494936 -0.00047764077 -0.0012941207 -0.00086783175 0.0016124023 0.002823638 0.0020877793 -0.0002389667 0.000307189 0.0016076593 -0.0028581 0.00084152084 0.0037542933 0.002081189 -0.0010483379 -0.0009813049 -0.002076503 0.00034734228 -0.001183703 0.0002917693 0.00047960458 0.0022217229 -0.0002625357 0.0014408287 0.00027269448 -0.0005752092 0.002025745 -0.0007886365 -0.00047532015 0.003159728
67 -0.09488794 -0.0016911189 0.0030537385 0.0038194493 0.0029613108 0.00046443447 0.0006356768 -0.0012459691 -0.0016793617 0.0014597325 0.0036158718 -0.0037377824 0.0013726659 0.0008406092 0.002418061 0.003859379 -0.003864179 0.0013142365 -0.0013839315 -0.0023744109 -0.001237344 -0.0023050257 -0.00014223902 0.0033132914 -0.0012542176 0.0011861372 -0.00018757106 -0.0015803562 -0.0006166703 -0.0028875335 0.0035127117 -0.00061654707 0.0029970584 -0.0017631913 0.002667277 0.0025988603 0.0013097238 0.0007611551 0.00010322471 -6.178966e-05 -0.0008663451 -0.00048199945 -0.0012730814 -0.00083358894 0.001668326 0.0027810931 0.0021028891 -0.00023345347 0.00031421205 0.0016338549 -0.0028275074 0.0008828166 0.0037489436 0.0020665731 -0.0010556799 -0.0010018166 -0.0020803842 0.00032558458 -0.0011750514 0.00029657257 0.00049311284 0.002237868 -0.00024546467 0.0014903048 0.00023423677 -0.00057536794 0.0019776828 -0.00077255256 -0.00046380304 0.0031823958
68 -0.09479434 -0.0017020727 0.0030434495 0.0038148295 0.0029592314 0.00048327018 0.0006446378 -0.0012430932 -0.0016735534 0.001440722 0.0036003396 -0.003739656 0.0013757593 0.0008333894 0.0024216757 0.0038490593 -0.0038664872 0.0013081594 -0.0013727812 -0.0023841036 -0.0012379823 -0.0023069042 -0.00013415748 0.0032941012 -0.0012666301 0.001196449 -0.00018372804 -0.0015820606 -0.0006283458 -0.0028933978 0.0034990094 -0.00062228815 0.0029745128 -0.0017545591 0.0026557567 0.0025936086 0.0013215393 0.00075716886 0.00010953073 -6.558023e-05 -0.0008585085 -0.00048453675 -0.0012655961 -0.0008222882 0.0016870215 0.0027691524 0.0021074817 -0.00023275182 0.0003141977 0.0016401351 -0.0028147092 0.0008975143 0.0037481629 0.0020634646 -0.0010575923 -0.001007202 -0.0020804997 0.000319535 -0.0011728355 0.00029485358 0.0004978982 0.0022449726 -0.00024074646 0.0015092682 0.00022467345 -0.0005767985 0.0019624855 -0.0007652549 -0.0004598244 0.0031889651
69 -0.09534865 -0.0015522874 0.0031276578 0.0037335025 0.0029473193 0.00026896643 0.00064212753 -0.0013414725 -0.0017690567 0.0016645264 0.0037439042 -0.003703915 0.0013539158 0.0008982742 0.0024195544 0.003972478 -0.0037971623 0.0014628439 -0.0015569911 -0.0021930635 -0.001222004 -0.0022670038 -0.00024287736 0.0034445887 -0.0011251381 0.0011150062 -0.0003124783 -0.0014591973 -0.000573326 -0.0028230622 0.003564709 -0.0005631223 0.0032082624 -0.0018563961 0.0027100076 0.0026677633 0.001201842 0.00077915005 6.9961e-05 -3.2382384e-05 -0.0009493822 -0.0005009722 -0.0013175703 -0.00093690504 0.0015054246 0.0029116757 0.0020599316 -0.00026629446 0.00030183388 0.0015401789 -0.0029016421 0.0007893543 0.0037579364 0.0021091448 -0.001056648 -0.0009060102 -0.0020492873 0.00038444507 -0.0012184712 0.00022159738 0.00048497893 0.0022068082 -0.0003135196 0.0013635404 0.0003459853 -0.0005650165 0.0020933356 -0.00080623623 -0.00049605785 0.0031264136
70 -0.0938887 -0.0017819259 0.0030861134 0.0039498606 0.0030740732 0.0008133742 0.00062007655 -0.0010962052 -0.0014167135 0.0011627196 0.0035095909 -0.0037292112 0.0014677616 0.00073961174 0.0023207772 0.0037548752 -0.0039967443 0.0012105386 -0.0010764657 -0.0027083675 -0.0011900163 -0.0022604605 -3.278869e-05 0.0030764996 -0.0015911928 0.0013644468 -3.8483267e-07 -0.0019600186 -0.0005351746 -0.0030807352 0.0034618552 -0.00086363306 0.0026082965 -0.0015103153 0.0025200748 0.0024314509 0.0014915385 0.0008675498 0.00020725356 -2.6028587e-05 -0.0007102677 -0.00045857075 -0.001179219 -0.0006791312 0.0016833572 0.0026231688 0.0022221385 -0.00020676831 0.00036838002 0.0018175337 -0.0027971708 0.00095111236 0.0037357286 0.0019541322 -0.0010013359 -0.001092004 -0.0021487626 0.0003306978 -0.0010764493 0.0005534581 0.00041549822 0.0022586382 5.1195937e-05 0.0016781865 0.00010855686 -0.0004932446 0.0017127141 -0.00079711596 -0.00045998694 0.003354656
