74 74
0 1.0 1.0 1.0 1.0 1.0 1.0 1.0 1.0 1.0 1.0 1.0 1.0 1.0 1.0 1.0 1.0 1.0 1.0 1.0 1.0 1.0 1.0 1.0 1.0 1.0 1.0 1.0 1.0 1.0 1.0 1.0 1.0 1.0 1.0 1.0 1.0 1.0 1.0 1.0 1.0 1.0 1.0 1.0 1.0 1.0 1.0 1.0 1.0 1.0 1.0 1.0 1.0 1.0 1.0 1.0 1.0 1.0 1.0 1.0 1.0 1.0 1.0 1.0 1.0 1.0 1.0 1.0 1.0 1.0 1.0 1.0 1.0 1.0 1.0
1 -0.60353893 0.54440445 -0.73982656 -0.7961666 -0.06851828 -0.35911477 -0.66882116 -0.8442251 0.16521248 -0.23426723 0.74690884 0.3335124 -0.8221558 -0.43385977 -0.0072726607 -0.5752517 0.08676185 0.36371377 -0.9063075 0.7685202 0.8098669 0.29758772 0.49422404 -0.95536655 -0.6734116 0.20523128 0.4524055 0.6565602 0.025891868 0.6149386 -0.03971851 -0.8395449 -0.08033414 0.7080958 0.7079763 -0.83141655 0.25578272 0.99131083 0.46285436 -0.75085366 0.9348888 0.3977768 0.23440859 -0.9508399 0.7433921 0.16879284 0.5952914 -0.3575625 -0.09893201 0.38799474 -0.5681256 0.64906037 -0.37016755 0.49250403 0.80291426 -0.9765383 0.1705371 0.059025854 -0.34285098 -0.52708197 0.11731105 -0.7654959 0.79409254 -0.94429886 0.20830464 -0.5057747 0.08497576 0.90738183 -0.043775737 -0.09292485 -0.71871287 0.79476154 -0.7963085 -0.44558567
2 -0.4869163 0.5111758 -0.7664146 -0.76466477 -0.031263888 -0.6028818 -0.66854495 -0.67684036 -0.2256085 -0.37715065 0.90163994 0.3141728 -0.79700416 -0.54051805 0.3690492 -0.28628477 0.22286357 0.15204336 -0.8917478 0.37823582 0.92866355 0.2890831 0.49284503 -0.9713067 -0.6412455 0.6153576 0.30918595 0.6631036 0.35443014 0.7874153 0.15846452 -0.86076593 0.051704943 0.4042017 0.80783033 -0.8578122 0.20186941 0.99604267 0.37328467 -0.9684747 0.9513689 0.7014391 0.060001306 -0.95291233 0.8543271 -0.13985863 0.45814598 -0.17338887 -0.2843261 0.61066765 -0.6482409 0.76913387 -0.28886157 0.4500348 0.31731403 -0.9783656 0.675486 0.39018297 -0.41453132 -0.5708195 0.17311737 -0.6176567 0.8299541 -0.95435643 -0.18806034 -0.47903088 -0.1124665 0.86713743 0.27272218 0.4016313 -0.8391413 0.79121244 -0.7118637 -0.4644873
3 -0.6153663 0.6758051 -0.8399634 -0.8706042 -0.14076911 -0.7698174 -0.63577235 -0.7572603 0.09900212 -0.23700556 0.77917755 -0.054031894 -0.8443416 -0.49109674 0.2613302 -0.10909902 -0.18002987 -0.0039177835 -0.85165024 0.8106062 0.87680197 0.58591986 0.59711295 -0.9550172 -0.7032899 -0.4205879 0.42663214 0.74428314 -0.18681875 0.47359464 -0.17530836 -0.811992 -0.018622994 0.51828486 0.6909784 -0.8281907 0.17084748 0.9778924 0.6687668 -0.9014874 0.9515588 0.6421485 0.01102646 -0.8464939 0.83355206 0.35162303 0.45002505 -0.2578159 -0.4476907 0.38821504 -0.89211303 0.6881845 -0.25017434 0.063568264 0.755222 -0.9771917 0.27818352 0.28372663 -0.05918884 -0.34252873 0.52489454 -0.73537916 0.6540688 -0.95761096 0.15175019 -0.2880896 -0.1830686 0.86304957 -0.03451877 0.50511765 -0.5615279 0.62288857 -0.7108777 -0.14222497
4 -0.45843926 0.6366701 -0.5498119 -0.84565264 0.13710657 -0.69439065 -0.7464454 -0.70684737 -0.21239784 -0.45723698 0.91542953 0.2946034 -0.8706587 -0.3083598 0.3673853 -0.49822947 0.25711542 -0.03501113 -0.827317 0.7284175 0.9171876 0.2055243 0.4928498 -0.96744204 -0.74928975 0.34506828 0.48667493 0.6311035 -0.114967555 0.7410052 0.30980337 -0.8720949 -0.11192697 0.50409484 0.62189925 -0.8384642 0.12520179 0.9950831 0.3460489 -0.8486193 0.94535476 0.61942625 0.2464619 -0.96113086 0.77444625 0.12516463 0.33820164 -0.029594965 -0.118394315 0.7069516 -0.5571162 0.7318495 -0.30863214 0.2676473 0.17502743 -0.9652486 0.79602164 0.4050898 -0.07582603 -0.53003865 0.51778716 -0.718202 0.6783297 -0.9570662 -0.14897326 -0.29458916 -0.19032863 0.8535468 0.28329062 0.10727418 -0.73851836 0.73976856 -0.6264613 -0.6214032
5 -0.43490294 0.45396626 -0.76651156 -0.7691988 -0.12386325 -0.546151 -0.62713593 -0.77668256 -0.2413952 -0.28456253 0.9242457 0.619522 -0.7333081 -0.2444089 0.21616983 -0.26627946 -0.055689603 0.14555486 -0.9126684 0.4522065 0.81928635 0.49827188 0.4745618 -0.94360524 -0.6702342 0.33695626 0.49032462 0.72422594 0.5167884 0.57532597 0.18203387 -0.7922713 -0.17782497 0.744569 0.18989244 -0.81844705 0.2256365 0.9882357 0.42838877 -0.897966 0.92188656 0.6111661 0.27194652 -0.9623414 0.73897344 0.16994217 0.31497443 0.49184766 0.08562411 0.43367994 -0.74810046 0.5339178 -0.4803966 0.2565321 0.11492848 -0.9720681 0.6281265 0.28128088 -0.1834299 -0.37668154 0.68772155 -0.87396884 0.729408 -0.95881194 0.07617368 -0.108217426 -0.3433031 0.87284887 -0.19413906 0.57439417 -0.6964335 0.8510405 -0.19122127 -0.6219844
6 -0.34443998 0.43169177 -0.772142 -0.8420665 -0.19822803 -0.70029414 -0.4928754 -0.7456955 0.12336163 -0.22345003 0.920614 0.42261755 -0.5425637 0.046792224 0.29429 -0.4217804 -0.14479433 -0.22792049 -0.90594465 0.38934526 0.7415488 0.4678117 0.55933064 -0.9583181 -0.5918335 -0.18974254 0.45862174 0.5317632 0.302971 0.6433713 0.15095527 -0.86233544 0.08867341 0.45683783 0.36132523 -0.7993618 0.10843089 0.9697496 0.36169955 -0.9055969 0.9268515 0.8195305 -0.039059162 -0.8732505 0.8918757 0.24639593 0.2730034 -0.19517493 0.07701069 0.14453836 -0.83624387 0.6096542 -0.37993753 0.2680413 0.47806036 -0.96608883 0.8348363 0.31974018 -0.44240746 -0.40444422 0.65852183 -0.78484696 0.6446852 -0.9601926 0.05825201 0.48754433 -0.16975465 0.88154894 -0.2878408 0.519474 -0.5597835 0.8516302 -0.8667308 -0.48441154
7 -0.59098285 0.56893414 -0.8583829 -0.90805674 0.44455904 -0.6061272 -0.74617225 -0.77559066 0.017717184 -0.31522202 0.8818758 0.34405372 -0.75949866 -0.08697951 0.327075 -0.41178626 -0.102550775 -0.27530143 -0.9349929 0.48474038 0.83046 0.36036146 0.43570185 -0.96687794 -0.72699684 0.29982895 0.36975807 0.80253124 0.15850496 0.7143067 0.05752459 -0.77156997 -0.1359331 0.56699765 0.8214606 -0.893035 0.23214233 0.99483836 0.532025 -0.9307538 0.94376385 0.7317276 0.04609409 -0.9531236 0.85953176 0.37440717 0.5128879 -0.4752371 -0.23849714 0.13172734 -0.74204713 0.72828984 -0.32410568 0.39853847 0.34969637 -0.9676192 0.7923772 0.43957 -0.39190435 -0.4644919 0.32965186 -0.77879685 0.7343258 -0.94656247 -0.10115538 -0.39510554 -0.034765303 0.9018637 0.44755074 0.5505684 -0.6405997 0.71109015 -0.7165461 -0.593724
8 -0.49840546 0.66411525 -0.824919 -0.8568151 0.15808097 -0.33284396 -0.6316486 -0.8289533 0.283114 -0.1239822 0.8584923 0.45047718 -0.7514705 -0.57785004 0.12469819 -0.2662118 -0.18611583 0.11583696 -0.94955826 0.7058953 0.8641242 0.2712902 0.48246333 -0.9399706 -0.66395444 0.3954475 0.21151744 0.7895958 -0.055419847 0.7259373 0.17448428 -0.8230027 -0.03834846 0.60866076 0.6736304 -0.80769247 0.12752251 0.9867612 0.38550675 -0.94251484 0.92947406 0.47506076 -0.007879667 -0.9537295 0.8264607 0.24920729 0.5269927 -0.33569118 -0.21725848 0.6335266 -0.7384848 0.7162291 -0.3742479 0.37669486 0.74001235 -0.96773005 0.30923423 0.21083623 -0.18376738 -0.5405052 0.260485 -0.66851854 0.73183674 -0.9357114 0.13811675 -0.36070138 -0.028473362 0.84896314 0.16474421 0.6868525 -0.52958286 0.6965935 -0.50992215 -0.34566116
9 -0.5291761 0.45464745 -0.7980992 -0.8375674 0.037205905 -0.6112235 -0.6716055 -0.73417175 -0.12841964 -0.25803715 0.932634 0.36801463 -0.75435287 -0.6202064 0.4807695 -0.5609896 0.008790687 -0.08971346 -0.91452575 0.6361936 0.8990954 0.39349866 0.55036014 -0.96227753 -0.7351707 0.12595999 0.4777874 0.6064523 0.43723306 0.76361793 0.3241796 -0.8135927 0.122582965 0.57036644 0.35409468 -0.8418808 0.22181971 0.9887475 0.4243186 -0.9647713 0.9063106 0.5019001 0.051086828 -0.96098346 0.8710348 0.4072078 0.390466 0.33647504 -0.24606977 0.6684268 -0.5058573 0.607805 -0.23385414 0.37428278 0.6454773 -0.9626002 0.8723572 0.28961152 0.064212345 -0.46580315 0.19663431 -0.5684311 0.54884684 -0.95515007 -0.29208428 0.48899585 -0.2691885 0.8454028 -0.11029518 0.7156709 -0.6760412 0.7880638 -0.5515194 -0.63405323
10 -0.53788507 0.65301555 -0.7939817 -0.82720745 0.08502257 -0.5198049 -0.6564296 -0.7895207 0.035020515 -0.15763861 0.87183523 0.38521597 -0.8006748 -0.34724477 0.009531617 -0.4691017 -0.18363422 0.18977585 -0.93333566 0.8639671 0.8795454 0.37754238 0.44898105 -0.90474856 -0.66746694 0.18119581 0.4285662 0.84234214 0.28051993 0.6529234 0.0200889 -0.79371893 0.0046785176 0.76112175 0.4537793 -0.83753103 0.18783882 0.97316635 0.63007784 -0.9270207 0.94391376 0.58669364 0.054728433 -0.9367969 0.8475735 0.07054868 0.5537883 0.33355904 0.014577556 0.7335858 -0.7261722 0.6723216 -0.3539824 0.5674845 0.6412944 -0.94942397 0.6104975 0.15820417 -0.2709334 -0.5673499 0.6414665 -0.5399175 0.39048624 -0.9335737 -0.20366247 -0.2048069 -0.1321351 0.8245992 -0.25686264 0.5061955 -0.5670197 0.7075682 -0.42433232 -0.40351677
11 -0.49127182 0.647457 -0.859658 -0.8645004 0.06974971 -0.67770195 -0.69311136 -0.85142404 -0.006237723 -0.2638336 0.914656 0.48589784 -0.7792383 -0.44468328 0.3780778 -0.55151117 -0.21139953 -0.13400039 -0.90140283 0.76667404 0.89463544 0.3192282 0.16610993 -0.9526682 -0.77336437 0.23957866 0.389508 0.79300225 0.023824863 0.70569956 0.15002324 -0.81758237 0.013948232 0.65786546 0.64837706 -0.8143134 0.17605427 0.9891918 0.45855513 -0.9453748 0.93777406 0.22555733 -0.073843956 -0.9562611 0.8424065 0.12271114 0.17496414 0.14295146 -0.19666591 0.45156747 -0.7948964 0.6396822 -0.34647435 0.61434424 -0.21583545 -0.9639988 0.8009324 0.31406417 -0.32336116 -0.39020962 0.45757574 -0.65454876 0.5503451 -0.95855725 -0.20938022 -0.23946792 0.04226485 0.9118732 0.13771053 0.23541088 -0.63257444 0.7411505 -0.7010304 -0.6727981
12 -0.5576855 0.47631738 -0.7413745 -0.79388696 0.19039032 -0.5923197 -0.5898793 -0.7735084 -0.032761097 -0.25250074 0.8650663 0.32376897 -0.88659036 -0.606119 0.29955935 -0.54691243 0.10542095 -0.007424943 -0.8991692 0.5807951 0.9249168 0.19647637 0.36452556 -0.9537054 -0.5735997 0.14087515 0.5600156 0.67067176 0.04445421 0.82863265 0.116499454 -0.8482652 0.18453701 0.61574423 0.7105224 -0.8696808 0.3027502 0.99474305 0.41052777 -0.9017709 0.9380464 0.65583134 0.16436198 -0.9484213 0.84365606 0.41744417 0.50560504 -0.31138918 -0.20746249 0.485518 -0.29790732 0.73796326 -0.3116049 0.41415635 0.32300246 -0.97416884 0.83626854 0.3741945 -0.28574562 -0.5287911 0.50679135 -0.82508314 0.7054791 -0.96331346 -0.44124344 -0.08172382 -0.12024735 0.88693726 0.02741551 0.30534136 -0.582654 0.8180969 -0.9171982 -0.5336338
13 -0.24928106 0.59828514 -0.81556064 -0.8007867 0.01423388 -0.269921 -0.53464156 -0.88721806 0.18285868 -0.41085532 0.9058582 0.5832131 -0.7967135 -0.5378735 0.26664048 -0.43566954 -0.16080093 0.32217377 -0.9431116 0.749863 0.8056563 0.51134974 0.4641702 -0.92318577 -0.79566675 0.31520027 0.334911 0.7267717 -0.03416951 0.7016014 -0.12033644 -0.81079924 0.032740936 0.5622469 0.6241797 -0.85141873 0.14926416 0.9695359 0.6584917 -0.96858495 0.9531597 0.35514444 -0.0065863132 -0.9255125 0.8210839 -0.40869546 0.42903617 0.04594184 0.17287329 0.61074626 -0.7702064 0.6501903 -0.388115 0.4150108 0.7658284 -0.9402293 0.33087295 0.21719073 -0.51567453 -0.5439799 0.75143576 -0.5328032 0.825941 -0.95426357 -0.21180344 -0.14508933 0.09962371 0.8233698 -0.24550171 0.02405516 -0.44644836 0.7362061 -0.41299853 -0.2239812
14 -0.596225 0.42508447 -0.9045252 -0.79572594 -0.015264362 -0.6443752 -0.5979305 -0.7718302 -0.254858 -0.31128877 0.9215705 0.40580493 -0.7818847 -0.601246 0.35095656 -0.100203544 -0.10413222 0.17017867 -0.9662696 0.6490089 0.93103284 0.46178293 0.252829 -0.96090865 -0.7666835 0.52589947 0.4145696 0.76907057 0.24817689 0.6980996 -0.122876644 -0.8029533 0.020713389 0.5501673 0.5772603 -0.8397178 0.48452383 0.98701614 0.52013624 -0.91498387 0.9580715 0.45983422 0.34678018 -0.9336286 0.79520786 0.35311684 0.6437423 0.29200575 0.08319851 0.62777513 -0.43573555 0.7229327 -0.2854154 0.06281946 0.746337 -0.9703257 0.76551396 0.32614052 -0.20248796 -0.43887824 0.25500378 -0.8529523 0.76244926 -0.9829268 -0.3063834 -0.25380147 -0.50204325 0.9033686 -0.2838979 0.6219743 -0.56702703 0.7446002 -0.53897727 -0.557579
15 -0.29012418 0.62366426 -0.73017275 -0.87699413 0.02851206 -0.7644489 -0.6907335 -0.83067906 -0.12070346 -0.346208 0.88880074 0.43633372 -0.85504293 -0.6329781 0.39467865 -0.24423327 0.20998108 -0.08281459 -0.89959633 0.7586198 0.7807263 0.39237565 0.32916024 -0.9459899 -0.69621515 0.07836009 0.17806664 0.77105165 -0.23672205 0.72782135 0.11229038 -0.8510978 0.07931956 0.77498317 0.8250124 -0.74419147 0.15578146 0.98666984 0.41138622 -0.94691694 0.94151044 0.39058548 0.5640631 -0.87938654 0.87219673 0.036984768 0.29306197 -0.1194769 0.25559664 0.118545294 -0.7916736 0.6224103 -0.3248046 0.26915208 -0.017227463 -0.97278684 0.87587523 0.27923018 -0.6259808 -0.6101766 0.44503415 -0.82741976 0.68997693 -0.9590339 0.0906691 0.23591109 -0.07642357 0.9091227 0.06223101 0.51297605 -0.75004673 0.73826444 -0.7931967 -0.55759424
16 -0.3211108 0.61116886 -0.7089767 -0.8266579 0.04194396 -0.8304491 -0.6687727 -0.7681755 -0.07314563 -0.39046863 0.8989787 0.3756408 -0.86693525 -0.16263326 0.18966915 -0.05760766 0.24293706 -0.14491814 -0.88390774 0.38895637 0.9111671 0.42976558 0.4424449 -0.9622063 -0.6469946 0.50789756 0.42597464 0.8823189 0.29241285 0.78178 0.63759845 -0.8288373 -0.07813963 0.6004931 0.6365639 -0.81834555 0.07445304 0.99708915 0.30745155 -0.9263558 0.9501112 0.7437495 0.29424143 -0.8862068 0.82695305 0.0038047954 0.2121034 -0.05519198 -0.15958846 0.5396205 -0.73891175 0.70887554 -0.34799734 0.04288565 0.25087705 -0.95171595 0.82788414 0.3285582 -0.5224681 -0.6535342 0.5126238 -0.8554759 0.817747 -0.9437403 0.09423974 -0.37926695 -0.23626389 0.8992939 0.3450387 0.6400558 -0.71565527 0.81886625 -0.6501508 -0.64425814
17 -0.3094042 0.58374584 -0.6967074 -0.8179593 0.173336 -0.7216772 -0.68046206 -0.8150189 -0.11392671 -0.31459254 0.89090264 0.3243667 -0.9000235 -0.3389683 0.2619176 -0.43969592 0.21532902 -0.16461714 -0.9050892 0.5957619 0.93339235 0.103107005 0.3078859 -0.9543365 -0.6557326 0.19292678 0.41478857 0.70595384 0.5627698 0.7725272 0.18419592 -0.85381776 -0.03876868 0.7030357 0.6785443 -0.81661874 0.081024125 0.9913717 0.35825464 -0.8734096 0.9401019 0.5537456 0.30823237 -0.9617701 0.8383652 0.16264768 0.42383775 -0.15027854 0.07343499 0.5903637 -0.77383053 0.7183982 -0.2594526 0.12574245 0.46620858 -0.9744285 0.74936634 0.44474655 -0.3492962 -0.57763124 0.3393539 -0.7778264 0.6899823 -0.9333451 -0.21996647 0.25681213 0.048707366 0.86469436 0.19477138 0.6403403 -0.71830904 0.7819145 -0.79723626 -0.6387317
18 -0.46174234 0.6400045 -0.57957053 -0.84636223 0.09444641 -0.7913477 -0.6782935 -0.7393719 -0.20322585 -0.34254876 0.7962835 0.22988518 -0.8521317 -0.53408015 0.41447103 -0.5584124 0.22715478 -0.17958412 -0.8988635 0.4796907 0.92834973 0.15294275 0.2776634 -0.963937 -0.5890383 0.026158355 0.34191298 0.76542085 0.26747692 0.80484116 0.19038999 -0.85438496 0.0027541071 0.4956497 0.8220598 -0.87298113 0.1394588 0.9971387 0.43812072 -0.7276105 0.93803316 0.67835665 0.22865702 -0.94560796 0.8583552 0.12692139 0.2477242 -0.65398365 -0.22850363 0.1874356 -0.79245764 0.6850552 -0.26015764 -0.07750429 0.5306388 -0.9761147 0.7602039 0.3466863 -0.37740305 -0.53294045 0.49267897 -0.83974224 0.81269884 -0.9442151 -0.050867118 -0.41481933 0.08309695 0.8878143 0.36931905 0.03157254 -0.66100013 0.72504187 -0.8529598 -0.3651369
19 -0.71575457 0.57675624 -0.92241204 -0.7971809 0.25348237 -0.73730975 -0.790059 -0.85436296 -0.121114634 -0.3796512 0.8941595 0.36221233 -0.79676807 -0.59365356 0.2572176 -0.50795704 -0.0004003942 -0.065560505 -0.9408768 0.83222634 0.9153531 0.37179846 0.10056251 -0.9672795 -0.67772067 0.5768962 0.07252849 0.7864859 0.49531657 0.71389616 -0.019661948 -0.81909734 -0.23229331 0.7238973 0.682839 -0.8471003 0.122903496 0.9953553 0.54444957 -0.88995075 0.94651437 0.34614804 0.180035 -0.908815 0.8887683 0.1296854 0.44852352 0.3530726 0.052547235 0.05368203 -0.49550855 0.6434794 -0.40077808 0.50737244 0.26980615 -0.9691257 0.7732723 0.2904059 -0.47980684 -0.5005504 0.33087528 -0.34763134 0.6873815 -0.96483177 0.13121659 -0.13354799 -0.03613387 0.88316256 0.1451313 0.34672728 -0.66305494 0.85709816 -0.67832524 -0.64561135
20 -0.4928875 0.68358797 -0.85714924 -0.80814934 0.14452404 -0.34618512 -0.6630517 -0.8476513 0.071352005 -0.19450329 0.79823166 0.41085237 -0.7694621 -0.2807549 0.12681103 -0.52813375 -0.12804207 0.089037344 -0.95241493 0.76957583 0.84232765 0.40733626 0.50741965 -0.9503707 -0.7125625 0.12323191 0.2511338 0.75351095 -0.11228443 0.53484297 -0.2487326 -0.75254947 -0.0961446 0.2089039 0.68843985 -0.8608644 0.3072737 0.979421 0.65447503 -0.9566353 0.94784325 0.44613928 0.18640932 -0.92145026 0.813739 -0.0058638006 0.29080436 -0.25144666 -0.2063756 0.51700586 -0.80205375 0.6748594 -0.36063606 0.4943554 0.5614593 -0.9633214 0.15780143 0.18939632 -0.51491624 -0.371646 0.31050223 -0.39263886 0.63462377 -0.9536251 0.11937248 -0.5837821 0.03395143 0.85935163 -0.26439396 -0.10110005 -0.6328823 0.6915258 -0.5300877 -0.16868106
21 -0.64862293 0.48079833 -0.74571073 -0.81492037 0.090518266 -0.6168779 -0.55451584 -0.8566973 -0.16025738 -0.27295333 0.91418254 0.52120626 -0.63298386 -0.2869928 0.29690155 -0.24933735 -0.19579782 -0.023270113 -0.92716515 0.4881698 0.7096835 0.6046898 0.50659204 -0.92053527 -0.76737857 0.33257943 0.51077604 0.7198636 0.32906818 0.6995887 0.11826104 -0.80693704 -0.08980514 0.7065137 0.6523466 -0.8572785 0.1766072 0.9862834 0.51240367 -0.9250069 0.9320468 0.5911269 0.048707753 -0.9735124 0.71327597 -0.20643292 0.3240041 0.14237283 0.062076375 0.52812284 -0.8281925 0.55701315 -0.33951765 0.6177423 0.54631066 -0.9750623 0.4842357 0.30574474 -0.57143515 -0.48810536 0.648931 -0.81444216 0.40070522 -0.9449397 0.03533654 -0.3383016 -0.06032202 0.8008369 -0.04524614 0.2190956 -0.73724276 0.5732141 -0.7132863 -0.54494244
22 -0.623337 0.5495295 -0.7859522 -0.7899699 -0.111985296 -0.69708556 -0.7664282 -0.7827705 0.004628569 -0.17185783 0.8748275 0.19238305 -0.7054108 -0.4302283 0.17729793 -0.3015086 -0.12823118 -0.2365639 -0.8452069 0.60217947 0.8765053 0.5905635 0.59635526 -0.9631354 -0.7008171 0.01834359 0.48158464 0.7339334 -0.011859842 0.5190221 0.27259806 -0.74672186 -0.15109304 0.37957743 0.65304375 -0.78288364 0.07055964 0.966858 0.5782397 -0.91425735 0.8863026 0.5880507 0.4784289 -0.864008 0.829847 0.4001506 0.16846542 0.056290813 -0.13819467 0.43895894 -0.61430985 0.4870711 -0.49549705 0.10888513 0.33774513 -0.97037125 0.6680874 0.12499192 -0.30954662 -0.40551198 0.6002847 -0.8454962 0.51062614 -0.91113544 0.17796993 -0.43367937 -0.24108872 0.8793396 -0.05298066 0.3592444 -0.77323574 0.75830775 -0.7806036 -0.495628
23 -0.5755768 0.46355727 -0.76347864 -0.75341237 0.050396636 -0.38976985 -0.5309304 -0.7709796 0.13203019 -0.3262291 0.87851727 0.30226633 -0.85278314 -0.51513165 0.07950312 -0.38883534 0.021069437 -0.15828547 -0.8399101 0.5548188 0.83674115 0.4266065 0.3675756 -0.9394629 -0.71411794 0.13549705 0.41277137 0.75214875 0.50401324 0.70639795 0.036691517 -0.8416522 -0.10881082 0.4114179 0.56734097 -0.73184866 0.12724622 0.98245305 0.24905375 -0.90020585 0.84205806 0.7711471 -0.04174161 -0.9597554 0.9112943 0.23402745 0.53692305 -0.00033281744 0.23655295 0.4318542 -0.72372144 0.48305959 -0.2853554 0.39514828 -0.0027723163 -0.9614926 0.42607763 0.20825003 -0.34260616 -0.5754867 0.22000825 -0.67225987 0.45437506 -0.887423 0.01380682 0.08507058 0.119912416 0.8221824 0.40551394 0.57792735 -0.61292624 0.6789602 -0.8345521 -0.52279115
24 -0.6386261 0.29238325 -0.8314783 -0.84668493 0.36008105 -0.62869114 -0.73090196 -0.7775774 0.19624919 -0.3794257 0.70520514 0.32067868 -0.9029967 -0.68971676 0.10511191 -0.42896083 -0.02319789 0.14547765 -0.92129415 0.58954465 0.8098569 0.5071445 0.38170576 -0.9582324 -0.65678555 0.034491945 0.57631546 0.7337272 -0.27310786 0.76016116 0.2828551 -0.85042614 -0.11398753 0.6460601 0.72767603 -0.8877909 0.112668574 0.9827026 0.6315682 -0.8524074 0.9468499 0.72634274 0.24634422 -0.9167487 0.87472063 0.5177742 0.6466851 -0.5106355 -0.50273436 0.62434715 -0.5458012 0.76743305 -0.36230326 0.44624078 0.5920142 -0.97520494 0.5905174 0.24040648 -0.37079576 -0.451362 0.26715043 -0.8738686 0.7623348 -0.9523311 -0.14447108 -0.40843755 -0.317107 0.8587906 -0.22435522 0.35836676 -0.48729685 0.8515965 -0.8721052 -0.43678695
25 -0.3819996 0.48824534 -0.7789518 -0.88005984 0.17410687 -0.52794385 -0.64478123 -0.7916708 0.3870549 -0.1980054 0.8837181 0.5353248 -0.82464886 -0.32994255 0.14401725 -0.5664508 -0.2407062 0.18808003 -0.9087006 0.82234794 0.7949355 0.4019134 0.5500412 -0.9307198 -0.6844673 -0.114597194 0.53869146 0.5610271 0.004549086 0.69734657 0.026029944 -0.8000451 0.020768493 0.6687162 0.43463907 -0.7989569 0.1965709 0.96413165 0.61797893 -0.92984706 0.9177381 0.41915947 -0.09182161 -0.938909 0.8683686 0.12898701 0.6552942 0.18076684 0.121295795 0.48451328 -0.5647533 0.62674135 -0.47866273 0.754994 0.6246865 -0.96445495 0.5548335 0.20868444 -0.04030208 -0.50068516 0.28290528 -0.21655124 0.6107324 -0.93937534 -0.3396823 -0.04104665 -0.045808382 0.83782136 -0.08753346 0.20835607 -0.48595938 0.74336743 -0.7967913 -0.33028266
26 -0.42885017 0.57529855 -0.8040632 -0.8834573 0.12710077 -0.58860004 -0.683968 -0.79900897 -0.041553758 -0.051409602 0.8950797 0.6011642 -0.8019176 -0.59134 0.4262862 -0.7002829 -0.072274186 -0.19529335 -0.9443508 0.82422113 0.91279674 0.279623 0.2872976 -0.9596718 -0.5909775 0.5149754 0.56955343 0.76178795 0.332621 0.65809345 0.019979626 -0.7817455 -0.14399466 0.7195054 0.5543665 -0.8577328 0.28925067 0.99168634 0.5689334 -0.9034383 0.9339148 0.35262477 0.1311816 -0.9631848 0.843903 0.18972607 0.65364295 -0.0117315445 -0.222678 0.43219244 -0.44736835 0.6500989 -0.43001294 0.37816465 0.6287567 -0.9782049 0.78171015 0.28116834 0.02275614 -0.5431352 0.30228838 -0.7127891 0.78061444 -0.9576979 -0.3661859 -0.4038772 -0.1935612 0.8578255 0.120402485 0.23677872 -0.67572486 0.75455964 -0.4638128 -0.45611778
27 -0.65501136 0.7021573 -0.80677384 -0.8312343 0.011813447 -0.23611507 -0.71803725 -0.7794186 0.02448468 -0.26580125 0.7994685 0.09212874 -0.8516319 -0.009818347 0.1079712 -0.38986552 -0.112187356 0.43892956 -0.9204804 0.7096102 0.9180536 0.5220256 0.60469836 -0.9396309 -0.7564486 -0.10944327 0.27508864 0.6713747 -0.10946299 0.5457457 -0.20457491 -0.79046965 -0.039871335 0.4430126 0.6942376 -0.804899 0.26322165 0.98706406 0.516114 -0.93944 0.9500997 0.72767293 0.40867078 -0.9394275 0.5538061 0.08206344 0.41011757 -0.22916976 -0.26454347 0.24567953 -0.88175243 0.5937345 -0.34228805 0.41567725 0.5849959 -0.9756963 0.25981742 0.13834092 -0.4453222 -0.48534513 0.35090494 -0.5183288 0.66184354 -0.89175445 0.41613612 -0.4087339 0.021511443 0.8827354 -0.0906129 0.53791016 -0.7612693 0.5411399 -0.66329265 -0.43993253
28 -0.6405471 0.5909659 -0.7083217 -0.81824917 -0.002462238 -0.25617924 -0.7429888 -0.8424833 0.158324 -0.14079882 0.7582208 0.35465458 -0.8780116 0.029275559 -0.007502854 -0.42314768 0.071112 -0.04166495 -0.9324399 0.84796506 0.86008954 0.41543645 0.5355165 -0.9395029 -0.6506741 0.25539875 0.27753577 0.6589199 0.26123103 0.47822046 -0.26080394 -0.81902665 -0.20297998 0.6759268 0.6781555 -0.8286491 0.14804189 0.98869485 0.51120967 -0.867929 0.93960834 0.540692 0.32845253 -0.9505503 0.77587706 0.10577326 0.53134465 -0.11151753 0.015627116 0.5036129 -0.7688263 0.65030813 -0.31958234 0.22552088 0.74803 -0.9815673 0.24384883 0.16167729 -0.02758937 -0.46868333 0.40534142 -0.55499756 0.5508296 -0.91293997 0.28529015 -0.56076515 0.16402775 0.9031281 0.06375539 -0.06982821 -0.71456295 0.7634417 -0.796589 -0.5041418
29 -0.52950096 0.6305337 -0.80263656 -0.74381375 -0.03145407 -0.8240305 -0.67820275 -0.7204239 -0.49215037 -0.24271187 0.8473369 0.20342332 -0.7248331 -0.7635282 0.26718968 -0.09976201 0.13447733 -0.018473834 -0.8639699 0.6606026 0.90663415 0.36803547 0.44319373 -0.9555637 -0.75192094 0.25727418 0.24696544 0.71586514 0.4753228 0.7662103 0.035926312 -0.83043724 0.04486236 0.5263984 0.754529 -0.8764438 0.30109695 0.9948609 0.5040993 -0.90924054 0.95140845 0.5926661 0.13020639 -0.9482638 0.8409259 0.26702002 0.42468613 0.07851757 -0.019436084 0.38168132 -0.87063426 0.74859065 -0.3371688 0.44025 0.460939 -0.9623849 0.5586872 0.24199554 -0.3226441 -0.427332 0.33644179 -0.6755595 0.66756314 -0.9684336 -0.26175606 -0.52235824 -0.1815178 0.8728117 0.15090497 0.2585107 -0.77448046 0.6519 -0.6497712 -0.39349717
30 -0.5197214 0.6230109 -0.73840165 -0.8179886 0.08844137 -0.44712278 -0.66060805 -0.8032359 0.018289879 -0.31878096 0.8738307 0.43953893 -0.8578317 -0.38870975 0.2855784 -0.21060047 -0.072791845 0.1633846 -0.9388448 0.73461545 0.8761915 0.4375344 0.54414654 -0.91813016 -0.68810546 0.28181154 0.20309728 0.8105057 0.13303152 0.609263 0.10409206 -0.83410966 0.037822217 0.40577948 0.66382664 -0.8119932 0.20686434 0.98241895 0.51012385 -0.9529187 0.9460132 0.36738688 0.351519 -0.9468759 0.81480455 0.036014467 -0.060246214 -0.18973793 -0.14097288 0.54277587 -0.86753654 0.6710396 -0.3164647 0.42321736 0.45372277 -0.97025853 0.7496629 0.21928075 -0.572417 -0.52940166 0.595835 -0.63043785 0.5217374 -0.932858 0.20071816 -0.20641118 0.057781473 0.8300118 -0.17839804 0.5372073 -0.69894516 0.73779166 -0.49194646 -0.55463374
31 -0.5204753 0.014343478 -0.7507148 -0.82921284 0.11788583 -0.37881058 -0.53589994 -0.72259706 -0.12315795 -0.31025723 0.9230445 0.48078355 -0.82807285 -0.5466441 0.2456655 -0.0015834868 0.068785965 -0.02180423 -0.9348462 0.28079307 0.79030544 0.40905157 0.32791474 -0.9586221 -0.7023544 -0.014708713 0.39193338 0.72514606 0.14101072 0.727891 0.16166693 -0.82794785 0.124756575 0.63162947 0.46888968 -0.8568622 0.3108731 0.9540635 0.55895793 -0.84099203 0.93782043 0.75886554 0.30804464 -0.9346201 0.8438087 0.5063977 0.50112176 -0.25885242 -0.09907297 0.13166183 -0.7187124 0.7341577 -0.31631708 0.24402408 0.758809 -0.9747002 0.67792267 0.2894985 -0.4751252 -0.48051685 0.39915615 -0.92308486 0.5797014 -0.9360977 0.019997656 -0.03861832 -0.2932893 0.8840762 -0.18651307 0.7177749 -0.70553714 0.788528 -0.79284424 -0.6759149
32 -0.5224632 0.49867338 -0.9055488 -0.84492236 0.24500981 -0.4909588 -0.6357491 -0.8471331 -0.30236807 -0.3918178 0.9014723 0.42447558 -0.6727805 -0.367937 0.08053598 -0.480672 0.1464769 0.18709719 -0.9130328 0.6758574 0.90457416 0.27696323 0.19116683 -0.9708276 -0.72431207 0.4051552 0.53355443 0.71027845 0.23507833 0.7301514 0.16247927 -0.82364523 0.01662758 0.41458932 0.5109311 -0.8550626 0.20141515 0.9900123 0.3296224 -0.9258049 0.9410063 0.55299544 0.53724086 -0.92401046 0.73883 0.10802023 0.54549867 0.39839324 -0.0012256503 0.17109941 -0.48225158 0.75965244 -0.2760495 0.27616626 0.31923643 -0.97197837 0.83043265 0.4233525 -0.49548662 -0.3734225 0.23616666 -0.8668046 0.68304586 -0.9661485 -0.041846044 -0.6750625 -0.1744136 0.93727636 -0.18834215 0.14751765 -0.75372237 0.894487 -0.6565057 -0.7232956
33 -0.36912996 0.6147061 -0.68624 -0.8676054 -0.059563562 -0.6281188 -0.72827363 -0.7524842 -0.25393474 -0.35028177 0.8806165 0.2636563 -0.8222269 -0.62058395 0.25242287 -0.47570726 0.25628597 -0.019585446 -0.8422832 0.7310287 0.85962635 0.15754682 0.5137739 -0.9658469 -0.5488713 0.53131473 0.39749885 0.50815326 -0.001340881 0.6346411 0.38154203 -0.85752815 -0.10249801 0.70220923 0.7200404 -0.8317761 0.027831405 0.99577856 0.5241949 -0.8650253 0.94254655 0.45687354 0.31853378 -0.94468904 0.8306538 0.13516602 0.49451405 -0.23708105 0.10148677 0.48868605 -0.33471456 0.739695 -0.36972946 0.26957473 0.7808772 -0.9753794 0.6602208 0.28542724 -0.16721196 -0.47980234 0.2828353 -0.83727807 0.7226107 -0.92455965 -0.21464492 -0.20886436 -0.21534088 0.8982573 0.15553883 0.19353607 -0.84006536 0.70281476 -0.6040598 -0.60445225
34 -0.47525978 0.55292517 -0.6096961 -0.84439754 -0.33097216 -0.6455863 -0.6152491 -0.8422469 0.2564235 -0.18939996 0.869664 0.34434223 -0.7559401 -0.46569055 0.0040077865 -0.12410541 -0.1914022 0.1097599 -0.8233894 0.5399426 0.7342464 0.4074521 0.6537258 -0.9332848 -0.7218586 0.064419515 0.41020784 0.64409524 -0.008340716 0.6739125 0.3689806 -0.7968955 -0.034883052 0.68033594 0.5412499 -0.81749713 0.31730026 0.98987275 0.27226046 -0.886252 0.9265 0.53225195 0.040029027 -0.9374056 0.7590771 -0.04173182 0.4968609 0.011138901 0.05466076 0.49597514 -0.881093 0.6300447 -0.34691104 0.47638857 0.5099116 -0.97265154 0.41059616 0.12890923 -0.046104554 -0.36583388 0.2525205 -0.81657743 0.6496756 -0.93027955 -0.084055915 -0.13069448 0.080899 0.87474775 0.05459705 0.30374968 -0.6539945 0.54699206 -0.86923426 -0.24310884
35 -0.48552227 0.57796854 -0.7451336 -0.79486734 -0.14805734 -0.76907456 -0.70310104 -0.876467 -0.056305483 -0.17530167 0.8505505 0.3572934 -0.80126375 -0.55779636 0.33308318 -0.09990765 0.01991731 -0.2094314 -0.8677964 0.5242918 0.84783995 0.3952494 0.44543314 -0.9560241 -0.6913162 0.14690863 0.26397526 0.70814157 -0.2919695 0.69710594 0.0037572384 -0.8222498 -0.08554946 0.70268154 0.83303 -0.8317508 0.13609105 0.98762393 0.44794872 -0.8960639 0.94238865 0.6143383 0.39605802 -0.9332278 0.8400016 0.39455464 0.41443914 -0.3114704 0.118819706 0.11846039 -0.6563289 0.6111764 -0.3147474 0.29238373 0.43996578 -0.97668624 0.8191953 0.281555 -0.6605848 -0.5329044 0.21814302 -0.8358692 0.6053903 -0.94632185 -0.13475582 0.33939514 -0.026104346 0.9017569 0.17247969 0.5460368 -0.7452589 0.68217623 -0.8556408 -0.2856655
36 -0.33466464 0.46913508 -0.7950965 -0.79631585 0.038328767 -0.6755309 -0.62492186 -0.79649705 -0.15486398 -0.36805606 0.8929063 0.28741607 -0.858513 -0.15790309 0.3740294 -0.5669594 0.2531226 -0.24412331 -0.87520784 0.5138465 0.86291736 0.19667122 0.41122687 -0.9567654 -0.69722086 0.2623899 0.4763388 0.49649423 0.017931866 0.7333174 0.026034161 -0.87201214 -0.09677374 0.5254529 0.81499887 -0.8835561 0.2169171 0.99091935 0.5412928 -0.91478276 0.9437286 0.66632724 0.11370301 -0.94336724 0.7880791 0.11357628 0.4530787 -0.36102778 -0.019459784 0.45347506 -0.7234633 0.7757228 -0.29294595 0.44346127 0.423751 -0.9780519 0.7121096 0.35072473 -0.503318 -0.44438493 0.41900694 -0.72982484 0.632827 -0.97201174 -0.2111742 -0.1767358 -0.10113854 0.9278739 -0.016226798 -0.00035702437 -0.7159227 0.85237265 -0.7904656 -0.5237376
37 -0.5475026 0.053756565 -0.74264884 -0.83783865 0.0037611164 -0.6749433 -0.4487756 -0.8344489 0.084117085 -0.15286994 0.8657549 0.37609065 -0.7816862 -0.468497 0.07504487 -0.073487446 -0.047671497 -0.39459315 -0.88916093 0.713761 0.7321632 0.56250656 0.49909684 -0.9379704 -0.7360376 -0.14349777 0.3006359 0.7179702 0.2615076 0.60280323 0.017963916 -0.8358871 0.0037378073 0.586149 0.4633113 -0.7968084 0.32332277 0.9755321 0.50545895 -0.8725762 0.8553774 0.5986476 0.5998672 -0.92866164 0.8558949 -0.19812883 0.4167196 -0.19677907 0.20307702 0.096107386 -0.87197995 0.6589018 -0.31477022 0.18806753 0.6767909 -0.96950185 0.47687194 0.095972404 -0.5871006 -0.3402236 0.3607145 -0.88633347 0.22720785 -0.9403485 -0.031247765 -0.085110635 -0.099845976 0.82568896 -0.06312555 0.19220603 -0.57615227 0.7648659 -0.8481194 -0.3460241
38 -0.5195257 0.6665089 -0.68210286 -0.8632464 0.0752853 -0.630046 -0.7165747 -0.6993338 -0.25624222 -0.33990532 0.8858488 0.47264647 -0.75591034 -0.07614611 0.23919287 -0.3254945 -0.0048414767 -0.21847972 -0.9446088 0.7654872 0.82762307 0.3900471 0.3676846 -0.946833 -0.65206885 0.28774804 0.27473208 0.80852675 0.3218403 0.6960371 0.1817195 -0.82460994 -0.16311572 0.46402726 0.6226308 -0.8156476 0.21335003 0.9881293 0.374282 -0.92434895 0.9446188 0.71875334 0.27062756 -0.96903443 0.823581 0.23406097 0.4437268 -0.115605585 -0.03348867 0.4063993 -0.7263514 0.6189284 -0.36046192 0.2844841 0.09583191 -0.9719414 0.6932588 0.3229815 -0.17928812 -0.5757991 0.41319013 -0.7675934 0.50686616 -0.93266255 -0.02884388 -0.39297518 -0.15989277 0.836096 0.3287479 0.27742302 -0.71077794 0.54100835 -0.81185234 -0.40709963
39 -0.5134846 0.43143892 -0.7091246 -0.84306866 -0.10951948 -0.41036627 -0.60794765 -0.8479667 0.056366652 -0.26238924 0.88988817 0.5684084 -0.6289704 -0.5644446 0.3180176 -0.27611756 -0.038474068 0.31217277 -0.9158454 0.44964832 0.7538922 0.58577025 0.37154257 -0.91007483 -0.82758415 -0.0058604814 0.22212633 0.46923238 -0.25631493 0.63302404 -0.22879493 -0.7258272 -0.028305601 0.7165373 0.6847843 -0.8351128 0.36001357 0.97291356 0.46874073 -0.8680643 0.93400145 0.53296167 0.22347446 -0.9042634 0.7614698 0.2741455 0.5493504 0.102569714 0.096546054 0.27218196 -0.72960603 0.54379463 -0.36811212 0.49379587 0.8326804 -0.9705718 0.39958405 0.2954098 -0.08792851 -0.37343782 0.16603364 -0.62865794 0.49645466 -0.9482411 0.050389685 -0.17781648 -0.051086873 0.91389954 -0.23905003 0.30463856 -0.6876362 0.74572706 -0.6825814 -0.5128499
40 -0.5458611 0.39083573 -0.740766 -0.8085675 0.11200982 -0.525996 -0.70181286 -0.7637726 -0.056344017 -0.13991082 0.8964046 0.4583867 -0.86989355 -0.7959843 0.060144335 -0.22191465 0.1205768 0.184549 -0.8962859 0.5293271 0.8626982 0.23507546 0.2719794 -0.94222724 -0.67312056 0.348213 0.21894586 0.6856465 0.2510469 0.6223172 0.1889515 -0.85577625 -0.20857927 0.6996361 0.64390814 -0.83289176 0.19021335 0.98674107 0.5629611 -0.89423853 0.9468649 0.6283303 0.33327103 -0.95867556 0.87559867 0.04073453 0.2611233 -0.10039763 0.12529789 0.34074122 -0.897781 0.6350302 -0.271615 0.6876325 0.7194162 -0.9747624 0.6654383 0.19584852 -0.5711962 -0.42407256 0.52943754 -0.671468 0.59286124 -0.89233905 0.20987806 0.21528032 -0.25745484 0.8685264 0.07440108 0.5108919 -0.760121 0.71767795 -0.8093334 -0.64387363
41 -0.45358023 0.51551336 -0.7117295 -0.85859925 0.13949688 -0.49163246 -0.6918409 -0.8277584 -0.093251556 -0.30461788 0.9419971 0.6294796 -0.77066225 0.01350893 0.16595455 -0.520535 -0.03585598 -0.03743136 -0.92019355 0.71490127 0.7633826 0.37995267 0.46026987 -0.9092387 -0.7322141 0.35803783 0.35075575 0.5895841 0.42589223 0.56315476 -0.00031412393 -0.8294321 -0.3067385 0.70523953 0.6531144 -0.8594775 0.18449406 0.9737018 0.35715503 -0.8732038 0.94362575 0.5312207 0.0721394 -0.96910596 0.7707636 -0.05491939 0.5586107 -0.111041844 0.29563743 0.57827365 -0.6614999 0.6919904 -0.38854265 0.46720535 0.784697 -0.97581166 0.23143925 0.21508412 -0.2887575 -0.4794493 0.46605486 -0.5218919 0.6072309 -0.94083154 0.086265534 -0.2429584 0.032867953 0.8610114 -0.12184319 0.35511723 -0.69273984 0.50836754 -0.58721316 -0.37898147
42 -0.3596519 0.5703207 -0.7911801 -0.8344267 0.17975765 -0.6905472 -0.68217206 -0.6867952 -0.13653566 -0.35767657 0.9064577 0.37286934 -0.86710614 -0.3584602 0.20979817 -0.68569803 0.22888349 0.095797576 -0.8935503 0.7086249 0.9087028 0.1542933 0.32098386 -0.96686596 -0.5594977 0.31836063 0.29595655 0.6391896 0.24250212 0.5989664 0.16984981 -0.85266715 -0.022739686 0.68245596 0.6575732 -0.8442981 0.20149203 0.9949972 0.27434802 -0.8574182 0.9418869 0.63421506 0.3156079 -0.9405246 0.87113523 -0.19771442 0.450521 -0.28290468 0.12615958 0.3010465 -0.67070806 0.67552644 -0.28324836 0.14166114 0.5334373 -0.965167 0.7443249 0.2777897 0.12338844 -0.51833576 0.11273192 -0.752384 0.7400349 -0.9267811 -0.08938704 -0.23689318 0.031111956 0.85591465 0.33479616 0.21852691 -0.7528803 0.72780126 -0.7630715 -0.5878724
43 -0.51427454 0.40942973 -0.7369333 -0.80788237 0.09114737 -0.7404557 -0.59870505 -0.8206514 0.107954636 -0.461295 0.89249295 0.18688157 -0.86753887 -0.5695474 0.3684163 -0.17594714 0.010521658 -0.07205084 -0.9216535 0.40348476 0.8990699 0.26549825 0.50422215 -0.957092 -0.7063118 0.26113665 0.30426866 0.8283861 0.46304646 0.7921822 0.45660487 -0.7821125 0.09746972 0.58675164 0.7845821 -0.8702261 0.17408457 0.9953141 0.47948685 -0.97217345 0.9561259 0.7327278 0.0010116696 -0.923665 0.89270794 0.30422732 0.62870455 -0.021838471 -0.28856722 0.5276069 -0.7708549 0.7297222 -0.3967305 0.53050154 0.31666225 -0.955595 0.82751334 0.34668896 -0.5276447 -0.5728841 0.08567254 -0.7467088 0.7718938 -0.9214148 -0.20477918 0.017281957 -0.09581187 0.8873354 0.056561746 0.59317577 -0.5967942 0.7961299 -0.8745465 -0.48149458
44 -0.55719846 0.48829836 -0.730363 -0.7839841 0.113129005 -0.4754153 -0.6970081 -0.76093614 -0.013539463 -0.2962511 0.87703323 0.45128453 -0.7117373 -0.73129386 0.24427211 -0.12354868 0.15472165 0.0034884512 -0.918051 0.6824857 0.88877875 0.33112693 0.40892535 -0.96078557 -0.68640447 0.5005939 0.2454589 0.7161623 0.2876585 0.61919737 0.19986388 -0.8138133 0.070854254 0.8602288 0.5240538 -0.8910495 0.33531123 0.9952327 0.50534797 -0.9019931 0.9391734 0.6808954 0.4789905 -0.9491056 0.8287523 0.09407582 0.5919796 -0.08635251 -0.13300738 0.34001458 -0.7484812 0.6948748 -0.30860174 0.48463202 0.58954304 -0.9719944 0.7552271 0.40737414 -0.048641205 -0.4922437 0.21059534 -0.86386544 0.58354 -0.8929064 -0.34082222 -0.37592396 -0.16895467 0.8840818 0.24846011 0.4106767 -0.70691097 0.7248917 -0.7491388 -0.59402245
45 -0.51219654 0.40649545 -0.6981335 -0.8123936 -0.10456395 -0.6735931 -0.6535388 -0.8224375 -0.14930925 -0.25638807 0.88019556 0.53816134 -0.7754162 -0.12344698 0.27612463 -0.2508666 0.16133875 -0.024191707 -0.92793024 0.5444671 0.8008767 0.39758718 0.6157167 -0.936889 -0.7571324 0.25053978 0.4226519 0.689043 0.23470211 0.41728586 0.0033707328 -0.78627515 -0.23141038 0.4990831 0.7167281 -0.8448447 0.35485247 0.9843033 0.48293805 -0.958279 0.9533509 0.620269 0.27324295 -0.9373111 0.84131527 -0.17679137 0.5519888 -0.29606646 0.058362305 0.21298201 -0.837971 0.6163892 -0.35405338 0.39929134 0.7198992 -0.9747789 0.64977574 0.26537898 -0.7305512 -0.44540453 0.7741079 -0.7235069 0.59465104 -0.93126994 -0.15174353 -0.29509082 -0.04752463 0.88972086 -0.16795279 0.14916688 -0.74581856 0.6592409 -0.78665197 -0.49001616
46 -0.43580106 0.15905726 -0.672034 -0.80420077 0.07970305 -0.80835223 -0.691865 -0.7854385 0.13196605 -0.12964901 0.93611044 0.6339893 -0.6376267 -0.76747864 0.36102647 -0.04210662 -0.16283782 -0.052847505 -0.9044521 0.6871077 0.80163354 0.60670805 0.48706108 -0.9487578 -0.7397958 0.4049652 0.35894907 0.6548115 0.5443657 0.6044762 -0.1123192 -0.8076042 -0.09819408 0.8100416 0.70216244 -0.8325709 0.13578087 0.98789304 0.4745501 -0.87530106 0.8445087 0.6306602 0.039186 -0.9166949 0.94087803 0.45441788 0.6764742 -0.23810026 0.19120479 -0.0080758035 -0.7937973 0.4311978 -0.31784424 0.18311739 0.79679346 -0.973966 0.5160005 0.048437715 -0.5725796 -0.484183 0.2170212 -0.88336694 0.64989746 -0.9115924 -0.4050122 -0.56376505 0.024151921 0.80403715 0.089825675 0.29789066 -0.30474657 0.67561674 -0.6184434 -0.32096514
47 -0.28380457 0.3166553 -0.16039075 -0.78150785 -0.17650211 -0.6950151 -0.64235747 -0.62217724 -0.12650603 -0.048548266 0.91145015 0.5213821 -0.7136286 -0.2844067 0.23602408 0.24375962 0.028159827 -0.03156759 -0.8728561 0.25631908 0.78482443 0.55683815 0.58133584 -0.90717906 -0.6311934 0.083734885 0.30026639 0.7866844 -0.100530274 0.42576182 0.32615474 -0.76311505 0.047031745 0.6468067 0.42490423 -0.81671983 0.16472133 0.9799741 0.6306557 -0.7426167 0.928546 0.68934846 0.35154954 -0.93864894 0.6831072 0.11909044 0.070266336 -0.0689297 0.06741452 0.054377586 -0.79670376 0.47988236 -0.38740367 0.3253137 0.40013424 -0.9494256 0.7754588 -0.03906084 -0.57552123 -0.41625503 0.6343936 -0.9262934 0.4599105 -0.9230081 -0.04874544 0.3094875 -0.30011612 0.8662626 -0.019516136 0.5497825 -0.77762526 0.7620541 -0.6189403 -0.5116095
48 -0.5262736 0.63200974 -0.8279755 -0.8332567 0.0035610348 -0.7909793 -0.43725067 -0.8529334 -0.02827333 -0.33097708 0.8780397 0.50178534 -0.84252906 -0.69183326 0.34943992 -0.64865685 0.13793205 -0.23731916 -0.9121113 0.7073573 0.8833215 0.24826738 0.3675331 -0.9549982 -0.68030787 0.2814267 0.36362618 0.6681022 0.09228338 0.760272 0.10250606 -0.86265326 -0.013010275 0.77132183 0.7846442 -0.8702522 0.13400231 0.99267876 0.036999226 -0.94343555 0.9276488 0.5187104 0.064008296 -0.95823103 0.8789376 0.12218942 0.59446895 -0.44536108 0.075378545 0.25196472 -0.5975788 0.7707748 -0.35149413 0.22312352 0.520131 -0.9776765 0.74763745 0.42768225 -0.07288967 -0.53136337 0.2844274 -0.77671885 0.7737023 -0.95677054 -0.407985 -0.32626057 0.06759153 0.8976783 0.26044148 -0.0488148 -0.56209654 0.8218648 -0.90145993 -0.55760664
49 -0.54004973 0.5528009 -0.8416687 -0.77731395 0.06248919 -0.6947121 -0.6908914 -0.6864569 -0.20048568 -0.34784257 0.9075812 0.1966691 -0.86052006 -0.3309554 0.36600888 -0.11693387 0.20075889 -0.11041418 -0.8460848 0.59814316 0.9037185 0.2632661 0.36641586 -0.9671143 -0.6828462 0.43373576 0.3296315 0.6910065 0.36815846 0.742967 0.29639003 -0.83727825 0.011229277 0.22416823 0.6687364 -0.863463 0.21727157 0.9951703 0.38985032 -0.98024434 0.93284917 0.7067943 0.33303297 -0.9692933 0.79611313 0.097537175 0.4001045 -0.07117912 -0.23215953 0.43420637 -0.6460738 0.7467298 -0.29597855 0.33407107 0.03373318 -0.9762076 0.726512 0.40368456 -0.46327853 -0.52527755 0.42657483 -0.7418943 0.6309919 -0.94704336 -0.14948961 -0.1567958 -0.122087404 0.89352626 0.17220253 0.46685797 -0.8661102 0.82079536 -0.5426637 -0.5645139
50 -0.2971913 0.6514325 -0.84433556 -0.85632455 -0.08436629 -0.7572924 -0.5853972 -0.7748078 -0.3655552 -0.15860322 0.86468196 0.27216154 -0.6693931 -0.5474403 0.188887 -0.45248285 -0.011688232 0.06574255 -0.89224774 0.7849372 0.84694374 0.3164339 0.37243158 -0.9737762 -0.76245356 0.19433787 0.34382206 0.76768917 -0.027583212 0.65330863 0.11285032 -0.8117827 0.23121303 0.6657638 0.7693762 -0.81876254 0.37045425 0.9894214 0.15681665 -0.9196712 0.94967616 0.6555849 0.32809323 -0.89001966 0.8418324 0.23332354 0.48818758 0.019041695 0.24277559 0.38237107 -0.7543755 0.7317125 -0.3867241 0.24931513 -0.044884373 -0.9702021 0.72925913 0.3556259 -0.2847766 -0.58128107 -0.23646015 -0.8340357 0.5156044 -0.9416888 -0.2837773 -0.06044344 -0.07240202 0.9219133 0.04574038 0.33258882 -0.7873424 0.7945171 -0.7416045 -0.6344012
51 -0.42330033 0.51365626 -0.8051584 -0.8871005 -0.03692997 -0.5502315 -0.65081906 -0.8371044 0.046617858 -0.2685597 0.8655932 0.4585205 -0.7362076 -0.4380548 0.40031922 -0.5447699 0.051852822 -0.39020154 -0.8889102 0.8248642 0.8328012 0.36018965 0.34813792 -0.9672252 -0.70035374 -0.0767289 0.30896637 0.60484713 -0.1304998 0.604211 -0.17650032 -0.8503291 -0.082136065 0.6537297 0.5864913 -0.8589904 0.25577775 0.97581255 0.61897624 -0.90630406 0.9413386 0.56213415 0.043626964 -0.8872382 0.9082633 0.15532212 0.67244923 -0.49032524 -0.0026235282 -0.21243814 -0.8376018 0.7837913 -0.40318447 0.42814136 0.67122555 -0.9703589 0.4318309 0.3258506 -0.4692511 -0.3447662 0.6296418 -0.7004482 0.5359693 -0.95500433 0.08902803 -0.73989505 0.04916835 0.8986852 0.06238687 0.07346709 -0.58572125 0.7005032 -0.52666837 -0.4915944
52 -0.61424154 0.48838735 -0.67270285 -0.8753287 0.15215997 -0.64946645 -0.6409744 -0.7623581 -0.097273886 -0.32298106 0.869258 0.46932986 -0.8275281 -0.43111506 0.41512007 -0.45981935 0.12227206 -0.18359418 -0.9197716 0.6443535 0.85318005 0.14211974 0.3300866 -0.9559918 -0.7283528 -0.19243337 0.47478414 0.725803 0.3629119 0.75136745 0.19698079 -0.81782264 -0.009027569 0.63338125 0.70172584 -0.87721837 0.21923025 0.99160206 0.424955 -0.9449855 0.9412337 0.7246594 -0.07907603 -0.9527764 0.79371876 0.6004543 0.69568986 -0.4172882 -0.32577008 0.16454999 -0.7459405 0.69186276 -0.26282746 0.4594555 0.33323526 -0.9739006 0.751966 0.39172298 -0.2940023 -0.5411581 -0.025926083 -0.72850645 0.62295437 -0.9502344 -0.22496197 -0.21633916 -0.13018607 0.8934451 0.2632496 0.14472845 -0.6886589 0.82899415 -0.8901051 -0.454257
53 -0.5629093 0.4762311 -0.75866127 -0.8168721 -0.08008111 -0.58805126 -0.61314094 -0.86055243 0.18220988 -0.37475628 0.88716686 0.39901873 -0.72128075 -0.15815763 0.4476378 0.111607894 -0.05487387 0.058226265 -0.9044386 0.6553461 0.58731484 0.38116193 0.58419496 -0.92701036 -0.7862607 0.4140407 0.56332135 0.62670255 0.1598551 0.64543945 0.15134642 -0.7914028 -0.17767677 0.5936724 0.40450296 -0.8541647 0.12517819 0.9899907 0.6674396 -0.9231821 0.95182586 0.628842 0.04909247 -0.8399659 0.828498 0.11243172 0.57023954 0.2562706 0.0012633181 0.37175655 -0.71132904 0.6279697 -0.36583805 0.25634548 0.8334901 -0.9734317 0.47451997 0.28086084 -0.52637464 -0.3522333 0.7221296 -0.79769003 0.70039284 -0.9578593 0.06479021 -0.41295463 0.023494955 0.8606242 -0.25107554 0.33034676 -0.7290016 0.70596176 -0.63623196 -0.3114062
54 -0.2436547 0.69874173 -0.8106911 -0.84444773 0.14123793 -0.48827788 -0.67884564 -0.82534134 0.06309898 -0.19050872 0.85559964 0.45969713 -0.87712604 -0.21176124 0.42953712 -0.24668634 -0.102343805 0.15469375 -0.9385577 0.8300242 0.7990137 0.35525677 0.49680412 -0.8870054 -0.5811158 0.35484338 0.5781906 0.75528836 -0.2048667 0.58313066 0.008456469 -0.7769333 -0.19127919 0.26481077 0.7123406 -0.8425869 0.19140556 0.9848664 0.67729414 -0.95755875 0.952083 0.28229272 -0.00539271 -0.9587421 0.76599807 0.075006194 0.31236744 -0.1902602 -0.25140864 0.5480151 -0.7862118 0.7076411 -0.4143631 0.51578814 0.5991506 -0.96623147 0.35463306 0.14007904 -0.5459276 -0.49493 0.5983011 -0.3986904 0.76088405 -0.9570164 -0.0018543825 0.15352955 0.08501668 0.83931977 -0.26041898 0.34093025 -0.62068313 0.6104122 -0.14964518 -0.038183063
55 -0.649419 0.36982673 -0.6406394 -0.8386322 -0.10189733 -0.47388494 -0.6444039 -0.8341258 0.39722088 -0.28347555 0.8656486 0.49271393 -0.8700907 -0.0059206933 0.24691533 -0.010212411 -0.03990322 -0.13533643 -0.8721043 0.57429427 0.70107234 0.48007303 0.72987175 -0.9338255 -0.71591586 0.09537355 0.32828858 0.76466906 -0.1597757 0.5566323 0.0088413805 -0.8422932 -0.15922272 0.6393452 0.6961607 -0.8167124 0.085790396 0.98879004 0.33283773 -0.9039292 0.9433774 0.5567236 0.13158785 -0.93040645 0.75285906 0.26788202 0.48294812 -0.3261911 -0.036082793 0.52145654 -0.7858349 0.63662845 -0.36984438 -0.036233038 0.764097 -0.97577196 0.41813856 0.21498168 -0.2003228 -0.5238389 0.5396126 -0.83456856 0.6572628 -0.92965496 0.21459101 -0.34679344 0.13427638 0.81786895 -0.0035233088 0.49348956 -0.6455636 0.47860184 -0.8955641 -0.12001528
56 -0.68815166 0.6185354 -0.6995088 -0.81969357 0.12862967 -0.42764798 -0.7489638 -0.79030454 0.20235682 -0.125092 0.8231351 0.39905846 -0.87961483 -0.1721843 -0.05401343 -0.3456041 -0.057054073 0.119292974 -0.91671723 0.64559597 0.8686965 0.38531625 0.44556212 -0.95377314 -0.58975005 0.09821244 0.3854619 0.66210717 0.12884502 0.5954948 0.12809956 -0.81950814 -0.29707524 0.6670009 0.67418754 -0.8280176 0.25193012 0.98807746 0.43305746 -0.808669 0.9125562 0.38573188 0.024584342 -0.9538701 0.78237605 0.23927948 0.4630799 -0.36121574 -0.001054436 0.25294217 -0.8213817 0.60008264 -0.3895053 0.4384093 0.6848828 -0.97983116 0.30988687 0.16310275 -0.05660031 -0.4051471 0.47486258 -0.7279372 0.71016484 -0.90631425 0.15594468 -0.4593581 0.10282858 0.863493 0.19186369 0.44959345 -0.6130234 0.63650155 -0.9154204 -0.33141735
57 -0.5700953 0.5007772 -0.82156825 -0.81381595 -0.0858092 -0.7525612 -0.7048608 -0.7636655 -0.23663473 -0.33304527 0.9171945 0.5056771 -0.6533054 -0.4633343 0.19410712 -0.5090651 0.083959766 0.14086056 -0.9029584 0.48709202 0.8966373 0.45952958 0.36713967 -0.9665826 -0.7132061 -0.009837989 0.005570382 0.78511035 0.22793268 0.6747561 0.16116905 -0.77585596 0.2890625 0.8149171 0.6568239 -0.8160982 0.18199629 0.9561896 0.42967588 -0.9236521 0.95205164 0.5641834 0.43858635 -0.8851468 0.8593141 -0.001450479 0.17674977 -0.024030805 0.291874 0.23427925 -0.89864635 0.6865824 -0.3192425 0.19124724 0.5094501 -0.97114563 0.69321555 0.2865671 -0.26780713 -0.5850767 0.30504972 -0.7369171 0.5763487 -0.9504552 -0.17511612 -0.31388494 -0.09665548 0.87149876 -0.03366477 0.47492582 -0.37938404 0.80086005 -0.7641054 -0.60228604
58 -0.34738857 0.59206706 -0.74169785 -0.85230803 0.27070424 -0.8199221 -0.7525542 -0.54370457 0.018818893 -0.31446338 0.9133067 0.4344866 -0.78393996 -0.11001714 0.264566 -0.033628196 0.07311998 0.308095 -0.9657551 0.5599167 0.8934548 0.29415014 0.49889708 -0.95138234 -0.6918795 0.6497017 0.17191595 0.85348386 0.25678435 0.68101203 -0.14602052 -0.8040979 -0.08084965 0.58538216 0.85871637 -0.8669216 0.38224036 0.9955626 0.19715321 -0.901783 0.94055647 0.7081288 -0.21467815 -0.8898506 0.8961089 0.4522711 0.5065197 -0.12687266 0.07062453 0.747775 -0.5989984 0.64005387 -0.23366743 0.18380946 0.63313067 -0.96565694 0.7263023 0.4026759 0.06762767 -0.5803118 0.4854159 -0.64807403 0.8542181 -0.9655775 -0.032718025 -0.29366148 -0.14175345 0.87281066 0.07722495 0.65178263 -0.6085831 0.76295996 -0.67399555 -0.43244046
59 -0.61046237 0.3488928 -0.60619116 -0.70476705 -0.08322394 -0.25178608 -0.5096867 -0.850788 0.09090467 -0.0028701723 0.9189828 0.589483 -0.77848816 -0.3895905 0.17598997 0.17787631 -0.062687784 0.13371441 -0.9325767 0.6727655 0.5430985 0.38333362 0.5928881 -0.8942166 -0.72548383 0.2453914 0.42221382 0.6860754 0.20320278 0.698905 0.1766351 -0.79228 0.1742159 0.82881737 0.33951083 -0.8571495 0.24334985 0.9803779 0.6185112 -0.87732005 0.9303548 0.4484256 0.13404757 -0.9501235 0.62244546 0.12026386 0.46739727 0.13386871 0.1271342 0.3187959 -0.73592013 0.64714354 -0.37870786 0.64107907 0.6600707 -0.9786354 0.452817 0.028796077 -0.42271218 -0.4920935 0.20397076 -0.75335395 0.29076177 -0.9311733 -0.008077912 0.113067955 -0.0020572464 0.89711666 -0.3663803 0.33833635 -0.7262748 0.6974974 -0.82245076 -0.3673131
60 -0.34910274 0.3465098 -0.7265819 -0.80236506 0.17950682 -0.69414836 -0.70334274 -0.8021823 0.025914133 -0.37675127 0.9332378 0.51400113 -0.7628228 0.00876122 0.1602152 -0.31361663 0.12503593 -0.027095461 -0.93805254 0.62642246 0.810793 0.37613103 0.37640226 -0.94437486 -0.6726189 0.20116648 0.39868325 0.5526584 0.45687246 0.55196667 -0.096057355 -0.85574853 -0.16534585 0.19550486 0.62630945 -0.84662855 0.17269358 0.9706762 0.48481858 -0.9159094 0.94649345 0.64160526 0.31010386 -0.9313787 0.9161733 0.21219012 0.5771931 -0.4620999 0.14533418 0.44365212 -0.79700476 0.70392936 -0.37689486 0.017260224 0.7334494 -0.96782565 0.5795086 0.25141054 -0.42206722 -0.58275354 0.68621445 -0.7152431 0.5213063 -0.90747917 0.090240024 -0.27524439 -0.092304304 0.8332336 -0.1387702 0.5117842 -0.57671064 0.6550784 -0.54168606 -0.48689553
61 -0.47815347 0.5939179 -0.7479665 -0.8428502 0.16592324 -0.7536432 -0.645118 -0.792591 -0.109810725 -0.3352546 0.89278036 0.26493067 -0.8667343 -0.26248458 0.117022306 -0.6612581 -0.09144464 -0.07149485 -0.8766139 0.7224419 0.9312605 0.14834931 0.26871765 -0.9588369 -0.68040603 0.05102764 0.4579874 0.728838 0.22028595 0.80150026 0.23961407 -0.85574114 -0.03561634 0.587697 0.5390077 -0.8540896 0.062137604 0.9958032 0.48042062 -0.86960196 0.9362198 0.65492237 0.3176945 -0.93598205 0.77111125 0.2431835 0.53520685 -0.042042416 -0.20700799 0.4328488 -0.61464167 0.69904053 -0.3708493 0.15606272 0.10239865 -0.96719754 0.81510425 0.18531536 0.085784145 -0.5578948 0.4677595 -0.67910326 0.5556133 -0.95420283 -0.12053123 -0.03194895 -0.100738764 0.8403312 0.16708316 0.16585714 -0.7376237 0.8329735 -0.77456975 -0.4747375
62 -0.6706373 0.4455328 -0.7676646 -0.84740674 0.028650329 -0.48727426 -0.6540237 -0.86289203 0.062943794 -0.32228896 0.87378615 0.35153154 -0.77854896 -0.2690787 0.1837097 -0.17879364 -0.11426756 0.07554452 -0.9267386 0.64812267 0.8007255 0.4189574 0.21883881 -0.9607881 -0.61816317 -0.020738058 0.22058932 0.79400957 0.11794287 0.61947757 0.03949997 -0.7401044 -0.24573964 0.40158454 0.76119435 -0.8347814 0.24621686 0.9814353 0.4389758 -0.8013581 0.93530244 0.56559354 0.27427536 -0.96441805 0.8909093 -0.16293423 0.35709688 0.06700292 0.24649629 0.0069449795 -0.80650175 0.69074786 -0.37102294 0.05903363 0.40178958 -0.9781742 0.58632004 0.19750562 -0.2606833 -0.5289901 0.28428492 -0.7308857 0.5887119 -0.9358972 0.550171 -0.36110452 0.19565716 0.84468883 0.023191743 0.5054578 -0.575605 0.61439306 -0.61137086 -0.09914279
63 -0.5365536 0.51433074 -0.55551934 -0.80569017 0.104317576 -0.57073045 -0.6833361 -0.7927944 -0.28681892 -0.3330953 0.8653069 0.30365002 -0.85053486 -0.49055642 0.24468774 -0.46245974 0.23578086 0.008039907 -0.8776566 0.69414204 0.9212379 0.26898864 0.44969591 -0.963556 -0.6711007 0.32358956 0.38947415 0.74338746 0.3105632 0.80407256 0.08135142 -0.8373333 0.101181045 0.6356263 0.5940187 -0.8566401 0.22054626 0.9939259 0.6204892 -0.79940313 0.9508405 0.57281023 0.33210558 -0.9521574 0.8593783 0.0008049309 0.56301117 -0.057578873 -0.12135658 0.5164846 -0.7686628 0.782729 -0.27579677 0.28275043 0.4279159 -0.9791532 0.74833184 0.36984348 -0.12283102 -0.5327413 0.4332657 -0.82620966 0.6034988 -0.9576325 -0.16345307 -0.27781954 -0.11058945 0.87493765 0.30704316 0.04633012 -0.638056 0.8011545 -0.7197449 -0.5577978
64 -0.35530812 0.54899865 -0.7138703 -0.80428445 -0.0038824081 -0.64311713 -0.5964993 -0.79136956 -0.1788285 -0.1896998 0.91900605 0.65489584 -0.7832527 0.0034871977 0.2726155 -0.47752276 0.11459122 0.08548896 -0.9493662 0.5000508 0.7805251 0.23979726 0.47327325 -0.936054 -0.6355188 0.29802966 0.48330158 0.62611187 0.43821445 0.5999713 -0.14923 -0.84945196 -0.07443741 0.45150533 0.7226809 -0.8434424 0.31551826 0.975077 0.5012031 -0.92247057 0.9521448 0.58273923 0.05088909 -0.96204615 0.86193115 -0.3489951 0.53395766 -0.1965758 0.3042474 0.3896837 -0.8307558 0.68709624 -0.29048043 0.39808095 0.7758075 -0.9782995 0.656631 0.2946162 -0.6090691 -0.61402833 0.6623874 -0.53882176 0.6170642 -0.9463675 -0.1289712 -0.13311489 0.0096030235 0.8686657 -0.13059291 0.28431928 -0.68202627 0.56447226 -0.7938657 -0.48772615
65 -0.6509245 0.40490705 -0.7998982 -0.85933393 0.03193988 -0.70056593 -0.67827886 -0.8951098 -0.070757926 -0.30740142 0.9066018 0.31958097 -0.64266104 0.03874542 0.19027583 -0.52762914 0.0048970133 0.09124498 -0.9644289 0.2782283 0.8056701 0.39935365 0.4587446 -0.9575872 -0.7236575 0.022463277 0.0699835 0.69447935 0.08773652 0.37172866 0.042092964 -0.7970821 0.06327003 0.63605726 0.7584172 -0.8669232 0.49238992 0.9510412 0.3040557 -0.90373313 0.95405024 0.8179862 0.23799154 -0.9369381 0.8217351 -0.2187909 0.51011395 -0.02939459 0.25441685 0.20919707 -0.84137154 0.73223794 -0.2759172 0.4048718 0.5018248 -0.9791749 0.7234386 0.41887802 -0.3444466 -0.56372505 0.1380991 -0.7240955 0.6090732 -0.9537584 -0.17047176 -0.30007324 0.021589682 0.8707855 -0.2915994 0.26536465 -0.42230806 0.68464816 -0.82673573 -0.43468058
66 -0.61247563 0.599611 -0.8474527 -0.8573965 0.22275263 -0.51283866 -0.79173416 -0.8237994 0.26031762 -0.18491665 0.8576425 0.45983982 -0.7885422 -0.43884802 -0.10799907 -0.7157164 -0.20193045 0.28220075 -0.9014919 0.7784693 0.82343334 0.34789196 0.31958878 -0.95624757 -0.6723354 0.11425333 0.45136544 0.48578322 -0.25960353 0.595057 -0.07905072 -0.8215525 -0.13456808 0.62792933 0.5817436 -0.8280765 0.25753453 0.977287 0.5276314 -0.87651706 0.9344045 0.48285592 -0.038955003 -0.9305337 0.8241576 -0.09641727 0.38236952 0.00075308606 0.015407421 0.45442384 -0.6190736 0.62795925 -0.33781204 0.7520906 0.4717532 -0.967399 0.48196065 0.053479508 -0.22738567 -0.3419384 0.57183915 -0.5714032 0.5857484 -0.9422053 0.064065695 -0.6572614 -0.0729148 0.890663 -0.119850524 0.0644227 -0.6550938 0.6471896 -0.6950995 -0.32917458
67 -0.24870728 0.5052683 -0.6367142 -0.801401 -0.057536513 -0.5963132 -0.51309156 -0.71249783 -0.17710768 -0.019241288 0.92576873 0.6145165 -0.7524109 -0.043679964 0.22315419 -0.32000834 0.032035977 0.15121797 -0.9526491 0.5119781 0.75828743 0.31642914 0.625404 -0.9249133 -0.6316105 0.42647305 0.43295848 0.68359375 0.39595407 0.5157156 -0.044365034 -0.84588075 -0.016643861 0.5732374 0.6643346 -0.8525909 0.42118335 0.97491527 0.5669893 -0.8524363 0.947632 0.6018617 0.23794998 -0.95896965 0.8628526 -0.431526 0.61550415 -0.20166975 0.33960694 0.5043903 -0.7984759 0.6707255 -0.3678971 0.36664015 0.7802591 -0.9810689 0.55871433 0.10155308 -0.61586046 -0.64689696 0.69239044 -0.64235365 0.61233073 -0.9285077 -0.16080286 -0.014328126 -0.098311275 0.85936487 -0.2386244 0.24347892 -0.65851367 0.5891199 -0.74311316 -0.47666353
68 -0.59463435 0.28004336 -0.87759864 -0.8251668 -0.13747357 -0.5548166 -0.56840724 -0.75153565 0.1951378 -0.08866173 0.9000039 0.32277173 -0.77006155 -0.68334705 0.34137693 -0.02592561 -0.18290642 0.12683627 -0.8933092 0.6233604 0.80962783 0.3919099 0.4404487 -0.9533773 -0.7326038 0.13896196 0.40721616 0.6795467 0.20730397 0.61220104 -0.11026835 -0.78330505 -0.15536723 0.62189806 0.5583757 -0.7508464 0.111167476 0.9712647 0.66665184 -0.95734024 0.8415689 0.57373565 0.021672348 -0.94598454 0.77745056 0.28040424 0.42033294 0.17579104 -0.13180104 0.4781438 -0.68715227 0.51761836 -0.24593271 0.1823782 0.5443223 -0.9688603 0.39330253 0.1936299 -0.062672734 -0.47738442 0.50103617 -0.78336823 0.5243717 -0.9359123 0.103030905 -0.31189293 -0.26728225 0.84501845 -0.10047865 0.57753074 -0.6621802 0.6613747 -0.6112032 -0.0744385
69 -0.6503986 0.4726551 -0.800659 -0.8196877 -0.026942376 -0.65487397 -0.5894048 -0.8283201 -0.284257 -0.10081449 0.85047495 0.73195654 -0.68086386 -0.5093345 0.4335016 -0.467531 0.00049731135 0.0065857396 -0.9616246 0.6120253 0.80668545 0.41693577 0.4971665 -0.91316384 -0.6995539 0.41085923 0.4673767 0.7349361 0.3292261 0.44850126 -0.0027853474 -0.75762886 -0.04814551 0.6862761 0.69278985 -0.86989105 0.22531462 0.9861178 0.49321023 -0.9460916 0.94191384 0.34355673 0.1157027 -0.9583577 0.73048896 -0.18066144 0.4604866 0.019320495 0.17890209 0.43267044 -0.7330738 0.5567297 -0.38798988 0.55911654 0.7224978 -0.9804417 0.5840207 0.20321216 -0.6018025 -0.47203952 0.5692315 -0.6731519 0.5283078 -0.9593937 -0.027553886 -0.34367973 0.035845235 0.82876045 -0.31953707 -0.033804953 -0.7271059 0.63505065 -0.6375863 -0.43116167
70 -0.6099438 0.67205805 -0.8352534 -0.84742033 -0.05376296 -0.8054602 -0.7367359 -0.80198413 -0.030702777 -0.22979912 0.8961725 0.39314613 -0.8228231 -0.6681598 0.36257842 -0.33464283 -0.010143042 -0.022298545 -0.94084716 0.6666697 0.91951394 0.21315531 0.38205498 -0.9327506 -0.6682492 0.30329588 0.31920782 0.82884455 0.22544593 0.6998019 0.18995374 -0.6844517 0.02798 0.7612789 0.70992273 -0.8138901 0.08214891 0.98479986 0.53310597 -0.9561026 0.9468951 0.39130646 -0.08920568 -0.9274705 0.82952744 0.5730794 0.62772274 0.48635226 -0.023033358 0.59763724 -0.57520664 0.66905177 -0.25293845 0.49394506 -0.025427781 -0.9674929 0.8444068 0.37649894 -0.3508474 -0.6162976 0.15500161 -0.3047384 0.70129085 -0.9465482 -0.07928717 0.092522226 -0.11150925 0.88072103 0.033944406 0.7115304 -0.5733213 0.7781847 -0.48561555 -0.40366614
71 -0.39831394 0.27803636 -0.7660076 -0.80033886 0.07748699 -0.5867695 -0.64483595 -0.78104913 0.018760711 -0.40248814 0.91265917 0.5015806 -0.8285383 -0.47344086 0.24916925 -0.50231546 0.26611835 -0.09978465 -0.8745943 0.7026662 0.82583696 0.17566293 0.42356282 -0.97112954 -0.69308984 0.30157933 0.45496434 0.5215433 0.24526039 0.7256437 0.07021983 -0.8769878 0.040879894 0.72121084 0.5471131 -0.86807525 0.16870171 0.99006206 0.50892967 -0.8802679 0.94699115 0.63165385 0.25539523 -0.96355027 0.87926817 0.24794346 0.63100636 -0.2599653 0.08367433 0.50615764 -0.37746537 0.76502544 -0.30475318 0.39706153 0.56364155 -0.97339875 0.5840659 0.32781318 -0.18363637 -0.5571271 0.18204165 -0.8321132 0.6353137 -0.9325294 -0.28886616 -0.19527063 -0.22283775 0.8448378 0.18368106 0.3331483 -0.73813003 0.8258945 -0.68555343 -0.42176718
72 -0.50891286 0.66320753 -0.8083509 -0.7531614 -0.14634013 -0.7969928 -0.7463344 -0.83219916 -0.27734601 -0.27786395 0.86203974 0.32496935 -0.85385203 -0.72522646 0.08194929 0.043537553 -0.0016523749 0.36051905 -0.905358 0.5309182 0.936008 0.50034237 0.30875748 -0.95786476 -0.7949352 -0.10497576 0.26039147 0.6933224 -0.3430152 0.683793 0.09692181 -0.79117054 -0.07278359 0.58628774 0.7033448 -0.7827369 0.13054894 0.97431165 0.45387518 -0.8987191 0.9300536 0.70743966 0.11510662 -0.8879692 0.8857537 0.4435499 0.32303464 -0.4897861 0.07783866 -0.059582867 -0.83617896 0.59483105 -0.46512598 0.254525 0.6526648 -0.97884566 0.5586295 0.20875162 -0.69718164 -0.49730548 -0.14989857 -0.69603765 0.63851225 -0.9432579 -0.20507187 -0.44940817 -0.32819498 0.9061823 0.21653901 0.7945964 -0.7066649 0.7717717 -0.7019797 -0.31450355
73 -0.49861282 0.57221645 -0.88059014 -0.8747277 0.06770533 -0.398377 -0.58623296 -0.7456161 0.07781325 -0.06886625 0.9090822 0.6237636 -0.72593087 -0.69965583 0.30090487 -0.46398234 -0.04826671 0.2227186 -0.9553224 0.7102312 0.84695524 0.24713857 0.4884505 -0.96601474 -0.64396346 0.5604814 0.36415514 0.7745886 0.11498181 0.6897376 0.033408433 -0.8660739 0.029182434 0.66785604 0.685101 -0.8322937 0.17117074 0.96935797 0.43688196 -0.81633306 0.94697154 0.45428267 0.18705896 -0.96398026 0.8985447 0.3721959 0.4192163 -0.21668257 0.2643141 0.56852454 -0.84302104 0.69967693 -0.32009602 0.5919933 0.7751667 -0.9766956 0.34164107 0.2908126 -0.45624983 -0.60519713 -0.118143976 -0.6977818 0.6586126 -0.93233037 -0.104881324 -0.27682152 -0.29933938 0.85037273 0.1331988 0.32856303 -0.6450856 0.591846 -0.8331551 -0.54766273
