74 74
0 -0.021120632 -0.00049344474 0.000104952385 -0.00019300832 0.0011920072 -0.00080626225 -0.0005821761 -3.9628434e-05 -2.3947921e-05 0.0014299517 0.0010149381 5.0053163e-06 -6.7294545e-06 -0.0018993781 2.7510263e-05 0.001070286 -0.0004196406 0.0006227031 -7.9765814e-05 -0.0005548172 -0.00041792117 0.0005266278 0.00071815006 0.0008528009 0.0004201655 -0.00045520882 -0.00085173565 0.0004631739 -0.00024516878 -0.00067302154 -0.0012567333 0.0004382155 0.0018447066 -0.0003061727 -0.00020214952 -0.0009787523 -0.0010159035 -8.107312e-05 -0.0003216399 0.0006977836 0.00018031409 0.00021727872 -0.00047689426 -0.0014808798 -0.001911534 -0.00081327657 0.00065005635 0.00027488318 0.000348889 -0.0011831892 -0.00095981726 0.001006612 -0.0006137684 -0.00012945032 -0.0005733221 -0.000693504 0.00060249784 0.00014452249 -0.0018542974 0.00028142566 -0.0015353538 0.00074586924 -0.0008821142 -0.0016020822 0.0006618343 0.0006298636 0.00017240018 -0.0019291843 -0.00067472045 -0.0012389146 -0.0014208889 2.1176316e-05 -0.0008944965 -0.00012862321
1 -0.0211205 -0.0004933605 0.00010499073 -0.00019291666 0.0011920898 -0.0008062705 -0.0005822796 -3.968091e-05 -2.3858844e-05 0.0014299372 0.001014986 5.139188e-06 -6.5003233e-06 -0.0018991625 2.758033e-05 0.0010704105 -0.00041971996 0.00062271097 -7.975018e-05 -0.0005548826 -0.00041797446 0.0005265309 0.0007180602 0.0008526562 0.00042006388 -0.00045518205 -0.0008516912 0.0004631493 -0.00024517704 -0.00067298167 -0.0012567828 0.00043811867 0.0018447557 -0.0003061339 -0.00020220965 -0.000978756 -0.0010159594 -8.095294e-05 -0.00032157832 0.0006977865 0.00018030811 0.00021742201 -0.00047677572 -0.0014808812 -0.0019114286 -0.0008132684 0.0006500523 0.00027492497 0.00034887306 -0.0011831479 -0.00095993234 0.0010065198 -0.00061370834 -0.00012938566 -0.00057338073 -0.00069361017 0.0006025363 0.00014456814 -0.0018542745 0.00028148326 -0.0015354987 0.00074593286 -0.0008820187 -0.001601886 0.000661761 0.0006298965 0.00017233494 -0.0019290533 -0.0006747801 -0.001238761 -0.0014208653 2.1020876e-05 -0.0008945898 -0.00012873531
2 -0.021120692 -0.0004934376 0.00010496428 -0.0001929931 0.0011920162 -0.00080626924 -0.0005821768 -3.964641e-05 -2.393475e-05 0.0014299444 0.0010149173 4.982099e-06 -6.7145797e-06 -0.0018993391 2.7515383e-05 0.001070322 -0.00041964313 0.00062270946 -7.977226e-05 -0.0005548315 -0.00041791215 0.00052662514 0.0007181396 0.00085278554 0.0004201545 -0.0004551976 -0.00085174857 0.0004631807 -0.00024517276 -0.0006730489 -0.0012567798 0.00043822266 0.0018447058 -0.00030614194 -0.0002021479 -0.000978747 -0.0010158821 -8.105378e-05 -0.0003216369 0.0006978063 0.00018030131 0.00021727312 -0.0004768961 -0.0014808433 -0.0019115125 -0.00081327406 0.0006500682 0.00027489447 0.00034889285 -0.001183181 -0.00095980946 0.001006594 -0.00061375415 -0.00012944138 -0.0005733187 -0.0006934847 0.00060250424 0.00014454956 -0.0018542758 0.00028142962 -0.0015353857 0.000745887 -0.000882121 -0.0016020759 0.00066186266 0.0006298621 0.00017238868 -0.0019292001 -0.0006746899 -0.0012388846 -0.0014209022 2.1163683e-05 -0.00089449016 -0.00012862562
3 -0.021120701 -0.00049343717 0.00010496567 -0.0001929926 0.0011920182 -0.00080626877 -0.00058217783 -3.9651426e-05 -2.393109e-05 0.0014299487 0.0010149098 4.9722594e-06 -6.7127316e-06 -0.0018993384 2.7516006e-05 0.0010703328 -0.00041964388 0.00062271295 -7.977501e-05 -0.0005548322 -0.00041790763 0.0005266227 0.0007181369 0.00085277914 0.00042015198 -0.00045519607 -0.00085175154 0.00046318598 -0.00024518 -0.00067305466 -0.0012567897 0.00043822595 0.0018447072 -0.000306138 -0.00020214607 -0.000978748 -0.0010158721 -8.105351e-05 -0.00032164308 0.0006978132 0.00018029936 0.00021727449 -0.00047690235 -0.0014808312 -0.0019115101 -0.00081327854 0.0006500787 0.0002748902 0.00034889966 -0.0011831814 -0.0009598139 0.0010065909 -0.0006137562 -0.00012943846 -0.0005733186 -0.0006934754 0.00060250843 0.00014455499 -0.0018542729 0.00028143238 -0.0015353888 0.0007458986 -0.00088212476 -0.001602083 0.00066186924 0.00062986236 0.00017238394 -0.0019292065 -0.00067468046 -0.0012388823 -0.0014209077 2.1165108e-05 -0.00089448725 -0.00012862518
4 -0.02112071 -0.0004934197 0.00010497847 -0.00019297183 0.0011920342 -0.00080627267 -0.00058219145 -3.967219e-05 -2.3910216e-05 0.0014299393 0.0010148985 4.973728e-06 -6.674672e-06 -0.0018992827 2.7526494e-05 0.0010703721 -0.00041965602 0.00062271656 -7.977664e-05 -0.00055484986 -0.0004179114 0.0005266067 0.00071811833 0.00085274957 0.00042012942 -0.00045518816 -0.00085174915 0.0004631867 -0.00024518548 -0.0006730674 -0.0012568267 0.00043821824 0.001844713 -0.0003061091 -0.00020215192 -0.0009787426 -0.0010158626 -8.10258e-05 -0.00032163237 0.0006978296 0.00018028879 0.00021728633 -0.00047688623 -0.0014808025 -0.0019114768 -0.00081327395 0.00065008836 0.00027490265 0.00034890044 -0.0011831688 -0.00095982064 0.0010065641 -0.000613739 -0.00012941913 -0.00057332346 -0.00069347606 0.0006025169 0.00014457745 -0.0018542521 0.00028144268 -0.0015354276 0.0007459195 -0.0008821175 -0.0016020534 0.0006618799 0.0006298608 0.00017236674 -0.0019292019 -0.0006746628 -0.0012388434 -0.0014209114 2.1135944e-05 -0.0008944919 -0.00012863852
5 -0.021120591 -0.0004935388 0.00010488798 -0.00019312614 0.0011919151 -0.00080624665 -0.0005820999 -3.9530463e-05 -2.405076e-05 0.0014299864 0.001014975 4.971839e-06 -6.9405905e-06 -0.0018996578 2.7451642e-05 0.0010700866 -0.00041956885 0.00062268024 -7.975228e-05 -0.00055473146 -0.00041789116 0.00052672223 0.0007182456 0.0008529643 0.00042029365 -0.00045525335 -0.0008517466 0.0004631713 -0.0002451456 -0.00067296624 -0.001256547 0.00043827246 0.001844663 -0.0003063146 -0.00020210489 -0.0009787754 -0.0010159264 -8.122696e-05 -0.00032170227 0.00069770607 0.0001803675 0.00021718645 -0.00047698992 -0.0014809992 -0.0019117033 -0.0008133033 0.00065002404 0.0002748197 0.0003488839 -0.001183244 -0.0009597515 0.0010067496 -0.0006138493 -0.00012953737 -0.0005732969 -0.0006934693 0.0006024513 0.00014441254 -0.001854385 0.0002813678 -0.0015351534 0.0007457688 -0.0008821711 -0.0016022568 0.0006617985 0.0006298541 0.0001724876 -0.0019292271 -0.0006747909 -0.0012391156 -0.0014208676 2.1344633e-05 -0.0008944492 -0.00012852841
6 -0.021120586 -0.00049336045 0.00010500684 -0.00019291694 0.0011921029 -0.000806275 -0.00058228406 -3.972793e-05 -2.3819588e-05 0.0014299451 0.0010149257 5.0622575e-06 -6.4825826e-06 -0.001899121 2.7590515e-05 0.0010704957 -0.00041972037 0.00062273175 -7.975397e-05 -0.0005548986 -0.00041793793 0.0005265258 0.0007180288 0.000852618 0.00042005687 -0.00045517256 -0.0008517081 0.00046317867 -0.00024522486 -0.0006730195 -0.0012568531 0.00043815403 0.0018447486 -0.0003061035 -0.00020218443 -0.0009787636 -0.0010158711 -8.095059e-05 -0.0003216226 0.0006978325 0.00018029583 0.00021740943 -0.00047681935 -0.0014807747 -0.0019114116 -0.00081330555 0.0006501451 0.00027490302 0.00034890455 -0.0011831344 -0.00095993374 0.0010064975 -0.0006137014 -0.00012934928 -0.0005733876 -0.0006935246 0.00060256076 0.00014461462 -0.0018542341 0.00028149819 -0.0015355363 0.00074602023 -0.0008820564 -0.00160194 0.00066181493 0.0006298891 0.00017229399 -0.0019291022 -0.00067471573 -0.001238727 -0.0014208938 2.1037456e-05 -0.0008945484 -0.00012871172
7 -0.021120733 -0.0004933744 0.00010501327 -0.000192919 0.0011920696 -0.00080628716 -0.0005822323 -3.972737e-05 -2.385341e-05 0.0014299195 0.0010148614 4.965611e-06 -6.58051e-06 -0.0018991473 2.7549213e-05 0.0010704758 -0.00041968553 0.00062272657 -7.978543e-05 -0.00055489864 -0.0004179109 0.0005265667 0.00071807776 0.0008526788 0.000420078 -0.00045516432 -0.00085175125 0.0004631914 -0.00024520163 -0.0006731137 -0.0012569262 0.0004382011 0.0018447336 -0.00030603196 -0.000202168 -0.0009787298 -0.0010158358 -8.095706e-05 -0.00032160772 0.0006978778 0.0001802639 0.0002173074 -0.0004768503 -0.0014807278 -0.0019113912 -0.000813261 0.00065010897 0.00027493935 0.00034890615 -0.0011831414 -0.00095983414 0.0010064938 -0.00061369216 -0.00012937265 -0.0005733361 -0.00069347065 0.0006025437 0.00014463966 -0.0018541908 0.00028146867 -0.0015355293 0.00074597227 -0.0008821034 -0.0016019848 0.0006619153 0.00062985305 0.00017232964 -0.0019292005 -0.00067460665 -0.0012387485 -0.0014209241 2.1067131e-05 -0.0008945054 -0.00012866942
8 -0.021120857 -0.00049338123 0.00010502523 -0.00019291323 0.0011920723 -0.0008062995 -0.00058221037 -3.9743372e-05 -2.38519e-05 0.0014299076 0.0010148314 4.916782e-06 -6.596749e-06 -0.0018991218 2.7543163e-05 0.0010705037 -0.0004196782 0.0006227321 -7.979719e-05 -0.00055491034 -0.00041789623 0.00052658666 0.00071808207 0.00085268676 0.00042007706 -0.00045515315 -0.0008517776 0.00046320242 -0.00024520024 -0.00067316135 -0.0012569854 0.00043823023 0.0018447282 -0.0003059877 -0.00020215182 -0.0009787201 -0.0010158005 -8.0941594e-05 -0.00032160693 0.00069790654 0.00018024775 0.00021727553 -0.0004768663 -0.001480685 -0.0019113856 -0.00081325555 0.00065012305 0.00027495474 0.00034890717 -0.0011831381 -0.0009598012 0.0010064901 -0.00061368267 -0.00012937133 -0.0005733271 -0.00069343473 0.00060254626 0.00014467222 -0.0018541708 0.00028146728 -0.0015355531 0.0007459816 -0.00088212785 -0.0016020035 0.00066197326 0.0006298431 0.00017232283 -0.0019292445 -0.00067455607 -0.0012387335 -0.0014209512 2.1072156e-05 -0.00089448085 -0.0001286552
9 -0.021120617 -0.00049346325 0.00010493722 -0.00019303085 0.0011919872 -0.00080626097 -0.00058215816 -3.9599407e-05 -2.3977018e-05 0.0014299522 0.001014959 5.01458e-06 -6.772673e-06 -0.0018994341 2.7498683e-05 0.0010702311 -0.00041962566 0.0006226938 -7.9762125e-05 -0.00055479957 -0.00041792222 0.00052665017 0.0007181737 0.0008528411 0.00042019176 -0.00045521732 -0.0008517367 0.00046316686 -0.0002451508 -0.00067300425 -0.0012566857 0.00043822097 0.0018446962 -0.00030620504 -0.00020214429 -0.0009787544 -0.0010159252 -8.1101e-05 -0.00032163993 0.00069775915 0.00018032586 0.00021726219 -0.00047690305 -0.0014809237 -0.0019115715 -0.00081327284 0.0006500293 0.00027487753 0.00034887955 -0.0011832006 -0.0009598001 0.0010066446 -0.0006137832 -0.00012947572 -0.00057331496 -0.0006935128 0.0006024819 0.00014449419 -0.0018543218 0.00028141134 -0.0015353101 0.0007458306 -0.0008821176 -0.0016021022 0.000661819 0.0006298631 0.00017242493 -0.0019291819 -0.00067474914 -0.0012389562 -0.0014208808 2.120501e-05 -0.00089449534 -0.00012860987
10 -0.021120643 -0.00049343234 0.00010496081 -0.00019299156 0.001192014 -0.000806268 -0.0005821886 -3.9642124e-05 -2.3934852e-05 0.001429947 0.0010149233 4.99609e-06 -6.7058154e-06 -0.0018993457 2.7515034e-05 0.0010703135 -0.00041964647 0.00062270515 -7.97742e-05 -0.0005548309 -0.00041791456 0.00052661786 0.0007181432 0.0008527831 0.00042015282 -0.00045519797 -0.000851744 0.00046317768 -0.00024517218 -0.00067304424 -0.0012567666 0.0004382105 0.0018447129 -0.0003061479 -0.00020215541 -0.0009787455 -0.001015897 -8.10538e-05 -0.00032163202 0.00069780153 0.00018030606 0.00021728198 -0.0004768892 -0.00148086 -0.0019115082 -0.00081326975 0.00065005245 0.00027489636 0.00034889515 -0.0011831837 -0.0009598207 0.0010065901 -0.0006137563 -0.00012944354 -0.0005733218 -0.0006934981 0.0006025066 0.00014454426 -0.0018542785 0.0002814321 -0.0015353804 0.0007458808 -0.00088211114 -0.0016020619 0.0006618489 0.00062986085 0.00017239529 -0.0019291862 -0.00067469885 -0.0012388885 -0.0014208966 2.1158785e-05 -0.0008945054 -0.00012863397
11 -0.021120772 -0.00049343373 0.00010498405 -0.00019298977 0.0011920346 -0.00080627383 -0.0005821864 -3.9703187e-05 -2.3886012e-05 0.0014299557 0.0010148484 4.897025e-06 -6.68502e-06 -0.0018992856 2.7529719e-05 0.0010704269 -0.00041964723 0.00062273483 -7.9777594e-05 -0.0005548519 -0.00041787155 0.0005266137 0.0007180998 0.00085273315 0.00042014083 -0.0004551856 -0.0008517664 0.0004632156 -0.0002452307 -0.0006730919 -0.0012568642 0.00043825957 0.0018447014 -0.00030610492 -0.00020212142 -0.000978756 -0.0010157806 -8.1046914e-05 -0.00032168723 0.000697861 0.00018028631 0.00021726631 -0.0004769431 -0.0014807185 -0.0019114875 -0.0008133174 0.00065017707 0.00027486842 0.0003489317 -0.0011831642 -0.0009598187 0.001006564 -0.0006137463 -0.00012939665 -0.0005733287 -0.0006933892 0.0006025353 0.00014460509 -0.0018542288 0.00028145025 -0.0015354332 0.0007459933 -0.00088216126 -0.0016021321 0.00066192274 0.0006298554 0.00017233797 -0.0019292517 -0.00067461573 -0.0012388406 -0.0014209358 2.1176751e-05 -0.0008944463 -0.00012860386
12 -0.021120813 -0.0004934588 0.000104974206 -0.00019301969 0.0011920134 -0.00080627354 -0.0005821667 -3.96959e-05 -2.3898967e-05 0.0014299689 0.0010148296 4.8508386e-06 -6.7389437e-06 -0.0018993467 2.7513697e-05 0.0010704078 -0.0004196275 0.0006227364 -7.977991e-05 -0.0005548368 -0.00041784684 0.0005266391 0.0007181185 0.00085276586 0.00042017258 -0.00045519165 -0.0008517812 0.00046322803 -0.00024524317 -0.00067310303 -0.0012568505 0.00043829106 0.0018446901 -0.00030612288 -0.0002021003 -0.0009787625 -0.0010157516 -8.1084865e-05 -0.00032171916 0.0006978638 0.00018029429 0.00021723045 -0.00047698795 -0.0014807081 -0.0019115235 -0.0008133349 0.00065019977 0.00027484822 0.00034894363 -0.0011831764 -0.00095979794 0.0010065907 -0.0006137644 -0.00012940784 -0.000573323 -0.00069334474 0.00060253433 0.00014459787 -0.001854234 0.0002814395 -0.0015353961 0.00074599707 -0.00088219385 -0.0016022008 0.0006619435 0.0006298467 0.00017234891 -0.001929291 -0.00067459856 -0.0012388831 -0.0014209449 2.1228636e-05 -0.0008944178 -0.00012856843
13 -0.021120643 -0.0004934817 0.00010493175 -0.0001930549 0.0011919667 -0.00080625725 -0.0005821498 -3.9610015e-05 -2.3973413e-05 0.0014299718 0.0010149145 4.9445453e-06 -6.819246e-06 -0.001899488 2.7481054e-05 0.0010702359 -0.00041960756 0.0006227002 -7.9768826e-05 -0.00055478775 -0.00041788694 0.00052666327 0.00071818655 0.0008528589 0.0004202186 -0.00045522364 -0.0008517516 0.0004631875 -0.00024518327 -0.0006730311 -0.0012566926 0.0004382543 0.001844692 -0.00030620722 -0.00020212316 -0.0009787587 -0.001015874 -8.1138205e-05 -0.00032168432 0.0006977803 0.000180329 0.00021722176 -0.00047695774 -0.0014808798 -0.0019115866 -0.0008132958 0.0006500724 0.00027485428 0.00034890533 -0.0011832091 -0.0009597842 0.0010066524 -0.0006137993 -0.00012947131 -0.0005733109 -0.00069344795 0.000602492 0.0001445006 -0.0018543078 0.00028140444 -0.0015352821 0.0007458598 -0.00088215916 -0.0016021811 0.0006618523 0.00062984787 0.00017242788 -0.001929234 -0.0006747015 -0.0012389923 -0.0014208917 2.125595e-05 -0.0008944598 -0.00012856962
14 -0.021120586 -0.00049336045 0.00010500684 -0.00019291694 0.0011921029 -0.000806275 -0.00058228406 -3.972793e-05 -2.3819588e-05 0.0014299451 0.0010149257 5.0622575e-06 -6.4825826e-06 -0.001899121 2.7590515e-05 0.0010704957 -0.00041972037 0.00062273175 -7.975397e-05 -0.0005548986 -0.00041793793 0.0005265258 0.0007180288 0.000852618 0.00042005687 -0.00045517256 -0.0008517081 0.00046317867 -0.00024522486 -0.0006730195 -0.0012568531 0.00043815403 0.0018447486 -0.0003061035 -0.00020218443 -0.0009787636 -0.0010158711 -8.095059e-05 -0.0003216226 0.0006978325 0.00018029583 0.00021740943 -0.00047681935 -0.0014807747 -0.0019114116 -0.00081330555 0.0006501451 0.00027490302 0.00034890455 -0.0011831344 -0.00095993374 0.0010064975 -0.0006137014 -0.00012934928 -0.0005733876 -0.0006935246 0.00060256076 0.00014461462 -0.0018542341 0.00028149819 -0.0015355363 0.00074602023 -0.0008820564 -0.00160194 0.00066181493 0.0006298891 0.00017229399 -0.0019291022 -0.00067471573 -0.001238727 -0.0014208938 2.1037456e-05 -0.0008945484 -0.00012871172
15 -0.021120781 -0.0004934187 0.00010499522 -0.00019297127 0.0011920477 -0.0008062775 -0.000582197 -3.972064e-05 -2.3869145e-05 0.0014299474 0.0010148381 4.8969596e-06 -6.6540188e-06 -0.0018992383 2.753771e-05 0.0010704601 -0.00041965707 0.0006227378 -7.9780155e-05 -0.0005548668 -0.00041787454 0.0005266006 0.0007180853 0.00085270905 0.00042012136 -0.0004551783 -0.00085176574 0.00046321648 -0.0002452345 -0.00067310507 -0.0012568982 0.00043825334 0.0018447067 -0.00030607823 -0.00020212676 -0.0009787506 -0.0010157728 -8.102235e-05 -0.00032167707 0.000697876 0.00018027642 0.0002172753 -0.00047692924 -0.0014806942 -0.001911458 -0.0008133117 0.0006501833 0.00027488047 0.0003489323 -0.0011831545 -0.00095982343 0.0010065411 -0.00061373133 -0.00012938127 -0.0005733315 -0.0006933899 0.0006025425 0.00014462505 -0.0018542102 0.00028145858 -0.0015354668 0.00074600923 -0.000882155 -0.0016021064 0.00066193385 0.00062985386 0.0001723242 -0.0019292496 -0.0006745985 -0.001238808 -0.00142094 2.115139e-05 -0.0008944505 -0.00012861568
16 -0.0211207 -0.0004934348 0.00010496741 -0.0001929906 0.0011920208 -0.00080626935 -0.0005821807 -3.9655173e-05 -2.392675e-05 0.0014299478 0.0010149084 4.9727305e-06 -6.7058195e-06 -0.0018993296 2.7518545e-05 0.0010703396 -0.00041964577 0.00062271353 -7.977409e-05 -0.0005548349 -0.00041790784 0.0005266201 0.0007181327 0.0008527737 0.00042014904 -0.00045519543 -0.00085175 0.0004631863 -0.0002451823 -0.0006730544 -0.0012567937 0.00043822528 0.0018447073 -0.00030613592 -0.00020214613 -0.0009787483 -0.001015869 -8.105065e-05 -0.0003216433 0.00069781486 0.00018029871 0.00021727715 -0.00047690075 -0.001480826 -0.001911506 -0.0008132802 0.0006500836 0.0002748902 0.00034890036 -0.0011831794 -0.0009598162 0.0010065876 -0.00061375374 -0.00012943418 -0.00057332084 -0.000693474 0.00060251035 0.00014455781 -0.0018542696 0.0002814345 -0.0015353945 0.0007459041 -0.00088212395 -0.0016020801 0.0006618695 0.0006298623 0.00017238007 -0.0019292049 -0.00067467947 -0.0012388766 -0.0014209073 2.1161874e-05 -0.00089448725 -0.00012862629
17 -0.021120552 -0.00049336563 0.00010500072 -0.00019292635 0.001192096 -0.0008062734 -0.0005822818 -3.9717506e-05 -2.3826877e-05 0.0014299462 0.0010149382 5.0745602e-06 -6.492348e-06 -0.0018991405 2.7587344e-05 0.0010704744 -0.00041971766 0.0006227274 -7.97488e-05 -0.0005548923 -0.00041794204 0.0005265312 0.00071803527 0.0008526306 0.00042006583 -0.00045517838 -0.000851702 0.00046317358 -0.00024522035 -0.00067300495 -0.0012568261 0.0004381521 0.0018447475 -0.0003061205 -0.00020218364 -0.0009787664 -0.0010158826 -8.096127e-05 -0.00032162288 0.00069781864 0.00018030364 0.00021740799 -0.00047681815 -0.0014807957 -0.0019114257 -0.0008133059 0.0006501374 0.00027489956 0.00034889864 -0.0011831372 -0.00095993205 0.0010065099 -0.0006137067 -0.0001293544 -0.00057339045 -0.0006935339 0.0006025558 0.00014460029 -0.0018542451 0.00028149446 -0.0015355191 0.0007460077 -0.00088205485 -0.0016019442 0.00066180114 0.00062988873 0.00017230136 -0.0019290936 -0.00067473407 -0.0012387437 -0.001420886 2.1046299e-05 -0.00089454977 -0.00012870759
18 -0.021120792 -0.0004934364 0.00010498408 -0.00019299239 0.0011920329 -0.00080627465 -0.0005821837 -3.970423e-05 -2.3886563e-05 0.001429956 0.0010148435 4.888298e-06 -6.69138e-06 -0.0018992894 2.7527518e-05 0.0010704276 -0.0004196448 0.00062273524 -7.977868e-05 -0.0005548515 -0.00041786785 0.0005266172 0.00071810203 0.00085273694 0.0004201439 -0.00045518565 -0.00085176947 0.00046321767 -0.0002452325 -0.0006730968 -0.0012568674 0.00043826477 0.0018446998 -0.0003061031 -0.00020211811 -0.0009787559 -0.0010157747 -8.104981e-05 -0.00032169063 0.0006978639 0.00018028593 0.00021725989 -0.00047694895 -0.0014807135 -0.0019114903 -0.00081331894 0.0006501809 0.00027486755 0.00034893342 -0.0011831654 -0.0009598142 0.0010065656 -0.00061374716 -0.00012939688 -0.0005733277 -0.0006933817 0.00060253567 0.0001446069 -0.001854227 0.00028144917 -0.001535432 0.00074599497 -0.0008821663 -0.001602141 0.00066192925 0.000629853 0.00017233849 -0.0019292599 -0.0006746092 -0.0012388437 -0.0014209385 2.1182372e-05 -0.0008944415 -0.00012859881
19 -0.02112068 -0.0004934361 0.000104962885 -0.00019299245 0.0011920172 -0.00080626743 -0.0005821798 -3.9644623e-05 -2.393512e-05 0.0014299472 0.0010149202 4.987188e-06 -6.710989e-06 -0.001899342 2.7516771e-05 0.0010703211 -0.0004196448 0.00062270963 -7.977285e-05 -0.00055483024 -0.00041791337 0.0005266214 0.0007181386 0.0008527819 0.0004201526 -0.0004551976 -0.0008517467 0.00046318083 -0.00024517407 -0.00067304465 -0.0012567759 0.00043821847 0.0018447073 -0.00030614602 -0.00020215056 -0.0009787478 -0.001015886 -8.105434e-05 -0.00032163732 0.00069780473 0.00018030239 0.0002172797 -0.00047689507 -0.0014808476 -0.001911512 -0.00081327505 0.00065006653 0.0002748918 0.00034889515 -0.0011831824 -0.0009598168 0.0010065931 -0.0006137566 -0.00012944231 -0.0005733192 -0.0006934888 0.0006025051 0.00014454716 -0.0018542787 0.00028143096 -0.0015353835 0.0007458878 -0.00088211737 -0.0016020727 0.0006618565 0.0006298645 0.0001723887 -0.0019291947 -0.0006746944 -0.0012388849 -0.0014209009 2.1161679e-05 -0.000894495 -0.00012862979
20 -0.021120688 -0.000493489 0.00010493289 -0.0001930632 0.0011919668 -0.0008062606 -0.00058214006 -3.96114e-05 -2.3975233e-05 0.0014299719 0.0010149104 4.9308373e-06 -6.8292275e-06 -0.0018994907 2.7481028e-05 0.0010702416 -0.00041960416 0.0006227032 -7.976748e-05 -0.00055478857 -0.00041788176 0.00052667316 0.00071818556 0.0008528634 0.00042022372 -0.0004552232 -0.0008517567 0.0004631923 -0.00024518554 -0.00067303446 -0.0012566984 0.00043826824 0.0018446852 -0.00030620873 -0.0002021128 -0.0009787626 -0.0010158588 -8.114371e-05 -0.00032169247 0.00069778267 0.00018032889 0.0002172138 -0.0004769686 -0.0014808688 -0.0019115993 -0.0008133043 0.0006500893 0.0002748477 0.00034890676 -0.0011832094 -0.00095977593 0.0010066618 -0.0006138017 -0.00012947129 -0.0005733108 -0.0006934318 0.00060249114 0.00014450298 -0.0018543095 0.00028140453 -0.0015352817 0.00074586784 -0.00088216964 -0.0016022016 0.0006618645 0.0006298471 0.00017242304 -0.0019292479 -0.0006746971 -0.0012389944 -0.0014208999 2.1268232e-05 -0.0008944469 -0.00012855961
21 -0.021120513 -0.00049348804 0.000104914994 -0.0001930582 0.0011919483 -0.0008062468 -0.00058214145 -3.9569997e-05 -2.400149e-05 0.001429963 0.0010149645 5.0048675e-06 -6.8457725e-06 -0.0018995296 2.7467608e-05 0.0010701539 -0.00041959903 0.0006226842 -7.975457e-05 -0.0005547661 -0.0004179131 0.0005266728 0.0007182109 0.00085290434 0.00042023917 -0.0004552385 -0.00085173536 0.00046315778 -0.00024514738 -0.0006729861 -0.0012566146 0.0004382261 0.001844692 -0.0003062434 -0.00020214217 -0.0009787558 -0.001015947 -8.114947e-05 -0.000321657 0.0006977334 0.00018034423 0.0002172188 -0.00047692843 -0.0014809667 -0.001911607 -0.00081326556 0.0006500015 0.00027487325 0.00034886532 -0.0011832186 -0.0009597731 0.0010066765 -0.00061379984 -0.00012949752 -0.0005733051 -0.00069351256 0.00060246483 0.00014445756 -0.0018543402 0.0002813805 -0.0015352388 0.0007457831 -0.00088213506 -0.0016021485 0.0006617981 0.0006298548 0.00017246325 -0.001929194 -0.00067476416 -0.0012390318 -0.0014208565 2.1252465e-05 -0.00089448027 -0.00012857589
22 -0.021121174 -0.00049342704 0.000105081446 -0.00019299256 0.0011920632 -0.0008063355 -0.0005821916 -3.9950195e-05 -2.3690636e-05 0.0014299285 0.0010145156 4.4823114e-06 -6.647375e-06 -0.0018990345 2.7542223e-05 0.0010708155 -0.00041963081 0.0006228012 -7.979416e-05 -0.00055497367 -0.00041769457 0.00052663987 0.0007179954 0.00085262733 0.00042013393 -0.00045514942 -0.0008518487 0.00046333618 -0.00024542928 -0.0006733512 -0.001257233 0.0004384664 0.0018446718 -0.00030586985 -0.00020197677 -0.0009787547 -0.0010153364 -8.102373e-05 -0.00032184974 0.00069810444 0.00018021624 0.00021707588 -0.00047712727 -0.0014801795 -0.0019113752 -0.00081344007 0.00065058115 0.0002748446 0.0003490384 -0.0011830786 -0.00095968385 0.0010064548 -0.0006136613 -0.00012919254 -0.0005733724 -0.0006929606 0.0006026417 0.00014485182 -0.0018539632 0.00028150048 -0.0015356445 0.0007463539 -0.0008823877 -0.0016023953 0.00066227047 0.0006297389 0.00017217355 -0.0019295497 -0.0006742217 -0.0012386922 -0.0014210616 2.1266285e-05 -0.0008942027 -0.00012842448
23 -0.02112045 -0.0004933512 0.00010499193 -0.00019291052 0.0011920927 -0.0008062687 -0.00058229285 -3.967994e-05 -2.385199e-05 0.0014299344 0.0010149998 5.1677653e-06 -6.4811156e-06 -0.0018991494 2.7582979e-05 0.0010704056 -0.00041972773 0.00062270724 -7.9743e-05 -0.00055488537 -0.0004179869 0.0005265203 0.0007180562 0.0008526509 0.00042005876 -0.00045518516 -0.0008516774 0.00046313892 -0.0002451726 -0.00067296583 -0.0012567666 0.0004381017 0.0018447625 -0.00030613953 -0.00020222033 -0.000978757 -0.0010159803 -8.0945225e-05 -0.00032156735 0.00069777557 0.00018031306 0.00021743396 -0.00047675468 -0.0014808993 -0.0019114191 -0.0008132615 0.00065004 0.00027493297 0.00034886214 -0.001183145 -0.0009599408 0.0010065135 -0.0006137004 -0.00012937978 -0.00057338784 -0.00069363613 0.00060253567 0.00014456043 -0.0018542752 0.0002814847 -0.0015355047 0.00074592413 -0.0008820034 -0.00160186 0.0006617393 0.00062989764 0.00017233603 -0.0019290326 -0.00067479844 -0.0012387559 -0.0014208504 2.1005253e-05 -0.0008946024 -0.00012874513
24 -0.021120487 -0.000493362 0.00010498799 -0.00019291813 0.001192086 -0.00080627075 -0.000582277 -3.9672625e-05 -2.3865794e-05 0.0014299338 0.0010149961 5.1507404e-06 -6.5061095e-06 -0.0018991692 2.7578068e-05 0.0010703941 -0.00041971807 0.0006227067 -7.9748046e-05 -0.0005548798 -0.0004179796 0.00052653486 0.00071806624 0.0008526664 0.00042006804 -0.00045518397 -0.000851689 0.0004631434 -0.00024516752 -0.000672975 -0.0012567695 0.00043811483 0.0018447546 -0.00030614 -0.00020221226 -0.0009787551 -0.0010159734 -8.095468e-05 -0.00032157113 0.0006977775 0.00018031088 0.00021742012 -0.00047676932 -0.001480899 -0.0019114335 -0.00081326213 0.00065003685 0.00027492977 0.00034886535 -0.0011831501 -0.00095992774 0.0010065257 -0.0006137078 -0.00012939206 -0.00057337945 -0.0006936224 0.0006025309 0.0001445601 -0.0018542804 0.00028147915 -0.0015354917 0.0007459161 -0.000882014 -0.0016018789 0.0006617528 0.0006298969 0.00017234277 -0.0019290466 -0.00067479187 -0.0012387679 -0.0014208595 2.1020707e-05 -0.00089459424 -0.00012873621
25 -0.021120781 -0.0004934281 0.000104989325 -0.00019298338 0.00119204 -0.0008062763 -0.00058218965 -3.9712213e-05 -2.3878005e-05 0.0014299514 0.0010148417 4.893088e-06 -6.6730204e-06 -0.001899264 2.753345e-05 0.0010704434 -0.0004196506 0.00062273646 -7.977823e-05 -0.00055485894 -0.0004178713 0.0005266094 0.0007180928 0.0008527229 0.00042013323 -0.00045518263 -0.00085176656 0.00046321712 -0.0002452336 -0.0006730987 -0.0012568809 0.00043825994 0.0018447018 -0.00030609296 -0.0002021213 -0.0009787541 -0.0010157723 -8.1037615e-05 -0.00032168487 0.00069786864 0.00018028168 0.0002172678 -0.00047693946 -0.0014807032 -0.0019114756 -0.000813317 0.0006501845 0.00027487215 0.00034893292 -0.0011831594 -0.00095981854 0.001006555 -0.00061373966 -0.0001293885 -0.0005733302 -0.0006933846 0.00060253864 0.00014461487 -0.001854219 0.00028145406 -0.0015354484 0.00074600306 -0.0008821611 -0.0016021252 0.0006619305 0.00062985363 0.00017233049 -0.0019292538 -0.00067460607 -0.0012388262 -0.0014209388 2.1168265e-05 -0.0008944449 -0.00012860613
26 -0.021120772 -0.00049343373 0.00010498405 -0.00019298977 0.0011920346 -0.00080627383 -0.0005821864 -3.9703187e-05 -2.3886012e-05 0.0014299557 0.0010148484 4.897025e-06 -6.68502e-06 -0.0018992856 2.7529719e-05 0.0010704269 -0.00041964723 0.00062273483 -7.9777594e-05 -0.0005548519 -0.00041787155 0.0005266137 0.0007180998 0.00085273315 0.00042014083 -0.0004551856 -0.0008517664 0.0004632156 -0.0002452307 -0.0006730919 -0.0012568642 0.00043825957 0.0018447014 -0.00030610492 -0.00020212142 -0.000978756 -0.0010157806 -8.1046914e-05 -0.00032168723 0.000697861 0.00018028631 0.00021726631 -0.0004769431 -0.0014807185 -0.0019114875 -0.0008133174 0.00065017707 0.00027486842 0.0003489317 -0.0011831642 -0.0009598187 0.001006564 -0.0006137463 -0.00012939665 -0.0005733287 -0.0006933892 0.0006025353 0.00014460509 -0.0018542288 0.00028145025 -0.0015354332 0.0007459933 -0.00088216126 -0.0016021321 0.00066192274 0.0006298554 0.00017233797 -0.0019292517 -0.00067461573 -0.0012388406 -0.0014209358 2.1176751e-05 -0.0008944463 -0.00012860386
27 -0.021120688 -0.0004934639 0.00010495125 -0.00019302814 0.001191989 -0.00080626644 -0.00058215985 -3.9632105e-05 -2.3949544e-05 0.0014299576 0.0010149094 4.950981e-06 -6.772809e-06 -0.0018994119 2.7495367e-05 0.0010702849 -0.00041962287 0.0006227073 -7.976782e-05 -0.00055481255 -0.00041789294 0.0005266515 0.0007181634 0.0008528289 0.0004201941 -0.0004552095 -0.0008517553 0.00046318557 -0.0002451807 -0.0006730464 -0.0012567408 0.00043824804 0.0018446966 -0.00030617302 -0.00020213002 -0.0009787561 -0.0010158679 -8.1097984e-05 -0.00032166648 0.0006977959 0.00018031689 0.00021723492 -0.00047693387 -0.0014808525 -0.0019115552 -0.00081328803 0.00065008114 0.00027487654 0.00034889474 -0.0011831942 -0.0009597862 0.0010066266 -0.00061377155 -0.00012945407 -0.00057331607 -0.0006934541 0.0006024988 0.00014452937 -0.0018542863 0.0002814147 -0.0015353385 0.0007458775 -0.0008821493 -0.0016021422 0.0006618681 0.0006298521 0.00017240713 -0.0019292312 -0.0006746887 -0.0012389397 -0.0014208999 2.1218704e-05 -0.0008944639 -0.00012858737
28 -0.021120561 -0.0004933536 0.00010501002 -0.00019290984 0.0011921076 -0.00080627494 -0.000582292 -3.9733663e-05 -2.3810977e-05 0.0014299433 0.0010149265 5.0700232e-06 -6.466658e-06 -0.0018991043 2.7594293e-05 0.0010705054 -0.00041972555 0.0006227323 -7.9751844e-05 -0.0005549033 -0.00041794145 0.00052651804 0.00071802194 0.00085260795 0.00042005008 -0.00045517192 -0.00085170346 0.0004631765 -0.00024522713 -0.0006730172 -0.0012568566 0.0004381471 0.0018447529 -0.00030609878 -0.0002021888 -0.0009787632 -0.0010158734 -8.09422e-05 -0.0003216188 0.0006978334 0.00018029507 0.0002174168 -0.00047681062 -0.0014807713 -0.0019114009 -0.000813304 0.00065014645 0.00027490713 0.00034890234 -0.00118313 -0.00095993956 0.0010064893 -0.00061369553 -0.00012934169 -0.0005733922 -0.0006935308 0.0006025636 0.00014461848 -0.0018542296 0.00028150133 -0.0015355464 0.00074602565 -0.0008820512 -0.0016019267 0.0006618104 0.0006298897 0.00017228891 -0.0019290937 -0.0006747171 -0.0012387165 -0.0014208903 2.1026279e-05 -0.0008945526 -0.00012871755
29 -0.021120766 -0.0004934872 0.00010495424 -0.00019306043 0.0011919835 -0.0008062662 -0.00058214564 -3.9671824e-05 -2.3923621e-05 0.0014299775 0.0010148362 4.838198e-06 -6.8038507e-06 -0.0018994303 2.7494432e-05 0.0010703484 -0.00041960512 0.0006227283 -7.976981e-05 -0.00055481034 -0.00041783863 0.0005266668 0.00071814464 0.0008528159 0.00042021394 -0.00045521223 -0.0008517755 0.00046322626 -0.00024524383 -0.00067308004 -0.0012567857 0.00043831073 0.0018446768 -0.00030616738 -0.00020208208 -0.0009787708 -0.00101575 -8.113729e-05 -0.00032174445 0.00069783884 0.0001803127 0.0002171965 -0.0004770183 -0.0014807351 -0.0019115738 -0.0008133476 0.0006502039 0.0002748247 0.00034894087 -0.0011831891 -0.0009597741 0.0010066323 -0.00061378855 -0.00012942246 -0.0005733211 -0.00069332815 0.00060252065 0.00014456204 -0.0018542557 0.00028142202 -0.0015353317 0.00074597495 -0.0008822162 -0.0016022631 0.0006619311 0.000629837 0.00017237081 -0.0019293054 -0.00067461806 -0.0012389488 -0.0014209325 2.1284633e-05 -0.00089439383 -0.00012852983
30 -0.021120476 -0.0004933606 0.000104986604 -0.00019291746 0.0011920871 -0.00080626894 -0.00058228004 -3.9670864e-05 -2.3866158e-05 0.0014299367 0.0010149989 5.1557586e-06 -6.502569e-06 -0.0018991721 2.7579435e-05 0.0010703931 -0.00041971976 0.00062270695 -7.9748614e-05 -0.0005548785 -0.00041798083 0.00052653113 0.0007180652 0.0008526628 0.00042006618 -0.000455184 -0.0008516873 0.00046314351 -0.00024516883 -0.00067297084 -0.0012567657 0.0004381107 0.0018447561 -0.00030614407 -0.00020221488 -0.0009787558 -0.0010159772 -8.095523e-05 -0.00032157148 0.000697776 0.00018031195 0.0002174266 -0.00047676833 -0.0014809032 -0.0019114331 -0.00081326306 0.0006500352 0.0002749271 0.0003488676 -0.0011831513 -0.00095993496 0.0010065248 -0.0006137102 -0.00012939298 -0.00057338 -0.00069362647 0.0006025318 0.00014455772 -0.0018542833 0.00028148046 -0.0015354895 0.0007459168 -0.00088201044 -0.0016018759 0.00066174666 0.0006298992 0.0001723428 -0.0019290412 -0.0006747964 -0.0012387681 -0.0014208583 2.1018728e-05 -0.000894599 -0.00012874034
31 -0.021120781 -0.0004933995 0.00010500944 -0.00019294937 0.0011920654 -0.0008062843 -0.0005822149 -3.9743845e-05 -2.3844601e-05 0.0014299371 0.0010148251 4.897026e-06 -6.608422e-06 -0.0018991751 2.7551625e-05 0.0010705068 -0.00041967077 0.0006227419 -7.978261e-05 -0.000554889 -0.00041787443 0.000526584 0.00071806397 0.00085267506 0.00042009825 -0.00045516712 -0.00085176603 0.00046321857 -0.00024524154 -0.00067312067 -0.0012569386 0.00043824565 0.0018447129 -0.0003060486 -0.00020213211 -0.0009787461 -0.0010157604 -8.099255e-05 -0.00032166668 0.0006978947 0.0001802664 0.00021728885 -0.00047691373 -0.0014806623 -0.0019114241 -0.0008133092 0.0006501948 0.00027489354 0.00034893534 -0.0011831407 -0.00095983205 0.0010065122 -0.0006137116 -0.00012936069 -0.00057333906 -0.0006933866 0.0006025537 0.00014465202 -0.0018541857 0.00028147176 -0.0015355113 0.00074603554 -0.00088214775 -0.0016020752 0.0006619462 0.0006298519 0.00017230537 -0.0019292434 -0.00067458075 -0.0012387632 -0.0014209464 2.112146e-05 -0.0008944573 -0.00012863039
32 -0.02112069 -0.000493441 0.00010496338 -0.00019299935 0.001192013 -0.00080626644 -0.0005821754 -3.965169e-05 -2.3931245e-05 0.0014299494 0.0010149057 4.9657983e-06 -6.7232504e-06 -0.0018993492 2.7512677e-05 0.0010703267 -0.0004196397 0.000622712 -7.9771715e-05 -0.00055482826 -0.0004179052 0.0005266255 0.0007181387 0.0008527855 0.00042015905 -0.00045520125 -0.0008517481 0.00046318606 -0.00024518385 -0.0006730511 -0.0012567808 0.0004382305 0.0018447042 -0.00030614343 -0.00020214177 -0.0009787494 -0.0010158661 -8.106353e-05 -0.00032165035 0.0006978112 0.00018030162 0.0002172659 -0.00047690878 -0.0014808271 -0.0019115143 -0.0008132827 0.0006500864 0.00027488507 0.00034890007 -0.0011831812 -0.00095980783 0.0010065947 -0.00061375863 -0.00012943559 -0.00057331903 -0.0006934678 0.0006025069 0.00014455039 -0.0018542719 0.00028142933 -0.0015353796 0.0007458999 -0.0008821312 -0.0016020968 0.0006618686 0.0006298587 0.00017238497 -0.0019292114 -0.0006746788 -0.001238892 -0.0014209033 2.1175187e-05 -0.0008944789 -0.00012861511
33 -0.021120772 -0.00049343373 0.00010498405 -0.00019298977 0.0011920346 -0.00080627383 -0.0005821864 -3.9703187e-05 -2.3886012e-05 0.0014299557 0.0010148484 4.897025e-06 -6.68502e-06 -0.0018992856 2.7529719e-05 0.0010704269 -0.00041964723 0.00062273483 -7.9777594e-05 -0.0005548519 -0.00041787155 0.0005266137 0.0007180998 0.00085273315 0.00042014083 -0.0004551856 -0.0008517664 0.0004632156 -0.0002452307 -0.0006730919 -0.0012568642 0.00043825957 0.0018447014 -0.00030610492 -0.00020212142 -0.000978756 -0.0010157806 -8.1046914e-05 -0.00032168723 0.000697861 0.00018028631 0.00021726631 -0.0004769431 -0.0014807185 -0.0019114875 -0.0008133174 0.00065017707 0.00027486842 0.0003489317 -0.0011831642 -0.0009598187 0.001006564 -0.0006137463 -0.00012939665 -0.0005733287 -0.0006933892 0.0006025353 0.00014460509 -0.0018542288 0.00028145025 -0.0015354332 0.0007459933 -0.00088216126 -0.0016021321 0.00066192274 0.0006298554 0.00017233797 -0.0019292517 -0.00067461573 -0.0012388406 -0.0014209358 2.1176751e-05 -0.0008944463 -0.00012860386
34 -0.02112062 -0.0004932983 0.0001050546 -0.00019284425 0.0011921606 -0.0008062963 -0.0005823414 -3.980766e-05 -2.3738152e-05 0.0014299195 0.0010148783 5.054786e-06 -6.3380353e-06 -0.0018989242 2.763014e-05 0.0010706511 -0.00041976583 0.00062274747 -7.976622e-05 -0.000554968 -0.0004179387 0.000526469 0.00071796356 0.00085250667 0.00041997785 -0.00045513755 -0.00085171015 0.000463189 -0.0002452529 -0.00067307905 -0.0012569953 0.00043813122 0.0018447763 -0.00030599826 -0.00020220209 -0.0009787481 -0.001015827 -8.085099e-05 -0.00032159235 0.00069789955 0.00018026178 0.00021745448 -0.00047677162 -0.0014806668 -0.0019112974 -0.0008132979 0.0006501873 0.00027494496 0.0003489189 -0.0011830938 -0.0009599669 0.001006402 -0.0006136427 -0.00012928108 -0.00057341275 -0.000693514 0.0006026026 0.00014470551 -0.0018541574 0.0002815427 -0.0015356797 0.00074611 -0.0008820352 -0.0016018428 0.0006618626 0.00062988256 0.00017223116 -0.001929091 -0.00067464495 -0.0012385874 -0.0014209176 2.0939488e-05 -0.0008945696 -0.00012876047
35 -0.021120578 -0.000493354 0.00010501123 -0.00019291001 0.0011921081 -0.00080627727 -0.0005822904 -3.9735056e-05 -2.3811364e-05 0.0014299422 0.0010149224 5.063556e-06 -6.4669252e-06 -0.0018991011 2.7595546e-05 0.0010705106 -0.00041972497 0.0006227331 -7.975422e-05 -0.0005549058 -0.0004179379 0.0005265201 0.00071802124 0.0008526065 0.0004200495 -0.00045516895 -0.00085170753 0.00046317928 -0.0002452274 -0.000673023 -0.0012568645 0.00043815098 0.0018447508 -0.00030609555 -0.00020218648 -0.0009787627 -0.0010158675 -8.0941456e-05 -0.00032161953 0.0006978377 0.00018029317 0.00021741488 -0.00047681408 -0.0014807653 -0.0019114008 -0.0008133052 0.00065014913 0.0002749066 0.0003489054 -0.0011831295 -0.0009599372 0.0010064887 -0.00061369507 -0.00012934256 -0.0005733907 -0.00069352397 0.00060256454 0.00014462258 -0.0018542266 0.0002815025 -0.0015355496 0.000746029 -0.0008820539 -0.0016019297 0.00066181726 0.00062988914 0.0001722878 -0.0019290984 -0.00067471195 -0.0012387126 -0.0014208951 2.1027827e-05 -0.00089455105 -0.00012871683
36 -0.021118406 -0.00049276534 0.00010513226 -0.00019233763 0.0011925104 -0.0008062306 -0.0005829557 -3.978459e-05 -2.3468292e-05 0.0014297304 0.0010155783 6.478156e-06 -5.1177963e-06 -0.0018979383 2.7972255e-05 0.0010706786 -0.0004202125 0.0006226151 -7.956422e-05 -0.0005551792 -0.0004185595 0.00052585965 0.0007176004 0.00085190573 0.00041944493 -0.00045513362 -0.0008511715 0.0004627796 -0.0002449863 -0.00067240174 -0.0012565898 0.00043724087 0.001845068 -0.00030608484 -0.00020275632 -0.0009787134 -0.0010167939 -8.024136e-05 -0.0003209372 0.00069750444 0.00018032856 0.00021837885 -0.0004757081 -0.0014813935 -0.0019107069 -0.0008129745 0.0006495366 0.00027529063 0.0003485699 -0.0011828858 -0.0009606102 0.0010059717 -0.0006133165 -0.00012906853 -0.0005736907 -0.00069476943 0.00060260063 0.00014453643 -0.0018542423 0.00028174376 -0.0015361742 0.0007458545 -0.0008811685 -0.0016002815 0.00066088396 0.0006300955 0.00017213052 -0.0019278722 -0.00067553314 -0.0012379515 -0.0014204254 1.9908348e-05 -0.00089536206 -0.00012953757
37 -0.0211205 -0.0004933605 0.00010499073 -0.00019291666 0.0011920898 -0.0008062705 -0.0005822796 -3.968091e-05 -2.3858844e-05 0.0014299372 0.001014986 5.139188e-06 -6.5003233e-06 -0.0018991625 2.758033e-05 0.0010704105 -0.00041971996 0.00062271097 -7.975018e-05 -0.0005548826 -0.00041797446 0.0005265309 0.0007180602 0.0008526562 0.00042006388 -0.00045518205 -0.0008516912 0.0004631493 -0.00024517704 -0.00067298167 -0.0012567828 0.00043811867 0.0018447557 -0.0003061339 -0.00020220965 -0.000978756 -0.0010159594 -8.095294e-05 -0.00032157832 0.0006977865 0.00018030811 0.00021742201 -0.00047677572 -0.0014808812 -0.0019114286 -0.0008132684 0.0006500523 0.00027492497 0.00034887306 -0.0011831479 -0.00095993234 0.0010065198 -0.00061370834 -0.00012938566 -0.00057338073 -0.00069361017 0.0006025363 0.00014456814 -0.0018542745 0.00028148326 -0.0015354987 0.00074593286 -0.0008820187 -0.001601886 0.000661761 0.0006298965 0.00017233494 -0.0019290533 -0.0006747801 -0.001238761 -0.0014208653 2.1020876e-05 -0.0008945898 -0.00012873531
38 -0.021120708 -0.00049342716 0.00010497474 -0.00019298078 0.0011920261 -0.00080627034 -0.0005821876 -3.9667186e-05 -2.391427e-05 0.001429945 0.001014898 4.9673326e-06 -6.6920734e-06 -0.0018993068 2.7520093e-05 0.0010703588 -0.00041965034 0.00062271656 -7.9774654e-05 -0.0005548427 -0.00041790685 0.0005266124 0.0007181258 0.0008527628 0.00042014176 -0.0004551923 -0.0008517502 0.00046318682 -0.00024518685 -0.0006730646 -0.0012568126 0.00043822313 0.0018447118 -0.0003061203 -0.00020214927 -0.0009787465 -0.0010158625 -8.103904e-05 -0.00032164104 0.00069782505 0.00018029397 0.0002172764 -0.00047689554 -0.0014808088 -0.0019114887 -0.0008132773 0.00065008976 0.00027489802 0.00034889954 -0.0011831737 -0.00095981546 0.001006573 -0.00061374356 -0.00012942408 -0.000573322 -0.00069347146 0.00060251495 0.00014456933 -0.0018542565 0.00028143707 -0.0015354131 0.0007459139 -0.0008821239 -0.0016020713 0.00066187757 0.0006298601 0.00017237374 -0.0019292098 -0.0006746647 -0.0012388609 -0.0014209078 2.1150738e-05 -0.0008944856 -0.00012862869
39 -0.021120772 -0.00049343373 0.00010498405 -0.00019298977 0.0011920346 -0.00080627383 -0.0005821864 -3.9703187e-05 -2.3886012e-05 0.0014299557 0.0010148484 4.897025e-06 -6.68502e-06 -0.0018992856 2.7529719e-05 0.0010704269 -0.00041964723 0.00062273483 -7.9777594e-05 -0.0005548519 -0.00041787155 0.0005266137 0.0007180998 0.00085273315 0.00042014083 -0.0004551856 -0.0008517664 0.0004632156 -0.0002452307 -0.0006730919 -0.0012568642 0.00043825957 0.0018447014 -0.00030610492 -0.00020212142 -0.000978756 -0.0010157806 -8.1046914e-05 -0.00032168723 0.000697861 0.00018028631 0.00021726631 -0.0004769431 -0.0014807185 -0.0019114875 -0.0008133174 0.00065017707 0.00027486842 0.0003489317 -0.0011831642 -0.0009598187 0.001006564 -0.0006137463 -0.00012939665 -0.0005733287 -0.0006933892 0.0006025353 0.00014460509 -0.0018542288 0.00028145025 -0.0015354332 0.0007459933 -0.00088216126 -0.0016021321 0.00066192274 0.0006298554 0.00017233797 -0.0019292517 -0.00067461573 -0.0012388406 -0.0014209358 2.1176751e-05 -0.0008944463 -0.00012860386
40 -0.021120619 -0.00049337506 0.00010499686 -0.00019291794 0.0011920565 -0.0008062781 -0.0005822323 -3.968475e-05 -2.388495e-05 0.0014299144 0.0010149151 5.0361627e-06 -6.593458e-06 -0.0018991863 2.7541753e-05 0.0010703979 -0.00041968343 0.00062271 -7.977846e-05 -0.0005548798 -0.00041793933 0.00052656815 0.0007181011 0.00085271103 0.0004200888 -0.0004551728 -0.0008517359 0.0004631636 -0.0002451623 -0.0006730715 -0.0012568543 0.0004381649 0.0018447381 -0.00030606892 -0.00020219316 -0.000978726 -0.0010159166 -8.096251e-05 -0.00032157428 0.0006978329 0.0001802778 0.0002173218 -0.00047681472 -0.0014808234 -0.0019114059 -0.00081322977 0.00065002753 0.00027495628 0.0003488761 -0.0011831529 -0.0009598381 0.0010065116 -0.00061369606 -0.00012940548 -0.0005733284 -0.00069354527 0.000602521 0.00014459647 -0.0018542256 0.00028145252 -0.0015354914 0.00074589625 -0.0008820679 -0.0016019361 0.00066185615 0.0006298645 0.00017236648 -0.0019291512 -0.0006746727 -0.0012387789 -0.001420893 2.1054128e-05 -0.00089454255 -0.0001286912
41 -0.021120772 -0.00049343373 0.00010498405 -0.00019298977 0.0011920346 -0.00080627383 -0.0005821864 -3.9703187e-05 -2.3886012e-05 0.0014299557 0.0010148484 4.897025e-06 -6.68502e-06 -0.0018992856 2.7529719e-05 0.0010704269 -0.00041964723 0.00062273483 -7.9777594e-05 -0.0005548519 -0.00041787155 0.0005266137 0.0007180998 0.00085273315 0.00042014083 -0.0004551856 -0.0008517664 0.0004632156 -0.0002452307 -0.0006730919 -0.0012568642 0.00043825957 0.0018447014 -0.00030610492 -0.00020212142 -0.000978756 -0.0010157806 -8.1046914e-05 -0.00032168723 0.000697861 0.00018028631 0.00021726631 -0.0004769431 -0.0014807185 -0.0019114875 -0.0008133174 0.00065017707 0.00027486842 0.0003489317 -0.0011831642 -0.0009598187 0.001006564 -0.0006137463 -0.00012939665 -0.0005733287 -0.0006933892 0.0006025353 0.00014460509 -0.0018542288 0.00028145025 -0.0015354332 0.0007459933 -0.00088216126 -0.0016021321 0.00066192274 0.0006298554 0.00017233797 -0.0019292517 -0.00067461573 -0.0012388406 -0.0014209358 2.1176751e-05 -0.0008944463 -0.00012860386
42 -0.0211207 -0.0004934348 0.00010496741 -0.0001929906 0.0011920208 -0.00080626935 -0.0005821807 -3.9655173e-05 -2.392675e-05 0.0014299478 0.0010149084 4.9727305e-06 -6.7058195e-06 -0.0018993296 2.7518545e-05 0.0010703396 -0.00041964577 0.00062271353 -7.977409e-05 -0.0005548349 -0.00041790784 0.0005266201 0.0007181327 0.0008527737 0.00042014904 -0.00045519543 -0.00085175 0.0004631863 -0.0002451823 -0.0006730544 -0.0012567937 0.00043822528 0.0018447073 -0.00030613592 -0.00020214613 -0.0009787483 -0.001015869 -8.105065e-05 -0.0003216433 0.00069781486 0.00018029871 0.00021727715 -0.00047690075 -0.001480826 -0.001911506 -0.0008132802 0.0006500836 0.0002748902 0.00034890036 -0.0011831794 -0.0009598162 0.0010065876 -0.00061375374 -0.00012943418 -0.00057332084 -0.000693474 0.00060251035 0.00014455781 -0.0018542696 0.0002814345 -0.0015353945 0.0007459041 -0.00088212395 -0.0016020801 0.0006618695 0.0006298623 0.00017238007 -0.0019292049 -0.00067467947 -0.0012388766 -0.0014209073 2.1161874e-05 -0.00089448725 -0.00012862629
43 -0.021120796 -0.0004934132 0.000105001025 -0.00019296259 0.0011920542 -0.0008062796 -0.0005822003 -3.972994e-05 -2.3860995e-05 0.0014299438 0.0010148304 4.891855e-06 -6.6414655e-06 -0.001899217 2.7540282e-05 0.0010704781 -0.0004196611 0.00062274036 -7.97828e-05 -0.00055487396 -0.00041787376 0.00052659615 0.00071807957 0.00085269875 0.00042011292 -0.00045517387 -0.0008517688 0.00046321834 -0.00024523723 -0.00067311566 -0.0012569182 0.00043825293 0.0018447101 -0.00030606275 -0.00020212789 -0.0009787478 -0.0010157666 -8.101002e-05 -0.0003216738 0.0006978856 0.00018027118 0.00021727727 -0.00047692575 -0.0014806801 -0.0019114456 -0.0008133095 0.0006501877 0.00027488676 0.00034893316 -0.0011831508 -0.00095982465 0.0010065305 -0.00061372464 -0.00012937478 -0.0005733324 -0.00069338677 0.0006025468 0.00014463741 -0.0018542015 0.00028146245 -0.0015354829 0.00074601854 -0.0008821545 -0.0016020975 0.00066194386 0.0006298528 0.00017231746 -0.0019292529 -0.0006745863 -0.0012387927 -0.0014209455 2.1141128e-05 -0.0008944506 -0.00012862004
44 -0.021120565 -0.0004933567 0.00010501123 -0.0001929138 0.0011921019 -0.0008062739 -0.00058228837 -3.973836e-05 -2.3808732e-05 0.0014299441 0.0010149139 5.0525887e-06 -6.480018e-06 -0.0018991114 2.7588248e-05 0.0010705059 -0.0004197204 0.00062273355 -7.975162e-05 -0.0005549014 -0.00041793505 0.0005265213 0.0007180254 0.00085261476 0.00042005698 -0.0004551745 -0.0008517051 0.00046317893 -0.00024523202 -0.0006730251 -0.001256861 0.00043815543 0.0018447511 -0.00030609482 -0.00020218424 -0.0009787633 -0.0010158613 -8.094906e-05 -0.00032162672 0.00069783896 0.00018029402 0.00021740136 -0.00047681952 -0.0014807577 -0.0019113991 -0.0008133055 0.0006501559 0.00027490626 0.00034890353 -0.0011831303 -0.0009599283 0.0010064886 -0.0006136943 -0.00012933834 -0.00057338894 -0.00069351704 0.0006025637 0.00014462013 -0.0018542212 0.0002814974 -0.0015355436 0.00074602856 -0.00088206143 -0.0016019434 0.0006618207 0.0006298843 0.00017229015 -0.0019291099 -0.0006747019 -0.0012387236 -0.0014208896 2.1036154e-05 -0.0008945402 -0.00012870555
45 -0.021120716 -0.00049341016 0.00010499518 -0.00019296442 0.0011920389 -0.00080627715 -0.0005821959 -3.97083e-05 -2.387738e-05 0.0014299257 0.001014861 4.93793e-06 -6.6631237e-06 -0.0018992312 2.752448e-05 0.0010704175 -0.00041965742 0.0006227219 -7.976921e-05 -0.00055486796 -0.00041790344 0.0005266032 0.00071810273 0.0008527384 0.0004201245 -0.0004551917 -0.0008517442 0.00046319052 -0.00024520577 -0.0006730908 -0.0012568661 0.0004382343 0.0018447142 -0.0003060706 -0.0002021402 -0.0009787389 -0.0010158181 -8.1013735e-05 -0.00032164057 0.000697854 0.0001802784 0.0002172572 -0.00047688777 -0.001480736 -0.0019114466 -0.0008132763 0.0006501329 0.00027491376 0.0003488961 -0.0011831509 -0.00095979345 0.0010065422 -0.00061371527 -0.00012937996 -0.0005733319 -0.0006934417 0.0006025249 0.00014460443 -0.0018542104 0.0002814449 -0.0015354635 0.00074595376 -0.0008821394 -0.0016020682 0.0006619153 0.00062984054 0.00017234468 -0.0019292327 -0.00067461526 -0.0012388214 -0.0014209123 2.1131782e-05 -0.0008944585 -0.00012861502
46 -0.021120459 -0.0004933303 0.000105005725 -0.00019288209 0.001192114 -0.00080627215 -0.00058230833 -3.9702067e-05 -2.3830331e-05 0.001429925 0.0010149892 5.171608e-06 -6.4343635e-06 -0.0018990852 2.7596758e-05 0.0010704518 -0.00041974252 0.00062271237 -7.9748184e-05 -0.00055490463 -0.00041799183 0.00052649993 0.00071803463 0.0008526134 0.0004200289 -0.0004551739 -0.0008516783 0.0004631409 -0.0002451778 -0.0006729814 -0.001256813 0.00043808957 0.0018447713 -0.00030610414 -0.00020222989 -0.0009787495 -0.0010159736 -8.090948e-05 -0.00032155283 0.00069779565 0.00018029884 0.00021745446 -0.0004767355 -0.0014808693 -0.0019113802 -0.0008132549 0.0006500456 0.0002749477 0.00034886532 -0.0011831326 -0.0009599553 0.0010064817 -0.0006136829 -0.00012936145 -0.00057339185 -0.0006936404 0.000602546 0.0001445886 -0.0018542551 0.00028149752 -0.0015355496 0.0007459475 -0.00088199147 -0.0016018201 0.00066175044 0.00062989997 0.00017231607 -0.001929023 -0.0006747798 -0.0012387086 -0.0014208585 2.0966707e-05 -0.00089461333 -0.00012876732
47 -0.021120688 -0.00049344 0.000104962295 -0.00019299526 0.0011920135 -0.000806269 -0.0005821744 -3.9642317e-05 -2.3939161e-05 0.001429946 0.0010149196 4.9821624e-06 -6.720673e-06 -0.0018993481 2.7513364e-05 0.0010703153 -0.00041964112 0.0006227087 -7.977338e-05 -0.00055482873 -0.00041791153 0.0005266278 0.0007181439 0.00085279054 0.00042015748 -0.00045519776 -0.0008517505 0.0004631807 -0.00024517058 -0.00067304855 -0.0012567757 0.00043822327 0.0018447055 -0.00030614535 -0.00020214794 -0.0009787473 -0.0010158854 -8.105684e-05 -0.00032163708 0.00069780415 0.00018030252 0.00021727178 -0.00047689799 -0.0014808497 -0.001911517 -0.000813273 0.0006500634 0.00027489397 0.00034889285 -0.0011831843 -0.000959809 0.001006598 -0.00061375677 -0.00012944626 -0.0005733169 -0.000693486 0.00060250296 0.00014454659 -0.0018542793 0.00028142796 -0.0015353799 0.00074588164 -0.0008821211 -0.001602078 0.0006618617 0.0006298629 0.0001723926 -0.0019292007 -0.00067469216 -0.0012388908 -0.0014209024 2.116712e-05 -0.0008944912 -0.00012862524
48 -0.02112056 -0.00049335323 0.000105008716 -0.00019290918 0.0011921086 -0.0008062744 -0.0005822924 -3.9729483e-05 -2.3814588e-05 0.0014299441 0.0010149329 5.07806e-06 -6.464434e-06 -0.0018991065 2.759583e-05 0.001070501 -0.00041972692 0.0006227316 -7.975257e-05 -0.000554902 -0.0004179445 0.0005265168 0.00071802246 0.0008526069 0.00042004825 -0.000455171 -0.00085170276 0.0004631752 -0.0002452234 -0.0006730132 -0.0012568526 0.0004381432 0.0018447532 -0.00030610274 -0.00020219146 -0.0009787634 -0.0010158807 -8.094108e-05 -0.00032161557 0.0006978298 0.0001802958 0.0002174234 -0.0004768071 -0.0014807805 -0.0019114026 -0.00081330276 0.0006501398 0.0002749066 0.00034890213 -0.0011831314 -0.0009599445 0.0010064904 -0.0006136975 -0.00012934604 -0.0005733914 -0.00069353834 0.00060256256 0.00014461519 -0.0018542347 0.0002815021 -0.0015355445 0.00074602116 -0.00088204595 -0.0016019203 0.0006618045 0.00062989304 0.00017229065 -0.0019290872 -0.00067472464 -0.0012387163 -0.0014208899 2.1023332e-05 -0.0008945586 -0.00012872308
49 -0.0211207 -0.0004934348 0.00010496741 -0.0001929906 0.0011920208 -0.00080626935 -0.0005821807 -3.9655173e-05 -2.392675e-05 0.0014299478 0.0010149084 4.9727305e-06 -6.7058195e-06 -0.0018993296 2.7518545e-05 0.0010703396 -0.00041964577 0.00062271353 -7.977409e-05 -0.0005548349 -0.00041790784 0.0005266201 0.0007181327 0.0008527737 0.00042014904 -0.00045519543 -0.00085175 0.0004631863 -0.0002451823 -0.0006730544 -0.0012567937 0.00043822528 0.0018447073 -0.00030613592 -0.00020214613 -0.0009787483 -0.001015869 -8.105065e-05 -0.0003216433 0.00069781486 0.00018029871 0.00021727715 -0.00047690075 -0.001480826 -0.001911506 -0.0008132802 0.0006500836 0.0002748902 0.00034890036 -0.0011831794 -0.0009598162 0.0010065876 -0.00061375374 -0.00012943418 -0.00057332084 -0.000693474 0.00060251035 0.00014455781 -0.0018542696 0.0002814345 -0.0015353945 0.0007459041 -0.00088212395 -0.0016020801 0.0006618695 0.0006298623 0.00017238007 -0.0019292049 -0.00067467947 -0.0012388766 -0.0014209073 2.1161874e-05 -0.00089448725 -0.00012862629
50 -0.02112078 -0.00049344084 0.000104988016 -0.00019300304 0.0011920216 -0.00080627453 -0.00058218883 -3.972612e-05 -2.3865683e-05 0.0014299643 0.0010148026 4.836397e-06 -6.7063224e-06 -0.0018992993 2.75179e-05 0.0010704509 -0.00041963658 0.00062274147 -7.977768e-05 -0.00055485364 -0.0004178411 0.00052661914 0.00071810075 0.0008527393 0.00042015972 -0.00045518955 -0.0008517751 0.0004632303 -0.00024526234 -0.00067311927 -0.0012568817 0.00043828637 0.0018447 -0.00030609473 -0.00020210432 -0.00097876 -0.0010157296 -8.106759e-05 -0.00032172215 0.0006978846 0.0001802877 0.00021722775 -0.00047698067 -0.0014806639 -0.0019114848 -0.0008133355 0.00065022416 0.00027485855 0.0003489467 -0.0011831624 -0.00095979904 0.0010065585 -0.0006137439 -0.00012937716 -0.0005733318 -0.0006933307 0.0006025475 0.00014462105 -0.0018541999 0.00028144705 -0.0015354316 0.0007460288 -0.00088219676 -0.00160219 0.00066195615 0.0006298369 0.00017233235 -0.0019292979 -0.00067456724 -0.001238854 -0.0014209412 2.1210346e-05 -0.00089441147 -0.00012856735
51 -0.02112058 -0.0004934019 0.00010498068 -0.00019297171 0.001192065 -0.0008062703 -0.00058225566 -3.9693066e-05 -2.3855215e-05 0.0014299658 0.0010149333 5.036691e-06 -6.567606e-06 -0.0018992409 2.756577e-05 0.0010704255 -0.00041969193 0.0006227252 -7.974883e-05 -0.0005548651 -0.00041791803 0.0005265661 0.00071806606 0.0008526819 0.0004201119 -0.00045519017 -0.00085171545 0.0004631837 -0.00024522754 -0.0006730012 -0.0012567798 0.00043818497 0.0018447331 -0.0003061638 -0.00020216008 -0.0009787775 -0.0010158666 -8.101807e-05 -0.00032166016 0.0006978059 0.0001803216 0.00021737037 -0.00047687042 -0.0014808143 -0.0019114872 -0.00081332715 0.00065015 0.0002748696 0.00034890935 -0.0011831585 -0.00095991214 0.0010065562 -0.00061373814 -0.00012937999 -0.00057338376 -0.0006934957 0.0006025488 0.00014457402 -0.0018542693 0.0002814785 -0.0015354535 0.00074599567 -0.0008820875 -0.0016020274 0.00066180737 0.00062988227 0.00017232465 -0.0019291289 -0.000674738 -0.0012388122 -0.0014208911 2.1116475e-05 -0.0008945235 -0.00012866671
52 -0.021120664 -0.0004934803 0.00010493266 -0.00019305194 0.0011919749 -0.0008062615 -0.0005821494 -3.9602954e-05 -2.3977673e-05 0.0014299693 0.0010149324 4.9657224e-06 -6.805735e-06 -0.0018994765 2.7487873e-05 0.0010702357 -0.00041961405 0.0006226996 -7.9768266e-05 -0.00055479247 -0.00041789573 0.00052666507 0.00071818364 0.00085285504 0.00042021205 -0.00045521845 -0.00085175224 0.00046318388 -0.00024517355 -0.0006730233 -0.0012566906 0.00043824853 0.0018446922 -0.00030621173 -0.00020212651 -0.0009787608 -0.0010158889 -8.112799e-05 -0.00032167323 0.0006977729 0.00018033087 0.00021723716 -0.0004769461 -0.0014808989 -0.001911594 -0.0008132937 0.00065006217 0.00027485783 0.00034889905 -0.0011832097 -0.00095979276 0.0010066577 -0.00061379845 -0.00012947786 -0.00057331444 -0.00069346564 0.0006024903 0.00014449854 -0.0018543197 0.0002814087 -0.0015352896 0.00074585294 -0.0008821481 -0.0016021628 0.00066184474 0.000629855 0.0001724264 -0.0019292204 -0.00067472097 -0.0012389831 -0.0014208949 2.1245583e-05 -0.0008944718 -0.00012858263
53 -0.021120483 -0.0004933557 0.00010499036 -0.00019291196 0.0011920923 -0.0008062691 -0.00058228505 -3.9677867e-05 -2.385894e-05 0.0014299352 0.001014995 5.155819e-06 -6.490928e-06 -0.0018991566 2.7582493e-05 0.0010704057 -0.00041972374 0.00062270864 -7.9748505e-05 -0.000554883 -0.00041798188 0.00052652525 0.00071805884 0.0008526531 0.00042005948 -0.0004551825 -0.0008516857 0.00046314404 -0.000245172 -0.00067297363 -0.0012567756 0.0004381084 0.0018447584 -0.0003061364 -0.00020221647 -0.0009787551 -0.0010159733 -8.0947764e-05 -0.00032157009 0.0006977807 0.00018030922 0.00021743098 -0.00047676414 -0.0014808937 -0.001911424 -0.0008132632 0.00065004063 0.00027492925 0.0003488686 -0.0011831477 -0.0009599384 0.0010065165 -0.0006137059 -0.00012938622 -0.00057338184 -0.00069362606 0.00060253474 0.00014456398 -0.0018542774 0.00028148398 -0.0015355009 0.00074592524 -0.0008820084 -0.001601869 0.0006617489 0.00062989886 0.00017233673 -0.0019290405 -0.00067479105 -0.0012387573 -0.0014208595 2.101069e-05 -0.0008945996 -0.0001287438
54 -0.021120813 -0.0004934255 0.00010499448 -0.00019297881 0.0011920448 -0.00080628064 -0.00058219343 -3.9722163e-05 -2.3869652e-05 0.001429952 0.0010148298 4.8795664e-06 -6.6635034e-06 -0.0018992502 2.753588e-05 0.0010704636 -0.00041965352 0.0006227396 -7.978314e-05 -0.0005548668 -0.00041786436 0.00052660797 0.0007180887 0.00085271365 0.0004201284 -0.00045517663 -0.0008517735 0.00046322274 -0.00024524034 -0.00067311426 -0.0012569022 0.0004382646 0.0018447045 -0.0003060795 -0.00020211884 -0.0009787531 -0.0010157593 -8.103008e-05 -0.0003216876 0.0006978812 0.00018027841 0.00021726721 -0.00047694438 -0.0014806862 -0.0019114687 -0.0008133204 0.00065019453 0.00027487427 0.0003489396 -0.0011831572 -0.0009598203 0.001006547 -0.00061373657 -0.00012938339 -0.0005733332 -0.0006933725 0.0006025463 0.00014462892 -0.0018542105 0.00028145936 -0.0015354623 0.00074601796 -0.0008821661 -0.0016021266 0.0006619452 0.00062985136 0.00017232429 -0.0019292622 -0.00067458965 -0.0012388142 -0.0014209474 2.1165779e-05 -0.0008944434 -0.00012860681
55 -0.02112065 -0.0004934593 0.00010494573 -0.00019302375 0.0011919936 -0.0008062585 -0.0005821601 -3.9623377e-05 -2.3959741e-05 0.0014299571 0.0010149264 4.97835e-06 -6.768116e-06 -0.0018994166 2.749897e-05 0.0010702674 -0.00041962648 0.0006227031 -7.9767706e-05 -0.0005548043 -0.0004179106 0.00052664126 0.00071816327 0.00085282215 0.00042018286 -0.0004552157 -0.00085174147 0.00046317972 -0.00024517247 -0.0006730271 -0.0012567246 0.00043823235 0.0018446984 -0.00030617943 -0.00020213822 -0.0009787527 -0.0010158885 -8.1096194e-05 -0.00032165594 0.0006977845 0.00018031478 0.00021725544 -0.00047691748 -0.0014808722 -0.0019115498 -0.0008132824 0.0006500651 0.00027487183 0.0003488954 -0.0011831953 -0.0009598006 0.0010066258 -0.00061378087 -0.00012945748 -0.0005733136 -0.00069348153 0.00060249335 0.00014451542 -0.0018543001 0.00028141664 -0.0015353276 0.00074586563 -0.00088213285 -0.0016021205 0.0006618456 0.00062985846 0.00017240822 -0.0019292063 -0.0006747072 -0.0012389424 -0.001420891 2.1204096e-05 -0.0008944778 -0.00012860222
56 -0.021120582 -0.0004933519 0.00010501452 -0.00019290631 0.0011921084 -0.0008062763 -0.00058229204 -3.9740607e-05 -2.3805973e-05 0.0014299424 0.001014916 5.0582357e-06 -6.4661563e-06 -0.001899096 2.7593007e-05 0.0010705163 -0.00041972558 0.00062273495 -7.975423e-05 -0.000554907 -0.00041793726 0.0005265172 0.0007180208 0.0008526053 0.00042004857 -0.00045516912 -0.0008517076 0.00046317917 -0.00024522984 -0.0006730288 -0.0012568722 0.00043815112 0.0018447539 -0.0003060879 -0.00020218798 -0.000978762 -0.0010158644 -8.093791e-05 -0.0003216201 0.00069784233 0.00018029117 0.00021741053 -0.00047681291 -0.0014807574 -0.0019113929 -0.00081330276 0.000650152 0.0002749109 0.0003489037 -0.0011831283 -0.0009599345 0.0010064825 -0.00061369064 -0.0001293383 -0.0005733898 -0.00069352274 0.00060256606 0.00014462655 -0.0018542203 0.00028150153 -0.0015355557 0.00074603123 -0.0008820556 -0.0016019293 0.0006618222 0.00062988745 0.00017228666 -0.0019291048 -0.00067470205 -0.0012387104 -0.0014208942 2.1024925e-05 -0.00089454756 -0.00012871528
57 -0.021120453 -0.0004934034 0.00010495706 -0.00019297784 0.0011920462 -0.00080626283 -0.00058225426 -3.963376e-05 -2.3902678e-05 0.0014299592 0.0010150098 5.1353854e-06 -6.5901286e-06 -0.0018993017 2.755285e-05 0.0010703134 -0.0004196913 0.00062269706 -7.9741214e-05 -0.0005548424 -0.00041796328 0.0005265717 0.0007181056 0.00085273077 0.00042012418 -0.00045520646 -0.0008516885 0.0004631467 -0.00024517332 -0.00067294616 -0.0012566778 0.00043814027 0.001844742 -0.00030621083 -0.00020218929 -0.0009787702 -0.0010159756 -8.102897e-05 -0.00032161077 0.00069774373 0.00018034207 0.00021738699 -0.0004768191 -0.0014809498 -0.001911514 -0.00081328664 0.0006500398 0.00027489025 0.00034887274 -0.0011831757 -0.0009599146 0.0010065871 -0.0006137516 -0.00012942182 -0.00057338056 -0.000693601 0.0006025198 0.00014451014 -0.0018543222 0.00028146108 -0.0015353988 0.00074589095 -0.0008820416 -0.001601967 0.00066173245 0.0006298883 0.00017237575 -0.0019290637 -0.000674824 -0.0012388632 -0.0014208503 2.1102393e-05 -0.00089457474 -0.0001286918
58 -0.021120586 -0.00049336045 0.00010500684 -0.00019291694 0.0011921029 -0.000806275 -0.00058228406 -3.972793e-05 -2.3819588e-05 0.0014299451 0.0010149257 5.0622575e-06 -6.4825826e-06 -0.001899121 2.7590515e-05 0.0010704957 -0.00041972037 0.00062273175 -7.975397e-05 -0.0005548986 -0.00041793793 0.0005265258 0.0007180288 0.000852618 0.00042005687 -0.00045517256 -0.0008517081 0.00046317867 -0.00024522486 -0.0006730195 -0.0012568531 0.00043815403 0.0018447486 -0.0003061035 -0.00020218443 -0.0009787636 -0.0010158711 -8.095059e-05 -0.0003216226 0.0006978325 0.00018029583 0.00021740943 -0.00047681935 -0.0014807747 -0.0019114116 -0.00081330555 0.0006501451 0.00027490302 0.00034890455 -0.0011831344 -0.00095993374 0.0010064975 -0.0006137014 -0.00012934928 -0.0005733876 -0.0006935246 0.00060256076 0.00014461462 -0.0018542341 0.00028149819 -0.0015355363 0.00074602023 -0.0008820564 -0.00160194 0.00066181493 0.0006298891 0.00017229399 -0.0019291022 -0.00067471573 -0.001238727 -0.0014208938 2.1037456e-05 -0.0008945484 -0.00012871172
59 -0.021120792 -0.0004934082 0.00010500981 -0.00019296119 0.0011920565 -0.00080628035 -0.0005822085 -3.9754188e-05 -2.383847e-05 0.001429944 0.0010148019 4.863588e-06 -6.6331027e-06 -0.0018991951 2.7541046e-05 0.0010705091 -0.00041966216 0.00062274537 -7.978063e-05 -0.00055488286 -0.00041786284 0.00052658975 0.0007180684 0.0008526854 0.00042011117 -0.00045517538 -0.0008517661 0.00046322538 -0.00024525786 -0.0006731306 -0.0012569412 0.0004382636 0.0018447116 -0.00030604537 -0.00020211996 -0.0009787489 -0.0010157322 -8.100964e-05 -0.00032168897 0.00069790374 0.00018026699 0.00021726404 -0.00047693512 -0.0014806339 -0.0019114276 -0.00081331993 0.0006502242 0.0002748837 0.00034894145 -0.0011831414 -0.0009598173 0.001006515 -0.000613716 -0.00012935056 -0.0005733387 -0.0006933576 0.00060255674 0.00014465317 -0.0018541758 0.00028146702 -0.0015355 0.000746051 -0.00088217034 -0.0016021158 0.00066196336 0.00062984164 0.00017230293 -0.0019292728 -0.00067455415 -0.0012387822 -0.0014209453 2.1144599e-05 -0.0008944306 -0.00012860514
60 -0.021120792 -0.0004934129 0.00010500068 -0.00019296451 0.0011920537 -0.00080627966 -0.00058220053 -3.9730035e-05 -2.3860783e-05 0.001429943 0.0010148309 4.8929633e-06 -6.641411e-06 -0.0018992162 2.754161e-05 0.0010704774 -0.00041966085 0.0006227398 -7.9780846e-05 -0.00055487425 -0.00041787434 0.0005265959 0.00071807776 0.00085269805 0.0004201134 -0.00045517518 -0.0008517658 0.00046321796 -0.00024523746 -0.0006731122 -0.001256915 0.0004382534 0.0018447076 -0.00030606554 -0.00020212674 -0.0009787485 -0.0010157647 -8.1012586e-05 -0.0003216745 0.0006978841 0.00018027153 0.00021727687 -0.00047692552 -0.0014806782 -0.0019114461 -0.0008133113 0.0006501907 0.00027488434 0.00034893348 -0.0011831486 -0.0009598231 0.0010065312 -0.0006137247 -0.0001293728 -0.000573333 -0.0006933854 0.0006025457 0.00014463531 -0.0018542008 0.00028146253 -0.0015354824 0.0007460198 -0.0008821552 -0.0016020993 0.0006619418 0.00062985206 0.00017231646 -0.0019292512 -0.0006745884 -0.0012387923 -0.0014209433 2.1142427e-05 -0.00089444895 -0.00012861808
61 -0.021120777 -0.0004934174 0.000104996776 -0.00019297069 0.001192046 -0.0008062771 -0.000582203 -3.9724535e-05 -2.3862847e-05 0.0014299504 0.0010148324 4.8924376e-06 -6.6522834e-06 -0.0018992397 2.7535967e-05 0.0010704639 -0.00041965756 0.0006227391 -7.977958e-05 -0.0005548681 -0.0004178704 0.00052659743 0.00071808527 0.00085270836 0.0004201243 -0.00045517826 -0.0008517658 0.00046321674 -0.00024523903 -0.0006731084 -0.0012568983 0.0004382525 0.00184471 -0.0003060781 -0.00020212842 -0.0009787524 -0.0010157708 -8.1023805e-05 -0.00032168115 0.0006978788 0.0001802784 0.00021727175 -0.0004769313 -0.0014806904 -0.0019114545 -0.00081331306 0.00065018627 0.00027488178 0.00034893295 -0.0011831544 -0.0009598236 0.0010065367 -0.0006137283 -0.00012937821 -0.00057333324 -0.0006933868 0.0006025456 0.00014462667 -0.0018542053 0.0002814581 -0.0015354689 0.00074601296 -0.00088215695 -0.0016021095 0.0006619339 0.0006298522 0.00017232537 -0.0019292533 -0.00067459344 -0.0012388084 -0.001420937 2.1153155e-05 -0.00089444953 -0.00012861303
62 -0.021120813 -0.0004934588 0.000104974206 -0.00019301969 0.0011920134 -0.00080627354 -0.0005821667 -3.96959e-05 -2.3898967e-05 0.0014299689 0.0010148296 4.8508386e-06 -6.7389437e-06 -0.0018993467 2.7513697e-05 0.0010704078 -0.0004196275 0.0006227364 -7.977991e-05 -0.0005548368 -0.00041784684 0.0005266391 0.0007181185 0.00085276586 0.00042017258 -0.00045519165 -0.0008517812 0.00046322803 -0.00024524317 -0.00067310303 -0.0012568505 0.00043829106 0.0018446901 -0.00030612288 -0.0002021003 -0.0009787625 -0.0010157516 -8.1084865e-05 -0.00032171916 0.0006978638 0.00018029429 0.00021723045 -0.00047698795 -0.0014807081 -0.0019115235 -0.0008133349 0.00065019977 0.00027484822 0.00034894363 -0.0011831764 -0.00095979794 0.0010065907 -0.0006137644 -0.00012940784 -0.000573323 -0.00069334474 0.00060253433 0.00014459787 -0.001854234 0.0002814395 -0.0015353961 0.00074599707 -0.00088219385 -0.0016022008 0.0006619435 0.0006298467 0.00017234891 -0.001929291 -0.00067459856 -0.0012388831 -0.0014209449 2.1228636e-05 -0.0008944178 -0.00012856843
63 -0.021120777 -0.0004934261 0.00010499154 -0.00019298011 0.0011920397 -0.00080627523 -0.0005821933 -3.9715702e-05 -2.3873145e-05 0.0014299531 0.0010148375 4.8906527e-06 -6.671178e-06 -0.001899262 2.7531396e-05 0.0010704469 -0.00041965148 0.0006227378 -7.97782e-05 -0.00055485975 -0.0004178701 0.0005266062 0.0007180928 0.0008527221 0.00042013353 -0.00045518237 -0.0008517668 0.00046321657 -0.00024523586 -0.00067310233 -0.0012568843 0.00043825817 0.0018447054 -0.00030608923 -0.00020212415 -0.0009787544 -0.0010157727 -8.103542e-05 -0.00032168563 0.0006978715 0.00018028154 0.00021726551 -0.00047693844 -0.0014807004 -0.0019114697 -0.00081331504 0.0006501847 0.00027487593 0.0003489314 -0.0011831594 -0.0009598183 0.0010065498 -0.0006137358 -0.00012938616 -0.00057333 -0.0006933854 0.0006025405 0.00014461705 -0.0018542146 0.00028145305 -0.0015354523 0.00074600376 -0.0008821613 -0.0016021238 0.0006619315 0.00062985317 0.0001723311 -0.0019292573 -0.00067460036 -0.0012388253 -0.0014209364 2.1165979e-05 -0.0008944443 -0.00012860599
64 -0.021120464 -0.0004933675 0.00010498142 -0.0001929279 0.0011920795 -0.0008062689 -0.0005822749 -3.966113e-05 -2.3873949e-05 0.0014299348 0.0010150097 5.1646357e-06 -6.5164795e-06 -0.00189919 2.757463e-05 0.0010703709 -0.00041971554 0.0006227019 -7.9742655e-05 -0.0005548731 -0.0004179846 0.00052654033 0.00071807316 0.00085268 0.00042007738 -0.00045519014 -0.00085168245 0.00046313758 -0.0002451621 -0.0006729594 -0.0012567405 0.00043811218 0.001844753 -0.00030615795 -0.00020221187 -0.0009787577 -0.001015987 -8.096574e-05 -0.00032157073 0.0006977628 0.00018031914 0.00021741878 -0.00047676766 -0.0014809225 -0.0019114489 -0.0008132622 0.0006500275 0.0002749265 0.00034885883 -0.0011831532 -0.000959926 0.0010065384 -0.0006137136 -0.00012939794 -0.00057338213 -0.0006936334 0.00060252525 0.00014454461 -0.0018542926 0.00028147508 -0.0015354741 0.0007459019 -0.00088201155 -0.0016018825 0.0006617375 0.0006298964 0.00017235104 -0.0019290377 -0.00067481154 -0.0012387848 -0.0014208509 2.1029558e-05 -0.00089459645 -0.00012873225
65 -0.021120813 -0.0004934588 0.000104974206 -0.00019301969 0.0011920134 -0.00080627354 -0.0005821667 -3.96959e-05 -2.3898967e-05 0.0014299689 0.0010148296 4.8508386e-06 -6.7389437e-06 -0.0018993467 2.7513697e-05 0.0010704078 -0.0004196275 0.0006227364 -7.977991e-05 -0.0005548368 -0.00041784684 0.0005266391 0.0007181185 0.00085276586 0.00042017258 -0.00045519165 -0.0008517812 0.00046322803 -0.00024524317 -0.00067310303 -0.0012568505 0.00043829106 0.0018446901 -0.00030612288 -0.0002021003 -0.0009787625 -0.0010157516 -8.1084865e-05 -0.00032171916 0.0006978638 0.00018029429 0.00021723045 -0.00047698795 -0.0014807081 -0.0019115235 -0.0008133349 0.00065019977 0.00027484822 0.00034894363 -0.0011831764 -0.00095979794 0.0010065907 -0.0006137644 -0.00012940784 -0.000573323 -0.00069334474 0.00060253433 0.00014459787 -0.001854234 0.0002814395 -0.0015353961 0.00074599707 -0.00088219385 -0.0016022008 0.0006619435 0.0006298467 0.00017234891 -0.001929291 -0.00067459856 -0.0012388831 -0.0014209449 2.1228636e-05 -0.0008944178 -0.00012856843
66 -0.021120772 -0.00049343373 0.00010498405 -0.00019298977 0.0011920346 -0.00080627383 -0.0005821864 -3.9703187e-05 -2.3886012e-05 0.0014299557 0.0010148484 4.897025e-06 -6.68502e-06 -0.0018992856 2.7529719e-05 0.0010704269 -0.00041964723 0.00062273483 -7.9777594e-05 -0.0005548519 -0.00041787155 0.0005266137 0.0007180998 0.00085273315 0.00042014083 -0.0004551856 -0.0008517664 0.0004632156 -0.0002452307 -0.0006730919 -0.0012568642 0.00043825957 0.0018447014 -0.00030610492 -0.00020212142 -0.000978756 -0.0010157806 -8.1046914e-05 -0.00032168723 0.000697861 0.00018028631 0.00021726631 -0.0004769431 -0.0014807185 -0.0019114875 -0.0008133174 0.00065017707 0.00027486842 0.0003489317 -0.0011831642 -0.0009598187 0.001006564 -0.0006137463 -0.00012939665 -0.0005733287 -0.0006933892 0.0006025353 0.00014460509 -0.0018542288 0.00028145025 -0.0015354332 0.0007459933 -0.00088216126 -0.0016021321 0.00066192274 0.0006298554 0.00017233797 -0.0019292517 -0.00067461573 -0.0012388406 -0.0014209358 2.1176751e-05 -0.0008944463 -0.00012860386
67 -0.021120258 -0.0004931971 0.00010506519 -0.00019272862 0.0011922187 -0.0008062832 -0.0005824497 -3.9774157e-05 -2.3717563e-05 0.0014298878 0.0010150336 5.350119e-06 -6.130663e-06 -0.0018987741 2.7671704e-05 0.001070608 -0.00041985032 0.0006227141 -7.974876e-05 -0.00055499794 -0.00041807286 0.000526358 0.0007179359 0.0008524258 0.00041987526 -0.00045512925 -0.0008516252 0.00046309867 -0.00024516636 -0.0006729736 -0.0012569192 0.00043794 0.001844854 -0.00030599616 -0.00020233526 -0.000978725 -0.0010160777 -8.071552e-05 -0.00032142835 0.0006978196 0.0001802714 0.00021762717 -0.00047654618 -0.0014808768 -0.0019111809 -0.0008131901 0.000649973 0.00027505058 0.0003488349 -0.0011830771 -0.0009600867 0.0010063199 -0.0006135838 -0.0001292826 -0.0005734456 -0.0006938138 0.0006025937 0.00014466434 -0.0018541972 0.00028156667 -0.001535762 0.000745988 -0.0008818481 -0.0016015011 0.0006616751 0.0006299289 0.00017225284 -0.0019288586 -0.000674812 -0.0012384888 -0.0014208247 2.0721556e-05 -0.0008947577 -0.00012893601
68 -0.021120852 -0.0004934613 0.000104979925 -0.00019302056 0.001192012 -0.0008062755 -0.000582164 -3.9708786e-05 -2.3889852e-05 0.00142997 0.0010148069 4.8203733e-06 -6.746385e-06 -0.001899342 2.7509685e-05 0.0010704269 -0.00041962403 0.00062274194 -7.978242e-05 -0.0005548407 -0.0004178341 0.0005266425 0.0007181173 0.00085276575 0.0004201765 -0.00045518953 -0.0008517899 0.00046323574 -0.00024525402 -0.00067312276 -0.0012568735 0.00043830535 0.0018446894 -0.00030610873 -0.0002020927 -0.000978763 -0.0010157267 -8.108611e-05 -0.00032173106 0.0006978796 0.00018029004 0.00021721332 -0.00047700258 -0.0014806783 -0.0019115189 -0.0008133403 0.0006502209 0.00027484822 0.0003489489 -0.0011831749 -0.0009597865 0.0010065852 -0.00061375985 -0.00012940036 -0.0005733211 -0.00069331843 0.00060253957 0.00014461133 -0.001854219 0.0002814388 -0.0015354048 0.0007460136 -0.0008822097 -0.0016022226 0.0006619673 0.0006298406 0.00017234372 -0.001929317 -0.00067457027 -0.00123888 -0.0014209534 2.1237916e-05 -0.0008944008 -0.00012855534
69 -0.021120617 -0.0004933842 0.000104997445 -0.00019294536 0.0011920823 -0.0008062747 -0.0005822658 -3.9721075e-05 -2.3831446e-05 0.0014299579 0.0010149082 5.0189665e-06 -6.532993e-06 -0.0018991794 2.7575548e-05 0.0010704779 -0.00041970192 0.00062273355 -7.9755926e-05 -0.0005548844 -0.00041791433 0.00052654964 0.0007180462 0.0008526485 0.0004200871 -0.0004551783 -0.0008517218 0.00046319052 -0.00024523702 -0.0006730296 -0.001256839 0.00043818355 0.0018447387 -0.00030612104 -0.00020216448 -0.0009787701 -0.0010158436 -8.098668e-05 -0.00032165315 0.0006978347 0.00018030372 0.00021737597 -0.00047686172 -0.0014807653 -0.001911446 -0.00081332243 0.0006501669 0.0002748836 0.00034891575 -0.001183145 -0.0009599143 0.0010065228 -0.00061371893 -0.00012935969 -0.0005733829 -0.0006934825 0.00060256 0.00014460763 -0.0018542395 0.00028148817 -0.0015355002 0.00074602466 -0.0008820877 -0.0016020053 0.000661834 0.00062988116 0.00017230422 -0.001929138 -0.0006747003 -0.0012387673 -0.0014209024 2.1086724e-05 -0.0008945215 -0.00012867824
70 -0.02112084 -0.00049346517 0.000104972576 -0.0001930256 0.00119201 -0.0008062735 -0.00058216 -3.9694656e-05 -2.390292e-05 0.001429972 0.0010148241 4.837736e-06 -6.752011e-06 -0.00189936 2.7510461e-05 0.0010704062 -0.00041962313 0.0006227382 -7.9781865e-05 -0.0005548335 -0.00041784096 0.0005266452 0.00071812223 0.000852772 0.00042017837 -0.00045519182 -0.0008517865 0.00046323228 -0.00024524576 -0.00067310804 -0.0012568525 0.00043829958 0.0018446869 -0.0003061246 -0.00020209493 -0.0009787637 -0.0010157432 -8.109216e-05 -0.00032172666 0.00069786666 0.00018029423 0.00021722294 -0.00047699956 -0.0014807034 -0.0019115318 -0.0008133393 0.0006502063 0.000274843 0.00034894753 -0.001183179 -0.0009597933 0.0010065961 -0.00061376946 -0.00012941149 -0.00057331997 -0.0006933329 0.000602534 0.00014459809 -0.0018542361 0.0002814374 -0.0015353893 0.00074599957 -0.0008822022 -0.0016022176 0.0006619515 0.0006298461 0.00017235018 -0.0019293022 -0.00067459204 -0.0012388902 -0.0014209499 2.123986e-05 -0.00089441054 -0.00012856128
71 -0.021120753 -0.0004934358 0.00010497562 -0.00019299262 0.0011920192 -0.000806281 -0.00058218493 -3.967602e-05 -2.3910194e-05 0.0014299492 0.00101487 4.9220257e-06 -6.7048722e-06 -0.0018993157 2.7517832e-05 0.0010703778 -0.00041964272 0.00062271924 -7.9783895e-05 -0.00055485 -0.0004178791 0.0005266268 0.00071813 0.0008527672 0.0004201536 -0.0004551846 -0.00085177005 0.0004632028 -0.00024520286 -0.00067309383 -0.0012568345 0.000438248 0.0018447067 -0.00030611284 -0.00020213224 -0.0009787473 -0.001015825 -8.1050996e-05 -0.00032166074 0.0006978446 0.00018029471 0.00021725424 -0.00047692843 -0.0014807783 -0.0019114997 -0.0008132922 0.0006501138 0.00027488993 0.00034891855 -0.0011831765 -0.0009598039 0.0010065777 -0.00061374763 -0.00012942315 -0.0005733246 -0.000693424 0.00060252595 0.0001445871 -0.0018542425 0.00028144044 -0.0015354127 0.0007459381 -0.0008821494 -0.0016021106 0.00066191104 0.0006298487 0.00017237215 -0.0019292401 -0.000674634 -0.001238865 -0.0014209274 2.1178072e-05 -0.00089447043 -0.00012860929
72 -0.021120824 -0.00049345155 0.00010498163 -0.00019301029 0.0011920184 -0.0008062747 -0.0005821735 -3.9708488e-05 -2.3886098e-05 0.0014299664 0.001014818 4.843724e-06 -6.725664e-06 -0.0018993241 2.7515176e-05 0.001070428 -0.0004196318 0.0006227397 -7.978057e-05 -0.0005548447 -0.000417845 0.0005266317 0.00071811146 0.00085275486 0.00042016568 -0.00045518845 -0.00085178163 0.00046322914 -0.00024524855 -0.00067311386 -0.0012568703 0.00043828983 0.0018446944 -0.00030610705 -0.00020210282 -0.0009787608 -0.0010157435 -8.1073726e-05 -0.00032171805 0.00069787464 0.00018028947 0.00021722906 -0.00047698396 -0.0014806896 -0.0019115064 -0.0008133328 0.0006502077 0.00027485547 0.00034894343 -0.0011831706 -0.00095979695 0.0010065761 -0.0006137544 -0.00012939736 -0.00057332416 -0.00069334026 0.0006025393 0.00014460993 -0.0018542203 0.00028144216 -0.0015354147 0.0007460083 -0.0008821948 -0.0016021938 0.00066195277 0.0006298443 0.00017234214 -0.0019292969 -0.0006745826 -0.0012388673 -0.0014209459 2.121844e-05 -0.0008944153 -0.00012857001
73 -0.02112076 -0.00049347023 0.00010495462 -0.00019302801 0.0011919861 -0.0008062687 -0.0005821498 -3.9640167e-05 -2.3949911e-05 0.0014299621 0.0010148842 4.9109717e-06 -6.79169e-06 -0.0018994195 2.7488864e-05 0.0010702998 -0.00041961533 0.00062271394 -7.977823e-05 -0.0005548124 -0.00041787623 0.0005266587 0.0007181685 0.0008528328 0.00042019822 -0.00045520393 -0.00085177383 0.0004631978 -0.00024518857 -0.0006730758 -0.0012567731 0.00043826603 0.0018446947 -0.00030615515 -0.00020212229 -0.0009787537 -0.0010158428 -8.1100574e-05 -0.00032167815 0.0006978168 0.00018030855 0.00021721622 -0.00047695622 -0.0014808237 -0.0019115537 -0.000813291 0.0006500945 0.0002748757 0.00034890638 -0.0011831983 -0.00095977454 0.0010066238 -0.00061377336 -0.00012945718 -0.00057330605 -0.0006934237 0.000602503 0.00014454513 -0.0018542762 0.00028141186 -0.0015353411 0.0007458886 -0.00088216754 -0.0016021683 0.0006618999 0.000629849 0.0001724067 -0.0019292643 -0.0006746531 -0.0012389413 -0.0014209156 2.1231028e-05 -0.000894449 -0.00012857678
