74 74
0 -0.03502335 0.08861258 -0.03941553 0.020878036 -0.0057694837 -0.12211795 -0.011208661 -0.14048791 0.11507115 -0.028168343 0.028382247 -0.032049537 0.04732074 -0.0010620356 0.08646052 0.0306589 0.107624575 -0.025866752 0.047815576 -0.07951751 0.033862934 -0.102847725 -0.040507704 -0.0021989048 -0.081634216 0.07230583 0.02772113 -0.09172709 0.031091794 0.08899109 -0.056963976 -0.025398102 -0.027921898 -0.027529607 0.09018785 0.037344217 -0.0793183 0.022694765 0.04240337 0.017988069 0.047301617 0.022260677 0.027552426 -0.05930194 0.018060898 -0.055213287 0.02600056 -0.00020185113 -0.070460625 -0.050846945 -0.021226328 0.018673591 -0.07966549 -0.06514947 0.04230141 0.018366035 0.052984893 -0.094416045 0.104587734 -0.038396113 0.09199752 -0.019339755 0.049501028 0.03205903 0.051751833 -0.013353623 0.03902042 -0.026402362 -0.072531775 0.0146855535 -0.0564048 -0.00080241915 -0.15370966 0.034798533
1 -0.03614316 0.08843208 -0.04041058 0.020492068 -0.0071255937 -0.121701285 -0.010096621 -0.13977095 0.112296924 -0.029949225 0.02777673 -0.031965733 0.048374936 -0.00053752214 0.08566563 0.031775128 0.10790002 -0.027432162 0.04589896 -0.07852469 0.033610605 -0.10371426 -0.0400289 -0.001479093 -0.08300284 0.07231699 0.02645924 -0.090152346 0.033866853 0.08922887 -0.057845153 -0.0260324 -0.02852307 -0.02706698 0.09094055 0.036859795 -0.08027889 0.024735136 0.041867226 0.017531592 0.046003327 0.02092158 0.027817037 -0.0588289 0.01791688 -0.057352584 0.02664384 -0.0009777285 -0.068692714 -0.052738007 -0.020290654 0.02052024 -0.07925086 -0.066752195 0.044193864 0.018163802 0.05396298 -0.09349725 0.10544501 -0.038742542 0.09184183 -0.019755753 0.050472207 0.031162761 0.05190488 -0.011575056 0.038885936 -0.025564093 -0.07279354 0.014353686 -0.056873113 -0.0029460713 -0.15419258 0.033541873
2 -0.037568014 0.08986999 -0.043292865 0.02144727 -0.0091851875 -0.11892301 -0.013188668 -0.13356337 0.11218661 -0.03359832 0.029151564 -0.033390194 0.0531165 0.0023513064 0.080434695 0.03117956 0.107962966 -0.02322862 0.04465665 -0.07978531 0.028750628 -0.10159893 -0.03992277 -6.455276e-05 -0.08294783 0.078759514 0.022731211 -0.08566669 0.038503364 0.09333357 -0.056644186 -0.02289174 -0.030999362 -0.034932785 0.09398888 0.03516562 -0.084252015 0.027564049 0.042244084 0.014932388 0.046817392 0.019346204 0.030231945 -0.061126534 0.014601237 -0.058374982 0.03205955 -0.00077335536 -0.0698011 -0.054189824 -0.022448298 0.017283585 -0.076469734 -0.06439463 0.042179618 0.020944297 0.0533638 -0.091155544 0.10029549 -0.044551417 0.091634035 -0.019983519 0.051825583 0.03416512 0.052584693 -0.011792678 0.042751938 -0.03366626 -0.0761471 0.015316605 -0.05845566 -0.0038318336 -0.15656534 0.032020353
3 -0.037354056 0.09114759 -0.045653135 0.022758927 -0.010165781 -0.1189495 -0.014826633 -0.13138033 0.112222955 -0.03497313 0.029200904 -0.034479067 0.05453708 0.0033050403 0.07899478 0.032731824 0.1077055 -0.023378067 0.04452586 -0.08075158 0.027869392 -0.10225401 -0.039341033 -0.00027903356 -0.084285565 0.078901246 0.021160915 -0.0856355 0.04077676 0.092547484 -0.056427483 -0.023955073 -0.030184928 -0.036439557 0.095194 0.03590624 -0.0855421 0.029914893 0.04100173 0.014816765 0.04613014 0.018288933 0.03160982 -0.0633767 0.016487345 -0.059774153 0.034105975 -0.0042568035 -0.06768058 -0.054312836 -0.022460578 0.01977446 -0.07822459 -0.06424451 0.04246624 0.020259684 0.054929197 -0.09114055 0.099915855 -0.044437703 0.090689994 -0.021474428 0.053754855 0.034382194 0.051718928 -0.010679394 0.044555686 -0.035084344 -0.07577345 0.015920265 -0.059529103 -0.0044736266 -0.15627313 0.030120678
4 -0.034777083 0.08721881 -0.035978325 0.01897677 -0.0040674093 -0.1227222 -0.008854257 -0.14377372 0.11510161 -0.025798595 0.028203411 -0.03042397 0.044769406 -0.0028283969 0.088613234 0.028959416 0.1081315 -0.026369145 0.04832613 -0.07807951 0.035954118 -0.10180733 -0.04167698 -0.002576856 -0.079452544 0.070957 0.030490607 -0.0927285 0.027620599 0.088826105 -0.05745689 -0.024672933 -0.028372392 -0.02430518 0.08767855 0.036596075 -0.077350855 0.019572325 0.04362703 0.018511448 0.048151348 0.023811668 0.025325648 -0.055930033 0.0166417 -0.052962672 0.02258607 0.0034662783 -0.0726582 -0.04999379 -0.020884607 0.016531289 -0.07821852 -0.06564377 0.04199607 0.01821179 0.051066976 -0.0949278 0.105819516 -0.037542574 0.092823744 -0.017673094 0.046520073 0.031429306 0.05259528 -0.015210774 0.036403537 -0.02344644 -0.07222355 0.0139427055 -0.055094376 0.0007473603 -0.15327135 0.03716007
5 -0.03914457 0.09350636 -0.04793486 0.022784945 -0.012734413 -0.1175138 -0.016128913 -0.12598386 0.1099994 -0.039123848 0.030046308 -0.03416343 0.05797617 0.0049250126 0.07406033 0.033736274 0.10821101 -0.020989288 0.04299112 -0.0803452 0.025033414 -0.10177751 -0.039933894 0.00068843924 -0.08393648 0.082460016 0.01772768 -0.08136944 0.044898435 0.0943605 -0.056697026 -0.023014294 -0.0319568 -0.041577846 0.09708709 0.033510763 -0.09008077 0.032034554 0.04122203 0.011845507 0.045616135 0.016028069 0.034116633 -0.06411481 0.013746923 -0.062626444 0.0376399 -0.0052537695 -0.068050645 -0.05618798 -0.022558555 0.019318499 -0.07511507 -0.06342982 0.042193275 0.021687448 0.054076515 -0.08831494 0.097228184 -0.04795813 0.08889142 -0.021718793 0.05475843 0.0355872 0.051461644 -0.010002635 0.04706698 -0.040101476 -0.078361355 0.015509227 -0.060731947 -0.0062385574 -0.15765497 0.027442694
6 -0.03657192 0.09087079 -0.04216382 0.020905849 -0.009227058 -0.12270368 -0.010238444 -0.13715571 0.11036108 -0.03340558 0.027566765 -0.031627733 0.050024763 0.0005023144 0.08310508 0.034904845 0.10897419 -0.028031034 0.04422117 -0.07767357 0.032609336 -0.1049324 -0.040899243 -0.0014749076 -0.08366346 0.072676465 0.024870396 -0.088297814 0.03773682 0.08867673 -0.05943981 -0.027672846 -0.028066771 -0.027747504 0.09164549 0.03588057 -0.08336714 0.026042499 0.0414781 0.016343933 0.044659518 0.018718615 0.029681735 -0.05903301 0.018553456 -0.061121717 0.028301837 -0.003794888 -0.06726438 -0.05426668 -0.019746542 0.023625877 -0.07979191 -0.0681594 0.04529316 0.017515311 0.054227673 -0.0924859 0.10608987 -0.038678613 0.08958788 -0.02148423 0.051518213 0.030807722 0.050784767 -0.00999289 0.04044596 -0.026188873 -0.07293865 0.01400029 -0.057509784 -0.004733745 -0.15403874 0.030794382
7 -0.033402745 0.075082056 -0.02811253 0.016011715 0.007041618 -0.11816875 -0.0063150004 -0.1584534 0.1215887 -0.006631002 0.02914397 -0.030303357 0.034645207 -0.009849645 0.10234181 0.013065122 0.10174871 -0.027087606 0.057726696 -0.082532376 0.04428464 -0.09795104 -0.03583878 -0.002874153 -0.07731824 0.06440625 0.037320033 -0.104124025 0.006393738 0.08774113 -0.049658544 -0.019553829 -0.029606806 -0.018108241 0.083246075 0.04210256 -0.061320186 0.01598125 0.04302055 0.02442715 0.05281248 0.034991056 0.015447825 -0.055310734 0.015066249 -0.034130547 0.0124142915 0.014052473 -0.07681939 -0.042236008 -0.020017665 0.00537182 -0.07500065 -0.059701007 0.03960526 0.019303497 0.052332282 -0.09949552 0.10456363 -0.034855578 0.103812985 -0.007896189 0.042600002 0.030065086 0.05727284 -0.02180244 0.025931358 -0.016366899 -0.0713743 0.014375391 -0.052820235 0.00908041 -0.1533424 0.04990974
8 -0.0326076 0.07950753 -0.031065214 0.017083276 0.003310047 -0.119384676 -0.008628745 -0.15133065 0.12037785 -0.013886556 0.028382108 -0.031890586 0.03912255 -0.006027572 0.095832065 0.019146882 0.10408885 -0.025711682 0.053433962 -0.08061002 0.039874148 -0.096118234 -0.038639862 -0.002748486 -0.07697823 0.06883935 0.035471547 -0.09912012 0.0160207 0.08912093 -0.05223783 -0.01966607 -0.029227715 -0.02104556 0.08434096 0.03960625 -0.066793054 0.01703528 0.043891676 0.023057714 0.05200199 0.030856946 0.018364754 -0.05510215 0.016142638 -0.039986722 0.017327398 0.010170711 -0.07525922 -0.04397157 -0.022623122 0.008385892 -0.07770348 -0.06125076 0.03856757 0.018595282 0.050619807 -0.09868531 0.10385152 -0.03780875 0.09968987 -0.012817337 0.043054305 0.03238989 0.05605948 -0.020590208 0.031459764 -0.020497836 -0.07088944 0.016520346 -0.05414348 0.007758092 -0.15309173 0.045186006
9 -0.034687422 0.08614966 -0.03564664 0.018885452 -0.0027449653 -0.12140702 -0.009797536 -0.1441365 0.116608374 -0.0235755 0.028922029 -0.030803047 0.0444654 -0.0030422136 0.0889949 0.026288122 0.10699217 -0.024710031 0.049782723 -0.07943832 0.035710305 -0.10018372 -0.040944904 -0.0023118518 -0.07877612 0.07173601 0.030465491 -0.09337051 0.025174096 0.089650996 -0.055793814 -0.022800535 -0.02907452 -0.025831662 0.087773085 0.03682773 -0.07588208 0.019360617 0.043913566 0.018770207 0.04929924 0.025437623 0.024606902 -0.056684785 0.015520568 -0.050093375 0.022565223 0.00507503 -0.07402024 -0.048644215 -0.021847267 0.013574176 -0.07704171 -0.0636382 0.040529586 0.01906265 0.05058214 -0.095062695 0.10377277 -0.039009646 0.094226375 -0.016250186 0.04610747 0.032415446 0.053320732 -0.01665914 0.036085375 -0.025097221 -0.073101915 0.014625324 -0.055151112 0.002406668 -0.15393011 0.03864135
10 -0.034603707 0.08201277 -0.03407299 0.018507678 0.0010642149 -0.11807747 -0.010927171 -0.14678048 0.120023265 -0.017305948 0.030198215 -0.031815067 0.042697817 -0.00458974 0.09213005 0.019205261 0.10438624 -0.022787172 0.053736135 -0.0824005 0.03687232 -0.09767387 -0.038305536 -0.0020321591 -0.077818185 0.07252102 0.0315148 -0.096467204 0.018561717 0.09114008 -0.051507585 -0.019281378 -0.0306165 -0.027933003 0.0875446 0.03879516 -0.071522914 0.019750405 0.043339737 0.019870117 0.051926464 0.029191291 0.021855883 -0.058370158 0.01363715 -0.042280532 0.021480747 0.00880897 -0.07613923 -0.04584343 -0.02234868 0.007478876 -0.07472803 -0.059458796 0.038233418 0.020969942 0.0514324 -0.09612016 0.100472175 -0.04051231 0.098791055 -0.012428636 0.045514088 0.033535343 0.055558182 -0.019804541 0.03414288 -0.026813969 -0.07432253 0.015259074 -0.05539544 0.0057269074 -0.15501978 0.043270223
11 -0.03651448 0.09198756 -0.042681146 0.021334354 -0.009691998 -0.12209922 -0.0119120255 -0.13455334 0.11144884 -0.03467481 0.028314067 -0.032150332 0.051617175 0.0014824569 0.08089429 0.034754325 0.10935963 -0.025597353 0.04424375 -0.078145884 0.030714717 -0.103442684 -0.04170484 -0.0014677262 -0.08259486 0.07546043 0.024217866 -0.086894825 0.03898409 0.09016925 -0.058971673 -0.026211958 -0.028768092 -0.030954625 0.09220684 0.035080723 -0.085089795 0.026014086 0.0420226 0.015342198 0.045606315 0.018334646 0.03060887 -0.059625193 0.01736365 -0.060969412 0.030229047 -0.0035086423 -0.06852611 -0.05405692 -0.021116871 0.021804638 -0.0790506 -0.06678114 0.04350221 0.01847173 0.05317394 -0.09194807 0.10387212 -0.040866733 0.08906476 -0.02179043 0.05122041 0.03255342 0.050900646 -0.011061247 0.04239899 -0.029851265 -0.07394371 0.014522334 -0.057946976 -0.0040624216 -0.15450445 0.030427389
12 -0.03683674 0.09542234 -0.04417432 0.02193979 -0.012782425 -0.12427135 -0.011694819 -0.13186403 0.109347954 -0.039679676 0.027760675 -0.03152196 0.053441092 0.0026302524 0.07816091 0.039835356 0.11129087 -0.026216205 0.041748602 -0.07634937 0.02953146 -0.10550422 -0.04365721 -0.0017910441 -0.083259225 0.07542646 0.023017094 -0.08447641 0.043834522 0.089306004 -0.061782166 -0.028671235 -0.027871937 -0.030689482 0.09286362 0.033688303 -0.089014694 0.02598646 0.042371586 0.01403911 0.043881975 0.015418857 0.033213727 -0.05902949 0.018461538 -0.06678391 0.031613804 -0.0064538494 -0.0672359 -0.05615253 -0.020703048 0.025987025 -0.080348544 -0.06925412 0.044883847 0.017435044 0.052647326 -0.0908732 0.10572511 -0.04008337 0.085551284 -0.024498353 0.051983524 0.032093287 0.049172863 -0.008854773 0.044393055 -0.02983249 -0.07340789 0.013780478 -0.057940867 -0.0066294167 -0.15383454 0.02678791
13 -0.036079884 0.094238155 -0.043870345 0.022481032 -0.010682736 -0.12444664 -0.012033563 -0.1346346 0.11141547 -0.036208473 0.028055325 -0.03167642 0.05131904 0.0013519824 0.08112915 0.03783076 0.11006638 -0.02716255 0.044502575 -0.078209735 0.031494584 -0.10663038 -0.042052355 -0.0022400524 -0.08382657 0.07335688 0.023901887 -0.08799509 0.039870568 0.0879184 -0.06029332 -0.029499575 -0.026710458 -0.029818743 0.09252248 0.035839573 -0.08662188 0.026006434 0.041210204 0.0152539145 0.0443157 0.01709766 0.032301225 -0.06088045 0.01985262 -0.064003035 0.030259758 -0.0070796907 -0.067130014 -0.054562345 -0.019750454 0.025926977 -0.081321985 -0.06810687 0.0449216 0.017293759 0.054416485 -0.09235066 0.10612193 -0.03785331 0.08715795 -0.023382414 0.052734382 0.031272814 0.049122274 -0.009403706 0.042946626 -0.02830736 -0.0729228 0.013616981 -0.05798638 -0.0053096823 -0.15358704 0.028619535
14 -0.03657192 0.09087078 -0.04216382 0.02090585 -0.009227058 -0.12270367 -0.01023845 -0.13715571 0.11036107 -0.03340558 0.027566763 -0.031627737 0.050024748 0.00050232146 0.08310508 0.034904838 0.1089742 -0.028031034 0.04422117 -0.07767357 0.03260934 -0.1049324 -0.04089924 -0.0014749095 -0.08366347 0.07267646 0.024870396 -0.08829781 0.037736803 0.08867672 -0.0594398 -0.027672842 -0.02806677 -0.027747497 0.09164549 0.03588057 -0.083367154 0.026042491 0.041478097 0.01634394 0.04465952 0.018718615 0.029681727 -0.059033006 0.018553453 -0.061121725 0.028301839 -0.003794887 -0.06726437 -0.05426669 -0.019746544 0.023625854 -0.079791896 -0.068159394 0.04529316 0.017515311 0.054227673 -0.092485905 0.10608986 -0.03867861 0.08958788 -0.021484228 0.05151821 0.030807724 0.05078477 -0.009992879 0.040445965 -0.026188886 -0.07293865 0.014000292 -0.05750979 -0.0047337404 -0.15403876 0.03079437
15 -0.035236727 0.08974211 -0.037841827 0.019423094 -0.006269738 -0.12373826 -0.0090172775 -0.14103022 0.113073036 -0.029408641 0.027981685 -0.030097999 0.04651513 -0.0017278418 0.08594064 0.032215163 0.10923229 -0.026999421 0.04656804 -0.07721093 0.034892492 -0.103085786 -0.042548604 -0.0025573056 -0.080180824 0.07134533 0.028801627 -0.090786666 0.031684794 0.08826423 -0.05910124 -0.026377827 -0.027905513 -0.025042966 0.08844836 0.03559331 -0.08056556 0.020987704 0.04320265 0.0172772 0.046740383 0.021507375 0.027276743 -0.05618007 0.017313667 -0.056897476 0.024346493 0.0005091429 -0.071135126 -0.051603045 -0.020317132 0.019778574 -0.078788936 -0.06710544 0.043156426 0.01754462 0.05137925 -0.09386851 0.106477074 -0.03749352 0.09049353 -0.019478496 0.047650028 0.031060701 0.051434472 -0.013534151 0.038041376 -0.024117976 -0.0723806 0.0135852005 -0.05577345 -0.0011412762 -0.15312603 0.034285996
16 -0.03607897 0.0895305 -0.040910736 0.020920768 -0.007567793 -0.12107452 -0.011791479 -0.13716878 0.113426685 -0.03118807 0.028537327 -0.03250029 0.04996656 0.00044178963 0.0834597 0.031579055 0.108275905 -0.024956357 0.04594515 -0.07901538 0.031703573 -0.10218695 -0.0408336 -0.0014718673 -0.08191022 0.075134635 0.02581973 -0.08875564 0.03507775 0.09074979 -0.057348363 -0.02452844 -0.029240472 -0.030309193 0.091499925 0.036062445 -0.081982575 0.024688184 0.04242471 0.016532432 0.04698194 0.020562872 0.02873116 -0.059426483 0.016701713 -0.05714582 0.028574783 -0.0006483793 -0.069991805 -0.05250409 -0.021687573 0.018630587 -0.07849174 -0.06533526 0.042362776 0.019142514 0.052890938 -0.09296599 0.103187524 -0.04096196 0.09134277 -0.020042203 0.050155737 0.03293764 0.052037925 -0.01268024 0.040844407 -0.029268682 -0.07381056 0.01488789 -0.05730754 -0.0022405982 -0.1546669 0.03320796
17 -0.03535959 0.08749977 -0.037641212 0.019230045 -0.0049661174 -0.12334935 -0.007835973 -0.14422981 0.11262335 -0.026501894 0.027469298 -0.030064002 0.044557586 -0.0029998943 0.089071594 0.030715793 0.10775375 -0.02938595 0.04763533 -0.077863425 0.037138566 -0.10453267 -0.040390898 -0.0023448486 -0.08178413 0.068305 0.029138625 -0.09321008 0.028926939 0.08676477 -0.058279045 -0.02742339 -0.027319044 -0.022457168 0.088298574 0.037329882 -0.07759251 0.021918386 0.042014204 0.018694915 0.04604115 0.022713102 0.025889315 -0.056840565 0.01857986 -0.05536601 0.02243375 0.00023911893 -0.06962037 -0.051226437 -0.018741399 0.020847209 -0.07930252 -0.06742516 0.04484591 0.01694996 0.053428292 -0.09466839 0.107954115 -0.035348963 0.09223903 -0.01832136 0.04865294 0.02928238 0.05167304 -0.012605926 0.035599995 -0.020722665 -0.07160106 0.013274645 -0.05563024 -0.0014001653 -0.15297493 0.03548
18 -0.03704969 0.09446422 -0.045239203 0.022241265 -0.012171837 -0.122419685 -0.0129819345 -0.13070841 0.10987475 -0.038785957 0.028313752 -0.032614514 0.054435123 0.0033608768 0.07744612 0.03775917 0.110345975 -0.025346715 0.04225397 -0.07784848 0.028464187 -0.10409805 -0.04232791 -0.001173987 -0.08360118 0.07733725 0.021904072 -0.08430338 0.044079844 0.09064036 -0.060127765 -0.02706073 -0.028736107 -0.033311866 0.09376985 0.0341425 -0.08867694 0.02818208 0.041602146 0.0139571475 0.044531215 0.015888209 0.032905977 -0.06065657 0.0177338 -0.0647748 0.03327571 -0.0063981265 -0.06701658 -0.05581312 -0.0213724 0.024256494 -0.079633065 -0.067675814 0.04407394 0.018367402 0.05363227 -0.0907511 0.10336381 -0.04209411 0.08705143 -0.023828968 0.052774232 0.03301607 0.050020587 -0.009444871 0.04500598 -0.032286473 -0.07455247 0.014723774 -0.05897501 -0.0059892535 -0.15484162 0.02745843
19 -0.037244275 0.09225327 -0.04609573 0.022747729 -0.011373609 -0.120684765 -0.01353066 -0.13156605 0.11025407 -0.036790133 0.028174356 -0.033923715 0.054249033 0.0031926036 0.079016484 0.035869658 0.10859969 -0.025965337 0.04310222 -0.079231456 0.028883018 -0.10424209 -0.039894193 -0.00070902705 -0.08525848 0.0767232 0.021275952 -0.08559793 0.042917356 0.090607956 -0.05833544 -0.026641194 -0.028905384 -0.033630528 0.09474387 0.03589526 -0.0864921 0.030279608 0.040386826 0.014985228 0.044465307 0.016725097 0.032125305 -0.062537 0.01854685 -0.06287639 0.033497207 -0.0067936815 -0.065479174 -0.055418603 -0.021036362 0.024046026 -0.08006429 -0.06672476 0.044537187 0.018585099 0.05573138 -0.09123915 0.10281546 -0.04203435 0.08899818 -0.023101985 0.054333888 0.032768693 0.05063912 -0.008820549 0.04438674 -0.0320711 -0.0742733 0.015290154 -0.059477046 -0.006134376 -0.15515658 0.02827885
20 -0.032710694 0.08823532 -0.03267085 0.018466078 -0.0018719621 -0.12459743 -0.009478579 -0.14554691 0.119156145 -0.02316169 0.02881644 -0.0295316 0.0420309 -0.004828293 0.09003335 0.02815742 0.108730786 -0.024222706 0.051245686 -0.07787064 0.037903544 -0.099984445 -0.04425178 -0.0046454365 -0.07554149 0.069669664 0.03420639 -0.0954704 0.022530511 0.0873166 -0.05722588 -0.024212787 -0.027291257 -0.0228149 0.08468874 0.03644034 -0.07615881 0.014417313 0.04524368 0.019188274 0.050324082 0.025814336 0.024299776 -0.054217085 0.017041218 -0.049842775 0.019732788 0.0051068664 -0.07603752 -0.04650329 -0.021849785 0.014345698 -0.07890493 -0.0639598 0.038967658 0.017367594 0.047970004 -0.096627906 0.10621102 -0.035970584 0.091875315 -0.017228886 0.0431002 0.032567937 0.052166045 -0.018913228 0.03608656 -0.022982858 -0.07073831 0.01392707 -0.05386639 0.004853729 -0.15142995 0.03891912
21 -0.04287979 0.10719676 -0.064526156 0.02960186 -0.030110154 -0.124155074 -0.016873822 -0.1103119 0.095458604 -0.06569267 0.026190946 -0.035700083 0.071547866 0.014974099 0.060495153 0.058980003 0.1143513 -0.029939298 0.028096959 -0.07605403 0.015981644 -0.117102385 -0.040767528 0.0028422996 -0.0978759 0.08386393 0.004084058 -0.06873982 0.07735819 0.0916466 -0.06812007 -0.037563123 -0.027081471 -0.044452168 0.10763296 0.031521313 -0.10924377 0.045446217 0.036467247 0.006367419 0.033068985 -0.0013408512 0.048824485 -0.07052451 0.022794066 -0.094448656 0.051766783 -0.027675696 -0.052051987 -0.07149229 -0.018276906 0.046181124 -0.08472494 -0.07695219 0.054823153 0.017994128 0.06261389 -0.08251555 0.10503446 -0.044698924 0.07576121 -0.03673082 0.06904781 0.030819634 0.043369688 0.00874383 0.05831056 -0.041091483 -0.077360004 0.013484419 -0.06476029 -0.025788702 -0.15775245 0.0072110817
22 -0.027308289 0.05294677 0.0050092265 0.0030325735 0.03148871 -0.121190906 0.011543572 -0.20054404 0.13443953 0.030394852 0.027909275 -0.019548798 0.0031374693 -0.029421909 0.13702166 -0.012852535 0.09855269 -0.031924438 0.07348657 -0.078164 0.06793198 -0.092264116 -0.03704094 -0.006276061 -0.061481886 0.046595395 0.066525556 -0.12658754 -0.04298441 0.08461636 -0.04526438 -0.012546789 -0.029608253 0.012588394 0.06177434 0.0460272 -0.02898844 -0.015827963 0.0517863 0.036250934 0.06377872 0.05736745 -0.008745927 -0.034368724 0.0066755414 -0.0005619824 -0.023144942 0.050154753 -0.09853448 -0.027789472 -0.016606381 -0.020697556 -0.06652351 -0.056793917 0.034390476 0.021127418 0.041053854 -0.11102962 0.11482947 -0.019845515 0.12076401 0.012104299 0.019573215 0.02336589 0.06595393 -0.039958645 -0.0030747764 0.0144184325 -0.06565237 0.00868547 -0.038691696 0.027787331 -0.14910346 0.081728995
23 -0.03541205 0.0840355 -0.036272507 0.018949494 -0.0027414113 -0.121525705 -0.007492628 -0.14731272 0.11407241 -0.022398375 0.027604435 -0.030553542 0.04270632 -0.004349595 0.09245901 0.026803635 0.105902985 -0.02944046 0.04964609 -0.07910289 0.038595613 -0.10417242 -0.03823665 -0.0020411005 -0.08207933 0.06730266 0.030175373 -0.095491186 0.024454564 0.0871069 -0.056017734 -0.026060848 -0.027897034 -0.021821171 0.08812462 0.039045397 -0.07382283 0.021707408 0.04164329 0.019987982 0.04699277 0.025002517 0.023873575 -0.05744144 0.01803445 -0.0512238 0.0206962 0.0028112307 -0.070237145 -0.050000355 -0.018389698 0.01801038 -0.07838637 -0.0658097 0.044528432 0.017854616 0.054400213 -0.09550288 0.10735706 -0.03492046 0.09524484 -0.015989754 0.048573963 0.028992068 0.052936964 -0.013459429 0.033378806 -0.01959934 -0.07151383 0.01322515 -0.055129383 -0.00034417585 -0.15326522 0.03846273
24 -0.037612416 0.0887516 -0.042752676 0.021005297 -0.008714382 -0.119588375 -0.011450872 -0.13625178 0.111058384 -0.03230878 0.02837187 -0.032835856 0.051459033 0.0013318732 0.082713276 0.03138393 0.10758622 -0.025762804 0.044627707 -0.079277106 0.030725159 -0.10315564 -0.03911954 -9.142328e-05 -0.084041215 0.0758524 0.023422506 -0.087125696 0.037228093 0.09175564 -0.05715765 -0.024439316 -0.030247573 -0.031581327 0.09338717 0.03598651 -0.082493156 0.027571715 0.041681368 0.01596765 0.045827474 0.019726783 0.029284284 -0.06049705 0.015862461 -0.05856753 0.030053392 -0.0011055395 -0.06848661 -0.05440359 -0.02102141 0.019218195 -0.077267475 -0.06584431 0.044038687 0.019926969 0.054444164 -0.09171933 0.1026245 -0.042251334 0.09213598 -0.0196939 0.05212326 0.032348555 0.052442215 -0.010684477 0.04073976 -0.029849138 -0.07508352 0.014769027 -0.057999257 -0.0045250133 -0.15605809 0.032375414
25 -0.035297707 0.08831792 -0.038020596 0.01963576 -0.005153157 -0.12244738 -0.009710349 -0.14175506 0.11414546 -0.027358621 0.02834193 -0.030763242 0.046134748 -0.0020571519 0.08703493 0.029974226 0.10798706 -0.02658429 0.04794547 -0.078581914 0.035187054 -0.102693774 -0.0410638 -0.0022745072 -0.08057384 0.07144212 0.028592229 -0.09193868 0.029741963 0.0886141 -0.057456464 -0.02548318 -0.028255098 -0.026037714 0.088921346 0.036617495 -0.07903246 0.021814473 0.042670913 0.017766954 0.04732121 0.022638427 0.02661879 -0.05755899 0.017107518 -0.054574393 0.024392307 0.0010034908 -0.07124099 -0.050797384 -0.020341795 0.018282756 -0.07835195 -0.065637216 0.042716194 0.018178985 0.05229216 -0.09424299 0.10536409 -0.03790982 0.0921334 -0.018349642 0.048250146 0.031311143 0.052054983 -0.0140217915 0.037545454 -0.024782505 -0.0727784 0.013949212 -0.05609729 -0.0004026238 -0.15365672 0.03552793
26 -0.03651448 0.091987565 -0.042681143 0.021334352 -0.009692002 -0.12209922 -0.0119120255 -0.13455334 0.11144885 -0.03467481 0.028314065 -0.032150336 0.051617175 0.0014824569 0.0808943 0.034754314 0.10935963 -0.025597353 0.044243753 -0.078145884 0.030714719 -0.103442684 -0.04170484 -0.0014677256 -0.082594864 0.07546043 0.024217868 -0.08689482 0.038984083 0.09016925 -0.05897167 -0.02621196 -0.028768092 -0.030954622 0.092206836 0.035080723 -0.08508979 0.026014082 0.04202261 0.015342195 0.045606315 0.018334638 0.030608881 -0.059625193 0.017363649 -0.06096942 0.030229047 -0.0035086498 -0.06852612 -0.054056913 -0.021116871 0.021804646 -0.0790506 -0.06678115 0.043502208 0.01847173 0.053173937 -0.09194808 0.10387213 -0.040866733 0.08906478 -0.021790437 0.05122041 0.03255342 0.050900646 -0.011061251 0.04239899 -0.029851273 -0.07394371 0.014522334 -0.057946984 -0.004062414 -0.15450443 0.030427396
27 -0.037582383 0.08810008 -0.040377945 0.02025564 -0.007573515 -0.119404614 -0.011058807 -0.13768223 0.11256075 -0.030617557 0.028984126 -0.031826302 0.05007927 7.551536e-05 0.08386332 0.029390112 0.10753762 -0.023919228 0.046079617 -0.079066515 0.03139516 -0.10235757 -0.039933424 -0.0004048649 -0.08197951 0.075910255 0.024946563 -0.08763048 0.033560365 0.09229794 -0.056590468 -0.023098493 -0.030914705 -0.03159479 0.09231995 0.0354494 -0.081526175 0.024471585 0.043082908 0.015710738 0.047154613 0.021170754 0.028571172 -0.059167363 0.013878004 -0.05646536 0.028270202 0.00224204 -0.07153052 -0.053328186 -0.021315299 0.0158301 -0.07523741 -0.06452573 0.04256037 0.02091037 0.052388966 -0.09164789 0.10197679 -0.042390354 0.09260022 -0.017961822 0.05013401 0.032871507 0.052900817 -0.012577277 0.03962717 -0.030111551 -0.07553562 0.013965625 -0.05680217 -0.0030995682 -0.15597817 0.034259383
28 -0.036693662 0.09192929 -0.042045612 0.02115366 -0.010841796 -0.12453669 -0.008946888 -0.13764459 0.10914526 -0.035911314 0.026666451 -0.030984815 0.05003425 0.00073832367 0.0834158 0.03808367 0.11019094 -0.029379366 0.04253877 -0.07601765 0.032631278 -0.10732748 -0.041833203 -0.0015118066 -0.08456803 0.07163845 0.025151946 -0.08739899 0.03971072 0.088130064 -0.061578665 -0.029653225 -0.027205653 -0.02563497 0.09182145 0.035501275 -0.08449891 0.024605013 0.042137288 0.016234249 0.04340902 0.017220482 0.030735478 -0.057963625 0.019354772 -0.06491354 0.027782083 -0.004311621 -0.066795185 -0.055964794 -0.019101884 0.026097372 -0.08095044 -0.07052125 0.04683383 0.017095426 0.053932212 -0.09232904 0.10866177 -0.036877416 0.08802017 -0.022916503 0.05180436 0.029740721 0.049859222 -0.008061368 0.04046592 -0.024005018 -0.07198106 0.013039926 -0.05656668 -0.0069290027 -0.15351753 0.02949059
29 -0.035896894 0.089340486 -0.038933687 0.019966383 -0.006131809 -0.123924285 -0.008293563 -0.14257213 0.111974865 -0.02843786 0.027974278 -0.029423919 0.04547876 -0.0026460178 0.08769168 0.032041438 0.10830738 -0.02931808 0.047684006 -0.07817223 0.036552146 -0.10643754 -0.040574513 -0.002444895 -0.08228521 0.068601035 0.027702704 -0.09255004 0.030255541 0.08636521 -0.058763493 -0.028849121 -0.026904378 -0.024139937 0.08915404 0.037119772 -0.0801014 0.022827197 0.041324217 0.017297802 0.04533887 0.021418367 0.027718727 -0.058079757 0.01850754 -0.057480827 0.023709707 -0.001692906 -0.0693373 -0.052231967 -0.017713072 0.022381186 -0.078839555 -0.06753921 0.045466837 0.017263107 0.054183207 -0.093710266 0.10776721 -0.03477196 0.0909133 -0.018732812 0.049888354 0.028839346 0.05067841 -0.011690013 0.03650243 -0.021947756 -0.07243775 0.012135175 -0.056024276 -0.0027119964 -0.15304795 0.03407213
30 -0.037293173 0.09110177 -0.045516618 0.022287697 -0.010872409 -0.12132566 -0.011788112 -0.13428219 0.10915268 -0.035456263 0.027408233 -0.033361964 0.05257582 0.0021614833 0.081314765 0.036008887 0.1082141 -0.028461505 0.043094873 -0.07873095 0.03085571 -0.10576208 -0.039091367 -0.00072694896 -0.086319774 0.07384436 0.021987464 -0.087057896 0.041580796 0.08906789 -0.058825415 -0.028136691 -0.028182674 -0.030297149 0.09413167 0.036706008 -0.084702134 0.03024956 0.039849915 0.01601975 0.04350806 0.017142083 0.03115135 -0.061887924 0.019753274 -0.06300645 0.031471074 -0.0070422506 -0.06422473 -0.0556153 -0.019629087 0.025886724 -0.080812104 -0.06814208 0.04636351 0.017600536 0.056778863 -0.09180176 0.105109476 -0.039769225 0.08953675 -0.022769058 0.054596722 0.030971516 0.050523657 -0.0077536246 0.04235186 -0.028276134 -0.07323574 0.014742944 -0.059006456 -0.0067955786 -0.1546689 0.028685868
31 -0.035940856 0.08769778 -0.03740784 0.018986955 -0.0062342007 -0.12312221 -0.007252086 -0.14297134 0.11135652 -0.028556019 0.027251832 -0.02995256 0.045665182 -0.0025856346 0.08794492 0.03177358 0.10867445 -0.02920292 0.046057492 -0.076593116 0.036312252 -0.10443705 -0.041246165 -0.0023414195 -0.08159451 0.06929965 0.029007807 -0.09143018 0.031099543 0.08753132 -0.05908136 -0.027202165 -0.02805051 -0.022628792 0.08839545 0.036511667 -0.07896057 0.022039793 0.042337764 0.017930418 0.045802586 0.021571007 0.026298057 -0.05558209 0.017871978 -0.05687415 0.022943145 0.00085173175 -0.069424 -0.052456226 -0.018751826 0.021057956 -0.078727946 -0.068307675 0.04511929 0.017098453 0.052946012 -0.093808375 0.10810265 -0.035967402 0.091493025 -0.018857632 0.048220605 0.029427055 0.051796176 -0.012167543 0.03619321 -0.021156987 -0.071571454 0.012745771 -0.055416252 -0.002618298 -0.15274332 0.03469012
32 -0.036338944 0.09012661 -0.04257143 0.02166077 -0.008176632 -0.120318696 -0.013058417 -0.13504434 0.11332866 -0.032259524 0.028876334 -0.033222646 0.051390354 0.0013341606 0.08196746 0.031734902 0.10807419 -0.024508972 0.045872055 -0.07983518 0.030565389 -0.10225658 -0.040203817 -0.0012169153 -0.08256803 0.07652846 0.024324302 -0.088068604 0.036848374 0.09122968 -0.056775007 -0.02447815 -0.029390432 -0.03272572 0.092621684 0.036264323 -0.08333187 0.026740335 0.04154457 0.015877001 0.04683108 0.019737702 0.0296758 -0.06113217 0.016785536 -0.05759509 0.03061311 -0.0023012608 -0.06912975 -0.052919038 -0.021690797 0.019080436 -0.07850018 -0.064659156 0.04225219 0.019576117 0.053970605 -0.09250881 0.10192045 -0.041872103 0.09120236 -0.020493466 0.051499356 0.033402752 0.05190102 -0.012246653 0.042210955 -0.03143315 -0.07447688 0.015159313 -0.058298416 -0.0027508102 -0.15509567 0.03233154
33 -0.036514483 0.09198756 -0.042681158 0.021334352 -0.009691991 -0.12209921 -0.011912024 -0.13455336 0.11144884 -0.03467481 0.028314067 -0.032150336 0.051617168 0.0014824569 0.08089429 0.034754306 0.10935964 -0.025597349 0.044243753 -0.078145884 0.030714715 -0.103442684 -0.04170484 -0.0014677262 -0.08259484 0.07546043 0.024217863 -0.08689482 0.038984105 0.09016925 -0.058971673 -0.02621196 -0.028768092 -0.030954618 0.092206836 0.035080723 -0.0850898 0.026014075 0.042022604 0.015342198 0.045606315 0.01833465 0.030608878 -0.0596252 0.01736365 -0.06096942 0.030229054 -0.0035086274 -0.06852612 -0.054056913 -0.021116871 0.02180463 -0.0790506 -0.06678115 0.04350222 0.018471729 0.053173933 -0.09194808 0.103872135 -0.040866736 0.08906478 -0.021790437 0.05122041 0.03255342 0.050900646 -0.011061251 0.042398997 -0.029851269 -0.07394371 0.014522333 -0.057946976 -0.0040624216 -0.15450443 0.030427378
34 -0.035528224 0.07853182 -0.03571423 0.018028103 0.0026640743 -0.117646486 -0.00785252 -0.1519614 0.11613052 -0.013066206 0.028855491 -0.031367067 0.039675508 -0.006513983 0.09691185 0.017756648 0.101793095 -0.03017069 0.05455067 -0.08351017 0.041540846 -0.10185839 -0.033389524 -0.0012486689 -0.08256474 0.06579228 0.030380404 -0.10066651 0.016197331 0.087100446 -0.050827898 -0.023275504 -0.029052375 -0.022440555 0.0876801 0.042100847 -0.067312896 0.025153987 0.03912968 0.022095192 0.04881257 0.030016586 0.019653829 -0.06026966 0.017178442 -0.04135754 0.018808499 0.004923733 -0.07027283 -0.046575658 -0.01757908 0.013351377 -0.0761389 -0.06178017 0.04387728 0.018745597 0.057681784 -0.09703465 0.10427696 -0.03571912 0.10161639 -0.010922112 0.049169533 0.028514883 0.055524893 -0.016213242 0.029346935 -0.01905543 -0.073207125 0.014403064 -0.056494173 0.00358098 -0.15496175 0.043785535
35 -0.038328372 0.09269005 -0.04705081 0.022420667 -0.0128731355 -0.12102838 -0.012091949 -0.13124856 0.1072436 -0.03866529 0.0276162 -0.033249322 0.054914393 0.0034163687 0.07836938 0.037617177 0.109062426 -0.027901284 0.04134024 -0.07817258 0.029049475 -0.10590908 -0.039721612 -0.00026447562 -0.0866846 0.075719796 0.020037333 -0.08436894 0.04529265 0.090007395 -0.059692144 -0.028148202 -0.028989468 -0.03244443 0.095272616 0.03537514 -0.08767813 0.0319188 0.039804175 0.014434421 0.042802677 0.015358185 0.032727525 -0.061959364 0.018792152 -0.06569481 0.03363132 -0.008085672 -0.06365349 -0.057313394 -0.019683955 0.026801154 -0.07981586 -0.06875619 0.046834778 0.017944776 0.056669086 -0.09023087 0.10428414 -0.041472584 0.08822101 -0.023601048 0.05530895 0.03135171 0.050247822 -0.0067756614 0.043944992 -0.030484715 -0.07439334 0.014492573 -0.059691343 -0.008450143 -0.1552918 0.026651662
36 -0.025317784 0.051874515 0.011566013 0.0014943592 0.031845056 -0.13947573 0.030405112 -0.22907233 0.124635726 0.036065526 0.018787183 -0.009594923 -0.017073281 -0.042895623 0.161834 0.0032099113 0.09999848 -0.0607141 0.07447021 -0.068936944 0.092674255 -0.11997235 -0.035366848 -0.011886689 -0.07214822 0.007688416 0.07703321 -0.14500216 -0.055863395 0.058990777 -0.057795778 -0.040924393 -0.014047767 0.054060657 0.053399846 0.054942403 -0.018126577 -0.024592917 0.046824202 0.045446746 0.05021651 0.056323044 -0.011747953 -0.027077273 0.027476918 -0.015331343 -0.047627136 0.03753753 -0.08460961 -0.030851752 0.0030415375 0.012758285 -0.08209027 -0.07698187 0.05648686 0.005909621 0.050831847 -0.11809136 0.14974242 0.017392006 0.11495001 0.008808259 0.023166023 0.00071286224 0.05679065 -0.02481487 -0.021751352 0.060760856 -0.048512805 -0.00294583 -0.030808495 0.017034184 -0.1373488 0.07870396
37 -0.03614316 0.08843207 -0.04041058 0.020492064 -0.0071255905 -0.12170129 -0.01009662 -0.13977095 0.11229692 -0.029949214 0.027776727 -0.031965733 0.04837493 -0.00053752586 0.08566561 0.031775124 0.10790004 -0.027432162 0.045898944 -0.07852468 0.0336106 -0.10371426 -0.0400289 -0.0014790939 -0.08300284 0.07231699 0.026459247 -0.09015234 0.033866875 0.08922887 -0.05784515 -0.026032401 -0.02852307 -0.027066968 0.09094056 0.0368598 -0.08027888 0.024735143 0.041867226 0.017531592 0.046003327 0.020921584 0.027817028 -0.058828905 0.017916884 -0.05735259 0.026643835 -0.0009777248 -0.0686927 -0.052738007 -0.020290654 0.020520253 -0.07925086 -0.0667522 0.044193868 0.0181638 0.053962983 -0.09349724 0.10544501 -0.038742546 0.09184183 -0.019755758 0.050472196 0.031162761 0.05190488 -0.011575057 0.03888593 -0.025564102 -0.07279355 0.014353687 -0.056873117 -0.0029460713 -0.15419258 0.03354187
38 -0.0358722 0.08660165 -0.039278246 0.020533504 -0.0053995363 -0.11974404 -0.011450678 -0.14010146 0.11504538 -0.027382426 0.028687218 -0.032824032 0.048120745 -0.000818613 0.08647504 0.028123353 0.1068327 -0.02476649 0.047778033 -0.07998989 0.033026107 -0.10144171 -0.039375935 -0.0013668854 -0.08169202 0.07427812 0.027191289 -0.09086483 0.03083171 0.09106477 -0.05549085 -0.023121115 -0.029698316 -0.029456638 0.090962455 0.037388347 -0.07852085 0.02384577 0.042434994 0.017786622 0.048081063 0.02281849 0.026768602 -0.05951662 0.01616193 -0.05323354 0.026743986 0.0020297915 -0.0709894 -0.051107906 -0.021724526 0.015770618 -0.07777844 -0.06390444 0.041708883 0.019827992 0.05320654 -0.09388188 0.1026753 -0.04064469 0.09389405 -0.018013379 0.049527735 0.032884713 0.053176567 -0.013884719 0.03886473 -0.028210118 -0.07362761 0.01498485 -0.056682855 -0.00081814826 -0.15479824 0.03604752
39 -0.03651448 0.091987565 -0.04268115 0.02133435 -0.009691998 -0.12209922 -0.011912022 -0.13455334 0.11144883 -0.03467481 0.028314067 -0.032150336 0.05161717 0.0014824569 0.08089429 0.03475432 0.10935964 -0.025597353 0.044243746 -0.078145884 0.030714717 -0.103442684 -0.04170484 -0.0014677262 -0.08259486 0.07546043 0.024217863 -0.08689482 0.038984094 0.09016925 -0.05897167 -0.026211962 -0.028768092 -0.030954614 0.092206836 0.035080723 -0.08508979 0.026014082 0.04202261 0.015342196 0.045606315 0.018334638 0.030608881 -0.0596252 0.01736365 -0.06096942 0.03022905 -0.0035086349 -0.068526104 -0.054056916 -0.021116871 0.021804638 -0.07905059 -0.06678115 0.04350221 0.01847173 0.053173937 -0.09194807 0.10387213 -0.040866733 0.08906478 -0.021790434 0.05122041 0.03255342 0.05090064 -0.011061253 0.042398997 -0.029851269 -0.07394371 0.014522333 -0.05794698 -0.004062418 -0.15450443 0.030427389
40 -0.03903797 0.08475865 -0.044488437 0.021163411 -0.0068197027 -0.11224817 -0.015517525 -0.13248 0.11315054 -0.028740935 0.030540992 -0.035942405 0.0544576 0.0025463477 0.08054216 0.023181777 0.103936926 -0.020375393 0.046813942 -0.08335003 0.027460773 -0.09726809 -0.035440445 0.0017030947 -0.08353536 0.08194232 0.020339947 -0.085809015 0.035430305 0.096539035 -0.051054068 -0.01737734 -0.034532003 -0.040526256 0.09600163 0.036548074 -0.08060844 0.032504503 0.040780365 0.015253227 0.04877893 0.022242818 0.027975596 -0.064257696 0.01155936 -0.05087533 0.03413575 0.0021578968 -0.06972873 -0.05255466 -0.023686863 0.010742988 -0.07253647 -0.059353236 0.04020091 0.023504447 0.05529194 -0.09036312 0.09409096 -0.049947552 0.09686898 -0.016082615 0.053061906 0.036263 0.055658646 -0.013674924 0.042204253 -0.038799215 -0.0788123 0.017237693 -0.06023311 -0.0019355156 -0.15898298 0.035017196
41 -0.03651448 0.091987565 -0.04268115 0.021334354 -0.009691998 -0.12209922 -0.0119120255 -0.13455334 0.11144885 -0.034674816 0.028314067 -0.032150332 0.051617175 0.0014824569 0.08089429 0.034754314 0.10935963 -0.025597353 0.04424375 -0.07814589 0.030714717 -0.10344269 -0.04170484 -0.0014677271 -0.082594864 0.07546042 0.024217859 -0.08689482 0.03898409 0.09016925 -0.058971666 -0.026211964 -0.028768092 -0.030954625 0.092206836 0.035080723 -0.085089795 0.02601409 0.0420226 0.015342196 0.045606315 0.018334635 0.030608878 -0.0596252 0.017363653 -0.06096942 0.030229047 -0.0035086349 -0.06852611 -0.054056913 -0.021116871 0.021804638 -0.0790506 -0.06678114 0.04350221 0.01847173 0.05317394 -0.09194808 0.10387213 -0.040866733 0.08906476 -0.021790436 0.051220406 0.03255342 0.050900646 -0.011061253 0.04239899 -0.029851267 -0.07394371 0.014522335 -0.05794698 -0.0040624235 -0.15450445 0.030427387
42 -0.036078967 0.0895305 -0.040910743 0.020920774 -0.007567797 -0.12107452 -0.011791477 -0.1371688 0.113426685 -0.031188056 0.028537327 -0.03250029 0.04996655 0.00044178776 0.08345969 0.031579044 0.108275905 -0.024956357 0.045945145 -0.07901539 0.031703565 -0.10218695 -0.0408336 -0.0014718673 -0.081910215 0.075134635 0.025819726 -0.08875563 0.03507774 0.09074979 -0.057348367 -0.02452844 -0.02924047 -0.03030919 0.091499925 0.036062445 -0.08198257 0.024688177 0.04242471 0.01653243 0.046981934 0.020562878 0.028731152 -0.059426494 0.01670171 -0.05714581 0.02857478 -0.00064839236 -0.06999181 -0.052504085 -0.021687575 0.01863058 -0.07849174 -0.06533527 0.042362772 0.019142514 0.052890938 -0.092966 0.103187524 -0.04096196 0.09134277 -0.02004221 0.050155744 0.032937635 0.052037925 -0.012680244 0.04084441 -0.029268686 -0.073810555 0.014887889 -0.057307534 -0.0022405982 -0.1546669 0.033207946
43 -0.034732252 0.090993546 -0.038940273 0.019741697 -0.0066674054 -0.12363477 -0.010456622 -0.13857102 0.11344153 -0.030628115 0.028159205 -0.030876474 0.04789462 -0.00048342347 0.08364877 0.032944404 0.109539375 -0.02599008 0.04600299 -0.07745883 0.033408962 -0.101441525 -0.043154687 -0.0025174264 -0.07964079 0.0732681 0.028124034 -0.089702785 0.033961877 0.088896245 -0.059105866 -0.02565601 -0.027942397 -0.026907712 0.088680595 0.03494106 -0.081901334 0.021816993 0.043241777 0.016953345 0.047059953 0.020871555 0.027822556 -0.05670887 0.017460594 -0.057183027 0.026225239 -0.0007286519 -0.07095245 -0.051299237 -0.021594256 0.019756567 -0.07942155 -0.06659745 0.04204586 0.017444326 0.050893076 -0.09384747 0.105138145 -0.03919156 0.089774065 -0.020585857 0.0476718 0.032326974 0.051347084 -0.014074594 0.039921306 -0.026427291 -0.07268634 0.014858669 -0.05666191 -0.000394769 -0.1533393 0.03333199
44 -0.036638077 0.088607684 -0.042226434 0.021253264 -0.007735409 -0.120691605 -0.011108596 -0.13795236 0.11177549 -0.03077098 0.028021906 -0.032635074 0.049610235 0.00014108792 0.0845972 0.03174323 0.107371524 -0.027488036 0.04590863 -0.07940568 0.032816276 -0.10434245 -0.038842607 -0.0011200544 -0.08414565 0.07313803 0.024721887 -0.0896875 0.035369664 0.08940296 -0.057100795 -0.026322812 -0.028633535 -0.029218584 0.092225686 0.037382085 -0.08132253 0.027273055 0.04059403 0.01692915 0.045530114 0.020077959 0.028704362 -0.060792945 0.01815527 -0.057817236 0.028498903 -0.002871219 -0.067322284 -0.05334804 -0.019732244 0.021387987 -0.07913296 -0.06616019 0.044620704 0.018573655 0.055640697 -0.09292491 0.1044159 -0.039199837 0.09191652 -0.019968618 0.052261744 0.031155035 0.05173779 -0.010678418 0.039830275 -0.02719386 -0.0733911 0.014338903 -0.057876516 -0.00390343 -0.15457365 0.032663234
45 -0.030083347 0.07697043 -0.020097021 0.013867315 0.008252833 -0.12641606 -0.0006340705 -0.16652134 0.12319131 -0.0065631345 0.026757354 -0.025873153 0.027721629 -0.012921989 0.107838094 0.018534606 0.106019035 -0.03012206 0.056928445 -0.07646094 0.048972856 -0.10060552 -0.042098172 -0.0052982047 -0.07296776 0.058576446 0.04597901 -0.10658316 0.002055794 0.084363565 -0.05580865 -0.023630766 -0.025692325 -0.0059322715 0.0768246 0.040339086 -0.059510194 0.0025516674 0.04777515 0.026463095 0.052828692 0.035374235 0.0136654675 -0.04673635 0.01665912 -0.037418813 0.0037179887 0.018487275 -0.0816872 -0.04146359 -0.019426981 0.0071025006 -0.07838479 -0.065066434 0.039922364 0.01695243 0.046149895 -0.102555215 0.113462314 -0.026865227 0.10016914 -0.009620152 0.036020957 0.02742593 0.05537197 -0.023056751 0.02209798 -0.0053002546 -0.06659078 0.011938555 -0.047504872 0.010423768 -0.14952719 0.052010413
46 -0.035315186 0.09000659 -0.03673881 0.019438427 -0.0079471 -0.12739573 -0.005232306 -0.14524946 0.110631555 -0.031342126 0.025915533 -0.028545633 0.044503197 -0.0026607607 0.08937072 0.036982678 0.11068635 -0.031527236 0.044353005 -0.07442703 0.037156414 -0.10838856 -0.043212492 -0.0028454838 -0.0826416 0.06646158 0.030364163 -0.09147599 0.03256304 0.08573029 -0.06276929 -0.030920753 -0.025714712 -0.018027525 0.08797049 0.03614962 -0.07998505 0.018332109 0.043764025 0.018440487 0.044068716 0.020087715 0.027739549 -0.053875152 0.019968309 -0.06241568 0.021059174 -0.00016664714 -0.06938286 -0.05410188 -0.018048126 0.02520015 -0.081568286 -0.07211079 0.047230028 0.015812688 0.05196618 -0.094477236 0.112876475 -0.03211422 0.08885759 -0.02118668 0.048161574 0.027602594 0.049912445 -0.009717546 0.03575967 -0.016637783 -0.0696843 0.011510264 -0.053593893 -0.0048838034 -0.15169892 0.033087827
47 -0.036063097 0.089818016 -0.03990304 0.02044131 -0.0076590516 -0.12185884 -0.010907881 -0.13792862 0.1131407 -0.031358212 0.02841543 -0.031744327 0.0494014 -6.65579e-05 0.08378609 0.03210846 0.10889256 -0.02513571 0.04570643 -0.07817264 0.032255664 -0.102371834 -0.04177392 -0.0018129735 -0.081274405 0.07442728 0.02664075 -0.08873951 0.034606267 0.090379804 -0.058139175 -0.024850346 -0.02916931 -0.028979965 0.09074435 0.03556709 -0.082057945 0.02336331 0.04301777 0.016469505 0.04695262 0.0206124 0.028566234 -0.0580701 0.016516946 -0.05761493 0.027488071 0.00012414902 -0.07058141 -0.052566618 -0.021519136 0.018772807 -0.0783075 -0.06604134 0.042515606 0.018780947 0.05201111 -0.09292194 0.104098365 -0.04034996 0.09080346 -0.020008052 0.049187195 0.032624334 0.051891364 -0.012893222 0.040306207 -0.028169394 -0.07349272 0.014360912 -0.0566924 -0.0022212416 -0.15424824 0.033254445
48 -0.036776632 0.09244149 -0.043627694 0.021732982 -0.011061601 -0.12431283 -0.009644754 -0.1365942 0.108652465 -0.036118314 0.026906133 -0.031372465 0.050741397 0.0011584833 0.082590476 0.03830877 0.10987447 -0.030012775 0.042687394 -0.07698872 0.03240568 -0.107719585 -0.041092344 -0.0015629336 -0.08552221 0.071483254 0.023917545 -0.08770697 0.040768176 0.08748046 -0.061212078 -0.030364405 -0.026824823 -0.02653692 0.092421494 0.03606784 -0.085140154 0.026994012 0.040776588 0.016066419 0.04289421 0.016825292 0.03125387 -0.059479434 0.020342914 -0.06512616 0.028951554 -0.006611808 -0.06517606 -0.056034464 -0.018667573 0.027708594 -0.08154605 -0.07042077 0.047358487 0.016595963 0.05551468 -0.09217705 0.10816857 -0.036804564 0.08789882 -0.023302423 0.053109173 0.029474936 0.0494914 -0.0075057 0.041038215 -0.024655597 -0.07222067 0.013264218 -0.05754499 -0.007189557 -0.15353183 0.028601501
49 -0.03607897 0.089530505 -0.040910736 0.020920774 -0.0075677894 -0.12107451 -0.011791475 -0.13716878 0.11342668 -0.031188048 0.02853733 -0.03250029 0.04996656 0.00044178218 0.0834597 0.031579047 0.108275905 -0.02495636 0.04594516 -0.07901538 0.03170357 -0.10218695 -0.0408336 -0.0014718678 -0.08191022 0.075134635 0.025819726 -0.08875564 0.03507775 0.09074979 -0.057348367 -0.024528446 -0.029240474 -0.030309191 0.091499925 0.036062445 -0.08198258 0.024688186 0.04242471 0.016532432 0.046981934 0.020562872 0.028731154 -0.05942649 0.01670171 -0.057145834 0.028574772 -0.0006483793 -0.0699918 -0.052504085 -0.021687575 0.018630587 -0.07849175 -0.06533527 0.042362776 0.019142512 0.052890938 -0.092966 0.103187524 -0.04096195 0.09134277 -0.020042205 0.050155733 0.03293764 0.052037925 -0.01268024 0.04084441 -0.02926869 -0.073810555 0.014887889 -0.05730754 -0.0022406057 -0.1546669 0.033207957
50 -0.035381872 0.085466266 -0.035200715 0.019372769 -0.0034097359 -0.12254099 -0.007960249 -0.146918 0.115834355 -0.023990802 0.028215181 -0.03000046 0.043191142 -0.004127018 0.09202851 0.027539406 0.10722353 -0.027047414 0.049830858 -0.07878794 0.037365034 -0.10461482 -0.040053032 -0.0023207664 -0.080819 0.069131486 0.03088725 -0.09450452 0.024220832 0.08857077 -0.056710407 -0.02547626 -0.028170496 -0.023315936 0.08837846 0.038149938 -0.07548766 0.01855418 0.043497562 0.018987913 0.047988396 0.024785548 0.025154166 -0.056880087 0.016427092 -0.05237028 0.02091914 0.0049319677 -0.073290534 -0.050351795 -0.019425895 0.015840571 -0.07757687 -0.06540938 0.043090444 0.019246561 0.052271675 -0.095196195 0.10690397 -0.035439223 0.09432942 -0.01611159 0.047506332 0.030133553 0.052687265 -0.014271125 0.034415953 -0.021556996 -0.072212115 0.012399482 -0.054034498 -0.0003667064 -0.1535605 0.038776167
51 -0.036261246 0.09397844 -0.04092345 0.020381575 -0.010545954 -0.12515885 -0.00967994 -0.13606817 0.1101037 -0.03605048 0.027603207 -0.029933013 0.049974155 0.00016852655 0.081382364 0.037945524 0.11103952 -0.027021632 0.043467477 -0.075581424 0.032655932 -0.10518199 -0.04421276 -0.0025241235 -0.081455864 0.072375976 0.02589368 -0.08701137 0.038583055 0.08779083 -0.061788004 -0.028747573 -0.027538296 -0.02680131 0.09030166 0.03379751 -0.0860649 0.022730257 0.043191776 0.015143661 0.044562493 0.017595775 0.030965686 -0.056581806 0.018192634 -0.06399299 0.027474187 -0.0038079545 -0.068996154 -0.05441609 -0.019878913 0.024658818 -0.07964201 -0.06929807 0.044758882 0.016702507 0.051277265 -0.09190109 0.10747423 -0.03796178 0.08638944 -0.02265342 0.049537923 0.031036062 0.049541008 -0.0105616525 0.04130436 -0.026016757 -0.07247341 0.013009131 -0.056582 -0.004649833 -0.15294313 0.029169038
52 -0.037822865 0.097178 -0.04904511 0.02430558 -0.016235102 -0.12390541 -0.013331665 -0.12774248 0.107019275 -0.044315234 0.027260952 -0.033331648 0.057071596 0.004874695 0.07551278 0.04379776 0.11121151 -0.027669838 0.039547957 -0.07705932 0.027321428 -0.10857376 -0.0420256 -0.0013149632 -0.08742866 0.075914584 0.019052207 -0.0826271 0.05036754 0.088727266 -0.06231851 -0.031233873 -0.027094185 -0.03309432 0.096306324 0.034784548 -0.09225097 0.03132102 0.04002865 0.013233671 0.04140012 0.01211255 0.036378227 -0.06270729 0.02121929 -0.07200376 0.035814453 -0.012392845 -0.062342618 -0.05886736 -0.019769248 0.031616524 -0.08279193 -0.07065161 0.04736583 0.016806113 0.05636242 -0.08974437 0.106025994 -0.03986331 0.08386093 -0.02741028 0.056606725 0.031511597 0.047741596 -0.0046122447 0.047367923 -0.03158731 -0.07308259 0.013861578 -0.059620745 -0.010772783 -0.15389039 0.02250535
53 -0.03483077 0.08707951 -0.036326144 0.019144543 -0.0044995435 -0.12337001 -0.008138167 -0.14475214 0.114301816 -0.026074514 0.027545542 -0.030408386 0.044365313 -0.0029645637 0.08954416 0.030149668 0.108037956 -0.027879724 0.04780127 -0.077681094 0.036620773 -0.103250965 -0.04122431 -0.002496522 -0.08068268 0.069393255 0.030437604 -0.09312201 0.02803342 0.087903276 -0.058116484 -0.02599797 -0.027698629 -0.022555858 0.08790404 0.037087683 -0.07687841 0.01974656 0.043368362 0.019077701 0.047194444 0.02344676 0.025425412 -0.05597142 0.017849736 -0.054345157 0.022009864 0.002510365 -0.0714246 -0.050573718 -0.020187369 0.018502213 -0.07931928 -0.06685149 0.04334999 0.017546179 0.05183067 -0.09518767 0.10747116 -0.03616382 0.0926095 -0.018224122 0.04729495 0.030427463 0.052183907 -0.013816524 0.03586272 -0.021433085 -0.07139347 0.013746247 -0.054873686 -0.00034597516 -0.15299588 0.036585234
54 -0.038943056 0.09615001 -0.052611075 0.024680413 -0.015965477 -0.119383805 -0.01648894 -0.1228977 0.10661686 -0.044094473 0.028532334 -0.035665806 0.06066113 0.0072523616 0.07161847 0.040027335 0.10932857 -0.02545509 0.039600402 -0.079908304 0.024062166 -0.104917474 -0.039344966 0.0005187085 -0.088149264 0.08123368 0.0150987245 -0.08043077 0.053256437 0.09203519 -0.059087217 -0.027507214 -0.02961899 -0.04032682 0.098849244 0.03460831 -0.09328961 0.03758671 0.038256817 0.012081146 0.04229183 0.012068279 0.036442034 -0.0663056 0.01895487 -0.06896638 0.040890723 -0.0133750215 -0.061295256 -0.05886501 -0.021236239 0.028475717 -0.08036445 -0.067311525 0.045841083 0.01884316 0.05828181 -0.08845103 0.1001351 -0.04581643 0.086301945 -0.026365034 0.058775604 0.033855055 0.049513556 -0.005457189 0.049693022 -0.03843295 -0.076433316 0.016222212 -0.0627372 -0.009993412 -0.1566664 0.022475895
55 -0.03215013 0.08833328 -0.032410484 0.018885152 -0.0018178895 -0.12562294 -0.009079049 -0.14644653 0.119511485 -0.023434278 0.028454727 -0.029422887 0.041488927 -0.0045895064 0.09086841 0.029068336 0.10916498 -0.025085505 0.05098036 -0.07769856 0.03790021 -0.10104928 -0.044363804 -0.0046805255 -0.0759552 0.06934621 0.034833677 -0.095853984 0.022820435 0.087182775 -0.057861853 -0.025096647 -0.026389673 -0.021747094 0.084523305 0.03685285 -0.07599333 0.013497129 0.045286354 0.01957528 0.05009201 0.025539719 0.02442596 -0.054200903 0.017698072 -0.050635166 0.019442145 0.0050034877 -0.076071054 -0.046868816 -0.02177709 0.01498298 -0.08001633 -0.06476803 0.039292924 0.017430916 0.048225284 -0.0971816 0.107147135 -0.034688905 0.09173925 -0.017821174 0.043228157 0.032056004 0.051803388 -0.018408578 0.03591221 -0.021780185 -0.07024465 0.013720527 -0.053365037 0.0044429787 -0.15115651 0.039217453
56 -0.036377564 0.08804054 -0.040593226 0.020528987 -0.0071409494 -0.121431954 -0.009885716 -0.14000785 0.11189343 -0.029734574 0.02769925 -0.031930655 0.048230328 -0.0007227175 0.08603296 0.031589393 0.107580096 -0.02788849 0.045980223 -0.07860299 0.033908043 -0.104245186 -0.039482415 -0.0013728449 -0.083475254 0.07180974 0.026191369 -0.09034295 0.033643514 0.08895468 -0.05766183 -0.026347145 -0.028495995 -0.026883207 0.09112472 0.03716766 -0.08001924 0.025241714 0.041475132 0.01756119 0.045696728 0.02088717 0.027785964 -0.059115283 0.01805383 -0.05737108 0.026517466 -0.0012331866 -0.06819728 -0.0529329 -0.019755892 0.020912692 -0.07911596 -0.06680646 0.044697322 0.018159721 0.054552935 -0.093370125 0.105631426 -0.038338758 0.09204522 -0.019530728 0.050926097 0.030727074 0.051875055 -0.011127543 0.038515076 -0.025117114 -0.07274877 0.014082435 -0.056904987 -0.0033844076 -0.15415788 0.033523083
57 -0.035336666 0.089712046 -0.037979253 0.019983726 -0.007262081 -0.1259949 -0.006819699 -0.14415815 0.11137247 -0.029857062 0.026662432 -0.029322762 0.044864997 -0.0028903298 0.08892441 0.03529715 0.1093935 -0.030859651 0.045970656 -0.07622349 0.037294388 -0.107687615 -0.041924357 -0.0031324066 -0.08289419 0.06634335 0.029281307 -0.0926262 0.03143316 0.085062325 -0.06090352 -0.030526878 -0.025796182 -0.020023413 0.08846572 0.037157737 -0.07960859 0.020722907 0.042304214 0.018411484 0.044400092 0.020750688 0.027753692 -0.05602169 0.020586584 -0.06031196 0.022015017 -0.0018497109 -0.06833567 -0.052869402 -0.017834496 0.025145985 -0.081423625 -0.07023248 0.046658054 0.015589468 0.05340715 -0.094436154 0.111129045 -0.03260123 0.08945976 -0.020569012 0.04921032 0.028019043 0.04992957 -0.010294471 0.03621975 -0.018444233 -0.07000004 0.011961035 -0.054703973 -0.0038905907 -0.15160723 0.032997943
58 -0.03657192 0.09087078 -0.042163827 0.02090585 -0.009227067 -0.12270367 -0.010238446 -0.13715571 0.11036108 -0.033405572 0.027566765 -0.031627733 0.050024755 0.00050232187 0.08310509 0.03490485 0.108974196 -0.028031036 0.04422117 -0.07767357 0.032609336 -0.1049324 -0.040899243 -0.0014749104 -0.08366347 0.072676465 0.024870396 -0.088297814 0.03773679 0.08867673 -0.059439808 -0.027672842 -0.028066773 -0.027747497 0.09164548 0.035880573 -0.08336715 0.026042495 0.041478097 0.01634394 0.04465952 0.01871862 0.029681724 -0.059033006 0.018553456 -0.061121713 0.028301846 -0.0037948862 -0.067264386 -0.054266687 -0.019746542 0.023625867 -0.0797919 -0.068159394 0.045293156 0.017515313 0.05422767 -0.092485905 0.106089875 -0.038678613 0.08958788 -0.021484226 0.051518206 0.030807724 0.05078477 -0.00999289 0.04044597 -0.026188884 -0.07293864 0.014000291 -0.057509787 -0.004733745 -0.15403876 0.030794382
59 -0.035015233 0.087696575 -0.038841203 0.020492464 -0.0053645563 -0.12226129 -0.009955661 -0.14172612 0.114088245 -0.02749585 0.027869362 -0.031620882 0.046201706 -0.001858565 0.087756336 0.030611902 0.107583195 -0.027835947 0.04781047 -0.07889283 0.035338324 -0.10382599 -0.039985456 -0.0024257265 -0.08197641 0.070691586 0.028382257 -0.09265026 0.030582547 0.08790757 -0.05713924 -0.026548296 -0.0274659 -0.025566429 0.08940227 0.037981648 -0.07859698 0.023188591 0.041443646 0.018338827 0.046713654 0.02206353 0.026764492 -0.05874292 0.01882289 -0.054971926 0.024844177 -0.0007010624 -0.069281965 -0.051104 -0.019694857 0.0201035 -0.0799743 -0.06599912 0.04351537 0.017777877 0.05415763 -0.09468835 0.106022626 -0.036537107 0.092279255 -0.019125815 0.04959886 0.03068785 0.051729515 -0.01284872 0.037766393 -0.023947425 -0.07170965 0.0139294285 -0.056330044 -0.0013217404 -0.15297318 0.03515166
60 -0.033984818 0.085989155 -0.033047475 0.017673647 -0.0016187578 -0.12411441 -0.0067438222 -0.1484246 0.11583052 -0.021915235 0.028005261 -0.028662464 0.040883616 -0.0053625144 0.092238836 0.027331978 0.10783859 -0.028020008 0.050354633 -0.07763992 0.03948667 -0.1023213 -0.041910417 -0.0033907983 -0.07809736 0.06721246 0.033302158 -0.095956385 0.022209674 0.08666034 -0.05756651 -0.025641123 -0.02737314 -0.019973543 0.085063666 0.037158944 -0.07435921 0.01665815 0.043876704 0.019763362 0.0484954 0.025916446 0.023183525 -0.054036234 0.01705322 -0.050355032 0.018344693 0.005141422 -0.07392497 -0.048263058 -0.019519873 0.016178563 -0.07807676 -0.06594997 0.042354472 0.01723469 0.05045977 -0.09622279 0.10802672 -0.034447446 0.09362551 -0.015956689 0.04458764 0.029779905 0.052612584 -0.01657121 0.033058114 -0.018897068 -0.071176864 0.012990805 -0.053867098 0.0026112217 -0.15224694 0.0395127
61 -0.03584527 0.08454716 -0.03718818 0.019543912 -0.0029966123 -0.11922784 -0.010397019 -0.1435217 0.11608396 -0.023342185 0.029179327 -0.031876896 0.04563523 -0.0026727505 0.08928411 0.024654921 0.10584125 -0.024875455 0.05000658 -0.08075696 0.03511017 -0.10101294 -0.038620017 -0.0014857585 -0.080729105 0.07266808 0.028684407 -0.09321158 0.025696084 0.090694144 -0.054214 -0.022290988 -0.030035155 -0.028051786 0.08968226 0.038034074 -0.07565821 0.022506416 0.042518392 0.018504865 0.049049277 0.02525939 0.024824262 -0.05889099 0.015097341 -0.049438108 0.0241047 0.0047006905 -0.072663836 -0.04960009 -0.02110381 0.013188098 -0.07615784 -0.06277196 0.041335177 0.020202745 0.053020123 -0.09447408 0.10250945 -0.03986671 0.09593184 -0.015431561 0.04826517 0.032272767 0.054020748 -0.015551679 0.036168616 -0.02652894 -0.074034214 0.014413568 -0.05600503 0.0009774901 -0.15495303 0.03886389
62 -0.036836743 0.09542234 -0.04417431 0.02193979 -0.012782425 -0.124271356 -0.011694819 -0.13186401 0.10934797 -0.039679673 0.027760677 -0.03152196 0.053441085 0.002630258 0.07816091 0.039835356 0.11129088 -0.026216205 0.041748594 -0.07634936 0.02953146 -0.10550424 -0.043657206 -0.0017910432 -0.08325922 0.07542646 0.023017086 -0.08447641 0.043834537 0.089306004 -0.06178216 -0.028671233 -0.027871937 -0.030689482 0.09286362 0.0336883 -0.089014694 0.02598646 0.04237158 0.01403911 0.043881975 0.015418865 0.033213727 -0.059029497 0.018461535 -0.066783905 0.031613797 -0.0064538494 -0.06723592 -0.056152526 -0.020703046 0.02598703 -0.08034854 -0.06925412 0.044883847 0.017435044 0.05264733 -0.090873204 0.10572512 -0.04008337 0.085551284 -0.024498347 0.051983535 0.032093287 0.049172867 -0.008854773 0.044393055 -0.029832494 -0.07340789 0.013780479 -0.057940867 -0.006629415 -0.15383455 0.026787914
63 -0.03631663 0.08913352 -0.04109592 0.020958206 -0.007583365 -0.12080145 -0.011577642 -0.13740897 0.11301759 -0.03097044 0.028458774 -0.032464728 0.04981994 0.00025402382 0.083832145 0.03139072 0.10795153 -0.025419027 0.04602755 -0.07909478 0.03200514 -0.10272524 -0.040279523 -0.0013641417 -0.08238919 0.074620344 0.025548138 -0.088948876 0.034851313 0.0904718 -0.0571625 -0.02484756 -0.029213019 -0.030122869 0.09168665 0.03637458 -0.08171931 0.025201786 0.042027164 0.016562432 0.04667107 0.02052798 0.028699663 -0.059716836 0.01684056 -0.057164572 0.02844666 -0.0009073913 -0.069489494 -0.05270169 -0.021145385 0.019028477 -0.07835497 -0.06539028 0.04287323 0.019138373 0.05348908 -0.09283711 0.10337653 -0.040552557 0.09154898 -0.019814048 0.050615933 0.0324959 0.052007683 -0.0122265145 0.040468402 -0.028815504 -0.07376516 0.014612871 -0.057339855 -0.0026850328 -0.1546317 0.0331889
64 -0.03638059 0.08525579 -0.03811097 0.01928369 -0.004326189 -0.12020837 -0.008997798 -0.14351243 0.113394216 -0.02519517 0.028283 -0.03124509 0.045858055 -0.0022573099 0.08884236 0.027027283 0.10631185 -0.027123945 0.048143763 -0.07949489 0.03535544 -0.10271963 -0.038571816 -0.0009663837 -0.08211426 0.07140253 0.027790586 -0.09215983 0.02816291 0.08983319 -0.05593204 -0.024137294 -0.0295095 -0.026195958 0.08997053 0.03747813 -0.076543555 0.023352988 0.04223544 0.018379547 0.04726447 0.023847997 0.025379434 -0.058263462 0.015851706 -0.052613728 0.024044676 0.0030799694 -0.07092618 -0.05127962 -0.020005906 0.01629919 -0.076728754 -0.065056786 0.043561168 0.01937966 0.05362532 -0.093952484 0.10449246 -0.03887823 0.0948977 -0.016416721 0.0491858 0.03080194 0.053378846 -0.01338087 0.035761416 -0.024280503 -0.07373847 0.01403377 -0.05607366 -0.0010945946 -0.15499276 0.037215285
65 -0.03683674 0.09542234 -0.04417431 0.021939788 -0.012782432 -0.124271356 -0.011694815 -0.13186401 0.10934797 -0.039679673 0.027760675 -0.031521965 0.053441085 0.002630256 0.07816092 0.039835364 0.11129087 -0.026216205 0.0417486 -0.07634937 0.029531457 -0.10550423 -0.04365721 -0.0017910432 -0.083259225 0.07542646 0.023017094 -0.084476404 0.043834537 0.089306 -0.061782166 -0.028671233 -0.027871935 -0.030689485 0.09286361 0.0336883 -0.0890147 0.025986448 0.042371582 0.014039112 0.043881968 0.015418857 0.033213727 -0.059029482 0.018461537 -0.06678392 0.03161381 -0.0064538456 -0.0672359 -0.05615253 -0.020703046 0.025987027 -0.080348544 -0.069254115 0.044883847 0.017435044 0.052647322 -0.0908732 0.10572511 -0.040083364 0.085551284 -0.024498357 0.051983528 0.032093287 0.049172863 -0.008854765 0.044393055 -0.02983249 -0.073407896 0.01378048 -0.057940867 -0.0066294055 -0.15383455 0.026787914
66 -0.03651448 0.091987565 -0.042681143 0.02133435 -0.009692006 -0.12209922 -0.011912023 -0.13455334 0.111448854 -0.034674816 0.028314065 -0.032150336 0.05161718 0.0014824569 0.08089429 0.034754314 0.10935964 -0.025597353 0.044243753 -0.078145884 0.030714713 -0.10344268 -0.041704837 -0.0014677267 -0.08259486 0.07546042 0.024217866 -0.086894825 0.038984105 0.09016925 -0.058971666 -0.026211962 -0.028768092 -0.030954625 0.092206836 0.035080723 -0.08508979 0.026014078 0.042022604 0.0153422 0.045606323 0.018334642 0.030608878 -0.059625193 0.017363649 -0.0609694 0.030229054 -0.0035086423 -0.06852612 -0.054056913 -0.021116871 0.02180463 -0.07905059 -0.06678115 0.04350221 0.018471733 0.053173937 -0.09194808 0.10387213 -0.040866736 0.08906477 -0.02179043 0.05122041 0.032553416 0.050900646 -0.011061251 0.042398997 -0.029851267 -0.07394371 0.014522333 -0.057946976 -0.0040624216 -0.15450445 0.030427389
67 -0.037838016 0.09658386 -0.050463606 0.025849098 -0.0185446 -0.13067964 -0.00638929 -0.1372839 0.10120219 -0.04591783 0.023014195 -0.031364456 0.052756734 0.0036504976 0.083773844 0.052449938 0.11202075 -0.04058317 0.036160868 -0.07470633 0.032601103 -0.1216008 -0.039271615 -0.0011263983 -0.09649919 0.06394941 0.019697353 -0.086792886 0.05246459 0.08178061 -0.06818403 -0.042693242 -0.020934287 -0.018929504 0.0969726 0.038937252 -0.08939409 0.031749737 0.037292793 0.016881406 0.034334656 0.009548642 0.0371935 -0.06269092 0.029729411 -0.082261585 0.030623496 -0.01870387 -0.05435708 -0.06399837 -0.013478777 0.046329036 -0.09069973 -0.08086942 0.058090877 0.012491813 0.06306818 -0.09184404 0.11883147 -0.027188255 0.0825729 -0.030859675 0.0618671 0.022460613 0.04422495 0.00539203 0.041905176 -0.014989838 -0.06793989 0.010492874 -0.057195745 -0.019136172 -0.1516858 0.019926291
68 -0.038237248 0.09258827 -0.04553942 0.022361593 -0.0122447945 -0.12021059 -0.013252584 -0.13070785 0.10982714 -0.038255014 0.028619714 -0.03317671 0.0551768 0.0036435015 0.077923566 0.03558696 0.109142885 -0.024090342 0.042358056 -0.07860017 0.027434219 -0.104081035 -0.04067669 3.054831e-05 -0.08451402 0.07876532 0.020703442 -0.083334886 0.04334018 0.09261026 -0.058730375 -0.025316324 -0.03025337 -0.035398882 0.09538859 0.034352686 -0.087798044 0.028802622 0.04192314 0.01366302 0.04483284 0.016423441 0.032895163 -0.061630994 0.015724402 -0.063880324 0.033982847 -0.0041503794 -0.06779446 -0.056527745 -0.021644259 0.021495715 -0.07753007 -0.066441454 0.04396505 0.020296305 0.05391433 -0.08989297 0.10166291 -0.043882467 0.08878337 -0.022347901 0.05363423 0.03348474 0.0509999 -0.008983672 0.04462766 -0.033957858 -0.07589079 0.014583787 -0.058785938 -0.0069342703 -0.15623505 0.02844499
69 -0.03689055 0.09424321 -0.043629445 0.021497123 -0.012268782 -0.124854326 -0.010001287 -0.13453887 0.10827407 -0.03832449 0.027010713 -0.031000804 0.051801868 0.0016209669 0.08043943 0.039918337 0.1108737 -0.028674748 0.04175989 -0.07589519 0.031468242 -0.106986105 -0.04281383 -0.0017938956 -0.084333375 0.072604805 0.023695 -0.085931756 0.042503707 0.08780486 -0.06221821 -0.03011844 -0.02717328 -0.02744206 0.09228556 0.03451818 -0.08721467 0.026015632 0.041814838 0.015072431 0.04294582 0.015848037 0.032238197 -0.05843735 0.019652598 -0.06685866 0.029641228 -0.0067036636 -0.065974556 -0.056336466 -0.019319614 0.027775913 -0.08108221 -0.07061738 0.0466804 0.016479723 0.053722702 -0.091433115 0.10794784 -0.03787599 0.08612969 -0.024150858 0.052274946 0.030329976 0.04907907 -0.0078019984 0.04238596 -0.026120182 -0.0723964 0.013261449 -0.05749776 -0.007274762 -0.15337163 0.027209774
70 -0.03820172 0.096158795 -0.047930907 0.023064364 -0.014613736 -0.12172234 -0.014168877 -0.12691908 0.10823802 -0.042512182 0.028447142 -0.033184286 0.05739771 0.00520062 0.07425741 0.039672323 0.11062938 -0.024480037 0.04051817 -0.07783492 0.025985908 -0.10482076 -0.04211755 -0.00024341792 -0.08491777 0.07969019 0.01896634 -0.0813109 0.048480183 0.0918789 -0.060608894 -0.027166832 -0.029413639 -0.03665716 0.09605828 0.033176467 -0.09183798 0.03046277 0.041424353 0.012381373 0.043543797 0.013732526 0.035202265 -0.062168717 0.017040895 -0.06815736 0.03649281 -0.008307495 -0.06603235 -0.057805166 -0.021562953 0.025399983 -0.07899993 -0.06785005 0.044638723 0.019193873 0.0540754 -0.089123875 0.10215639 -0.04411094 0.08579413 -0.025011994 0.054758012 0.033628028 0.049556136 -0.0076200226 0.04729682 -0.035404507 -0.07586192 0.014817031 -0.059950277 -0.008289564 -0.15593089 0.024921762
71 -0.040777408 0.096715756 -0.056299724 0.02584562 -0.019262806 -0.11867785 -0.016251802 -0.120351054 0.102658264 -0.048044458 0.02780139 -0.03652219 0.06356582 0.008641908 0.06989435 0.043146975 0.10928227 -0.027793974 0.036868125 -0.07965607 0.02286493 -0.1080482 -0.037694924 0.0012755394 -0.09219765 0.08071353 0.011552878 -0.07834318 0.05882057 0.09148252 -0.060013145 -0.02983756 -0.029689953 -0.040972307 0.10168472 0.03518341 -0.095668994 0.04267104 0.036211394 0.011258431 0.03951657 0.009207964 0.03859633 -0.068185054 0.020631231 -0.07388885 0.0435047 -0.01747109 -0.056591798 -0.06214476 -0.019523732 0.03366712 -0.08129196 -0.06958602 0.04932823 0.018129257 0.061667442 -0.08680116 0.1012529 -0.045510624 0.085249454 -0.028127676 0.06255064 0.03238339 0.048689973 -0.00110674 0.0508963 -0.03832773 -0.07634282 0.015549384 -0.06389239 -0.014640518 -0.15689737 0.018833442
72 -0.036640637 0.09257648 -0.042587787 0.02156687 -0.010687619 -0.1229859 -0.011352658 -0.134722 0.110909216 -0.035993636 0.027899627 -0.031831924 0.051644206 0.0014006943 0.081101626 0.036495946 0.10989013 -0.026044084 0.043522373 -0.077286325 0.030823395 -0.104805715 -0.04223931 -0.0016905572 -0.08306002 0.07457405 0.024349172 -0.08652534 0.039711803 0.08960065 -0.059987098 -0.027322255 -0.028310502 -0.029842282 0.092345335 0.034980766 -0.085652016 0.025162332 0.04238112 0.015258187 0.04493744 0.017602019 0.031314306 -0.05911403 0.01794654 -0.063007385 0.029825807 -0.003857443 -0.068194695 -0.054807737 -0.020726133 0.023230676 -0.0796614 -0.0678785 0.04426546 0.018096475 0.05295949 -0.09175962 0.10524863 -0.039753728 0.088021 -0.022532282 0.051381275 0.03202847 0.050271157 -0.010005362 0.042463362 -0.028781869 -0.07321928 0.013861842 -0.057325102 -0.005268771 -0.15395416 0.029537052
73 -0.039016046 0.092192516 -0.047646146 0.022841673 -0.012592338 -0.116538584 -0.01653016 -0.12599245 0.11090848 -0.03922668 0.02984726 -0.035358198 0.058898933 0.00625547 0.07403529 0.0328217 0.10814594 -0.019748673 0.041907545 -0.08047617 0.023106545 -0.100036256 -0.039744407 0.0017093467 -0.084046505 0.08518413 0.017947212 -0.08001885 0.045996845 0.097133674 -0.056341738 -0.020641567 -0.033002444 -0.04262341 0.09783702 0.03321005 -0.08914499 0.03131818 0.04252085 0.012397248 0.04653701 0.016464762 0.03354398 -0.06381482 0.012393928 -0.061923474 0.038587824 -0.0025177002 -0.069312036 -0.056554735 -0.024747347 0.016293777 -0.074997164 -0.06311968 0.041035358 0.023128346 0.053092897 -0.0886119 0.09587985 -0.05043102 0.090349875 -0.02175887 0.05428128 0.03702371 0.05267243 -0.010392588 0.04764327 -0.041591004 -0.07896243 0.016869284 -0.060400948 -0.0060207024 -0.15890546 0.028677203
